-6.138286603490592519e-01
-4.669542305491705125e-01
5.482426380877483130e-01
6.118738000958390266e-02
-3.274718452684635128e-01
9.733131683231293074e-01
-5.935427420343037941e-01
-6.549757303970478173e-01
4.919779408275353205e-01
9.983924143543285723e-01
-6.546599093563798544e-01
-6.941899554661588034e-01
-6.954475518596898720e-01
-7.173404461860983794e-01
7.601062340735675882e-02
-4.584114003015096195e-01
-5.123820059257335746e-01
-9.925238586217801640e-01
-8.149344365822923653e-01
9.967003707097692455e-01
3.943652891600921695e-01
-9.604265053244971373e-01
9.754809947899176770e-01
-4.404887872975040697e-01
7.685358520609935074e-01
8.846246555176833226e-01
-1.055567266179742170e-01
-8.274586990233734340e-01
-3.147965881835450563e-01
8.342845130546456822e-01
-7.476110091956549297e-01
-3.235271232821628207e-01
-9.168531985474446255e-01
4.925210309115410912e-01
-1.869800434618098528e-01
4.138152692495222773e-02
-4.101254756789114442e-01
-3.810671381416954606e-01
9.969296320756275698e-01
-5.591151854009144273e-01
-1.183966647989949106e-01
-8.464362410667984893e-01
5.867131162614183104e-01
8.247727395484867330e-01
-3.234146145386247451e-01
-5.737689407282609011e-01
5.671943866175657156e-01
-1.427469519123585329e-01
7.803254876837146803e-01
-3.150156763078795219e-01
-6.045966361414165657e-01
-5.315187086669594940e-01
-8.862119312444149966e-01
8.370792377945921459e-01
-7.611368180476705270e-01
4.624978737272198437e-01
2.884114792594922871e-01
-4.623198740713532207e-01
2.910778272494920493e-01
-7.368141325311419187e-01
1.055509922115935861e-01
4.741486450579279754e-01
8.103363930350486743e-01
6.891590791368242819e-01
-2.310672601960073180e-02
4.653276514305531020e-01
-1.899084421580099491e-01
-5.431575208698649071e-01
-1.394692124672456401e-01
3.804383666008612774e-01
9.287346101789684116e-01
5.923868359256183602e-01
1.792310101281353596e-01
-8.463081551013458270e-01
6.961345839557622206e-01
2.624280910215082141e-01
1.243106660625667992e-01
1.669400837474235288e-01
9.018118190615602714e-01
5.125513798943739374e-01
-2.930264922010048512e-01
2.338895394666538063e-01
8.861704130295804394e-01
2.099230004619163648e-01
-8.169058285190693436e-01
-2.684538683340063070e-01
8.137891671589205789e-01
-2.828934759560184364e-01
-2.737110846874730719e-01
-9.489550721329593763e-01
-8.412843115543948702e-01
6.616711917981483726e-01
-5.554997150421889796e-01
-1.263625305995945691e-01
-1.548003787834244527e-01
-5.273646944376852996e-01
7.009599549030949284e-01
9.524624267769685737e-01
-8.953975285087436564e-01
-4.394425761854907631e-01
-8.859429856981966278e-01
-7.751924982718949586e-01
-5.399146044350295881e-01
1.722779235004141540e-01
6.494342319142281106e-01
-6.715602886303060348e-01
-9.174546708282766971e-01
-8.881405983688364092e-01
2.921265468101763574e-02
1.918859603306224404e-01
-4.000726248513040151e-01
2.081424702706571317e-01
-7.957599679742550780e-01
-9.640042404986994828e-01
-8.631579771724451344e-01
-9.238772702216513366e-01
7.582472374289022099e-01
5.160597846084113982e-02
-3.362331727091949496e-01
-6.312486550270826058e-01
2.508214509058714903e-01
-2.279477865596333253e-01
-4.871027207026528139e-01
-9.961076276191669354e-01
-2.781216715001688655e-02
-5.114577420767061344e-01
-4.139330163193191137e-01
6.182901904694513284e-01
8.252366984238925784e-01
-7.492619722781266312e-01
9.248973261665396350e-01
7.885730162107766894e-01
2.799193741784813394e-01
-3.147613394779158469e-01
8.293040503816180298e-01
4.361947106154357989e-01
4.277158732355370585e-01
-2.887488580529646853e-01
-5.033507068541298590e-01
6.501379762687373720e-01
-8.815808205449784385e-01
-8.011330145399035985e-01
-2.679712295103908737e-01
3.131198691998733352e-01
-7.314942450675008256e-01
-2.233717727213959670e-01
-1.534964370331131089e-01
-8.917690060290468512e-01
-8.312825442849691715e-01
9.275237688270299152e-01
2.631125339105915284e-01
1.904416754537319179e-01
4.316800569331746829e-01
6.579770395676953765e-01
2.644661295041204063e-01
8.412834069219521371e-01
2.118028956682413977e-01
4.938110479806843145e-01
6.412311857603578691e-01
-3.779269899163624213e-01
2.115139881879062322e-01
6.340088267109911246e-01
4.412079927226517650e-01
8.604823791784861342e-01
-4.567380480864602355e-02
6.458773130074950686e-01
-3.893542016753497315e-01
7.575696946452878944e-01
-8.842450959227863283e-01
-1.263758083045096736e-01
-2.681405822253313254e-01
8.324229957859519136e-01
4.367704045712750283e-01
3.813007900410700923e-01
-1.472546874376732262e-01
-3.071198678397129012e-01
1.114607161145819703e-01
4.111263368884561231e-01
-7.107723968980865781e-01
-2.961826366545101674e-01
-9.873032158952954607e-01
8.338420801708379404e-01
3.029027783620996672e-02
-9.303861618964854863e-01
7.480256969327925276e-02
6.933083981127252660e-01
-8.188012591011861740e-01
5.233296776226432634e-01
-8.091772485838812923e-01
2.012703703996510107e-02
-6.269394345908341215e-02
2.249216790326462601e-01
-8.991431272412420128e-02
-1.245909623076941752e-01
-1.478624604352622995e-01
5.032720838154873810e-01
3.570305508285700480e-01
-9.481796609057588920e-01
1.369749140309923785e-01
3.176643678185522290e-01
6.362232756592762772e-01
-9.367878638375766176e-01
-2.455247770623891768e-03
3.911916666232329032e-01
-3.027307211581728996e-01
-4.536858754025887563e-01
-8.492264724447255997e-01
3.879963407623865379e-03
3.100993875474655770e-01
-7.962805432671293815e-02
-1.496636894529264072e-01
-3.773491886482709390e-01
2.261014033155983594e-01
9.175557652670960351e-01
-2.852997372929122477e-02
3.897574384575941409e-02
2.057673616868402888e-01
-4.379014807097107997e-01
4.540851036988522438e-01
5.934640606584762335e-01
2.392110088605492457e-02
-6.469960984664031578e-01
-9.125299814354692618e-01
-7.625790693504821416e-01
-8.552574828439696297e-01
-2.167243320380709548e-01
4.716990433028056540e-01
-8.993424981552473607e-01
-9.969461848065217513e-01
5.535371260944281779e-01
-1.442966095414313088e-01
3.157888465320948246e-01
-3.307165280025103904e-01
-1.337685099598187044e-01
-6.564628495682103271e-01
-6.049528597673534680e-01
-6.286741178111348027e-01
1.042933916473318678e-01
-1.363886667398941377e-01
-2.152919817128173818e-01
-7.149612677405878802e-01
3.346779506356389877e-01
-4.548994919560560568e-01
3.366181211597634171e-01
4.776711986068569171e-01
-9.531539347335762358e-01
-2.712261656282355382e-02
-2.805863026077353162e-01
2.124914767822250194e-01
-2.494527740662566551e-01
3.414479034833985960e-01
-9.678240424253465868e-01
7.279447331622008743e-01
-1.936800843682662254e-02
-1.507333330018927331e-01
-7.535257387040048549e-01
-3.326472686032773129e-01
9.686260521079264052e-01
-7.523130205238324208e-01
-7.965664414233970536e-01
-5.823725525669070091e-01
2.533707269201803669e-01
4.691085773304124462e-01
3.698091327471488832e-01
-1.736432785794619349e-01
-4.404692527369380439e-01
6.846389786494879726e-01
-9.311550412280917843e-01
-2.537826519881940524e-01
4.004726141720471588e-02
3.656129262200153995e-01
-9.019604939631573615e-01
-3.640781170589677540e-01
-7.782178760591469402e-01
-8.390922714078934419e-01
-9.199288789209647543e-01
-4.217865012090613597e-01
1.485182772777575710e-01
-7.064332283609671137e-01
3.587214868252683875e-01
6.478136744014761916e-04
7.240668765890312386e-02
1.750053557976860574e-01
-6.998450939511140501e-01
-8.706040829123662395e-01
-7.830048415996433420e-01
9.773459105535202696e-01
-9.031303068085452246e-01
7.667640153493511246e-01
-2.974286136042210149e-01
6.495438614537931699e-01
-5.566687804835561693e-01
1.618390381693113333e-01
2.256204601918176955e-02
9.369022832855167238e-02
5.439075451471528933e-01
-4.526263428127852428e-02
6.087505350134381210e-01
-3.615232416437492713e-01
-3.832131120462818341e-01
2.369269742540893731e-01
-1.268232903350405838e-01
9.373487981986190487e-01
-9.057643413157290269e-01
-4.356750903353614479e-01
-6.346211114644697560e-01
-3.378891791213067819e-02
-6.966306136401054783e-01
-8.044849370640736463e-01
-8.101055581422746954e-01
-7.211897323262612680e-01
4.626542602793337622e-01
5.592433583410754139e-01
6.974367007237829430e-01
7.163833566337407532e-02
2.302929814678085219e-01
-7.526145310546861200e-01
3.913575239769040426e-01
-3.881617085388537891e-01
-5.215792743651124219e-01
3.719505279309489598e-01
7.527625631803018802e-01
-8.850811029155258858e-01
-5.481845069789264002e-01
2.391826813512998307e-01
9.126828314070252191e-01
9.976286174183439659e-01
6.649675098789560312e-01
3.200130650630983453e-01
-9.881721176639968185e-02
-4.688005966260222479e-01
-6.698080029677182523e-01
3.260849494043687180e-01
-9.693895600611135421e-02
3.102561318991579054e-01
-8.729157713124391371e-02
5.968049401701975842e-01
5.368950393831066759e-01
4.798332735137409433e-01
8.464116118006135281e-01
5.217724928520794947e-03
-4.070366119380934844e-01
-5.628857653100682867e-02
7.826940119647611827e-01
-9.541178961043674800e-01
-7.486161093802792266e-01
1.661894406707953298e-01
-4.350337582383656532e-01
-9.109061097014259367e-01
-5.032439830222716903e-01
2.312492261645708869e-01
-6.145317442212980819e-01
-4.594551723176925062e-01
-8.276572747512254136e-01
5.079054004029222025e-01
2.586541921203180383e-01
1.755904391095792771e-01
9.048224600332557266e-01
-7.275281657187027129e-01
-4.457849439293617433e-01
9.438276018131155354e-01
-4.411660047189411848e-01
-2.444581132788352651e-01
8.114540379337893405e-01
4.143546464146852237e-02
-4.500636062359431033e-01
8.590659448756197136e-01
7.638606863108998724e-01
2.181446064189911382e-01
-6.191854261157698769e-01
3.902244903285190247e-01
5.740780056206180593e-01
9.215089332846064796e-01
-3.148971982427226646e-01
-9.737238547400062227e-01
9.608995704055236509e-01
-1.327813878438752759e-01
-5.150724844411846970e-01
-8.453517334867817201e-01
-7.576312931963982145e-01
6.667093470773743924e-01
4.986853219456361952e-01
3.239687955806882513e-01
-8.991184369097915408e-01
8.140223548572416146e-01
8.330487964186805705e-01
-1.710861517551487410e-01
8.113893122707007688e-01
9.461349099400446772e-01
-1.010319150770633279e-01
2.182469993224573912e-01
2.822962220470963679e-01
5.929869248144965521e-01
4.490725535574773275e-01
3.399754293078425249e-01
4.013122745119370727e-01
-6.894363086719756950e-01
-7.517752410752143177e-01
5.160783986371431098e-02
4.766240683311782078e-01
5.884831705078548136e-01
3.993873112250982960e-01
-9.254883954946202529e-01
-2.187694695935173961e-01
5.492911414178289764e-01
9.982516235678147165e-01
-4.787581477658542362e-02
-3.542149750588736712e-01
-6.966461874099878493e-01
2.443878003055461878e-01
8.563500546992557361e-01
-8.314013065102860978e-01
3.784420179598610989e-01
3.926001827366365493e-01
8.435014325987062467e-01
-2.769248128488215333e-01
8.808868022206906012e-01
-2.536598036705608461e-01
7.855009879677941065e-01
-8.401743570347623979e-01
-7.261278653207057232e-01
5.854348040197054903e-01
8.517799026492585135e-01
2.427471831515470857e-01
-1.412120226976087967e-01
-2.158377319474324985e-02
-6.311999995407546749e-02
-1.528639693832525293e-01
-1.336690282250718731e-02
5.425668603509914423e-01
-6.890453306175776671e-01
-8.007453332218672504e-01
-2.756643871830761761e-01
-5.258791778484284141e-01
2.118269656019102776e-01
-5.145760281596301056e-03
-9.287433136863323391e-01
-6.059172610180787455e-01
4.346393248357132144e-01
4.974900598745799485e-01
-9.016020088406841992e-01
-3.625201044218275825e-01
6.770963764565209875e-01
5.841406864280962452e-02
-9.790870328497403019e-01
-1.423556782639003870e-01
-2.557728433136039481e-01
4.899784918891920693e-01
-2.576799250127872476e-01
5.586775370669612162e-01
-1.873911638933913881e-01
-6.819604772280483118e-01
-1.757699735029856214e-01
7.369640699999122635e-01
1.026507023561231691e-01
-8.085409537335319641e-02
-5.851465634452956976e-02
-4.263373143153370570e-01
6.784599414368241987e-01
6.861871011397886466e-01
-9.916073436958421361e-01
-6.584527501843662201e-01
-6.233390807288645696e-01
1.298655148976675111e-01
-3.749743706831032419e-02
8.829717574678002112e-01
-3.548393259368454178e-01
-5.372002214620708038e-01
-3.796937530601613986e-01
-2.505528022904721652e-01
3.752402250712216780e-01
9.262691453096736360e-01
5.754957077028255430e-01
9.896451624505151479e-01
-7.607352109241829474e-01
2.498099891861482735e-01
-4.914768205740580598e-01
9.550707556454440805e-02
8.127296372422005977e-01
-6.824534929141410355e-01
-9.856117665174242148e-01
-6.136867463389816812e-01
7.950815404458624336e-01
1.407009626143465031e-01
-1.331941178254043567e-01
-1.886671410899904977e-01
-2.578916973405271928e-01
2.249146295222441694e-01
4.213334483172255229e-01
-1.526043465018496192e-01
-5.277300668016968732e-01
-1.369214033005992093e-01
1.354628848179335598e-01
-6.477996702780328686e-01
-3.659030713819984015e-01
-1.359205501816604933e-01
-9.690714334622647641e-01
4.230144549744245808e-01
-5.475205282380610772e-01
6.045473402219254666e-01
-2.522814499259822263e-01
3.202054871596613506e-01
5.950400239300059901e-01
6.601775116864769810e-01
5.703117151800327633e-01
-4.555214756591072778e-01
8.344861350200720729e-01
6.946208773628748112e-01
3.837316283667586703e-01
4.731839549634797581e-01
1.197950310882112124e-01
-6.681693107446862179e-01
3.795085414132766122e-01
3.620505362870520827e-01
6.272316125941328480e-01
-6.981696364954863565e-01
-3.620066178012624203e-01
-1.560585799642215665e-01
-1.808520025672888387e-02
3.998110448842238096e-01
1.983983933015902590e-01
-2.323170088323300853e-02
-6.549809581391752289e-02
-4.997996465510323727e-01
-5.530082726435425755e-01
4.693841737793431612e-01
-7.615965824542314522e-01
3.915204793085993451e-01
-1.255388449414398533e-01
4.525953766017591917e-01
1.842662934145695708e-01
4.755843512903952242e-01
8.560236501453835078e-01
-9.408380684138932804e-01
5.117831727278043807e-01
-2.227220432954772900e-01
-4.725937632438435010e-01
-3.065771082340442710e-01
6.386097734257973890e-01
-9.055435180191087063e-01
5.770273574940263384e-01
-5.145437808975361627e-02
1.538220980346731714e-01
-1.669894785031238449e-01
-6.088274834819513703e-01
8.683993933038052226e-01
-8.726083801568311760e-01
5.804232189600393443e-01
8.321628812067822789e-01
7.872533048780858689e-01
1.190827591514831418e-02
-4.482495767956118371e-01
-5.347235401089489581e-01
-3.153948903468335452e-01
-9.923395302088224845e-01
6.000265858432798360e-01
-1.785873645541165011e-01
5.460256904844074111e-01
-2.243414373814511809e-01
-7.487354639454117944e-01
-7.178833492759251200e-02
3.460444129395408019e-01
-6.447500532920731331e-01
9.485274951479953920e-01
2.960901375152111825e-01
-7.485424345367908128e-01
9.501495515894149424e-01
-8.621557657041205580e-01
-7.341383072174472169e-01
4.339323956132421500e-01
-2.920893896617062779e-01
-7.290237023871630750e-01
-6.148974476622188767e-01
6.268603916903172646e-01
-9.516961019175851355e-01
-3.259991376599633561e-01
-2.964399231965717529e-01
-6.423050245877770514e-01
1.395653027046617201e-01
8.760316428267809208e-01
5.523921573254735318e-01
7.861739364874997804e-03
-4.378213524067051665e-01
-2.850630664712558993e-01
5.414501843558185978e-01
-7.093568835438173181e-01
9.303416184224821972e-01
9.754247816733097043e-01
-1.901665221191992661e-01
-5.056158068582374820e-01
-2.732026232397413157e-01
-7.464231716514346804e-01
-7.929577354437431502e-01
-9.179668588540024210e-02
2.442812935345877179e-01
3.697085995071116571e-01
-4.446457752296444355e-01
-5.991995850218738706e-01
-3.159704969728203139e-01
1.649437732787601973e-01
-6.320526673117394800e-01
-9.781015325931416982e-01
1.918047859550238154e-01
2.162802278424820202e-01
7.497923194994464691e-01
5.691949987903557329e-01
-2.825577760301347663e-01
2.092835478165395724e-01
9.914578823450035383e-01
6.050569190320358448e-01
-8.354229957023455722e-01
-5.478002478257291141e-01
-9.890745148893598238e-01
7.936728231348573193e-01
3.992931942680397750e-01
-2.695037417965244764e-01
7.022084653571565305e-01
-4.934166025629860286e-02
-5.073402372523754256e-01
-3.667829257348387273e-01
7.791583558720311942e-01
-3.066783580332166359e-01
-3.505982902483615327e-01
-2.100198476414145698e-01
3.213282718465981791e-01
3.497745642811571631e-01
5.820934607218486434e-02
3.300622928829977099e-01
-6.868940962914160675e-01
-5.741525727664054113e-01
-2.756051979909222016e-01
-1.570353324581521548e-01
-9.949464946488495443e-02
3.204839513960122677e-01
5.156113486544382507e-01
6.064092405822096854e-01
-4.429861529691350164e-01
-1.882273286996665185e-01
-3.636064712268129995e-01
1.342353428590501441e-01
-1.981840206772116364e-01
-7.815629933568422061e-01
-6.703254770914335303e-01
-9.285003220583150085e-01
-8.148409385452870524e-02
8.092320852859096192e-01
-1.714725845912594693e-01
4.252945173756228492e-02
-7.914295017654306985e-01
-6.102250367024129041e-01
1.102950533164115399e-03
6.363086876824162186e-01
-5.668104071959056967e-03
-6.018394867125362868e-01
-5.398915686256318125e-01
-3.252483653496638372e-01
-7.399421142035063070e-01
-4.779277628105169651e-01
4.554975257005871025e-01
-3.143888035753237276e-01
-2.041355973730569762e-01
-6.039884218378928082e-01
1.095628753637154507e-01
4.465054555814211845e-01
-9.955536030750791188e-01
3.619709791730285620e-01
3.080903600182023361e-01
-8.958274087925710560e-02
-3.750443253383908271e-01
-8.493478039193682605e-01
-2.235749640722521914e-01
4.354186044986483317e-01
-9.711810599052883575e-02
7.531670382935362618e-01
9.936324461810248643e-01
-5.126753480686190301e-01
9.333242988866876644e-01
-8.112616894373856358e-01
-9.835662575207118064e-01
-6.604880958973138316e-01
3.139688416330743692e-01
-7.478158180443656988e-01
-4.195909662216101843e-02
-6.038089422549897112e-01
7.631003492061800841e-01
2.941536262416180048e-01
-1.833343325854206451e-01
-4.309713667901617917e-01
-2.799576296685479804e-02
6.329959271009082400e-01
1.762643342700989102e-01
-3.033623757021495226e-01
5.801664306882974298e-01
-3.212133787936863882e-01
-3.532984332438040553e-01
-5.154968229888965414e-01
3.794560974543019771e-01
3.365476375241520657e-01
1.560115304850238083e-01
7.434085339532263692e-01
-4.039452987565645969e-01
9.136752393584846033e-02
-3.679149244827557563e-01
6.434441323963382420e-01
-4.789314301643399219e-02
-7.998290006504962246e-01
3.284542479393048886e-01
-3.343420852190395198e-01
-2.152135655077989096e-01
-7.344428522127588455e-01
5.964783767174262064e-01
4.469025064168388184e-01
2.791857435270195253e-01
-4.017167717079623834e-01
5.416867810528902538e-01
-1.578840708232391865e-01
6.655296164919346502e-01
1.917216800931125231e-01
-7.074035011809487461e-01
6.394126455628710293e-01
-6.792318546059039619e-01
-3.608810355435603245e-01
-9.860540577739607127e-01
8.156360396904376309e-01
-9.774109946830817908e-01
-7.745589692236165558e-01
-6.570579743667770423e-02
7.234245831942995864e-01
-4.325147249544529782e-01
-4.629735026182020263e-01
5.641465761554795844e-01
1.181542839058429273e-01
-7.771140877930651225e-01
-8.190911713113475656e-01
-7.051336926127493854e-01
7.230368959151967090e-02
-8.385669957852286416e-01
5.111453397715903790e-01
-6.952994661241183039e-01
-4.999617630901975751e-01
7.578867416308971983e-01
4.269080327342327230e-01
3.156309340015901466e-01
4.817232769163011241e-01
-4.741309283457841861e-01
-3.588145645110376591e-01
8.859768450264495776e-01
4.969843571314145336e-01
7.834382100483636702e-01
-4.351266638643049856e-01
8.808964791210274203e-01
6.947909311268090082e-01
-2.226542390420105377e-02
2.319937227328070506e-01
6.612229259662585346e-01
5.650928836231385866e-01
2.917338027209983586e-01
-4.790701477400935993e-01
-5.998281661718285473e-01
-5.566018359305475727e-01
3.273888343409521173e-01
2.121977424323151507e-01
-9.863364289847240673e-01
8.060117553147525538e-01
7.651926146703846854e-03
-2.122545021243191776e-01
7.684413376254879413e-01
5.095297644365404111e-01
8.132003869985020561e-01
-3.731228763948801763e-02
9.767234513573122001e-01
-3.224634878349332823e-01
6.516999383566859372e-01
-7.547174581282116712e-01
-7.150602060662913928e-02
9.891223734458631789e-01
-7.768259540980613220e-01
5.113214511155419473e-01
4.222621893197584519e-01
-6.151723685489041138e-02
3.469800568623451209e-01
1.525232700960077459e-02
-7.158957844808746529e-01
-5.990679164166563542e-01
-3.920343641538261981e-01
7.464709181003501559e-01
3.193978458781039365e-01
-9.531883529110347641e-01
-6.963629838373019965e-01
8.142658882313256186e-01
-5.894651000906503402e-01
-5.975273239517906454e-01
-2.356577951055578435e-01
7.709730521329440922e-01
5.622395714979295800e-01
-8.196074229133516464e-01
-3.637043672321067511e-01
-1.059797773841308910e-02
9.948085774357586786e-01
4.499885060899098121e-01
8.169650646196489063e-01
8.205562172970106705e-01
8.037695078016509065e-01
-1.285756637614101638e-01
1.477137310237854884e-01
5.466270523447906982e-01
5.001926440015149744e-01
9.414847301788766831e-01
-9.656249548017945550e-01
-7.229215054465871759e-01
3.812964827457632211e-03
8.368481354240475678e-01
-9.800921049717348232e-02
-1.523591041819838399e-01
-3.823152675108618670e-01
5.929805770682052835e-01
-3.152342795704876632e-01
7.992014811047778444e-01
2.016329727854435649e-01
4.695781501527376278e-01
1.280557158476010038e-01
-6.875797221534030168e-01
-8.245734813936125285e-01
-8.984179771808937787e-01
8.737504936160771507e-01
1.532673932986212684e-01
-7.529310345698660978e-01
4.832484213483456692e-02
-9.627182535085219151e-01
-1.431719375579565412e-01
5.331199233144636729e-01
6.875667415757551471e-01
-9.700252598853826846e-01
9.697936103934048369e-01
3.761588571390261926e-02
-2.811582961997640684e-01
3.518376717783278096e-01
-9.898287377332777304e-01
-9.354184858192475804e-01
-1.089431085717693648e-01
-8.091790002036138851e-01
-8.649481382455133094e-01
4.473260703382324621e-01
1.757685920075879871e-01
4.229596930980443759e-01
8.117993470312945270e-02
-8.031703682593311910e-01
-9.096531792575701658e-02
4.177320735518845751e-01
-6.118888113677154461e-01
8.605799698061133984e-01
-8.613516703235886141e-01
-4.503679473852590931e-01
8.485134174484501024e-01
4.185490944591827578e-01
3.327852285738943650e-01
-2.012675437055646555e-01
-7.526020298572873024e-01
1.119852245703751858e-01
-3.370915022821066032e-01
-9.157270963850303591e-01
-3.690462982087401311e-01
-8.457964217309956734e-01
-4.186203442188196622e-01
-1.717052535679259861e-01
9.425077063433027202e-01
9.592679507823214102e-01
-5.555432627838974291e-01
-2.350041943350740237e-01
-4.935819877411429246e-01
1.753815111899270640e-01
3.283356293668726611e-01
-8.279602788483531040e-01
6.921119913615287889e-01
-9.417517252248650550e-01
8.472071207247462432e-01
-9.670127887228820995e-01
-8.122416023395049312e-01
-2.336843148678116044e-01
2.724669828313586173e-02
4.064698038688201454e-01
2.850237404307562894e-01
-7.003616032188040297e-01
8.653583370162098998e-01
-7.047801302194314221e-01
-5.964149127453770571e-01
-2.228804010070066788e-01
3.738722939914729260e-01
-3.014542673978084508e-01
4.326012173010960193e-01
-7.797914505452181455e-01
8.568880731950732077e-01
6.546800488630621917e-01
4.140567065844729111e-01
5.924760362356229493e-01
-8.502607354914113458e-01
8.089283150447204029e-01
-3.513610807930243052e-01
4.593853516472095055e-01
7.314658286255226738e-01
-2.942928568625193808e-01
4.347574692636027027e-01
3.286585407285205207e-01
8.696288249567867279e-01
-3.972503921091081747e-01
9.057932167310878135e-01
-8.732149344737163421e-01
-6.902386520175218809e-01
-4.450427730048018837e-01
7.912752925331412168e-01
-1.259633394835282250e-01
3.114733464159640253e-01
5.872829308276283911e-02
2.815827261846393093e-02
9.503477123316250719e-02
5.116882382304950294e-01
2.127533703494963735e-01
-8.347271896155497029e-01
-8.421619291229296422e-01
5.634110181827922670e-01
7.037574983726655464e-01
8.808764560183626191e-01
8.409868797734230128e-01
-6.037333374432698463e-01
7.044260163113758022e-01
-1.691262986963704140e-01
5.279446866851136289e-01
-6.813445744988033681e-01
-1.333103510263049518e-01
8.014585249007180057e-01
4.958656665524403540e-01
2.146057910402754398e-01
1.015018201112447560e-01
5.489234802803117930e-01
-3.420980632461256832e-02
3.778920686086599812e-01
9.670718642011848498e-01
1.458278817332545607e-01
-2.725909108290411886e-01
-8.883378534651169556e-01
-6.878661665247174373e-01
-8.128228087158748671e-01
2.145359144727856382e-01
4.579489852209508438e-01
2.932015130168557082e-01
4.887557642395377044e-01
5.819418353984417980e-01
-4.012902767449253449e-01
4.572973549588010833e-02
2.413812400257393520e-01
7.974212208945472558e-01
6.038761685622016095e-01
2.731796979614806720e-01
-6.726477744993455410e-01
-8.516642950385644451e-01
-7.709857220433649072e-01
9.783037140319423841e-01
-7.965288185578838220e-01
-9.408731961824505774e-01
-2.868645206694337979e-01
-3.618653540530580859e-01
4.442327572140103431e-01
-2.834024194865136792e-02
2.612092661288054618e-01
3.988184315830272109e-01
-7.081124841368711120e-01
8.052366550826848268e-01
-5.177589313560280182e-01
9.038680426209826368e-01
-2.403088136613960035e-01
4.120916451085319121e-01
4.722389291884130369e-01
-8.247230480210379078e-01
6.340283748261659191e-01
4.688403954671747087e-01
9.929670993057202466e-01
-4.257801939646395084e-01
-8.202041250782721171e-02
-3.686540526738357748e-01
3.344644838497830008e-01
-5.026759128749413996e-01
1.993387364941066053e-01
1.707024456060279860e-02
5.364568128952267312e-01
-2.902532561694515234e-01
-7.833733845106483074e-01
1.249256506225020491e-01
-4.375938567613899544e-01
6.843961466171888386e-01
3.840690092907679265e-01
-2.084717382615406400e-01
3.420847392376693552e-01
7.990307711291544379e-02
2.551931840145806873e-01
6.443027913492573866e-01
1.707591632083045319e-01
-3.152155070716979868e-01
-2.877216871426533373e-01
1.856710220293473768e-01
-4.799412146064110374e-01
-2.484476805146473843e-02
-6.656787239924726318e-01
-8.641109249943803583e-01
-9.654735828199911829e-02
4.998657871060052660e-01
-9.304135258483787752e-01
-7.889673629977076441e-01
4.625525240270966787e-01
2.087114705349306654e-01
-8.738360504811419904e-01
-4.174417169633748426e-01
-5.764405436452455511e-01
-7.478904225737834643e-01
5.600727971644179348e-01
-8.021639604087817954e-01
2.986231279564965924e-02
8.291796797863373314e-01
-5.879168819749562847e-01
3.536453401461816526e-01
1.546216019993098545e-01
-3.413651080891808576e-01
9.196994017646993314e-01
-3.563588300491549177e-01
9.001637324923059680e-01
-2.049968867845053389e-01
1.593709633082029953e-01
4.936123365509224037e-01
6.508097957565261993e-02
7.579520332169054075e-01
-6.336264878669650713e-01
-6.029328178700585905e-01
-7.984576272563752575e-01
5.563560875890238844e-01
5.024458060655188074e-01
-9.167750639024450088e-01
1.268986752216569869e-01
4.133837137260176764e-01
-3.789389360882022828e-01
-1.497797181207904949e-01
-1.922219467720815977e-01
4.736209340168595627e-01
-3.883409786057443469e-01
-9.377394895627877425e-01
6.686439179880108163e-01
4.918771915138639983e-01
-9.155063701452701430e-01
9.016334829161996023e-01
9.150040338835525588e-01
4.569688855044140574e-01
-1.197887604387444238e-01
-4.931146877570466991e-01
-6.105267381993690901e-01
-5.055664958904200201e-01
-7.504993851767416402e-01
9.609102548160435298e-01
-5.738302287657610634e-01
8.674875284363059436e-02
2.408141569268673621e-02
8.818475456213010766e-01
4.312895789158781579e-01
6.368073194922796443e-01
-3.182483162560134637e-01
-7.895068437905858882e-01
-6.726783762211814288e-01
-4.930891365098906132e-01
6.715403835696118762e-01
-1.486992814873093760e-01
-6.017725526321870966e-01
2.712813248430110402e-01
-8.197971399187238273e-01
8.939174835519205775e-01
-2.744475825070713526e-02
-6.708962524080663847e-01
5.395573847491701436e-01
3.386227646273185510e-01
-3.582671217139574704e-01
3.986337230832117662e-01
-2.160520961158711728e-01
-9.084766656413119090e-01
-7.784486680048163798e-02
9.940225310676797932e-02
-1.796646042667238152e-01
-9.585288795852040522e-01
-3.138648485163211266e-01
7.805688030036816993e-01
-1.480051380866937993e-01
-4.156347859075066875e-01
-5.779582109186438554e-01
8.608866397539327586e-02
-5.811230073364352933e-01
4.365341175738792767e-01
6.230614729083314707e-01
-5.756421772433066852e-01
4.248502218263043861e-01
3.881682823989178743e-01
6.138669758599086812e-01
6.524526506045051910e-01
-1.645812202547720648e-01
-4.173556080082341246e-02
2.696623583297632631e-01
3.957978445874918982e-01
-5.701720048227696402e-01
-7.269526988737355921e-01
-1.258637043641352982e-01
3.821715989815728243e-01
5.803702768044560756e-02
-7.546090599805641563e-01
-2.461284734759532355e-01
7.882337629516813493e-01
6.095018564574092856e-01
5.667969757292163901e-01
-3.873110493471698668e-01
6.231703184263848172e-01
5.969457059952909539e-02
-2.987986641507309749e-01
1.852691743424332849e-01
-1.506153605741400447e-01
7.918603684596996484e-01
-2.447292200618722546e-01
4.838954484074760032e-01
-7.458364652835069997e-01
-4.678633614442173627e-01
2.514405731796958143e-01
-7.725576383938435043e-01
3.092319264980487592e-01
4.875699921326801523e-01
2.802312078993971500e-01
-9.369898592584255947e-01
7.313432308239886659e-02
4.000689950997557975e-01
-9.604074980226642300e-01
2.245113318578926265e-01
-8.210084488077897813e-01
2.214341002912267875e-02
-9.335367504250282611e-01
8.545610788120894252e-01
9.793778157027066555e-02
1.499495670398360847e-01
-8.677176338273708822e-01
-9.044970531325335905e-01
-6.157892421303419184e-01
-6.780277747019025636e-01
-7.813281268404070889e-01
6.329684406373632388e-01
-3.646841229032311560e-01
-6.429903857595664629e-01
2.823172750275593224e-01
-6.029099123284704653e-01
9.962962782686333174e-01
-4.351036890829367287e-01
1.741533175302767411e-01
-2.950263828568377988e-02
7.236717263173157999e-01
-6.259128456811380303e-01
9.154189029538806199e-01
-2.933305765823075451e-01
9.835901975709584466e-01
-4.021454051600392710e-02
9.013599855825971119e-02
-2.086260727433164597e-01
-2.390379164236919873e-01
7.774763230895567201e-01
-7.636355170438118289e-01
1.785217361349742404e-01
-9.896172151461388733e-01
1.040126933268539222e-01
-1.953966705294352124e-03
9.519131144760422103e-01
4.327979521903535520e-02
1.526000297869869460e-01
-2.832371536137114898e-01
1.917261985758567100e-01
-3.752113263168121993e-01
5.199296879156471984e-01
-9.785546440444157223e-01
4.181110000975212238e-01
-2.035919923480447036e-01
1.153841461955074088e-01
-7.102782552568458474e-01
6.322045868702514948e-01
-2.392813215678484262e-01
2.787679811836758503e-01
8.575882890576258522e-01
6.812357912994104758e-01
-3.173798596570076569e-02
6.228924237496995531e-01
-7.981016999008476720e-01
3.352002584890556580e-01
8.915923765662108202e-01
2.443542652741668153e-01
8.898814066495654984e-01
5.035738058528980154e-01
-4.328958967218023979e-01
-9.312444533116650547e-01
8.891000681338745437e-02
-3.471876274443568278e-01
2.704340481144809072e-01
-5.523456428817465902e-01
6.980328618420148512e-01
1.180836421325028862e-01
-1.376105556982041289e-01
-8.331581452084646511e-01
-6.085853784765709040e-01
-3.195063347654731878e-01
8.639837627021551558e-01
5.558335912699328141e-01
7.327721802331381706e-01
-7.713749408991483758e-01
7.254336854028049508e-01
-6.156011673930719130e-01
-7.094262366715311519e-01
4.698626172257398537e-01
-3.787216530788706237e-02
-3.109877244730148149e-01
9.016420850617414828e-01
6.529104419966913486e-01
1.434457441166161473e-01
9.818824507369798837e-01
-1.128240573333216812e-01
9.712971114126860428e-01
-1.601543738675015316e-01
2.032630555673866635e-01
5.063484001815983238e-01
6.107971040045010458e-01
-4.757217314750397108e-01
-1.227655192046903654e-01
-6.915642328215994006e-01
-6.178461823299077338e-01
-7.606330197630706280e-01
5.768178622160033964e-01
-6.030755206189668538e-01
-4.740455948872994707e-01
4.551843657192014003e-01
-7.849275028880653426e-01
9.796317169368917721e-01
6.596014448949036879e-01
-8.409807332946963587e-01
9.995223556174637203e-02
-7.742910630097366020e-01
7.223352523796420233e-01
5.966305156429261292e-01
-9.371826965035798818e-01
-9.146294676259298928e-01
-1.072856918258833225e-01
-8.331980268498289099e-01
-6.953578090420324820e-01
-7.593134473558713626e-01
-8.233197914128713713e-01
9.103747200848624210e-01
9.160590178835270603e-01
-2.776269441112457770e-01
-1.590410896187957057e-01
-7.583350866190483597e-01
7.622779224410696219e-01
-9.417298287782205346e-01
-6.552098161105053276e-01
-3.812970952046137452e-01
5.621066947337858277e-01
3.185938454278653964e-01
8.787659095229385375e-01
-3.395291385198546674e-01
1.078023602486071209e-01
5.503694784012838070e-01
-1.824633682908707311e-01
-5.865312358104324275e-01
-3.035925457309476272e-01
-7.766275046137425253e-01
-3.824427486273926924e-01
-7.620552156791293719e-01
6.780644143418654846e-01
-8.922174959799666905e-01
2.011277957938135685e-01
-3.341907536319563832e-01
6.732620725022626651e-01
-7.395531749677453082e-01
-3.655853214606175072e-01
9.620897847474982889e-01
2.052468739524619945e-01
9.857679107730259460e-01
1.505838685145934885e-01
-8.498009992908814869e-01
-5.395579528677798553e-01
9.995894400716145434e-01
6.802571729700210845e-01
5.276792673628534214e-01
8.772189491499096103e-01
1.005598785224999236e-01
2.776660280227802868e-01
6.985474142413725662e-01
-5.474816852006834100e-01
7.971399419619249471e-01
7.541849157423936578e-01
9.980519572809467554e-01
-3.614770046097421918e-01
6.054755791725052738e-02
3.679270671840824125e-01
2.333272784967490576e-01
-7.052966480929803161e-01
7.210154787153919553e-01
3.068430354953075589e-01
3.342765651581616204e-01
-6.141695992649280900e-01
-4.981976665641147939e-01
1.876117815515461196e-01
9.163358972306383521e-01
1.352821608370604611e-01
4.216190855294137396e-01
6.955184421646540827e-01
-9.634050346235432105e-01
-7.553762143651521210e-01
3.837305536518904603e-01
-2.610815571559599313e-02
8.834152683725391420e-01
4.032249995918006924e-01
4.716275687189688259e-01
-2.537802615118589511e-01
1.509064285851837717e-01
3.434147837195833386e-01
4.015166623458779060e-01
-6.788771990393196454e-01
-7.226877938526663492e-01
2.846353595607615805e-01
-9.043638022517042074e-01
-2.009709160708901265e-01
9.796219044536853549e-01
6.665042187713292599e-01
-3.028798290587073616e-01
-1.825011512703982319e-01
-5.531740101589095460e-01
-6.537154150928847773e-01
-2.702892314638960514e-01
2.889799121380500768e-01
6.873458859520307218e-01
-1.837211851938813645e-02
-1.332742738488952305e-01
6.266286013593840298e-01
5.369830019897339213e-01
6.550589437721141550e-01
2.563313647666249917e-01
-3.055117110906466760e-01
5.875799645880106503e-01
3.716621717243984158e-01
-2.685526002584037730e-01
-6.462319931883735435e-01
-5.210517210065561677e-01
-4.839920509451298702e-01
3.893089546072774354e-01
-3.828682667950487062e-01
5.997587032994708967e-01
-2.924819660632163032e-01
5.473386037218721523e-01
-5.180705133801450923e-01
7.474883838146912929e-01
4.815597005257559182e-01
-6.903444200019539512e-01
-1.759117662502860391e-01
2.519040596249597641e-01
8.179696632646855647e-01
1.883777875498831023e-01
2.020247847999812052e-01
-4.689194545839103778e-01
-8.466017875578248919e-01
-4.217478715946865186e-01
7.274469579522746532e-01
-2.343186195717072984e-01
-5.624758078381246751e-01
-2.426469718266519582e-01
-8.511130547424843318e-01
-6.980771355772226183e-01
-7.052667682685695993e-01
8.007055322866021285e-01
-2.562741597150830497e-01
-8.851591243334537840e-01
1.154448790014361848e-01
4.613192554034719617e-01
-3.763088363524063062e-01
2.711295658124102115e-01
3.434934678569587785e-01
2.332098964429867305e-01
-8.591376070934941822e-01
1.490423198450385733e-01
-5.785636848535571364e-01
-5.335556699995480656e-02
8.482877942965574292e-01
6.778672781792001167e-01
-6.454300444923990465e-01
6.520321116825280594e-01
-4.645666898492424313e-01
-2.150629345022936345e-01
-9.073898264304680605e-01
-6.195077875133452316e-01
-6.902056231123183672e-01
-5.417792685548123988e-01
1.275260138804064081e-01
6.004539103182175985e-01
1.178067818386596688e-01
8.707570638066146618e-01
1.404472911378749078e-01
2.450640593408917045e-01
6.933373359815309112e-01
-4.482410197792434658e-01
-5.365200524342970123e-01
-9.187518592672370144e-01
-2.814452852471334143e-01
-4.853962823366875234e-02
1.604691453939954826e-01
-1.155205678606663344e-01
-8.063100567147416520e-01
2.930740011453369931e-01
-3.307996806359552178e-01
7.528927926859327879e-01
-4.438403170122913188e-01
6.490963051415490348e-01
3.303581835475888351e-01
9.520111712175551855e-01
8.657229591803907720e-01
-5.680719999318870617e-01
1.769384334132562131e-01
-9.472923809366418091e-02
-2.144531076538704895e-01
-1.081754634970382156e-01
6.920109421000149030e-01
-4.942841113701357258e-01
-5.650111545705482907e-01
-9.817123786685266751e-02
-7.041266445255074391e-01
3.120940497083355414e-01
-9.701245287638915471e-02
9.573752481868642583e-01
-3.082494440556025062e-01
-8.995802955742393525e-01
7.541066378451302121e-01
2.472081277014717138e-01
-6.559681820382761153e-01
-3.423767604434040379e-01
1.463409309593450836e-01
5.375707497483173114e-01
2.513665571987910852e-02
-3.127914102660773743e-01
6.552188255196909061e-01
9.410506860558820463e-02
6.160914266424277752e-01
-2.184386748696254266e-01
8.304186759351908087e-01
2.695855480016176031e-01
4.732777551892379808e-01
-2.008750242594596891e-01
3.930489420771035025e-01
7.839538274408135443e-01
1.285301252397210714e-01
-6.945015014086592942e-01
-7.328295377262421528e-01
-3.954354967097581941e-01
9.903704631164476080e-01
-7.419357519661258227e-01
-9.018750241812787394e-01
4.525952149070442410e-01
-9.546727691627334700e-01
-3.741262132871561175e-01
-4.957488263094111947e-01
4.964557406492955405e-01
2.671303241708187226e-01
3.481245797289671540e-01
7.663410881241030648e-01
-9.185781137936008811e-01
7.561035329707104236e-01
3.039852884976190772e-02
7.207437518494823614e-01
-8.103796265174840752e-01
6.065590081464111716e-01
8.983089607955092593e-01
5.817098010623671378e-01
2.288840595537311451e-02
9.529688243361635891e-01
3.775383533316700735e-02
5.886829981706256376e-01
-4.354467138745745647e-01
-6.530187667150508801e-01
-2.746897227320068691e-01
6.092786684025797150e-02
-3.438098406423137909e-01
-9.434647168234604475e-01
1.314739394923323257e-01
8.116927002531755253e-01
-5.349841874395036001e-01
6.723799777001977507e-01
8.587601939290261388e-01
9.077624990289530071e-01
9.927254313891038517e-01
7.125793601362500063e-01
9.928902018265128859e-03
-4.236058644275040308e-01
-6.733398633009779477e-01
5.699590436296206875e-01
-8.842038273302694762e-01
4.229877502039780524e-02
3.581959616481840136e-01
-1.811840332540584075e-01
-2.211158249336231396e-01
-4.663057716970564481e-01
-8.986585499159791546e-01
-7.542969365786347247e-01
3.581610539836455054e-02
7.638726534984805472e-01
-1.920445862059088071e-01
-9.921070707207360062e-01
-3.422039796894564834e-01
7.502130620434304120e-01
-1.320298667176866836e-01
-1.532179058377549641e-01
-7.048854769779038243e-01
6.023288703335438754e-01
-6.373809172867483941e-01
-2.157293356505587401e-01
8.487066127764000267e-01
-1.463161767248473133e-01
4.684225203791048120e-01
-1.770546334683460454e-01
4.549269286929809031e-01
-8.589741956591958605e-01
-5.367523983337325610e-01
-8.676537171213860589e-03
-3.183072459814233479e-01
-3.659244190652910511e-01
-5.215444402868776308e-01
-5.441431226349424666e-01
1.027404453306643983e-01
4.436780230056291963e-01
-2.944585235888255159e-01
-2.219462880476807953e-01
5.866311618726882671e-01
-9.614578363915791126e-01
5.420328223150863156e-01
2.660480059913659101e-01
-8.316078772292081478e-01
2.079581823512972605e-01
1.948560293200651827e-02
-1.489753267159794614e-01
-7.003050542814746038e-01
-2.525760996480954645e-01
7.963963846910564470e-01
6.446401256473746066e-01
2.856726308882469034e-01
-2.682301045073636203e-01
9.293757680511771646e-02
-5.133130453197292109e-01
3.519684435432448577e-01
-5.911917118252967285e-01
7.344636230449625991e-01
-1.949397322723389614e-01
6.144033540238529323e-01
8.718245497139802680e-01
-1.781777218469884350e-01
2.781440601762263931e-01
8.805683650300928367e-01
6.881925990200070675e-01
-3.364760786442764218e-01
1.024203229993503328e-01
9.300154521294756726e-01
1.367480095599911127e-01
9.874866333423248932e-02
5.227971263113078138e-01
3.873888188986727155e-01
-1.623169992886548396e-01
1.211923871210909276e-01
3.532443336487198771e-01
2.078119475725721532e-01
7.396981895743925950e-01
-6.285889053137305726e-01
-1.678283045583957023e-01
-2.568132642899807472e-01
3.683018050319897263e-02
-7.202161007727219122e-01
9.713460174549886084e-01
-6.396557741742956438e-01
-4.261099185220911245e-01
-9.056684786801485476e-01
2.911636189466841884e-01
6.596969073937126726e-01
6.043841127629376864e-01
-4.187216520346390691e-01
-6.112812077452600690e-01
-7.786569746528715363e-01
6.232506357673708308e-01
-8.942816584055559570e-01
-1.628070112733654984e-01
8.074331487461154921e-01
1.524680037144039435e-01
9.370198507700382429e-01
-8.630736755942587379e-01
9.844352277831545095e-01
-1.965868298450601515e-01
-6.103396685635011920e-01
2.352911673204616250e-01
5.688102957818907957e-01
-1.595947979523639759e-01
-8.703537241080354647e-01
-3.534230273396787858e-01
8.244092986493525288e-01
-5.423501783497934881e-01
-2.530974906986429573e-01
-7.041988195086281710e-01
-8.853378502964857066e-01
-3.937173748711328969e-01
-7.918223243531530287e-03
6.904731658662721649e-02
6.631329893847341950e-01
9.315694625464976397e-01
-8.906104518539961212e-01
-4.283715218221029186e-01
5.001258572437894401e-02
-2.475687842618163881e-01
-7.370119481667807282e-01
7.369970934225742454e-01
-3.174052369326061385e-01
-6.637099383185833812e-01
-4.168647308489505932e-01
6.697428400589011677e-01
4.155238555871079154e-01
3.360932041417712401e-01
-2.312949000586494996e-02
6.940687363847255487e-01
8.404398181026491166e-01
-2.751329800299555650e-01
-8.640488361510116899e-01
-8.115385848705241045e-01
4.880709420413409383e-02
4.072115758827332677e-02
2.332204353654176998e-01
-9.671616856379530169e-01
-6.412361243434010483e-01
-4.227243671444147477e-01
-8.484955269339520267e-01
-6.509773306836377227e-01
1.680198846385747569e-01
2.084314196631436022e-01
7.128509043529798195e-01
8.835718010591770977e-01
6.582016564762311894e-01
-2.439789750877454644e-01
5.198492458339571964e-01
-1.580995217592311430e-01
3.782464564681602415e-01
4.462303369298064037e-01
-7.908863591719135222e-01
-9.767295427373672290e-01
-8.321500052990593588e-02
8.042714195230413754e-01
7.708804714000883074e-02
-5.255057621387326794e-01
-7.657313300937678147e-01
2.148465740729137430e-01
6.469201181882078266e-01
8.657583394387204923e-01
-1.568419379940999558e-01
8.305646124736378866e-01
8.755095467468458903e-01
-9.791554270522992987e-01
6.475020304121077430e-01
-1.537915017157513997e-01
4.853641424436858642e-01
8.529842021974300970e-01
8.700872429796566720e-01
9.799039293859479471e-01
-9.873412454796204329e-02
-9.921961050131651305e-01
-2.248606479203416608e-01
-7.969521063409252815e-01
3.465560422878262159e-01
3.794171822418246354e-01
8.075796293044734675e-02
-9.050581331712859168e-01
1.587716700603167830e-01
-4.920494329371436493e-01
6.423552857460521626e-01
-1.893200516242845577e-01
3.742088748477494509e-01
-5.392037409395100678e-01
-2.195052510279711377e-01
1.146991874413272328e-02
3.156346789733841529e-01
3.380468253087591801e-01
8.335471443497117772e-01
2.054911711491147486e-01
-3.472672783556591813e-01
-3.129594196470242284e-01
-1.337825634989391332e-01
-2.603836062711539778e-01
1.726491502683693557e-01
-9.423452738204565193e-01
7.108508204033310296e-01
3.832969974472690833e-01
-5.402359797125773078e-01
5.117085526895133185e-01
-2.911365159018215465e-01
9.665794272524499409e-01
-9.592021306872107189e-01
-6.839410371877954198e-01
9.200354491429671988e-01
1.945803859192487550e-01
-9.740340651342929146e-01
-9.227070165901722909e-01
3.588701618185921038e-01
-5.468332199203680410e-01
-9.401360948845922660e-01
6.970115501274172232e-01
-5.538831409454230137e-01
-4.026442757018491303e-01
9.536718251549727299e-01
-4.926195050595072455e-01
-5.063944695414868136e-02
-7.936304545999015581e-01
-9.655597926186183511e-01
2.752821011456041411e-02
-6.976800967366409978e-01
-5.880881295100295336e-01
2.445767953865733979e-01
4.641141454368333807e-01
4.178546200695687496e-02
-1.803581952393789045e-01
-1.607047914932260291e-01
-4.668303077831388315e-01
-1.000218641484460491e-01
-3.708371211991390304e-02
7.993733604434449802e-03
-8.869866558214551944e-01
3.069449831406578788e-02
6.589846214895906940e-01
7.323290985137815845e-01
5.485899732524257555e-01
3.692312045122785324e-01
2.207830063440825441e-01
1.671092556120730155e-01
-7.353662289350111347e-01
8.037490943958387479e-01
9.643661290140881359e-01
7.111118515519865291e-01
-6.351259496297663176e-01
-8.170394574633317308e-01
-8.427281456835409301e-01
-3.478904853859907664e-01
-8.056948498134353098e-01
-2.647304717417298114e-02
5.523559946588911806e-01
9.015547887931443238e-01
-6.424486404439482268e-01
-5.041392226432295232e-01
-9.804685753400437243e-01
5.730815375457725125e-01
-4.611731631210524984e-01
-1.180156926167170717e-01
2.087548023408591913e-01
4.591034204848862821e-01
6.943463710771071717e-01
-3.399292708809502628e-01
1.927219445444694479e-01
2.876853171562250289e-01
-5.992460621663089348e-01
-2.170978841044115537e-01
7.627348912668112657e-01
-6.903532278658355281e-01
3.772283826853390920e-01
7.294091915533422732e-01
-5.894976440043167010e-01
-6.465710231750385617e-01
5.014896173311107486e-01
9.204448408267218440e-01
1.907658639291625047e-01
-5.513187055935455660e-01
-4.625782756287168951e-01
-2.750202049104699675e-02
7.960470989533172670e-01
3.508837524148711307e-01
-4.080426547833575501e-01
4.313557555220648432e-02
-6.035967671191404538e-01
-6.811709713198110805e-01
-5.510842200259125079e-02
-1.023250467852923062e-01
9.352876767166873329e-01
3.259276283767338356e-01
2.317294252285024836e-01
3.636412495141667645e-01
1.472307222129216608e-01
-9.051245897262252260e-01
-1.437809142247872263e-01
1.621936537721060390e-01
1.559936548442515392e-01
5.512090262130631135e-01
-9.735574962961588419e-01
-9.884065778002759650e-02
-2.052207398957408557e-01
-9.043913811635517774e-01
1.103044836967848052e-01
-8.902433034815622204e-01
-5.791025170683739010e-01
2.250286758104815821e-01
-4.414183375926989950e-01
6.503209850934332792e-02
-1.492894009289336132e-01
-9.073677335794714249e-01
4.548789644652329045e-03
1.219963838737725403e-02
-1.531206548642534138e-01
-1.203671923267177757e-01
-9.872053962228835022e-01
-5.739307211841573331e-01
4.838906884968887656e-01
-2.758490109303208815e-01
-1.809996372856395030e-01
5.294529804472687395e-01
3.077588952849079629e-01
4.496084801083137794e-01
-8.562248687437876704e-01
4.706813862953613814e-01
7.704143849683147138e-01
-8.665016024017568874e-02
-5.735609362081339757e-01
9.609395739976958062e-01
1.741737348727645518e-02
7.535762410558812796e-01
3.732476759108760422e-01
-5.186422558179355491e-01
-5.247787155177592311e-01
9.635756033951499155e-01
3.076935760578396462e-01
-6.981111417299572519e-01
5.389907033422964844e-01
5.484708203183408237e-01
-7.240006092423749706e-01
-7.499513487403872691e-01
-1.330304710672478574e-01
-4.783572286300197263e-02
3.320603398817789653e-01
7.707573781206100705e-01
9.321237655479357453e-01
3.409981980981131588e-01
4.591998227929827703e-01
5.968116312912363775e-02
-6.949580496433040988e-01
-9.038917624523870042e-01
-2.107349705603460688e-01
3.089523209426414674e-01
6.098714871666601756e-01
3.885734631663841920e-01
-5.121128495437006212e-01
-5.066953832965175319e-01
7.416718073976988901e-01
4.361538763371342053e-01
-8.537724110751068185e-01
4.929540866374744201e-01
8.200710100091626042e-01
7.010016808879062644e-01
-2.989893147814719487e-01
-4.414544320573416947e-01
-5.487742424370176675e-01
-6.452092428205269403e-01
7.418660967226888836e-01
4.000287040601726574e-01
-9.404264897530036915e-01
5.162574333510567826e-01
-5.516006650747962148e-02
9.493254301603792911e-01
8.840096213686052806e-01
-8.614781127634942859e-01
7.955841726195160835e-01
-1.946104573766147539e-01
-5.700926949745104277e-01
6.800888928751323004e-01
1.011910815622081294e-01
-9.721865771431958958e-01
8.887193558550539052e-01
5.498258851748349940e-02
-3.914772164199757931e-01
3.077743367120111539e-01
-5.069633466973708646e-01
-2.507510705714288690e-01
-5.747892841122632657e-01
-2.205438271892885549e-01
-5.914528036699568947e-01
9.123454433810203046e-01
5.071892271740827685e-01
-1.711793060611392914e-01
4.205376458007012985e-01
-6.177889558073115239e-01
9.391474919633293617e-01
2.770885735576074094e-01
1.186591963497551916e-02
-2.109643358303439076e-01
8.632616364324672276e-01
-8.874278644898678792e-01
6.616427712407682016e-01
-6.019871944577119827e-01
-6.473887399859257208e-02
-5.569686180652002605e-01
-7.982329652591384495e-01
-5.076596782561277887e-01
8.944706801565913690e-01
3.824407382923076248e-01
-1.866629256254441760e-01
9.244119498848646366e-02
-8.247773605932611218e-01
9.268845784226886764e-01
6.886361327268450960e-01
8.516115656433145276e-01
-6.066292329721056920e-01
-8.486603795124649796e-01
4.750748939984525965e-01
-8.551167655711036097e-01
3.231718515908934553e-01
1.573541387889323406e-01
6.787470219322533360e-02
-5.660025524148502019e-01
2.389426535128200690e-01
3.326650325130360297e-01
-2.407533562283583617e-01
9.044056147382040223e-02
-9.430591272888066978e-01
-4.838011507673662948e-01
6.533298784939067794e-02
-3.591727571792775464e-01
6.147958875220929098e-01
-8.884628703572388098e-01
-2.392303285879435748e-01
3.379230484997353123e-02
6.090236614498785173e-01
-5.971126009648053401e-01
-1.330851816830536105e-01
-2.662403196274523154e-01
8.298732940432160810e-01
9.848404570213631359e-01
-8.299401600404929802e-01
-1.380628580957292684e-01
-5.605284239893204568e-01
-4.502881774574030160e-03
1.344619891933711564e-01
5.390196538586700115e-02
-1.304035098198763620e-02
3.467085855421225826e-01
-9.614584825799528112e-01
4.945087296575230162e-01
-3.109727724648516656e-01
2.080618159496316899e-02
-6.247858917964044245e-01
-7.136748735178879421e-01
-1.774459255859430762e-01
6.816456167314255410e-02
-8.976971179759667407e-01
-9.434772241277098459e-01
3.411136914972523471e-02
3.763525813936607900e-01
5.224089237552032028e-01
3.043835069901399404e-01
-8.936329962257816284e-02
-9.498009333401957743e-01
-1.188590501670661048e-01
5.579718554429318189e-01
7.803514304249450362e-01
9.675001324055187979e-02
8.698398988692674916e-01
-4.543492260139287975e-01
-2.005771884594476084e-02
-7.510510649183690379e-01
8.744767476945243256e-01
-4.590724507196368709e-01
5.227804394717454617e-01
9.225629813387181688e-01
8.365471555470966880e-01
3.822527236508319604e-01
-7.876150563671673321e-01
-6.017942235821853725e-01
6.388552372357378939e-01
-5.933328986948804840e-02
-4.637652234699674025e-01
-9.659281549167764158e-01
9.346171915383214568e-01
8.109381212129003202e-01
-6.393294061181205024e-01
-8.516219559707227660e-02
-1.261188269898927405e-01
2.657782649274380571e-01
-8.379665414290562442e-01
4.828333245364284654e-01
-5.781263200995037099e-01
-6.283413228723562227e-01
-2.082707872045403974e-01
-2.924465640439017911e-01
1.181796284269833741e-01
-9.837693547567756269e-01
1.500539520130217408e-01
-4.348936288428275621e-01
-2.177922438713970621e-01
-7.667233878978743089e-01
-5.594686893967071306e-02
4.828131816112954944e-01
9.661640704237801636e-01
-1.129669784338458438e-01
6.317326800839973000e-01
-6.967781422359198285e-01
4.772592077700388291e-01
-6.891492973250099574e-01
4.471061504333779801e-01
-4.570892633214085343e-02
-5.861180452584260347e-01
5.872853271951725684e-01
3.148121578989315772e-01
9.782847322534258261e-01
-3.889377737764894150e-01
2.501970013094645395e-01
-3.852920259379357670e-01
-2.882377378480471819e-02
6.369754498187498726e-01
9.299493218663639205e-01
3.858834384169873566e-02
8.771242279974902356e-01
2.625802148551084070e-01
-2.450087566735787981e-01
5.539510233940614370e-04
-8.693604068546190167e-01
-9.370937465834474622e-01
3.936666423590007291e-02
7.946155275630517600e-01
2.915524679736083424e-01
-3.008254568193402534e-02
-6.809121847601264932e-01
5.209091366350797614e-01
-7.641707249309337424e-01
5.727449551153678264e-01
3.203234852024596790e-01
-5.058109394379246559e-01
-3.519992215518576995e-01
8.608904900977476515e-01
9.636834546017076786e-01
-8.032496358200260644e-01
-6.709796976910120669e-01
6.897568877052639991e-02
8.235987329283580571e-01
5.348889184227501037e-01
3.439603734804408397e-01
4.053135761551964755e-01
-1.958609003057665277e-03
-1.434749071101171225e-02
1.948723919921029335e-01
4.622055450661177733e-01
-8.826605235120608128e-01
-7.812121415997312912e-01
-3.834793758395971253e-02
2.128189598598491106e-01
9.079767260615589919e-02
-6.234043498122294746e-01
6.679395306350910388e-02
5.143885162953452106e-01
-5.100433482520623230e-01
8.038257413475800028e-01
-6.206909977713710447e-01
4.852738582631244135e-02
-9.391440017353360759e-01
-1.719236234161118926e-01
-6.901010710616404253e-01
4.934597166850493988e-01
3.186596606771054940e-01
2.369991862393312498e-01
-8.494957878908262483e-01
7.471694038667073823e-01
9.680585462781881034e-01
-6.530889293355657266e-01
8.806130987577893698e-01
-2.737911330828708412e-01
3.798393985988859356e-01
7.462322784868187231e-01
-4.321297961628209894e-01
8.259942648685949518e-01
-4.357089653947063823e-01
8.231452657537965401e-01
-8.212406077279599259e-01
5.910789885387937037e-01
5.866438472268993287e-01
4.148898550183599543e-01
-4.261477901299721704e-01
5.528264907388247273e-02
-3.600849725639234666e-01
-1.889462567702753226e-01
-7.164659830228248261e-02
-6.307301653125119145e-02
2.636020119851916199e-01
-8.387434360630074970e-01
-2.817388339559956378e-02
2.091362203647202378e-01
9.717088035167371629e-01
7.790597296618961831e-01
-4.278609131705672919e-01
-4.277255892966569384e-01
-5.095167497627253184e-01
4.879795662271093626e-01
-3.218163538511875643e-01
7.920893853596138179e-01
-2.938915021366317326e-01
3.573996696047136989e-01
2.678723395658990647e-01
-6.902160003393600363e-01
6.397491506282260154e-02
-6.859073460297420155e-01
9.411736901400418187e-01
3.015304831171665700e-01
-7.719040646234918146e-01
3.442851739511272324e-01
5.435470805590592036e-03
-2.769029523012218608e-01
2.500214071733879440e-01
-7.646187777172104294e-01
3.579874500306599039e-01
7.452167083517449164e-01
7.972050080457728782e-01
-8.487767100410330556e-01
4.112175456455613443e-01
3.031519168396279440e-03
6.338211566957168142e-01
-4.824817963492646911e-01
-8.427928235344572805e-02
1.348701310873221537e-01
-2.833748539297022973e-01
7.606115499159791238e-01
1.179856714577038890e-01
7.072163761291976325e-01
-3.843771959174153707e-01
-6.539812742753949859e-01
5.231189742039443757e-02
-1.853510729718257366e-01
8.782194468070714244e-02
-3.522588591372599609e-01
-4.575587748585767667e-01
-9.927020567119315686e-02
4.569431850640381931e-01
1.448497685531859869e-01
-5.900895470983522628e-01
2.337687131379733163e-01
-3.519216561854525693e-01
7.557956642115044588e-01
-6.472391801347032736e-01
3.082691545841422798e-01
6.402405557809189851e-01
-3.147077262003008524e-01
6.523760638879017026e-01
7.741993377888019001e-01
-1.094440335603241721e-01
9.806146110957654205e-01
6.546564964372834083e-01
-1.231766227842077122e-01
-7.141288622642338879e-01
-6.876314779304961711e-01
-4.797244815138643759e-01
4.535778988750331919e-01
3.587492331997950146e-01
6.500572832939626178e-01
-3.047945223841641571e-02
-5.594988668710245694e-01
9.974492153552785290e-01
-6.784955926797235914e-01
6.112254058894530662e-01
-5.719596058174216680e-01
6.603289135414283084e-01
-9.172830030241803101e-01
2.927149772900652369e-01
-4.972330601541199435e-01
-7.593511900615368404e-02
-3.812213066055003541e-01
-6.351766073131093204e-01
-4.278655180095114474e-02
8.449938648005808073e-01
-6.046479754699551901e-01
-1.490654953679781958e-01
8.758768861139465400e-02
-7.783541369968842716e-01
8.878530290209378784e-01
-3.236642131374469766e-01
6.636330244890320529e-02
-5.229339923532720924e-01
-1.421088154418370664e-01
-7.859383819318657149e-01
7.408849873095091354e-03
-2.728124748435172275e-01
-6.956778770537510592e-01
2.627374867942440240e-01
-6.406368337799883683e-01
-5.256457412834245613e-01
8.315699508328433520e-01
-3.388894383734997184e-02
4.667982789831448542e-02
-2.410288584959578984e-01
7.400523505799563306e-01
1.599905678815081167e-01
-2.725507274923868462e-01
1.243522087017840949e-01
-7.568170711721400323e-02
7.933003180884632410e-01
-6.055915166348928569e-01
1.828466448648522480e-01
9.289369967591918353e-01
-4.673025225348943490e-01
8.194541949428246763e-01
6.274743783477498837e-01
1.432639358239862215e-01
-4.131034138600562233e-01
-1.585476432575632089e-01
6.749404132657517152e-01
7.345167493905462308e-01
-7.340717424221649967e-01
5.787886218464688426e-02
-5.070080185938492523e-01
4.452599011079763081e-01
4.225559012002912951e-01
-1.225114685140036297e-01
1.698136996891084216e-01
7.014949220971788968e-01
-6.700907414568242348e-01
3.847801477951915405e-01
5.328445174812150853e-01
-5.150567661558904664e-01
-2.766509096317799621e-01
1.780219256504891323e-01
3.890550109001953416e-01
3.152113438579913218e-01
2.338948266933258413e-01
7.708437151280762567e-01
3.064425152637473282e-02
-6.189364333010236585e-01
-4.319984690846074837e-01
6.689590547207302507e-03
-2.212192987974663794e-01
-4.714618509250367850e-03
-6.003598261092242261e-01
1.372414441491383030e-01
3.293030230398152902e-01
2.607880384473875157e-01
6.878914948885890279e-01
-6.650194423341981853e-01
2.812219554647350517e-01
3.101097169710231860e-02
4.487464902636961739e-03
8.949599941803703107e-01
-8.139402060161249342e-01
8.854113675179786647e-01
-2.728570990586074441e-01
-6.394723171347127533e-02
-2.516779587038970867e-01
-7.047739898291796035e-01
-5.172624993175796160e-01
-1.819924485804216285e-01
4.691012909680634113e-01
2.761411320532696223e-01
-6.835550327770580914e-01
-4.026758457847761097e-01
-3.133138251591915946e-01
-3.870513885279462940e-01
-6.206042662004689348e-01
6.597631786576019230e-01
-2.468896863272318498e-01
-4.118321429591900174e-01
-6.692584365235394461e-01
-2.930553997744242967e-01
5.024228274670683447e-02
-2.495595728956359061e-01
-7.056174163610196004e-02
-3.063106909981527792e-01
5.052773966534744865e-01
2.260888572792747464e-01
-3.683718061796965593e-01
-5.972794088499973064e-01
3.655354084490192168e-01
2.207575376900607900e-01
4.781054649004974344e-01
-9.434994570212638099e-01
6.711915031711304103e-01
9.500500124661928059e-01
4.703483936636008167e-01
7.428068922874655478e-01
5.597806916556444801e-01
-3.209644656450072464e-01
3.119527840419678011e-01
1.232269059820136903e-01
4.261872740152383709e-01
1.919329884681630904e-01
-9.529881632101837585e-01
-4.256095758513014360e-01
1.861265853921474367e-01
4.435157984241906437e-01
-7.533683832318678331e-01
2.225640910580808374e-01
8.472457089390184048e-01
8.896234779070326670e-01
-6.444997572258193141e-01
-6.523121359526373730e-02
1.942148314010361254e-01
-4.768201152782649554e-01
3.613154141556798038e-01
-9.070351262436311401e-01
3.213289365846128121e-02
-5.830142580082473547e-01
4.214529389880823373e-01
2.433876198664342017e-01
7.149209638789031374e-01
-2.082573031568486499e-01
-7.685265903576716795e-01
-2.849451660133346387e-01
-2.543512726010339620e-01
4.496304186671002956e-01
-5.484889112833972735e-01
7.498085419277147334e-01
-9.658743176505075745e-01
-9.987251809055242013e-01
-4.924937003522700252e-03
9.893109583194961143e-01
-4.250317385105262247e-01
-3.815364425626222022e-01
9.764641696464715359e-01
-8.832935725673440874e-01
-8.507855804325656912e-01
7.311975427222512369e-01
9.998800573084218879e-01
4.275432965755110448e-01
6.946092321978638573e-01
2.461836544516242675e-01
-7.091232911803801997e-02
7.630476798083085654e-02
-1.251445545683937954e-01
4.217050874092083124e-01
7.462386855921199214e-01
9.762331830940562671e-01
9.636445143636080957e-01
-2.654788880314020716e-01
-7.919400941626684176e-01
-3.981620083485315487e-01
3.270241490670640072e-01
-5.549153501618908635e-01
1.646988061552003835e-01
9.733435680301105730e-01
3.516712675156403733e-01
-5.144514941500559768e-01
-1.188636631858417392e-01
-2.292255787687615953e-01
-5.130305960205332472e-01
3.998443957764405976e-01
5.054727216547809654e-01
1.644184100761503231e-02
-1.057378555447343604e-01
-5.858459571550511669e-05
-9.194980889675901103e-01
8.849740745881151671e-01
3.015731934337675391e-01
-3.830500664340006356e-01
8.003581822752681152e-01
-3.254291909007043238e-01
-5.157951596619603229e-02
1.584168073795713116e-01
4.756134317025551006e-01
-4.898347881815290350e-02
-7.693703719185540635e-01
-4.738084844738148504e-01
-4.570703310332158154e-02
7.670869532428250537e-01
-4.428541763365902995e-01
3.376264938175355113e-02
-1.276456416807218996e-01
1.256821616180479051e-01
-6.286188235332639263e-01
-5.207018805174623566e-01
-3.693682238929314465e-01
3.668956900683202349e-01
1.159094480126887650e-01
-3.213353161799719082e-01
6.629921410648613733e-01
-4.837917061862921919e-01
-9.372210720289610997e-01
6.241759681668839210e-01
1.501196497654830875e-01
-4.823447155297697631e-01
8.646713965106933575e-01
2.575008668968803427e-01
-2.945645051692615812e-01
5.789370457787512692e-01
8.975337867649875179e-01
2.169361151809989785e-01
-1.239595100134791572e-01
-7.105359228414640516e-01
2.302447767440400916e-01
-2.922944621095142637e-01
1.571176377650094214e-01
7.798500931012883886e-01
6.299191763308169545e-01
-7.379953186679419908e-01
-8.843487375904897085e-01
-7.109893646566982639e-01
4.043213476450668864e-01
2.123048440505634904e-01
6.302105316783592759e-01
2.095459305153779539e-01
4.155591897728805328e-01
-2.730356675135903188e-01
-9.057876000818474438e-01
3.982492272810522760e-01
-7.526609845003424670e-01
3.319877610284209801e-01
7.065443053027120612e-02
7.142228098632696920e-01
4.904420536848352885e-01
3.700490665405156143e-01
-1.561946613473508272e-02
-1.742294208201666805e-01
9.212347366465323262e-01
-6.582740680762404484e-01
6.419019544041368874e-01
-6.342636685553459941e-03
-8.466613255344939137e-01
-2.399659906279569821e-01
8.115256938834958245e-01
-5.915447489576122209e-01
3.985402850628489979e-01
5.300215010500963775e-01
-3.164318784112338800e-01
7.597422435853702360e-01
6.482557937160291495e-01
-9.093317775236562372e-01
-2.752852782937664777e-02
2.529851035571315521e-01
-7.621292354702018379e-01
6.194787168452986492e-02
1.496889968169483609e-01
7.698266088525731465e-01
-6.259196600379688391e-01
8.411894018508612181e-01
2.616665666429123238e-01
-2.511535576621526378e-01
-6.623710498875423625e-02
7.352909422263287365e-01
-9.407784374911740688e-01
-1.162317678915592012e-02
-1.091243425329668781e-01
9.241215606231847346e-01
7.795341371510655648e-01
-6.074097003484351109e-01
-6.281716232751191065e-01
-6.774216474156031786e-01
8.514897852791938337e-01
-8.407256023530431666e-01
-7.464623265226899562e-01
9.915808789290705416e-01
2.684778431048453484e-01
-3.586368178920198435e-01
-1.425444422136432632e-01
6.763938704460636941e-01
8.667738139024121491e-01
-4.041820823092900916e-02
-6.947764986179978397e-01
3.901528883389169255e-01
8.746579824101734513e-01
9.718339003080478378e-01
7.658011126665213997e-01
9.110665261498509526e-01
-4.546455216110887321e-01
6.063886247697529708e-01
-3.401113613970059291e-01
-1.916152841786789018e-02
7.135159895239853167e-01
-7.684735834955176426e-01
-6.545520439364584941e-01
-6.466106612321511626e-01
3.461925333625548440e-01
9.460400883696273855e-01
-6.465602603326712217e-01
8.633057028997361826e-01
-2.964212871693534535e-01
2.687384116471072115e-01
-9.268696739870549983e-01
4.636893393076966241e-01
-1.559310499003161432e-01
2.317923322332346991e-01
-6.255717128630493562e-01
3.176332492942797181e-01
-1.783166234071067446e-01
-4.477017160805893958e-01
-6.931444316584414178e-01
-1.139354978068367608e-01
-9.176368212344232500e-01
4.546631721939098369e-01
-4.423704096841922784e-01
-1.532853745815896396e-01
-1.938404795043473516e-01
6.556712866306266818e-01
-2.819487819144221863e-01
-2.397738752395239814e-01
3.601134056381805060e-01
2.278001002774754369e-02
7.451098617829989834e-01
1.630783523911227828e-01
-2.285468452369525671e-01
-6.551502864367202417e-01
-6.067972177765224018e-01
4.661440198322666095e-01
-6.436687456194485346e-01
4.549747273342379383e-01
-7.879454020467591135e-01
-4.214981287729717696e-01
8.794571077773483125e-02
-3.005002216625392020e-01
8.453874851562210857e-01
9.668717108721511799e-01
9.745172094760494730e-01
8.379995766672281299e-01
-8.222837564117790876e-02
-1.441419144898266058e-01
-5.064749185676116205e-01
7.086591543824738437e-02
-7.832329822972095013e-01
-7.941366497104256350e-01
-5.178911606143756785e-01
5.732851842084119021e-02
-4.909168690251033418e-01
-7.303526266786060095e-01
-1.767756479977267148e-01
-7.541897139516118287e-02
-4.888961296258227396e-01
-8.102942105060917388e-01
-6.710345085202722437e-01
-5.592166925779584741e-01
-1.095982934614452287e-01
6.248166281039093661e-01
9.964863178785632325e-01
-4.459194265216028796e-01
-8.354903207422039735e-01
8.127679272322787529e-01
-1.495822779653381840e-01
2.619700299283027611e-01
-5.926244030293716936e-01
-6.872325128350185164e-01
-3.437038122734168422e-01
9.956088940580438695e-01
1.940006277010559721e-01
-3.236555258783324618e-01
-3.926774471719116644e-01
5.385396406371223410e-01
-9.474115658179276256e-01
-3.747082734527127368e-01
5.131039988047327860e-01
3.924993065041402218e-01
-8.210836245627421981e-01
8.257410261105850857e-01
5.013974297795875668e-01
7.006143745896162844e-01
-6.191778616660497114e-01
-3.693189723419996184e-01
-8.010179734686737607e-01
-5.149934068256438735e-01
-4.713942228651859523e-01
5.884079082884914325e-01
6.250340259317772595e-01
-8.775814490862841044e-01
5.346169181259294856e-01
-7.531468588899492556e-01
3.014132006378487105e-01
-8.141158490732207653e-01
-2.781076328339946446e-01
-6.837209532301848913e-01
6.960963088153673262e-01
8.715909700344828259e-01
-2.528550803746802966e-01
3.680128451882538343e-01
8.827771289883374894e-01
-4.739965205284613070e-01
7.761795688758865719e-01
-1.975441673161471012e-01
3.418293666068050740e-03
4.465129208104576808e-01
-7.990121985415337136e-01
-1.960145680286065062e-01
8.619936202437712414e-01
-1.190466719028848708e-01
2.277268906420619743e-01
-2.682348222120898296e-01
5.682130478679283669e-01
9.817741875581296185e-01
7.547482209529432495e-02
4.387652149444742911e-02
-5.280822415748041010e-01
9.038316002912758496e-01
8.949183554604911439e-01
7.374588910027157773e-01
5.085773067319354634e-01
-5.910554117345883096e-01
-1.149122763958887461e-02
-8.503214875905895642e-01
9.095900604034614645e-01
6.603053375714924567e-01
6.408957500988816669e-01
-4.086361074857973730e-01
5.286633061513414944e-01
1.775658332833613962e-01
-9.019724532926916005e-01
-5.455911166899680698e-01
9.016118739127279014e-01
4.618645397410456876e-01
-1.793405937777592385e-02
2.824883810779359461e-01
-9.052027689087385198e-01
6.488517147490930892e-01
8.055230863959468302e-01
-1.465238387268574805e-01
-3.788518542031105163e-01
-8.893665922451032824e-01
2.676341437911973209e-01
3.070795233498777588e-01
9.499960280972845617e-01
1.120787653032013775e-01
7.007617058946551403e-01
-3.391721123055235765e-01
-6.419216153853168905e-02
5.275413089770699671e-01
-4.274314872264182164e-01
-9.057400588597985802e-02
9.579588287198801400e-01
4.633488336950706277e-01
7.015815007621786226e-01
-7.006241003615583107e-01
1.794616300758153926e-01
-7.600685209868573988e-01
7.959334969545066585e-01
-1.961070682310963598e-01
2.590654531106963976e-01
-5.056059825138836672e-01
2.878706513466231520e-01
6.102034800185931473e-01
-2.801326762380771385e-01
3.742263560209502238e-02
-9.577789293833729456e-01
2.137571235649173840e-01
-5.508771050016603166e-01
-4.552200180560348475e-01
4.223843443920749507e-02
6.017784547496107805e-02
7.041330698867240834e-01
3.205343042724753122e-01
-3.860776203363651682e-01
5.441190695266191479e-01
8.861293008606181409e-01
8.466304304970906358e-02
-6.555502005127507026e-01
-2.497545034910735318e-01
-5.121503216743283904e-01
5.020969720479195875e-01
1.160855248462293599e-01
-3.108026479776688777e-01
-7.264838635596400085e-01
3.883659747204679658e-01
6.430920144481229173e-01
1.488313572955137776e-01
-7.355750928338440353e-01
-9.370650550222725528e-02
3.825771949641734171e-01
2.813071171198009424e-01
-7.245349178976099314e-01
5.138731582832467559e-02
-7.628021343029218748e-01
-9.686286781695880865e-01
-6.269550054570898201e-01
8.653679132616285408e-01
-8.950563368891062410e-01
9.193614633703539596e-01
-8.147084361627676685e-02
-9.006378937796017947e-01
3.009814566203372621e-02
5.234303556906148014e-01
7.812890286255664840e-01
-2.919054912736251950e-02
8.020754191821133361e-03
9.867101173090493393e-01
-2.859279483839558544e-01
-4.722141966087920473e-01
-4.199503100192565341e-01
-5.146013322152789282e-01
-4.153736671525474211e-01
-9.341422390219789040e-01
3.426983105125049889e-01
9.010359637785030351e-01
7.088663457689479142e-01
-1.027971314699653860e-01
2.946453368593218158e-01
-7.668288700980130379e-01
8.099582294430425211e-01
-5.276117616853701620e-01
8.929930156411287623e-01
2.641628755510041504e-01
-2.749586568191872971e-01
7.966510835528022305e-01
-2.766835435721268777e-01
-5.701113905240442481e-01
3.654796014856316333e-01
1.818171600021796230e-01
5.255126097503854954e-01
3.701485025551134456e-01
-8.870286948440808672e-02
-7.835205354035175151e-01
2.888106564139476529e-01
-3.789033933472625293e-01
-7.165273658757764785e-02
-6.296135623174592411e-02
-4.575535596453630394e-01
7.439823469688302549e-01
1.350179354405514065e-01
-6.107500701794765785e-01
-6.098673197681330205e-01
5.205517748183892124e-01
2.136027837654885797e-01
-5.901069817484616564e-01
-8.107619170542830211e-01
-8.683237135562715814e-01
6.380623524467288199e-01
-9.365610156798338526e-01
3.253998329064522466e-01
-5.508060280992397306e-01
-4.262905910464465098e-01
-9.291301495997368320e-01
-2.222453575041027918e-03
-2.591448906508515559e-01
2.962170678070423779e-01
-6.783317615134443201e-01
1.438327636491616435e-01
1.862020441783900360e-01
5.164028400204909719e-01
-3.471872701263611916e-02
-1.718926021242803692e-01
-9.456342441345644279e-01
-3.498176006199262833e-01
-5.744412195117827302e-01
2.295865474813247875e-01
-5.705500981763915735e-01
5.377587616077916799e-01
5.100667526495192838e-01
9.434958981643237763e-01
-6.322420417219951627e-01
7.589843019412705338e-01
-7.137963231294213173e-01
-9.113628472849522044e-01
9.294366799968112325e-01
-2.308536605267217379e-01
7.252364271869755630e-01
-7.061323823044474146e-01
4.300779989366005918e-01
1.392746445353505447e-01
-9.822778361603961006e-01
-2.631527057134244174e-01
3.465195849141089468e-02
-5.539391492270100414e-01
-7.918354461032439673e-02
-4.762485434050593991e-01
7.832162065310344090e-02
1.314513414598315055e-01
9.029929851959250797e-01
1.744651429534989084e-01
6.230521125762304990e-01
8.282283473364038251e-02
-5.295564366133769241e-01
-4.106009817532392248e-01
8.616328277701121863e-01
-8.729130352272185256e-02
1.951679695246018031e-01
3.118082945066835698e-02
-8.345565950127793453e-01
8.725175283215045319e-01
1.884117766800963434e-01
-9.418443660075399571e-01
-2.576552683604593774e-02
-7.630190232149076657e-01
8.702412757113515696e-01
-2.994398395769215515e-01
7.175001602988246852e-01
-2.372923212592514819e-01
-4.917645602340863231e-01
-8.508409252088058317e-01
6.863883556279324338e-01
-7.250557894866482833e-02
-1.294991358899164613e-01
-9.844358087321851691e-01
3.202787760442098453e-01
3.554092052900974519e-01
7.573060153112629589e-01
1.921181407720649048e-01
-4.063344525252488015e-01
-6.281669640825182643e-01
-2.941588318255101697e-01
-9.695808523011471003e-01
1.018860135507064779e-01
-7.704517819457350480e-01
4.397999739955138487e-02
1.835407209225681235e-02
4.033699764458908987e-02
4.786513029343137937e-01
-6.374872296181568476e-01
-5.460800433975663282e-01
2.187534886619191266e-01
-7.267664878578519172e-01
-9.523124022820776968e-01
9.824913323382835628e-01
7.261758420033759265e-01
2.193683626053217761e-01
1.745819980746097233e-01
2.883629656421591303e-01
4.254138299650234156e-01
2.400501348091350629e-01
-6.090505136085062610e-01
-6.848028236206722408e-01
-4.770979203431153781e-01
-4.916990290888991755e-01
-3.806847629885103945e-01
6.460145463708659719e-01
5.870708072910213460e-01
-2.240586026712128032e-01
-8.334639055455013157e-01
-4.174413042861901957e-02
-9.604954613819249865e-02
3.321485953464817786e-01
-4.598810620634969926e-01
-6.464589310709090153e-01
4.833739803569974125e-01
9.988815040360989883e-01
2.346533460671933469e-01
-3.408272575205351096e-01
-7.619129255607497431e-01
-1.805820463202596482e-01
3.650741116982356704e-01
5.808240828511694875e-01
-5.420864609013984481e-01
7.999472085461380999e-01
1.867498809550145467e-01
-6.124276137202686598e-01
2.086001736515448179e-01
4.722887480899113921e-01
-1.525752605352850289e-01
5.049756126321276462e-01
3.951334346053085866e-01
6.851073319360561076e-01
2.276922840747497290e-02
5.159545481443505999e-01
1.359876330229496944e-01
5.547925960918294042e-01
4.190563342135547042e-01
-7.514654501886186555e-01
-8.169748376088143971e-01
4.725908375752083668e-01
5.379543424570010224e-01
8.725716370739846628e-01
-6.864948922272253728e-01
4.682666341384289499e-01
2.545831450095075166e-01
-3.883719085386299064e-01
-1.422075369703239556e-01
7.385830536780710887e-01
1.151148466317244434e-01
6.765691258355768234e-01
2.074753334387529069e-01
-2.791876794841652298e-01
-5.667034882335897361e-01
7.520945310074751422e-01
-8.997102710486293287e-01
1.082123202775935322e-01
9.569317991992716266e-01
9.391222356490136480e-01
7.244370450630999159e-02
9.637882007202180912e-01
-7.330613490458806059e-01
-4.669361765537547448e-01
5.849742207509456282e-01
-6.124566944623990317e-01
-4.204245277031131156e-01
5.260052602336928729e-02
-8.136199778203083710e-01
9.261454365236425623e-01
1.584056836066862761e-01
-2.496774246637518679e-01
-5.725767261277869835e-02
-5.678395911604863233e-01
2.716359044155980396e-01
4.693964473172722585e-01
-8.588986811393182208e-01
-8.700213574603683497e-01
-4.022622148875250048e-01
6.620338340869535987e-01
1.887193437233423143e-01
-2.474571547080297584e-01
-5.915356470597377125e-01
2.581414732176738891e-01
-3.699344075352799521e-01
-8.347849735702288498e-01
7.748735533167947498e-01
-2.389017024261494981e-01
1.767654810489853734e-01
9.539902031685074668e-01
6.686382676543649595e-01
4.870713827170314314e-01
-2.742011851118257848e-01
-1.774710984757885690e-01
-5.060187962749391755e-01
8.461144349317408775e-01
6.140401335887988310e-01
-6.300170455884581688e-01
6.861867624908895014e-01
-5.192150684834646590e-01
-5.884391532778270317e-01
-2.516892837974498143e-01
3.781166264955657663e-01
2.571536131830780558e-01
-2.510301667855812102e-01
3.265084312040238412e-01
-6.664901278481634161e-01
9.302656846110521904e-01
-9.305166239560238584e-01
3.410531426383314191e-01
-8.404772217938947243e-01
9.622495344143160434e-01
3.503779044948931443e-01
-1.608471984148343026e-01
-2.814617143957292011e-01
5.664674169202768006e-01
8.057803548443256414e-01
-5.483277373783821407e-01
-7.523448875603686581e-01
-6.033241603142553977e-01
-2.628382536911975098e-01
-5.778814140184165282e-01
5.743298141831083559e-01
-2.431322390371837283e-01
-2.773559003947696500e-01
4.198653192055010752e-01
-8.220832688390211640e-01
-6.485735559354852686e-01
4.380727758409852513e-02
6.151569581782501128e-01
-1.388786017245247084e-01
9.781360481293952525e-01
-8.676567475253560424e-01
9.166708693436300681e-01
-1.972372289602986051e-01
1.803061441437836532e-01
1.123913654201409429e-01
3.785934844112868181e-01
-2.555160836389143153e-01
-7.756471196911172150e-01
-6.358630335948749490e-01
5.030128290679951597e-01
-1.424655132752972175e-01
-1.203519819607630215e-01
9.259423203494880905e-01
8.512456580178731080e-01
-2.443667944991430030e-01
3.854689594274633979e-01
-7.605616108162907008e-01
-6.202161714091876110e-01
-3.112093083776374947e-01
1.138904937943130413e-01
-3.479685518791384435e-01
1.672907837795789554e-02
-8.504532606750938584e-01
7.901159765746537111e-01
-6.369729888668995699e-01
8.124381792262092006e-02
-6.147974035558041450e-01
-1.027926561571232966e-01
-1.149266522717211636e-01
-5.384379186439414156e-01
-4.795104221707642278e-01
7.225296269203160815e-01
2.306183431000550232e-01
1.347579540472916282e-01
9.510492110249193498e-01
6.543045529657534054e-01
6.586308280147443739e-01
-2.348956695055219868e-01
-7.393287950493911964e-01
2.786689371268789017e-01
2.190946168350593748e-01
-9.907701023601411805e-01
5.473308478937899402e-02
-9.453176950997252970e-01
-2.060440540228298811e-01
-8.346092793406592047e-01
-1.875141445019068431e-01
-3.438455673568356907e-01
-6.214740687287676479e-01
-2.037849135243812171e-01
-2.318587888758021354e-01
-6.128782757082931187e-01
9.125435951940730206e-02
-3.361695663829766811e-01
5.929228793832950206e-01
-7.560887228452877196e-01
-1.152976752474887956e-01
-8.510815807824272383e-01
-7.769641093869146253e-01
1.769180785187995930e-02
-2.340476940756972546e-01
9.534286594272616266e-01
6.397681556362238009e-01
-7.091811473782592135e-01
2.352422998994772030e-01
-8.163769435409573560e-02
6.209446203461930214e-01
6.697996761644566810e-01
-5.809129962300105809e-01
2.389142990845873893e-01
-7.240557233219582223e-01
-3.364068024435562521e-03
1.371789064666861790e-02
-2.256465308356847554e-01
-6.811018825075401129e-01
-7.945365102222845533e-01
3.171753673969941456e-01
-1.287448888860212026e-01
-9.621675717836528641e-01
-1.845373934850020881e-01
5.201965625630473600e-01
-6.972564016916986684e-01
6.517759046171864856e-01
-9.096005790260401902e-01
5.172726433313132866e-01
-4.004069286448874720e-01
-9.917315017006549382e-01
1.170773386893841916e-01
7.424618560130624711e-01
-3.744716086110926323e-01
-2.300157439809917825e-01
4.445407069478184425e-01
9.544475077598388868e-01
6.818334364526164038e-01
-7.565338170825974817e-01
-5.051454552165237644e-01
-1.302059862343047936e-01
-3.127224634206569043e-01
2.340900590739547482e-03
9.245581989421913782e-01
-4.122305804765296067e-01
-4.220812381987539830e-01
9.637518902094410755e-02
-5.820770460350455089e-01
-1.125378278495869910e-01
-5.698768747304676641e-01
5.379820246126776340e-01
-3.303838628643609443e-01
8.049211995449034873e-01
4.486473596190452273e-01
-5.448457137774740389e-01
-1.081648898587730390e-01
6.835940080648290618e-01
1.840555709723350475e-01
4.578182300371618219e-01
5.485021084777943479e-01
8.651096224377652355e-02
6.150346383611062784e-01
-4.768766824308774410e-01
-1.913239498559780039e-01
-4.401488916342892743e-01
-9.710361498146711234e-01
-9.958761322486253675e-02
-7.841651775356375254e-01
2.033710082774735639e-01
-5.156121974438061528e-01
-5.134663327483288686e-01
2.883285947912368474e-01
3.495601304355024919e-01
-3.126863595059070633e-02
-9.213724438320536336e-02
-4.980933566974963256e-01
5.457241083827546468e-02
3.725793121164409083e-01
4.926791355064688016e-01
3.116059852498027638e-01
-7.664575086281748550e-01
-6.043172381374379842e-01
-6.735724994369471919e-01
-4.280534105701350178e-01
-7.946885893054549399e-01
5.148065800072265663e-01
4.957520517411444505e-01
-4.666213722106735684e-01
-8.655143304161061479e-01
2.881408096724182855e-01
-4.351148902368304761e-01
-4.073652678154824347e-01
-4.176243467229325823e-01
-3.766867633193271558e-02
-2.004959494415041732e-01
-6.520322568830716481e-01
3.556332703322540034e-01
-9.476401817917778914e-01
9.561087363054183719e-01
4.918105273570059222e-01
8.338414012097796757e-01
7.374543245533793367e-01
-9.184984528191280084e-01
5.382511111399268522e-02
-4.468837680328756612e-01
-3.017390258450947105e-01
-9.249749003028577832e-01
9.891508330040863495e-01
-7.965196420785793929e-01
-9.810879900569398071e-01
5.648385903702106692e-01
-2.447665953513760151e-01
2.244785179272712483e-02
5.726680775234365139e-01
2.716894923506130155e-01
-9.604253521325736287e-01
9.276897810280464451e-01
-4.976905056478453382e-02
-8.954423174372376781e-01
-2.410561353246456484e-01
-8.622883700926911033e-01
-4.269523648963400309e-01
6.999863289139718336e-01
-5.818470548130827424e-01
-2.998634493373719678e-02
-6.026241772855194245e-01
-1.097900747399378485e-01
-7.365794470578737041e-01
-5.936466007654939148e-02
-8.994930256721986872e-01
-6.540677395340099842e-02
-5.657517267822602669e-01
-2.132245696951793335e-01
6.034063308589174834e-01
8.956275627366627745e-02
-2.801757145298002794e-01
1.606925871441979847e-01
-7.853427275285655984e-01
-6.653904399528873803e-01
7.267264154173957991e-01
2.245707111615666829e-01
-6.371359838853805080e-01
4.969168447625180729e-01
-9.479212653446182912e-01
6.217953547680126203e-01
-9.317079716003280332e-01
2.453237426206789085e-01
-3.221056099677992446e-01
2.166796788744602686e-01
-8.254382644361011323e-01
-9.031602222474985897e-01
7.040629283359935986e-01
-5.761585589160289622e-01
3.266003756306292694e-01
-4.260374836044167335e-01
-5.109153225748797045e-01
-4.187696121256065940e-01
-6.978714877391321014e-01
-6.889748808899986976e-01
-3.569067687479319240e-01
6.224522621853865179e-01
6.759022348968863891e-01
-3.479936843150337467e-01
-4.621740504590958754e-01
-5.873145618002337809e-01
8.585389620189165516e-01
1.270906202526078665e-02
-1.087913907724014084e-01
-2.977299296438928877e-02
4.852739381926609585e-01
-8.811342798652566088e-01
9.678752173711706597e-01
-8.120577028364972527e-02
-8.164303768906258085e-01
-1.463286752024395287e-01
-9.067275144254240971e-01
-3.379403348400695783e-01
-2.740288718195029727e-01
7.948471051179106794e-02
3.384152283241206316e-01
-1.447946859691180421e-01
-7.478934794034830524e-02
4.178836861303976136e-01
5.170205195542956211e-01
-3.474516841579140536e-01
-7.463672064674602424e-01
2.967315609501415263e-01
-7.005149822952325689e-01
-8.995467355975583779e-01
1.059538885682649312e-01
3.898623817359894161e-01
-5.864519152164211491e-01
3.141886018539747916e-01
3.701601883485727829e-01
8.118524325099265582e-01
-8.324927087023623606e-01
-4.037361114939204132e-01
6.654936301475389282e-01
-5.972058101544841513e-02
2.739422927555221765e-01
7.670447979732910593e-01
8.769555480920243618e-01
-7.588958206420799435e-01
-7.990144748153398258e-01
-7.430364326130134422e-01
-5.941457990521170629e-02
5.296957785998175350e-01
-5.643013935956817662e-01
-3.927465848888154198e-01
-1.940735918349154598e-01
9.468299606812740077e-01
-2.694070538965862571e-01
9.371535973118765295e-01
-4.767257614146451772e-01
-5.226762462674896526e-01
4.624094701584571254e-01
-5.111357986313922463e-01
-9.248246271462678969e-01
3.907671685463858235e-01
1.085833759995840087e-01
7.535194869450143607e-01
-8.788800044398981104e-01
-6.527543193524578680e-01
-9.196953753912691099e-01
6.026949357822091180e-01
7.624018445877467354e-01
-1.566319465164034419e-01
8.348407691682673271e-01
4.408998951371332353e-01
-3.868110016553867325e-01
-9.388935887925775603e-03
-6.347619020770558507e-01
-9.566280282909733756e-03
-8.900713450661104087e-01
-8.998940774859287561e-01
6.116351244158924061e-01
7.459711042756267396e-01
1.252324489258000995e-01
8.852715745531858360e-02
8.896366778425612853e-01
1.854923263548908796e-01
-1.394471107669736920e-01
-7.903231304213922392e-01
-3.481471979441850273e-01
-5.315490079213573971e-01
-5.875183155032077664e-01
-7.238198659053804995e-01
-5.654646950202486533e-01
-2.407892554005586216e-01
-9.311317827219973697e-01
4.376138736007486596e-01
-2.206545681921110447e-01
-5.450607357487353699e-01
-8.651802141868765172e-01
7.075079785375537611e-01
-5.966193485487725212e-02
6.058231484142340140e-01
-6.875319588580686148e-01
-4.448113725868718671e-01
-3.853573089658008932e-01
-3.422272399168222456e-01
-1.758471592548291884e-01
-6.639330787876673856e-01
-8.232832305767980863e-01
-4.542832189464627302e-01
4.204564191404167595e-01
7.638025290123369171e-01
8.308475767027811987e-01
6.489733577541672016e-01
-4.798727989588100762e-01
-9.145940304908970475e-01
-8.910329736101567644e-01
-6.924028445453485059e-01
-9.316794212945547216e-01
-5.296748783295546215e-01
6.971802280754169079e-01
-7.704106997218709285e-01
2.937359374364196807e-01
5.298653115315183904e-01
-7.764823239388873866e-01
-3.897234589275750949e-01
6.787764861907839009e-01
4.477681611522967842e-01
-8.581693697146155486e-01
7.285234113974365933e-01
7.171418293232785235e-01
-3.860168519097380013e-01
-6.559959275859903460e-01
1.164316424105997783e-01
-6.983178455647780503e-01
-3.680442320679229162e-01
2.942116655612301290e-01
-1.469349103807866541e-01
7.520355320828953083e-02
-2.490370816342268867e-01
-2.065626213959312896e-01
8.745682562036918295e-01
9.502108860272096003e-02
-6.595207508057074897e-01
-9.946706749047735663e-01
2.025998832431687990e-01
6.139502827542613339e-01
2.268650637812503756e-01
-7.785509854268866103e-01
-4.305567013023159362e-02
-3.583451144074667472e-01
-4.193854291692999947e-01
-3.740072825875215834e-01
-7.008218279920541693e-01
6.386512372856480990e-01
1.946655398252428171e-01
-6.227367897902094107e-01
-8.718760998446517529e-01
-4.128158274493343161e-01
7.905601973624507561e-01
7.730104289917689719e-01
2.540274839870182433e-03
5.393242061199865489e-01
6.934117200478362442e-01
3.308623101131733524e-01
-6.905784073511418431e-01
-8.000711077231275059e-01
6.088144641082506858e-01
2.272867159461999798e-02
2.659623871786784832e-01
-6.803096767572307524e-01
-6.350112621312153927e-01
-9.473505327602707027e-01
-8.010172114924560827e-01
6.077466926131793734e-01
2.593098411907910350e-01
-7.381053879660746109e-01
8.170365934042111977e-01
-2.517055912954477837e-01
1.161810965848630861e-01
4.779445964849893258e-02
7.969300262367742249e-01
-7.523591603631596403e-01
7.119505278792426228e-01
1.947717909867645592e-01
-5.761789469624074567e-01
3.914993675028490827e-01
-8.896415268503006235e-01
6.336654622598572040e-01
5.849844418611895858e-01
3.734951944550235492e-01
8.261978932507327844e-01
-6.183837389538113793e-01
9.792387340284771646e-01
-8.466395845467533654e-01
-8.129698954324893201e-01
7.257322718707126530e-01
7.601702139988837370e-01
6.437631230085860690e-01
9.589823606351988161e-02
-5.264601058184248394e-02
-7.078582514084019728e-01
-1.215581714402427238e-01
4.228999136889557420e-01
3.558327289827076800e-01
-4.830697171883997498e-01
4.775441094609296222e-01
-5.437167134415388237e-01
6.011206288700960965e-01
3.837917499940539656e-01
2.805680915979047452e-01
-8.820731067214007126e-01
-1.049537624985308337e-01
-5.843336811119941299e-01
8.253617798159265107e-01
-7.724971391397965625e-01
-5.280715386213714613e-01
2.231212105861462014e-01
8.223333926063856048e-01
-5.476766921401343691e-01
1.945007477463245316e-02
-2.325858697489004978e-01
9.377047072113011694e-01
6.399813173784698606e-01
1.416190456261838815e-01
-5.651975045511927753e-01
-7.636273620525546590e-03
-2.059321063881272007e-01
-9.087358869519457372e-01
-9.589235532863336076e-01
4.682272552227868534e-01
7.035544824035389055e-02
-7.827643930204710720e-01
7.477601685256185515e-01
2.342540950499769625e-01
-4.623520645316185895e-01
-6.622219576348349346e-01
-4.575795950998715611e-01
2.629466005829455000e-01
-6.823139405217879538e-01
6.368869259759468715e-01
9.857812744444465203e-01
-6.904462730089377942e-02
6.142850684575458242e-01
1.752723333542791639e-01
-3.392200455232716738e-01
1.604579902895286736e-01
8.851781658222319660e-01
6.464855502695754375e-02
6.867661842244916492e-01
-4.038695102971656681e-01
2.578462910676395659e-01
2.253761282239625796e-01
6.118158753166200725e-01
-2.656438850321116707e-01
-7.114330869816050118e-01
-4.416777829891114227e-01
2.678286059276575592e-01
-4.194040451606424469e-01
8.682379101117569942e-01
-6.341350895971895607e-01
-7.999253429223562861e-02
3.984703956498227839e-01
-4.213067836547417233e-01
-4.044698515509514980e-01
-5.015117595876510403e-01
9.075106888452115772e-01
3.043704793583854595e-01
-5.219644468379907032e-01
2.219369048247501475e-01
1.375441375384984788e-01
-9.063041242177258816e-01
2.134889677132338903e-01
4.951081778596955196e-02
-2.778021670097012841e-01
4.770466376594804103e-01
7.251676726464710843e-01
2.665551294326535814e-01
-1.971269157660282545e-01
-8.214087320896901190e-02
-7.094162146580289541e-01
4.969130466862350382e-01
6.294816080137810577e-01
-4.605716654937741517e-02
2.957228248537868698e-01
6.460585201079109829e-01
5.160262330860609925e-01
5.663097480748033874e-01
-8.579634002807805526e-01
-6.844603473532497873e-01
9.271533430044729407e-01
2.748135689594866093e-02
-9.221409739123469507e-01
-9.291800210481975242e-01
-9.693318100601380216e-01
4.793384462650225331e-01
4.987439140176119778e-01
-4.221406835539955882e-01
-8.031333934032058863e-01
-8.152750957343837257e-01
9.511071936381076952e-02
-4.867955153585779016e-02
-4.291855564521849242e-01
2.289710811770324650e-01
3.820284475227229137e-01
1.686919275227947157e-01
-8.698335751095094270e-01
3.179153376594474611e-01
9.720451351754721969e-02
2.182003043105740225e-01
-6.413841129848143474e-01
-6.105685286961002323e-01
-2.388620526264475519e-01
6.424734795319102520e-01
-8.569574463987073010e-02
-9.887896455855347266e-01
7.817002926575677968e-01
2.520329691022824559e-01
1.310278129137900649e-01
-5.677973357486392203e-01
3.679421653049550489e-01
-7.201130266121860135e-01
-8.953358789628271808e-01
4.809107592082939586e-01
-9.080713607092403272e-01
5.537312580145670182e-02
-5.325039228014267767e-01
-6.121652761642977225e-01
-3.561196192181854681e-01
-5.892607101096591915e-01
7.083436461812198104e-01
3.402500526299152561e-01
6.571163686134515736e-01
-8.897953066107338049e-01
-9.790591854416179629e-01
-8.494563891496915709e-01
5.163940519748801972e-01
5.454543412893562149e-01
-3.655466008593475369e-01
8.125150431317296196e-01
8.124293553631511955e-02
4.106361945162142479e-01
-9.056213180819645547e-01
7.846156355236941771e-01
1.244782259813386194e-01
9.551654804857905301e-01
8.000888672063162232e-01
-4.014067187283489879e-01
-9.244167442647182042e-01
7.964531194089641275e-02
2.064456267636249898e-01
-9.009594569218535298e-01
8.125854266264695980e-01
-8.188323320539774297e-01
7.045085468712568577e-01
-6.937622409011845459e-01
-2.295497967003856665e-02
6.765628975291348990e-01
-6.573556593570411000e-01
8.833548155677712899e-01
-3.411416684967845114e-01
-3.117808449801897641e-01
5.347494714048244280e-01
-7.860676611589811902e-01
-1.761515076808701785e-01
-5.998520181347408720e-01
8.854536573665683363e-02
-8.767708484332112917e-01
-5.478982843567292704e-01
-7.851690962228647930e-01
1.455566467944422460e-01
-6.630178063777174557e-01
8.398492408017446120e-01
9.961119610513351486e-01
8.865588809696256511e-02
-3.571334179713003820e-03
-6.178359613798893868e-01
2.672268355660769590e-01
-4.115704916835591920e-01
-7.935633819447505122e-01
-3.120284850981211999e-01
-1.817752911403003324e-02
-7.265034172767226295e-01
-5.765251194582721173e-01
-4.931410163388754153e-01
9.550387388876990791e-02
-5.767232880515029692e-01
6.641005754750599621e-01
3.116738962084619757e-02
6.792287034018269498e-01
-3.301937985919090046e-02
6.452341526049489850e-01
-6.349674086623815494e-01
7.544627690179832591e-01
3.442349338590240393e-01
-1.311677558681789701e-01
6.144917640448046559e-01
2.164378870750529593e-01
2.582042968024276242e-01
-7.499398147593907549e-01
5.926721411977646792e-01
3.019665244386731118e-01
8.497297392218294831e-02
-5.665113097214118376e-01
4.174512924630877642e-01
8.474640452605213259e-01
-7.007042624199819603e-01
4.568726544419698943e-01
4.010816227763847053e-02
9.131039301480872172e-01
5.293575913783059583e-01
7.766483236762782294e-01
9.641274743461321073e-01
-2.654940730232380197e-02
9.490180647419808047e-01
6.643403741724585032e-02
-1.879494083673214355e-01
-7.668840240275609510e-01
8.584220460975759970e-01
-7.451719018552287466e-01
-5.523219489343500488e-01
-8.403476085105223703e-01
5.297188447029597125e-01
3.250908883654481940e-01
9.935939734879248864e-01
3.942259371623639819e-01
7.135401993772363394e-01
-7.027672050645359381e-01
-1.846509065596584342e-01
-9.811125021077804487e-01
3.375332651763212066e-01
-4.959320245271747751e-02
4.410118805014118237e-02
-9.058525101204755181e-01
4.357277605847498236e-02
4.846640069867798051e-01
8.165637034237818170e-01
1.808160541341667926e-01
9.322522784959310638e-01
-4.871944090746795908e-01
-8.653197326915451626e-02
-1.872086298688557804e-02
-5.492152053207646212e-01
5.231605046535185988e-01
-5.465313959101236740e-02
-9.711536302343835025e-01
4.153118475727586301e-01
-9.466654054947920560e-01
-6.843365256649540651e-01
-1.780956433585092480e-01
4.215037602186630927e-01
8.071828145262565091e-01
-5.661602780023990977e-01
-2.982943158902817693e-02
2.754418321073397458e-01
-3.015994088481430691e-01
6.415813483555923291e-01
5.632532776016985210e-02
-8.154010628823649132e-01
-7.033934292028964919e-02
-6.172406245939539016e-01
1.753616544542624389e-01
3.118749697053282421e-01
5.625141751047422201e-01
-1.361579956930436541e-01
9.112776634504942130e-01
-2.665614927757611330e-01
-5.670104213167617146e-01
5.501684131487225571e-01
6.604238236448098931e-01
-5.124337603778983397e-01
-7.486176010405523051e-01
-8.280480586432097390e-01
-5.166951602197222826e-02
-8.920501953093387115e-01
1.488143753275612546e-01
-7.579703113083717803e-01
-4.102731516386355359e-01
-8.671295355267938376e-01
-6.013452794285729652e-01
4.986587280528320676e-01
-7.040296851372833675e-01
-8.321967602879731807e-01
9.383495207862793119e-01
-9.192209731720459853e-01
-9.926105077183420278e-01
2.650870121085528996e-01
6.562879399540006986e-01
1.317111361902103539e-01
-4.756722268417605815e-01
-9.878958091130243258e-01
9.553750700942578167e-01
5.869179361091665381e-01
9.061606093580902854e-01
5.359808510244132851e-01
-8.862292266471296642e-01
-4.514187258596553676e-01
-1.114977469049918124e-01
4.141463370027691493e-01
9.803855024862844214e-01
-4.237099284518794917e-01
3.753820374958196648e-01
9.240705361291128295e-01
9.522985552332285941e-01
-9.291981035211818174e-01
3.552758413477918875e-01
-5.425307603630178388e-01
-3.779956571864766524e-01
8.112345579681559116e-01
-3.817723235781265156e-01
6.703135902483849939e-01
-5.440314665999883559e-01
-7.080109902792550702e-01
-3.946881847654775122e-01
1.768454491693911557e-01
-6.947902172911157859e-01
3.019696600602901349e-01
5.591786210996780859e-01
-9.346528072186597313e-01
7.098959026078803802e-01
7.675460657551631538e-01
9.235542465746864327e-01
5.144158610098306106e-01
-5.912383266228744549e-01
9.203704991931300761e-01
1.592662984003614390e-01
-7.921924109293554395e-02
6.727556064672595149e-01
4.038727830229769111e-01
-3.377993181748910612e-01
-3.691414029316451018e-01
1.317432957841691010e-01
5.657789497428677983e-02
-9.116187490610030419e-01
-3.128069417780265926e-01
3.852287122264543839e-01
7.253861441167130941e-02
4.203054438361022438e-01
-5.141323100221528719e-03
-8.167635703151077120e-01
-3.949904625275959535e-01
2.939254385157676897e-01
3.954939744236221078e-01
-9.753452262014983276e-02
-3.376407031582893126e-01
3.074232451754286277e-01
-8.011709811555161043e-01
9.352207346743004468e-01
-2.241136186527947771e-01
4.124340967945325787e-01
-5.934355648713731668e-01
6.057990677136577684e-01
-3.121811387454496156e-01
-7.086796573511591202e-01
4.629903969019848464e-01
-6.161550331293539351e-01
4.934023331099184340e-01
6.388987101658905043e-01
-1.756452995428194885e-01
1.598952805673827804e-01
-1.369795370737996176e-01
-4.571734723599536476e-01
-5.610724365546737591e-01
-7.085946206386086743e-01
-8.709152231861532201e-01
-8.137091912297693685e-01
1.546511739441178701e-01
8.602536182506079765e-01
-2.201735876461397012e-02
5.810050356443905439e-01
-7.088356567630174077e-01
2.258321680636838913e-01
-6.639989711795020177e-01
8.629878234865655529e-01
-4.744831627749066527e-01
6.245270794479642618e-01
-2.164092401830841617e-02
-3.776464169315207897e-03
2.464025524754640539e-01
-6.860127058696821045e-01
3.732776134215247676e-01
5.319387010004250627e-01
-3.079413053802888545e-01
7.624993898387386615e-01
-8.209888148227837412e-01
-1.767577640053668020e-01
-4.534169107591718983e-01
7.826336487570662026e-01
-8.434379926491997193e-01
1.676367113485279781e-01
4.061142965527799742e-01
6.318188186942252926e-01
-3.061042552731421118e-01
9.208800193122630429e-01
8.998734865276221129e-01
-3.595575409629456765e-01
-9.964235858495307241e-02
-5.216525050573459499e-01
-8.751516550303832798e-01
-5.014178231622472559e-01
-9.521657023150775778e-02
-5.039764015874468317e-01
1.709459175293104316e-02
-6.615049083184123546e-01
-9.650045431406917285e-01
9.804287025766003083e-01
2.356662651689744870e-02
-8.666545458025747273e-01
1.659960863593956670e-01
-2.024638917693355467e-01
-8.683395568018936750e-02
4.384162320849565031e-01
-4.103099774222127571e-01
-5.694541828444021903e-02
-9.568333474904684444e-01
-9.274991599745041615e-01
7.289619754761527126e-01
-1.668607450394630209e-01
-7.071873849696403980e-01
2.588401266001587597e-01
-9.851755650843332379e-01
6.093565152046607203e-01
3.772323825751542348e-01
3.569767418743918785e-01
7.563033671490964061e-01
9.378532184228114410e-01
4.866143080437532742e-01
4.839953996133044001e-01
-4.027247790424732798e-01
-5.830402921374469027e-01
-2.033926581230887098e-01
7.417080656572287989e-01
-7.829687830506621982e-01
-3.158049826339690558e-01
-7.038676751526198316e-01
-1.571969009324314381e-01
3.013775730459404834e-01
2.053830338358189067e-01
-1.838914837265388513e-01
3.150647257212582097e-01
-9.137108223091865433e-01
-5.995005130807282701e-01
1.229612225808267567e-01
-5.742531230184384494e-01
7.845848923466931524e-01
8.154728290985941985e-01
5.132342487802175057e-01
7.766007141371820133e-01
3.675174031402117514e-01
2.180655651631857594e-01
-2.529234203626147259e-01
-9.257548992457538262e-01
4.206086983820029879e-01
-3.018541532751450873e-02
-6.470524353492739245e-01
-2.227132083391605288e-01
4.171208632339382660e-01
7.549715392647797785e-01
-6.899756861564743105e-03
6.008789863141290599e-01
5.848538267005196634e-01
-6.510969030322444340e-02
3.434527807452427695e-01
6.444785103860537490e-01
-2.358459358083628832e-01
9.361798539407097941e-01
-2.064573064048760287e-01
-9.108218843428830258e-01
7.328272615451472127e-01
8.233547050966907310e-01
-5.977265922169499035e-01
9.117013313217809944e-01
-7.186989808564361315e-01
4.960628546808942829e-02
2.258236094386745219e-01
1.970130351657679579e-01
8.376853312258576434e-01
-4.358039866750775815e-01
4.685795378553441193e-01
-9.448837719893796727e-01
1.859294723515558800e-01
-3.347019386119003403e-01
1.806844173704844625e-01
-6.562672435743563959e-01
5.417536270424205824e-02
5.926752683062981308e-01
8.779176494272911135e-02
8.922570468180013314e-02
-1.968791075005169589e-01
2.195019807887101937e-01
3.781913623683279546e-01
6.419981759010644495e-01
1.236853589117210550e-01
4.328275835707546815e-01
-2.171733464890908127e-01
-6.590819616205045861e-02
-3.538297787643931436e-01
3.788153332960364494e-01
4.816270580762220810e-01
-8.234844325789654196e-01
6.448195491593347040e-01
3.897830663050378952e-01
-1.564343099742981913e-01
-9.017327517064614995e-01
3.659020875991889632e-01
7.196036617591066165e-01
2.924443113897066127e-01
-6.904431064750609082e-01
8.348070633921857997e-01
-3.394251594436943353e-01
6.830977063437859709e-01
-6.535191216349600651e-02
7.095669264903252671e-01
-6.314852570394058340e-01
-2.218706816812212601e-01
-3.038870168894434176e-01
4.225967415602216448e-03
-8.521165445257612436e-01
-7.962807335287314103e-02
1.960452083685098046e-01
-2.806881398914207182e-01
4.427465085332544792e-01
-4.869631703181738214e-01
1.053061988244612390e-01
4.629568226528097963e-01
-3.254430492562876420e-01
9.123636455399573020e-01
-9.136525658217427015e-01
4.547415132331744658e-01
5.486402446271261280e-01
-4.732339517674657436e-01
6.391401802724443471e-01
1.069705363188750979e-01
-3.129883628490934822e-01
8.352930415010670906e-01
5.966585694629251702e-01
1.394449661687517938e-01
3.539787620632739440e-02
-3.589162972462835999e-01
-4.630483904763296188e-01
-6.707214097895368710e-01
-2.173155266010653452e-01
2.548996304948036862e-01
-4.161592302925172238e-01
6.382673191664161028e-01
-7.149031343108198655e-01
-1.856814757089366719e-01
9.464167275618506903e-01
-9.389108019751726264e-01
-9.342013246536682303e-01
-8.144496260132840781e-01
-6.239861663969870076e-01
-3.699515687655579033e-01
-3.644029210118397977e-01
-5.229770681526366705e-01
-5.245449142433671330e-01
-6.910049651506433577e-01
3.276578590359067178e-01
8.081667664256120265e-01
-3.231990830794506664e-02
6.165680661790287065e-01
-6.172042874284087155e-01
-5.230638179434701218e-01
5.061781283456670000e-01
-2.976968289228583142e-01
-3.632756941192023525e-01
-3.435045256999380570e-02
-6.340315380745964458e-01
-2.896339785677626288e-01
9.854027275657457619e-01
-1.664193067829706774e-01
