7.300603255227133825e-01
5.891850681417812874e-01
-1.400241583095618580e-01
-2.998429205098447903e-01
-2.264736427048413825e-02
-1.135269535906196614e+00
-4.464517078841601649e-01
1.606701681328317477e+00
1.973466796673051249e-01
-5.732516118604809030e-01
1.056497705324447534e+00
3.646392701513666568e-01
8.236138039847566983e-01
8.984289031318254404e-01
-5.933879088140878721e-01
8.492316345071794226e-01
-4.847096647771368533e-02
-1.819395486868992662e-01
1.037799362078441145e+00
2.434638556292003098e-01
-1.805377996617745506e-01
2.116722080659626526e-01
5.409307582314589746e-01
-4.433562742494105979e-01
7.720870505328411015e-01
2.212834347668511947e-01
-1.413050023486523976e+00
9.878667666711844486e-01
3.916254248552929473e-01
-9.230346547489112763e-02
2.297606958352519935e-01
4.333536405635012301e-01
-1.162368150947251433e+00
3.514968841015749246e-01
1.493802898592900830e-01
7.091613410817176888e-02
-4.991428860245968879e-01
-5.106274094913598738e-01
-8.475200187620375303e-01
9.115345446599947277e-01
1.245955021848323963e-01
8.303075271210769159e-03
-3.186459539945359354e-01
-3.191163054585209324e-01
4.059931972964958558e-01
3.360797356105774680e-01
-7.351638177356636383e-01
-5.126855793584599308e-01
7.612691152206459144e-02
-4.219179472251366469e-02
7.964991684873470312e-01
-1.867940941545477296e-01
-3.543309762954351405e-01
-7.274096924861070956e-01
9.867868411263113204e-01
-3.614551969015145638e-01
-7.282337264821828748e-01
-9.163813435326261247e-01
1.817176544733072330e-01
-8.924560420214873446e-02
-1.587457301595525394e-01
6.384073219732677718e-01
-1.657094180233060765e-01
-1.767613500390760706e+00
-5.656455602841014008e-01
6.358889542582630838e-01
-2.275716226730611913e-02
-6.718078181564266504e-01
-1.178167974355916581e+00
-2.671363178798721871e-01
-1.237840063521382872e+00
9.812848791670425452e-01
8.439038932642406454e-01
-7.987576063989545450e-01
1.092479624540542815e+00
-6.832677674231080189e-01
-2.093672674103676801e-01
1.134099463311077083e-01
2.672662817662572188e-01
1.080108581980980809e+00
7.664996502608856233e-02
-7.010838547480845451e-01
-2.320230270361456348e-01
6.218325548179579609e-01
5.347620630964983190e-02
-9.294511691994896685e-01
-2.213241151431151743e-01
-9.391667191855075369e-01
4.721421852549793075e-01
1.415785131850439527e+00
1.471032063521982569e-01
-3.740701330304661010e-01
-5.397601664969773338e-01
-2.103012741730251045e-01
-3.643814275027690286e-01
-1.088687376321552769e+00
-4.891605651625287043e-01
3.372514459872368309e-01
4.431661202023974289e-01
9.504709292585472591e-02
3.872158099288682820e-01
7.848782094411691501e-01
-7.753463711318371310e-01
8.517631402377215388e-02
-6.064481789922899768e-01
7.679302288807859922e-02
1.576052577054780357e-01
1.129589223140520238e-01
4.071840023881723725e-01
-1.036276320417893970e+00
-2.258300834071619856e-01
-8.598975478742582057e-02
-1.654554173006594908e-01
-3.376053206729265344e-01
-4.664007860505929859e-01
1.191817582514799856e+00
1.714941937715011466e+00
-5.411953214865431461e-01
3.575418263817582709e-02
-4.610014745162712702e-01
1.297549244797558399e-01
-2.789906610235548534e-01
-1.593958647058371980e+00
-5.683766329997617106e-01
9.041769933060651576e-01
4.444503793424968707e-01
-6.371040257632798465e-01
1.255333737710248032e+00
-3.012470076651682094e-01
1.138666411176629256e-01
-1.135359150303316689e+00
-9.411818708661504607e-01
1.763459433199796589e-01
1.033353601535810906e+00
-6.775338863037111414e-02
-4.709319120824555505e-01
1.200793042131807820e+00
-6.844477577192724649e-01
-2.216378026925713840e-02
1.198132395561745667e-01
-9.819492522217666552e-01
7.975437701748531172e-01
8.008208479193570373e-01
5.374820901398829065e-01
3.176742064380889130e-01
8.018924414341269680e-01
1.113957200770491207e+00
7.274483047722221096e-01
7.520278693447921547e-01
-8.503881702728495195e-01
3.356066791617337008e-01
-1.001917357671624487e+00
1.824699051191812860e+00
4.718971266798754893e-01
2.134968183570415956e-01
-2.501085772413196850e-01
8.244383024766732682e-02
3.348532633163670003e-01
-1.113073372734277727e-01
3.907427318654250747e-01
-2.918802049696956336e-01
5.361213232823378583e-01
5.714708584070313790e-01
8.098625761548510216e-01
-1.195844512694810846e-01
1.196020763788900459e-01
4.439958763833515842e-01
9.076513174975644471e-01
1.491339109317742495e-01
-4.062479013539865291e-01
-1.811255902024722086e-01
6.506718289343610406e-02
-4.615962448660715367e-02
8.284392181439564906e-01
-5.667412061067307327e-01
-5.993751165916059165e-01
-2.691527127968439403e-01
-1.343316415790488438e+00
5.709545756632453672e-01
-1.378125709930321019e+00
-7.663115495349503981e-01
6.996737815977658315e-01
3.120384200676429853e-01
-1.061804035902033760e+00
3.394770173545271774e-01
1.493657039727215752e+00
1.431862876504359783e-01
-8.585559044317427890e-01
6.864864859745232195e-01
-4.538405578465045664e-01
1.406053255704859728e+00
5.505809998000995575e-01
-2.408441832934876126e-01
5.460877474080898519e-01
3.223327750216396781e-02
4.386388668822259751e-01
1.017541441509556499e+00
-1.769484396903074630e-02
-2.789149896649417704e-02
6.306195480455047964e-01
-2.612944870793191265e-01
3.201866904480022979e-01
3.864179104501735962e-01
-5.473032025530819578e-01
3.106063475181827793e-01
-7.343233944558710258e-01
-9.707385264938489522e-02
-4.826753104391987570e-01
2.021879518107257412e-01
-4.040693912366841722e-01
7.245714626473147568e-01
1.476268475300704652e-01
-2.491092613025663871e-01
-6.973318076565475643e-01
-7.487604123418969415e-01
9.112407111587951247e-01
-2.092055393443065792e-01
6.745148750791833681e-02
4.028546423406323962e-01
4.895564484058093080e-02
-8.873867474971468550e-01
5.079047213986407350e-01
4.163337111309388106e-01
9.081836915083437711e-01
1.144400219130909058e+00
-1.602772254070126690e-01
1.187719904164357410e-01
-2.293246316462941858e-01
5.247444714063310284e-02
-1.021055788511613382e-01
8.628997633101959108e-03
-2.941359002432043790e-02
5.251696564343049101e-01
3.853052508004928822e-01
-7.788623734849848823e-01
2.177128781877425978e-01
1.704572010910959667e-02
7.509372690900238956e-01
1.193218275222727609e+00
-1.892974538445610921e-01
7.228195768358848250e-01
7.519116969592154476e-01
-1.177902200784424647e+00
-1.641061930470312014e+00
-2.198198131088754947e-01
-3.050677757497985976e-01
-4.655093515777986024e-02
1.281793516330639093e+00
-7.643616782577736801e-01
1.329856537642563952e+00
-8.565726704666378755e-01
-1.831357086162373360e+00
-2.617069105792006467e-01
6.908307917202631820e-01
-5.655614084675493203e-01
4.351585050678505318e-02
3.122824815523215225e-01
4.845350048756469907e-01
7.427694857642461734e-01
5.293901486501197962e-01
8.179692192149228269e-01
2.420878787278671063e-01
-3.512027936673144390e-01
9.382466349296231245e-01
-5.890747701583318729e-01
2.200978261999838037e-01
-1.010871897449407975e+00
-5.644342273396110166e-01
-9.658525485300353264e-01
6.339509313237347010e-01
2.793244221153240447e-01
-1.564392256870562325e-01
4.844112580844231464e-02
-6.768526476362465849e-02
4.070252350611147651e-02
1.136727264899480394e+00
5.730216796706050220e-01
1.472806411416247574e+00
-6.125344083150697783e-01
-6.931243646682776482e-01
9.510465619964193762e-02
1.091158601990551424e-01
-6.332318593171002430e-01
-1.108718846025857074e-01
-1.726855843084327269e+00
6.291671132693094082e-01
-9.513932833278622159e-01
-2.561727925767685599e-01
6.619932601478956125e-02
-1.144167906494709674e-01
9.612114132623552631e-01
1.073656319012380234e+00
1.051475489655733009e+00
8.932294276442938052e-01
9.410690211819477957e-03
1.490167628398636479e-01
1.360445407597900003e-01
9.512670230405187999e-01
2.776514639229868964e-01
4.558091208436787500e-01
-5.117070944284870526e-01
4.309744079329714816e-01
-2.323767022321485687e-01
-3.393850216509365914e-01
-5.745608610872500188e-01
-1.446650944091770086e+00
2.276500455582960991e-01
-7.227784538365518152e-01
-9.706105037734533147e-02
-5.915744055379824617e-01
1.712769812837969807e-01
-5.613266171270987481e-01
-9.587287551262970720e-01
-1.241385695396266087e+00
-1.495019215895597497e+00
-7.723674803802057509e-01
-1.882035643541863368e-01
-2.411633483423893942e-01
-2.214441398980212528e-01
9.852379247917578686e-01
8.829563973353758977e-01
-3.531517737265938428e-01
-4.872676588731739145e-02
2.933222566064557224e-01
1.734024507404844928e-01
2.861152714070026581e-01
3.626495216892146045e-01
5.632805656833557162e-01
2.476441492843138859e-01
1.318100278905151579e-01
-5.118640912491384531e-02
-8.054377301803165023e-01
-1.269350379239087001e-02
-7.721441898611972610e-01
2.970462449474878253e-01
7.388767025357501073e-01
3.742937359788967022e-01
2.982664058832759646e-01
-6.513868001060715285e-01
1.020457935012227813e+00
-1.450804896644034003e-01
3.673090344449762568e-01
9.960666054930945590e-01
-6.067251184930616548e-01
-1.927457300529481221e-01
1.017256755227306186e+00
3.995443454947372741e-01
-9.276100428034094181e-01
-3.423206782074842414e-01
3.877913820810174883e-01
3.915186672919921396e-01
3.451294388593987295e-01
-1.389977463392069179e-01
5.480804542550292702e-01
-4.149471190675728671e-01
-3.532157099094263564e-01
1.458645546299690343e+00
-1.671317722249723747e+00
-2.489816516790626655e-01
1.196759982628670393e-01
1.451231979343849399e-01
4.050958297932580887e-01
3.932778764888240630e-01
-7.541670797188038122e-02
2.693973349300418096e-01
1.246930117417763384e+00
9.714250085681641611e-02
-5.972696085018426304e-01
7.106828035631154172e-01
3.844993432853895110e-02
4.511337732874477480e-01
9.357142571910345707e-02
-2.343339031194205391e-01
-3.967052854145762808e-01
-4.532583890139268989e-01
9.993717961784409631e-02
-3.150649516386858640e-01
-1.315234823026457445e+00
2.938089869410013266e-01
-3.571918008116989895e-01
-9.928541182219091654e-02
-7.371251754858656469e-01
-1.018939901476226595e+00
-3.685195217004568757e-01
7.373386373360639734e-01
4.803830295178156962e-01
8.330574651357673943e-01
1.472099590884728415e-01
7.106086798392121651e-01
-2.114875145320813388e-01
1.461992998998218551e+00
-1.219965783830143369e-01
-1.694255360448287950e-01
-1.627056397454929304e-01
-1.526468222740243741e-01
-1.479408444178850757e-01
6.563386183039907062e-02
2.702747879306997558e-01
8.856057740134490874e-01
-5.483975129707405749e-01
4.620186791154417411e-02
5.657521568954209101e-01
-3.157940036314609289e-01
-6.716957094531077477e-01
4.682114599890039308e-01
5.328752435044559199e-01
-2.193876589219027062e-01
7.505322940423893030e-01
-4.541699807040028292e-01
2.661489566337439383e-01
-5.913574605826757979e-01
-6.419696707686284309e-01
7.326974878096882415e-01
3.970671897229494096e-03
3.971659315784459299e-01
-1.407460833854391469e+00
-5.413929017235965535e-01
8.143166660003435808e-01
1.379872200031112550e-02
6.432427017576258788e-01
-4.674434183616046901e-01
1.247657896080047735e-01
1.497711601564052641e-01
6.407282294318145111e-01
-3.844032561521232294e-01
-1.054873891073408787e+00
-3.802634833894839028e-01
2.183513006712373139e-01
1.785453010470606783e-01
-4.380148294593474434e-01
-1.366779201018853751e+00
8.328342180764185532e-01
-6.475054887212304822e-01
-4.944831360976087442e-01
-5.507010421337483752e-01
7.700017889489373379e-01
8.097517157253693032e-01
-1.726355596328865982e-01
-1.130721490622674796e-01
3.196822946511725938e-01
-5.031636593473877150e-01
1.496726458381627545e+00
-7.427405830677981102e-01
9.366202459186883100e-01
-3.800571350907280266e-01
3.695684903697087353e-01
-2.101000669717459912e-01
1.505918332679900828e-01
-2.088778572676346812e+00
1.283499016409197946e+00
-9.017353692153152744e-01
-1.721955717531651886e-01
-5.286186441918582224e-01
5.636912792128208061e-01
5.739687502434378530e-01
3.383225694463072308e-01
9.453662938653282222e-01
6.170283193876055505e-02
-2.897004206668739312e-02
7.579748052153502114e-01
-4.359676962819265117e-03
8.314874930758612281e-01
-1.195295959653687845e+00
-1.232001423964424469e-01
-3.419776598628339603e-01
-3.911206251919963073e-01
-2.938607313202345472e-01
1.703112578900617402e-02
2.795616486316163107e-02
-9.001236989690684087e-01
2.120594863849553924e-01
-1.826170205193945184e-01
9.831168617824741496e-01
-8.152783142400147343e-01
5.478319787252619033e-01
-1.173821342084654801e-01
1.077077646299858360e+00
2.461662473155012409e-01
1.258941323768219434e+00
1.440613338991223014e+00
-3.226241176014114920e-02
-2.471269576758156894e-01
-4.093247221226327115e-01
1.811533791831292650e-01
-4.271336450569063192e-02
5.756193511544184238e-01
3.791291926501142440e-01
-9.442419341139020039e-01
-7.096645235230037985e-01
1.205407015358454625e+00
6.130252421781168248e-02
6.486777505341980721e-01
-8.778774221158461843e-01
9.331460266820723604e-01
-6.641918067551400018e-02
-4.632967598810175947e-01
-6.359929002280156896e-01
-5.202435630190370697e-01
4.481008043514518313e-01
-4.714025795663312479e-01
-5.686245772438601742e-01
2.403702191964522117e-01
-4.359779809300645126e-01
5.488944129519299775e-01
-8.410115230000407838e-01
4.109951899721875912e-01
6.750783926707247806e-01
1.171540075033237649e+00
1.109656210332060633e-02
-9.971225994063681597e-01
-1.205932781992238745e+00
-8.409503158979297899e-01
-2.173121455031948313e-02
9.392893574039070659e-01
1.509151745001502398e-02
-7.819933172962383328e-01
8.398665675268731645e-01
2.634436383727428721e-02
1.252653132893319476e+00
-5.456027441403882294e-02
-1.490687517963376507e+00
5.677692467104629159e-01
5.592451245374763236e-01
-6.990892254260673289e-01
-1.369826073194801985e-01
4.008673682081150824e-01
-2.862842803683249837e-01
8.353031571207110151e-01
-5.027948431314535616e-02
5.944042650017244966e-02
2.425449485980582520e-01
-1.000071907968278273e+00
-2.231784252914115196e-01
3.357099156001236429e-01
3.358914249325400947e-01
-2.382868471667274335e-01
-2.382888409486854375e-01
-6.701945421095630850e-01
-8.053275650192093238e-01
-1.263769127045357266e+00
-6.253472321026841696e-01
-1.268599666750446442e+00
-3.850660665291428808e-01
1.453027815132280076e-01
-2.557453134638306702e-01
-9.520094290314390362e-01
-5.704080549536263978e-02
2.988630665865983915e-01
-8.721582364320085157e-01
1.225039394454983110e-01
-1.254561215933406526e+00
7.618209872619509104e-01
1.014915047346174548e+00
-8.168773825181847859e-02
1.716173179511094049e-01
-7.439101097854370348e-01
6.849418739245327625e-01
5.326243238317870388e-01
1.024513957757529958e+00
-8.545996402637585643e-01
-9.886866410606875988e-02
-1.147139898335534092e-01
8.528895755620433672e-01
5.673512430848276500e-02
3.710581549720114447e-01
2.746265919315943327e-01
-7.288812101449962944e-01
-6.423946867195357013e-02
-2.967330504227180810e-01
3.965664111386204560e-01
1.138023368548531478e+00
3.312988908867006144e-01
1.030195539222181766e-01
-3.818347184056405941e-01
-2.518268580371726406e-01
-1.248953661224430634e-01
6.415982855288424602e-01
-6.060958262540807606e-01
3.996633479348253304e-01
-1.668491428763360096e-01
4.990322931464807321e-01
6.386136339524514094e-01
5.475767698734431699e-01
2.329157647680404897e-02
-1.618049635756997062e-01
-5.143362616208370097e-01
-6.152598685762822317e-02
-9.483965908325434069e-02
-4.692289628867642448e-01
1.593500042342578249e-01
-3.528913791867518412e-01
-6.415937567923820639e-01
-1.259680545650088579e+00
5.309867280374319654e-01
2.289733490718390274e-02
-3.629438340645008698e-01
-4.396414419572782784e-01
-1.755283123213289276e-01
1.333229307260065610e+00
5.492570222729947771e-01
1.544510099748486187e-01
-1.138669685499691386e+00
1.292553238057231879e-01
8.612358658432692216e-02
6.759558825148984096e-02
9.862701711633670154e-02
9.287232563570582133e-01
1.411477898709635914e+00
-6.286804560132220887e-01
-3.593226074308880635e-02
3.899786863124914404e-01
-4.365552816581257378e-01
2.823074700609123355e-01
-3.693917697089441621e-01
-4.341393948671115055e-01
-1.327523059159776642e+00
-1.311397518104857163e+00
-5.388450551739948358e-01
1.490945935924274934e+00
-5.049711739331264049e-01
-9.423717371980262492e-01
8.804908557583691620e-01
-3.252957361684322701e-01
9.473926305976436701e-01
1.059454997206963789e+00
-1.415515019448512768e-01
1.980579534706053690e-01
6.298444253897652612e-01
1.037710337371663627e+00
2.428558390434676362e-02
-8.021685086051966174e-02
4.673000244750297738e-01
1.257835985433855885e+00
3.567152841230520344e-01
2.127770788572976302e-01
3.635287932826765100e-01
-7.427590234824571480e-01
-7.503320690912069768e-01
9.546038986880611699e-02
5.057118017468171800e-01
8.345636886587044501e-01
5.557684323976822549e-01
-2.971339772186819550e-01
2.768749152379875733e-01
6.160785846830414414e-01
-5.382349881238552847e-01
8.980412145854652084e-02
1.099500478710061069e+00
9.785943922130474482e-02
-1.597362519689914384e-01
4.199466316238109620e-01
5.014432490510872809e-02
3.986551594561274503e-01
1.989951019334254556e-01
-4.879995161017008920e-02
3.158124762421903320e-01
-3.298982718815778314e-01
6.532287023413378968e-01
2.575471215254224511e+00
-6.711625659673920996e-01
-5.677108135471677919e-01
-2.550644797211434334e-01
7.101647482602680972e-01
7.994693126042680120e-01
3.938272288985984471e-01
4.823268583747174487e-01
5.007954033589635534e-01
-1.816825548543793412e-02
5.936331796442521069e-01
2.747290091456994210e-01
4.421572034291701425e-02
5.019823777464332837e-02
-5.487610139882204141e-01
-4.285575471489672106e-01
-3.778054058587689834e-01
-6.851741799323290971e-01
-1.086940444889911705e-01
9.605179441402973417e-01
1.326806434470672869e-01
9.446962896928150222e-02
7.387727929860479215e-01
-1.119892122571754245e-02
1.203062352848540406e-01
2.586631305139952541e-02
1.855301642651955574e-01
6.858646694193302196e-01
-1.048778923720041223e-01
4.243048962701231330e-01
8.909671371507180138e-02
1.173896247053966224e+00
-1.812453129213314196e-01
-3.779276668984500320e-01
1.809357076338469206e-02
-3.777736199536313455e-01
6.701197174215817176e-02
-3.758243181879308281e-01
-9.315670341487496398e-01
-1.050923419749305310e-01
7.260709347761180599e-01
4.721802275517388292e-01
9.400369517584419299e-01
-2.378630090628435223e-01
2.414650407189394554e-01
1.207473736731450031e-01
5.007299692013780779e-02
4.704128402247561569e-01
-2.647661968115389008e-02
2.697618521367161626e-01
8.603446622323290827e-02
6.495289835419083557e-01
7.212990888573952430e-01
-7.196336024054535985e-01
-6.205285524562832444e-01
-3.047325676086487523e-02
1.794541960478790443e-02
5.073845527762128604e-01
-1.163165532540252067e-01
3.723781964458036664e-01
1.678026475627857117e+00
-2.049624588224699395e-02
1.339470255447271496e-01
-6.034760579345110898e-01
5.978363676445319630e-01
1.045395486378514205e-02
-8.513716664501727038e-01
1.295605236291129003e+00
-2.096352574853216355e-02
2.549761317610316214e-01
-1.563098950489106298e-01
-1.962067990885628110e-01
2.851746261009243111e-01
1.077899164871071847e+00
-1.344898235551120202e-01
2.920515329021673989e-01
-2.278299950153296338e-01
1.730080314007612197e+00
8.681669404681723323e-01
-1.772209499472799099e-01
-4.765201933235516801e-02
4.534862403623039495e-01
-3.031643399933597882e-02
-5.788781190040459546e-01
4.866412055919639990e-01
1.539834470109125719e-01
-6.263325648785539324e-01
-9.352372197603109338e-02
8.274004128046741346e-02
-8.257757323550170281e-02
3.716156083955390876e-01
-7.416593818849896991e-01
8.472620628675685273e-02
5.057414456870533703e-01
-2.271770850452359269e-01
-3.199468419827669607e-02
5.601196563951873486e-01
-5.715570038832537003e-01
-2.012185277243959680e-01
8.661961678284000321e-01
3.582761909422388369e-03
7.828483133333712374e-01
-5.486011587846149062e-01
-1.011211471822207386e+00
3.356922447902160878e-02
-2.305531614329722201e-01
-2.357305358845278032e-01
-2.725789543101209134e-03
-2.272675080210311838e-01
9.672158610065169082e-01
9.633693394007308841e-02
-5.599948010615203309e-01
4.154013551640296509e-01
7.615188909465231415e-02
-7.289569368817894190e-01
-2.332721514339876900e-01
-5.892205127919853958e-01
8.687074586937717502e-01
1.785698879967735353e-01
4.648174376236089977e-01
-7.095018527646402839e-01
5.877970127697484948e-01
6.915241602503390261e-01
5.615551641232843227e-01
4.015969692296209592e-01
6.362484113895040538e-01
4.159011324373100837e-01
6.507872477160623337e-01
-8.142308509618549905e-01
-5.508725093820997509e-01
-1.211319749083667463e-01
7.071257463387676800e-01
-2.326224275602783997e-01
-1.145643602874247380e+00
-3.381154546547668338e-01
-1.322903730447446968e-01
-3.355265220907239221e-01
5.567191368996767808e-01
-2.854045705763179064e-01
-4.780924147696162252e-01
9.558214862177114579e-01
4.266847243681836099e-01
5.109814246526029891e-01
6.078718867695797057e-01
-9.325853018164942387e-02
4.076094793701776631e-01
-1.343460163356599291e-01
-6.677136563348555764e-01
2.420656917116648099e-02
-4.856918915770495615e-01
-6.621159170818808892e-01
-1.865823385617079722e-01
-4.521589175463988086e-01
1.292211393122268515e+00
-4.086865274803155312e-01
-4.438048050114684062e-01
-2.540807009223672863e-01
1.377846558365956597e-01
-6.497479270989613420e-01
5.889953423239563390e-01
1.050048341887839243e+00
7.951122594857756853e-01
1.762352025030971270e-01
-2.432689345294421490e-01
-6.357830073731280951e-01
3.356634157251374706e-01
-3.268885509792814753e-03
3.792420686451993816e-01
4.833787489309105401e-01
-4.784454667576119036e-01
-1.396928213263032292e-02
-6.364678973910569137e-01
-3.716453653241460486e-01
-4.499074437097568269e-01
-4.623979329689996698e-01
7.984560587248252794e-01
-1.969596866104170729e-01
-7.449276841294929508e-01
6.219315282986523918e-01
-1.064137407173594507e+00
9.639890809045292830e-01
-1.028889493836234958e+00
-3.135419142563408701e-01
-2.012949597052290929e-01
3.665412698894661148e-01
-1.316117169734576375e+00
3.275659484754219752e-01
-6.452295846361816301e-01
3.561512741314234454e-01
-7.429255580217524191e-01
-4.909371073152157816e-02
9.634455157830511540e-01
-1.208404847674281468e+00
-1.488050336769874082e+00
-5.989456095215719422e-01
-3.560835717884318630e-01
2.750487886212971689e-01
-1.995263516970424422e-01
-3.708112905256238934e-02
-1.430462094461885103e-01
-8.308767580645729511e-01
-4.591472032252891800e-01
-2.128913015039202161e-02
1.465840249303635434e-01
1.636164331984454545e+00
-1.754603967727337954e+00
-5.569145819599456981e-01
7.777341378127100580e-02
-3.216870430570913098e-02
1.864583821417900023e-01
3.187168656207159390e-01
1.001415656108632923e-01
8.336838723277782970e-01
9.413097411497561851e-02
-5.181664646721123590e-02
-1.818716207200840040e-01
2.142718002013856149e-01
-1.475361002405359834e-01
-9.686437413246921091e-01
-2.845230864751313593e-02
7.656277422987220471e-02
5.654284797684802077e-01
-4.202300294874314890e-01
-2.590658617983480627e-01
5.545632890175111740e-02
-5.756198631358648843e-01
2.866123812927992565e-01
-4.293899559348459682e-01
2.897024766824105035e-01
-6.759609447826118167e-01
-8.039978190718879425e-01
6.666435149692528928e-01
4.548494722178691996e-01
-1.386760095593137510e-01
-4.642146124439351929e-01
8.885789635591052615e-01
6.839074508096980587e-01
-2.934816509594836975e-02
-3.453960957819056099e-01
-1.830833223621834760e+00
1.273889892080970920e+00
-1.023770608408259619e+00
7.146569338389094916e-01
-1.608318353956589952e+00
-1.331985400077000947e-01
8.134779947352899221e-02
6.141798727848196693e-01
9.687905975488106947e-01
5.341245164609179641e-01
-9.124565843611689431e-01
2.257619962166247940e-01
-8.259910205051063103e-02
-1.537713971870928731e-01
-2.837000324383391892e-01
5.759871443570780958e-01
-2.567466570279404725e-01
8.709786710244166175e-01
1.919435432807810482e+00
1.285768942612796062e-01
-6.131159366110821018e-01
5.228950366361003743e-01
-8.770320028963010106e-01
5.535288415042355359e-02
-1.183213417625420316e+00
-1.111257619723688306e+00
4.384532323015339905e-01
-1.250400633617525514e+00
-5.519512882278817534e-01
-2.306461672890657288e-01
1.223182187114028041e+00
-8.260501830033510906e-01
9.870482111090084221e-02
1.106317734953349063e+00
2.450966072363920389e-01
-7.746947632867752509e-02
-2.495133695390439055e-01
-1.052735087110654444e-01
7.037601164662874442e-01
-3.670709457786138774e-01
-1.451521745137173414e-01
-5.113806653639532129e-01
1.559218666333388181e-01
7.278137390877270629e-01
2.421644271165500406e+00
2.230581338873852681e-01
-1.102944233787853445e+00
-6.059322609708925889e-01
-1.999613129196971817e-01
-8.106435968850541629e-01
-6.930531119585137123e-01
8.933460279251058678e-01
-5.488741677453842782e-02
-1.012915576155345221e+00
-2.735603496109138555e-01
7.238710330641131563e-01
5.767200708355740835e-01
-4.346285946006409606e-01
4.650889873745896463e-01
3.826400621914744504e-01
-7.346833016659991555e-01
-1.716821505456155084e+00
4.529574832285553909e-01
-2.361127286419331117e+00
-2.868794926592682093e-01
1.166754848794061328e+00
1.493863616016869234e+00
-2.241282537369071459e-02
5.482341508824856158e-01
3.378564846486922235e-01
-1.093387693156970819e+00
6.614534854670774955e-01
-1.094823221668049573e+00
-7.238198635001164005e-02
5.003710476369529481e-01
2.493906089512088198e-01
-1.155466924015744329e-01
-4.656761717249509047e-01
-9.311028934015213032e-01
-2.334098301893646199e-01
4.321949668787250509e-02
5.828128779964439343e-02
-7.087835790547780679e-01
1.495684012850645450e-01
5.528533495011666021e-01
1.716241296176536646e-01
2.563250521435044837e-01
-1.482334071992087443e-01
8.437245848533370118e-01
2.625112777424419563e-02
-1.448159608499059448e-01
-3.991333945979428921e-01
-2.105897892782619407e-01
1.850679368032573102e-01
1.588048517050830999e-01
-3.253582785391128107e-01
-7.312439208143486358e-01
-8.168440835648479448e-01
-3.759130789634139713e-01
8.087918294539528929e-01
-4.039688327312365712e-02
3.036941815830483393e-01
9.640081068189545466e-01
-5.026309656251982672e-01
-3.649806304188921713e-01
-1.423337034258477463e+00
1.071347236545167281e+00
2.193486286375025962e-01
2.720313682419114309e-01
3.425487566214150958e-01
2.340134340632732957e-01
1.646511570298886951e-01
4.029521002622425963e-01
1.579858712428184320e-01
6.974895143989695567e-02
-3.377059057903319395e-01
-4.960617716549838851e-01
1.482081687905612011e-02
2.767854836745790581e-01
-1.009535919602692733e+00
-2.035538496308267331e-01
7.226644569495331849e-01
1.215151621656015701e-01
-8.816239932468800111e-01
2.794833400969332082e-01
5.922368614760535888e-01
2.586832099114622086e-01
3.734605951287890968e-01
-4.248247281826774691e-01
3.826278818941126203e-01
-1.056425654681229176e+00
1.520487156677215790e+00
-4.018011303108944832e-01
9.208534259038969605e-01
1.032501264799766394e-01
2.160837228263016718e-01
-4.373271592943823172e-01
1.668122878886354021e+00
-1.091276250869422926e-01
2.678104913916979912e-01
-2.658709031366501829e-01
1.091212156398243094e+00
3.942654712620929924e-01
4.628305088491685981e-01
6.515074437682517594e-01
-1.086971921327743562e+00
7.781492673022064599e-01
7.688827772864991195e-01
-1.136707927419603914e+00
-2.657966787372962325e-01
-2.023526968879405807e-01
-4.418038324448090859e-01
-8.452980815710220419e-02
-1.907234342429515450e-01
6.323232252147916732e-01
-4.858569225769424071e-01
-4.346942281666650865e-01
2.585931580343993619e-01
6.215412688853312329e-01
-8.287592248117179317e-01
3.962960377283150093e-01
4.231456519376725622e-01
8.126062573590815408e-01
3.466033869957739766e-01
-9.341412855603975496e-02
-3.846874455880390786e-01
1.752760124917729812e+00
7.559111377502900631e-01
6.126658551943444664e-01
-1.429103604040861397e-02
-3.161657812906618070e-01
-7.362223921021523454e-01
-7.413155757093006226e-01
-2.752870744564442917e-01
-7.022034525865736843e-01
-4.262317486878850481e-01
-3.895426683303322424e-01
-3.284862923831444736e-01
-1.076722118493469993e-02
-1.002884801788616942e+00
-4.567031787012857946e-01
-3.806500247326847219e-01
4.393177520979826278e-01
4.912230340127711203e-01
7.587337252324632964e-02
-1.569902910856571798e-01
9.293129880924447805e-01
-1.590063731079407183e-01
-9.517686348358096737e-02
1.260861157543264444e+00
-9.575360008710542825e-02
-7.679424579899127856e-01
1.223355512449998406e+00
-6.334293166324309610e-01
8.937754453922586162e-02
1.616148351626605084e+00
-4.320845865928210072e-01
-2.254724883397502821e-01
-3.963982870468247821e-01
8.027296811348506589e-01
-1.069823122925098069e+00
2.923085037891887117e-01
-1.196346943669719387e+00
1.421671250353496729e-01
-5.050534601194482942e-01
-1.005337981508298839e-01
-5.636208647789753279e-01
-1.373388453183313374e+00
-9.811462739384505527e-01
-1.583318848206200502e-01
-7.474452389910094530e-01
-4.913233433792398297e-01
7.424625839419325413e-01
-4.712639418624983145e-01
-3.780703047630724623e-01
5.161959603380583683e-02
-6.476121245662833648e-01
1.161232743630566389e-02
-6.113550124697433308e-01
1.267582176501366731e-02
5.435083681670008771e-01
6.070451099181097820e-01
-3.755537066342926750e-02
4.842279072315663901e-01
-5.795353334178403593e-01
-4.603053575976588374e-01
8.110311621129126514e-02
2.594036083458748920e-01
6.509081080476026848e-01
4.515926531019146539e-01
-2.755727051032345054e-01
-3.692939245829183204e+00
-4.906009720183270861e-01
-4.102047257909365863e-01
-4.569017683474859148e-01
7.572651076030656458e-02
1.184098987683412041e+00
9.383577592036258519e-01
-8.137597846319746808e-02
1.139577696486842262e+00
-8.264346005129059591e-01
-7.121032334753918391e-03
-2.007665278246932583e-01
4.979771917968853767e-01
-5.251899016550267696e-01
-1.213502282114710118e-01
-3.986965626997239776e-01
7.866134781352436545e-02
3.758616057801388299e-01
-4.184408641155893394e-01
-2.052314698697952355e-01
-4.125718266377467747e-01
-7.405356049756932624e-01
6.439339200706161170e-01
-4.522941436884314603e-01
-3.502789357327160680e-01
-8.338545655244934407e-01
4.572120162560066037e-01
2.510608393985067632e-01
-3.780253755182260145e-01
-2.216541882084992754e-01
1.001397252039306629e+00
-2.702748882018198850e-01
9.611642134998947817e-01
9.262975661255208326e-01
2.951542546089066521e-01
4.242097252830576704e-01
-1.974900250432905235e-01
-5.030963589061427932e-01
-1.202844467035394382e+00
-7.578907907781077258e-01
6.533817137859370128e-01
2.285660414325785261e-02
3.539594988050134283e-01
5.554582711455673394e-01
1.146269086933471709e-01
-2.011870254858073859e-01
-1.334144812564275639e+00
-1.053925780999688477e+00
-2.626879719193759843e-01
7.521063065226607502e-02
6.311434174986793044e-01
-4.318427642631492147e-02
-1.080429714473780667e+00
-9.653612406353383468e-01
-2.972476943666685356e-01
-3.167955000096115414e-01
8.124227942789274959e-01
-4.172050527920641294e-02
-7.739337637432541772e-02
-9.296364370241452790e-02
1.661593639576955272e+00
2.284977409448128716e-02
3.668686360322925277e-01
4.078134649775511655e-01
6.138451156389648777e-02
2.314232054870595801e-01
1.741188731359326614e-01
-1.355655136506030978e-01
-1.732171516557624025e-01
8.923093263492706817e-02
-1.048421132320795091e-01
1.364057273830401873e-01
-5.986523690155675093e-01
-9.348294217132624429e-03
-1.318839973774300067e-01
-7.601207778493827005e-01
-3.072342323517670559e-01
-8.691453921044195452e-01
2.704944968843562281e-01
1.808677113055411345e-01
3.924112229710499666e-01
-2.330965622535121073e-01
1.241150957393590271e-01
4.588042039307883568e-01
-7.008308150496049826e-01
1.735971041559294381e+00
-1.425727310934072900e-01
-1.323224738596874950e+00
-4.372548402284665570e-01
-1.118092372876151375e+00
-3.528969101578020851e-02
7.911332585105983473e-01
1.183532869614139615e+00
8.874065227908601861e-01
1.766839826533227742e-01
2.467031383663419453e-01
6.044425561014687975e-02
1.121329685310465951e+00
1.057998529534809773e+00
2.901398320132142494e-03
-4.073541785158950046e-01
-8.606102406975204566e-01
5.882572791225466613e-01
-5.904297975019789924e-01
-5.892414971519455147e-02
4.164538160679508438e-01
2.791202354780406014e-01
-9.605094058658030232e-01
1.424879089302039104e+00
-1.000938491318054568e+00
-1.224042075012800712e+00
1.077135765546144985e-01
4.064593803001420591e-02
-1.260077385390857563e-01
-2.011965114603238014e-01
-3.366097605118155700e-01
2.499386806562010899e-03
-1.555284542157541194e-01
-1.169166996379016998e+00
8.097479274775593039e-01
-4.609884243593614928e-01
3.308796157225401546e-01
3.996707345670278411e-01
-4.415776122921730718e-01
-1.193958064171915412e+00
4.780399978612978606e-01
-5.576047572044624534e-01
9.786005665970026746e-02
2.509044996779735137e-01
-8.151286069329350958e-01
1.041531115645976946e-01
-2.063588003557731421e-01
-5.103646971182169700e-01
-3.141933329432692878e-01
-2.722002593001344173e-01
-6.462164104106081775e-01
3.630712868817759231e-02
-4.030345495528244171e-01
-3.772466114824211125e-01
-2.313358223580502804e-01
2.091103151548390215e-02
1.202972658569655628e+00
-7.154708252670158863e-01
5.602827132127746745e-02
1.389672829827939271e-01
1.690596832281811290e-01
-5.311315515668662002e-01
-9.813760726397626755e-01
-7.205762155738481001e-01
-5.594494944724870411e-01
3.300441646314974387e-01
2.706653749713018309e-01
1.109753830516024276e-01
-1.553514412005124523e+00
-4.225985480754995138e-01
3.167084773588426660e-01
1.079330651425858267e+00
3.197380307926090959e-01
-6.551829652862597442e-01
-1.445024458673573431e+00
8.453843224372435960e-01
3.418885545826407801e-01
6.470769064111502322e-01
9.714267700402813288e-01
1.459637534179649476e+00
7.922753544646132795e-02
-9.381641611146821491e-01
-2.765354331107301444e-01
-3.187593680798475049e-01
4.591667274636872520e-01
-8.707462426914430731e-01
2.087262393195987720e-02
-1.549794067197461711e+00
8.423981186573263891e-01
-4.844616352166568607e-01
4.520805947144763137e-01
-1.077817804066880658e-01
2.945528208712964724e-01
2.371308436555011889e-01
3.075336361889673409e-01
1.316786949326392842e+00
-1.304472862840428071e+00
-4.695190613058448648e-01
5.984825745071763459e-01
7.488134566315974849e-01
-4.306115254783229318e-01
-6.049805236891216964e-01
-3.618860895225322061e-01
-3.894077009191587724e-03
-2.077753176000997071e-01
1.046260578958239540e+00
6.166011819078028866e-01
-4.039202244014740706e-01
-1.022624735402571927e-01
4.111937439982130127e-01
-1.519627556757249920e+00
-9.317164779319920820e-01
5.103655707814638287e-01
-6.693939786005289605e-01
-1.317382219063916171e-01
1.055000642968695113e+00
4.345409691125402540e-01
-1.363395186344476540e-01
-3.447843376658115133e-01
-3.584826009603104824e-01
-1.172514855346159096e-01
-3.576649884724947270e-03
-8.604686483269095854e-02
-2.931218698546856349e-01
-1.957267593609146594e-03
1.160131183749649075e+00
-8.244306014907150371e-02
-5.141825536987324474e-01
4.926831944394322593e-01
-4.316937888196416551e-01
-5.557981590036784603e-01
-1.781033578614551471e-01
5.221978858491580500e-01
9.091170482237950212e-01
-6.482902397745160528e-01
-3.115069292536447598e-01
-5.021532953623375484e-01
2.088968461171361035e-01
5.582167787903919987e-01
-1.071310816470840421e-01
-1.105442163276662892e+00
-5.106959874195524662e-01
2.644773657484025264e-01
1.651561891768398294e+00
-5.963885061133757798e-02
-4.194061996986659935e-01
1.833628722303037417e+00
-3.295988399508951172e-01
6.595148166094407793e-01
-5.370987268940182746e-01
1.367804574395067529e+00
-2.604169535156445336e-01
9.623562281544891794e-01
1.288024248627315238e+00
-1.021572919646898114e+00
-5.315302494066617145e-01
-1.015152233252814007e-02
-2.749964340524289619e-01
-4.324281935978884217e-01
-1.105264850352015854e-01
-2.475373648259675263e-02
6.586673900150253891e-01
-8.925989550839674713e-02
-9.091809363167586699e-01
-1.128466401570174416e+00
2.269295894269376390e-01
-6.006267982215395262e-01
-1.697899319297335036e-02
-8.430463303491447791e-02
-1.031666323377876004e+00
-4.579137460034259366e-01
5.728141672227834436e-01
5.508160023556192275e-01
2.859144943608802336e+00
-9.513165830332166728e-02
-5.371360795783590714e-01
3.706642374052172562e-01
7.732958754189159789e-01
6.249460470205128182e-01
-7.611256258413687248e-02
4.011819553487551149e-01
-3.825092136452334923e-01
1.142313558172918686e+00
4.806062963602032445e-01
-2.985233085338256931e-01
5.705476571246241857e-01
-7.747642372840284342e-01
5.045463373431338105e-01
-3.725621895434232389e-01
7.990235177457132298e-01
-3.330098990764923106e-01
6.799344968656132471e-01
-1.465289560008568581e-01
7.153655502967821711e-01
-4.853379427999092721e-01
-8.798670436457413091e-01
5.074947991275384762e-01
-1.130749693293799929e+00
3.556339569405401191e-01
4.944368143330574172e-01
-2.598246346060456569e-01
4.579428774458834672e-01
-3.910626414891729685e-01
-2.623473784179797264e-01
-9.494045547831457821e-01
1.204334655205194504e-01
-6.685423530713456852e-01
-2.151310229787035677e-01
-1.339294288985145021e-01
-5.996734104387821951e-01
2.962729549889603908e-01
9.203232046458112992e-01
-1.644592836234860744e+00
-2.972144315395390257e-01
1.315658698809956562e+00
4.822112498707716854e-01
-4.422732004001346251e-01
-3.004284174295253074e-01
4.327426703228145488e-01
6.206704637937847657e-01
5.806850892676089781e-01
-2.956573148863432254e-01
-4.427733521542382977e-01
-2.033155473285701287e-01
-4.336867328064841209e-01
1.582746841483496647e-01
-8.744137411706920382e-01
-7.472318149405642318e-01
1.222704094267821756e-01
1.007409981285834144e+00
-2.527498648214128729e-01
3.715011457090938718e-02
-1.838183873179258243e-01
-4.479664625416356349e-01
7.003065441393870882e-01
-7.625028033006148176e-01
6.464978661406152183e-01
9.559948484010001302e-01
1.058223175026868024e+00
-2.738492267300464134e-01
5.451878202796037742e-01
-5.926045101075552712e-02
-3.939444570763329656e-01
7.016071027232514412e-01
-3.172247869598075476e-01
4.578626364743829114e-02
-4.539952768299495567e-01
4.168654550783543744e-01
-2.895563559590119129e-01
4.658008226136499397e-02
4.905428451234185028e-01
6.697514299094555756e-01
-4.935193325216303828e-01
4.071341009409540912e-01
-1.032668715920997404e-01
2.445329757369194557e-01
3.985874009752481406e-01
-2.896506913274102257e-01
-1.272418652961432306e-02
-7.161445035521130098e-03
-6.055371228152773844e-01
7.536172753608020303e-01
2.812014114595337011e-01
8.779266606389762861e-01
1.021974525140358470e+00
3.551214805126309271e-01
3.503546970617293921e-01
-8.760119207685792553e-01
-4.091272907261188641e-01
3.358040029506284552e-01
-6.763546106318212292e-01
4.904450669500433069e-01
-1.310118082439895859e-01
6.089046901777876997e-01
-5.840279391749114701e-01
-5.826446284824015054e-01
1.950244121610634207e-01
-6.368718441405168962e-01
-4.703412308644001061e-01
8.488602469315175147e-01
8.031849599955362962e-01
8.680278597678126040e-02
3.868829178034038918e-02
-6.083395925584156316e-01
3.481776895132199234e-01
8.168950555686212978e-01
3.530668447453000347e-01
8.969754174684008152e-01
-6.686420316484747994e-02
1.711341018674530368e+00
-2.393376799301965840e-01
-1.936072002042203144e-01
3.621607164084563735e-01
-4.561203793846410615e-01
-5.851418607635305857e-02
-2.223267179204493904e-01
2.686692610175999141e-01
3.769312277372982578e-02
-6.775476417463828227e-01
-6.392478519736062292e-01
3.858971515697521837e-01
3.564951764251160227e-01
-9.858503405444307699e-02
6.319180477366207471e-01
-2.187449468935363406e+00
1.198704871161922370e+00
1.686657072564985982e-01
-6.815098224482710743e-01
-7.310221028206533855e-01
7.006858733872719514e-01
1.471101246434136645e-01
-1.007191696311211526e+00
2.274945281886274207e-01
-1.504480246863696413e-01
-1.134909985736122368e-01
1.189108744483608898e-01
-1.071810149031297565e-01
4.733077929863956368e-01
-6.376841963143140557e-01
8.689558770602945348e-01
4.586344717564467266e-01
3.364422240867512293e-03
-5.065643082050493851e-01
-2.434434391090578020e-01
4.896457823099378270e-01
1.405691327060593299e+00
2.278340636967505772e-01
5.350089257665249232e-01
4.386481931387731792e-01
-1.911784203573019258e-01
-1.262493424556960342e+00
1.030549520494180138e+00
8.356535484824182403e-01
1.152849758736725905e+00
-2.809600657174529115e-01
-5.639320983076220872e-03
3.306329301180125912e-01
3.499431312520234205e-01
-4.528498737174183053e-01
2.932493159763801538e-01
-5.573989783394488196e-02
-1.573710247980223687e-01
2.174424292212743526e-01
1.193419334658271658e-01
3.748688391824968047e-01
6.838072707116963356e-01
9.044684556262524433e-01
5.873796258121898317e-01
5.290793656630726760e-01
4.729672780617925065e-01
6.726446438791745530e-01
2.473034629066777068e-01
-4.344074361041926347e-01
-1.533704236942785293e-01
5.484338550539322732e-01
-3.337972179746870327e-01
3.388875110267072777e-01
4.869221335027568154e-02
1.074569407165632678e-01
-9.931031986930621835e-02
2.089460594658134163e+00
4.382658877528365915e-01
6.968965617774267596e-01
3.194209880644340305e-01
1.218339888879591992e+00
-4.965413986181076433e-01
-2.642006599235112718e-01
-3.303463691633699018e-01
4.070774053358259814e-01
-2.455889049688593506e-02
1.472659221655952533e-01
-1.509227683564603462e-01
2.779172522544000601e-01
8.574259519703928412e-01
-7.616427093202079446e-01
-1.034542660472853592e-01
-6.339714689511040113e-01
1.307476217726014078e-01
7.290143794029501079e-01
-2.346538005994697196e-01
4.528025835820513323e-01
9.461388558266439208e-01
-1.030128019513432136e-02
8.052399178276208325e-01
8.134828461814144762e-02
-1.910300622720211838e-01
7.122096370469772619e-01
3.646640262639766483e-01
-4.430634344654527101e-01
-5.116327479900899533e-01
-4.979556548755392775e-01
-6.045320189555463131e-01
2.834754245214222146e-01
3.040928134134615046e-01
-4.586767428165087201e-01
-6.494585761786053624e-01
-1.595227452484921926e+00
-1.007716040440405525e+00
-6.519619844242399154e-01
-6.280641279160469326e-01
2.204628479480756909e-01
6.547931014033404606e-01
-5.099476285832231781e-01
5.651459818795668832e-01
-8.986384456738665261e-01
-5.173347965452272934e-01
-2.748433133338435974e-01
-1.886036420298328187e-01
4.625174594636566328e-01
6.680055220150328266e-01
3.653670125332322272e-01
4.096335989498092189e-01
-4.433921050877105419e-01
-4.707014970905078477e-01
-1.460928101368011434e-01
4.184610066997722644e-01
-1.066596218957752140e-01
2.995422315005535352e-01
5.369819524271990385e-01
-1.037676648164679305e+00
-3.522335156440016823e-01
-7.201247795798604301e-01
-5.516908224510447267e-01
2.256544061338054963e-01
-5.873398941013180385e-01
-1.711372565412698998e+00
8.131705341711664703e-01
-6.887466953367860079e-01
-3.731371101088998277e-01
5.916339250599744748e-02
1.015378459017091117e+00
8.866139305619997746e-01
-9.672368234782777741e-01
1.280303823165136190e-01
-7.762626798103438031e-01
4.838548465218095451e-01
9.406516711073051873e-01
2.463029603425259118e-01
-1.093842533857002142e+00
-4.958813947409775047e-02
2.577429023240878636e-01
1.333543260960157739e-01
1.257810206715490819e+00
1.682248417695448639e+00
3.484785238622090109e-01
-9.222875790664092355e-01
-8.509832369581743494e-01
8.089238705727577194e-01
-1.215751083357924589e+00
-6.309074517639978730e-01
-2.508144069137532850e-02
-3.092890492922613088e-01
-9.945361207017429095e-01
2.154287761091744358e-01
7.645616702116828645e-01
1.337924726181842772e-01
-8.179292766834538320e-01
-9.389174308435610516e-02
1.583707341754041487e-01
3.719353211676017512e-01
5.915473423772159567e-01
-6.329612628301489741e-01
6.002540497694450750e-01
3.285709275234514060e-01
4.578728911930686207e-01
-1.560886614519764182e-01
1.968309794526823531e-02
-4.733135967860041537e-01
2.250435686638239563e+00
8.184908387651632644e-01
1.651330129180722528e-02
-1.012699562921926810e-01
1.930262754012612714e-01
6.922797685899995113e-02
-5.530513886446479788e-01
-1.595106439083609606e+00
-8.506203013122881629e-01
-1.515506311437700981e-01
-1.925151770900290771e-02
-1.001731877310890528e+00
6.856110774213395320e-01
-2.751521992869503386e-01
3.376284439740019350e-01
2.602326366857771189e-01
1.579359242923497053e+00
-1.904237903800256593e-01
4.711070749359045906e-01
-2.375090073575112093e-01
7.359089739219537574e-02
1.570420669769823085e-01
2.480826746530188087e-01
1.501512195356183854e-01
-9.913471932038210588e-02
2.409109330528478310e-01
-2.380106134623332648e-01
-2.501551810228266337e-01
1.121581072662490186e+00
6.268216462980430448e-02
-6.919396430338686788e-01
-1.704071812227324345e-02
-7.205810691073541996e-01
-1.379481745667605619e-01
9.869520971075076421e-01
-8.690968270809380503e-01
-5.027149833400530454e-01
-1.772203367416212982e-01
-8.834965515351409504e-01
-3.179995197079563130e-01
-3.009521063962026233e-01
-6.544046773591488675e-01
1.496876223090324753e+00
-2.348765206190142063e-01
-2.760241734460954777e-01
1.034996005373426398e-01
8.972002166150534475e-01
-5.831609119823932819e-02
3.947716872145690115e-01
6.412847755250152826e-01
-5.885594611238451623e-01
-1.091534650969154668e-01
-1.388518316033552136e+00
-7.012819249950321687e-01
8.613146479059803351e-01
1.451048558489356211e+00
5.019108771673460589e-01
-3.648530741913263986e-01
-5.496799126062002633e-02
-3.705409895470495041e-01
-5.395264378880182399e-01
-1.597881381377918575e-01
-4.142444897146679850e-02
-8.685600207824599739e-01
3.283693858824552891e-01
2.393918470693563727e-01
4.941614652721539325e-01
-3.399707236050495407e-01
6.698089128247339819e-01
3.442598575406952133e-01
-1.059798783783248571e-01
-9.917706277014015637e-02
4.470784378637172873e-02
-3.673073396798578472e-01
3.706020029232885982e-01
4.575463033616803954e-01
6.868776676358159250e-01
6.694890222496621135e-01
-3.922614425549707518e-01
3.304973599989631805e-01
8.649628780028170705e-02
5.839869792728051845e-01
1.719762111792358050e+00
1.145991515586060050e-01
1.726518245915087180e+00
6.424144063628030032e-01
-1.259866448155069207e+00
-7.626500818771557721e-01
-4.282925643294064333e-01
-2.086955065875656379e-01
-4.467676694870187371e-01
2.295118607772444475e-01
3.446504645290343616e-01
-5.114452333684653684e-01
4.787787384027952786e-01
5.546875954055734415e-01
1.098581187074894716e+00
3.637035312010050703e-01
2.639855696767048343e-01
2.583683667232168912e-01
-9.921605698280836494e-01
4.815531059848447981e-01
1.056276474057018938e-01
-7.639641787372691839e-02
9.341740545441811205e-01
-4.932737256875118770e-01
-5.297565944421659401e-01
-1.909959997255611663e-01
-2.507689310509891856e-01
-6.356769854083934579e-01
2.104157955688522597e-01
1.274981301123687127e-01
-4.507275138744084586e-01
-8.613718565122957527e-01
-4.586388896767817913e-01
1.296086631915097875e+00
-4.007552730062954871e-01
6.667457957052806972e-01
-7.217830806817263634e-01
2.163299109161718747e-01
-6.233854639995317637e-01
-2.629122634185431240e-01
6.569803121752989528e-01
-1.352024375744797502e-01
-5.910006802639206080e-01
-9.167678955066410618e-02
9.090682453590528400e-01
-1.899709687042305806e-02
3.600794996557389327e-01
1.613089167835729532e-01
-7.334981869362920681e-02
5.428654134101469353e-01
1.280126289777231197e+00
-7.053803348697387232e-01
-9.660175453746843166e-01
4.718334145231231624e-01
-2.971284024356387055e-01
1.351135710329758599e-01
-6.204562185495429150e-01
1.079599770712560858e+00
-8.704599054900252764e-02
-6.782566103440503813e-01
7.145107608723346715e-01
-6.063638045712785862e-01
7.495814612776672270e-01
5.299830156324714103e-01
1.222410459345706801e+00
-3.807224654845573486e-01
-4.092272545366704151e-02
-8.434158529602984178e-01
-2.738211763064801740e-01
-7.084452538165874058e-01
-3.995261215244180764e-02
-6.432940110782814358e-01
-1.668777101446307920e-01
4.450061355292934118e-01
4.442747519426608338e-02
-1.589291319424825932e-01
-2.627257896807624893e-01
1.715682796062590887e-01
-5.873085830619025755e-02
-1.633899345339186182e-01
1.843431634288556498e-01
-9.777387671401238656e-02
6.405599099801567720e-02
4.121493881027752382e-01
-1.155954346253183829e+00
-5.016437332028249596e-01
-1.172798305312805489e-03
1.139385381886927506e+00
4.343312834426036328e-01
1.471655526325509333e-01
-1.025794869279192056e+00
5.769805017496708599e-01
-3.506979421304052269e-01
-7.889327695878466384e-01
-1.047080825683238459e+00
4.081178529922488418e-01
-7.976530443098278633e-02
5.445656407721468639e-01
1.806386986943667727e-01
-5.989816818645578023e-01
-9.163872155259933372e-02
-7.950284862882566195e-01
1.198271943689450669e-01
-5.386238950827291205e-01
2.145798883411770275e-01
7.915448956288709814e-01
3.095962689648437127e-01
-5.656402577892816197e-01
-1.024348300143431256e+00
-4.538767944126831377e-01
9.582248418973957627e-01
2.208644435616034241e-01
1.007706119509820475e+00
-4.579532986519793680e-02
7.821362728638919792e-02
-1.489296131651487443e-01
7.575421100408766262e-02
1.073704077346985808e-01
-5.006142001216857818e-01
-3.481991449492553015e-01
6.204612960689170897e-01
4.845321603087314744e-01
1.143036448561350227e+00
-3.462710812012221862e-01
4.793876173554260101e-01
1.249389840620819481e+00
-1.809530797827847703e-01
1.408836534035902699e-01
6.184370206730527286e-02
1.968077442098844498e-01
-2.108009086934390652e-01
-2.113508100994672678e-01
-2.311131227608620442e-01
-4.312256677015838813e-01
-9.846072617544198158e-01
6.038971032794979710e-01
-5.799453478475072310e-02
3.803084862440844205e-01
4.071214265475553429e-01
-4.935800820480955586e-01
1.062376825690980020e+00
-2.352587671240757294e-01
1.430829418629352423e-01
6.447833623543199888e-01
-3.348357699713962465e-01
4.168812743142488175e-01
-5.447414145470086400e-01
1.884222214211564439e-01
-1.481377463390927129e-01
-3.380431163738521483e-01
-5.022070328842833664e-01
-4.240028564810701672e-01
1.270647935484824909e-01
-3.000540061440204465e-01
4.042032909927032458e-01
1.947038494729098179e+00
-1.284963365815598779e+00
2.686000320053166801e-01
5.715714206817684717e-01
-3.809823276025967598e-01
8.592496764143365828e-01
-6.387401336443581101e-01
1.746060230441481842e-01
-3.652948137246158078e-01
-4.814532159680133538e-02
6.280728951095060353e-02
-6.507429398084715322e-01
3.100569790110271895e-01
-8.042092662215576393e-01
-1.299101078053137348e+00
7.140181910336418358e-02
1.201527941724330972e+00
3.592676071899664203e-02
-2.431734217816764743e-01
5.996868625480921144e-01
-4.667332125433331647e-01
4.865147374937377478e-01
6.247305224542130109e-01
-6.879815974419811742e-01
-1.176175511431372112e+00
-4.794376550727703079e-01
1.335269181423475171e-01
-2.446671834935213674e+00
6.045412358178652301e-01
-4.801802880280404140e-01
9.777788272542424775e-01
9.707778081753795640e-02
-6.568159808669453703e-01
1.764279737686950678e-01
2.853278798120254534e-01
3.749497406185841042e-01
1.609270623622076624e-01
7.832736925641655690e-01
1.205040694101835008e+00
5.835003595545824595e-01
9.028358786431036620e-01
-1.531887250577982140e+00
4.647827951781486888e-01
-5.565001685887042138e-01
9.511782803292256894e-02
1.682553478552349935e-01
-2.237955372420277755e-01
-5.898383158547625404e-01
1.330813036534695737e+00
-1.240545693655071835e+00
-2.255069048235709417e-01
1.530172805381211365e-01
1.286300575640111354e+00
1.362649761248799773e-01
2.317624000626412051e-01
-2.015287817314594387e-01
6.172177311675444145e-01
-4.957120533990859723e-01
2.137301903928705560e+00
-4.284935820720401356e-01
3.705191977051754959e-01
-5.657595044813279461e-01
1.478003530367637264e-01
-3.380120455103901023e-01
-1.395821052440668897e-01
5.779172626550216352e-02
3.254425267801894783e-01
-5.799148672414664585e-01
3.597906200426390089e-01
-2.721375338041842618e-02
-7.758913950125090331e-02
-9.253761267273831193e-01
1.401755318337488676e-01
5.997264570780487247e-01
-1.952276822474308116e-02
1.193580350335896600e+00
4.369827810893056053e-01
6.015903558178440358e-01
-7.494032476709439061e-02
-8.953235685868735638e-01
-3.918841390894809429e-01
2.360952065977665881e-01
2.280047289325546622e-01
-3.996474482922975913e-01
7.574632434237049683e-01
-1.117605190514964875e+00
4.317164690178160735e-01
1.341623687963877432e+00
4.108812536014279093e-01
1.170864581110954428e-01
7.761476300022357444e-02
-9.975740618572044305e-01
-2.931705120799208975e-01
-3.993702911347953854e-01
6.655150349392509046e-01
-1.960688531173950810e-01
-5.239309766004829338e-01
-1.670736731337952863e-01
1.042204825743349383e+00
2.098840484064334877e-03
-2.021584289666560758e-02
-5.298631963436774006e-01
-7.402806056662403211e-01
7.529896291947824061e-01
3.023073317765477275e-01
2.084040670841066090e-01
2.496262144533997196e-01
6.877797013236097712e-04
-1.141765214281526664e+00
2.462650767199763835e-01
5.834673054644802237e-01
7.474030148779942095e-01
7.310327579303266265e-01
6.003515455475909590e-01
-1.551629167513813412e+00
-1.224849711674724784e-01
-1.484919783704533036e-01
-1.300855309094384737e-01
-1.032540897756394571e+00
-4.738762951497625941e-01
-1.424127086178348378e-01
-3.518659062015807026e-01
3.985888382026496479e-02
-4.234934096040593454e-01
-2.632218543284933765e-02
1.415191857120151886e-01
1.318228370855199838e+00
3.567502483298634619e-01
8.956856104428216891e-01
3.084869204097091533e-01
-3.677984361255049461e-01
1.837595639662751024e-01
-3.054921845837813010e-02
-5.158327437452179254e-01
-6.125505039677715813e-03
1.736340428412990744e-01
5.332317217827859945e-01
5.379160275377741218e-01
1.613445072713294293e-01
4.350902413840176952e-01
9.417376066242577615e-01
-1.040284896898435951e+00
-5.426511138403479206e-01
-3.670866136423207027e-01
1.192534254880001782e-01
-4.898624523055344904e-01
-2.553865766876329824e-01
-1.847063401226969603e-01
-2.095525448962117510e-01
-1.069631337074189448e-02
1.681727096094955409e-01
3.845934449388585530e-01
9.936300802665948284e-01
-4.369896502875024735e-01
-7.272501441715795156e-01
1.275495522636285184e-01
8.195522981017780428e-02
3.003168822897204771e-01
1.779164656345848972e+00
4.088923492816783356e-01
2.717945254005142974e-01
4.357827544810332077e-01
1.304625682992995195e+00
8.310788014447803018e-01
-2.471127416340191674e-01
1.586245794848118451e-01
8.931437172466600849e-01
5.468303289625269237e-01
4.219780602487074317e-01
-3.497015105914352828e-01
-1.081687918973504581e-01
4.496360277596773147e-01
-1.608239382880960688e+00
2.721269536332108219e-01
-1.820497247961739562e-01
9.942313047773737589e-01
1.078954182149794550e+00
-1.564027691111467444e+00
6.396845842108714875e-01
1.212463776538716287e+00
-8.387725660719974607e-01
-6.538438267428656747e-01
3.199311205859571849e-01
-1.672853862169026984e-02
-2.105249959546714733e-01
1.278364066147228417e+00
2.608657381460049995e-01
5.537333194235894984e-01
-1.941734639927458206e-01
6.200668460065231202e-02
-6.390305642041282930e-01
4.376437466233846774e-01
-6.843941177071093396e-01
1.943699623825406952e+00
-7.764930795452142931e-01
-4.419312748249890621e-01
2.456285131895015461e-01
-2.557720387408481955e-01
2.942761871567778353e-01
-1.047498810845373773e+00
2.647393167634659594e-02
1.691651997254900175e-01
-4.726088458096829870e-01
2.365849645475297247e-01
7.665914069897481475e-01
-1.010680542704694318e+00
-3.330374225494342477e-02
4.759790067234509481e-02
7.606044988045885802e-01
6.516099877507375293e-01
2.611854062269147736e-02
-7.282599979712363336e-02
3.039921720842428399e-01
-1.618563389323148249e-01
1.138166662523132922e-01
-4.536642355140585448e-02
-1.069237473294182283e-03
-3.457388253275787693e-01
-4.424183356642875098e-01
-1.161777206550938524e-01
5.153897784002734461e-01
3.380330564169675145e-01
6.339966406088259898e-02
-1.891493790904631156e-01
8.998963744533308162e-01
3.962722325751301677e-01
-1.004338324533094878e-01
4.020171153386660201e-01
-2.064420428280295816e-01
-2.906615835440065632e-01
1.199353017953846745e+00
-3.489346598053809090e-01
3.559522285825739152e-02
-4.983266598271022252e-01
1.251706920532020817e-01
7.140215780754707309e-01
-8.354055598481233691e-01
-6.264513384866294832e-01
-7.453174788876280044e-01
-6.022646589300317821e-02
-1.894641133046626180e-01
-5.212327236210685388e-01
-7.609134834922773871e-01
-4.720738418045709039e-01
-1.140523935715442638e+00
3.430624960011918745e-01
-1.680419058046487280e-01
2.729426409224167127e-01
-6.008999261980288997e-01
1.544512670484901040e-01
-9.043223195555363247e-01
-1.117983640385036948e+00
-1.823846639488680421e-01
3.346644650409184019e-01
5.230813937656048074e-01
7.147487998152319832e-01
-4.384813934471446517e-01
1.745696072709946312e-01
5.496834015217758607e-01
1.453473154981531901e-01
-8.880400434167837198e-02
-3.556880747776046681e-01
-2.796222282750918109e-01
1.625570433562759654e+00
9.703041784029824424e-01
-9.061381468129843519e-02
4.047443330727934496e-01
3.226421615062035619e-01
-3.866562664665015303e-01
1.238000555757600374e+00
8.599561625706468870e-01
-2.222872711611488805e-01
5.228850597151701862e-01
-1.682901025910914783e-01
9.574838997996870660e-02
-5.993498866536979275e-01
-2.505699938760649337e-01
1.966412276219448030e-02
3.003108291397988960e-01
-6.360786917926065653e-01
8.734686227629067101e-01
-6.122168185621446046e-02
1.199322951294658490e-01
3.357304070662204265e-01
1.615913191908741275e+00
-2.912032443269955695e-01
-6.268190812723704042e-01
3.070378320508304060e-01
-4.312655654539181427e-01
-3.845810444077127910e-01
3.252850540627763021e-01
7.156096605780575270e-01
3.784288252684296916e-01
-6.480423499745077143e-01
-3.076323478505366693e-01
7.972562775929810108e-01
2.128190491924385197e-01
-7.209176875020419928e-01
8.799246040209758313e-01
1.806349432325222715e-01
-5.489556561541453217e-01
1.159928589934391130e-01
4.898214682961857247e-01
-1.054108298370363794e+00
3.881059761229588290e-02
-7.367677686627426281e-01
6.043980017687828887e-01
6.803886491011287840e-02
-8.379279532893523230e-01
5.895764503425959813e-01
-2.028734386171155979e-01
-2.232031054936897130e-01
-1.943023339284198014e+00
5.401433075307114917e-01
-2.851644584822271011e-01
-5.640012132102079079e-04
3.960893573914302523e-01
-3.482394008865608015e-01
-3.814345550034518029e-01
-9.657908614803797920e-02
2.914509706163559422e-02
1.875003852751269129e-01
2.085150118352364856e+00
-6.919371118074570948e-01
-1.097995444333408344e+00
-3.531720618070700590e-01
9.861080348684241326e-01
7.756174349949427338e-01
-3.336587808101196262e-01
1.103414993942966604e-02
-1.072471684882680965e-01
-1.015189048670879501e-01
-6.510468645272434740e-01
-9.952798831782964095e-01
-1.956537060967442621e-01
8.942200540455587099e-01
9.319331824326962943e-01
-6.596146807442631044e-01
1.882055182688185391e-01
-2.689309987575916328e-01
1.015885139166492035e+00
-2.721539504793506203e-02
-2.460239029583607406e-01
8.266553818524938757e-01
-3.153491489287429950e-01
-3.213958167990442760e-01
-5.145288668564507173e-02
-1.150568448948616207e-01
2.429571678887822161e-01
-6.481598173355325176e-01
-1.391402964481974758e-01
-8.089562234952941688e-01
6.656116799854169264e-01
-2.006784864579327643e-01
3.324171592414720822e-01
5.828106348393520264e-01
-7.633656350545942049e-02
1.557833491933893755e-01
-1.021025939310097774e+00
-3.756400030455184225e-01
-6.473917843988119536e-02
4.912918229062925857e-01
1.989364036848918493e-01
-2.781079844622177388e-01
-4.166479923010232844e-02
3.369678555251404140e-01
1.022999109064703038e+00
-9.684419009069369366e-01
-9.757564203574854433e-01
-3.121665892293119526e-01
4.841294778053850112e-01
-1.844880559570825085e-01
7.195365497603277705e-01
-8.894562034647390814e-01
1.935459586379455477e+00
4.798332240927258296e-01
1.884393356317710377e-01
2.050642458725415729e-02
1.733494642148774023e-01
1.316450423352256260e+00
1.975305440387462863e-01
3.122454379209108621e-01
6.568130242463710022e-01
2.695850616491822505e-02
1.766181578431169352e-01
6.301815915624656705e-01
-5.986827012623450184e-01
-4.057276637697476707e-02
8.265087048140729031e-01
-5.890778954297006820e-01
1.514347476185938235e-01
1.190542518077512879e+00
3.414174942847205130e-01
1.100320096496337108e+00
-1.651095236870411820e-01
-1.120810889316204984e+00
-3.775377177969984621e-01
-2.575978149401837447e-01
3.372024668832484529e-01
-6.134058683780913013e-01
-4.438505160020829732e-01
-3.316281540253074867e-01
2.174059784045380139e-01
4.531642420715074060e-01
1.013981674497897334e+00
-1.595631941336549620e+00
1.259117193276143021e-01
-6.709363201297198209e-01
1.691522736248453063e-01
3.292568386965364358e-01
-3.323368516840654596e-01
3.559103421463288286e-01
-2.674296341453774595e-01
-7.288655335981986116e-02
1.359748939979227855e-01
7.421974237509454397e-03
-2.954433638119667235e-02
-2.227594555786014396e-01
6.202269179601792581e-01
3.232899869953120842e-01
-4.416310131105589676e-01
8.330884164652977431e-01
-1.944787174893030379e-01
3.244356109100426933e-01
-1.782493920391463149e+00
4.661328674896707547e-01
2.736271286930308522e-02
2.864580526948470318e-01
-7.218384677561104912e-01
-1.990119757165599301e-01
5.091597123518806223e-01
-1.082228266102341907e+00
-6.735743048408284750e-01
9.948481701804899879e-01
5.311237120338258011e-01
-1.621070316204234363e+00
-6.199125647569392328e-01
5.479081333949300525e-01
-2.022784401438955104e-01
5.481571091974432042e-01
2.862069894427896055e-01
9.189630933537732416e-01
4.637145995872478110e-01
1.498293520247878652e-02
-4.665811748899643119e-01
1.134916323261098592e+00
7.023788641362457286e-01
1.300051127107675897e-01
-2.421214059439725785e-01
-5.197461703335197747e-01
-1.008134188166908807e+00
5.071685152553401243e-01
-1.215687634955911145e+00
-8.343349893689488983e-01
-7.384680563077796744e-01
-7.846716645887610309e-01
-2.207444662699051263e-01
-8.909261884386563413e-01
4.085356316899019236e-02
6.680204393931179485e-01
-3.080982333211609858e-01
-6.328608486729951910e-01
-9.495146577906972141e-01
1.613913890918865057e+00
3.901465973593525316e-01
3.638350503080970411e-01
-3.501873329175608229e-01
-6.035861945238191195e-01
6.785539724923504989e-01
4.630304360448086465e-01
-7.982494295128623740e-01
-7.732918894493067130e-01
-1.130093600994428460e-01
1.470293039750208530e+00
4.090553335669562807e-01
-1.645489304463854108e-02
-9.062307812846686073e-01
-4.984255398719714125e-01
-4.010710592490835946e-01
2.094098616999006124e-01
4.410926065599922730e-01
3.835604738855796225e-01
-2.355843938611981714e-01
-1.418684751819611067e-01
-1.005913234706138082e-01
-3.336082630303666141e-02
-1.257778920727754546e-01
-8.652239097390634903e-01
9.074029846270189603e-01
-2.805087014998983719e-01
1.227731223151513618e+00
-1.420688265701158359e+00
1.454271259037057007e+00
1.134585374330697505e+00
2.068784900514230585e-01
-1.226039413957864754e+00
-2.159733683589835529e+00
2.632674693490135720e-01
-1.712962961388717620e-01
7.443248638888649849e-02
6.060968933220449717e-01
5.638369693720437503e-01
1.301433675253240996e-01
-1.800304407404890727e-01
-1.994744698187312260e+00
-2.348425757710362882e-01
-9.871280827744918218e-01
9.448025971920843702e-01
-2.632130511539387818e-01
1.405930844792201206e+00
-1.222277516125714225e+00
7.081072828014498555e-01
4.314350620142558546e-01
3.850008581652981099e-01
-6.625877050292345860e-01
-8.858357229405674493e-01
-1.110781898499859199e+00
2.134046658023335263e-01
-1.783679780547079985e-01
8.336598322789804394e-01
9.874481979298583845e-01
-2.595247652678013828e-01
-4.493655570975161329e-01
-1.387935926682154264e+00
-4.572585649337418401e-01
-1.531353085824587179e-01
-8.843006183924101427e-02
-1.066997145920681456e-01
-5.654961095995034714e-01
3.079859247892695051e-01
5.683451930672582808e-01
-1.720910076778495723e-01
-1.644507769896891847e-01
8.083601531430352205e-01
4.512842267530428608e-01
-5.154043802583918588e-01
-8.663153350167090982e-01
3.264568780433657613e-01
-1.535353282584837054e-01
-3.039691754843393268e-02
-6.057684341366065262e-01
-7.178734738373105939e-01
-5.044637541562888572e-01
-5.283332006039258566e-01
-1.538359003031720684e-01
5.421068863745812649e-01
-2.932423756464870301e-01
-3.777819001628873741e-01
1.485010003191511441e-02
4.643361166848469779e-01
-1.092864387250549907e+00
1.256391303443063379e+00
-4.685068831719229610e-01
-9.292393544028384467e-01
6.353873084370997848e-01
4.447536264179924870e-01
2.444029234545099794e-01
-7.849933369844404041e-01
1.619919241853394087e+00
-5.472242727142673235e-02
5.472116064944476665e-01
-1.839909424379018721e-01
3.594030220229610384e-02
-4.486110329617079007e-01
-8.940094957865324377e-01
4.386210954512027582e-01
6.331958798802290733e-01
2.601847258035784871e-01
-1.542525637634050428e-01
2.087100905012251317e-02
1.068758422375662293e-01
1.290698318788656151e-01
-5.221428823062466140e-01
-1.048870100887407730e+00
1.107286221549253213e-01
-3.074603965242150849e-01
4.176952972770723860e-01
-3.752587556803793634e-02
-1.474767633973112169e+00
8.526958517167959606e-02
2.016551538220659467e-01
1.405213070397861586e+00
-1.905511789094105346e-02
1.107047679864426648e+00
-4.331284682304162303e-01
-3.030574988974266137e-01
-1.312181181362118476e+00
4.233435978283768553e-02
2.485180265995308724e-01
-1.203045434856596652e-01
-5.077143857727752785e-01
5.905425162847174336e-01
6.001981007572168014e-01
1.325809026778457689e+00
6.071119335225539926e-01
3.967902057554466566e-01
1.394528969709239452e-01
8.423800051516890930e-01
-5.191792031473828617e-01
9.865597575639404315e-01
-7.160505374567418535e-01
-1.294455440249703271e-01
3.712972484478510582e-01
1.253960610323439639e-01
-6.222651083457210186e-01
-2.026338486396827565e-01
7.053533525763241996e-02
1.414718475238540552e-01
3.479881546363216005e-01
9.732751466614944502e-02
-2.253349955765406309e-01
-1.600537651633549885e+00
5.460583446691547049e-01
-1.099569605224818947e+00
-5.655415993829493448e-01
1.239906091822552625e+00
5.708137654163384367e-01
-1.372699377503008300e-01
-1.510569797882352683e+00
-7.748227507242911871e-01
3.804670180207773145e-01
3.642094955126607414e-01
7.979382062612131454e-01
-3.657844451766742444e-01
-5.567688379678901317e-02
-4.688556707324529338e-01
5.010917841052071886e-02
1.374214721792051730e+00
9.055870410238452406e-01
3.168367968074335406e-01
2.855916985070029446e-01
-3.219057679357766322e-01
4.585375190303014881e-01
-7.509277013218795815e-03
-2.571934588052554593e-01
-8.970796333002478695e-01
-7.906433672735213580e-01
-2.587923587786826185e-01
5.040865755301190410e-01
-2.403428530167301957e-01
-1.086095757124948769e+00
-1.369551915919851481e+00
-3.021955921137955969e-02
-6.354343860602684746e-02
3.899943958822189582e-01
-7.953614048690468286e-01
-5.216976300225345531e-01
-3.420228331817101175e-01
-4.584603428395938596e-01
9.574762233016964608e-02
-2.195494046755777640e-01
1.001061639119382729e+00
4.252245673012262639e-01
2.920106683255254687e-01
-4.990479165010106577e-01
1.710935409942462293e+00
7.246098038128518937e-01
-2.323903053754062253e-01
5.914052596495398273e-01
1.180582057221776227e+00
3.928593407775457513e-02
-7.325338817615865139e-01
4.975742696570059076e-01
-1.799755173501749739e-01
1.071961939884863435e+00
-2.581095950115739335e-01
2.827928707980632006e-01
-6.316044109566472109e-01
2.239311749169443089e-01
9.379728462952522383e-01
-2.143104387764143137e-01
8.440206038351432127e-01
-9.408460258694102407e-01
-1.521216677052264488e-02
-2.005664332521393534e-01
1.719841052332086173e-01
4.786060825087015691e-01
1.148309375906629626e+00
5.892480023278359735e-02
7.345468016762501939e-03
6.320964489381095675e-01
2.868690938600925583e-02
-1.014738104715571798e-01
-1.028941932241156820e+00
4.307199557761323683e-02
-5.351801130344597812e-01
-9.216619939037318243e-01
6.175064364836400088e-01
6.726376010704044894e-01
6.716802836456554626e-01
1.747371899422031083e-01
4.733437712904324801e-01
7.266426426422014639e-01
-5.945810059434626649e-02
2.290810208933716785e-01
-2.385573857447143009e-01
6.448006271312234361e-01
-2.806867459448317281e-01
4.079147364052124747e-01
8.536077892462515804e-01
-4.351250841382417467e-01
7.063958586369001313e-02
1.172037316285129194e+00
2.540907044940087789e-01
-8.489818561171122990e-01
6.540833286978409156e-03
4.744924802114889317e-01
-1.809865617052883180e-01
3.343096952800824195e-01
-8.335820029185144753e-01
-2.017132307507954470e-01
4.553693176646954055e-01
-7.542208978215655946e-02
3.881597113770630658e-01
1.375241249802379440e-01
-2.831408545201306026e-01
1.227131642006532353e+00
-3.550706522553191968e-01
-4.769988534881147713e-02
-1.651144948657234934e-01
1.214505088563822444e+00
-2.798244960006378013e-01
-2.042297716689071008e-01
2.538259748657423209e-02
-3.219945015383095521e-01
6.526120480539372715e-02
8.648726681221950985e-01
6.038087380996726150e-02
-3.976587627051182683e-02
9.264849308777153292e-01
-4.711789848758543009e-01
-1.862382428066166273e+00
1.666504873481238214e-01
-6.901242993088956279e-01
6.351904860938466513e-01
-6.844701907930956786e-01
-1.943597454285449722e+00
4.658790733356167335e-01
-6.331737732245794614e-01
7.856097444586799261e-01
-5.240663523201186669e-01
-8.314320835693397305e-01
8.413227002211572936e-01
-4.610645651464495565e-02
5.142735418831810845e-01
1.262007862721473028e+00
-7.024540255447984105e-01
1.139944501956164924e+00
1.202578384762942668e-02
-6.973194352935495610e-01
-7.033612308089074450e-01
-1.018171862559993368e+00
3.605986207118150322e-01
-4.449799727132562888e-01
7.534692458611075283e-01
1.435222702342575651e-01
-2.895584166244280500e-02
-7.927038662661720636e-01
-8.113989278726704835e-02
-1.733630367397763494e-01
-6.951636014098323546e-01
3.283989847116318139e-01
-8.844157776030665552e-01
-5.419779513591582720e-01
8.182343709947224042e-01
-3.510061839545225992e-01
4.110757316611085010e-01
-1.816970249310483065e-01
1.097946611639184278e+00
2.725192720081381914e-01
8.848165202877811275e-01
7.755101486419242462e-01
-1.123805337250112224e-01
-6.562672758145930985e-01
1.282582228147404857e+00
4.332419281809704037e-01
1.120587937362490294e+00
5.950789844134218853e-01
1.271369319440029400e-01
-4.051857234902981331e-01
2.378347742191832537e-01
1.078869844865863792e+00
2.181417578314382433e-01
-7.680475864040529066e-01
-6.786926774585702038e-01
1.439069724325177380e-01
-3.323480963322094639e-01
-2.310689733871238993e-01
-2.735221142103115843e-01
-2.365844424752892583e-01
4.634848209577366873e-01
1.129396289879061044e-01
-5.637696050278224735e-01
-8.164765284047051930e-01
-1.397890123418182640e+00
-3.143441621647363182e-01
1.716110499148072455e-01
2.611384319396882758e-01
-4.786694358292422624e-01
-1.481925725430856877e+00
4.424509708262934216e-01
-3.921230655909325735e-01
-2.791995270731583711e-01
-5.746331671189131018e-01
-2.567453604216757279e-02
9.764221001498166186e-03
-1.097582161555288593e-01
-1.974065781214569548e-01
7.118630097971131998e-02
5.929223884582809356e-01
3.230999542694005799e-01
-4.079102514806265400e-01
-1.461379049090587301e-02
-1.276388728718979237e+00
1.748660649218648500e-01
6.250757013250021199e-01
-1.290823074720263697e-01
4.011997755063188009e-01
2.197957900315060387e-01
-7.747496105198004024e-01
3.628329541220919885e-01
1.166420421522280204e+00
6.910541920392557769e-01
-8.994285771033438959e-01
-2.805698216777879339e-01
1.363201799458958918e+00
-6.475761917888134267e-01
1.530975725211838889e-02
-1.528466224696960918e+00
-8.150973470163271895e-01
3.507185047337130213e-02
-9.034689787040650621e-01
3.573286482262521546e-01
-1.277812531148340702e-01
-1.185916016354252728e-01
1.072377220365904105e+00
-5.635601455236312063e-01
-3.707109302792022110e-01
-7.132580236154897335e-01
7.634036381667719251e-01
1.359209569882744439e-01
-3.769296161215900387e-01
6.857581165567180892e-02
-6.616269004826538236e-01
6.222834560991243880e-01
-3.906500831931922213e-01
-5.985791714946897546e-02
-2.184584775288156422e+00
8.981691923522158172e-01
6.898290220797724803e-01
4.171603236436797202e-01
6.130058855457030109e-01
-1.576276627120733742e-01
-8.028103002418376932e-02
-9.505719866759140269e-01
-4.422794744537174028e-01
6.641983900536740926e-01
3.315258176372451460e-02
-1.116955341806741497e+00
9.604172048764531011e-02
-4.610627741836128557e-01
-3.507982171305630281e-01
-6.646673777573867126e-01
1.223976644830275795e+00
-1.036691624363412556e+00
-9.879516939988128854e-01
-7.937011050272640977e-01
-7.369707315075800791e-01
7.912745018720488410e-01
7.947170232927524003e-01
-7.283181171082434568e-01
-3.325012866825345359e-01
-1.235097293138246871e-01
-4.492752238008277943e-01
-1.504627643739558263e+00
1.189110360046738007e-01
3.167108917459757200e-01
1.805215781163316824e-01
2.507139921955895412e-01
2.021993302999420816e-01
4.109606021791311070e-01
-1.482368944133396926e+00
1.113291118304805538e-01
3.167591124843434636e-01
4.995624701813676238e-01
-4.164055389241656802e-02
-2.737163639248609837e-01
-5.893818039613333282e-01
6.309646110191904356e-01
4.253788982951517417e-01
-5.814703158395677363e-02
8.426727790859845912e-01
-3.503710489831313168e-01
9.408547027643041627e-01
2.534479244071738968e+00
1.778398400768894660e-01
3.193253265015492115e-01
4.504627002450877216e-01
-5.270875639226978437e-01
-2.656154225847306982e-02
6.376290406113925835e-01
4.755310014871644841e-01
6.392077896947754301e-01
5.479320553620669054e-01
1.501738738533664463e-01
1.610659659706570324e+00
8.674169973909341413e-01
2.333026931894652267e-01
5.379964408060795150e-02
-6.728209809215086601e-01
2.771809332101348167e-01
-7.986292057583521675e-01
-6.650082143766564147e-02
5.079412322031244820e-01
-1.717501811779467147e-01
-5.102027415424910117e-01
-1.567356814608820287e-02
1.829952291635050798e-02
3.481043361718330065e-01
2.262442890242958582e-01
4.250624725708593288e-01
8.695731634661253706e-02
1.754978789347532431e-01
7.933480658316863776e-01
1.862602271779195684e-02
-9.554698541686169611e-01
2.342629504463788592e+00
6.929442391215325792e-01
-1.382476654505564867e-02
-4.806046875046335320e-01
-4.959162898659182916e-01
5.547343745860761066e-01
-8.376989898396807188e-01
4.986870567605843352e-01
-1.951404717533656852e-01
1.436656242678239770e-01
-8.240182252971485211e-01
-1.714831877670503490e-01
6.811239823377189806e-01
3.965305808462925574e-01
-5.858989843495847616e-01
2.782356361670166311e-01
-1.432450877673992373e+00
-1.470305341853185954e+00
4.690674324849144483e-01
1.663870028181963501e-01
4.496468345471615891e-02
-1.690849362221610586e-01
-1.303616563976972564e-01
-6.719896543201077099e-01
-2.575736049620584445e-01
5.351833072598864982e-01
1.891832476077403569e-01
1.470305908989145927e+00
1.559492026311711133e+00
-1.980652729478704632e-02
3.914794888332788214e-01
-7.991041124648252669e-01
-6.060429696287322754e-01
-2.892762661027774573e-01
1.647581036560803458e-01
1.239801011223383931e+00
-2.943315648460245737e-01
-7.161678613666853099e-01
5.510397139426537194e-01
-1.882525665925556702e+00
-1.168920561579314565e+00
-2.365582914344215304e-01
3.126641902115776528e-01
1.881158227966865049e+00
-6.720300931247558118e-01
2.314346736672170390e-01
-5.279977876021695327e-01
1.083829660977190024e+00
5.501497688288645715e-01
7.059186702556108362e-01
-2.965122010567440292e-01
1.601574367193820958e-01
-2.614627411937732737e-01
-9.095785832300028462e-01
-7.221702530492285499e-01
-8.626739064240040999e-01
6.432305597692647980e-01
-3.361718668913493691e-02
-7.057904863817733299e-01
-2.633679501190529515e-01
2.228527000074140840e-01
2.516410747318488239e-01
1.350828385292521805e+00
9.410229825805039860e-01
8.633539390720463835e-01
5.238687623939839444e-01
4.127882006246637592e-01
6.270738541843366987e-01
2.009036267284883825e-01
8.289606832042681894e-01
8.221817726160692841e-01
2.634829038587215289e-01
5.784491850835061788e-01
-2.159095653640829005e-01
-1.000497403984186573e-01
-2.409423448664441136e-01
2.233236282808084006e-01
-1.101521198558109149e-01
-8.796124178492308321e-01
7.141256701829141740e-01
1.252160447671009647e-01
-7.235028162587684442e-01
3.587830367567686474e-01
1.177429367324414944e+00
2.837746668392648886e-04
2.753794939023285204e-01
-7.974505667724410829e-01
7.320823053038231221e-01
-3.879513731185268988e-01
-9.868006235637502011e-01
2.336349192064628433e-01
-2.594989579027522919e-01
-4.047281471114866358e-01
-1.386839453387236132e+00
-5.381638591285433648e-01
-3.854364048138527177e-01
-4.840338273467280072e-01
1.719981741077491355e+00
3.331739924905446903e-01
-4.037703452963735673e-01
2.637006817260981184e-01
9.783191965646901300e-01
-9.579732619747906297e-02
-1.281229718200909584e+00
-3.110715278891237334e-01
3.085476038196921511e-03
-8.657464549173525814e-01
4.180814268643646692e-01
-5.792496704799793283e-01
8.766841078469683746e-01
7.596099907126440121e-01
7.527143882291088550e-01
8.663121664627093654e-02
1.143321568412775546e+00
-5.146873311734031509e-01
8.547571279762524732e-01
-1.447731911604481503e-01
3.662718102208002424e-01
-5.508008610163825924e-01
-3.033637209071208263e-01
-1.066232086464050877e+00
9.236176020584430102e-02
-6.468624388526306168e-01
1.999789872383687661e-01
-2.604845743437623207e-01
-8.312711262174602433e-01
-2.517026745607346960e-01
-6.397944633862689967e-01
-6.628868478113866258e-01
2.170634399277169724e+00
9.930791910751855800e-02
-7.354509356154338429e-01
-3.126372325971258914e-01
-6.578860131402616274e-01
6.632564645583305385e-02
2.929978636963060934e-01
4.755611522931301738e-01
1.532674754368941183e-01
9.897496138432583246e-01
5.712790206349017685e-01
-5.818634527355186492e-01
-1.086624564198945375e+00
5.752788983050218796e-01
1.958554016195528380e-01
-7.686852096715222071e-01
-1.443853413901721616e+00
-4.931144825561062373e-02
6.113826529034698254e-01
-5.867235065975803243e-01
3.116843241132622247e-02
2.606217687668069827e-01
-7.363919844714783558e-01
-7.505535501188549397e-01
7.874987991536074317e-01
3.610198148350078629e-02
-2.430072916030004970e-01
-3.639564850614358804e-02
5.650643839438724836e-01
5.734696566856537503e-01
3.825735608676659183e-01
-6.432605770689645563e-01
-4.856327796193440349e-01
-5.307567728170232702e-01
-6.182746757131757365e-02
7.891541817415042015e-01
1.207459521372200362e+00
-1.812273566544954639e-01
-1.148774589450938910e+00
-1.381926871940563739e+00
-4.727434844651223766e-01
-3.513926956032637494e-01
-5.674251448201262926e-01
5.593802167705104189e-01
-6.617003792405556917e-02
1.842063251553211600e+00
8.812863656559499770e-01
1.794065382862003455e-02
8.490852532802140029e-01
-6.929393110357153773e-01
-2.718647467225141501e-01
-7.384668138921083314e-01
4.046288037481690081e-01
1.784179506829631501e-01
-3.454167153576256921e-01
-8.283191778060596810e-01
4.992798880116510185e-01
6.162599392608336668e-01
-1.442868716308839949e-01
5.338674297474288455e-01
8.116605233788765084e-01
5.580021800111259478e-02
-1.186998717822523863e-01
-3.309104718344718643e-01
-4.993237433593054608e-01
8.630504829622270835e-03
4.811183786750901636e-01
-3.636400437475545977e-01
-9.065088424167380698e-02
7.119560048754456361e-01
-9.189640551865406737e-01
5.971287837706829027e-02
4.947002502991315609e-02
-4.722121657469192657e-01
-5.457190820105825013e-01
4.365315522973699514e-01
-4.313302669146450441e-01
3.602294501508108288e-02
1.682856340574734322e-02
9.785374163315354590e-01
-4.268635160974562637e-01
-3.458310385755422045e-01
-6.645651032710815365e-01
-6.720748396604002695e-01
1.847382161923140087e-01
-4.669786329663482283e-01
-1.028348127515260613e-02
8.739668966984945886e-01
-1.148598301735552496e-02
-9.928498856968889785e-02
4.348014885254528616e-01
1.284611156544332999e-01
6.952939810432153811e-01
-8.951771107686368190e-01
-1.104700810809818634e+00
2.975718218597446230e-01
-6.728690264067054283e-01
-6.074480320018688095e-01
-1.132529417534081373e-01
3.710401602229541906e-02
-1.364341387390809457e-01
3.584925278191124498e-01
1.733795447533896805e-01
-1.662173037836186251e-01
-1.015803792152195628e+00
4.086284380263435767e-01
-6.365517871630710367e-01
3.118494929728645726e-01
4.690847658489793459e-01
5.108559510628897238e-01
1.081109362820143804e+00
2.389976410712389976e-01
6.507841560817514415e-01
-5.746492996849968948e-01
-6.755936445964044745e-02
5.568696376269111070e-01
1.924506526233388470e+00
6.139133226841619884e-01
-6.652334872578803404e-01
-6.206984169735860757e-01
1.789168921242977883e-01
-4.083667695881740278e-02
6.982055416531273151e-01
6.987550506037962794e-01
-5.026929723923314608e-01
-6.180359711525613975e-02
3.082555583196988636e-01
1.678796080593013551e-01
6.507315492960422665e-01
-1.025982642255838462e+00
-2.918644460511979344e-01
-2.443285872125296465e-01
-8.092340981030453628e-01
-3.008239060874173254e-01
1.416908355083338122e+00
-2.510164833374894933e-01
-7.419160067601672237e-01
-2.977956741768544857e-02
-4.615511863856552321e-01
2.451919674184377396e-01
9.850992513710143950e-02
1.116247171825095252e+00
3.118626170453919766e-01
-2.504243533451609438e-01
-1.240827401960454268e-01
7.780984171304758945e-01
7.529946184001581333e-01
-3.987602434381605221e-01
-7.856716534405153718e-01
4.266965589218516541e-01
6.362575722961338887e-02
-4.177166878645741654e-01
2.223968093356687437e-02
4.662743688554271682e-01
1.363373389535431635e+00
9.610467378154754492e-01
-3.424340948501317095e-02
-9.443759229148189771e-01
6.699090514241419214e-01
2.940631951621951179e-02
-1.000705694793063150e-01
1.489111882949692711e-01
-6.125754759529706828e-01
-3.408191975173484045e-01
-2.776654746508869787e-01
-5.865496774260842150e-02
6.167912801193554673e-01
-6.565883255415958519e-01
-3.417262038102356625e-01
-8.557385664303399642e-01
1.313054193122373259e-01
-3.177423652489612116e-01
-5.672056182792771795e-01
1.113411142368047613e-01
-5.743518383625331181e-01
-3.022827464098605810e-01
1.212969443685716631e-01
3.336311226812913588e-01
-6.719582267089585503e-01
1.695285013421032327e-01
3.987894150539833538e-01
5.293112096008545375e-01
1.971461332905061203e-01
5.808139092066180176e-01
-3.269341446027968501e-01
-8.677890423272943687e-02
5.161589475651900960e-01
-6.346587686803164541e-01
-8.733014168336863392e-01
7.461807311082552241e-01
1.235614433428019243e+00
-2.261738195064491863e-01
1.720776470769946442e+00
6.677081843489836022e-01
-6.904602347497356130e-01
-3.639804032928415367e-01
-2.013565117400504811e-01
9.891564805242308855e-02
-1.201786216278506458e+00
2.055808377638177920e+00
-4.203324990463090383e-01
-1.386482434525730945e-01
-8.701171882522115153e-01
-5.304148250887833482e-01
1.987055545386770261e-01
-1.379170937879683034e+00
7.472339172983355482e-02
6.167810822863635245e-01
-8.314325030616245282e-01
6.049701456798921573e-01
-1.100485139578107063e-01
-2.397111759107969919e-01
8.938118130814560747e-01
4.554229907679934186e-01
-3.751430177544381461e-01
4.825767223226767877e-02
3.257185455999302426e-01
6.300781265447759349e-02
7.004221774200165562e-01
-2.844810055295154960e-01
-9.891623215310341166e-02
4.900179859534563032e-01
7.733070765788184753e-01
-1.444031264243894608e-02
1.157862486539856572e+00
-3.440267126879152926e-01
-3.470821398327345042e-02
1.198663103810055919e-01
6.942218869629260825e-01
-4.627288499771764485e-02
3.203441875462165189e-01
-7.873270392698078490e-01
2.516775077799751070e+00
-7.606720944023581676e-01
-7.286842746244217572e-01
-2.658566194997600274e-01
-1.207061631927001333e+00
5.933216225157118551e-01
4.058764329736222476e-01
2.165666191811131402e-01
6.486553851049881025e-02
5.570513514096634422e-01
-2.360547778025876842e-01
-4.176890938591274610e-02
5.047346754196666563e-01
-8.578127129086597913e-01
1.001674133646004994e-01
-2.196866014151793722e-01
1.311366118704754002e-01
-4.630201530126468734e-01
-5.074774949717761885e-01
-7.909723995305582012e-01
-2.588577826446915031e-01
-9.109890338036300550e-01
-3.609625236771326628e-01
4.924228384041777762e-01
-2.558879630162876340e-01
4.306222341367380579e-01
-6.203768961953129990e-01
9.299694035251897528e-01
-1.545412373842267595e-01
6.202090346744393301e-02
7.524866318470084803e-01
-5.969557833854455264e-02
-2.435474037532326941e-01
1.832067722720471525e-01
9.580819937339879466e-01
5.865631434143900869e-01
-1.312260973734606373e-01
-3.202557316848961833e-01
-8.518308757872427028e-01
-6.667419339066506245e-02
-5.924533425805633691e-01
-1.943394731977773349e-01
-6.095779533926963811e-01
-6.234554101932384684e-01
-3.966762836826762118e-01
-8.116493818461244514e-01
1.916002632365412239e-01
-2.046074617279232677e-01
5.461988241592903304e-01
2.869981280356183606e-01
-9.100825084219930083e-01
1.502017740956519132e-01
5.269491879810171975e-01
-4.945116611909744497e-03
-4.276235139634143034e-01
-7.351877926710510547e-01
5.434228870941706369e-01
-1.543725465755325377e-01
9.074771609145403373e-01
-6.156091442347469966e-01
5.862312026908466089e-01
-1.723747550707929732e-01
8.830908450370814067e-02
4.719454285036622787e-01
-5.223242370278770030e-01
5.930905512915163325e-01
-4.049711202912512631e-01
1.798035646012462463e-01
-2.945842444484746414e-01
-9.273902722900626561e-01
1.618220368254463137e+00
4.190990419403850531e-02
1.501794859330457976e+00
1.159488460156001127e-01
4.832436589421605921e-01
2.721533543931206056e-01
-3.440636641914989746e-01
-6.465118156154312512e-01
2.002082718867213007e-01
-5.300361514658042950e-01
-6.165622173067377698e-01
1.371487293366576432e-01
-1.353281226601550369e-01
-1.006175843522366442e+00
-1.349858579611326326e-01
-3.029305319599959190e-01
-2.069138828999115831e-01
2.433788657872363315e-01
-3.319292026775053084e-02
-7.600294888848946329e-01
-1.145376389446652876e-01
-5.722114309557941869e-01
-4.809834877461500735e-01
-6.814734320093451814e-01
3.428747104731753037e-01
-2.732873543197700261e-01
7.451362012523191636e-01
-8.690095450678725353e-03
-3.471596822081033373e-01
4.605390522091056260e-01
4.036246304188870204e-01
1.006665963833143773e-01
5.412435097905533565e-01
1.378329207284255231e+00
2.034588158758234011e-01
-1.635592471782431723e+00
3.707861289295089624e-01
-3.459443740984332605e-01
-2.600217328863937416e-01
-5.012494506480265066e-01
-9.685110267789766025e-01
3.990693479269034061e-01
4.620612438960212121e-01
-1.007072829242977585e+00
-2.027932362221642748e-01
-1.830824645215808899e-01
-1.162623882932762032e-01
-5.642517479549142845e-01
6.097839380015523947e-01
6.919461497189299815e-02
-2.388543676942459282e+00
9.505017706129870181e-01
-1.277919009916387016e-01
1.021311273125676156e+00
7.155614332923847520e-01
1.723209277351867019e-01
4.671590256429108967e-01
8.300065886535550330e-01
6.207409326869682831e-01
7.718548183563387344e-01
-3.937716367925282457e-01
3.495936736857422900e-01
7.937784442406785601e-01
-1.535917393841489398e-01
-3.418899173066428654e-01
-9.161228249408681634e-02
-7.558716807503941260e-01
6.766509767757201699e-01
-1.214740290019101998e+00
-1.584010345287113042e+00
1.243059716010153970e+00
-3.675838024350323030e-01
-1.231001552693983481e+00
1.247575568176042538e+00
6.388351556876158410e-01
-1.397026581569745796e-01
-8.515372216395802885e-02
9.245899087124802573e-01
5.139462650234821739e-01
8.079642405896925172e-01
7.038218734603542970e-01
-6.191311218318515941e-01
-4.007061099021841377e-02
3.029038315926114167e-01
-1.975045681108858475e-01
-3.814064824174654977e-01
1.302088140748250966e-01
4.330623057213919824e-01
1.112080046721979354e+00
-2.081536127796786317e+00
-9.937222852386526917e-01
-1.142255974007834629e+00
-4.029700920191057190e-01
-5.635728775260876455e-01
-2.381569457705159376e-01
6.775348017425603109e-01
-1.359398263393931383e-01
-4.265463412141956567e-04
8.274342484927299513e-01
1.531078983378958980e-01
-2.731450044401555477e-01
-8.968421146609961703e-02
-8.036651102672873748e-01
-1.751383514671794872e-01
-4.355122267032507932e-01
-1.126295774534042504e+00
1.107837109654872809e-01
6.576515677943066684e-01
4.255917031338097845e-01
-1.312261785841064010e-01
8.537204983887398957e-02
4.936218026695475825e-01
-1.830896276422648294e-01
5.325671708608872290e-01
3.657028294388204315e-01
-1.668132121841140680e+00
2.773238391677066428e-01
8.089459160277462368e-01
1.224855129623930949e+00
1.903344384909712306e-01
-3.419310437424638582e-02
-1.244363249438538377e+00
1.225277759562372060e-01
5.293651942571000468e-01
1.752497475350505152e-01
-4.227951217113973259e-01
2.426324748845004597e-02
8.615111120444883808e-01
7.177450182369714549e-01
-6.842361015432039117e-01
8.980507843470069140e-01
-1.928098067995895337e-02
7.558354427278718424e-01
-7.459597676898532814e-01
7.921749445274189894e-02
-6.209126177694448412e-01
-9.609720689674829952e-01
-5.151530278159925924e-01
4.707884807288008622e-01
-1.803157452008793626e+00
3.659108624251892206e-01
-8.917575318667816386e-01
2.347554942954193369e-01
-6.520765126264197464e-01
1.895723355570970436e-01
2.040648709992298748e-01
6.566967689895796267e-01
1.504656982651146335e-01
-2.322869117094435720e-01
1.597701945427169312e-01
-1.293524601195748858e+00
-3.107775704207619838e-01
1.777870652978527088e-01
-6.131527262126557076e-01
-5.610815064348848580e-01
2.319719119343682801e-02
-4.986817190192329718e-01
-3.486724594787726783e-01
4.597425698524772453e-01
1.001192234939616732e+00
7.727494475615650504e-01
-1.333122686171968496e+00
7.140623520416775616e-01
1.184191424805638576e-01
-1.673620339837184612e-01
1.098359527682358117e+00
-2.541541967809053393e-01
2.028844775467869566e-02
4.422437121147288486e-01
-4.346679069952706920e-01
5.715003412218577772e-01
6.911348845409044372e-01
-5.667347059571375967e-01
9.934799462370543788e-01
5.457865930722445302e-01
-1.697570093925165891e-02
-1.285714674071164465e-01
-1.774936678059641504e-01
-6.599003344898319856e-01
2.921338949148468145e-01
8.615429596048667094e-01
1.591353638578211771e-01
-2.145229186905488472e-01
3.278925372430570029e-01
1.745186048709735260e+00
-1.671974948870073585e-01
-5.767983171851595037e-01
1.431275878598572970e-01
-1.848616276927579627e-01
-3.258212429651862196e-01
-5.818205451191589272e-01
-4.488799789456096589e-01
2.938570210800914295e-01
-5.820981743749374937e-01
2.672910362660785855e-01
2.141039097362337773e-01
1.870983447494988017e+00
-2.841459160330127576e-01
3.950498091483328755e-01
-1.447888390719967111e+00
-4.220633454210288571e-01
-1.892774157560316584e-01
-4.350581119330836910e-01
4.094531604219882048e-01
-3.730212879488126188e-01
-4.079565585386336624e-01
2.995347320564470395e-02
-4.659381865472924655e-01
-6.925993787948403480e-02
-6.608455433439675009e-01
-6.049809938140697785e-01
-1.210485028444455713e+00
5.099619907477797032e-01
6.408024134459080479e-01
-2.677468275740015891e-01
-6.127546874505965802e-01
8.765169222858791853e-01
3.051555271778473299e-01
2.331628245809695965e-01
3.324772235085177163e-01
2.348344616745025315e-01
4.846174004386941681e-01
-2.698555603620063081e-01
3.553963051575989018e-01
-3.906455294120838584e-01
-1.039396754784178700e+00
3.307813047526895200e-01
1.290234233626144533e+00
-2.090354248380405178e+00
9.511590330041014285e-02
-6.008627378282616061e-02
7.321151478178841709e-02
-3.301347189802461557e-01
-4.426408380746954530e-02
5.958149128769558711e-01
-2.695025347945440020e-01
-3.639954740453359983e-01
3.735896453229368142e-01
-3.146408523095991505e-01
1.684134877901504179e+00
3.125637300258002349e-01
-3.332238526640148857e-01
-4.445466594232403423e-01
-2.737369592970624321e-01
-5.504287514908404177e-02
-3.864626723255959462e-02
2.089251481149265455e-01
-2.150029580910428340e-01
-8.092023597586006645e-01
7.378789328150214821e-01
5.498800168960464863e-01
4.589166630781673084e-01
2.933146162584733263e-01
1.748361533861224615e-01
-3.310639065146186444e-01
6.623546145822174491e-01
-1.347904365204281252e+00
-1.218384208227868415e-01
-6.024878986596986508e-01
-3.233905338734129886e-01
2.549526565140987078e-01
1.636867107551243983e+00
2.051431296350665068e-01
1.058148803720966868e-01
2.988684415613848677e-01
3.555279628841475636e-01
-5.531134297881155071e-01
-4.788791493101816066e-01
-4.176737230866767181e-02
-1.218467358418354740e-01
5.293801293469184710e-01
4.055834847104900498e-01
1.166421431364854877e+00
-1.451304828146541270e-01
1.645409380796081233e-02
-1.067350338874494264e-01
-1.251286717215941979e-01
1.073488077031935717e+00
6.644375071598696003e-01
-5.252373759466353320e-01
-5.784135303273525430e-01
-1.187444149815619354e-01
5.423358633861602440e-02
-1.066552751648077238e-03
-1.041481697671075013e-01
3.560095468889220016e-01
-7.158624328714022766e-01
5.201849080232260336e-01
-1.858913320574291650e-01
-7.390864313301691579e-01
3.805709646644414024e-01
-2.578228360706254496e-01
3.228739525206397731e-02
-1.050636095287748262e+00
6.045282162530912773e-01
1.115694628200911837e-01
1.418421424940483067e-01
-1.986878789610302676e-01
-7.826781524532084866e-01
9.492630186347032761e-02
-8.729209558617689879e-01
1.828702435549633132e-01
-1.437986324432845020e-01
-1.886892692841331542e-01
-1.058737530650502690e+00
1.101427893382195267e-01
1.155345462484922869e+00
2.351620778371656950e-01
-1.261044935955585033e-01
9.588344846524983200e-01
6.935400679611267716e-01
1.098593331275076468e-01
9.181218393341910033e-01
-6.024059167461015551e-01
-2.392708898324450995e-01
1.499103790900650490e-01
-5.060337831213379545e-02
-1.008351738772317319e+00
-2.372654502934795906e-01
6.599775754317105392e-01
1.075182220301776237e+00
-8.170693606175560841e-01
1.581389801235826287e-01
-2.722588868370515724e-01
-3.490561753195238759e-01
-3.937932231786343551e-01
-5.344979843449830792e-01
1.034995014637609678e+00
-5.521589215382637361e-01
-7.050521449411878416e-01
1.548615574955913843e-02
-4.349676865782122204e-01
4.003182788564311756e-01
1.266012100929293727e+00
-9.624383642152186669e-01
1.181577378747099116e+00
-1.350256610363568255e-01
2.018747746698774104e-01
-7.222182632139224623e-01
-4.277022519420510815e-01
2.115715042285542247e-01
-5.264109565375728605e-01
-6.665883057013641810e-01
-3.497559096604201390e-01
1.946550966153146045e-01
-3.628786608623011389e-01
3.453182907987881745e-01
1.905401706130464889e+00
5.751358290015562424e-02
-3.251669958740258659e-01
3.929466500779084104e-01
3.607389002138884360e-01
1.416910363809962492e+00
-5.648301183185724383e-01
-1.652650968054949487e-01
2.893090615113500519e-01
-8.743610409004883843e-01
2.056507643875421509e-02
4.403393466466701822e-01
1.367637579696882044e-01
-3.853348810315706530e-01
-5.909604814239360904e-01
-7.012698692247070209e-01
2.806934294922258655e-01
-3.847388476647590760e-01
1.186007635776500924e-01
-4.045250495102844512e-01
1.917770125682345839e+00
3.496468660920329374e-01
-1.191011424283489051e+00
1.425781122790832800e+00
-3.482904575615373699e-01
-1.064667160768918874e+00
-8.373624087383366166e-02
8.181445146145820413e-01
6.132140026081911444e-01
-5.333525433687497097e-02
-4.243388225440374306e-01
-8.195809904700690485e-02
-9.831948401525625325e-02
1.390021096002871159e+00
5.760762415008148229e-01
1.243019185991809106e-01
5.859703271661051427e-02
-5.502174133600729045e-01
-6.358895429134370225e-04
-1.287947710119173639e+00
1.173703999013426813e-01
-4.329228678385900198e-01
-2.807389812989508626e-01
-3.775068302128273823e-01
2.035675281276264070e-01
-1.492214446564956998e-01
8.989207468894812036e-01
-4.536672526948934414e-03
-7.058950731418716096e-01
3.408092598620350300e-01
-3.206576275281147748e-01
5.443348777477010625e-01
-1.759494941873433138e+00
8.272684301231327808e-01
5.898084747234668690e-01
-1.974347431441264844e-01
-8.005431765612052164e-01
5.726102295922989027e-01
1.102757841046791976e+00
7.111470896977353240e-01
-1.667742394673046857e-01
4.590863620664949463e-01
-6.588214857683437620e-01
-7.515957630746623597e-01
4.444334045946344292e-01
1.231819698039934158e-02
-1.593288496127902576e+00
3.535697206706875928e-01
-3.332852764451715299e-01
-5.604038325051103886e-01
-4.808860957487316456e-01
4.728796549728788712e-01
-1.120541558573277197e+00
-3.907794142142815841e-01
-2.288725802255237030e-01
-3.900510585616632775e-01
3.873339041580088349e-01
2.573245009005418749e-01
5.772590249906042192e-01
-4.467209119709520948e-01
-3.230973650426788302e-02
-5.386374883106044564e-02
-1.432091604298339149e+00
-5.009630960190756266e-01
4.281801921664000754e-01
4.114355253954858349e-01
-8.415289249732199606e-03
-1.550355101562359561e+00
-1.123788696282502997e+00
-1.432359264235096852e+00
1.647377828813584300e-01
-7.027074348237195567e-01
1.026790458593233590e-01
-1.326477558594512995e+00
-7.412660862791808913e-01
-4.520800530762116853e-01
-2.844419317601180053e-01
-1.074072151559032351e-01
1.894515308946040921e+00
-1.862997249685916235e-01
1.333894644664424867e+00
-6.631462140834301078e-01
-7.745797519993664615e-01
6.062386516996003394e-01
8.094691100902393077e-02
1.011405732863486506e-01
1.968796244283396724e-01
-4.494764129475457004e-01
9.818353368073940990e-01
3.108749468644100289e-01
-7.363626701482467451e-01
8.081005444121511783e-01
6.487476496639451584e-01
3.448511051474594247e-01
-3.095411796343140454e-01
1.123650616031260652e-01
-5.932273811511928896e-01
1.221623688569326571e+00
-1.480235759364285086e-01
2.195331530942763454e-01
1.368256751896046230e+00
-4.193616133666380197e-01
1.189038083729887785e-01
-3.998116889995728673e-01
-3.059343290988590924e-01
-8.685956543483878134e-01
1.249622664837479052e-01
4.243110112276931578e-01
-6.590514641509360727e-01
4.999107911371162838e-01
-4.828887766661236203e-01
1.348622007978716175e-01
-4.051726591748250339e-02
-9.778586024834107215e-02
-6.274604452836347601e-01
-5.646132788703268623e-01
-2.635090048774347826e-01
-7.519852287313570915e-01
5.035484928282982220e-02
-7.748395377231929171e-01
-4.524919852863000247e-01
-2.585262090840354521e-01
1.434549434482984831e-01
3.545365257730691555e-01
1.682612345760930994e-02
-2.126268476501780857e-01
3.097130332397372565e-01
-2.173994832917710007e-01
-5.736072169866509585e-01
-1.982642919793283998e+00
-1.456580378069102788e-01
2.264305022137594881e-01
1.590655544932000898e-01
1.219789591790187977e-01
-7.754974367817962788e-01
7.118581326204364013e-01
-3.905134072703013159e-01
8.749336319377202242e-01
-9.236637697909850786e-01
-3.171369703016250763e-01
-7.799807028848310120e-02
-8.797066014948977664e-01
5.565357325154520751e-01
-1.620165517718680226e+00
-1.100999319686526867e+00
-1.987202393798842559e-01
-6.750120246165485227e-01
7.128319003276666344e-01
5.118655330834442907e-01
5.640974756535508394e-01
-1.057814053181819425e+00
6.315715699446163844e-01
-9.815643876267410306e-01
1.425120426882409974e-01
9.912612302893194505e-01
1.593256256719773001e+00
-4.627070680348135401e-01
3.045313406499017828e-01
1.550648542426253940e+00
-5.538362096326026052e-01
-4.265298227928059349e-01
-2.365631596298708172e-01
-2.374073089957674521e-01
1.012540289936679994e+00
8.855376506593723440e-02
-9.998367484361475599e-02
6.282475428659574090e-01
3.383247242135762889e-01
3.536946583606404015e-01
7.159947193447515623e-01
-9.942414848848827313e-01
-3.946857431814845274e-01
-6.068203017270061839e-01
-9.931021968551629886e-01
5.684147821503668929e-01
-7.418601478791950754e-01
2.512246974411849187e-01
7.513886757844914777e-02
-7.731877334210597308e-01
1.106056026363726741e-01
-1.203479785582246830e-01
-2.909562443467492154e-01
-9.787740129434640002e-01
6.935351894208980905e-01
2.200926105315269554e-01
-3.040005926899264077e-01
-5.561808132515566605e-01
7.317411305730306403e-02
-1.061891429305581447e+00
-1.570674864959516470e-01
-2.166360913195103377e-02
-6.417001459597619639e-02
-1.787220222497829247e-01
3.555992254915037454e-01
-8.631786868472018925e-02
2.002777925813886695e-01
9.391410120287294050e-02
-6.078495264316776669e-01
1.603610063446427314e-01
1.478430574609777004e-01
8.928884995433467031e-01
1.726964430707465525e-01
-2.133572498888522129e-01
-2.817886224614647439e-01
2.732865483087115743e-02
-1.868190243160396946e+00
1.012274289962834750e+00
-2.173438849794666616e-01
-2.561979535177744127e-01
2.811171223770936312e-01
-6.074444958806606287e-01
3.540600477102762156e-02
-1.678977753991407473e-01
7.183109867514706481e-01
2.040390412370324813e-01
-3.033975195936030045e-01
-6.898396575725677105e-01
-6.366303919158166069e-01
2.393098096424642329e-01
3.932874563877098995e-01
-3.012631022238633771e-01
2.407758057456935163e-01
3.004510017147463130e-01
1.371175624831733053e+00
-7.629659290494241741e-01
-6.896240994301776617e-01
-6.803636423954744217e-01
-6.985817792427249096e-01
2.795963073394041043e-01
-9.920313949418407828e-01
6.735681486063693768e-01
2.366301965630259740e-01
3.257854966304437605e-01
1.208070192618101890e+00
-2.187555677596921544e-01
4.250397548753718779e-01
-6.770496088797399725e-01
6.369843166576824034e-01
6.364445400457527935e-01
3.075397476026009436e-02
1.501168182180679378e-01
-7.909487139171643699e-01
4.446815094739654528e-01
4.383811949372539152e-01
7.285761049344581242e-01
8.466347249334964520e-01
5.195845456891603487e-01
9.011936769475352715e-01
2.463654870006376507e-02
3.006421877754383298e-01
1.139317483692001143e-01
-1.112186628031366920e-01
-7.989373368977743528e-01
-1.796498222500225450e-01
2.510447665689523045e-01
4.537034128097015562e-01
-8.218942867466163538e-01
-5.787324608667268055e-01
-4.766792373415850714e-01
3.840677922328233906e-01
5.084734069358196606e-01
9.258369464649682246e-02
1.944741963736972001e-01
3.159844739092530497e-01
-3.249535551199096983e-01
3.000456771473167805e-01
7.232745104785933687e-01
-6.347738313866841953e-01
-1.065803489102696289e-01
-4.781141867118666733e-01
-2.870667910856461447e-02
-4.183903758426307795e-01
-1.473266767022235246e+00
1.032484121766920282e+00
-7.968329330646076736e-01
-8.023297175355331712e-02
-6.685286627306631368e-01
6.354264135103913080e-01
9.190507081296625524e-02
