-4.814104350169453594e-01
2.873072770297598333e-01
9.915387152417867167e-01
-3.051894166668099873e-01
-7.619247590616936572e-01
6.839685108572725047e-01
-3.854562551756561262e-01
-1.049753378998665720e+00
-1.004379123755145126e-01
1.409134313502155844e-01
-3.447120991932041689e-01
-2.935466842079585970e-01
-1.016708967290504084e+00
1.234227123926786018e-01
-2.483144247317242703e-01
6.367426827735301886e-01
7.362601617713186997e-01
-3.373658911606599586e-01
-4.879369282176020395e-01
-7.935921340423834902e-01
6.853571676515568534e-04
1.095168287761981163e-01
-1.489095411502768584e+00
1.047767786943354373e-01
-2.110746940531725624e+00
8.381333023243149327e-01
-1.081043201026103295e+00
-4.221934853727771220e-01
7.732644113707330957e-01
1.631135388951955978e+00
-4.712755561319357245e-01
-1.437509178747109484e-01
6.672493345569402434e-01
-1.749388663673331568e+00
-7.045041236191199596e-01
-6.219407254754861780e-01
-1.658604984370836366e+00
-1.686255607712971172e-01
5.371636189898166824e-01
-4.256106536765942305e-01
2.425937296386357078e-01
-6.071579530227597665e-01
3.279462022302717106e-01
-1.115400690313224974e+00
-3.155300084529211735e-01
-3.483904822768058573e-01
-6.713828202589643412e-01
-8.499587678945226266e-01
2.342762236411183308e-01
-8.436394432858589365e-01
3.400510207403653062e-01
4.181614888244467032e-02
-4.328248304028089466e-01
5.325791446755538949e-01
4.099166186094423958e-01
4.543793780946839833e-01
1.398831437173881087e-01
5.674095932183695901e-01
1.173897218895696981e-01
1.839736634357151679e-02
5.818901379355960746e-01
-9.810156371591068902e-01
-1.281579612917157052e+00
4.551199217096811855e-01
6.729453568579850387e-02
-2.075367510339850341e+00
1.478367272404416566e+00
8.165421276541668938e-01
-8.276777818197356140e-01
8.488731190412390770e-01
-2.812754501065690693e-01
2.340959906379215250e-01
-2.406080315307683737e-01
-6.328698258093724549e-01
1.244991436834478105e+00
2.235446076282812666e-01
-1.558870097083323136e+00
-4.326406352181215720e-01
-1.846435324819273305e+00
-9.260741637554763539e-01
9.220956831941331533e-01
-1.033467121461071891e-01
9.626533515866211865e-02
1.188005523264444308e-01
5.628158902681886788e-01
5.708194092454865753e-01
6.563402718642769029e-01
4.435388936142860561e-01
-2.964747260219854907e-01
7.440018630518299148e-01
1.829358417395954284e-02
-1.761894707136903715e-01
-4.933258365244265475e-02
-8.886901944971579148e-01
-3.189037183523212304e-01
8.699038502792222349e-01
-7.839951212658320401e-01
4.557042884459605592e-01
-1.856051278818471317e-02
-7.115205359655407680e-01
-1.491029601417705797e+00
8.835023003032655975e-01
-3.726179367622950989e-01
8.904894722581881972e-01
1.369813072029857359e-02
-6.259902088399738052e-02
8.476960950755074720e-01
1.131290592337550471e+00
-3.464289277920085119e-02
-2.384604025387998538e-02
2.234301756947371098e-01
-7.979241066104768576e-01
-2.833091857058580576e-01
1.071417342538674600e+00
-1.472774326889094154e-01
-4.036066258340392232e-01
-5.112064151100679243e-01
1.770764357515513809e-01
1.855319767103543072e+00
-3.835214101899155348e-01
5.785446194004195686e-01
4.396737368209739927e-01
6.580865000856728209e-01
-1.647818877422072781e+00
6.503697974414394123e-01
1.451373300770431585e-01
1.618259054353926585e-02
-3.833756081373439484e-01
-1.288499358188156529e+00
1.472517291719428190e-01
-3.544097601016893417e-02
7.962043942943182184e-01
-1.237027324038620257e+00
6.512819547113873897e-01
-1.192528776841517146e+00
-3.952201158443002238e-01
9.531461497630024926e-01
2.894350925239452810e+00
-1.940255701012282286e-01
5.237426240560927315e-01
3.762820136195571541e-01
-1.348047097496353208e+00
-5.018262687749186490e-01
1.235283988074480588e+00
-1.547167988236371805e+00
-6.409592565745145798e-01
8.260748883948505483e-01
6.307387481900572634e-01
-5.560796196112874901e-01
-6.748590569815124951e-01
7.086235058024074052e-01
6.687654018855891946e-01
1.299890910330292471e-01
-1.168751421798511991e+00
1.339761876871435220e+00
6.624665634463118291e-01
-3.003625249321808521e-01
-1.404204891752156570e+00
-7.694759236168445815e-01
4.196746897621858596e-01
-1.108483213053554906e+00
5.117562605786031282e-01
7.447007949568998919e-01
5.893014864931656049e-04
1.316990558923473165e+00
-6.931182894860707933e-01
-1.262630248934502486e+00
-6.956694275259506233e-01
-9.858075668616422815e-01
-4.657851668864506078e-01
9.483962957541913763e-02
1.620063012834293881e+00
-5.359770092409592568e-01
-1.300481660197831402e-01
9.164236357112887088e-03
3.069880708316146123e-01
7.101982037643789214e-02
1.016478733338265661e+00
-8.452922992884261966e-01
6.646054374707059953e-01
-8.797548482380376234e-01
-9.120220838044481582e-01
1.747882633565410182e-01
-5.142625938743969893e-01
-2.070205181186246968e+00
1.306044078293103983e+00
-1.752523613104880695e+00
-8.882095515957439957e-01
4.434872817075197760e-01
7.314602052729499704e-01
1.417112961861514808e+00
1.878209921370472268e-01
-6.479845042561901414e-01
7.572045257232141724e-01
8.661437587352722733e-01
-9.070006611496882476e-01
-1.695693732633420936e+00
2.139414002953358707e-01
-6.553003338083837059e-01
9.243541257194765048e-01
1.420147109589762424e+00
-5.421751999100122843e-01
-1.375887391142631477e+00
2.769359490749442876e-01
3.000757900138449896e-01
-8.367969061994612323e-01
-3.837707509046056620e-01
-3.486549868454132950e-01
-8.705651705758723491e-01
2.209736143997893976e+00
4.775284965495040224e-01
6.776619369401203352e-01
-5.339193019616591540e-01
9.850631381080241500e-01
4.382609990357717589e-01
2.387816383513632346e-01
1.324294184179709011e-01
4.706355853712367310e-01
6.990037447913031166e-01
4.958121543340586745e-01
-8.735619589614136704e-02
4.692166955855259225e-01
4.860519452830124876e-01
-1.346436167293669772e+00
2.746592988416932113e-02
-4.115398915682531022e-01
1.567295397104018218e+00
-1.529295325595579458e+00
9.769417076819634227e-01
-4.904849348969957390e-01
-3.888854462863347017e-01
4.639095445267771844e-01
-3.099863580752872938e-01
-1.656373935124860197e-01
1.240058493406177853e-01
-9.350260546235172887e-01
-4.055346397425387828e-01
-1.367907400220654157e+00
6.804352604464414256e-02
7.149787190903519329e-01
8.476362519570262988e-02
4.355201599792233313e-01
1.777397768875713657e-01
5.657378662952171622e-01
-1.368607711524722603e+00
6.741606668811669367e-01
8.511496770192548134e-01
5.180901654250079647e-01
-6.707951231372919487e-01
8.765880764718898543e-01
-7.761146919965868918e-01
-3.240535044914253926e-01
-5.409635735721891603e-01
-2.652002835229671507e-01
-1.820174286830186228e+00
1.368416397150486186e-01
-5.234144865602424757e-02
2.085949528189233737e-01
-1.659655937781545187e+00
9.937860821826760560e-01
-1.551137018417177993e-01
-1.690090480799205375e-01
-1.828468486952482985e+00
-5.168933759989519094e-02
-1.002055220219214116e+00
-7.696229196372275094e-01
1.004082581348793912e+00
9.964139894886425708e-01
8.054147887523214200e-01
-5.509039902212938822e-01
-1.597709172580276338e+00
-7.348558593612992684e-01
1.158186174507817023e+00
-4.971576898153624580e-01
-1.729396020318417326e+00
-5.389036186753148883e-01
1.592647288012092099e+00
-7.294009929896005939e-02
8.053170286225005414e-01
7.508252230476102351e-01
-1.518680774521431687e+00
5.872771360182795775e-01
3.504739300567609184e-01
2.428247486443753655e-01
-5.271031829400235624e-01
1.895000007514479279e+00
-4.847525199529502116e-01
-8.697815858365226527e-01
-3.033676499325504289e-02
8.074204029433034169e-01
6.103225363003564885e-01
-8.355316979573187419e-01
4.472909482621751920e-01
7.828793640889497585e-02
1.557235895902750467e-01
1.460996609454217054e+00
4.641044445865682988e-02
5.585791957295115351e-01
-7.504783907365368822e-01
3.429477519864705393e-01
-6.513531609766360919e-01
2.193521356591978111e-01
3.143410382925996838e-01
-1.536963865492945169e+00
-1.133484294625015210e+00
3.720886021728722071e-01
-8.904721671288636786e-01
1.283961711629205693e-02
1.130378204031143197e+00
-2.541795299806911546e-01
2.931320677287185816e-01
-5.258579216027695624e-01
3.391695859682838377e-01
6.045443334050880635e-01
7.154962339664725501e-01
-1.834032939706022658e+00
1.720040193466367828e+00
3.875721083353236285e-01
4.752859661012570625e-01
1.017689626604442399e+00
-2.700680679511078264e-01
4.064805678549444634e-01
9.789745981519321072e-01
-1.579103709417340351e+00
9.998415943132322736e-01
-2.875439088900114681e-01
5.659612757255090276e-01
-2.740894074015031712e-01
1.439205151325382959e+00
8.558204442382333355e-01
-5.043213963373649467e-01
-1.052637561558122270e+00
1.008489546693556838e+00
1.082510722764828959e-01
1.271843797522612451e+00
8.403800078269410001e-01
-8.230227066077694387e-02
-1.563511021411717383e+00
1.179620975019857188e+00
-1.057100533227460781e+00
2.341356046862203277e-01
4.257322585951224259e-01
-1.267007034063117876e-01
1.246563961602374926e+00
-4.452975918614510142e-01
-9.238816914686376336e-02
2.652113642962898310e-01
-1.226908170564390499e+00
4.726721110410853077e-01
-3.636182127797599750e-01
-6.227008397204818468e-01
4.016751396757695658e-01
-7.001444011326700689e-01
-2.416319425634894380e-01
-2.035474068686271010e-01
-2.527046121312179761e-01
-7.133668649140754159e-01
-4.018676108019768600e-01
7.748761413525064867e-01
-1.424544102038668214e+00
-6.670554324075577135e-01
-5.327997459330370278e-01
-2.676361231991766787e-01
4.944153280644766890e-01
5.977505584186257881e-01
6.690959964744662702e-01
2.776406531718748738e+00
3.268346383253120657e-01
-2.634999707664134605e-01
3.407851794462375961e-01
-5.952958516085828933e-01
2.017628510571825906e+00
1.713295630372803302e+00
-6.048050837166523142e-01
3.745972189647085449e-01
5.502164134243092697e-03
-1.023975245703997450e-01
-2.187612496426456499e-01
-1.743715681589384836e+00
-7.790987852230597532e-01
-6.273579562337008864e-02
-3.869753780141368393e-01
-2.698723647695212557e-01
1.061005795328694434e+00
3.900613381981102301e-01
-1.803230206546321268e+00
1.303411089817875235e-01
-7.001669266027911176e-01
1.664896924778832277e-01
2.662383312295003024e-01
-4.871739586013009160e-01
6.328457733227389470e-01
-1.007897778298495250e+00
9.133727807569871904e-02
-7.864851002084101150e-01
4.390939817428579084e-01
-3.077453151911887508e-01
-1.990067139791821038e+00
5.176503591092208589e-01
4.462632507434008411e-01
3.545786178675927047e-01
2.454121740016909636e-01
3.026745973875364371e-01
2.382282244763566648e-01
-1.141720035770685815e+00
2.082638532454129665e-01
9.022437126449809330e-01
1.025519002653133560e+00
8.560669463407415414e-01
1.239418473717102120e-01
-1.473251777225637049e+00
6.615958882872663427e-01
-2.019237856860375269e-01
9.648590339311013953e-01
1.134209421008911534e+00
-8.602992050433672100e-01
-5.862633497934015558e-01
4.955714091945003230e-01
-9.396108019309412640e-01
-9.467612245100263113e-01
5.159952753620284938e-01
-4.361233976564572457e-01
-1.828093268367781687e-01
-1.148637908479629294e-02
-2.678969863821897945e+00
-1.118682369309415670e+00
1.004193368597760205e+00
-4.420880570423734168e-01
8.206483160967074086e-01
-7.431462702800994968e-02
-5.889771253524896943e-01
1.395325438594169354e-01
1.128247262614767710e-01
1.748194204360516535e+00
-2.823652140776056751e-01
-2.396394252383480805e-01
7.141129153294519805e-01
-2.158356131850761028e-01
1.564298209484163427e-01
1.565194763722417726e+00
3.769039588451431055e-02
1.784779034454131996e-01
4.279136582853546034e-02
-2.532320841788018306e-01
1.308353011941015276e-01
-3.357234573531814315e-01
-1.126461288977230746e+00
-4.632426200782803205e-01
-1.464308695982806441e+00
-6.246643623073568907e-01
9.604917338953803396e-01
-9.768419798401998255e-01
1.334283890708814146e+00
1.097522795738785639e-01
-3.089641470220991226e-01
8.069951652165210931e-02
-2.087283395399541330e+00
7.275401213013528157e-01
1.172039277010815006e+00
1.193017155062430223e-01
-2.516468190384489323e-01
-2.383448200607292122e-01
1.433706526892103206e+00
-2.414176099352461913e-01
-4.883332836501310670e-01
-4.398472880219038705e-01
-3.417648432112882495e-01
8.924929606016873684e-01
2.075791804059090029e-01
3.280659297397129359e-01
2.060676420236419837e+00
5.956622564570349665e-01
1.471007098473385177e+00
-5.584341879365302130e-01
-1.139794409696617716e+00
-2.648326457966020397e-01
-1.743147675024619980e+00
-4.417236380926413131e-01
9.026371748102660630e-01
-3.952682117892618585e-01
4.426538646590906234e-01
1.356218290644674473e+00
6.150800335792032669e-01
9.663338880948413312e-02
1.001432748927455929e+00
9.357754339727217263e-02
5.221737207461727426e-01
1.063991333626006064e+00
1.123615908218117188e+00
4.169646568796104846e-01
-1.999981736459040538e-01
-1.911015814395383705e-01
-4.002445517665589314e-01
-8.235321125580243873e-01
-1.204894640578441756e+00
2.083348318708182489e-01
3.784451799139717521e-01
-5.173514496146959241e-01
1.437187433722172836e+00
-1.239836711709856321e+00
-5.501177152172814777e-01
1.412715200756491818e+00
8.398796515005912955e-03
2.983631023740334620e-01
-4.712887609443336401e-01
4.435799609759485396e-01
1.333385656442186651e+00
3.552373313418581424e-01
-8.944691204952770480e-01
-5.695274217601929978e-01
-5.158142948701278652e-01
-5.315083406954360656e-01
-1.057732349299528751e+00
1.121033318108596077e+00
5.558224666268098968e-01
1.306872817650107432e+00
-9.711493940858176854e-01
-1.717830242274827501e+00
-5.264871164711876217e-01
-8.855869568169731920e-01
-4.897287871565379480e-01
3.365335016659031786e-01
3.271195177440721635e-01
-2.551353166515138771e+00
-1.811964091504165708e+00
7.531701065320628441e-01
2.576945530544341167e-01
6.712956441446635836e-01
-7.873672910696341010e-01
-1.115886729836342850e-01
5.949123652162024989e-01
1.146507462363065777e+00
1.029242885126001150e+00
-2.103471125157144517e+00
-7.646969911270792286e-01
1.916493590471948671e+00
-1.001311361209602069e+00
2.328305906728339369e+00
1.067957086829313673e-01
-2.404749977139545858e-01
1.436991980112386491e+00
-2.748378410472681610e-01
-7.210646751200231463e-01
1.331305830876945429e+00
-7.665206698762982995e-01
-1.836834313611031444e+00
4.484047613768535889e-01
-3.046676475041666388e-01
-6.393166672031895814e-01
8.368050100703793293e-01
7.739466453723394812e-01
-8.673272031534080551e-01
-6.496430510047830342e-01
5.494302533376093090e-01
3.516422451019923789e-02
1.294586393508954103e-01
-1.062261063263615579e+00
-9.013420823725628583e-01
-6.968140257933173043e-01
5.906108764819257839e-01
-4.100447308470913654e-01
4.936899883518680587e-01
1.133163840458706773e+00
1.364411412790123013e-01
-4.903543011755466807e-01
7.679115544311160280e-02
-2.277812524628165303e+00
-1.450020607190276589e+00
-6.619126386732419043e-01
7.634478002840762167e-01
1.514843505083685038e+00
-7.446019995094246280e-01
-1.218379439765853611e+00
8.509872767080286504e-01
8.217206433738545313e-01
4.684724422744678263e-01
1.618773012903524045e+00
2.751437448981909339e-01
9.440011890986226284e-01
-1.166421757577726481e+00
7.627543261508364925e-01
1.629655872085811419e+00
-9.262324314280112603e-02
-1.652295792788762152e-01
-9.026111305095013693e-02
1.980503439705384172e-01
5.895826696866905969e-01
-1.202795904966452722e-02
6.064696866436725120e-01
1.924475953902360814e+00
-1.003655130438475762e+00
-7.376072341128564469e-02
8.681724045888696839e-01
-1.773867546715345300e-01
6.409252342614679687e-01
3.978227708332580659e-01
7.249103796935058019e-01
-3.984756274301856083e-01
-1.436259207036030494e+00
1.333171488722826037e-01
-1.451329726407500464e+00
-9.512121122222184644e-01
1.003110343589031617e+00
1.600340148051687450e+00
-1.010618319067498883e+00
2.521524116777112967e-02
9.798313126314081023e-01
1.888341326320272517e-01
-1.500902015317723048e+00
7.704848356527538300e-01
-8.783547677728055225e-01
2.839777026291969153e-01
4.963490579940350034e-01
3.509851274519143471e-01
1.517558679532380994e+00
-1.719614841180689746e+00
4.443511465483783174e-01
-1.260332391146377629e-01
-5.222132087334996342e-01
1.086230755599794540e+00
1.072222765736076555e+00
5.403748334674931542e-01
-1.087648468583500838e-01
1.104971874520855657e+00
8.554866739557442923e-01
1.400896863547730575e+00
-5.238392427774827276e-01
-4.545192827307217853e-02
-2.160533120115994965e-01
4.047452294175058474e-01
3.963040304039686657e-01
-2.343557924079407995e-01
1.490261422487453302e-01
-9.152927591788053707e-01
3.252880699429361311e-01
-3.646483534566378748e-01
3.184296223099379874e-01
8.325942100378291855e-03
3.686477780975619400e-01
-1.820975161578926027e+00
8.042052833836925707e-01
-4.617221712172242531e-01
-1.761366075303044676e-01
4.215181751949620415e-01
-1.609746364831059484e-01
-4.784270912531073949e-01
-9.105553897282379072e-01
2.369119744627231627e-01
-5.721325992317287668e-01
-9.301682929282930612e-01
-9.359586783408604393e-01
8.929543580932078339e-02
5.665832703182188679e-01
9.064264917621474016e-01
1.288520708905186885e+00
-1.939670688813925903e-01
-4.137914159677890114e-01
3.837622783179219232e-01
-9.312403475234987127e-01
8.266658416580182633e-01
8.780891937208402664e-01
-1.601941455070231113e+00
-5.064901072029235340e-01
-7.452587197456325141e-01
8.826497129161768873e-01
9.172939120220517939e-01
-1.054724727980987264e+00
5.523239226945989011e-03
-2.648923731521389824e-01
9.663518487451466799e-02
-1.738296206854702319e+00
-4.346655021599305502e-01
9.545182085939489802e-01
-1.236140148485719292e+00
-1.820548219062107509e-01
1.732872380380984234e-01
1.059237491248856466e+00
-1.193216746781536330e-01
1.423527487292160387e+00
-1.672857436005046772e+00
-5.487505399073370205e-01
-5.136652751846267906e-01
6.832652948248292279e-01
-1.692494277366157762e-02
-3.787646962182423804e-01
5.477465322292196515e-02
-3.312123144150603826e-01
8.240604841959342508e-01
-3.566750524091610863e-03
3.889500995806232653e-01
-7.951263616449251170e-01
-2.387721514647689336e-02
-7.141060708193471829e-01
-8.465101671025788699e-01
-1.100229806807648592e+00
-5.338895103484411209e-01
-1.367000304626962315e+00
4.751259465614318667e-02
5.817813892374045226e-01
-5.521444769946710629e-01
-1.232661142371052065e+00
-3.138037909394868485e-01
-1.795412162930902111e+00
-5.718155454579594288e-01
2.249394819410503565e+00
1.093408123976080892e+00
1.727531288595439696e-01
-2.540305581677997915e-01
6.906465143404347806e-01
-5.928269275164441687e-01
-4.471383668056211347e-01
4.000507510309823656e-01
-5.734069652292295149e-01
-6.942568487604514615e-01
-2.695805148617579916e-01
6.705602642257163515e-01
8.877038827120415920e-01
-6.994662781561823417e-01
1.907763859851820953e-01
1.122884385107355831e-01
1.937650919024118679e-01
-1.656629265921539140e+00
-2.031280169819835280e+00
-8.350506799413557335e-01
9.338983480517903946e-02
6.080196516296292319e-01
1.444084261742112130e+00
3.151123258219840073e-01
6.147167309506749167e-01
-6.359642498023156953e-01
8.686957732536991772e-01
7.924428611611108453e-01
1.304736201899861392e+00
1.816654715638147399e-01
-3.104092499700707997e-01
-7.564069214769768568e-01
-9.451192364760018227e-01
-3.727167572325564837e-01
1.211757000993591404e+00
-2.314036054252207819e+00
5.163856220547553555e-01
2.073645345467052259e+00
-1.594409246669496572e+00
-4.812319422384825351e-01
-7.787542522332172590e-01
-5.691225264384043303e-01
-1.438636386597796246e+00
-5.174816943753508536e-01
-4.074484676639493763e-01
9.618803861123325083e-01
-2.368228053829677382e-01
-1.886162199348180524e+00
1.279815185247310971e+00
1.276667176186098707e-01
1.024499576629063213e+00
1.313535257672266088e+00
-6.596679480503464532e-01
-5.636411158993291926e-01
6.792233835133633102e-01
1.770336079877851687e-01
-4.735212297130216852e-01
1.000482721656902774e+00
-9.619663459352181256e-01
6.194626161426676214e-01
-2.387311990310968524e-01
-3.115145892584039178e-01
-8.308943317262615924e-01
4.665791242250508231e-01
-1.093259932950945146e-01
-5.115681505931313211e-02
-4.125912699196091493e-01
-9.987181277466036788e-02
4.767336388573420458e-01
6.913495553223237833e-01
-8.861263697196273270e-01
1.514643077428305062e+00
1.103923656875001047e+00
-8.337435590083213111e-01
-7.950105476168334295e-02
6.570908616632815669e-01
-1.124648294888805689e+00
-4.543950218684779108e-01
1.241652789495381742e-01
-1.016890368777705778e+00
1.792926339940420277e+00
2.054914493412490106e+00
-5.697163192935160714e-01
-1.693195955011302489e+00
-1.006956687432947195e+00
1.170099464918876286e+00
-1.348365351292004355e-01
7.557732924027702470e-01
-1.844918991300095845e+00
-7.573333657249754491e-01
-1.309066971140894209e-01
-2.815588640653644559e-01
5.457741391232356215e-02
8.162153079067663297e-02
1.117973359666032174e+00
-6.844637178260486454e-01
-1.668779634749048280e-01
-3.471598287463882326e-01
1.316326180018986824e-02
-5.885721739332745450e-01
3.309793966135139431e-01
1.246442386435847594e+00
-1.114252980764621315e+00
-9.825474188761618155e-01
-1.257900485202522844e+00
2.080860958912360559e-01
8.558855979704722561e-01
-4.128714934951588367e-01
-9.745505882894920369e-01
-2.787409641511235936e-01
1.119292252919801722e+00
-5.222260815385237898e-01
-3.359485200534787497e-01
-1.445142823446252667e+00
2.251320318494891115e+00
-6.217965200744137722e-01
-1.486452830953991944e+00
-9.690127044540920720e-02
8.976632316008155421e-02
8.469452403511193994e-01
1.175881033458077152e+00
-1.131183634736303567e+00
7.423485969132985751e-01
-6.622355252119855873e-01
1.249356044992370407e+00
1.141452960298447117e+00
1.310704545647954689e+00
-1.641373009704025776e-01
6.765533421999208041e-01
1.173940058243305273e+00
2.424065413638452071e-01
-4.985122323347918050e-01
4.901568041718129543e-02
-7.066941423300570069e-01
1.812841586880130085e-01
9.075137275916447255e-01
3.945725573521419727e-01
7.164033081657561475e-02
-4.138294758992905331e-02
-2.003435881612554703e-01
9.479824357558264136e-02
7.003338936167735618e-01
2.113270135481873369e-01
2.315703046558718614e-01
1.195888875170799892e+00
-1.075671295166903685e-01
9.448331950087602848e-01
-4.167329723857784440e-01
-4.656229986200064452e-01
4.953657312447554695e-01
1.467424574917512325e+00
1.747448073146612990e-01
-5.520575150082813742e-01
5.119516618581222422e-01
-3.787273172658647269e-01
3.697939527262365522e-01
-9.758830942515748230e-01
1.188504299916317564e+00
-4.251448889583095969e-01
4.347755202989205814e-01
6.375184743053523562e-01
-1.234332215560980384e-01
1.078996833047107362e+00
-7.202345808446770636e-01
-1.695155163927200559e-01
-8.445143037198129532e-01
4.866980921074285926e-01
-1.764289409465914504e-01
-5.385886328330264927e-01
3.379796227993795976e-01
-5.219540286900831161e-02
4.950076942153359139e-01
-7.303792735210511422e-01
1.691496539860803394e-01
3.506532112848508853e-01
-3.883185113674406663e-01
1.418982395877070313e-01
-1.613909653091279317e+00
5.417552085669901096e-01
-4.567803158097467620e-01
-2.059306406439236348e-01
-5.033788636843393727e-01
-3.291916572523628792e-01
-1.937975566564498209e+00
-1.920947558401903121e-01
-7.080599307262186448e-01
4.326759827031151362e-01
-4.825314115504565349e-01
-3.998900885983517339e-01
-9.532289214470404115e-01
-3.903139844509446177e-01
2.043292646617048958e-01
1.441577031354155380e+00
-5.549118532691905692e-01
1.634191502158680032e-01
7.092171893903369551e-01
-8.034934746897783864e-01
4.337013412464679751e-01
-1.424633210293463570e+00
2.493786509862197853e+00
7.487908697010015047e-01
-7.495701577183134789e-01
6.342788155967060693e-02
1.560808386396427494e+00
-8.471634284212435917e-01
1.367917791928059845e+00
-4.253678828132461121e-01
2.753487609158254967e-01
-8.264451285051049867e-02
1.727580467802791953e+00
-1.345771328447216586e+00
4.777464094377897874e-01
2.175004230078632084e+00
-2.189478790541062869e-01
1.331804236123881324e+00
-1.202990585402605284e+00
-1.043568661270890541e+00
4.663176508877778237e-01
1.539259122949773739e-01
-5.168915607073780727e-01
7.014811624121181088e-01
4.884054728200304396e-02
-3.192400140633604999e-01
-1.319519798058073956e+00
2.969172555007266734e-01
-8.936250941440793127e-02
1.536567011152498718e+00
2.387621372219315141e-01
6.892088258869726314e-01
-5.605944424535995729e-01
5.661995663978726112e-01
-6.143835277534913375e-02
1.378269106779267394e-01
3.341556329843659023e-01
-2.444812756084725758e-01
1.478508548466484773e-01
-5.265765662147228188e-01
1.119955794366140234e+00
1.013885231303265133e+00
-3.165889258320465222e-02
-2.010989225982082296e+00
-1.214804036031327805e-01
3.807299677574477181e-01
1.619271512440028982e+00
-2.634946895975172065e-01
2.186749284207689104e-01
-1.795288775156897165e-01
1.250872608324527624e+00
-5.010717693393283989e-01
-1.165931859164933915e+00
-5.960135196170541771e-01
-6.965069432088020207e-01
-9.855138293102352343e-01
-5.027640095913208373e-01
3.516510878726928357e-01
4.817501581222573548e-01
-8.985983673054498411e-01
-5.878178686957935550e-02
9.774025647423931762e-01
1.036718415794364523e+00
1.964627862303801598e-01
-1.329053872744168086e-01
-1.584711807980814680e+00
-2.982413728637366424e-01
8.911485585305416457e-01
-1.008921315604143776e-01
5.571194011482691888e-01
1.566298154707899126e+00
8.895884428825970858e-01
-8.293225995849201615e-01
1.384348164762363220e+00
-8.694004175095091380e-01
-1.219989093150959603e+00
-7.776982582173113112e-01
-4.395240069103881209e-01
1.171070759142161632e+00
9.921197956106587723e-01
1.503272074060582941e+00
-1.070547631189350701e+00
-1.083314105576432373e+00
-6.269850254421618363e-01
-1.119050422530319056e+00
-4.313257314848540913e-01
-5.087548930622154408e-01
-8.612456198118929596e-01
9.217148961477750202e-01
6.336890567681456865e-01
-4.229185920323744741e-01
1.619607033190230361e+00
-4.661130918534680534e-01
-1.035306925692813129e+00
-8.206951392771637543e-01
-2.752909931068263649e-01
-1.032262344197836801e-01
-3.368946518302574633e-01
-9.866402279196081482e-01
2.328314927164722103e+00
-1.575282970395738280e-01
-6.298192047926516324e-01
6.196421418309708828e-01
-1.057716223196327077e+00
4.524596033696109409e-01
-2.304520642975484979e+00
-7.686900057689495247e-01
-1.629375975005755262e+00
-5.230763717574560268e-01
4.833959254008025619e-01
4.578750874352462419e-01
5.898735376413610787e-02
-9.803087829426390676e-02
2.592560637103772159e+00
-1.049902105066611746e+00
6.612086493317451130e-02
-5.831319960015247661e-01
5.054779916567193609e-01
6.656235634644989130e-01
-8.922430116635712283e-01
5.567973119381898206e-01
1.070892430461380052e+00
4.733575643088314133e-01
5.716435929018334194e-01
1.628641274679860640e+00
9.220103368476384453e-02
3.763234208229297439e-01
6.514559509589998854e-01
-8.508106936829546996e-01
-3.254434601600072474e-01
-5.934640550737315667e-01
3.707463089474720142e-01
2.168315198857609927e-01
-1.072070131613080068e+00
2.467903163101173858e-01
7.947056697939660630e-01
2.716449227989768400e-01
4.180444306020626444e-01
-1.702495042231482403e+00
4.661980422109299194e-02
-2.002617913112688663e-01
-4.387207031012146929e-01
3.229555186056020655e-01
-2.767587396620785900e-01
4.524727675355095236e-01
-2.355263272059942015e-01
2.101755569003911361e-01
8.740878212556366655e-01
1.960424790398741735e+00
-4.547420403194398775e-01
-1.171888700192568633e+00
1.020774781254473407e+00
1.388249327188639248e-01
1.568547332777807668e-01
-8.896439896609749098e-01
5.260889649422197945e-01
1.618006501907408357e+00
-3.664575575253592454e-02
3.394262331544828371e-02
2.272372839348776541e+00
-5.472573136966694118e-01
-8.669132196479775176e-01
-1.400978530518432574e+00
7.234640522737231239e-01
3.604476795190381111e-04
1.518930011206276465e-02
2.981547458868509248e-01
9.118573553607439708e-01
-1.496417458763426911e+00
7.181223438259761727e-01
-3.901250691588074027e-01
-4.858745105357060723e-01
1.152912305794447784e-01
-7.873196239119610862e-01
5.715907859357433063e-01
5.084966603429396104e-01
-2.738670842893407564e-01
1.091413047435073391e+00
-1.479216350911429556e+00
-1.101505527450482580e+00
-4.944214984781869493e-01
6.801164103663330796e-01
-1.019468299601792971e+00
6.438649809222509734e-01
-1.024162128780665260e+00
-4.542929732506501006e-02
3.248150874387925602e-01
6.184875158350147117e-01
-3.371184882084426460e-01
1.167278799172082993e+00
2.390685972630468836e-01
-3.561959389581534352e-01
6.566249324047757074e-01
7.432615053386524284e-01
2.362887709775439937e+00
-4.479904781665433600e-02
-1.052997728250016252e+00
-1.481409127562575700e-01
-1.936601497670490835e+00
1.744314101772149739e+00
-1.139388159048272620e+00
-1.789016694604060653e+00
1.899164610731264857e-01
-1.083916338313336558e-01
2.248865106967118388e-01
-1.000066311467844860e-01
-4.691165904892367067e-01
7.198232733897491631e-01
-1.534746526431706171e+00
5.633070357645995063e-01
4.719480348462798402e-01
-8.393524388434607797e-01
2.103991355160354182e+00
-1.194634080296822498e+00
-2.972394327426117755e-01
-2.702498461133072682e-01
1.226555837949983907e+00
9.208478114640901158e-01
4.222583917572543255e-01
-1.845214947873333733e-01
-1.454236127795366151e+00
6.403721280326958309e-01
-2.758142153142808528e-01
1.450080835612737318e-01
6.210325822195188472e-01
4.903012136675448662e-01
-4.139568000989511942e-01
-1.950197869696818354e-01
-1.381381964366160398e-01
-2.894857791215476039e-01
-1.330838916865095811e-02
1.531821211835329710e-01
1.688702042114388346e-01
9.205519557330292812e-01
6.600043322027998594e-01
-2.650834647431533631e-01
-6.536473946053024120e-01
5.644772031863596329e-01
-8.616872785105683663e-01
2.505903613377989947e-01
4.204270725887447879e-01
-3.591229899129690928e-01
8.061620753722447130e-01
1.067418192126304621e+00
-1.939757304464456711e-01
3.485536256546024614e-01
3.042000798622501168e-01
1.436571383458752127e+00
-1.172506649280353308e+00
-1.017622485332407845e+00
-7.836816396457016998e-01
1.306773516741867480e+00
-3.730867411917821452e-01
2.589564865759217405e-01
7.964325071607496476e-01
1.087306623257657534e-01
-4.709056119640850913e-01
2.798855189011542621e-01
-4.052040899307118305e-01
-5.880803903241220709e-01
1.374463392225517278e-01
9.389781885221673563e-02
3.219095231482974606e-01
-2.561096908550824502e-01
1.712600276521719644e+00
6.742659154715605063e-02
-7.722683909623301313e-02
5.794725943879397434e-02
-1.692670867356522280e+00
-7.565177534607756549e-01
-8.647983063966281359e-01
-9.531801550140605039e-01
-1.190375288179972069e+00
-1.488567345564199451e+00
-6.861030160756097507e-01
-2.099374037404688753e-01
3.755314580006693381e-01
-2.227095502820540251e-01
-2.976011078897707329e-01
1.566422686304112410e+00
8.115390007680685081e-01
-1.046530239041953747e+00
7.125347833449482415e-01
-3.245241828255895911e-02
8.491035678509645246e-01
4.294020196373194986e-01
7.328249263388524337e-01
3.589001372356142028e-01
2.026975349634281276e-01
-1.159590519146751209e-01
1.376560386430238925e-01
6.094755422244636511e-01
-2.311446937240420052e-01
-4.366795492026434022e-01
7.515187531286656730e-01
2.061364139991579969e-01
4.824502803536683260e-01
-7.974964369387227414e-02
-1.490444702938368005e-01
6.300189553021212641e-01
6.987294474865557437e-02
6.010142692789458008e-02
8.377197579794174453e-01
-7.320998579209550550e-03
-1.175206784494243539e+00
-7.871176775130497294e-01
-2.674149460073488860e-01
6.925744370752602297e-01
1.299014401241007366e-01
3.052404072289550685e-01
-6.611607561331611649e-01
1.217114313188983443e+00
1.740109024483380340e+00
1.571187187740130664e-01
1.334272253009515519e-01
-6.107602787425824298e-01
-1.570303569293165058e+00
-2.928158820101233184e-01
-1.223909949930814589e+00
-6.329182827337795914e-01
1.024257837118024650e+00
3.207187817144157571e-01
-1.242229027361036353e+00
8.235915590360007865e-01
-4.192174977991057760e-01
2.979009408937190462e-01
1.511289829000677098e+00
-1.661832493773602426e+00
6.574432016132323309e-01
5.482202665999014179e-01
-3.563831885298063273e-02
1.109675181366251095e+00
1.332229297789655487e+00
1.854175421991187012e+00
8.367488654159295214e-01
1.070055233526095106e+00
1.052321095599356937e+00
-1.085813611670239709e+00
-4.856488282888499208e-02
4.329870565732663046e-02
1.096343805896978774e-01
-6.483926137842022097e-01
7.869187700854655132e-01
-9.181788351877806509e-02
-1.862471313352618285e-01
-2.051524548491862276e+00
-2.796482507601864009e-01
-1.114480406747636598e-02
-1.986401352934979325e+00
-2.311363526747257868e+00
-6.185439900427056603e-01
3.742040440286841241e-01
-3.622508640720396578e-01
9.086131038411154881e-01
4.868634669439350082e-01
-8.008798142870973691e-02
-3.344714178262175319e-01
1.920235164629730651e+00
1.740051525995751192e+00
1.846773480277689727e-01
-2.096232881595987863e+00
-6.332766553348601057e-02
1.026865864906543635e+00
1.140348693170603722e+00
1.203338346883835869e-01
-2.760350884952525452e-02
-1.580659976637359909e+00
-1.478122249648503139e+00
1.341318489280903581e+00
-6.538264109703262328e-01
-8.162819612108472844e-01
3.342066423220689253e-01
9.666656495058540965e-01
1.464008812990724939e+00
-7.884909087919003134e-01
4.205743886739830018e-01
-7.871199482376336487e-01
-3.429643764114422289e-01
3.187378147645222315e-01
-1.290692919399130778e+00
-6.597752665256481075e-01
3.298415012052912654e-01
8.808502778114692955e-01
1.420614325292279378e+00
-4.438788866598819549e-01
-7.792616623353498806e-01
-2.317871316420519467e-01
-6.416537647802300626e-01
1.517656822264817240e+00
1.430983361625802086e+00
-1.616594685007125554e+00
3.615130278797087926e-01
-1.561802637140415895e-01
-4.934190349708090784e-01
-8.236431428660062615e-01
1.129138316219355787e+00
1.441254499551234691e-01
-1.427287724807417835e-01
-4.233187315935014738e-01
5.876840196843964303e-01
-2.255680068911969094e-01
1.427543070225216093e+00
1.137874384189920957e-01
3.916182298844720910e-01
8.682396675126313745e-01
-5.422883477249318407e-01
-2.313385355121587716e-01
-1.126643269916645984e+00
2.633324016433816084e+00
-1.652448327845399412e-01
-9.463712790249337869e-01
-1.335572407921581384e+00
6.112541126994459617e-01
-2.576123840468173554e-01
8.702030945170936838e-02
1.090710791771684729e+00
2.490529062775481972e-01
-4.729162766005458041e-01
4.849866724290698428e-01
-3.521405687078266733e-01
-1.641420072788903894e-01
1.275804479775074052e+00
-1.058871488419357743e+00
-7.033367977796738391e-01
-5.012144153179454165e-02
-5.995268133517507314e-01
-1.040771766556376488e+00
-9.106215353248066080e-01
-1.020569069434652532e+00
7.600202413412014968e-01
-7.739362558460161079e-01
-2.473204557836139017e+00
1.852750929842306160e-01
-1.317193140716403477e+00
1.822596204938690123e+00
-3.367924018116826290e-01
-1.185605998300789832e+00
-3.709405197821472600e-01
1.381551562308111158e+00
1.747854620497084177e+00
-1.432449006262985325e+00
-5.366860402909856553e-01
1.259231561152271306e+00
-1.689191919015474164e-01
5.267580093938659669e-01
-5.979429430180827065e-01
1.523088252649408281e-01
-4.384974824150970618e-01
2.734076940305625758e+00
6.308604742136001420e-01
-7.283574173833269327e-01
9.991995674817563122e-01
-8.481200382287639172e-01
1.028302148916839798e+00
-1.164282345739193092e+00
-1.104352554869754588e+00
-7.719792288255034052e-03
2.977776989840247301e-02
1.754621975885851004e+00
-5.075569362664937856e-01
-1.126836529760533612e+00
-7.791959284730543001e-01
-1.068932680314612638e-01
-8.535063388908875615e-02
-8.789744446434779590e-01
5.628526084102998261e-01
7.050916057649784241e-01
5.168066049477878510e-01
-1.211386181067735324e+00
-1.102178465775002003e+00
2.185653817453454550e-01
6.482054413813564953e-01
-6.749101760456308607e-01
-1.436779719138297162e+00
-9.239905873854299401e-01
-4.247043369737621976e-01
1.485679282593747041e-01
4.859987556963396571e-01
-1.033031077224546568e+00
2.602556806678981705e-01
-9.956472989661523387e-01
7.105524340467710420e-01
6.091047771777921005e-01
7.746818749547788041e-01
-6.890851660746344365e-02
5.536931378927600900e-01
-3.512006301584346124e-01
-4.583974116056543924e-01
5.077261300777851094e-01
-4.737462324220275689e-01
6.868254008740286576e-01
1.674461211618766265e-01
5.162747505737583786e-01
1.059593924383016583e-01
9.614244992142262358e-01
-3.928791935515170142e-01
3.549133641295312280e-01
1.861059842206589821e+00
-5.211595742104454532e-01
7.128879277391061420e-01
-5.942118003885091815e-01
3.057836197177226101e-01
8.890025773456101676e-01
3.776357878095956133e-01
-1.237521133558251218e+00
1.330972609124836392e-01
-1.334866661308644342e-01
-4.759403515735254331e-01
7.378807934274381752e-01
2.733641096254980640e-01
-2.081059274020977679e-01
4.973109893982339269e-01
-1.870325914152359825e-01
-3.670926500832744632e-01
2.835443661757237610e-01
-2.083080958615683709e-01
8.533659059815033032e-01
1.414353974033114025e-02
1.404977601943701027e-01
-1.308061210795917750e+00
2.942989831810958190e-01
-3.332084773912492581e-01
-4.095325590912903824e-01
5.025631972531038882e-02
5.036174079881934329e-01
1.062044550010244892e+00
-1.030306531120008806e+00
5.183506873016185956e-02
1.490596219961900948e+00
5.891884231568418340e-01
6.387155934110211319e-01
-1.549976091453564520e+00
5.775487250200714850e-01
3.444112952304430042e-01
-2.879739181443557450e-01
4.935836345177395668e-01
-6.578138725081865701e-01
6.906573913286699895e-01
1.148583753093767035e+00
1.655086955852925090e+00
2.214956879969165460e-02
-1.141749891243360349e+00
4.224884994521729276e-01
5.145687790129098715e-01
-1.025273648332269083e+00
-3.284549425099944631e-01
2.792764953191447796e-01
-9.537105574139193020e-01
2.030122949123827070e+00
-1.399681230272529664e+00
-9.533141469226091846e-02
-1.406715982954497068e+00
4.001891434317665919e-01
6.029302186103088768e-02
1.074712641232876020e+00
-8.490084195349600904e-01
1.262624267237989706e+00
8.669638615616406252e-01
5.256694496700806685e-01
1.332936573771929423e+00
-1.554250026871459855e-01
-5.412979457886556434e-01
5.609055783314855770e-01
-2.020534523368355817e-01
-5.613236952381648326e-01
1.874927039740953205e+00
1.843394096061208021e-01
9.949646173920988490e-01
1.459112387051332727e+00
-1.687941004299376990e-01
-8.353215659260919690e-01
-2.964680046869007102e-01
4.925387744907733789e-01
1.283733706386051665e+00
9.256660085315026043e-01
1.667537774073819534e-01
-6.848394294055706322e-01
1.439600209190800006e-02
-1.053508429557812542e+00
3.246911780298697425e-01
2.231845778716324280e-01
7.710817405931080781e-01
7.827802039715123783e-01
-5.029824705090362169e-01
-9.817480473027146992e-01
7.521764243247519577e-02
-5.643326157315449176e-01
-4.907096687891070452e-01
6.182488707136102324e-01
-1.211578142440144834e+00
-7.516674351011133348e-01
-2.439010554647639273e-01
1.090601419168411468e+00
2.199533397893421449e-01
-1.168649133566898868e-01
6.353484718780711971e-01
-1.042343259656151711e+00
1.724076719781562961e+00
-1.578977886492121563e+00
4.019577031378303023e-01
-8.328762783552664528e-01
-1.635509660446411995e-01
1.415432986298170714e+00
4.470712412726275398e-01
-5.049163225535612254e-01
7.774547591364366905e-01
-9.634888395323606414e-01
3.639508615221430099e-01
5.511106907486151840e-01
1.138130293358581069e+00
1.131917804251815207e+00
5.686501503750065467e-01
1.077068645630590904e+00
-4.049791341238677123e-01
-2.354684154386804673e-01
9.427882483159287785e-01
-8.632937962777665897e-01
-5.131051124281336140e-01
1.241277206407314093e+00
1.647846651003697926e-01
2.934527150351085023e-01
2.316135431901738539e-01
2.177059526844204118e+00
2.069229491784441155e-01
9.332133124074912800e-01
-1.826518543045984044e-01
8.720491966521555227e-01
5.445218505292834799e-01
-3.471882560179921362e-01
-1.483224742798669560e+00
-3.508519629455800759e-01
5.079297341612225569e-01
-9.776129699694557917e-02
2.283216671732112846e-01
-1.282033432822599073e+00
1.030827616076317454e+00
-7.388024460297577534e-01
9.429450781811568039e-01
2.369941144649000186e+00
-9.295722225072119982e-03
-2.668299365795149813e-01
7.471071198676075831e-01
-7.463173164097813839e-01
-2.392858023668808232e-01
-4.672119848255816832e-01
7.847137685407351571e-01
-1.251623175678567401e+00
4.481902487806738167e-01
-7.615846234584217056e-02
-9.179206604348782994e-01
2.884343570443553828e-01
9.473410172928989348e-02
3.345727423640902920e-01
-5.333052869770384952e-01
-8.207573469064309846e-01
1.532645078919561699e-01
-1.518836272879393601e-01
-1.087780986049757370e+00
-5.800570856860927105e-01
-6.953498651153903198e-01
5.708557852971577473e-01
7.716828719263078007e-01
-8.548425979930895924e-02
-7.397793302487088996e-01
-3.831001828555269384e-01
-1.532903563102532285e-01
1.345582559624800556e-01
3.810571912558492480e-01
1.524162549770030628e-02
-1.236917608475113228e-02
1.633944931771747211e-01
-6.437273689364330087e-01
-1.244406607856940461e-01
-5.503848253852291483e-01
3.068463424014630236e-01
-1.122599568627544508e+00
7.397930594826481743e-01
1.108021152035256751e+00
-8.304920895573353334e-02
1.798742051265697084e-01
1.203337947424749643e-01
2.033607988508059350e+00
-1.048019590437063719e-01
-4.959099251692417054e-01
9.879697328810126411e-01
1.294307533751217987e+00
-2.353414912119413394e-01
-1.183338072149686448e+00
-1.337738778764617553e+00
-1.152661063156767973e-01
5.137003110115154758e-01
-7.169875273245918113e-01
6.211225728068425767e-01
1.187496995424104362e+00
1.059808218912166172e-01
7.909787395016684153e-01
-3.557068799186638985e-01
3.124993860068817075e-01
3.548527437221283831e-01
-4.203794022371402650e-01
-1.017171830511464314e+00
3.337822451890655184e-01
6.117635293833260102e-01
-8.687999356877706969e-02
9.300348932783569084e-03
5.312798139614087756e-01
8.985794570845638818e-01
5.511752504964539945e-01
7.990431737673022727e-01
8.002395511938431572e-01
-3.661161659173780558e-01
2.418706197948809478e-01
4.499332035955434517e-01
6.370074045888474146e-01
-8.627069220386786308e-02
-3.626268805594405342e-01
-5.345543551107525548e-01
1.844310591329769156e-01
-3.030385990508485117e-01
-8.644824316012013066e-01
1.953900819293256097e-01
1.421961078988129845e+00
-1.094705421916901900e+00
4.565841694522721483e-01
-1.009960264135833619e+00
1.164303106829411183e+00
1.265910374934921645e+00
1.110101725892955304e+00
9.425969512199293687e-01
7.222995798738482964e-01
-7.415653776202000280e-01
-2.553105995985435195e-01
-9.540540437619683400e-01
-5.350141536268310238e-01
1.078107027641326487e+00
-7.637183273378346515e-02
-8.796602655962474371e-01
-1.932886349881869137e+00
-5.034737142049480196e-01
8.089856885897417360e-01
3.687967526874416091e-01
-7.130037149345730407e-02
-1.697602328214219636e+00
2.117798202880514236e-01
8.441642715874093650e-01
-2.320050340199888705e-01
-1.829232190913248735e+00
8.945447904359858926e-01
6.030204970120150998e-01
8.464085942720231959e-01
-1.295800660996022369e-01
-2.567949548043725327e-01
-1.030830726941913023e+00
-7.459900141126396544e-02
-8.359994414184928058e-01
-1.099811043910710606e-01
9.713231300370304133e-01
-1.871783607811078110e+00
1.338218284520508172e-01
5.609962230470564304e-01
3.518834200764519027e-01
-1.053693466484957986e+00
-3.971115024694904516e-02
1.847539093842400781e-01
-5.447634219642152331e-01
-4.331839595179769464e-01
-4.936618372794754350e-02
-1.114950655519264533e-01
-3.654707838558869382e-01
5.989868643170054296e-01
2.948471963051723099e-01
1.050662382534878203e-01
4.896474394467054680e-01
1.722390099338967084e-01
-7.316284726131578875e-01
7.694911737154779274e-01
8.667472546908192577e-01
9.117094084112631336e-02
-1.994181445523653284e+00
-9.920110407638180750e-01
-2.028253195101230033e-01
4.453442775106275509e-01
3.137409150554805737e-01
5.652027025590737885e-01
-1.009843096334523960e+00
-5.127021854518596378e-01
-4.794903245087821508e-01
2.105718911493809076e-01
5.680608248612594169e-01
-5.559953418571768058e-01
-5.127949813958246894e-01
5.869451771716180932e-01
-1.216327230183342767e-01
7.191971099967056080e-01
6.362958789383637015e-01
-5.294327029756807912e-01
1.603574746637797865e+00
-1.660241944503425826e-01
-7.296779350299826827e-01
1.277582979179488376e+00
-3.150520947105788228e-01
-1.268746661882504068e+00
5.340818744318522882e-01
1.334071325356668281e-01
-2.106296494216554072e-01
-6.019113689573747372e-01
-4.452893112964667055e-01
-3.826039316231555961e-03
-1.416298700830072921e+00
-9.577960399163187866e-01
-1.109539038376888831e-01
2.737599672932148342e-01
1.321321324438677891e-01
-8.099182906598521026e-01
6.212762381252067145e-01
2.454683484315559605e-01
-6.498116838804963713e-01
3.058053558960286966e-01
-2.348702601421260194e+00
-1.239354179831630431e-01
-3.907071012431861390e-01
-1.263414123611613094e-01
-3.394126039447459275e-01
-8.398473952917637764e-01
-4.877640704230634672e-03
-1.606505613894558149e+00
4.639628518241255550e-01
1.037800549655743865e+00
-8.705366245750467691e-02
1.365631041214177888e+00
-8.130062984344949006e-02
-9.687028464210907241e-01
-1.627011549995515338e+00
-3.827451442894683753e-01
-1.159489976008549750e+00
7.298420520005907131e-01
-1.529083803427313759e+00
-1.984314930387405806e-01
-2.422601909740805803e-01
-3.485750115238147040e-01
1.532825824405029680e+00
-6.678658490839501916e-01
-4.017225191280949792e-01
5.379504858940709067e-01
8.675378955488250998e-01
-4.460714344529688180e-01
1.341172282375715952e+00
-9.497093549024324677e-01
-5.514303311312329647e-01
-6.231568168929383505e-02
-8.351623014970765979e-02
2.860015273626110854e-01
2.516518567624571823e+00
-1.949621880523146000e+00
-1.242213198027664500e+00
6.736317529155904094e-01
5.648400956763575120e-01
5.956858779203770826e-01
6.604079195588161699e-01
-1.343013448339344107e-01
-5.438104844574237484e-01
8.323734417919943507e-01
2.405512988626984927e-01
-8.104012085195357873e-01
9.570660115057662010e-01
9.853523875827235878e-01
1.223884150724838360e+00
-1.216457528616599726e+00
9.305697420059722003e-02
-1.023809470284684942e+00
-9.259909926811809022e-01
9.559582337032924704e-01
2.750905795031497458e-01
3.967470114786875168e-01
2.457841013517155782e-01
3.776122101560717703e-01
-7.204106958730132071e-01
-1.279846233920073351e-02
-2.497828606222214365e-01
1.148194811995656206e+00
9.067095472737499717e-01
3.886747337417298942e-01
-5.180743645417115184e-01
5.500409394568989141e-01
-2.222249949132170110e-01
-5.237406304252214539e-01
8.105386180677454089e-01
1.038723579249961393e+00
-1.538978230968092997e-01
-1.083188828762329026e+00
9.283170335994994637e-02
5.553927251858709058e-02
2.049686945074463140e-01
3.839911056403681466e-01
5.643438289496439664e-01
-1.211014990489789334e-01
4.704292024085169333e-01
8.380394355662456052e-01
-5.262633559525489169e-01
4.729844692383380345e-01
-3.688245858298083713e-02
-1.136722742428607935e+00
7.591268493187088851e-01
1.390227068870728999e+00
1.644587863002616446e-01
-3.040266061744087422e-01
-3.380305327319972630e-02
-1.561649831114254594e+00
8.279745182372436618e-01
-2.521452668580057010e-01
-6.325365212779805457e-01
-5.247461481619151158e-01
-3.446557703315539234e-01
-1.100152024526907191e+00
-1.528381643801304479e+00
-6.898024517173348968e-01
-2.041609479917095848e-01
5.272973754746920205e-01
3.003448041490203169e-01
1.421116869631794399e-01
2.492245580065971522e-01
-1.538305021464414502e-02
-1.258027029227488436e+00
5.236963070985095614e-01
8.485626305570708183e-01
2.793230654927930656e-01
-1.708619817860937418e-01
4.542064397001456255e-01
1.332577170267659206e+00
-3.458493145231867349e-01
-9.863453467036343847e-01
1.133766227264432214e+00
-1.097812194011601239e+00
2.319236773905490878e-01
1.302542272959413827e+00
-1.290321498461112881e+00
-1.009259226233092388e+00
5.531062999326096241e-01
-8.129277213679482195e-01
8.370012037350609280e-01
-1.061445529813284550e+00
5.506148845107605716e-01
-8.981204676904616102e-01
1.836504377956374445e-01
-2.656020805606378321e-01
-8.369415694936204186e-01
1.006191249654852515e-01
4.029258800315638211e-02
4.978930760665656319e-02
5.405589224592082243e-01
-2.630443340338701197e-01
8.148973779529178341e-01
5.540637872064468894e-01
-5.041089389146750088e-01
7.643930918110403150e-01
-1.198725506667583263e+00
7.254805810291324875e-01
3.996029275027827010e-01
-2.911412430682407959e-01
2.365251444844213013e-01
-1.390644304467043568e-01
9.070717646130379563e-01
4.703676993573814302e-01
2.356789149611595302e-01
9.759057615651604844e-02
3.775513383286409064e-01
-9.972699333072312378e-01
-1.823305930454824642e-01
3.600405523203510649e-02
-5.031283458239683704e-01
1.250013733579042663e+00
-2.178819014774052154e-01
-7.500783607144247966e-01
-8.267148503593998443e-01
1.242492152589635523e+00
2.304545584867717878e+00
-8.123431310441635578e-01
-2.510300858484233899e+00
-1.451641063200792003e-01
7.278998445230062675e-01
1.655479518926065596e+00
5.996838761793975292e-02
-2.825000183369735796e-02
-3.945521783042686415e-01
-5.113729193361149505e-02
-4.124107604760792190e-01
-3.924801700542046579e-01
1.298633767297138197e-01
1.332556038888040861e-01
1.511213284738139317e-01
7.778365661486537075e-01
8.033828534154855427e-01
7.837940889359746865e-01
-1.522674795314274743e+00
-8.437070008640581431e-01
-2.767371055226719445e-02
7.645735914965047231e-01
-1.992265664951595294e+00
-1.376788051722292738e-01
4.146537815157445017e-01
-4.755888402472901455e-01
-1.091676236630574781e+00
-5.934809764051974801e-01
2.129535943797999931e-02
1.546953140303639618e-01
-1.228595886511122948e-01
-3.001023341943591660e-01
-1.793936380256162977e+00
-1.284703866415798923e-01
3.848967025202448822e-02
4.389053404809158399e-01
1.333284867550993624e+00
-5.692264567194340597e-01
-8.324917700495038098e-03
3.865666843904740357e-01
8.579179820557650271e-02
-4.240968850289439374e-02
8.605972018666236956e-01
1.454039969637612728e+00
-3.889381073743989892e-01
9.533613198920243281e-01
-1.048874992756991364e+00
-8.690175818726063595e-01
3.347689843035330792e-01
8.290262051092138762e-01
1.601202059599746264e+00
2.146290617329033590e-01
9.661914359586561973e-01
-6.418381387943677963e-01
-1.034533613666836160e+00
-9.479524459079003984e-01
-5.765743723133018861e-01
-3.932056296065614687e-01
8.824928433640619185e-02
5.467536637618880535e-01
-1.556377044513235497e-01
-1.028995284869081983e+00
3.693582511583703987e-01
-6.165262029617566419e-01
4.891083249304825076e-01
8.086593625306928157e-01
1.560395497147729404e+00
-1.830724994485954660e-01
-2.783421164783533852e-01
2.294242986906129267e-01
-4.107156275809468182e-01
-1.458342905347285834e+00
-9.728216145122505765e-01
-2.019557057639942421e+00
7.953847475902613429e-01
8.761805886498837959e-01
1.702145478392919076e-01
-4.885827056890497677e-01
3.255234726390107136e-01
-4.929789192880871807e-01
6.166735656572617241e-01
7.593478461910646571e-01
-1.703279373900482563e-01
2.276212010240079298e-01
-8.280884269063129022e-01
-2.734328867767252813e-01
8.572632196347426126e-01
-1.010268670700236182e+00
-9.675306568358472692e-01
-1.493248377729010201e+00
6.853365777504105694e-01
1.150623763136276789e+00
1.682226971762912804e+00
-2.545210081918824474e-01
-2.376277109831287371e-01
1.690873185164829540e-01
-1.372069804579113261e-01
-1.323875620449015855e+00
9.984796331639966827e-01
-6.900575572611633568e-01
1.799724436077129175e-01
3.281608919632158367e-02
6.696801024685812287e-01
6.213278356290472537e-01
-1.234146410389928228e+00
1.511070609723997649e+00
-6.179088549580272760e-01
-8.322210496861431883e-02
1.234199653753630166e+00
2.196276993426257707e-01
-9.243423969200725843e-02
1.920452524460458665e+00
1.843872489770231882e-01
6.153094325771217843e-01
1.020966526074529535e+00
-9.427504766491419108e-01
-1.629262590207186667e-01
1.929877273761704259e-03
-3.146086332156273202e-01
-2.040671318039708471e+00
-4.701075199510096336e-02
5.437924289627110719e-01
1.668014948976893064e-01
5.700158946450850639e-01
-9.218400896442311421e-01
2.833702725782786813e-01
7.525592239940963601e-01
6.813552968488958417e-01
2.992803965663027310e-01
1.568941845159004700e+00
6.688356147182015210e-01
1.014263237424234854e+00
-2.903340404374415429e-01
7.842603780449872719e-01
-4.688559798940752921e-01
-7.528621815934632977e-02
2.811194896621890260e-01
7.603740750123151315e-01
1.260959141087766522e+00
9.517704942174241844e-02
2.585000419706375285e-01
-7.044892998100094061e-01
3.012685659820563133e-01
1.431876223564799711e+00
-1.273510807981355963e+00
6.829475355451203322e-02
3.165275582212765948e-01
-3.593514864441643142e-01
-1.229013442973307280e+00
1.411814737735909153e-01
-1.164851865779708673e+00
4.347292002813261669e-01
3.088031228384163773e-02
-2.630232023434708744e-03
6.557734011780930183e-02
-2.153945742665657193e+00
-2.313865198819187619e+00
4.487647306139638109e-02
-5.804084687900368245e-01
1.505314866705709242e+00
1.151181109370016387e-01
1.014669664169047358e+00
-4.575757695139173742e-02
-1.923101151502462969e+00
-1.640815572083019980e+00
1.464845526469576775e+00
8.400622194449078872e-01
-8.944084396790706881e-01
2.341020239292117555e+00
1.243768106858142541e+00
-7.683805338975835397e-03
-8.909433926053249575e-01
-8.306839130936582993e-01
-6.444283874875822438e-01
-4.010186412802920763e-01
-4.046094311310605152e-02
2.252718946861589355e-01
-3.170382748723549193e-01
-6.168324972368979253e-01
3.382959750491056905e-01
-6.143536345672186982e-01
1.507536806543920749e+00
-2.993100137947080630e-01
4.720319986318806116e-01
-1.039511593824657298e+00
-1.338810690818950100e-01
-1.804509282394114233e+00
2.367086019012231979e-01
7.929002501068500575e-01
1.418715729391539782e+00
-5.774290689066536864e-01
4.970795587629650569e-02
2.271743915776776035e+00
-4.401631138176266278e-01
-1.158243787912307754e+00
1.181344722241345568e+00
1.746211166715880836e-01
-1.015559978281962206e+00
-1.070068501342340994e+00
6.440723892305638687e-01
1.224454627126461359e+00
1.015752124276361634e+00
-2.019547991585255442e-01
1.265495118158642240e+00
-2.457151761062289497e-01
1.320013524089887591e+00
-1.357834186953195132e+00
5.286884008550749581e-01
4.367812141372866552e-01
1.390793328358891912e-01
3.714857709918589768e-01
1.066242020213793218e+00
1.771468568419948264e-01
5.319629105738338248e-01
2.495075504319507753e-01
7.444954712917167816e-01
2.146924746238234594e+00
5.128854582732622625e-01
1.640206717230311417e-01
9.536931340120845535e-01
9.962948003617593251e-01
-6.890156598119301368e-01
-8.615378125819725952e-01
-3.564964263672140143e-01
-1.842084468915437812e-01
4.852841221121373394e-01
-1.115797502346959291e+00
-2.074189927735348604e+00
1.060539349324980618e+00
6.576097682900956531e-01
-6.476099759053983718e-01
-6.349305468100384653e-01
1.021625900130263664e+00
8.460314157641518618e-01
-1.682209429110975152e-01
-9.099995296965189828e-01
-6.446077225395296928e-01
8.254203940857505195e-01
-5.377001309737012846e-01
1.017604135676390076e+00
-1.262271100094078946e+00
-1.376983169803807971e+00
1.747568266515308610e-01
7.515294727888371940e-01
7.476452691009152218e-01
2.842512719180370628e-01
-7.489456327899834953e-01
1.950858501045011018e+00
-4.908410340063062427e-01
1.534716927273861220e+00
-9.034320370160376923e-01
-7.936220854967885874e-01
-9.246962307543475923e-01
-1.321996175097306381e+00
5.090444520528680794e-02
-4.549180012359548275e-01
1.105422605448034501e+00
-6.261117293441579301e-01
8.273968544041672146e-01
3.014557629300699815e-01
-3.281504683771038211e-01
8.337040421419745773e-01
-4.470653165533419182e-01
-8.418364531656348237e-01
1.053621498981146543e+00
7.550155363115748086e-01
5.307644470285275418e-01
1.578229806038869421e-01
-4.222463214548367594e-01
1.885057046123981506e+00
9.481345309694391155e-01
6.096124846562689381e-01
-5.630110980659990272e-01
-3.495721516957820962e-01
1.149895768050957168e+00
1.081206202590494714e+00
-2.023749737855846664e-01
-5.179476300391033794e-01
-8.167904766185376531e-01
-7.175639621146872038e-01
9.119350838360871236e-01
-1.409533979539777937e-01
-1.141881708299568920e+00
-6.073730928509381011e-01
-1.445251304612066523e+00
2.371797334256730005e-01
1.171145434537689933e+00
6.957470125052315213e-01
2.470352402198571218e-01
-6.023890789743991947e-01
-4.609786640312882877e-01
-2.784878463792723191e-01
6.044626910646098139e-01
2.598612693322331357e-01
5.696603080644581096e-01
-3.135188162583815163e-01
-3.672015388970068517e-01
1.056682024932334762e+00
-1.254406109573557693e+00
9.559595435467362901e-01
-3.571601664065346404e-01
-4.225219698282434155e-01
-6.214972819764258416e-01
6.709842084142066954e-01
1.938980746877827510e-01
3.275290532543652655e-01
-1.154742901914013187e+00
-2.950690658437838954e-01
9.282740388824264333e-01
-1.291528903353706681e-01
3.056229201240502902e-01
6.175781627232150850e-01
5.627844939231013699e-01
-1.221056544707430414e+00
6.618121383529655954e-01
2.694846820905150153e-03
-4.435013420776058313e-01
5.586992313801436572e-01
1.022092658057166981e+00
-4.050001419991033358e-01
1.885533841852007619e-01
1.405041757470314678e+00
-7.328594407000899036e-01
1.013438596139858427e-01
-1.318082479801983009e+00
6.231571827194937185e-02
2.002574647895928317e-01
-9.510222684084921330e-01
1.253375831401412288e+00
9.905562529418394657e-01
1.273552731221136103e+00
-1.441060384814970563e+00
7.920805624671700684e-01
-1.848588259720093663e-01
-8.811998032407395431e-01
-4.514391822633496698e-01
-7.110664930059453770e-01
-1.849992142862315614e-01
-1.473630743511497698e+00
-6.001847321038977778e-01
7.333460041889619530e-02
3.732062564759133227e-01
-9.270713574362376974e-03
4.876860427523482810e-02
-1.066867392974496509e+00
4.210971120395411993e-01
5.427474652951075340e-02
1.026050406867162978e+00
3.965969813829399171e-01
-8.334693337575679317e-01
6.079338773148942887e-02
3.228373469432232468e-01
-4.828380741345059124e-01
3.636981916063749543e-01
2.050547701919939847e+00
3.520897559044588454e-01
7.560529132885822623e-01
8.822170711476284843e-01
-9.288358687122202362e-01
-5.813055386838175687e-02
-6.598325861389684466e-01
-7.808202417372747117e-01
8.741845480747516550e-01
4.579679046372140405e-01
2.168990618872015830e+00
-1.215641932067561992e+00
6.707352034207005875e-01
-3.157364788330352390e-01
1.530279729566066393e-01
-2.791937073629688904e-01
6.164224079718599869e-01
6.878952052974640630e-01
4.705501968677173741e-01
1.878320393574485880e+00
-1.489097280300924198e-01
7.976069747257341636e-01
-5.872166821479207766e-02
-6.378322364069706207e-01
-7.542822044969188511e-02
1.074063346771010757e-01
-4.924595109124035863e-01
5.455232362113621170e-01
-1.434776283739323199e+00
-4.184632262222816590e-01
-3.646329909220930032e-01
3.876228562748457174e-01
1.412626455794925295e-01
-3.889078120188311782e-01
-7.925501818162260514e-01
-7.051985808963904256e-01
1.708739550821203323e-02
1.366384694173764958e+00
-1.116983043559946209e-01
7.006355911305306439e-01
1.169027059607949948e-01
2.879939303242255999e-01
1.519794807884984778e+00
-7.652234533587477516e-01
3.216844804053960449e-01
1.851423083469769248e-01
1.627520622799732419e-01
-1.556303085313495704e-02
8.862958810110735386e-02
8.716077785404149347e-01
-4.687115075202122894e-01
2.035289415789141909e+00
-4.815082911738347571e-01
1.347439018114548803e+00
-1.715637989684436482e+00
1.195811520915925463e+00
-6.505017174459439833e-01
-9.899489642256952271e-01
8.515983266668847307e-01
2.668656414334390492e-01
-2.242578812085509021e+00
2.300500425220340261e+00
9.626570454199152860e-02
2.684159320702649953e+00
-3.825052070996580733e-01
1.334283811125935637e+00
9.236421821061585602e-02
7.930720854722169699e-01
-1.165614258782604162e+00
1.380923132233850437e+00
-2.072630561273601235e-01
-5.234908179970516606e-01
1.574947619179084102e+00
7.697019813124533760e-01
8.913225689519591599e-01
7.149064375147127226e-01
-1.115810650265458559e-02
-5.822818002121054048e-01
-5.200237456000580405e-01
-8.989168675230609917e-01
1.854654778917638192e-01
-1.239231351590752706e+00
-9.078024372289722477e-01
1.224787640994959181e+00
1.056586719570748567e+00
1.216041854349821039e+00
1.846387334792020940e-01
-8.585365818909487245e-01
-4.992134830362625619e-01
-1.762976135571339142e-01
1.087784598168576089e+00
-1.152460992687598829e+00
1.040320870538357090e+00
-1.197427902092336738e-01
-5.994278604400232746e-01
-6.133451279185115901e-01
1.309431098222536782e+00
2.950631498947512976e-01
-7.459848923506235963e-01
2.961732316978097357e-01
1.094741134837007301e-02
1.372063584699112493e-02
1.222770187641455952e-01
-8.282424822664709030e-01
-4.226797187079563978e-01
-4.020996607352915753e-01
1.784973644435190021e+00
1.261639840658423051e+00
4.137422347265219402e-01
9.728197271927654377e-01
-1.644803355256981181e+00
1.031903183182051764e+00
1.328713206745175401e-01
-7.539084794288070102e-01
-2.391072446899290271e-01
5.028561173412708918e-01
1.077690790223631012e+00
-4.532674561479411723e-01
-1.810954582036660154e-01
-5.114979350498156663e-01
-2.466031911005759913e-01
-1.310759965360447088e-01
-1.179080671084366649e+00
1.065707337850991809e+00
5.729429547432498548e-01
1.001855435171541853e+00
1.495046129142341140e-02
-8.274536021566634147e-01
-5.762874167405810377e-01
4.174317204452592245e-01
8.125111066720636099e-01
-8.198015438772460195e-02
-4.176580795079648523e-01
-9.361778591783158632e-01
1.059101744225761754e+00
3.286909687784451695e-01
-8.583911319849444332e-01
-2.618365175018254387e+00
1.470875666747383237e-01
-7.110775336843501160e-01
-5.675622125784413052e-02
8.617680335180769036e-02
-7.662702584446605680e-01
3.820607901743525714e-01
-2.889056071366546963e-01
3.739909889822476963e-01
7.650476879069618708e-01
-3.012856872746136894e-01
1.035357792804383337e+00
2.423227427510856180e-01
1.650494343007933018e-01
-1.197362454168721668e-01
-4.141670021309898364e-01
7.919451819141446469e-01
9.429840030467054879e-01
-2.796762422170595008e-01
4.090587798505605499e-01
7.806380402851103018e-01
-7.475369912770958303e-01
-2.709551243635576201e-01
-1.823282166282265138e-01
-6.899275730367394610e-01
4.943820460349546142e-01
6.971250561587032379e-01
2.542133676107679596e-01
-1.043285033847338950e+00
2.198151765557013471e-01
1.043053337491041344e+00
-2.120285523593786081e+00
6.829762193784649771e-02
8.718096056461033250e-02
9.977440265228456617e-01
-8.202776242312403987e-01
2.791923217275514846e-01
1.921565698801834809e-01
5.772390391001218646e-01
6.498763034189505294e-01
7.836226184910659587e-01
7.888659569820183348e-02
-1.857975547985923459e+00
7.151738329869823385e-01
3.164103016148050451e-01
5.186613512596394138e-01
1.572725823533673628e+00
9.497906353425594750e-01
1.956773304710687444e+00
3.599237407837795888e-01
-8.322144088303145004e-01
-3.399221104092150503e-01
-1.601859707928384946e+00
5.061214233915105609e-01
1.280472619558361780e+00
3.115058444813544880e-01
-1.782349828141966963e-01
-4.093650109871393994e-01
4.214389636113339832e-01
-1.020102293152942430e+00
3.342068970650646786e-04
1.318098785043674503e+00
-1.412286619502292062e-01
1.102232395887055905e+00
2.152767222862345786e+00
-1.031030055363938658e+00
9.390702272218327540e-01
-1.016962766179021482e-01
9.037891404154909658e-01
-5.555761357715649496e-01
2.571030126380023373e-01
5.940987415890564005e-01
9.012167922999420044e-02
-1.534100147907175860e-01
9.952531516362571606e-01
-9.079831659430294133e-01
1.490844651524968922e+00
-1.714575824765897316e+00
-5.315808148521566912e-02
-3.977089789232384209e-01
-6.237065238436728665e-01
-8.738626491778186400e-01
-4.127950266424074699e-01
6.794405460162250554e-01
-3.797864925691509241e-01
1.591835989874441082e-01
1.564459980721798704e+00
-7.860606541693284655e-01
-1.011325570731225643e+00
5.377195191116744544e-02
-5.456707012277260682e-02
9.325923571590285510e-01
1.484453793265520793e-01
-1.905553551260014689e-01
-2.333503775769690258e-01
1.080266748382364694e+00
-2.587337138502131539e-01
1.299766501373685046e-01
4.453452549955002615e-01
8.826552568323422499e-01
1.170272012844451925e+00
5.791090503323600286e-02
-4.597997109443927588e-01
2.787327146979722836e-01
-6.619438558476852252e-01
2.097252752565179179e+00
-1.057568605627979608e+00
1.968463576850948193e+00
-1.778825403786367776e+00
1.189285026006952517e+00
-1.275710496972378261e+00
5.185318859552292547e-01
1.876131995170406519e+00
8.801315835958640754e-01
8.684204783864922783e-01
-4.399448716082628441e-01
1.136410083320742892e+00
6.041090881920888611e-01
8.132272363584741592e-01
-7.180947694906123502e-01
4.011981852257959225e-01
-4.313272371857920229e-01
-1.550028993221110318e-01
4.773948130312423710e-01
9.267531198720198038e-01
4.423284015821485893e-01
7.639091559049139279e-01
8.640548323599314129e-01
-8.349300740472435090e-01
5.408561181859982137e-01
-4.265033926997033875e-01
1.203935818005233971e+00
4.601988036889765876e-01
2.306780919443337297e+00
-5.187221368181400560e-01
1.509573551983602879e+00
-1.294050202852095044e+00
-1.594216623571517610e+00
-1.160368952386503949e+00
1.498918264095359110e-01
7.474178569679934547e-01
3.837760892216671160e-01
-9.497206347381836888e-02
-5.333894419546374444e-01
6.795821424393539978e-01
-3.865128939703668665e-01
-8.520306391292560289e-01
-2.444273108620332868e-01
1.274751306905798742e+00
-4.185523189139261913e-02
2.751406787404471199e-01
9.121795707150531785e-01
1.584719835906077678e-01
6.409132240132721092e-01
1.677591898936740877e+00
-3.106621216991709566e-01
-3.674253612071550767e-01
-2.314875210597128197e-02
-5.674443034126430696e-01
-2.610067437515176669e-01
-1.301907263492657396e+00
8.870477583959596179e-02
1.197547737893210895e+00
-3.400573414242035186e-01
-4.652051757580684122e-01
7.026309188967668762e-01
5.443257182571588082e-01
-4.869377012373147240e-01
-1.340542790433041365e-02
1.021396057398225921e+00
-2.089029775556859869e-01
1.551912833743785081e+00
-6.352605991722459766e-01
-7.659580432947419304e-01
-1.645434085902483190e+00
-1.849545505352926666e-01
-1.238159302884254132e+00
-8.241079179518873143e-01
-4.160222935004965761e-01
1.336569833768952442e-02
-2.476204542302664624e-01
-1.627655035246167392e+00
-3.581394939669654276e-01
8.991837860976631402e-02
-7.571611313631819717e-01
-2.064763946850048271e+00
-5.674613129201205863e-02
-1.341531376290401978e+00
-2.229808378763968590e-01
-5.974030496753530706e-01
-1.229058374503528395e+00
1.624423507350791773e-02
7.999297970442895700e-01
-8.420581596938501168e-01
-7.575829691211538597e-02
-1.869299283803079970e+00
9.112880989390504949e-01
-5.397802178733851486e-01
-1.401022451950731718e+00
7.426699500032853951e-01
-3.632682605782877605e-01
4.193212060480783210e-01
-1.273989759476080952e+00
3.099368762737353400e-02
7.656617820842848143e-01
1.200990205566179192e+00
-1.767298000311195993e-01
4.141731865685237546e-01
-8.710156885038830010e-01
8.754998575867718458e-01
-3.020920091228157522e-01
1.734734724124775695e+00
-8.923579301156636667e-01
-8.000851657591075972e-01
-7.984770137890871977e-01
-2.078161603133240054e-01
1.165665524131207942e+00
6.971748673071443969e-01
8.174346878701510555e-01
2.144416128877659478e-01
-6.539820794199435738e-02
8.036240156493491549e-01
-5.135817962532520653e-01
-3.102602548484746370e-01
2.797433423405514819e-01
8.145265260034922905e-01
8.893040801935241380e-01
4.862497833206348430e-01
-1.587243205959507075e-01
1.449726191955355292e-01
-8.662450058832859012e-01
-4.667762305572288328e-01
5.898435401599122496e-03
-9.528310216627822182e-02
-4.286557558178932803e-01
5.253991385327037023e-01
6.191238645292936882e-01
6.391633494074115962e-01
1.964395221542059478e+00
9.928216847667161726e-01
-6.133153648953093562e-01
-1.306584527217084402e+00
-4.528220633422562202e-01
-9.505566220283034884e-01
-8.871760425719863452e-01
-9.012960109470675718e-01
8.539183631367136540e-01
1.299325116735629893e+00
-1.390632432063784618e+00
1.063963745935552208e-01
-1.366943757121981573e+00
-2.420168629134630267e-01
-2.607432289032098893e-01
-1.164910443043779331e+00
-4.358746080406175616e-01
-4.706477768927133098e-01
-2.156308817534634825e-01
5.423526659256197036e-01
-1.571157105488046046e-01
1.151508692574336745e+00
-1.059821353075220296e+00
-7.001167159279263474e-01
-1.277598418705834238e-01
6.958875263335440042e-01
7.246627998106509594e-01
9.008497653651622583e-01
6.845884262929435859e-01
-2.034536099186744218e-01
-1.418468500872657634e+00
1.079032802427753596e-01
-3.861155664805367982e-01
2.294644917088211611e-01
-6.696708250907068560e-02
-3.202326963084977107e-01
-5.417114469843211655e-01
-2.026353447396437302e-01
-1.803886546395304435e+00
-5.951021283322494027e-01
-1.073237471990443614e-01
8.367493520505165927e-01
-1.308223883134226606e-01
5.197627527272314918e-01
-1.062562739278964274e+00
3.492162666582656616e-01
-5.785372021739384474e-01
-5.302591594249785878e-01
3.048485703311890616e-01
-1.296908005000869224e+00
-2.451038534084674647e-01
-1.003111856327911555e+00
1.542094058747932039e-01
-1.324681122233072328e+00
4.225833968843424326e-01
1.616872961442875900e-01
1.126947792135505555e+00
8.649199817957775593e-02
6.208305947962311500e-02
-1.371655306654568640e-01
-3.306582398653525323e-01
-1.960962601874965960e-01
-1.058082275712387554e-01
8.567157093063575146e-02
-6.992726414116602340e-01
4.422569115788488325e-01
-6.250205277849985031e-02
-1.727140080768941599e-01
-3.545507184592563976e-02
-1.681369770567703537e+00
-2.904540493390016520e-01
7.676392523274929713e-01
-9.258765615523567583e-01
-5.578651264525111841e-01
1.041282665601091617e+00
-2.224010449560891722e-01
1.013301479672274130e+00
4.848852145431892247e-01
1.569304711612774739e+00
-8.458430283607424327e-01
3.246696465886279581e-01
6.199582920771429251e-01
-2.745155104760961251e-01
1.039506547112230006e+00
-1.067331477178911636e-01
-3.404125937519701384e-01
-3.576376395770993755e-01
6.269735604563690945e-01
-9.162784086223285662e-02
-5.549787502606615130e-02
5.853002119335375397e-01
3.527194335926100432e-01
-9.649087506427745931e-01
1.000622642783487226e+00
-3.045055504844800254e-01
9.502528721415164359e-01
-6.689943549795807076e-01
7.841651839878732710e-01
-1.428901984021881511e+00
-1.816125137110284671e+00
1.386917367078714936e-01
1.079434102572331078e+00
8.286038196969306435e-01
-1.629930253372532611e+00
4.695179092612085103e-01
-5.617336145531379721e-01
1.185133726462064052e+00
-4.935819613407045892e-01
3.976821525776911281e-01
1.974353846381117217e+00
-4.967510789263192006e-01
4.253692982879185291e-01
-6.176930215192020235e-01
-4.524034181530449672e-01
7.069147202920567086e-01
1.313738383783665253e-01
-1.129007039276081370e+00
5.829706895141528733e-01
5.563268327460688667e-01
-7.796982325692056737e-01
-1.166001276692647970e+00
9.459384883569105229e-01
4.608469415951713666e-01
1.701597997893545156e+00
1.501331685331105392e+00
2.391740113007836399e+00
2.541364961907364162e-01
-4.609486665277851003e-01
-2.815043426881348454e-01
-9.969622350577000969e-01
1.539491307984622859e-01
1.397056733809600493e+00
7.736795758641155096e-01
8.947069596126688840e-01
8.628577294886090598e-01
1.143971584704313260e+00
-7.803130417621798598e-01
8.349849793057071423e-01
9.388609327052805931e-01
-8.923440475953281492e-01
-3.633704034458835608e-01
-1.913599910820735550e+00
7.416127936089067507e-01
-5.633992165684678088e-01
-2.251675758264072014e-01
-8.288085172354040520e-01
1.421680229844186072e-01
-1.702943959996445766e-01
-1.226429365948768835e+00
1.184100172435852194e+00
5.147760064888526887e-01
4.420456702384898406e-01
3.564384806673704942e-01
9.440682154871465892e-02
7.382838591418698915e-01
3.871703460813681885e-01
6.344466385350909787e-01
-3.632556429793285524e-01
1.779146496932326738e-02
-2.569393825546983923e-01
-8.134650097945842484e-01
-3.396475339431161977e-01
-3.022011888548318814e-01
1.004750800710696446e+00
-4.061925216675855155e-01
-8.287077355556092817e-01
-1.531783442691269759e+00
9.963311572512112413e-01
8.672079056247481432e-01
-6.305058458004522137e-01
5.778851970015719264e-02
7.869992881833818288e-01
3.013647800653084796e-01
-2.677384050534516446e-01
-6.392957980588598321e-02
1.155332081036445135e+00
-6.069721688362368361e-01
4.812158425027329711e-01
-8.632952393958871484e-01
9.051839639482699429e-01
-4.397261430318764042e-01
4.440121834748096408e-01
8.715901682672086981e-01
2.567224858304872015e+00
6.964573602909140959e-01
6.887753681547845730e-01
-3.707491042908227508e-01
1.464416558870531571e+00
9.475893819871585855e-01
-8.161753114152032751e-01
-1.990327029839565665e+00
-2.782266250531083562e-01
-1.055119199863352009e+00
-1.108299737194863993e-01
3.244622781720646332e-01
3.622092567235777882e-01
-1.406009633757865362e-02
1.246487030291127951e+00
-2.473122233234847922e-02
1.932650919192754335e-01
-1.358446154113075899e+00
-5.691369298541739674e-01
2.540532822572027505e-01
1.415237372807012228e+00
2.385289726521972575e+00
-7.454922373310901573e-02
1.527712948785370006e+00
1.623105113006925615e+00
3.543630175494079104e-01
1.958621521715010694e+00
-6.908163675377412272e-01
-9.261297180317513700e-01
2.488390559892534049e-01
3.350195436864573106e-01
-1.060515649489935264e+00
-1.129828758421236756e+00
4.622014665206360950e-01
-1.325841549935590002e+00
-3.802527317569515120e-01
6.487682348206467164e-01
8.585749187082839518e-01
-7.765184533634431618e-01
-1.414374781478751064e+00
1.178606146492010565e+00
1.281801774929376414e+00
-1.019160241898312114e+00
-7.306282330420869053e-01
-4.620710930102572833e-01
-3.494250576342408654e-03
-6.490267561402048857e-01
6.912088636865526547e-02
4.310541183351689343e-01
2.022569639278027243e+00
-8.600389618889598964e-01
-3.505717057768321931e-02
-8.503273220077495198e-01
-3.489695489170988041e-02
-1.350416631588653993e-01
9.971266063807848745e-01
-5.700005873362263831e-01
1.606325542731521505e-01
-2.092285043487713825e-01
-1.998756953200684805e+00
-6.636260389621520539e-03
8.030353378421473121e-01
4.392636135232464989e-01
4.601820181918407915e-01
3.285469860586549551e-01
-1.364804843938022483e+00
7.047604168936074664e-01
4.635140416773131378e-02
6.062235498629716668e-01
-1.079909624185292571e+00
-4.202996876183849873e-01
1.814671043043758480e-01
-1.734657151587714274e+00
5.030502425789880050e-01
1.596638767627418964e+00
-3.600966186215716069e-01
1.937781154427056451e+00
4.074090519037052993e-01
-1.352542840550798653e+00
8.483764591815486922e-01
-9.282802682339915679e-01
6.561797208186395114e-01
1.697787116518105544e+00
-1.453727928054510343e+00
-1.064698600239633919e+00
2.843223790275832830e-01
-2.126381423901116396e-01
-3.873519877606028672e-01
6.948390949351836987e-01
-4.242721215299761761e-01
7.398698439383171177e-01
-2.157842615252704377e+00
7.211189097620193111e-01
-2.727675711613726239e-01
7.180079432431498709e-01
-3.354260075614890479e-01
1.489879118309489492e-02
4.566687908741949298e-01
1.712390287849689663e-02
6.482469873224008250e-01
2.001225198026997942e-01
-2.579379069439599603e-01
-2.004027512331434668e-01
3.524707952146209355e-01
6.771188547306319361e-01
1.210373445876929965e-01
9.444251210359841386e-02
1.614277094095294851e+00
-6.763482562541622833e-01
1.592920070142730626e+00
4.426449514406501362e-01
-3.022091191475301808e-01
-6.549528995873248327e-01
-1.317127952015501258e+00
5.980595774051988833e-01
-3.666262846655266028e-02
1.187652746860424768e+00
-2.449140177843847077e-01
-1.231946151916187615e+00
1.271344879028009522e+00
1.864707336743565591e+00
-8.379194009641593999e-01
-2.568678576977317940e-01
1.750423637731950866e+00
-1.491830699312776121e-01
-5.727084720352360048e-01
5.407427869181540281e-01
-4.813398275747243216e-01
-6.415697462053777667e-01
2.224602851906561263e+00
9.532944090475691246e-01
-1.228481784953233458e+00
8.981720921680593772e-01
4.617751809886505576e-01
-2.345805469449607772e-01
-1.457434805482176632e+00
7.529659513830522233e-01
4.282464630198982714e-01
-7.260719748386119665e-01
5.820711461748890869e-01
3.197228143066644379e-01
4.959108064178979758e-01
-7.316579043912816438e-01
2.261912860026371597e-02
9.196026543900617245e-01
-6.430998919031365446e-01
-4.044003739173924750e-01
-1.024035010051225214e-01
9.422545643148140249e-01
6.635384948896881907e-01
-5.478001866675205056e-01
-3.303997510670347859e-01
1.059108942509586315e+00
6.145317797229722379e-01
1.975204140961123844e+00
1.354101120100463351e+00
8.536285228849889162e-01
-1.879373013637085199e+00
-1.488434433799084577e-01
-1.313103191353092725e-01
2.765985624725280090e-01
-8.234029247495151527e-01
-1.255182831455489423e-01
5.935140958472432393e-01
1.964805086106668486e-01
-2.722798208660304753e-01
1.632385570226179416e-01
-1.560810026664099182e+00
-9.900955141611416099e-01
5.192549770763643657e-01
2.477929332341368696e-01
-7.866054195535652216e-01
9.097308739516956066e-01
4.397778201327040559e-01
3.348965935788402182e-01
6.414096276018288467e-02
4.236692712535584660e-01
-1.835303743935458032e-01
1.258277109560868579e-01
-5.408942159655830695e-01
1.506727543912522282e+00
-6.991205137746070442e-01
-8.268477001994642972e-01
-6.276585561577319172e-01
-9.334028183852991489e-01
3.779309972313837918e-01
-4.117245719783519387e-01
3.687431501184353921e-01
9.168724176759111000e-01
2.091802333128293667e-01
2.660868973504703083e-01
-7.498376405801405742e-01
7.880699032810589699e-01
1.217786545252764530e+00
-6.861538106890913147e-01
2.095430366941559264e+00
4.240826423570486226e-01
6.980053845023322934e-01
-2.782892025951009263e-01
4.880406414370430657e-01
-1.113597167420050660e+00
3.727558238464667717e-01
8.748437151870096518e-01
-1.676561289174197000e+00
1.733390864772091366e-02
1.257101849666469873e+00
2.431239971247149412e-01
-4.980418454364017311e-01
6.953776538728321244e-01
1.480123463073014234e+00
-7.237705923358942472e-01
1.429780220156180670e+00
4.085353292781238044e-01
7.216004621096900884e-01
5.967441440309205758e-01
2.725595122212717270e-01
7.343708839075893113e-01
-5.982463859948267126e-02
5.628904559136218566e-01
-1.176298733127209450e+00
1.064345216722122789e+00
-6.289571836949600092e-01
2.458048881048675582e+00
4.655445747295174908e-01
1.597287952654112830e+00
1.158583482109027951e+00
-3.498162894009268498e-01
2.421171856401586053e-01
4.718403720735137585e-01
-3.707466118577594782e-01
9.914964726858588318e-01
1.395748020241820153e-01
9.718451430582408790e-01
-1.079261577465571165e-01
-1.132570474472414768e+00
5.389977239001573217e-01
1.714231550445680374e-01
5.311772867734467773e-01
8.348524147435302245e-01
-1.768793576427326042e-01
-3.024760369665442927e-01
1.791463129656811759e-01
7.481477751429109757e-01
4.108651961864635549e-01
5.811645921319645858e-01
-2.523980810557182597e-01
-6.166181391166967174e-01
2.664317521185441406e-01
2.106532534817063540e-01
6.147443160238347248e-01
-9.536248271157516943e-01
-6.923459109002267908e-01
-1.131308747658332337e+00
7.570539748221327692e-01
1.546554198554814796e+00
-1.131663068145832396e+00
-1.065348381517292609e+00
-1.145036835070309400e-01
1.605170627811746131e-01
2.128899274771887118e-01
8.956481864258249992e-01
1.017526678376691640e+00
-1.046523476182641188e+00
9.395405500612338257e-01
1.099184682320244244e+00
-3.592378714474361301e-01
1.362883446550307021e-01
6.266971104613078269e-01
1.133477542173805031e+00
-5.731471687887650379e-01
7.271685500877151931e-01
1.012831062885035438e+00
1.762551035222130746e-01
2.252994262566996309e-01
-6.628667949859262665e-01
2.953606114342458566e-01
3.872826558939661545e-01
-2.673377408413391554e-01
1.914892777707166149e-01
-3.056880145657875358e-01
-6.834795779859348386e-03
1.587848381096969685e+00
5.400455318432295648e-01
-6.533361110047955500e-02
-2.723560297060318436e-01
-8.646890686073602783e-01
-1.694070013907755246e-01
-6.643059275706737488e-01
-9.646586711983754503e-01
1.266657102720837313e+00
6.605564268392960514e-01
-1.433200194112089543e+00
-1.559857797389905265e-01
-7.899270154282921341e-01
-1.400045178287411707e+00
-3.684437537993959788e-01
3.375388070786388139e-01
-1.168925040215198941e+00
-2.090012155277752859e-01
1.008693464044764676e+00
-3.579268481741777475e-01
1.730676960759104599e+00
-2.622298722444502683e-01
-9.193488389337134414e-02
5.084586935633287341e-01
8.036338117565748895e-01
-2.063705124792773127e+00
-5.864439378981872730e-02
1.439526657954867117e-01
5.958761473766668870e-02
-8.547163676584947911e-01
-1.735332088106798232e-01
6.845663491221929409e-01
3.055128909326092490e-01
9.899579647727441145e-02
-1.031630797562244073e-03
-7.081617845893117824e-01
2.196067352667628647e+00
-2.585336543480141192e-01
-2.891365423573323268e-01
1.341593201063182583e+00
-5.972181948655169714e-01
-1.039169484762082485e+00
1.217013709775946473e-01
-5.942813718935573419e-01
1.323272602201592374e+00
1.541969356655626511e+00
-5.871792879942354659e-01
2.973069507352182339e-01
4.715237468145420108e-01
9.969536201471462800e-01
4.081661496563741554e-01
2.966720467092776037e-01
-4.912494087735576054e-01
1.272427303563049783e+00
-2.370001651151125710e-01
4.236677226987964895e-01
1.789131856924674135e+00
-6.668377663607450989e-01
2.963219702430739955e-01
-9.767738410531527915e-01
1.159652163725088947e+00
-1.479190757040985460e+00
-2.074392464609074727e-01
2.801995039391136366e-02
-6.226388901646451313e-01
-1.408688473597648816e+00
4.763639717963829012e-01
-3.160227868181931243e-01
2.562492037046825155e-01
-7.705920048906411690e-01
8.093062195349252086e-01
-1.833011591351500602e+00
5.156540774574376318e-01
1.922441765532336144e-01
1.293647950461049856e+00
-4.513191225230703818e-01
5.340792200982320548e-01
-4.102078314946533966e-01
3.115901508296387012e-02
6.069566021419927626e-01
9.047602312035247785e-01
-4.417949277201796976e-01
-5.541825326561453657e-01
2.080011659655175649e+00
4.879361075812715942e-01
7.601093766203798063e-02
-2.192480715811684799e+00
-3.549706654713516985e-01
-2.625177132261444779e-01
6.401264065954306304e-01
5.800825642153928374e-02
1.897731159781748556e+00
6.687181349239403050e-02
-9.679446942622197403e-01
-8.863758852215852801e-01
-2.896882385506351354e-01
-1.303394233372621447e-01
-1.703901584352851550e-03
-7.779144117025103000e-01
6.300382854968981095e-01
-2.119982070144966535e+00
-9.602821698021665742e-02
1.457159300148843206e+00
-2.251369302127448901e-01
-4.744292843267027271e-01
-4.339209093949137341e-01
-4.640569394946326698e-01
1.713345685564602872e-01
-1.241926978837371465e+00
-6.438001271595127362e-01
3.494953896780935709e-01
-6.468856493890070558e-01
1.924227912807412455e+00
-3.268726411782996166e-02
-1.509094401025961318e-01
-1.857347579895129996e-01
3.056021403878530496e-01
4.833273787105692998e-01
1.955716726435600683e-01
2.120349116738638351e+00
-1.114137809349137420e+00
-1.218613638281216716e+00
-5.465253380894342650e-01
-5.304304044558099118e-01
2.352541672163312447e-01
1.768215992622977684e+00
-6.506685033897714465e-01
2.506927663376723459e-01
3.929045266775700318e-01
2.203494453672710796e-01
-9.402387145106769761e-01
-1.010800105455788467e+00
4.279450522144880864e-01
6.104443015406102457e-01
-7.598491467316941250e-01
8.347397346981473287e-01
1.850296200608335107e-01
-1.863524206996872046e+00
-5.792643067327468698e-01
-1.640553929687254886e+00
4.532872221774376653e-01
-5.140027471848693796e-01
4.625756986953923344e-01
2.317075752710626158e-01
1.071433263918487810e+00
2.734860227033282243e-01
1.214890723323496236e-01
3.541100758433473605e-01
-2.905401718294153834e-02
-7.615387205890173927e-01
-7.362815226424654913e-01
2.039672147919858070e+00
1.397676780342828939e+00
-8.271900570822900978e-01
6.698762372707458557e-01
-5.769083035062094744e-01
4.061906113945001895e-01
-1.247808176664663149e+00
-3.597116024134701662e-01
2.067835234057471272e-01
5.998657850745010567e-01
1.662428361436788293e+00
-1.548585538386423988e+00
7.068611930852979341e-01
-5.510242725531209196e-01
7.708260241803333024e-01
1.762686113160027102e+00
-9.466516115406102827e-01
6.477183330965732844e-02
7.046222445117926725e-01
1.306136537711955370e+00
-3.204658495346137670e-01
-1.549008172273836470e+00
-7.383338327093531550e-01
-1.385637292496258333e+00
-1.197545282828547775e+00
7.635390170940157262e-01
1.188585348452425583e+00
-8.656242764002142209e-01
-2.600459338063311199e-01
8.523305933671602164e-01
2.098475116049438594e+00
-3.936147301712310531e-01
7.078652888714432878e-01
-4.357398178203183425e-01
-1.006699104277184592e-01
-5.630921667032581235e-01
-9.850159844494417172e-01
1.489303524920749133e+00
9.041612961238598700e-01
1.254678986898717374e+00
1.858069749749137856e+00
-6.555325468497894548e-01
-1.073953953294109809e+00
-1.706362542817888572e-01
9.890057885227232504e-01
6.293149345228530311e-01
7.146289415794316868e-01
-9.255355138380247371e-02
-2.353774457053184888e-01
-9.771642212768961722e-01
1.189733132128016457e+00
-3.098062570741306754e-01
-4.588830475995599456e-01
1.843485840104785112e+00
5.853913438002217307e-01
6.473429221783522092e-02
-4.827670786337112663e-02
1.211020553724885263e+00
1.884573416006709856e-01
-9.141224400447011122e-01
-4.340762766623829094e-02
1.337705353041927503e-01
3.041889709277462162e-01
2.145165632070828721e-01
-6.403256874972680368e-01
-5.244832159270335081e-01
-7.896668442737041493e-01
6.536449526582095437e-01
3.324906250708140748e-03
-9.314623730269047108e-01
-9.231849060574792709e-01
9.820024828536360051e-01
1.094242291453890736e+00
-1.070546495511736973e+00
1.678759035233445829e-01
-2.017680575239479968e-01
-4.248017071379817655e-01
2.857113611237298637e-02
-1.085646684233819936e+00
9.827086664899338242e-01
5.936301946918043360e-02
-1.124701890412436400e+00
1.088600744761452521e+00
-1.421435944105977622e+00
-2.547950828124490030e-02
8.676556099200571914e-01
1.388959855434986346e-01
-1.374901477238901493e-01
-1.907217014805673572e-01
-3.883259166960397746e-01
-7.469768196000545757e-01
1.718426803704689032e+00
-2.368734119295821394e-01
6.393480107636639875e-01
2.779443153812379830e-01
1.938273569916315608e+00
1.739036097915552803e-01
3.396178601895037952e-01
4.686752078299494251e-03
-4.003938154938310179e-01
1.693523328304805897e+00
4.872168045072708953e-01
-6.585251242578594733e-01
-7.128083212887814657e-01
-1.616859356855442797e+00
-2.322791412127961641e-01
-1.125008761903465659e+00
3.544338679565015027e-01
-1.943446866580235577e+00
-8.234452819641773225e-01
1.799417563963581213e-01
-2.728880693995557327e-01
4.424613237308194780e-01
-1.174491277497890618e+00
5.626999028110257761e-02
-1.280735757864964519e+00
6.876078788720383361e-01
-1.356672327210492801e+00
1.977681460461983010e-01
3.099750422613628542e-01
3.891145434039842699e-01
-1.364459907433989150e+00
1.324436091283274219e-01
-2.675867392172494030e-01
7.472680780400040579e-01
4.036923886495177860e-01
8.872322856309623473e-01
-6.555243067581689731e-01
1.261142855553654352e+00
1.540906622838368989e+00
-5.017456338083764456e-01
-6.858797288647547896e-01
-1.412794421089419994e-01
-9.436876045760822507e-01
5.188604658544513359e-01
3.384517317981767803e-01
2.385980125693881737e-01
-9.069773892925618863e-01
-1.200196415496549429e-01
3.269272432118053295e-01
-3.177057640840188490e-01
1.980849516109738917e-01
1.849857989029483063e-01
-1.177698439425328703e+00
7.879050410560384243e-02
4.355441638477949295e-01
1.516195485209744565e+00
-6.113059963092724036e-01
-2.044685766892184176e-01
1.013641315590356751e+00
1.315805964271968387e+00
1.262663392417055164e+00
1.046569966768754689e+00
-4.337069246916488430e-01
2.116044243331908492e-01
9.742993514767277485e-01
-2.052892553717620139e-01
-2.492032302146885425e-01
9.153757352626110677e-01
2.406563037186737475e-01
1.023215068222624646e+00
6.771540542877231283e-01
2.108238272214323583e+00
-1.214018340832450527e+00
-6.648156163026719412e-03
-2.117213701921665803e-01
-5.281902819378748726e-01
-1.212554115921210540e+00
-7.364296719483128806e-01
5.760285593747574984e-01
3.734766686075047804e-01
-1.329842932140518741e+00
-1.044724065427995008e+00
4.206979296956220860e-01
-1.127347923783463601e+00
1.320307600711636553e+00
9.616539305513027713e-01
-1.817700559532450244e-01
-7.283448166587876971e-01
-3.865981358537045054e-01
1.426088599864054896e+00
-2.944447133088788360e-01
1.332922653399488677e+00
-3.175424844023738702e-02
1.285952865251114852e-01
1.466645697135138926e+00
1.660010966036443159e-01
1.306732798974516552e+00
7.752790817391659317e-01
-6.296547443762419149e-01
-5.120758578428308283e-03
1.506364036560456920e+00
-1.202153297735587323e+00
-4.689495007948549232e-01
9.603504210995135182e-01
-1.298612140936788784e+00
-8.100212140930396210e-01
-1.813458657828124210e+00
-6.701823083711038187e-01
1.696177222793558981e-01
6.413387190873899302e-01
-1.422476075172428134e+00
-8.779175549965290148e-02
1.213926769201030265e-01
9.233271670050088309e-01
-3.330886450467416271e-01
8.100977125962637304e-01
5.435828739638527418e-01
1.344134179631448101e+00
-2.722947784271279037e-01
8.521969323875258073e-01
5.298955352317407108e-01
3.392930993806748674e-01
1.224950780385985621e-01
5.904322473117248338e-01
-5.949275835393705858e-01
-3.007136173556313796e+00
-1.104155747569256496e-01
-2.176732118744199307e-01
-2.191818132298841704e-01
1.474949942124394564e+00
-3.695087150924786235e-01
-2.812351032241799942e-01
-2.105808581845336480e-03
-1.612405739579309882e+00
-1.320132667110554658e+00
-5.181394428109302730e-01
-1.138948963753124710e-01
-1.081255083321819077e+00
5.324764038858619264e-01
5.238343151809663478e-01
6.088732382879417093e-01
-7.115098789945205615e-01
-2.968001409034698446e-02
-9.245290421324710017e-01
-3.674789181742945665e-01
3.739084200003371383e-01
1.480994287279597810e+00
-7.315824751023159989e-01
1.893116020677266143e+00
1.265269438597596885e+00
-9.033423304732397796e-02
-4.001814181554826932e-01
-7.656479392155662866e-02
-5.652689115006811482e-01
-9.795013731926927036e-02
1.022337483395588720e+00
-1.261681571060858931e-01
-2.542752599899114618e-01
-2.189552942624059528e-01
-7.978191423964716700e-01
-1.312938587697468851e+00
4.339963229628790442e-01
-2.106431072228012180e-01
-2.570040247814884271e-01
-3.569087129703022998e-01
-1.688434166321933105e+00
3.133272271831008537e-01
-2.457395108206505085e+00
1.751568185636627639e+00
1.284177006230766693e+00
9.818735537621595122e-02
-7.061433742986584772e-01
-7.664776854141716056e-01
2.231562368954992381e-01
-7.464264479351384596e-02
3.552713597800795098e-01
3.197162040238917258e-01
1.064284078990782589e+00
-2.199792327464701047e-01
1.159576599226024962e+00
8.883653297078888400e-01
-1.353933167977117158e+00
1.455688431085377932e-01
-7.043654306058745318e-01
-1.676020625348152437e+00
5.595867821978719459e-01
-1.091306878464645136e+00
2.454076532485352513e-02
-7.680417607957278348e-01
6.894629863488543897e-01
-3.473698679992996974e-01
9.065101714060060933e-01
-4.663396948701877820e-01
1.432002493768083529e+00
-7.349635697555099156e-01
1.607930317085970229e+00
-2.084381452537250323e-01
-7.181712920283239709e-02
-4.201539442705878313e-01
2.439301080166655089e-01
7.828201999600680194e-01
-1.433320957396725936e-01
1.111803316674943698e+00
3.165663282320407834e-01
2.291383167215852168e-01
-6.129693598490363327e-01
-5.562397920367153636e-01
-5.225241135632487932e-01
1.229337197955745253e+00
1.964183703193487229e+00
-7.548086628423612554e-01
9.412810243624352147e-01
-3.726838942553665213e-01
-1.168655543054420320e+00
-5.404134111746722313e-01
-2.539712892780748507e-02
6.814889824588497014e-01
2.188787080408219066e-01
7.402045012453861705e-02
1.498192437756613871e-01
-4.973643468672860335e-01
-8.480430106805465496e-01
8.131461952032828511e-02
-2.553046031138128669e-01
-1.018335307771702780e+00
8.191918944514449130e-01
5.693494993170813423e-01
2.287549564315539130e-01
9.782742427037680599e-01
1.104918232690627611e-01
-6.099168735185063195e-01
-1.094485936513442947e+00
-4.386244264074059540e-01
-5.412618978559382565e-01
-1.945738014941430505e-01
-1.366867999504953746e-01
-4.381328732941984772e-01
-1.762918907448148831e-01
-6.436122071750616236e-01
-4.727111214059089850e-01
3.005089684426622831e-01
2.715054325201485264e-01
-9.024752659522243814e-01
6.785111411864207520e-01
-1.273332292151762246e+00
-8.118306311186846980e-01
-5.901877988871316871e-01
5.809530307233805591e-01
-6.870513504301029029e-01
8.370371541612736666e-01
-6.658873880523723532e-01
5.658081672574588605e-02
-1.102599248157181577e+00
1.508522005764818263e-01
1.326887920169937729e+00
1.540317396608886558e+00
3.386153269705182711e-01
1.634024836610279419e-01
1.745172821856482148e-01
3.246169747069349021e-01
1.288160585277921211e+00
-9.199482667251990264e-01
-5.605908162968222808e-01
-5.815161279243863390e-01
-2.114433839378951907e-01
-2.895203750195826098e-01
7.100892779707221880e-01
-1.098218882071175240e-01
-8.572136914510881667e-01
-1.936684225664220937e+00
2.425306345517920237e-01
4.683078169780199307e-01
1.183260097496689811e+00
-1.438249505945219386e+00
-1.114135427557032099e+00
-6.531281529361205873e-01
3.053871121793615417e-01
6.168125516496232308e-01
-1.143012338397950689e+00
8.512180648445726305e-01
1.326839151990326426e+00
7.766360931381638411e-01
-1.750563902198913890e-01
-3.386773025268584592e-01
5.308828807007844874e-01
-5.210715089276969358e-01
1.895836266265299441e-01
7.116682512853693687e-01
-5.776194098684992451e-01
9.012343243468604603e-01
5.755604236052482836e-01
-2.876546838265652273e-01
1.021415453650741156e+00
-1.089672741336549677e+00
-2.747350741153995468e-01
-1.118934734672445197e+00
-5.230771398922732240e-01
-3.514989274947800113e-01
-2.983069446757797283e-01
-1.308871016948514931e+00
5.122624522080561071e-01
-8.693888505143778644e-01
1.038787591530873744e+00
1.075009302253984611e+00
-1.440703468307571899e+00
1.302330880281338032e+00
-1.198275758755704024e+00
8.308118837083919295e-02
-3.143893686295282652e-01
1.631690223490798730e-01
1.568170200473711917e+00
-4.260682309760884801e-01
-1.335201031333661525e-01
-7.905421250695452429e-01
2.073307746867519563e-01
-4.960190621756189189e-01
1.344152706647178785e+00
6.296976031877248303e-01
-1.873344854011305682e-01
4.329288334023675411e-01
2.774093332293341430e-01
1.762799775134180624e-01
-6.105308272814049531e-01
-4.752946375540120783e-01
-1.183279060570228358e+00
2.967950009235081898e-01
-6.968465170306965550e-01
-1.683992018225803244e+00
-1.318176140229877225e-01
-5.900723603882928048e-01
-3.766624176966221205e-01
5.097549893478141581e-01
5.072084700472648255e-02
3.705092055449323851e-01
-1.102682496587934713e+00
9.148353031287469461e-01
-5.902066869954828432e-01
-4.659258157120527155e-01
2.946587914588987833e-01
-2.313031836054961321e+00
-4.348683829380783905e-01
4.345895288793737432e-01
1.828782504908518902e+00
-5.349686956354444689e-01
8.009544391073601943e-01
-1.533024507823960714e-01
-1.777065214329803244e-01
-1.018548465814836490e+00
-1.109702207394311912e+00
-5.279980426750069400e-01
2.876371020909176957e-01
-6.006501938733352919e-01
-7.361304324172319724e-01
1.567809924933234733e-02
-5.617935615557290152e-01
-2.705369874535376029e-01
2.277580767699457498e-01
-4.515941372019970368e-01
-1.642249407660858473e-01
-2.273631092231029882e-01
5.294229124959081156e-01
1.148905565518415717e+00
1.280883583071380505e-01
-1.056709512556367914e+00
-6.567644028044707927e-01
-6.251475566392011851e-02
-6.520822869878981631e-01
-2.334799242848015211e-01
8.947413449266097274e-01
1.474004703723287013e-01
6.743312936341118169e-01
1.621593650041160961e-01
-1.422816014717761979e+00
2.951425583210554593e-01
-1.237109693390339604e+00
1.000120553569825294e-01
1.716934788092475683e-01
-4.140846834389410591e-01
7.623094008640718400e-02
1.486780913745416655e+00
-1.188144585831587108e+00
1.375124245910289700e-01
1.705088418507488823e-01
2.295737353070785580e-01
-3.500027905334917033e-01
-5.454144314095908941e-01
-6.844440575476354316e-02
-3.943648383314835026e-02
-8.341908646937594707e-01
1.114702756314161602e+00
1.691049240621747218e+00
7.486335236691261663e-01
5.663158558312466617e-01
-1.548927984944794556e+00
8.220788341447760050e-01
1.501163251764648043e+00
-6.336676126681283217e-01
-1.557953298471399517e+00
-3.244172166681982272e-01
-6.919455765876088016e-01
-1.479238703451887460e+00
-4.369523936463446390e-01
-1.487759432286599237e+00
-1.602108844089249029e+00
3.641474039034641175e-01
-3.646051895346945626e-01
4.990414015408590753e-01
-1.262901803190179084e+00
8.044915684178038928e-02
2.513462422069158153e-01
2.538454381113021130e-01
-9.654578574382203238e-01
4.054844193639466354e-01
-1.533044894779282519e+00
-1.468399164830574977e+00
6.772354508537239415e-01
8.254051661273498208e-01
5.401494899515132397e-01
-2.359924342191994096e-01
-2.027749824774116583e-01
5.279616376610073436e-01
1.523355810705332658e+00
-2.557050470420004995e+00
-1.821489421312711965e-01
-5.088749068076869886e-01
7.051579613731068230e-01
-4.424542928555215693e-01
-2.147229335594627309e-01
7.166880130018143946e-01
-1.679657057339613679e+00
2.114449765406147375e+00
3.442322480087232628e-01
7.224761504516077348e-01
-4.880997674269309528e-01
-9.557489556982772250e-01
3.876693776936763758e-01
-3.242786806549380341e-01
-1.610029473390875099e+00
-4.977041859495885401e-01
1.059584445507101957e+00
8.260635772513447161e-01
6.068086141696249491e-02
9.087148370246187490e-01
9.128141574573062078e-01
7.312727327788637322e-01
-8.470591543827628023e-01
1.110832650074822681e+00
-7.677001043495876864e-01
-3.388166536813579377e-01
9.444380216467163081e-02
9.637630887435530980e-01
3.570906202764932980e-01
8.916788575355266699e-02
8.045959491747860515e-01
-4.288397746310243508e-01
5.451560290989599933e-01
6.423267901711221528e-01
-2.049173679254699676e-01
1.788942612042038471e-01
1.520354127906275110e+00
3.730804729926910923e-01
9.125551604334680711e-01
2.029115432962594334e-01
-2.203941027783653250e-01
2.752803734741606778e-01
-5.431963995617700158e-02
6.744003610256910086e-01
1.270716245318116222e+00
-1.412555383048703650e+00
2.922943672424322958e-01
-8.049893184682113678e-02
-1.120679736756321709e+00
-7.962711723178845791e-01
1.921643257764283241e+00
-1.223786194244577352e+00
-1.998767066957444771e-01
-1.970343806570270973e+00
4.962061586861246654e-01
-7.625074137436519406e-01
-9.914077441603024177e-01
-2.500013341789518728e-01
-2.460613507481579365e-01
-5.240237126060104389e-01
2.248234768801194439e-01
2.590156494967107204e+00
-3.778383635819043684e-01
-2.230232894771326801e-01
-3.917118524334191054e-01
-6.929903018919991720e-03
-1.162410081008015572e+00
-1.899123668799501674e-02
3.808702363496732635e-02
-1.432184595411093886e+00
8.595894084880398855e-01
-6.632027277969736456e-01
3.994148800960105605e-01
-8.226001370542527225e-01
2.645860501185666180e-01
1.382136668760582943e-01
1.155482444160719213e+00
-1.222693770698096705e-01
-1.284266579721348389e+00
-1.449166004789342876e-01
-9.638383584812537652e-01
-4.139796607823225116e-01
-6.646312022565956656e-01
-4.454638788577239827e-01
-6.543491255628325343e-01
3.965574351635448025e-01
8.796094860658049130e-01
3.113390460738023613e-01
3.940988422509047462e-01
9.165769297862422782e-01
3.553239697248867790e-01
-1.765256026311443627e+00
-7.717499251746940958e-01
1.651559093667726297e-01
3.935591500474409643e-01
5.889512200381055163e-01
9.732275682790748617e-01
3.375808193454298278e-01
-5.184576261755469151e-01
-3.706315138797468545e-01
1.314965988764757787e+00
1.711630711679527739e+00
1.029292416543044153e+00
6.399730503159865025e-01
1.264732410464164625e+00
-8.030785902676012000e-01
-2.129682423531654711e-01
5.154735025650533098e-01
-3.141428611243821667e-01
-5.948444617756449837e-01
5.990092160583027070e-01
1.040078160572691646e+00
-2.105678935693020282e-01
1.237200324350603342e+00
-1.815487974885185429e-01
8.970690963714140764e-01
1.041077844774458194e+00
-7.014195511949714579e-01
4.171470960908796322e-01
-1.907806255407944462e+00
-7.860705794001394686e-01
4.722930501242336154e-01
-1.886332914852975051e+00
-5.367912545529240909e-01
-7.064195322310105052e-01
-1.256210232873788524e+00
4.424211431683144902e-01
5.991281705349791320e-01
-1.178795356706761721e+00
-2.903731977104856421e-02
1.074144648772941135e-01
5.616909970114448702e-01
-9.629721387407113031e-01
-2.325673483983964118e+00
3.016369803572281905e-01
6.136050732604239055e-01
-2.372569702717253648e+00
6.922178006104711123e-01
9.331785930794028738e-02
3.738456849784363989e-01
-1.343482023902942801e+00
-7.241617607409848167e-01
1.289544144561516781e+00
6.377201975367056130e-01
2.195575297229820921e-02
-1.524519234524501776e+00
6.772380175514181033e-01
1.257839292107221674e+00
6.917945295045064835e-01
-1.096690178571694707e+00
-1.690054158596892009e+00
5.838643840431568810e-01
5.921697595630381894e-01
-3.128643855945227314e-01
-7.494285651844042606e-01
-4.397458967340188707e-01
-3.471959838598781545e-01
8.252278729039963512e-01
-6.039108422272982946e-01
-1.433446906319117975e-01
9.028374334883589869e-01
-1.366569699980583641e+00
5.776874457448921696e-01
1.392832799099050223e-02
3.377940270212321794e-01
8.709652409226121828e-01
-7.516479990688089696e-01
-1.819042259838439812e-01
-6.090360660455346187e-01
-7.868220703945451033e-01
1.135982461179394720e+00
-5.299266455167586098e-01
-4.121412205995240718e-01
-2.751187745321347911e-01
3.198215370911824951e-01
1.028655862642835483e+00
-5.584174033309841079e-02
-7.556582264510278146e-02
8.859643634754548192e-01
1.290105651374667595e+00
-3.169843647103894324e-01
2.375120728452461694e-01
-2.502740555898606556e-01
-6.298035212568668939e-01
1.050232182201252140e+00
1.214728677616581320e+00
-5.882332723552703424e-01
1.058850175958046647e+00
