-4.764377286644040366e-01
-2.411913332079288208e-01
1.125053652756472733e+00
-1.434480778188484962e-01
-1.339737121047271384e-01
-2.934100116910851597e-01
-2.500889073699491538e-02
1.772953048723738823e-01
-8.465572051644570939e-02
-1.484072244660754603e-01
-2.420891042156884665e-01
-1.306694302178698641e-01
5.893400980877574469e-01
-1.500402144756354805e-02
9.073567704442101478e-01
-3.573804843446667379e-01
-5.612608043165721039e-01
8.544796648765855540e-01
-1.371721734509492308e-01
-1.648962305426860286e+00
8.478385960734076132e-01
1.045583023153735525e-01
-4.229638116713158036e-01
1.965929048895535547e-01
-1.078664431291273262e-01
5.051296055977311239e-02
-5.679858909959601965e-01
-3.883789822379540846e-02
1.142438526221001505e+00
-8.670944946502451289e-01
-1.860990341675509696e-01
5.435937966133337351e-01
-1.561243782132394120e+00
-8.939906681052304238e-01
1.577611841737553561e-02
8.073379710096968420e-01
-1.182491908779841339e-01
-5.972955203159081572e-01
-4.467094060997289784e-01
-1.127872074617013443e+00
5.573982064350999632e-01
1.143504493565387747e+00
-4.623172788589233195e-01
4.956478425659443521e-01
8.540648510931589943e-01
-1.987838924366777671e-01
-3.940719265522047432e-01
2.499335506183866518e-01
2.638301467628568764e-01
8.947303248862542580e-02
-3.247480316479421369e-01
6.028235914984833022e-01
-7.318912864115747485e-01
-2.735984655736639626e-02
7.263559342183361078e-01
-6.157061270700272537e-01
7.759499947175335643e-01
-1.857504423038954799e-01
1.423663582274372619e-01
3.747326764422639900e-01
-1.226221153604093034e-01
6.105048672668604848e-01
7.088519081617524753e-01
-2.139760969805910573e-01
1.609860006565880575e+00
-5.063166636636603490e-01
9.368452890255389576e-03
1.921698582052872473e+00
-4.085769719736020988e-01
3.453142632152876312e-01
1.001510784834378637e-01
7.017656418718342115e-01
1.265142898725895859e-01
-6.739247935437082671e-01
-1.497550680077129881e-01
-3.980060713436519015e-01
6.375379652213768455e-01
4.547289576939497757e-02
4.042211043564780670e-03
2.427429993965984911e-01
-2.983290098801582094e-02
-3.059075785209363074e-01
-1.660534165679396490e-01
3.009064980728278216e-01
-1.682125725845243780e-01
-1.124971884912958409e+00
-7.574730881655824533e-01
-2.768430779690378429e-02
1.362087514524724430e+00
-1.700937960227371093e-01
1.380803657336941437e-01
-1.085506738573255525e+00
-7.449859263415112842e-01
-1.090416493215674354e+00
6.146096551064809121e-01
1.004617011449260744e+00
1.096490585065002521e-01
8.604791453881193153e-01
5.330577879746514203e-01
-1.325923664729665274e+00
1.507804571147699502e-01
-5.238966847308936803e-01
4.162067163444580498e-01
3.358317277634716436e-01
-4.427257366979395203e-01
4.888585003476170754e-01
7.044822007133992592e-02
-3.461418951105060815e-02
-5.459491187326789285e-01
-3.753975009440644883e-01
-2.863009251242208397e-01
6.584440638760775677e-01
-1.107209892267256857e+00
-1.746776419276859782e-01
-1.743999590444388348e-01
5.409316784532425260e-02
-1.181011651104818094e+00
-7.452430532472359426e-01
1.959663530641471141e-01
-9.765297514999440320e-01
8.588569139814333786e-02
-6.923861009761905771e-01
3.604287824391583794e-01
-1.697139997226712049e+00
-2.555029200904180842e-01
-2.840040290358147868e-01
1.367052062914123622e-01
1.749478534176332811e+00
-1.109674318926616721e+00
7.562451348960625985e-01
-4.419629958457995667e-01
9.703583022924815449e-01
3.264018318925843709e-01
-2.513532343162936944e-01
6.218493414264928409e-01
-4.579034510568671945e-01
-4.260270800509979860e-02
3.658889110887852958e-02
2.266978711210587971e-01
-6.388228011419050389e-01
-1.128391935020909287e-01
3.954086366153359289e-01
1.013972149617211604e+00
-4.746604189194683632e-01
-7.566724502731967394e-01
1.453559029575285655e-01
-1.806487014288318260e-01
-9.346157728936783649e-01
-6.673721764264143319e-01
-3.229378300120092776e-02
-2.479884477445452040e-01
6.880361222063595683e-01
-6.707484701716456277e-01
3.168025050972339773e+00
-9.181933274436465675e-01
4.569100943664150538e-02
-1.506578892997152974e-01
-3.260884647142267001e-01
3.679812583681309479e-01
-2.757868161237337912e-01
-2.028952355969040777e+00
1.846743738136033541e-02
-7.163237164684127523e-01
-7.701412990765877931e-01
-1.193943851021560532e-01
-3.984295009325339865e-01
8.841580043536787503e-01
4.440050172779483884e-01
8.743132705564853335e-01
3.237652702718735176e-01
6.295049625927171544e-01
2.348556832771137859e-01
-1.247463281018836856e-01
6.144314345241868036e-01
1.448381281113511054e+00
5.190668635122491770e-01
3.829646727249795823e-01
-1.146103037832941762e-01
3.919529344779489888e-01
-1.069239541245586012e-01
1.340744887531117424e+00
-2.676815674893012753e-01
1.181682809930683642e-01
2.268347046260315025e-01
3.081447142495954417e-01
1.727361730534444917e-01
1.948614806715502634e-01
8.767322491235964854e-01
-3.074129466417022116e-01
-7.635009369928200673e-01
1.004175444928666172e+00
-3.341522235929461626e-01
1.282208315366810902e+00
-3.986605467768316036e-01
1.241552985090319389e-01
5.350546287914115240e-01
1.557785231006095117e+00
4.737065888273350733e-01
-1.669279554447223313e-01
8.927621752754111295e-02
-6.462744001754827661e-02
-1.104314356715637047e+00
5.929184646651881607e-01
-1.812964685912321905e-01
-7.122251953257877632e-01
4.929000430493403750e-01
1.477804930342765388e-01
-1.539615790879077073e+00
-9.347958126872190077e-01
-7.293918997478883171e-01
1.724293064457187441e+00
7.527924045102752926e-01
3.431413599777789480e-01
-2.063351384871174865e-01
2.155085125153407555e-01
4.699433376277256658e-01
-9.363151854399772711e-01
1.975129666644283577e-01
8.967448261191638403e-01
-8.922810397734570742e-04
7.144675344380716497e-01
6.809323782710920980e-01
-5.449468870527628406e-01
1.767046428130458313e+00
-5.525483330161899964e-01
9.503939178604295379e-02
4.304337835880489571e-01
2.953866955907187841e-01
-1.942552864667562718e-01
4.662432073444459646e-01
2.298648651106934837e-01
-3.722484274266483761e-01
-8.900434131137998639e-01
1.753826748907334476e-01
1.811471808914231207e-01
2.334347891085187254e-01
-1.104516786806613915e+00
6.365330045238208889e-01
-8.871913037916923095e-01
4.221458825779702551e-01
-1.357118370953993569e-01
-1.684892148089250571e-02
5.061693268028235604e-01
7.660936576714481028e-01
-9.834288175003180754e-02
-6.131624015912059411e-01
-5.067617637200341196e-01
7.574942076425978943e-01
9.509183585904334990e-02
-5.734147906494468927e-02
-9.775182080593078915e-01
5.553222284129373243e-01
4.834001661165143737e-02
4.122883601545479504e-01
1.495198610288344110e+00
-1.088498764135518160e+00
-1.156134247281523475e+00
5.794740190402484226e-01
-6.076820856280386041e-01
8.054277718361569915e-01
7.745191191490706506e-02
-7.769050427901951217e-01
1.066374618494932314e+00
-4.716514587337531927e-01
-2.880612090763337019e-01
2.675641668220565261e-01
-1.113236511603611645e-01
6.093145028442379374e-01
4.826801307370810479e-01
5.025382584585497137e-01
-3.559849770884407905e-01
1.861293725903361285e-01
7.551602376835692132e-01
-3.482836362278675102e-01
1.466274352818519144e+00
4.996486540940262566e-01
-1.667182759588875240e-01
-3.899103264671941460e-01
-1.305877414056000774e+00
4.770308977309012377e-02
-4.068785024385934701e-01
5.350700039478478720e-01
5.946155803499952874e-02
7.104199944541990108e-01
-9.501408474449876129e-01
-2.291247465348274226e-01
-2.853279496494186551e-01
-6.666499888712289490e-01
2.038563995560213615e-01
7.874001659203572201e-01
-1.474505305914058928e-03
-2.563079968762141947e-01
1.057130286840752387e+00
-3.102366493321780383e-01
-8.466667282816198181e-01
2.986955173119388296e-01
-3.938218209933443958e-01
-1.496525070577760408e+00
-1.553620484854067341e+00
3.872445694568861230e-01
1.184891109845980228e-01
-6.410482856822316000e-01
1.011716533786300165e-01
4.655942204322084388e-01
6.588415493970668502e-01
-1.076966640686626842e-01
5.896807206381120547e-01
-3.369186940473691827e-01
-1.935645570849475749e-01
5.110585087066954468e-02
-4.045480818735683326e-01
-1.262154017766708103e+00
3.434900503219425749e-01
1.594092080437784720e+00
-7.750037624849216433e-01
-6.376601107034415294e-01
-1.904748805889012520e+00
-8.435847051496950799e-01
5.783978643756985116e-01
-3.908430600695463886e-01
-1.003336645792392012e+00
2.276641504871547705e-01
-1.163294665555012486e-01
-2.590661856132498997e-01
5.360627227722208898e-01
-1.101554407437106975e-01
-4.237411416667207220e-01
1.858535383803754382e-01
-7.387412720582242631e-02
-1.213181322205735047e+00
-8.045025973071835423e-01
1.723189875101150681e-01
1.267580786974884799e-01
7.843231669841369547e-01
-3.578114189129756317e-01
-9.266453159732142009e-01
-9.185304924777286661e-01
7.656421816586594931e-01
-3.444716754947496073e-01
4.294494200416373308e-01
-6.225732272428576852e-01
-8.093498456501532212e-01
-4.344219856860819240e-01
5.155202329305959008e-01
-2.391915703992488762e-01
9.923340669050213503e-01
-2.957026595684980608e-01
4.488203374592827366e-01
8.942942558920562168e-02
-6.983179744070179273e-01
-6.045322839132817316e-01
-9.066532497124295542e-01
1.781667253926368266e+00
8.796554505393630041e-01
1.002674242832983786e-01
1.107259205776415012e+00
6.152312472009580091e-02
7.890164421521120297e-02
-8.842538613503013734e-01
3.081477864484750695e-01
4.544645090410522892e-01
-7.157127642185860950e-01
-9.992090405379765450e-01
2.983318332939041695e-01
-1.966868389526510441e-01
1.771111929225928083e-01
2.589783761047015354e-03
3.997078257494511844e-01
2.058296161606298913e-03
4.263365901848378270e-01
3.860020962243527753e-01
-3.658910682931744707e-01
1.663077805577478641e-02
-6.142137636128069261e-03
-2.747502842680132895e-02
3.170972253200270430e-01
5.165652509489657707e-01
-8.273739609067805034e-01
-1.542372362651650120e+00
1.327325007116957334e-01
-8.837658994843913263e-01
1.079900103766533004e+00
-3.409391122818822839e-01
-5.137736100766593372e-02
-4.117027572996584395e-01
2.838013489636904696e-01
1.390727066205621476e-01
9.112113526161629007e-02
1.260374396767919292e+00
6.740259320981383251e-01
3.125198352371014177e-01
-1.685750754740522050e-01
-3.615132379940872998e-01
4.698060781187141655e-01
-2.847025717766878961e-01
4.711978357116295424e-01
9.898545879551254867e-01
2.760207788177602706e-01
4.660823312679079899e-01
9.521954037540436566e-02
-1.458292518275167593e+00
-3.535328092083820373e-01
2.451662779542601589e-02
3.851294667714159625e-01
-2.898491109450082592e-01
-9.164949069178307539e-01
3.685144333524063842e-02
2.666910608123902460e-01
-1.096219829069682739e+00
-5.228730663697191972e-01
-2.870573113065000292e-01
3.495631027192185325e-01
6.375543826256936386e-01
5.080216621618287576e-01
2.217672623602597315e-01
-4.606853334704162917e-01
1.963288662872159085e-01
-6.666600742228834253e-01
3.882635595151398555e-01
3.999526797189319471e-01
3.644600207868669006e-01
4.083030433569135309e-01
-8.271830394255093033e-01
-6.670110672930342766e-01
1.529522714775018333e+00
-4.168701948489630382e-01
1.515359849371983036e-01
7.512674675644747113e-01
3.815467901546710783e-01
-5.156192362559122166e-01
2.434750520028476917e-01
9.344165893717553129e-01
-7.090036459999696783e-01
-1.664166820395571178e-02
-4.900262593933473187e-01
5.692118478871325271e-01
7.166957839235279515e-01
-2.436522186279740931e-01
-6.950162019005104441e-02
9.482513540517341077e-01
-1.445726618739022196e-01
6.966865343892362228e-01
1.073621891276180795e+00
-8.491052010881356971e-01
-2.827394477077771473e-01
5.928062840471167716e-01
9.633759381566839863e-01
4.317744989691830182e-01
-8.038905643991234307e-01
-8.884202402512292318e-02
-6.972208471376317718e-01
6.815985056482805060e-01
-6.017581948069070652e-01
9.280494447281278925e-02
3.616402899930750148e-01
-1.126578640255941482e-01
4.910222676777625805e-02
-5.272676724916675051e-01
-1.092110477729358653e+00
4.876717907292290044e-01
1.437204749367655410e-01
-5.369103951567038013e-01
7.908946872341870993e-01
2.970530931331657465e-01
4.009963659866019325e-01
-9.885896398594684609e-02
9.487198118164519300e-01
-1.115944517263532276e+00
-5.886791020518215012e-01
-4.596053285550822931e-01
-5.711929553671141191e-01
7.297399244649910299e-01
1.751802688799952157e-01
-5.319921389905378772e-01
-5.918949449864080448e-02
-8.657427137645681281e-01
-4.832924048524706029e-02
-4.965331594812020244e-01
1.715017831306915597e-01
-1.768891493548336302e-01
4.953648207102801515e-01
3.373919915194045771e-02
8.200122502174583827e-01
1.013157687758932335e+00
-7.305932706404788535e-02
-5.104660759384863633e-01
-9.742197972952508778e-01
-4.766608709243999042e-01
-1.046269508712283969e+00
8.585750847807926966e-01
-2.049590258308025548e-01
6.831490132771983470e-01
4.118549498568762068e-01
3.483730368667812272e-01
1.105969963789981136e+00
-3.455471785575950361e-01
9.696320208107620520e-01
-1.156579822302241101e-01
4.472022606058519978e-01
-7.613576944526010415e-01
7.239061143810682220e-01
-1.948414535338394149e+00
5.889657845503017131e-02
4.722393692791598263e-01
5.572540526633400493e-01
5.874562885627074849e-01
-6.986758132321471693e-02
-8.564547280237814197e-01
-1.406298631419843070e-02
3.746244482060822611e-01
-6.743081751817020519e-02
-1.547046406060814228e+00
6.748645567476367901e-01
-4.705479550217189222e-01
4.891250279507975973e-01
-9.200059493740364580e-03
-5.010811363823181042e-02
-4.462876566839607539e-01
1.037990798137009119e+00
4.611236178902823335e-01
-9.208226582719165609e-01
-5.343441165558966421e-01
-1.304622279283388364e-01
-1.454899452499229362e+00
1.724586777778809032e-01
6.304963273331747331e-01
-1.271280666328463482e+00
-1.231799862562799053e-01
-3.406974894536500820e-01
1.679173117743307242e-01
6.146629719579674855e-01
-1.064120888744585769e-01
-4.827942546594419237e-01
1.307753856982059260e+00
6.554263112730246421e-01
5.433771854125177825e-01
3.329019438575999135e-01
-4.849447852211114518e-01
5.465806730448607986e-04
5.124686357009969329e-02
-4.162230373767407121e-01
-3.596654980915461319e-01
7.732366874446228167e-02
-8.637432153565265391e-01
-2.606637332890612835e-02
2.639112485658721696e-01
6.280837005169165321e-02
9.386397217574125040e-01
-2.421668208333212502e-01
8.265500108418855074e-02
-3.868857183671008393e-01
-1.169147536777435104e+00
-3.918258349885951342e-01
1.064213356785275844e+00
1.862402722012221901e-01
-3.124701404798287951e-01
1.672228377749475081e-01
-1.819229180379370314e-01
6.953313082609979823e-01
-6.471509662735996926e-02
-1.713215864030982916e+00
-1.052136839117746719e-01
1.710291720452885578e-01
4.145119004214190550e-01
-2.387802997256915916e-02
4.396987234270390010e-02
-1.115895096474456283e+00
3.616605798669982330e-01
-6.568324708577573112e-01
-5.609007586555970759e-01
4.803512293691021839e-01
-1.519376299132892127e-01
9.170282056294158934e-01
9.813269245046113420e-01
2.235531181293931025e-01
-6.087485653783204498e-01
-3.298656264348557299e-01
-1.089959498837697605e-01
1.020529735458536980e+00
-8.545399954240555651e-01
6.783508722014947034e-02
6.405676838925729033e-01
2.869708391673916337e-01
6.597287020038186678e-03
3.264729206601011957e-01
5.418789695902701542e-01
-8.690391320443000556e-01
-4.661960189825160583e-01
6.937774260171440943e-01
-1.057980752545163217e+00
5.197906727508717628e-01
2.680864566515628322e-01
1.138867413654529148e+00
5.373147025469452442e-01
-3.524965615055165591e-01
-3.943367915434669024e-01
4.640471541884990669e-01
-1.342489755704226351e+00
-2.276935107000890024e-01
3.677775426991112262e-01
-2.125523963775882708e-02
-4.255357621611118857e-01
-2.482101390046939082e-01
-4.658255885155245801e-01
-1.436846953273895888e-01
-4.893882093371144243e-02
-4.944568867017529179e-02
-1.587827153705346106e+00
-4.297413753437393513e-01
-2.825949058784237300e-01
-6.509100246586765337e-01
2.747208358344790935e-02
2.464355486862484512e-01
1.855503029187370312e-01
1.961831597033680818e-01
1.078218481688220542e+00
-2.005787460290291424e-01
4.829109346282488557e-01
3.587739786965760125e-02
-4.644641338301044864e-01
3.662928164884573512e-01
2.404733059292594455e-01
2.051688893902224309e-01
-3.591211770734789033e-01
4.292254706874071291e-01
1.451850032731435869e+00
7.993041065375704468e-01
-1.983200194687111950e-01
-1.947644747488623818e+00
-4.797541484481446794e-01
-1.237484875626271741e+00
3.060068420017617585e-01
-5.565267108450204780e-01
-5.486830365198952508e-02
6.134315936631079547e-02
7.550689580644059928e-02
-1.282048648633021148e+00
1.467363948004128948e-01
6.048403820386247798e-01
2.804875585547913497e-01
-4.796989080146730200e-01
-9.820468756553302203e-01
1.005343977490054663e-01
7.837911477059510412e-01
2.010627444528939323e-01
-2.182407972527861673e-01
-1.976369387176429293e-01
-6.894830400169646989e-01
1.133497893947271185e-01
1.308112245870927115e+00
-1.164432200951016627e-01
1.470462108130838219e+00
5.908235171861556667e-01
1.446605515328294456e-01
8.078716303715233193e-01
3.709819485219611468e-01
-2.690520420754995978e-01
-1.007030527874883674e-01
-6.307506495142123359e-01
-3.288268401172449173e-02
-1.363766539027220781e-01
3.496659479963561967e-01
6.648066809915581521e-02
2.230231047260901878e-01
-8.906354160342135895e-01
8.491159069372673507e-01
-8.006518091952760652e-02
-7.681474956527363229e-01
3.251867618314510100e-01
-9.254414375556928585e-01
-1.055518459070548642e+00
6.060449515151000721e-03
4.730540026275450449e-01
4.475778040421043436e-01
1.164403600255259796e+00
-2.905126440318356318e-01
3.126090942244396098e-01
-3.412145500386939423e-01
5.453218452956746232e-01
-1.033655568337021879e+00
-1.027886601117026788e-01
-4.663583340498975160e-01
-1.809859736471715941e+00
-6.996465230970047022e-01
8.819450932389641951e-01
8.840540772223176580e-01
-3.172754823831637760e-01
-4.344769643949399907e-01
-2.743087989505181845e-01
6.732572510217416095e-04
1.553130846941751242e-02
1.669638584953498095e-01
4.894639670025378586e-01
-4.083670749347261264e-01
9.018277109197750940e-01
9.574170794403615847e-01
1.072979964392979157e+00
9.846891026753212817e-02
9.752253586555452713e-01
5.418074811088497977e-01
-1.089497209625619245e+00
1.788186159960786503e-01
8.653466641484872657e-01
-3.717849054538459042e-01
3.792828266314487995e-01
-1.330584604745551403e+00
3.809375996216988192e-01
-7.000545020009265595e-01
-1.827727212020094916e-01
7.436816597659443584e-01
4.048412824795515896e-01
-6.030377141699913013e-01
8.211974879844026187e-01
-3.082575289225105708e-01
1.971699599222886401e-01
4.438229257601108979e-02
-3.860561116046128394e-01
4.201824099328693718e-02
2.900665111231731652e-01
-9.497722748299142204e-02
-1.194020261527522497e-01
2.802994359989560147e-01
1.006129455075639667e+00
1.786659793122572504e-01
1.267633959348913653e+00
8.112207465529235328e-01
7.419605983600807697e-02
-2.673807884429182380e-01
7.457395789396401575e-01
1.373356999059001105e-01
-9.545430621649986236e-02
5.631793092659203026e-01
-1.620660967202152969e-01
-3.484080568029558345e-01
9.108648103987844191e-01
-3.309932834778686606e-01
8.968044280888949338e-01
8.924052784481864009e-01
4.908978183730547951e-01
-9.586855424536546710e-01
-5.007106846051559979e-01
1.295572915628404043e-01
5.680806500059598640e-02
-6.720985271414035012e-01
1.294155706660253813e-01
-9.510443417337693939e-01
2.377980859839163852e-01
6.312403500835677139e-01
6.721514441404355944e-01
3.811432137384844765e-01
-2.391619343113224327e-01
7.280632291000612710e-01
-2.126496917779195639e-01
8.465999311252709880e-01
-7.344039948090607117e-01
1.404739568581238052e-01
3.168613892428549517e-01
5.797643295637718852e-01
-1.049485474546631547e+00
1.285400594962629484e+00
-1.468715247103959953e-01
-3.935294992056356245e-01
-7.690903812084517455e-01
3.517947482000297055e-01
-1.363386054795637570e+00
1.105057614238880853e-01
9.573831886488832765e-01
-1.004566340966834170e+00
1.012176540871190689e+00
-1.308106692261252535e+00
-3.653007638054641681e-01
-2.708223115218277854e-02
7.516508103328420898e-01
8.908406619196549414e-01
-3.296667373744278651e-01
8.587042833420006627e-01
1.498292071618578802e+00
2.597421320847376203e-02
-1.287799006526619272e-01
1.003288121594339444e+00
6.816356096437563572e-01
6.970933669455048332e-02
-2.757232717912231901e-01
-1.955719126625991011e-01
3.234039908733344904e-01
3.988177208407848173e-01
-2.583181334218110248e+00
-3.656433777695967668e-01
-1.942070519479831836e-01
-3.493129370293844849e-01
-1.525353280473079387e+00
-6.090694230455391267e-01
-6.888432858498483302e-02
8.425474684538084569e-01
-6.894149186210969393e-01
-5.710203326605772789e-01
-4.130743503454168963e-01
7.899772767271701079e-02
-5.469242519604326780e-02
1.761939965079240888e+00
-3.815554204808452865e-01
-8.494039056452726832e-01
1.586625760753914149e-01
2.500544939142601564e-01
-2.122866190435056533e-01
3.629860682113229542e-01
1.029225748215318453e-01
5.411242713612672839e-01
-1.239182615560248946e-01
3.608263733084177138e-02
-5.724850001205029626e-01
6.003023613035693984e-01
-2.151674945078951851e-02
4.864176836164680884e-01
-5.546808237237880190e-01
2.096554466646194381e-03
9.159743126905366406e-01
2.028330358982606274e+00
1.590635350066021969e-01
-8.982575223133009157e-01
-2.069491046452905270e+00
-6.485530223006207018e-03
-2.882003704937917687e-01
-5.573416652613003563e-01
-1.932371268094151273e-01
2.546881315359430520e-01
-2.484742247793880754e-02
6.480626542900097542e-01
-1.549571933493399944e-01
-3.062586979783092911e-01
8.929660222776703016e-02
2.176503732525245927e-01
1.187722393984470770e+00
8.719584730161233921e-01
1.245810014346161232e+00
-1.076873106919307599e+00
-8.527438977227685957e-02
-8.378486737903899639e-01
-1.141466889204882373e-01
-1.372406709183543461e+00
4.495578937745039472e-01
7.919406978520993068e-02
-2.472827307961555365e-01
5.323629087342190980e-01
-1.715397713593294626e-01
-2.694077714390824552e-01
-1.485589835126223945e-01
-8.815864185480853932e-02
8.909594336761927913e-02
3.287081727563399003e-01
3.240954511139516880e-02
1.005068677538342725e-01
-5.850796443269958846e-01
8.363166844986441584e-01
-7.361745546360805026e-01
-1.400780450121937193e+00
-8.441561996422934644e-02
-2.300650523298148342e-01
-4.876144398793459400e-01
1.319124743616471862e-02
-5.887673730160503105e-02
4.270944549526991540e-01
-4.925141400655924095e-01
-8.010485496353718649e-01
-1.699746038836417172e-01
-3.264131246331395397e-01
2.518592904013998157e-01
6.835208890843508245e-02
9.409879312865946366e-01
-5.484047572032577644e-01
-3.785693095940665387e-01
-7.423224849490412947e-01
-5.870244215335068683e-02
1.195445368185123758e-01
1.099667027751745907e-01
3.712109933188733613e-01
-9.704232555003274030e-02
-2.933698845240362285e-01
4.114967592130526486e-02
-5.596956942539993429e-01
8.442805180685875044e-02
-7.152976093051649498e-02
-1.419273684948609282e-01
5.637423170484049395e-01
6.237254010507642388e-01
-1.783095445842276527e-01
-9.257609399150709129e-01
3.577465341236688579e-01
-1.818818900453414433e-01
1.415451434920917961e-01
-5.557978274504119520e-01
-6.847009643393120459e-01
8.057132527028294522e-01
6.684419821827883856e-01
7.449340537932302997e-01
1.410218424549941840e+00
-1.008554499645990976e+00
-1.029663164251925611e+00
-7.910603927232335852e-01
-1.690441156266936917e-01
3.923762211511687692e-01
-8.434315066442533704e-01
5.844496997472473643e-01
6.697621576240229135e-01
4.047771451624739836e-01
1.828067054797961610e+00
-3.687714966895256907e-01
7.772994261754897494e-01
-6.256780589877758425e-01
2.361678755757251613e-02
9.802296004689959874e-01
-1.166286334234960309e+00
-2.748049493847276592e-01
-4.511443065648677031e-01
4.101762307122480689e-01
-1.293923889348315370e+00
5.422901369066178701e-01
-6.443698624126869001e-01
-3.765276439326469271e-01
6.150612069491725453e-01
3.410208558712737870e-01
-1.354373384718521756e+00
-5.158990331420644226e-01
2.629162287838632261e-01
1.101272083799980539e+00
-2.407109510979796307e-01
-3.354720352568191233e-01
3.948513906315435085e-01
-9.245782706185857736e-01
-9.541397499901865809e-02
1.168363829905597839e+00
-7.813444520794049497e-03
-1.507708099829971671e+00
-2.153491182361476630e-01
-5.026248165819457991e-02
4.823105733352638369e-01
2.001148496666249610e-02
-3.192841708192077910e-01
6.257735918881944803e-01
-2.642221271644077385e-01
8.781920971727434910e-01
-1.781444439222921172e-01
-4.466994780535798459e-01
-3.491864588207420628e-01
-1.205372007073442830e+00
-2.333939410104329149e+00
-1.035920665241956140e+00
8.370279992878013609e-01
-9.399089924317638456e-01
-2.060659781314855277e-01
4.099317945766582927e-01
-5.153420762329458116e-02
4.567270049726157577e-01
1.031827628034325262e+00
-4.017496994372926622e-04
-7.930767686682518303e-01
1.788123183433220076e-01
5.233033938766868953e-01
-6.593687007015698320e-01
-2.642746047972264756e-01
-5.107960225632965923e-01
-2.669118818709739216e-01
-1.125829367518871971e+00
-6.138929875624714594e-01
2.501599946024783971e-01
6.188700252445054062e-01
3.323342743763481322e-02
-5.809776674914404193e-01
-2.659484536019546819e-01
6.592454957682202243e-01
-1.022540620565546288e-01
1.053941811011553931e-01
-1.014771208824100546e+00
2.373844970385708963e-01
4.323624950773082842e-01
-1.126142658625442605e+00
-1.436321060464891719e+00
-5.720078350528219335e-01
-9.751297245054947327e-01
-1.259376240252444212e+00
8.019235739414565245e-02
-5.047678452406045846e-01
-1.283525159185066489e+00
7.597577010772686990e-01
-2.267177990378366204e-01
-1.203013608102584397e-01
-2.794734291017752503e-01
-5.440550871080322981e-01
5.272929148733628280e-01
-1.907721814424795381e-02
-8.850422731152010059e-01
-8.639948834804986877e-01
-2.335319118515626347e-01
9.904122915034416774e-01
6.344523896692095821e-01
2.730780993132673196e-01
6.747186623532395178e-01
-2.305742853553031935e-01
-4.127133163419966499e-01
-2.787072139220622136e-01
5.455247100908910962e-01
5.936245460760607440e-01
3.484669215907331696e-01
1.503295705794717607e+00
5.618687626543836799e-01
-5.051602323479651435e-01
-1.162145897056960364e-01
-4.722684176942751888e-01
1.682743981674409972e-01
-9.816320085732501699e-01
-2.390049088781760478e-01
2.739652308735495700e-01
-1.216860627359792613e-01
-1.086949878444808615e+00
-5.258312579696336475e-02
2.144488183521927827e+00
-7.424086779927918656e-01
-4.896294881441386471e-01
-1.681461510594233655e+00
7.378059776979257745e-01
-4.172612188894090357e-01
-4.713401209775405221e-01
1.162258821727552016e+00
-2.557873178803424241e-01
-3.367186593185103050e-01
-2.210784475142155425e-01
-1.775779089708365621e+00
-6.379203948659382117e-01
1.420346154088488466e-01
-5.210101548132962668e-01
-3.297520561026412445e-02
-4.194657858689513352e-01
-1.199253616593648264e+00
-2.885008597306153444e-01
-2.993848052669581539e-01
-4.728845421573022456e-01
2.430581388815160615e-01
2.482744148427770692e-01
1.103617884513490299e-01
-4.012473138711176723e-01
-7.165726359313325800e-01
7.835152793987143482e-01
-1.443879219390361429e-02
4.463351123656201791e-01
-3.699092391954850179e-01
2.041333382285343001e-02
2.768608837593401484e-01
8.665341385859068879e-01
-1.751987404000362736e-01
2.435849632176649571e-01
2.442634801398115840e-01
-1.119097693957558093e+00
-1.256160324718208765e-01
-2.196301175914287529e-01
-5.132964583373371692e-01
9.860239920780168310e-01
9.575728485584149574e-01
-1.500027682744749236e-01
8.667177848965480491e-01
-1.066493851243548452e+00
-5.575012670272301296e-01
-8.123138603102146860e-01
1.253247703219877440e-01
3.879882892340675293e-01
-4.620017078013239908e-01
-5.381045896649101490e-01
-4.134528249563336200e-01
2.640442851237417843e-01
1.164147943105920402e-01
5.586059034999807382e-01
1.330169079822427491e-01
-6.542859531014482144e-01
-2.164661493551491844e-01
-4.068629954216913536e-01
8.869477276004873456e-01
9.668611559942630329e-02
2.489047854102262314e-03
6.031509585946832619e-01
1.139701116150794169e-01
-2.099390958435581045e-01
3.775340125060747676e-01
3.257164183293497217e-01
3.191651331491326404e-01
-7.050950603410592876e-01
4.872375413049430115e-01
1.807479913250990000e-01
1.065029079009111035e+00
6.172426207541445442e-02
-2.786837404355630432e-01
6.541848967964629669e-01
9.227267994889123415e-01
6.949325216252266735e-01
-2.673680021589295297e-01
1.395090498316564620e-01
3.126931916799767786e-01
1.422275101208003711e-01
1.178888657007276075e+00
2.802939100726212773e-01
1.630091419643490136e-01
1.151587684543977919e-01
5.297253324394621821e-01
-2.351365397010349578e-01
-8.925664528286573196e-01
1.858831045764976153e+00
-3.153297263061896061e-01
-9.157670610062524919e-01
-5.060787230847877405e-01
1.086252923830291595e+00
-3.932019547561804163e-01
1.272157549254472775e+00
-4.573480560040571463e-01
1.143217103210917296e+00
4.466290330098292571e-01
5.280987731056673296e-01
1.620653567920202764e-01
2.031913238250022680e+00
5.952515891113124846e-02
4.267546519130278049e-01
3.840595733058624894e-01
4.228364544142962367e-01
1.153172063970793332e-01
-7.402269541368122763e-02
-1.939634283031321793e-01
1.078995390558639134e+00
6.411716958259021659e-01
9.515519785088278892e-01
1.919275343714310633e-02
1.595035771960632009e-01
-7.793843838644556321e-01
-1.354736206574203017e-02
-8.786195898007538307e-01
4.758610661918051266e-01
4.473218278196341435e-01
2.045947601322840315e-01
-7.444909637279358838e-01
1.486977843434841073e+00
-7.422220760339579559e-01
3.017290705673575379e-01
-4.104863111885775906e-01
1.613603248525852241e-01
-1.227383259209022581e+00
6.985211355734330940e-01
5.313991622949663096e-01
-3.581488430613484764e-01
1.028042391673473777e+00
-4.314105899798646448e-01
-7.363643497722216491e-02
-1.023419753937425125e-01
1.356631347282080569e+00
-6.102054294742633722e-01
1.408290181171794053e-01
-4.045153436017299153e-01
-2.183998081043546646e-01
-2.234037369858439703e+00
1.752299259281379362e-01
-7.822510729085125902e-01
-6.311614958708586798e-01
-7.799969525945321669e-02
3.542517398282784558e-01
6.163037763272527503e-01
-7.130406718810368139e-01
1.321199947488361781e-01
-1.798206219368668202e-01
1.536770842257884073e-01
4.576674260222266533e-01
9.047557615499601802e-02
8.904986519432781522e-01
6.578175750003911748e-01
2.396118955436812581e-01
2.772423059385142885e-01
-1.613807020873199605e+00
-1.227900584444877596e+00
-4.729325911065839633e-02
6.192533784360203519e-01
-8.613848505270212952e-01
-8.608983015670773620e-02
-5.265088681974505747e-02
7.341786018446530560e-02
-1.451173281206132426e+00
8.667800370732285931e-01
4.247064280840796013e-01
3.679466657372726379e-02
1.205966646042092583e-01
-4.352044633035492827e-01
1.447782990113211987e+00
-6.952610287472628103e-01
-2.041350900068084062e-02
-7.820547013758307742e-01
-1.781064477942434499e-01
-7.948163694716310623e-02
1.896957878830313193e-01
-4.875123846903706704e-01
1.238115533852403694e+00
2.365808834695228291e-01
-1.052164764833642407e-01
-1.622597999737917629e+00
-1.048601082084207770e+00
-5.579243740639787674e-01
7.999408446467809464e-02
5.821301533861887867e-01
-5.943798049380630832e-01
2.256338176178830368e-01
-1.139820483874084411e-01
4.290869010721944377e-01
1.331181204973303223e-01
2.730197549269425261e-01
1.451836085990838299e-01
7.376622408878620307e-01
-4.331103371243304467e-01
3.553335886027674251e-01
1.021583974418775603e-01
-1.016306477088167792e+00
-5.900977008866762352e-01
3.615198873320515927e-02
-3.369199951432483853e-01
-7.477141698962723737e-01
4.333749063686286318e-01
1.093115492952314582e+00
-4.848903085912563693e-01
1.001531918130410537e+00
-9.541022707924540214e-01
-4.004375885199182306e-01
1.524373111923841007e-01
-2.161975072440250889e-01
6.132676603023115014e-01
4.035318862662000128e-01
1.595067212087985242e-01
-4.853067021816898641e-01
7.261006549652453124e-02
2.909827965495674906e-01
-3.950120172560905862e-01
-7.976430268463574613e-01
-4.174598218443422160e-01
2.904483779138952171e-01
-2.171908484272775663e-01
-1.072878291005797124e-01
-3.744259059935844958e-02
-4.389321375901500399e-02
-5.314624458482242186e-01
1.032907337072639820e+00
-2.083403603517745561e-01
6.852442506470802774e-01
-4.278386899066569105e-01
-4.515701810099658764e-01
1.179044060822165285e+00
3.478656877502334654e-01
-1.981509677786378987e+00
-5.187646187078740478e-01
1.521944783114189403e-01
-6.379227991278627052e-02
-1.124626740157599544e-02
-1.236133723389269135e-01
-4.651388300356520400e-01
-3.010794538501282425e-02
-6.708186391201057530e-01
4.094545126385641387e-01
-7.340341272204065071e-01
2.885843235817638908e-01
1.309690202555846783e+00
-9.458539465058639628e-01
1.039509046849707019e+00
7.728291026433358191e-01
-8.851595405800738448e-02
-3.682972029533835290e-01
-1.101597632502534022e-02
1.305617051420724151e+00
-3.973600365693280567e-01
1.325321546693306152e+00
-7.442956768762619413e-02
-8.662748641030395547e-01
9.754961324730776484e-03
9.152707933890899539e-02
-1.478558444815483597e+00
1.713542109624472398e-01
-2.133528429854897546e+00
-7.359760609907975426e-02
2.466878223557560368e-01
1.176429727372912737e+00
3.294116138276350081e-01
-1.605491931496316749e-02
-1.944773842351887883e-01
-8.077684817522085003e-02
8.495980450168862941e-01
-1.260561486670486397e+00
-5.536704357087395278e-01
-5.288490935547013327e-01
-9.496125765966333399e-01
5.855566996429594218e-01
5.885303604210329054e-01
1.813261998860491442e+00
4.070217504444866852e-01
-6.256823218388719576e-01
-2.132100813124464533e-01
1.910487761117835304e-01
1.303174837477849846e-01
8.307856059150187100e-03
2.581574125282547483e-01
3.924383413300162604e-01
-1.455373579850098631e+00
1.735081609418328563e-01
9.410495950397299025e-02
1.007009131185732098e+00
2.327732032451929056e-01
8.786503053928049756e-01
4.477109532243891410e-01
-1.499619799995287051e-01
-1.725893831362133035e-01
5.077028143560471940e-02
3.434392904078186204e-01
2.232142603260735547e-01
-1.024008700470240285e+00
-2.101252739855426765e-01
1.959379660350324404e-01
1.425280115213956589e-01
-1.347169344312637351e+00
-2.993936340677146868e-01
2.643163261884449722e-01
1.135454073652182760e+00
-4.850639905775445682e-01
2.988188956488206371e-01
1.610367453763664081e+00
-3.976544667143078193e-01
-6.720999783811866246e-01
3.770513104227666279e-01
-6.045187320021934152e-01
7.846030255376869322e-03
-8.029616115502837825e-01
3.106686754494981662e-01
4.470128187867832281e-01
-1.861461492350874991e+00
-2.303436185852563711e-01
2.989483419716137402e-01
1.641623923180565159e-01
-8.680834081840880234e-01
-2.185504148510334921e-01
-1.185240760152256767e+00
-5.215316272220532623e-02
3.635978788974042475e-01
-2.690688786007697786e-01
8.920402703847457593e-01
1.053981817028855961e+00
5.091959045967650033e-01
1.210629052987912013e+00
-8.778978105717233360e-01
1.242363138499468889e+00
3.783269134008444001e-01
-4.603681444177457616e-01
-5.294636509655666901e-01
-4.008419919324949232e-01
6.783574599280604023e-01
-9.858993933349761152e-01
-3.341359944119527969e-01
5.821394766288809919e-01
-5.731134786046491181e-01
-7.505634400730338829e-01
1.098104918528488350e+00
2.439708731404629516e-01
8.417196586471165087e-01
-5.911380730736165434e-01
-3.669040355127515252e-01
4.417846105651221933e-01
-2.742565131788145538e-01
1.811425370563430337e-01
-4.723500295612927946e-01
6.782184371947244661e-02
3.361360376133414735e-02
3.948820783998404083e-01
-1.796860448383713060e-01
-5.420368621273596865e-01
-6.033980340787525876e-01
1.346049675476679308e+00
-1.468057440796581292e-01
6.642274170316772031e-01
3.394914145206537892e-01
1.124122560085155098e-01
8.094456068347217759e-01
-3.770734456345505303e-01
-4.358512512435482877e-01
-8.930518950297239300e-01
-8.396258473386849497e-01
4.703218606991892980e-01
-3.652520551748146271e-01
-3.545470027322565332e-01
6.495913121680029212e-01
3.498866003141850034e-01
5.410126145836579026e-01
9.011065810553786637e-02
6.076730530523744012e-01
6.256833053965596969e-01
3.374468775669546838e-01
7.911191177290045617e-01
-1.441079534044642785e-01
-4.800817556783726348e-01
-1.138695944669398386e-01
-3.082797640909449299e-01
1.877104116552252011e-01
4.097851119687450638e-01
1.580135334413514392e-01
1.654172556703535468e+00
-1.889764363134391889e-01
5.416354838792392101e-02
-4.957590073103321782e-01
9.067597953995869542e-01
-7.472204674048890105e-01
1.064100219769681388e+00
-3.451389986521974373e-02
-4.238752793227946181e-01
4.956461934994296215e-01
2.060526238750964301e-01
-3.008499942343004219e-01
6.618922620958921366e-01
4.508795419824426221e-01
-8.317495785979778233e-02
4.579786935907736445e-01
1.574226928730857455e+00
1.175629019354605398e-01
4.355155250691324365e-01
1.182598166060866873e+00
-1.487186245791744799e-01
-1.332059703059714995e+00
5.817631638590925469e-01
-1.422491155616635305e+00
-4.051276057097571437e-01
7.002360047833166012e-01
-3.731477784421154964e-01
1.124153090051936532e+00
7.413380135492150247e-01
1.931243779880575384e-01
1.348667338937352023e+00
6.885181863321300222e-01
-2.325396487937618495e-01
-1.123285351513321206e+00
1.315492275129953592e-02
6.563322355449383583e-01
4.397137480787450814e-01
-1.699477727916283709e-01
-1.118783098638211460e+00
-8.985266973709882254e-01
-3.175996228326189996e-01
-2.219917737084007303e-01
7.763394724772948452e-01
-1.092468002297293239e+00
9.518359952493906651e-01
5.274605081044159149e-01
5.557287854165217089e-01
-8.346771149985950933e-01
7.013660715683265323e-01
-1.033855772416522045e-01
1.460324054841736885e+00
-1.832121265662454146e-01
-3.718619651798225068e-01
1.172183034117677103e+00
-4.364983298960065650e-01
-7.252839655344150982e-02
-4.887288102362763453e-02
3.688562452358218335e-02
-1.156412520025626445e-01
1.829391411976754589e-01
5.488195121058436765e-01
-5.291237078143856687e-01
-3.935531074366097615e-01
-1.199672648452869250e+00
-1.881160781408180771e+00
1.308212787548913847e-01
1.197811957990923548e-01
-1.549973325394085610e-01
5.455091642106221217e-01
3.655633591624558865e-02
-1.572492861800020569e-01
3.306892111686335345e-01
1.229759507541224595e-01
4.312849118747581478e-01
9.869944229249203449e-01
7.390858758685525665e-01
3.599958989626378392e-01
-1.947138076619165936e-01
-1.008951229123839166e+00
7.960326376878644750e-01
-1.452427193340988243e-03
1.030976342744862384e+00
-9.099156355811431895e-01
4.842485162567067847e-01
1.648378662414433204e+00
-6.802416921807302730e-01
-9.116615565054102532e-01
-4.942188165504490249e-01
-3.370868330868740936e-01
7.226105451183388872e-01
-5.862000161830128731e-01
-4.274251433681430790e-03
-8.040626827853309955e-01
5.086128276498069756e-01
-6.980083244980639368e-02
1.035275080057459079e-01
1.052937053981927829e+00
4.671890669212447889e-01
-2.856108771096743659e-01
-1.281423297242435533e-01
-5.447516314511713365e-01
-1.360773035794626828e+00
-7.707138871791514578e-01
-8.957975712585788397e-01
-1.017278199272938277e+00
-1.178155532933053973e+00
8.377529163178339955e-01
2.090355893951511557e-01
-4.066981449851735375e-01
1.580099451726889315e-02
8.193231430128402604e-01
-4.714939428775756225e-01
4.994390042774899952e-01
2.784289075464261853e-01
2.292614191434427795e-01
7.526432632568359760e-02
6.144761543071149967e-01
-3.112925651239814573e-03
1.539558084989846587e-01
-3.310823113141493357e-01
-2.976782965106896661e-01
-1.458999143936925424e-01
-4.321611869766855407e-01
-4.507639657138461931e-01
6.820250428881006188e-01
-2.263896927511314106e-01
1.203881344284395194e+00
-8.058710625652472093e-01
2.830095775811511949e-01
-1.778623501372080806e-01
1.351455558105407295e+00
-1.346957410098866270e-01
-6.286837414218400255e-01
-1.052007295579853868e-01
1.084044363106885012e+00
-1.550990296687224101e-01
2.738895538620123582e-01
2.319930320055122452e-01
-1.128851209130101285e+00
5.498358346680192188e-01
6.646593277381674936e-01
-7.100291878228747189e-01
-9.138040874886186327e-01
4.936048718133778657e-01
8.636189445497544082e-03
3.973242474458500428e-01
-1.010021307366609777e-01
-4.764733943500218949e-01
-8.303983124232542368e-01
5.079714067652305598e-01
1.354781538182128653e+00
-4.229528552718534451e-01
-2.554453315105494893e-01
-4.004651591037533542e-01
-6.438997602072904503e-02
6.148933148366448886e-01
1.993691694409092108e-01
1.369990746342150345e+00
-2.288034609843689060e-01
-2.562888643497852614e-01
-3.492661769400870475e-01
-2.147478363534555124e-01
-3.320353500085708176e-01
2.933264997890686621e-01
5.446762522393938655e-01
-1.079106237649223310e+00
-1.543327211958873957e-01
-1.919009936634024305e+00
-1.072892847990571052e+00
2.022119052146971740e-01
-6.742650727449728265e-02
-3.634139242951913706e-01
3.985284307331142806e-01
2.064910146262661783e-01
-1.437157377903489075e-01
8.398704586333005651e-01
2.013413862072101490e-01
-8.391640067635601774e-01
8.181495325340969460e-01
2.745229186203956284e-01
-9.806317651943543545e-01
2.106708458191552946e-01
-6.266286680753820892e-01
2.761019792318273880e-01
1.207984804323902095e+00
-1.461022941042351697e-01
-1.900092462722760833e-01
-1.482438732762701328e+00
9.802805039425779299e-01
7.687329906923229261e-02
4.785904488911241206e-02
7.774053867214885116e-01
1.175375942170309163e+00
-9.884716401039992384e-01
-6.523518680110195200e-01
5.571881984127943221e-01
2.539148199356894842e-01
1.237650227952258764e+00
1.559834475433379275e+00
-3.272172929350157800e-01
4.635121790568985656e-02
3.930701803128001659e-01
4.722786876518715315e-01
-1.690476098883398892e-01
1.157856994648582383e+00
-8.173415329259853257e-02
-4.330431392398803592e-03
4.840374781951850003e-01
9.354878860034487875e-01
-8.326050744552112581e-01
-3.660236031097148790e-01
-3.725623804928904770e-01
3.176253344777985044e-01
2.461702058849922214e-01
-2.712926228553388386e-01
2.136613537468448065e-01
3.349852829286968370e-01
6.151364553546842528e-02
-2.992211352074687913e-01
-1.124798966644665832e+00
-4.712181069149137813e-01
5.106898777290063141e-01
7.254917128932952819e-02
-4.083131763711449480e-01
-2.727118119118511208e-01
2.889646093649123060e-01
8.534880537235373099e-01
3.842691895432905347e-01
-2.901290462834541506e-01
6.410020679535066712e-02
-9.530425430043836243e-01
-4.254446846266255466e-01
5.061549676781524898e-01
1.034426398083395648e+00
-3.690831348484790997e-01
-4.967711496571021734e-01
1.050398451074262551e-01
-7.087791402342695779e-01
-7.782608473584400333e-01
1.471225858396215391e-01
-8.958565008804968421e-01
-1.437379428315499474e-01
8.236293811608808024e-02
4.952654728163593534e-01
-8.530561883688910774e-01
2.916000913305183961e-01
1.459286781133719124e+00
-3.622593794083462382e-01
-8.434768291187815237e-01
1.804212047140404118e-01
1.109694841751169392e+00
6.413709672803609152e-01
-6.207756198378526769e-01
8.035308756716480483e-02
-8.688362780919407502e-01
-1.124943147736159332e+00
-1.386459661447279501e+00
-1.060148174596530768e-01
2.485795538048696240e-02
2.733452667839371131e-01
-3.958279195720901256e-01
-3.107764315237167008e-01
-6.022811489712440181e-02
2.368570436275690416e-01
-2.003820403835850361e-01
6.898435259607779146e-01
-3.305709074936976632e-01
2.865250354714564129e-01
4.033062388131372078e-01
-3.089948271354936438e-02
-7.760539791684346600e-01
2.019270234616106774e-01
8.878642151204287902e-01
-3.118101554581951818e-01
1.586752663563472387e-01
-7.238939302311960811e-01
-7.451226831705517473e-01
-6.032749384771527446e-01
2.622230230750536295e-01
1.843084590644694098e-01
5.244432635758243810e-01
-2.869727500784375884e-01
2.506928400518397271e-01
-6.476609450666390710e-01
-7.885102944163350225e-01
-3.577143136106590848e-01
1.502690346041846814e+00
-3.451112167117361684e-01
-7.869295836073417760e-01
1.329447339029879771e+00
7.901499646502705421e-01
-1.052369485222769852e+00
3.392708375503643015e-01
-8.081936517684753518e-01
-8.070072799074322345e-02
1.327896946107260501e+00
-7.774624408178442136e-01
1.059380558067098299e+00
-1.033362574964906244e+00
-7.768825407208702627e-01
7.265601047149952141e-01
3.945469323152686059e-01
1.111173589470507983e-01
8.357837729903336843e-01
5.069688698601441113e-01
-7.094272127433084441e-01
-6.188545907909362986e-01
5.540298259211734466e-01
-4.144765799429140363e-01
-8.200780331681389868e-02
5.647713775529558111e-01
-3.077868187883455731e-01
-5.775974676319359791e-01
2.400841430270110322e-01
5.935601115948221373e-01
-7.807006185585846358e-02
-5.616332478178011345e-02
5.975575439438177150e-02
5.446611501485859597e-02
-8.273741047876803645e-01
-5.009965271940348686e-01
-6.451063107661358931e-02
-2.269580268236395248e-01
-3.682137153500653071e-01
-5.460131395613835315e-01
-4.937465317293887046e-01
-2.364696932513561833e+00
3.032733871045455998e-01
1.562732627268591801e-01
-6.602987081310258688e-01
-5.332355947690536890e-01
1.308109981104933484e+00
1.864710822382504851e-01
1.400490039213955207e+00
-1.185084997366866455e-01
2.037923453273641494e-01
1.561252072050158257e-01
-5.630572888271764276e-01
2.178404613370107157e+00
-8.443302962242410503e-01
-8.006669599085327604e-01
-6.477324571622203875e-01
9.290847733811131715e-01
-9.402234646402908291e-01
6.856224690489367557e-01
-5.981986185612553353e-01
-8.245724369719757973e-01
-5.958505390069694929e-01
2.950628571589642424e-01
-3.074644867892073474e-01
-5.799588233381970381e-01
1.693270181887228110e-01
3.525371096028027118e-01
-4.638254137219677276e-01
-7.437863375954834044e-02
1.453638099976956866e-01
-6.230524911050296932e-01
-8.590467783670963087e-02
-6.497687006979502300e-03
-1.063019807819058471e+00
1.454352550974820080e+00
-4.198685430957427855e-01
4.137609569179415692e-01
-8.694627695144608870e-01
-3.560246770409739581e-01
2.327534118637171190e-01
-6.334993610648553819e-01
-5.608242770666393984e-02
-1.161738461008315682e+00
-1.410591222527989297e-01
-6.110344239437244251e-01
4.665983258505446152e-01
-5.837552944118428178e-01
2.074627591109983737e-01
1.115333662593691599e+00
6.196388616268100336e-02
7.523832854176890628e-01
1.415360932024311236e+00
-1.727625384746294124e-01
-1.378457974227868421e+00
1.480663212775191084e+00
2.219102813599468926e-01
1.067984358488676566e+00
4.380574627923300435e-02
-7.231145349046308457e-02
4.895115923978104466e-01
-3.180611767774021992e-01
-4.103790857296975014e-01
-1.920542733290152571e-01
6.186814009602608078e-01
2.216235470651002348e-01
-5.097188678399107165e-01
7.460309562654927618e-01
-3.020002425642963617e-01
-4.524871544911753252e-01
4.901597819004470113e-01
-4.367157785984807084e-01
6.293608689193399552e-01
3.586602177081598120e-01
6.385511534989535276e-01
6.187646595000240168e-01
5.000089781749263995e-01
3.136839672018174735e-02
3.518877188913206444e-01
1.440455706868955854e+00
-2.268767354668477232e-01
7.308190376026789670e-01
2.930016737317970854e-01
1.750274115771250083e-01
-8.490318817523229145e-01
9.365228421625260147e-02
8.173442029292730115e-01
1.336644624401364112e-01
8.665484083664432013e-01
8.218980842059500080e-01
-1.087773988158105887e+00
-1.003942538395101503e+00
-1.168150143143079855e+00
2.804635582068778277e+00
-4.553659222205462820e-01
7.458278081823757621e-02
3.452884933880829843e-01
2.062533776341613834e+00
-6.858208683635064196e-02
-7.450019750913390304e-01
-9.559872192890555009e-01
-5.389753379065944650e-01
-6.320996136407666111e-01
-9.239588675347404356e-01
7.439518146648517183e-01
1.785536092374112038e-01
-3.504825135922304269e-01
-1.260818966362132976e+00
1.889414665796756321e+00
-1.170642766524937262e+00
-5.245932267767912105e-01
-3.508193903864837981e-01
3.153275158077555318e-01
-4.538672384181030584e-01
-4.750456956223481075e-02
6.686891117610334057e-01
-1.015850709486525449e-01
8.455141799983283413e-01
-4.747314263599428097e-02
-4.124396406764895273e-01
-3.964205200801607099e-02
6.780163707634173642e-01
3.138925730108295675e-01
2.873424254396776401e-01
-7.831899655968332929e-01
-1.462641197911077884e-01
1.115545212088687510e+00
7.044601391783995581e-01
-5.141484339736827058e-01
-6.126647926262611676e-01
-1.693129626330759918e-01
2.458855922118908799e-01
1.228472798653014619e+00
-1.477942664109823667e+00
-2.362005162000766767e-01
6.939840528886753734e-01
1.942235683766361520e-01
1.136383799966446118e-01
-2.443134325925809813e-01
1.130366306522538444e+00
3.379406478441134842e-01
-4.512399511827624443e-01
8.362799716557139940e-01
2.722590398947498658e-01
3.535768147242243087e-01
3.735083141788114736e-01
7.084134944779333365e-01
-1.371920572372875569e-02
1.785710505638725687e-01
1.332232022420731798e-01
8.115493651207429382e-01
-2.804532861636557795e-01
7.712170126860258268e-01
-1.120584566171511476e+00
1.564880958250154941e-01
-2.794570548640000207e-01
-2.908907154212204138e-01
5.927958385541927111e-01
3.544309841307768938e-02
5.658986257320924862e-02
-1.402002612741424792e-01
-1.231729136698653804e+00
3.404718027239912459e-01
-6.801736773850160234e-02
3.993877768591930222e-01
1.025120023722899010e+00
-3.384006871879847722e-01
-1.400884104060605706e+00
8.999169657827329472e-01
1.373479692619141712e+00
-3.520964052552928436e-01
8.835744513034415881e-02
1.959933762257440870e-01
2.468085152658430204e-01
5.449019246421389351e-01
-6.043833258604430769e-01
2.117043356692585476e+00
-2.572038018674306370e-01
-5.962051685980183091e-01
-2.138912993052999312e-01
-6.242237818945891581e-01
-4.630094241443498682e-01
-4.784602402551824119e-02
8.495878038777163188e-02
3.660520800064145375e-01
1.411388817688344899e-01
4.109063033166275858e-01
1.548415964107810738e-01
-9.256233761524489401e-01
6.094921580829240071e-01
2.501920104362050923e-01
-1.238444089968191303e-01
3.454933670107813715e-01
1.137411189176338766e+00
-1.694679430522120001e+00
4.004019199543037422e-01
-4.072184677333919867e-01
-6.923444289336050383e-02
7.192342085523216744e-01
2.440323498655310175e-01
5.859971645012033159e-01
-9.581863021610823039e-02
-7.278472274391571961e-01
5.037450969782240051e-01
1.019854571352942774e+00
2.700206619001277453e-01
4.120223327585917361e-01
6.093667465036053388e-01
3.448188776903619024e-01
1.311734353516721185e+00
-4.757169049629368929e-01
-5.190726081095562439e-01
1.120575082618887386e+00
-4.532015493503117609e-01
4.241643176927493153e-01
1.227526809076922243e+00
6.088455166654154205e-01
1.133790824170389788e-01
-2.584577827116751880e-02
1.101826112731022489e+00
6.661825281887571171e-01
-2.081825971618921134e+00
-3.192492427305365088e-01
-3.850514857461688756e-01
4.603983977701274766e-01
1.626501288195746908e-01
2.005627675354591855e+00
-2.561030225927000137e-01
4.883471082812156916e-01
-2.021830909380562424e+00
6.322213444187007036e-01
1.899979226163587054e+00
9.039464039726319289e-01
-1.049253280869358207e+00
-7.200170251342967731e-01
3.727776144181965123e-01
-4.678139192169858962e-01
-7.855179243852252746e-01
-7.170890464731372038e-02
-1.101515246824865679e+00
1.687824007472629451e-01
8.427816903489866451e-01
-1.048807028046529810e+00
-3.369009776187864569e-01
-7.922788447745525708e-01
3.424364856484013453e-01
-8.682575556059102251e-01
-9.128923661150207813e-01
8.036446657152861439e-01
-7.457475873638305108e-01
5.764308982867791253e-02
-9.107783853568488519e-01
-2.491124782924416525e-01
8.604580500074946459e-01
-2.723383042135175680e-01
5.382665053139478184e-01
1.098041786454639901e-01
4.049579667874747546e-01
1.467392005765917884e-01
5.207947400736634425e-01
4.705944999834604237e-01
-1.289774336533682231e+00
-1.391167158767778744e+00
-4.324611472056452133e-01
-5.899779094982840477e-02
8.802897641696573183e-01
-2.630894569573310471e-01
-3.403708759502965808e-02
-1.175545027932543840e-02
-2.524113201302865539e-01
-7.638262215382227160e-02
1.145498351170012308e-01
-6.057999188815657576e-02
5.896663069831186155e-01
1.218373044287468371e-01
-1.650962736091761973e-01
1.893612768498962873e-01
4.621259395436436712e-01
-9.418635766090643902e-02
-3.801578145005988785e-01
2.896760203553990776e-01
6.406201480737178100e-01
1.902930956843860155e-01
5.868299253376006996e-01
2.419427955759495541e-02
7.417582532677431395e-01
5.972456640426436758e-01
-1.543357676785698906e+00
-2.606199872048486910e-02
7.394266691993220397e-02
-1.207239709128877236e-01
1.522035967839661108e+00
-1.164001734360251339e+00
-5.178041429860340272e-02
1.427954565832548095e+00
7.587109254870758601e-01
-5.471298739901633290e-01
-1.286820119813138485e-01
-1.420734927623260591e-01
-3.924838653404427724e-02
-6.261259341208312845e-01
1.677183244399432560e+00
-7.870661838246437725e-01
1.700500402023006341e-01
1.381932853914410453e-01
-1.038886139200466241e+00
7.353670516748309627e-01
3.238415442264335198e-01
-3.475766435623308670e-01
-5.358196925270757027e-02
7.082388607079360687e-01
-3.281481754882665247e-01
3.326451887261885343e-01
3.852400517342654540e-01
2.910363703142405944e-02
3.706355896199947653e-01
4.463577113241894434e-01
-2.907656844642355631e-01
-2.757745676886360076e-01
-1.596679355216348573e-01
3.496748170698058544e-01
4.817074241576538851e-01
8.595663518095140176e-01
6.181292822508035467e-01
-5.814896007840797409e-04
6.307223813900818543e-01
6.036537502921465181e-01
6.711250258124569212e-01
4.064556697432358257e-01
-6.907546265026953680e-01
-2.044809765961647097e-01
-2.383751152326361589e-01
8.590826280496007827e-01
8.831772264225848934e-01
-1.828269000592053217e+00
-1.719042770176970603e+00
-1.153667755183563681e+00
-5.687506532454645880e-01
3.049187147521638663e-01
1.578041688530749664e-01
3.070964156921586197e-01
2.370532369948169515e-02
-3.529611314523600774e-02
7.018359543168566361e-01
-1.086927571996649355e+00
-7.143879953915224235e-01
-5.743981784698937165e-01
-1.268114711531170835e-01
5.625913519018644893e-01
-6.215637982191211108e-01
5.554358648698419776e-01
2.975297135539080595e-01
-7.859539271120430382e-01
1.077459746277801278e+00
7.073683726080270961e-01
4.882751904692844702e-01
-4.625844032631848401e-01
-1.531482196251659211e-01
-5.177451190043427798e-02
5.659632412141893942e-01
4.120837481767704591e-01
7.012855018021534326e-01
-2.019533771739091821e-01
-6.110112699747854981e-01
-1.138772232738987644e-01
-4.488021341801951003e-01
-1.056682837070254566e+00
2.490484374453857952e-02
-1.209976060778670703e+00
-2.653511958221442257e-01
3.611985597127155279e-01
3.282453751602396608e-01
-5.518317075059229193e-01
-8.129214996846662045e-02
1.227552650829001890e-01
-3.718149892871028261e-02
2.510831494567639099e-01
-5.420954608049741719e-01
6.117902783725754912e-01
9.476649896384173877e-01
7.271531151531830384e-01
8.943791792117769535e-02
-2.501219739454207946e-01
9.806684396330298537e-01
1.602835033536500475e-01
-3.731751527127645796e-01
-5.896362306597394826e-02
4.759772301696080232e-02
-4.395137009354268542e-01
1.158664428877772545e-01
-4.992054705457246166e-01
-3.430778368521214539e-01
6.520813772445302470e-02
-9.893113452656199236e-01
1.147567034689919385e+00
3.853507248357840309e-02
-6.691125988497617638e-02
-1.208008245716427065e-02
-4.034064253102596642e-01
1.680698271351828144e+00
-7.494859401666829068e-01
-4.060166934206395073e-01
-1.595826853512859189e-02
-1.636859243157662847e-01
-9.585901459450293371e-01
-2.446257456000782149e-01
2.115906291175718712e-01
2.557169984959832831e-01
1.214240525997052345e-01
1.592088586438273334e-01
-2.251874306491771227e-01
2.293911148384590315e-01
-3.679419207450677076e-01
3.656420542525309347e-01
-7.735669613015350166e-02
-1.481853130743610025e-01
2.706289431969470805e-01
-9.604948177252498054e-01
3.797124887311002506e-01
-6.663154055743123472e-01
-2.812667491543765497e-01
-3.604229459704165750e-01
2.901168973640368964e-01
5.152729389536361837e-02
-9.156201952339257932e-01
-7.190007725635338964e-02
-6.816711275165689976e-01
4.423884975815793874e-01
-5.179619313816388182e-01
3.909238911313385745e-01
-3.142886230879504694e-01
-1.513747455735018121e+00
5.526401622652370449e-01
-4.732991810114676179e-01
4.924924941571262593e-02
-2.029389195282957914e-01
3.404690501043154405e-01
-2.866824423143494727e-01
-7.446219645305051094e-01
4.690785467359276373e-02
-1.085155710374673621e+00
3.160751436718238772e-01
8.024541417294663859e-01
9.119174343720658493e-01
-7.091896498327977527e-01
-4.035875354249041091e-03
2.299948633491484262e-01
-4.050383108128867704e-01
1.411022827643070965e+00
-1.536343461885540107e-01
-6.928042002254775067e-02
1.384679864276276706e-01
-5.458319694689955925e-01
-2.909006517898703459e-01
-6.497333909844832389e-01
1.478669968151071767e-01
5.256558301302920455e-01
-4.675605228400979141e-01
-4.525949217151366000e-01
-8.024059570141118813e-01
-3.143426935093183161e-01
2.304866622603980730e-02
-7.269446625045805632e-02
7.326195508476074369e-01
8.041529378742626188e-02
2.362323901228046141e-01
4.228513237557830484e-01
1.758448752255363234e-01
-7.614493161825057754e-01
2.329452564409097426e-01
-1.853278031779274082e-01
3.336227625487648840e-01
-1.029070565615765265e+00
-2.848366033078002235e-02
-9.174388745107899812e-01
5.794888459559749405e-01
-6.324337906577170987e-01
8.474107757165286747e-01
3.022654912950457629e-01
-5.088678142080771405e-01
8.362218844366031689e-02
-4.331359817641311505e-01
1.782175788481816125e+00
-2.064662627667449346e+00
-6.367965059725202437e-01
5.598629102284286008e-01
-1.098056168031202873e+00
2.625575236754235098e-02
-5.617770434359662390e-01
-1.539482507535160638e-01
3.212939376612226061e-01
-3.911170972314499394e-01
-1.823388470079859935e+00
9.230938029896634811e-03
2.843131377277102190e-01
-9.683011573141598882e-01
-6.165802771935763316e-03
-7.819993000731640942e-01
-3.249831568481603705e-02
-5.986994152915271761e-02
-1.202440849813163348e-02
-4.816713248040624951e-01
-4.081377726034979836e-01
4.220493462884264413e-02
1.002615432951164398e-01
-6.967406572044704260e-01
-9.337744141068901049e-01
7.799091559824919972e-01
-9.877759406961644784e-02
-2.864983874261441965e-01
-4.318286931160423281e-01
4.907543494391403138e-02
-2.759216447566507635e-01
7.679407949009353640e-02
6.473136069300466922e-01
3.637682854845506464e-01
6.663390453025480609e-02
4.655264358682881243e-01
6.533814908032137270e-01
5.671582312956049421e-01
-1.558386809834722553e-01
3.459594956077468586e-01
3.081944119599577814e-01
-3.214821708335063866e-02
-4.631766752745802296e-01
-7.967122878132982811e-01
-1.177714658702674999e+00
-1.068421800398403620e+00
7.373264935652212859e-01
-3.115562026137634333e-01
1.170936679451952234e+00
-1.486495825114712455e+00
-4.935547293569974014e-01
-3.255671029787265969e-02
-2.807645276849934229e-02
-5.214192910022886762e-01
-3.491955868074487768e-01
-3.205249018982578302e-01
-3.326897783161612554e-01
-1.252089402576745947e+00
3.006192637020978498e-01
3.601195287345905216e-01
6.919926254279527011e-01
4.150689261909289440e-01
-7.005019990981778966e-01
2.748294554576049542e-01
-2.271459330717010006e-02
-1.284351631398030769e-01
-6.191346621734292177e-02
8.310685985339901771e-01
2.129249255807244001e+00
-1.200261764899476224e+00
3.759461637683882140e-02
-1.527363175035479470e+00
-3.048130689909658853e-01
2.418890306765114073e-01
1.039501319301476823e+00
-1.303818116949405859e+00
-4.347336076219988632e-01
4.816498154421292033e-01
-2.348900560588867703e-01
5.710698900019809399e-01
-4.466488228505110514e-01
1.064761948707451111e+00
-1.220193009791778471e-01
2.253280793874586685e+00
-1.446668093361781482e-01
-1.324083901005278507e-01
1.656842009537037086e+00
-1.995466838821899902e-01
2.661031818331432985e-01
2.657023283730781671e-01
-1.640715159648034271e+00
8.128749592204247421e-01
2.830397390645421618e-01
4.531279827632681556e-01
-3.296142291015725645e-01
3.325749299624328192e-01
-7.499748949857943936e-01
-3.903751914434938630e-01
6.058220601680999184e-01
4.609869599821480590e-01
-1.541505792477260439e-01
-7.206507514185848950e-02
-1.082038435900448903e+00
9.558490435355992965e-02
1.195471232111470217e+00
-1.818243182558241799e-01
1.196618092038970599e-01
1.216771593297500953e+00
1.114320165359059978e+00
7.492999278937668706e-01
7.375190932402719834e-01
-5.897941075661916610e-02
-4.150130906237567974e-01
1.118665116543048565e+00
-7.634818579370971081e-01
-2.642128652346340534e-01
1.097170880753677302e-01
-2.940388628847945274e-01
-1.016634321184173295e+00
-4.173402989960335874e-01
-1.781484763389539205e-01
2.301087241162814157e-01
2.283272704223968219e+00
8.368855390565997920e-01
-7.357412735588764185e-01
-2.719657096612426717e-02
1.146575522377542289e-01
2.183336130080279602e+00
-2.731251362868060140e-01
-1.279659692599298682e-01
1.353843509204264439e-01
-5.108410965240544055e-01
-2.134339067803247281e-01
-1.947050806992021155e-01
7.722872695819217315e-01
3.778947261852928508e-01
4.757832223086714274e-01
2.075551358132006641e+00
1.579761238458029515e-01
-3.775027339942240157e-01
2.805052949499334258e-01
-1.215589429900849477e-01
-7.888523113846257484e-02
6.251523077446572429e-01
-4.202109279637930017e-01
1.896949863053237761e-01
-3.201199133491984261e-01
7.067907716388255324e-01
2.546530772280799493e-01
6.103537043613892488e-01
2.581894946935248680e-01
1.060981441306778628e-01
1.575096331130615424e-02
-2.451006213260485955e-01
3.868708725010132632e-01
3.300516443912158149e-01
-2.427040169735214525e-02
8.425831073586043107e-01
4.072400479613659252e-01
1.906080710067219741e-01
-1.973216715839075375e-01
-1.048885801528011363e+00
4.292897295653396172e-01
3.568045783553258632e-02
1.762119527201413405e+00
-9.827853243513540171e-03
-5.356908545694682999e-01
1.942457397689812543e-02
-5.549502444936518231e-01
-4.491355236069128343e-01
5.759261262953268012e-01
-3.395580642086029610e-01
-7.692220157673326231e-01
4.287109953722304523e-01
-6.860867959530031479e-02
3.096172386586210079e-02
1.386777604058906377e+00
-4.523784458599724445e-01
8.683324820696047830e-01
1.407221938235054370e+00
3.914990619952753992e-01
-2.014628848463982380e-01
-5.324126271119081766e-01
-9.325773214588282123e-01
6.078603590159066261e-01
2.076645086988007649e-02
1.216039937880224020e+00
8.840651000119036373e-01
-4.066947613479574009e-02
-2.867317588400485340e-01
3.886315314584682379e-01
-1.597595726409266614e+00
-7.389344916022068110e-01
7.359038983995231931e-01
-4.831253317738104514e-01
-4.119956916751364440e-01
7.049841264192835411e-04
-4.611258525846657630e-01
-2.330650822278985679e-01
-1.941823668066253727e-01
-2.142030988928775859e-01
-2.969840390088447357e-01
-3.373261471424338076e-02
-7.793671500823035059e-02
1.953931114338850028e+00
3.471683971940340285e-01
5.538632323975247740e-01
-7.282754402155698914e-01
2.707549916195612916e-01
1.106435933687167417e+00
1.896574507260343490e-01
3.068353292854425485e-01
-4.135071804928391881e-01
-3.624763921315945492e-01
7.392216303378491837e-02
-2.505929037736707166e-01
1.275238286114051434e+00
5.243743043470352472e-01
1.784034260071242772e-01
1.455159576853314873e-01
-4.157548187361944647e-01
3.303111814729549067e-01
1.071505422099358618e-02
1.318699699973584050e+00
-4.139039936599840930e-01
-7.699726610474365296e-02
7.126890955581502429e-02
-4.539702326252688103e-01
8.130190426862411446e-01
9.800992404097888522e-02
5.179561511309276334e-01
3.789530957918068599e-01
5.484670712634247547e-01
-7.929802889623376316e-01
-5.431436036387572441e-01
3.759138371454696093e-01
-1.161915977475669104e+00
2.426025090117658600e-01
-1.010380377939249952e+00
-6.040840398913349674e-01
-5.191336315501149379e-01
-2.364345563880694279e-01
1.211356218517599115e-01
-1.162174948283751230e-01
-1.084426889993327592e+00
1.798955939991566111e-01
-5.438624398890006262e-01
6.486631597336103283e-01
3.828355409563134470e-01
-4.599743829164829045e-01
-1.198784470418261527e+00
1.370077427259380975e+00
1.082640203319278904e-01
1.107826150451950209e+00
9.746615501443499641e-01
-2.978673413453860053e-01
-2.123544238684436647e-01
6.774790167798047102e-01
-5.571618718536380799e-01
3.379560493736757931e-01
1.759420816576517943e-02
-5.545886609736114803e-01
3.923625468332578858e-01
-1.082337881703810401e-01
1.149824015295272339e+00
6.460345438779081517e-01
4.003939504235630165e-01
-1.915182193932711552e-01
2.816159886049814376e-01
9.154918638207255599e-01
1.038897148593778130e-01
-7.407119401336309528e-01
5.852430666933007286e-01
6.394072796032140849e-02
7.022689411286426875e-01
-5.582571678169103713e-01
1.077704833097157533e-01
-5.705942962557132292e-01
-7.162958133166698049e-01
-2.547258879221242500e-01
7.448011437183038597e-02
1.276980497815648707e+00
-5.215240497168588396e-01
-4.206818071573222295e-01
-4.605667500995328512e-01
6.488296644934593571e-01
3.472170929433502917e-01
1.307493565172796579e+00
-8.591560578876056287e-03
-5.993713159619750153e-01
-1.751380855884290544e-01
-3.021551627607959034e-01
-7.625940065710622440e-01
8.707636099573956567e-01
-2.871501843309743895e-01
-1.509235951186392866e-01
5.497601130509373046e-01
-1.104126696656206663e+00
-1.861081126690876442e+00
2.062421256559142102e-01
5.471869105773705666e-01
-2.442062614810359689e-01
-3.051337504715702642e-01
-8.180517972721440545e-01
1.235285445748897093e-01
6.145347190050405306e-01
-8.576741269873409124e-01
7.183317731138079143e-01
-1.976500623752219243e-01
3.501118285795842278e-01
6.207568176566138352e-01
-2.381588575890818404e-01
-1.401320465381849178e+00
-2.430700514789481681e-01
-3.555399287174434986e-01
8.246487720656399123e-01
1.306043345921462873e+00
6.524753765413978668e-01
8.022033488518950928e-02
-8.115318261987836124e-02
-2.805587450817894624e-01
1.783868554208117629e+00
-2.821640107781746565e-01
6.227565776541756914e-01
-3.225143526575591224e-01
-4.186022542129236301e-01
1.937403872711443154e-01
6.407099037656800722e-02
4.671204434029059271e-01
8.704278741654696283e-01
3.807029313399072912e-01
-1.944443884879727413e+00
-1.350914739443475066e+00
-2.022095750296324101e-01
5.331723947399011898e-01
2.525647884219152095e-01
-3.683222582734401174e-01
1.113717578680978981e+00
5.147138777770267071e-01
2.731985011245303685e-01
-3.278447037838400635e-01
-9.751805254511342058e-02
4.076433620841420913e-01
-8.800941632981166274e-01
-1.161910001490016109e+00
-4.343405163544153402e-02
-9.681803808841753511e-01
7.651618560774359201e-02
2.753387920521216947e-01
-6.961751122872406050e-02
-7.246725298976952612e-01
-5.044860404324844061e-02
1.554618340175834668e+00
-3.296529355606834244e-01
8.612477067940136344e-01
-7.609751129144785020e-01
-1.981625337811686594e-01
4.920743591478445311e-01
4.076500028719637903e-01
-2.454105244859853541e-01
-1.317917400746784207e+00
8.077385995762513815e-01
-2.056840340503361952e-01
-7.585090226540065483e-01
-1.298396462690690090e+00
3.746614329259196352e-01
-7.456210367385490700e-01
-4.846693307527116801e-01
2.360694240567635938e-01
7.559690172527688823e-02
5.895309038137404034e-01
2.175636362403973179e-01
6.013277541747473753e-01
8.822459635019549995e-02
6.401024626734177492e-01
7.411701657939944177e-01
-2.218978187930475132e-01
8.180138554808293883e-01
-2.628530680176812684e-01
-3.161322683664385957e-01
2.308829764196274059e-01
-2.347518006790992873e-01
-1.084331663823629555e+00
-1.436412346667346740e-01
2.586955754268459584e-01
-7.852169914108496629e-01
-5.632369098475120683e-01
-9.889342252176012149e-01
-1.318162436708950891e-01
-6.089405733931667619e-01
1.194925681728804090e+00
-7.660946175956523385e-01
-4.580777218133288975e-01
-3.359358789184129224e-01
-3.267842560329331514e-02
-4.540934708537462949e-01
-3.679100073484051214e-01
-1.000377523263106028e+00
8.408397725221722352e-01
1.679436597455461477e-01
-1.136569936234081091e+00
-4.032597445937643466e-01
9.063398822047021852e-01
2.576921359662426858e-01
-5.641139271700943425e-01
1.347161952819169173e-01
1.121195572925239997e-01
-4.379135006385651008e-02
-8.153965819450145203e-01
-7.067966795819893289e-01
-7.610933027698167930e-01
7.801705272909502664e-01
1.786567255218951544e-02
3.845381280929041079e-01
-1.581493370743355942e-01
1.166817141318167161e-01
-4.391076319374764836e-01
5.656101198069144464e-01
2.272917519934652963e-01
-9.715264505231203662e-01
9.655527613912015528e-02
2.091984381731112619e-01
2.862610276863312153e-01
-7.918716869643849243e-01
6.563145912925417713e-01
3.877408402257377373e-01
5.536722443235110314e-01
1.746919146441037463e-01
-2.245275764761011650e-01
1.286218021340199309e-02
2.999120902121640286e-01
-3.919445943586021830e-01
1.942685256847687114e-01
-6.954145872357643254e-01
2.018315416007264163e-01
1.904166310165949505e-01
-2.442668190854822008e-01
5.851344199213030089e-02
-9.386463120725964115e-01
-1.611295315428151298e+00
6.220738439383270979e-01
2.741119264020092094e-02
-1.189521816566139201e+00
4.933631394739100284e-01
9.002934138084057736e-01
-6.557235108805076207e-02
-2.184165436307332342e-01
1.193312160200411975e+00
-7.970904567487805403e-01
-1.337003532412951223e+00
2.272419109684996608e-01
2.993105065675504828e-01
7.833263885350433275e-01
3.352138886554817954e-01
-8.537528423249380882e-01
-3.612372632379500237e-01
6.624481823045478279e-01
5.865820318502162900e-01
4.259412717059980480e-01
-9.130588395274678026e-01
-5.196468871330200967e-01
-4.192253518616377850e-01
5.637497129513048266e-01
2.041539973122570295e+00
7.157379601854531037e-01
-1.051560469530093300e+00
1.822269529078368588e-02
-6.124192398579419994e-02
5.012297849240880954e-01
-3.518976321454629352e-01
-2.655777998880725840e-02
7.429092385413860189e-02
8.503524807689962772e-01
5.346368739044892182e-01
6.746226451884324016e-01
1.635680591586143873e-01
-2.378743351464444322e-01
3.125642816770378696e-01
-6.341825460594833208e-01
9.933205691027419126e-01
-1.334602049977430926e+00
-3.259705536856550845e-01
-5.525891323516632925e-01
5.811665538080831861e-02
-2.752506395531510441e-01
2.666217520380451678e-01
2.221533438640561631e-01
-1.449155558148076950e-01
-5.851409275682353250e-01
4.524858851443472885e-01
6.878258013701102902e-01
-5.048951243220843876e-01
1.075711465997871041e+00
-6.623066212527009000e-01
-2.449116997625293002e-01
7.368986893823239459e-01
2.751356279388274539e-01
-8.126579297597181784e-01
3.258576289471329934e-01
-3.119844344837680028e-01
-1.656806877996945260e-01
-2.083990634301421951e-01
1.175323631794240598e+00
3.017871494359249951e-01
1.358501431115650693e-01
-5.135325309221456802e-01
1.115250725513668772e+00
-9.044058524009213063e-02
-3.119946121924809246e-01
-1.402845616665205075e-01
6.475013704487794231e-01
-4.981706700707601021e-01
7.246432669446815078e-01
1.296486381446725122e+00
4.706439575745041681e-02
-7.562248714262925775e-02
-6.302056564501715696e-01
1.876716109974607694e-02
-7.298812279771471623e-02
5.746088549363524978e-01
-1.993031510046766042e-01
-1.619497344854677334e-01
3.561521710145847952e-01
1.989904209968022530e-01
3.794620206893745129e-02
-2.105815654222082944e-01
4.486240343205348813e-01
-1.118784953548643268e-01
-6.952884043865507069e-01
2.006117020874896295e-01
1.452891981308243874e-01
-7.889033697031251346e-01
-5.029074798161068394e-01
8.246156219519071295e-02
2.019571212099501301e-01
-6.086346640197765057e-01
4.008273091926169984e-01
5.704787634126105011e-01
7.985179842107912318e-01
4.356864720069298924e-01
2.386329178733910261e-01
3.096183990860438273e-01
2.515214348394415600e-01
2.027163478552111708e-01
3.114442249564244314e-01
-2.378861458756252878e-01
5.001508615756158349e-01
9.931089372805557147e-01
-8.573470088684167489e-01
-1.434462747929612370e-01
-1.425682567740373385e-01
-1.150519063898324479e+00
-2.790680886349422574e-02
-5.886828139113627900e-01
9.835133134522364151e-02
8.373685905062511203e-01
-3.471808482608275126e-01
-4.796751986543533186e-01
-6.385708674207662972e-02
1.727227673360299809e-01
2.449449335501526770e-01
2.269550117917278620e-01
2.048390644184893139e-01
-1.473425958398651980e-01
-6.028450807001356493e-01
8.224854129666288038e-01
1.465697318112098468e+00
2.625654020691964852e-01
-1.953531377498890498e-01
2.070705656968966912e-01
5.948492915565037342e-02
6.369732372038043877e-01
-4.836533108677149584e-01
-9.916961759704460144e-01
3.199569180439733040e-01
-6.773220516063951369e-01
1.373111781561963118e-01
-3.203388496143267927e-01
1.766161206881728507e+00
-3.320031361972528572e-01
7.829835655316413900e-01
-1.852019890395430191e-01
-9.021627848002286010e-01
-2.163859294263937860e-01
9.199425215319104732e-01
9.752748112438256456e-01
6.731287974480741898e-01
4.858515596883231646e-01
-1.223263442501923703e-01
-3.788608440321621362e-01
6.259592404248963682e-01
-1.941879256757458316e-01
1.481691127031764088e+00
2.263493133300162607e-01
-3.015293963469015681e-01
7.100632684090592284e-02
3.312682510013774673e-01
1.450578954826629463e+00
1.635945062773913605e-02
-9.428617961599998765e-01
-6.461242215609366291e-01
7.889341424547926529e-01
-8.015873674127910187e-01
-1.035850784871038543e-01
2.586475156505133599e-01
6.131208310962067420e-01
-4.512935849142137856e-01
5.094128797968152655e-01
-5.874371911066034180e-02
7.280805695780797615e-01
-5.724518505832907334e-01
-6.187784008717539530e-01
4.269356172279468176e-01
1.504039583038238703e+00
7.378448442957574738e-01
-1.243161514634192333e+00
2.588336919745081732e-01
1.251144673912802041e+00
-6.698603062623378346e-01
-1.922868072859289512e-01
4.123714207761340345e-01
-4.964830347386446352e-01
9.685926478833681852e-01
3.452737101460441327e-01
1.282824949934557868e-01
-8.025994173283809707e-02
7.024065448330318873e-01
-1.546474484978417330e-01
1.411586101520317105e-01
1.059114802816409906e+00
-9.213483469818397609e-01
-6.708209979677208779e-01
-8.433910075685814300e-01
-6.720137762157135652e-01
-4.600736392399703001e-01
-3.343118240652500628e-01
-1.336549095632332040e+00
-4.014874989865449550e-01
-8.411043407760421253e-02
-7.522795726974306207e-01
-2.379928164938699131e-01
-2.437454734605142559e-01
2.437520246942881386e-03
-9.245297332882179697e-01
1.091376901100610253e+00
2.785547861069744280e-01
5.198507577259511292e-01
-1.224621570507000712e+00
2.803371294424904514e-01
4.692145357736848821e-02
3.165545595620495867e-01
-1.723828972722357689e-02
-1.032292520801966207e+00
6.463358104933181192e-01
3.600166869125284164e-01
8.827860520007664302e-01
-8.243832561941834003e-01
-1.208268997862347760e+00
4.371010862779169948e-01
4.977843738661238415e-01
-4.175378874493547166e-01
1.461428956551409586e+00
7.022043449680075433e-01
-3.701163692575860642e-01
6.883424324596616461e-01
4.532889049607594645e-01
8.613704728546566214e-01
3.973618372922267938e-01
2.866381647018830803e-01
-4.310780614357486717e-01
-1.286122588969423219e+00
6.735980040839926186e-01
-5.998333598543920120e-02
5.077748550406960826e-01
3.184371313957878313e-01
6.120197194450349709e-01
-6.697012227160622500e-01
3.410048924620688870e-01
-1.376925241647710685e-01
-1.092415639876292283e-01
-2.321257478991624323e-01
5.070770666046086061e-01
1.070281876764395124e+00
-6.291840348392557791e-01
8.777516265103357807e-02
-2.289057541112033134e-01
-6.855285900962273526e-01
7.435112168196880145e-01
-3.955542416364982716e-01
6.752694188286684218e-01
2.977621589922803125e-01
-7.010905558078193156e-01
-6.803684636118327855e-01
1.602182462678583552e-03
8.153764640738660197e-02
5.752144296202972296e-01
2.696365242562419606e-01
6.717382661291452228e-01
2.280636790844976780e-02
-5.268080567143607063e-01
-3.063045291531485415e-01
8.996090419452124065e-01
3.250225130326001022e-02
2.838715612577273339e-01
-1.098932825720095874e+00
-4.051981759447595421e-01
1.007502968926067416e-01
-2.118884446631281726e-01
-4.318624994175962462e-02
-2.387653948686382921e-01
9.222611056885686720e-01
-7.669200127646548237e-01
2.154781425358067715e-01
1.098708861606065151e-01
3.155561122997224688e-03
2.440864007858098983e-01
5.949539267625501004e-01
-1.013105323910888034e+00
1.118883929023792634e+00
-2.293934041201854401e-01
-4.625433500139558562e-01
-6.956778520105262320e-01
9.910014462549572301e-01
7.193537120845038269e-01
-5.850116185385101364e-01
-3.979681424403823664e-01
-1.487535214721765198e-01
5.665533913620477424e-01
5.210649040211681182e-01
-5.164093495468584649e-01
6.363947373579185163e-01
-2.836323743122771135e-01
-6.556851002061160338e-01
-5.889801898646280787e-01
-6.302295505914330409e-01
1.127421449750577898e+00
-4.191796326775555914e-01
-3.851161188982825667e-01
-6.432360832762170633e-01
3.301289515185856782e-02
-7.466293874900068461e-01
1.023552707017699070e+00
-2.411956324601951529e-01
4.320283217064903036e-01
-9.792330423296924380e-01
-3.721090980884066424e-01
6.384309803709018460e-01
-3.669528415423190526e-01
-6.123959917863304181e-01
2.758234965129678362e-01
-2.573907014958659589e-01
-3.055118842053704542e-01
-5.187979819355789113e-01
8.623930319293284796e-01
-7.484605020397705477e-01
8.767996125815259445e-01
1.332346856535499890e+00
1.589542817186124779e+00
-2.258533703271000670e-01
-6.852391731575294687e-01
7.149779449164512801e-01
-5.545975361708999074e-01
-6.827973353260033407e-02
3.104148383766319186e-01
-4.882464729174436080e-01
-2.244458658461755129e-01
8.197934805363615851e-01
2.198309682976464785e-01
1.534375929729050181e-01
1.732812444956227105e-01
-5.570644270406357457e-01
-9.085241846048655034e-01
-6.717594223957865651e-01
-1.832680525944400673e-01
9.489300391794329714e-01
3.284923273408045796e-01
-2.870037501715061445e-01
3.923445382510248880e-02
2.047903313284221705e-01
-5.642798177231853618e-01
6.661640925701615978e-03
-6.553226353109441460e-01
-8.544563714363518914e-01
5.572930592279398687e-02
-1.207691273470173465e+00
1.497693263865952584e+00
-4.847985436740820386e-01
-2.905260881380087867e-01
-7.742559021214228121e-01
-7.881401364378524121e-01
-8.488436677674353614e-01
-4.041760985181021559e-01
-3.022210057564028718e-01
-7.014224775615082175e-01
1.119604092922640709e-01
-4.652142972350148398e-01
2.127520161447246649e-01
-6.648070740543033930e-01
1.978513361803454496e-01
-4.086002083745539082e-01
8.314046610426897299e-01
9.876631957873100998e-01
5.500037602261979020e-01
-3.855867567168024257e-01
9.703708382174391911e-01
-1.296564594748407906e+00
-1.827176388888495651e-01
-9.170077687307193193e-02
-6.278581371437539360e-01
2.707716434084629364e-01
1.139337383230182438e-01
3.719809448165490307e-01
-7.905435210203981544e-03
2.577126728386438526e-01
6.114857779641260649e-01
9.730564370490251136e-01
-6.819321444860111658e-02
3.836732236412473407e-01
2.533534368017815730e-01
8.941100147887612870e-01
-9.575180177640352230e-01
6.342699397632917124e-01
6.564013527367246192e-02
1.598009568861155305e+00
-7.212020663237395102e-02
-1.055312856071360050e+00
2.900478319924608139e-01
-3.882241488287691000e-01
8.017988955197027368e-01
8.887274430271145942e-01
7.331359026810964075e-01
-1.354493602957285159e-01
-7.436179873460759815e-01
4.340902153825427767e-01
-7.515600267934250400e-01
8.282135950091427112e-01
-1.469758099332850954e+00
-7.076140107586278427e-01
-6.494675855681128485e-02
1.946649447886441120e+00
4.731005191921663910e-01
8.565197798315496991e-01
-1.602075122722530942e+00
-8.441373049003186857e-01
2.997062448717815464e-01
-5.038781005303814009e-01
-8.440922896704595724e-01
-1.393946689653726256e+00
-7.776884537864058311e-01
-3.473467145472617923e-01
3.138009962677365539e-02
1.440897169272564504e+00
-1.233189727197351537e+00
-2.283129512489549540e-01
1.825171527538543170e+00
5.201016416764423500e-01
-5.650526630007235429e-01
6.002380094111747777e-01
-5.652482830787668444e-01
-5.136542623054580758e-01
5.271373492085944246e-02
9.644086900672148577e-01
-6.984156577946099009e-02
-1.385687335433477330e+00
-4.666718790667798711e-01
-2.268935513286979955e+00
7.905222138253973352e-01
8.486430755904992296e-01
1.325816529371869112e+00
-4.235783855166546097e-01
-1.402068109613169300e-02
1.138038182280829202e+00
-1.474244593384340662e-01
-4.165925986573024153e-01
-6.801195334289633632e-03
1.569205533784306661e-01
-4.564454307609909778e-01
-3.838538684999811545e-01
5.083794211390013640e-01
3.282270179705215618e-02
6.322997076682028705e-01
4.460999702197695482e-01
1.074687747515568281e+00
-6.294780737581004426e-02
5.305964877415947356e-01
5.345820671210368413e-01
1.970702759474335375e-01
7.153370154014657145e-02
-1.249159343157302260e-02
-3.081323251901983418e-01
-2.656023814809428951e-01
4.911373550745089522e-01
-8.463924471925727833e-01
-5.674626298715879091e-01
4.866648897562090292e-01
3.461691393555972884e-01
-5.525588136507657566e-01
-3.844571981498117186e-01
1.027068995839329979e+00
-4.754992336414133325e-01
7.178564403412750483e-01
7.791152147384241555e-01
-5.874336235252559657e-01
1.019681726697268420e+00
4.864176989267146034e-01
8.048580652089829535e-01
-4.916457785984840179e-01
2.882911186829841821e-01
-6.365400415683538649e-01
8.611375665873438612e-01
4.536848908206347897e-02
9.894222523259933455e-01
4.036582352146176333e-01
1.501684361253047939e+00
2.232496223136842817e-01
-1.444965098281928650e+00
4.111578171683606397e-01
3.012525546639353569e-01
-3.247748462580131168e-01
-3.307738361283760753e-01
3.467356883473907136e-01
3.386695187696404097e-01
-1.793237216449554694e+00
1.324623109356969364e-01
7.563232037955474052e-01
-1.645605389774012217e-01
1.019046935222356343e+00
-1.552475569402301137e+00
5.321235995578117439e-01
2.748490503321813216e-01
-3.597412964266346602e-01
-9.574159087543626656e-02
-6.860294198705114699e-01
-2.157332522353478943e-01
8.300390462659090751e-01
-7.878415619135552550e-01
-2.400434972364690611e-01
-6.569084890102914187e-01
5.235861471020337721e-01
1.083451031553248622e-01
6.662452262124511915e-01
-6.410650986613875002e-01
-3.633295042476862302e-01
1.084423489120836193e+00
2.980421216390108929e-01
3.694467861569872280e-01
-2.075120546321689713e-02
6.527393236692834444e-01
-4.219706392551195173e-01
-4.219692971739553156e-01
3.872902774935082504e-01
-1.411173383308294227e+00
-5.626637958838041076e-01
8.602222704130935149e-02
7.413478834635516268e-01
-1.943713815502645659e-02
7.380743100896811071e-02
4.914192897232085855e-01
3.520999165618876603e-01
-8.438275768827951939e-01
-7.864243235127889031e-01
1.368656737838088500e+00
-1.484973170660241204e-01
8.578419710157307865e-01
-3.488194542155241828e-01
7.870490713548540240e-01
-6.572551082969381175e-01
1.447991254668462568e-02
3.865858183305581619e-01
1.809223508439929740e+00
1.382353117718548852e-01
-7.367906476253346382e-01
6.013115323946218727e-01
-4.690160958558921567e-01
6.643056498157107193e-02
-7.885908070953160376e-01
2.319349463382631704e+00
1.028130158552728879e-01
-1.941929466950993721e-01
1.300856102071627163e+00
7.165537859871962123e-01
1.367632851487441403e+00
3.219397697888276566e-01
-1.030849516336090899e-01
7.006211011909614372e-01
-1.051220666943118998e-01
-7.538990580159266042e-01
4.936153982334736678e-01
7.634231183225533013e-02
-9.579204530547481555e-01
-1.891208963813876265e-01
6.521436298429617029e-01
-1.235030810203185947e+00
-1.236881153149070600e-02
7.955050215004113578e-01
-2.825623490971853613e-01
4.769103844973628381e-01
1.097524017918090511e+00
-6.239909184277202536e-01
9.055867928818478463e-02
9.118594186167394700e-02
8.412341598674858423e-01
7.852041447792748041e-01
3.098003090224669687e-01
5.939585137257248348e-01
-1.232186278986421524e+00
-1.361833252935405802e+00
-1.398258635442767073e+00
3.624773849682909055e-01
-7.561802834189970679e-02
9.281085130787261051e-01
2.987999903489354514e-01
-7.031600126129917694e-01
-1.001299897648363135e+00
1.043182035891396353e+00
-6.777238592242285087e-02
-2.703630508275381983e-01
1.207175746887532153e-01
9.822498116768845211e-01
6.922356421337347854e-01
-1.120945141972278514e-01
-2.770868504532096321e-01
7.782888395579046215e-01
7.065803806624075811e-01
7.573480926017178705e-01
6.786093331032858611e-01
-8.444855339814241191e-01
1.064087464834779229e-01
-1.628385214038579887e-01
9.477421206630867179e-01
-3.085976572329620637e-01
8.377152185514925575e-01
5.459719928143619283e-01
6.394505329796472681e-01
9.068589752019722283e-01
1.252045720412797158e-01
-2.980415614825246765e-02
1.373688912943741736e+00
1.895387166668356826e+00
-1.450020053398051179e-01
-6.511955359776917529e-01
-1.113516651393070100e+00
4.392145463023346963e-01
9.559660663444732309e-01
-2.062462204966975410e+00
-3.538637262191129951e-02
-3.450496964282813162e-01
-5.179295421451677317e-01
2.577225309735563519e-01
8.447396402112983260e-02
-8.715478067135062901e-01
4.681327039730308337e-02
-5.633464918400118981e-02
1.991571274842180106e+00
-1.284000321630477393e+00
3.243608975731804289e-01
2.806730599187884923e-01
-1.177936200312468262e-02
-2.548787131048141363e-01
7.721510910650644099e-01
-5.732845946667510795e-01
-3.700137637318649531e-01
4.763795399167932709e-01
7.870717157349335080e-01
9.054961760677227023e-02
3.844757830299418977e-01
8.451097058543595164e-01
6.565416887350316033e-01
2.519565409175186232e-01
1.138015840532484724e-01
5.276712486568740923e-01
3.830196307159443592e-01
2.787908740306277444e-01
-4.188486319665991608e-01
-7.441490628273584873e-01
-3.057544543474250420e-01
7.168333452299068265e-01
-3.176525360392479791e-01
8.119939481965242623e-01
-1.349294247152809323e+00
1.050792019112794240e-01
-6.440727913407022776e-01
4.989774683337250827e-01
8.522059197782880791e-01
1.124043665898199207e-01
1.190481010035108422e+00
3.184704225487638984e-02
-3.268986052374192042e-01
1.460741738939117962e+00
6.569539757122853096e-01
8.728202885733575833e-01
8.007101868606391060e-01
1.216614684111633427e+00
7.654331987529510162e-01
9.806989835990623239e-02
2.043951389101105853e+00
-1.949302611303445898e-01
-3.629301594959354893e-01
-1.543034163342443588e+00
8.509450959974136364e-01
5.661577530143013792e-02
8.217208496158500131e-01
7.880056116196190730e-02
-2.489684719713347594e-01
1.376079349446120981e+00
-1.288046492379220087e+00
6.688546037130520538e-01
7.207439972332891909e-01
-7.530750803798788029e-01
-1.223558200295403742e-01
-2.441773085416301392e-01
7.247657044961961503e-01
-3.265910060527191794e-01
-2.037810930242264229e-01
-1.412043711903767207e+00
-6.283695415246901561e-01
1.168387806110911420e+00
1.245827110543255845e-02
3.055636973645888821e-01
-2.664037859214761772e-01
1.449895799691516052e+00
-5.545844395999631748e-01
1.049672562696738476e+00
-1.349490523176252843e+00
1.186280157084528553e-01
-9.208809060850046135e-01
-5.632880988168622594e-01
-1.917772584722894358e-01
-1.687983067019001027e-01
1.615837193988138298e-01
-4.675398079353412228e-01
5.346332483694797855e-01
1.553705904303929741e-01
1.989906206169961833e-01
1.658803414963831102e+00
1.283678311057074861e+00
-4.664883091011380878e-01
9.529981404845608850e-01
-1.426924584275799102e-01
3.290623313381949022e-01
-4.034818266338621728e-01
-6.130929859721512276e-01
1.007079095454729067e+00
5.855874613277745055e-02
-5.966928773025820254e-01
-3.272004029352065801e-02
2.761949970135447741e-01
-6.854774709914934760e-01
6.915325877091806073e-02
-6.121372942009728479e-01
9.371881123910181799e-01
2.052987984949011524e-01
1.734155473084018906e-01
-6.386546925533815866e-01
-6.983493038836979805e-02
8.264249926294605642e-01
-2.748371238858519083e-01
-2.392688639727773570e-01
3.688055115882171719e-01
2.837160588782933757e-01
-2.504889306334444066e-01
-5.170534526235393002e-02
8.359269036932868158e-01
-1.181157972453500404e-01
-2.299850140477571192e-01
-5.341873260465599405e-01
2.911406215794442587e-01
1.482261509361980867e+00
6.213941379006941990e-01
4.419003722812885060e-02
-1.681125828806835365e-01
4.181675039417685480e-01
1.167265981713402123e+00
-8.518751230538208485e-01
-4.540057864328660431e-01
4.489870006964249982e-01
-2.264466508707651538e-01
-9.010656998064908718e-01
-2.561887643860187858e-01
9.554027534337730110e-01
-1.418135980015597930e-01
8.203342919242764264e-01
3.105776049180343223e-01
7.845950098395239047e-01
3.097020343325403158e-02
-5.413300292153904181e-01
-4.067326397405917060e-01
-1.093190300713203111e+00
-8.028796067600508790e-01
3.023335195811684972e-01
-5.196058770818345884e-02
4.304173033166664442e-01
-1.295046635526995171e-01
-7.620397447724673867e-01
-4.109250516295103184e-01
-1.804822895736830635e-01
-4.803877166844578994e-01
2.812880872158416423e-01
3.762451375465745151e-01
6.532347735588351911e-01
-1.026250107058534755e-01
-4.617072662895034263e-01
8.889387100735992586e-01
-1.597915999519356478e-01
1.127087839356401000e-01
-5.562280196715516656e-01
5.416604167112689661e-01
4.937198531782199806e-01
-3.616043603081507962e-01
-1.000064942271985613e+00
-6.627918813690494848e-02
-3.537270329207075070e-01
8.544222207625888910e-01
2.742498332989690146e-01
3.613324303346373556e-01
-1.326987586103572092e-01
-4.047724032403817729e-01
-4.862445564932993403e-02
1.473982944717739940e-01
7.119356222076914653e-01
-2.104378168330388599e-01
-1.924179863025514137e-01
3.113971868023803768e-01
-1.377495003348432889e-01
1.343733966255040713e-01
6.975203039587298814e-01
1.105281102647554414e+00
-1.154058350739900929e+00
5.643248260464339694e-01
1.435103611938725265e+00
7.326009838797693519e-01
7.881882651794404060e-01
2.581842499568299254e-01
5.360189596966482561e-01
2.041436876459129246e-01
1.557407998170679653e+00
-3.577618518331145969e-01
-3.670715156800763990e-01
4.250530705698193357e-01
7.570014533274008750e-01
3.173465221761327948e-01
-5.194851925055818942e-01
1.068710237568115451e+00
1.383472104916094181e-01
1.741258905427137682e-01
1.421380677147501270e-01
2.061734453005728829e-01
-1.674898651949465744e-01
6.775499380997600518e-01
-1.613754708402156124e-01
5.176559420077513352e-01
1.233736629722285705e-01
-1.369493783454080460e-01
-6.309742283142689701e-01
1.338716158434694048e-02
2.770018689205457907e-01
6.910884639849010913e-01
1.208184588984946739e+00
8.867214389470066127e-01
3.305733889895393074e-02
8.200878784898469886e-01
-7.474192844699656391e-01
1.064237635074971156e+00
1.390488877280851909e+00
1.849461628900121446e-01
-1.645518607770101838e+00
-2.147857352875637282e-01
-1.092815488680006997e+00
-1.052363738178073049e+00
7.889263352179907152e-01
-2.838027624771140567e-01
-8.598853334766940471e-01
-1.527973010458681391e-01
7.833022820559187860e-01
2.036934239153284990e-02
-7.068813389881652143e-02
-1.231406745687080445e-01
3.526482346646555577e-01
2.013103455856530832e-01
5.693266282170532655e-01
-8.490815239004373405e-01
-6.332711817302366653e-01
-1.044386993791535101e-01
5.302107088424938830e-01
-3.963992900902653660e-01
-7.422356759972882356e-01
4.848668757761321335e-01
7.670849904064506175e-01
3.540023222457757690e-01
7.336286825939272171e-01
8.718689337055158806e-01
5.830166447572644461e-01
-5.927347404632288264e-01
3.303368372651695473e-01
1.147434226543695979e-01
1.152011303660083197e-02
2.019522496262919908e+00
1.436175595834495722e-01
-6.658300247598564203e-01
4.765393217847652130e-01
-2.805767693736167523e-01
7.732715312894533621e-01
8.649676789726752357e-01
-3.646732702426769279e-02
-9.167928825826522632e-02
-6.105088254581925167e-02
-7.270199368503259540e-01
-1.218663154630991619e+00
1.009401454345134397e+00
5.010106825003736442e-02
5.609935055180872987e-02
-9.391874043253262139e-02
1.834283789098162809e-01
2.106151245901969893e-01
-1.833868917007511978e+00
7.240557284514608227e-01
-4.481020412157252220e-01
-2.012026894389975507e-01
-8.242450793411777443e-01
4.605353420481126392e-01
4.548940994496946111e-01
-2.282750010144907749e-01
-1.342250190889185402e-02
-5.489745522592801574e-01
-7.235128886448085606e-01
-1.821532811438151489e+00
3.810067816361550341e-01
2.500093451603890848e-01
-2.364571969617866865e-01
-2.648973919451937387e-01
7.615736390901174380e-01
9.209670991308448462e-01
-5.454951309506528290e-02
6.829912831619077140e-01
-1.343269276918396260e-02
8.837974363439708991e-01
-2.660126922644386882e-01
-3.765040473619999384e-01
9.722424083469947131e-01
-3.932370771743224358e-01
-1.529922458570733279e-01
-6.312684055968464936e-01
1.643330772633822878e+00
9.331433980404461870e-02
-1.058928527080039150e-01
1.568050681387731959e+00
-1.886216174400684453e-01
-1.987255675361348783e-01
-3.888754378878006013e-01
1.918052172615598572e-01
3.246554330299147861e-02
4.230089599199537975e-01
-9.548754174901157299e-01
-2.888403945341224688e-01
-1.212940058667409393e-01
8.839988315094231552e-01
-2.177387572221030632e-01
4.294313239030269624e-01
6.240624107770598172e-01
8.282291046945071677e-01
1.005399709622493587e+00
-1.474816466503178880e+00
6.748742343467243332e-01
-8.732132253237585573e-01
-7.402317641451250374e-01
5.146736096967772234e-01
-1.356428518621719537e+00
4.517714819317100172e-01
-1.221259903897450982e+00
-1.688618668809842571e-01
2.888506305145481512e-02
6.161556621202997075e-01
6.263567172879115352e-01
5.495016798251578516e-01
-3.808568071529147003e-01
-2.549839986281268733e-02
-4.240413606662222223e-01
5.686043838854414334e-01
8.862893169003630556e-01
1.564111342627881873e-01
5.143618680910081592e-02
-4.091288565511779773e-01
1.574410738361658790e+00
9.893882886741181548e-02
-1.111256328866062904e-02
1.598597399513198569e-01
-2.877878143798939248e-01
-1.319185802977831112e-01
-1.328987034903123199e+00
-1.698745086723746356e-01
9.668739617784333218e-02
1.056700177314045863e+00
6.781690360397820694e-01
-8.306807849048845060e-01
-6.408794100638850466e-01
9.539855213039959425e-01
-5.714984873257933362e-01
-1.988377555612340086e-01
-4.838137109697324689e-01
-5.579446657830884337e-01
5.487628223233709246e-02
-4.052022724333946835e-01
6.516586332514697766e-01
-9.627352032899414436e-01
3.626736602675563192e-01
-2.494799189186084343e-01
1.710477351674392743e+00
5.987237942317883421e-01
4.140296258215087066e-02
-4.672317940833221189e-02
2.511868909925623949e+00
-3.013584197707063761e-01
-6.047912837437046107e-01
1.779628931137436365e-01
4.609412749638205908e-01
-5.268971299427858135e-01
-2.503079687224875061e-01
1.331204904774060171e+00
3.235897468178134950e-01
-5.501938525592925400e-01
-4.010785236198337600e-01
-3.104894674683476574e-01
5.878930095791680133e-01
-4.528949174969836289e-01
-1.720595835935396778e-01
5.360072937217214700e-02
-8.539658771987898578e-02
-9.304245107728045250e-01
1.228435272948035895e+00
-7.495419846484365767e-01
1.389641918066273352e+00
2.887023442966968334e-01
1.039039479647102304e+00
3.443654481938467765e-02
1.774513788987397145e-01
1.359257142330611012e-01
-7.789055660136940951e-01
-6.020065678209176596e-01
-5.498986562269818634e-01
-1.193433568014607427e-01
6.630792357232175860e-01
-1.383798310600887760e-01
4.596067874963146171e-01
-1.724373182766619106e+00
6.203337887873302536e-01
6.705362068418274646e-02
9.375285749858816020e-01
1.825309509423449772e-01
-4.077391758720745329e-01
4.615735489863845853e-01
-3.742050299530297330e-02
-6.595365601673177647e-01
-4.333078956117131231e-01
2.102153886707006647e-01
-1.176343902909905426e+00
-3.250962618612465160e-01
6.833607925931393934e-02
7.610407478822347471e-01
-4.383247943127228652e-01
4.286012434359637302e-02
2.075689382910785863e-01
1.269514577219474472e+00
4.803634146730774712e-01
-1.271487120180064156e+00
-2.326430171236292255e-01
-9.355981846788876677e-01
-5.025017454207709733e-01
-1.030682686796670300e+00
2.200294382638321888e+00
-9.181909580014429029e-01
6.421314709621815942e-01
-1.210199875119349899e-02
-7.601353669458982276e-01
-7.882715727542870532e-01
3.569777170986423442e-01
3.047059555355360772e+00
-4.198089872158937697e-01
-1.004695133818312325e+00
-3.801208893888865514e-01
3.909727125721320640e-01
1.254692354606915528e+00
1.958038627732733294e-01
-2.793231163178203635e-01
-8.585791096578071491e-02
-1.771309960129602068e+00
1.690542154184622725e-01
7.422715693018819838e-01
-6.782377037720810353e-02
7.492456337428827773e-01
-1.411287856942866625e+00
1.409375651725782275e+00
9.058837869506166651e-01
-4.504123605521744289e-01
3.614816632006874197e-01
-1.571931509849574082e+00
5.478727176697878454e-01
-1.854515522611781819e-01
2.391439175579871401e-01
1.709678449493249042e-01
4.474861050360422476e-01
-5.242911924371524979e-01
-7.792068427407105036e-01
-2.776136638234880105e-01
-7.542741087301347847e-01
-7.537591763947322221e-01
3.778007394813450714e-01
4.164190014828413888e-01
1.202602390346181327e-01
1.180135371109175546e-01
1.094731425660365520e+00
3.773344604875116248e-01
-1.081903662309608105e+00
4.645052707025139060e-01
7.790372294059604297e-01
7.992145555888338082e-01
2.365670680619715860e-01
-5.172127483857207331e-01
-1.266329207131378531e+00
2.450849418396132684e-01
2.634977312094152202e-01
4.163934178175575651e-01
-4.936514211122700058e-01
-1.091779831293997471e-01
-3.775555928119909144e-01
7.401986443949004624e-01
-1.814643437089863420e-02
-1.370450678014548007e+00
-2.936994068540086378e-01
2.783853053294093605e-01
5.833528358081884191e-01
-5.723599102506128355e-01
5.356864838839635323e-02
6.851182043681885991e-01
-4.806913980512589335e-02
1.366877548246900886e+00
4.388535988700329460e-01
-2.903484209115734238e-01
-7.203266719595883272e-01
7.109536584990305830e-01
-5.354780824255973570e-01
-3.591795931624129912e-01
-2.439982131472466509e-01
-2.164024833422489857e-01
4.910622108073868508e-02
-1.859079699022407883e-01
9.946138953525741622e-01
-6.748965388222902817e-01
-6.442177193512991229e-01
-4.608865195504151524e-01
-4.927167876739526609e-01
7.657771381766935725e-01
-7.374675854327409352e-01
-4.713073482289090732e-01
1.879107313556744874e-01
8.868332691848905824e-01
5.900717004155012768e-01
1.768631087208094588e-01
-4.300075763752952973e-01
-7.338347325993546111e-01
-4.925348558750382022e-01
8.116219916804177092e-01
2.275807976402581256e-01
5.373921962100646210e-01
1.025081081284907381e+00
6.853376684546236275e-01
7.749218442212620073e-02
2.503110637034643982e-01
-7.196246010178167229e-02
2.728998829078673749e-01
8.036941065523290906e-01
1.513134724703222522e+00
5.229312848633254074e-01
5.159962999494145386e-01
9.154930148931670342e-01
-5.801300282863433022e-01
-5.452746674101820457e-01
-4.986228850042273009e-01
-1.043337020405886717e-01
1.323059210156554144e+00
-1.172178639786213283e-01
-4.389513844261219710e-02
-1.108048612656854504e+00
-5.085242623900805281e-01
3.702683025974599085e-01
3.779275408022217397e-02
3.171406635102126947e-01
4.402562661144969747e-01
-3.823866130626173421e-01
4.098537040645719998e-01
1.550149739852333619e+00
7.726778333797729159e-02
-7.234688142741657613e-02
-9.308453563385215013e-01
1.321493896747766850e-01
-7.002827354465407383e-01
2.643866620567124626e-01
-5.518379479974936386e-01
-1.640550314347699046e-01
3.823265230321451491e-01
4.431683408820734638e-01
9.675224469121567195e-01
-4.696075734433345361e-01
6.645129625360243764e-02
-2.197619900131670412e-01
3.898420622520761825e-01
-1.685977164537225459e+00
1.020369879811044767e+00
-1.749993626697104787e+00
1.141821905439679874e+00
8.699004951524605955e-01
-1.245714437892862847e+00
4.556044668118905960e-01
1.004854998330660720e+00
3.424599362247432999e-01
-1.659400392556805715e-01
-1.059815574508836011e+00
2.770692963733516478e-01
-9.076863233508734030e-01
-7.631391197315365860e-01
1.261025432690221493e-01
8.073379328316976355e-03
3.758819056507614609e-01
4.562196615241066455e-01
9.400004259060623646e-01
7.343862324352490312e-01
1.254562413390036824e-01
3.021607939586065661e-01
-1.688506200977406113e+00
-9.327626219561719889e-01
-4.288572849392721098e-01
-8.810761083626545975e-01
-1.092535939232350373e+00
1.199888056019133842e-01
1.133780422293306334e+00
-1.056564632916429103e+00
6.836376359814833048e-01
-6.038063298253296685e-01
-2.589774619067664735e-02
-1.151679874304200268e+00
3.911142233944665536e-01
-2.647925196964424632e-01
8.782121371781452801e-01
3.650784028917599677e-01
-1.314960425314847248e-01
-4.130739800008104701e-01
6.618107615212449613e-01
-7.030133478347838638e-01
-3.459453192062700300e-03
5.115576446633366414e-01
4.691448834317568650e-02
-1.650246322352556305e+00
7.832974087892058401e-01
-9.625621293783787058e-02
-1.120701918612655446e+00
3.180797036316627135e-01
5.328417022100089273e-01
-1.568310248247831995e-01
7.903649399190509905e-02
-7.154378328285525557e-01
9.290689912647190907e-01
-5.204085565628077115e-01
1.553488362315936788e-01
2.258935378640632985e-01
7.019793792099805751e-02
4.385132458888397755e-01
-9.511823031318668020e-01
4.789532314386986678e-01
-9.054328172398129482e-02
1.767630987260533804e+00
6.100147992548113351e-02
7.534790093778157560e-01
-7.827755413974334386e-01
2.790646708510484686e-01
-1.843062349232036934e-01
3.361237474609318765e-02
-4.128579026546322917e-01
-2.514555911898133655e-02
1.001580052228694839e+00
-8.311321551051543688e-01
-6.710325813534072648e-01
-5.319146392382181343e-01
-6.097556022891460481e-01
1.893366817567556926e-01
1.277215200383687410e+00
-8.348306588835916475e-01
-8.683898779945681268e-01
6.115665498511184683e-01
9.397923818497838644e-02
1.050297339915309269e+00
-5.310801915813870844e-01
2.489961529709610044e-01
1.599100414174848162e+00
5.384356688048530515e-02
-7.688018260767709444e-02
7.782636289056147350e-01
4.004928445824770811e-03
1.374330145609442777e+00
-1.289762699735390594e+00
7.431674475197856955e-01
8.166639569318366876e-01
-6.950448969742129002e-02
9.709294232619511966e-01
9.228307520783174400e-02
2.895577223465448102e-01
1.353007260615069485e-01
3.911596476419401669e-02
5.158293480133593345e-01
3.423483002862637292e-02
-9.309877970525511914e-01
-1.872832269716807885e-01
2.430656918959884782e-01
1.844834523150394312e-01
-3.177527708488407376e-01
2.373665394284905916e-01
1.467939460223999903e+00
-8.578630824290800483e-01
-1.094606270527345826e+00
3.460208722278498295e-01
