-9.033097776181664429e-03
-1.612621306514767094e-01
3.220706961045100569e-01
1.211868492607605097e-01
-1.587465773218607934e+00
5.990945650925915134e-01
-5.080608229496196282e-01
-1.754721463310694451e-01
3.162384015919862679e-02
2.882321798028968929e-01
-1.412376912284707853e+00
5.346787102735284236e-01
-5.583611712308208519e-01
-7.396066776490020644e-02
6.147139034403930058e-01
2.339868274728009734e-01
-5.629415376496760270e-02
-4.145780326133137739e-01
2.392764651876514992e-01
-6.487807025218363943e-01
-1.633028906890576781e-02
1.106596124031578476e+00
-6.316862426219096438e-01
5.878460477791609406e-01
-7.847582224255615913e-01
4.512959216997324829e-01
-5.194906142320262488e-01
-1.320639492062621434e+00
2.341480904639990368e-01
1.043094238394884909e+00
-9.162898587832869757e-02
2.009607391385312414e-01
1.173317567126092920e+00
-1.130031820100414475e-01
-9.188074771242310534e-01
-4.243622878798882780e-01
-1.362513839522316417e+00
-1.895792538431183283e-01
6.093037040970464835e-01
-1.587196701316776482e+00
-3.506386554887815088e-02
-7.176810298031196522e-01
-3.630589247078024329e-01
-9.434325160519028142e-01
-7.257795637815719347e-01
-4.319525516311285007e-01
-1.249339745204733676e+00
-1.955413841005497477e-01
4.109895475072674054e-01
-1.493738313636613357e-01
7.619037916843534042e-01
-5.606728680590129521e-01
6.307139660897485012e-01
5.010452079052312158e-01
1.099148913367180791e+00
4.567537576082162931e-01
-1.612118504489535309e-01
-1.617400182775321493e-01
1.319268940100184750e-01
-2.122970568409772718e-01
7.337073322859488655e-01
4.913949554399539288e-01
-1.092485586947759879e+00
-3.055843140119071655e-01
-4.509991444516109338e-01
-6.237334192179991854e-01
6.159666428485741640e-01
7.014398561172136004e-01
8.997137161490739721e-02
6.056520755304342085e-01
-4.986459356846451203e-03
2.290912966101739112e-01
1.094621612430487501e+00
-6.064704817959569727e-01
8.181840402110517330e-01
-5.464906141201930634e-03
-1.084762364222325637e+00
-4.804815229867016591e-01
-6.354264845431752962e-01
2.997575388147212805e-01
7.486090820300215221e-01
-1.410729938028009722e-01
6.164704044784201642e-01
-1.750505329528783682e-01
-3.643495583363353107e-01
1.834213316691383766e-01
1.051674178047343755e+00
-2.493350712651120904e-01
-5.853110682141524634e-01
1.432990959434458089e-01
-3.969153358838260481e-01
2.345801123045025416e-01
3.096943263863217721e-01
-6.683105440165116873e-01
-4.043952162577671428e-01
1.489815816292013873e+00
-5.220322609857132035e-01
1.263367524737441627e+00
3.101274999728799719e-01
2.332231847738030495e-01
-1.535499120766399495e+00
6.701927307682056245e-01
-8.509923305928607240e-01
1.293441726006397063e+00
6.933781173333377623e-01
1.712312712846376650e-01
-4.914305079503455964e-02
7.064909516481738816e-01
4.699325993340932039e-01
-5.007109864270897770e-02
-6.632662871790362402e-01
-1.141779326254567239e+00
-1.984313669267073754e-01
-5.139116514808443892e-01
-7.206893997839417532e-01
-9.230073778449436883e-01
-8.269839739741525753e-01
2.957159166863481126e-01
3.678742753886687922e-01
-6.273626167838557421e-01
-2.155213724694338140e-02
2.873503340841139786e-01
1.560571733732756705e+00
-7.811077053459533071e-01
5.293391139970743398e-01
-5.906584670129837455e-01
6.743726810129120341e-01
-5.512896903435761109e-01
-1.220899839171164514e-01
4.010316382891088161e-01
-6.565347730131877446e-01
-6.958735091887306989e-01
-1.114189638582592234e-01
4.174486040141560661e-01
-7.627836811870689626e-01
-2.230172814217284694e-01
6.162464156390727865e-01
2.213440132329701271e+00
-1.302919124454460675e+00
4.094642373941170810e-01
-7.430994178045271514e-01
-6.172209555759540223e-01
-3.736514941985255023e-01
9.378047176565073029e-01
-5.184951966766901954e-01
5.241081331831367596e-01
-3.258552675140465871e-01
-5.321040273088586403e-01
-8.786938316869710719e-02
-7.579338848536250062e-01
-3.310750925063493111e-01
1.724299787468497769e+00
6.599470053023537286e-02
-7.061555091637818915e-01
3.125214759013201227e-01
-7.249707133948224413e-02
-2.125177757588298244e-01
-1.118170342503335579e+00
-7.224822595749001986e-01
8.173992272971530859e-02
-8.729810951261575136e-01
8.773258274703654713e-01
6.738948270077984581e-01
1.287543291627598840e+00
5.889042217098117149e-01
-1.500106055754636625e+00
-1.427305362230309127e+00
-4.065904129229375163e-01
-3.489832927242821903e-01
-4.634958812627637537e-02
8.601083085445695442e-01
7.260682771951366687e-01
-8.786226735820288347e-01
2.268412282800293944e-01
8.744299529573906771e-01
2.782952194064398643e-01
2.840450570296950139e-01
1.690014297525665565e+00
-9.556136791866540747e-01
7.548625175177258173e-01
-1.325915907685774275e+00
-1.240343946769196570e+00
9.580035366230102434e-02
-4.771539681108051267e-01
-1.288431930341940701e+00
7.256618570893388354e-01
-5.107644738879254520e-01
-4.099555044025952055e-01
-7.343951035304160380e-01
-4.664040071726223147e-01
2.433328455354298314e-01
3.359212845709793616e-01
-9.449158088355074092e-01
2.811409668312709886e-01
-2.737069544864739745e-01
-6.936867606978465162e-01
-8.101592148227079182e-01
7.564582652560101206e-01
5.459541484060366212e-01
8.702257948131876253e-01
1.815668917680468120e+00
-6.854793423085110415e-01
-7.153581523914201989e-01
9.504382554504928748e-01
7.767433616160719367e-01
-3.004106615092239640e-01
2.790129388048632197e-01
-4.775782025904659611e-02
-5.452216731577650410e-01
6.597896181689405504e-01
4.829672882713875737e-01
6.637725071680808941e-01
-6.604897022082559799e-01
1.111924038873653098e+00
-6.276012960196607482e-01
1.685950227594291695e-01
-6.535377341740145063e-02
4.301859160335645971e-01
5.734032113755137550e-01
3.064105106304509385e-01
4.400792583205731523e-02
2.218758225169327469e-01
1.232410659054243851e-01
-7.917199945678434769e-01
-1.590092139146224715e-01
-4.950181964563586945e-01
1.706575451450937475e+00
-9.462518819663731096e-01
8.852858945155790416e-01
1.824970145378215503e-01
4.147689390942220777e-01
-5.387908989258024528e-01
-1.421316621159069704e-01
3.943257049860815489e-03
2.977188426985974412e-02
-1.553845138643648038e+00
-1.022229739095283252e+00
-1.165373882616547396e+00
-6.735542616686751582e-02
-3.722065568822993109e-01
7.415688121815029454e-01
-3.936212639339509156e-01
-9.895903698816665983e-01
1.319718673383957430e+00
-5.284160934553251421e-01
9.774416836844074252e-02
2.859692833959399660e-01
7.336344878725566954e-01
-1.049803577231029239e+00
1.158823458536604178e+00
-9.252327421676793673e-01
-3.589970598692868164e-01
-4.631200999486845271e-01
-7.905218722899269856e-01
-1.033373330721424121e+00
7.663201873190916835e-04
-1.070802060772487074e+00
-4.620298464552933249e-01
-1.286171963520073458e+00
6.759376696279517649e-01
9.406076247278191693e-02
-1.547870461648515605e-01
-1.288731014512186634e+00
2.178615825920710569e-01
-1.604479397363031135e+00
-1.354824298338746180e+00
5.820625590469972188e-01
1.510699296302201011e+00
4.306100083585578941e-02
-8.697079475439947749e-02
-2.920170814833071837e-01
-1.670304544500925137e-01
3.065271772534900463e-01
-2.687583709019977229e-01
-6.104667236562292265e-01
-9.371658733543969388e-01
1.427262814209674158e+00
7.384061524168753499e-01
1.109657142999989299e+00
1.481672131351156274e+00
-4.163843303870577439e-01
3.580434740735244925e-01
6.899543360548848758e-01
-8.938259395120634609e-03
3.999664800723512492e-01
9.654975922714337244e-01
-8.068563189429101001e-01
-2.246115917971468479e-01
8.223520115451038448e-02
8.522792468026018087e-01
5.477098824802609789e-01
-3.212431752646375260e-01
-1.256841663978887969e+00
-4.998174322198366548e-01
2.920849516924804434e-01
4.318564293005680010e-01
-7.791919020105650406e-02
9.002552080002446111e-02
-7.855007107123010979e-01
-6.891485050766099629e-01
-9.303571268221895174e-01
-5.428389794501675691e-01
2.348825007652843300e-01
-1.819215764166292271e+00
-1.919075955214680107e+00
2.121536469489432031e-01
-1.730504240564579632e+00
-6.379190353315355999e-02
5.720502251623278411e-01
-6.955604439945008988e-01
7.737131772408770702e-01
-1.028242111846059403e+00
5.239942344584546108e-01
9.642494987186644995e-02
4.127585666065952674e-01
-9.759676971698498793e-01
1.156311222593442434e-02
4.910310774064023942e-01
1.204408323722188534e+00
1.117925768688093680e+00
3.462570884200350529e-01
1.329575551845068038e-01
3.199713574368705515e-01
-1.231777555843595939e+00
6.993226254169127021e-01
-1.339445560939204416e+00
1.334592774921292690e+00
-5.456638843442223052e-01
-1.366087839746955857e-01
5.087640317486141761e-01
-6.692819584644673636e-01
-1.825245685568432474e+00
3.465696331984591261e-02
6.672033874323307634e-01
9.788687819777575072e-01
1.062616824174920760e+00
6.159888957401660203e-01
-1.598491145790809975e+00
1.242490730830313250e+00
-1.378383313073635152e+00
-7.352959108795997789e-01
1.465488804356916308e+00
4.513366671954504028e-01
9.920432798063566482e-01
3.664476331326664837e-01
-2.259169352169654310e-01
8.978319581129032279e-02
-9.212884230496616311e-01
-2.247786698740489864e-01
-4.018226365516359699e-01
-6.910765163203883565e-01
1.363665865031621571e+00
-3.758033016091107403e-01
-2.174319459785146735e-01
3.625690072169981959e-02
4.053160883963514982e-02
-7.253754972031947745e-02
-3.181733451042073613e-01
1.128283622396390573e+00
-7.733050473608952258e-01
-6.989242150940835341e-01
-6.933074093580812169e-01
-7.611309953145597995e-02
3.136315344718028642e-01
9.003999613542655878e-01
4.088616832414484481e-01
1.173134077331889236e+00
4.555117545004837010e-01
-4.325730331108283977e-01
-1.155940709562178620e-01
-1.356758688098929633e-01
1.834071418555450972e+00
1.754231117375085081e+00
-1.297748278259721832e+00
1.062429563242516251e+00
2.682549244994921755e-01
-1.052777763347219953e+00
6.610061817140061580e-02
-1.568106389662029088e+00
-4.547325424664629967e-01
2.697752612652651316e-02
-5.522366047937079525e-01
-7.991654229840235990e-01
1.405117353096719590e+00
1.030944366407546831e+00
-1.465031986494372163e+00
3.259573145827817098e-01
-1.054399471916012576e+00
-4.962147280716082687e-01
-4.117200695950420375e-01
1.742774250477450437e-01
1.013613724523998449e+00
-2.010019916445813237e-01
-2.741551975683043096e-03
-1.235627945357943513e+00
-1.229213081995469192e+00
1.376994966921532004e-01
-2.323927364211062496e-01
7.679078286597479375e-01
8.347063034875443766e-01
1.272911211274848353e-01
-3.172713866996288989e-01
1.385678604026889249e-01
3.102451907430969213e-01
-7.349716958807537281e-01
7.533641645735629222e-01
1.207437946474454682e+00
2.070338555814836834e-01
-5.228971008797863584e-01
6.753184998034353903e-01
-4.873429572161207535e-01
-4.704369130321348069e-01
2.333665657291983386e-02
-3.788725363822948999e-01
1.135689478110051276e+00
-7.067380789311423772e-01
-5.343714632295841760e-01
-1.164129552301843284e-01
-4.217736601998461343e-01
-3.633784023283084808e-01
5.453339686740588110e-02
2.425131257370810589e-02
-3.820334605460644628e-01
-2.896952542422840948e-01
-1.626400027698525763e+00
-2.753661143594470229e-01
3.591282833025106203e-01
2.376712019484414351e-01
6.774820092743299993e-01
-1.745388613430552960e+00
1.003538947636942735e-01
1.434290433718293234e-01
3.940355529628536413e-02
5.175623957871153813e-01
-1.833303350141429755e-02
-7.193648109394378265e-01
5.576321271216853059e-01
2.482696755417149181e-01
5.520171316133121175e-01
1.333743489226826728e+00
-1.872890273026344699e-01
-2.452290323497385849e-02
3.802554733183974300e-01
-5.777249847824313944e-01
-8.156759989728572524e-01
1.868470712745171625e-01
-9.822609659251153591e-01
-1.888497823689770927e-01
-1.081071571125071129e+00
-2.307913235118967954e-01
9.125994165633477540e-01
-3.785301999279816476e-01
1.022306215585260913e+00
9.355771091866074141e-01
4.301016545556443083e-01
-6.374892468238864129e-01
-9.177704617894598682e-01
5.587482296791970171e-01
2.043889769152716696e+00
4.109414587071702485e-02
-6.920698878504301099e-01
1.052838216878490885e+00
5.836466991420162786e-01
9.482125112599206762e-01
2.769994133721951357e-01
2.345497951896963196e-02
-4.482710567394038170e-01
8.141847070295961108e-01
2.511732721633149756e-01
1.897052555706995602e-01
1.723587442887224874e+00
3.721711837322677074e-01
3.792531195033362890e-01
2.988214497738564401e-01
3.299667709509046531e-01
-2.346779087921696538e-01
-7.733262218220339212e-01
-1.282440892759695306e-01
1.725296982763420695e-01
8.725444868321305947e-01
1.361319282371351802e+00
1.418637334528798144e+00
-1.815494793087745473e-01
3.141870574719655695e-01
2.788313989057039644e-01
-4.736675686147579500e-01
-1.226730221609813043e+00
-1.224608116648198686e-02
2.134447823175734671e-01
5.057627285349899915e-02
1.732671959536884465e-01
-2.199345799159668213e-01
-1.010853772374388226e-01
1.637617431728364825e-01
-8.489544735013521137e-01
5.144441646135617940e-01
-9.454774076611305311e-01
2.895094268089532519e-01
-1.300189976490506716e-03
-1.179556733859112194e+00
-9.364043696726711552e-01
6.905518476341756529e-01
8.963568715417996602e-01
4.231377149400146198e-01
-6.200563191522813211e-01
-5.672219557886704067e-02
-1.928565460327880121e-02
5.926647200296478735e-01
-5.613399843389287325e-01
-1.128435747095902220e-01
1.071902747367868558e-01
-1.108316750258047545e+00
-1.854095202348101878e+00
5.286174772899421281e-01
-8.895993530581809416e-01
8.263805366617611448e-01
-7.618779307650143107e-01
-8.084738077828012015e-01
-3.553693572514691201e-01
-1.096813177490272961e+00
1.499513980409862279e-01
-3.672172508286745130e-01
-3.153309183107417257e-01
-1.230450808600092039e+00
-1.496771350544292112e+00
9.977842956565750876e-03
-1.064157317588130480e+00
5.994514771466630254e-01
-9.645125369542175697e-01
4.100768876425630038e-01
-3.452397735053830408e-02
7.145753797464330370e-01
1.912839143185747492e-02
-1.406826694652789200e+00
-1.010221337975813594e+00
1.372755799974778812e+00
-1.907955730858212462e+00
1.581564806538039214e+00
4.203089458162403425e-01
2.935967966319617539e-01
8.526272069615594695e-01
-5.067317192637499357e-01
-7.284645758457157783e-01
1.125338420749033785e+00
-4.916230771759630969e-01
-1.882518513974627217e+00
7.880812134320249740e-01
-7.352692199285334462e-01
-1.147969320357237644e+00
-4.723047677213026985e-02
4.567604360224557514e-01
-7.434093153847840529e-01
9.979406491226372466e-02
2.006772172870718296e-01
-2.687027417358665016e-01
4.026109846284967042e-01
-5.773160036463019784e-01
-2.572843090096527119e-01
2.555232053910050372e-02
8.106481450444984471e-01
-6.077151828613189810e-01
7.177871632578116667e-01
7.493439609054503014e-01
7.636720480723355742e-01
1.005791671891238248e-01
1.838715544150241188e-01
-1.685694964328783962e+00
-1.600385236977366121e+00
-9.753473631355734641e-01
4.360465406642811959e-02
8.221760649077479721e-01
-7.027274889191416074e-01
-1.162128521094858202e+00
1.396311860296572283e+00
1.128400488572493643e+00
9.321633018846853247e-02
1.045605218396246094e+00
-2.799266008641585479e-01
1.459359129354930174e+00
-2.994927446252788616e-01
1.907216668385201430e+00
1.584600730714687211e+00
5.291206130059522561e-01
4.951560179586225185e-01
7.810808965166904372e-01
1.121680606096103483e-01
-9.536458339244524574e-01
1.166933903014204077e+00
4.568439589738483575e-02
1.958225611524004650e+00
-8.911945733491761779e-01
-1.542712071127411155e-04
6.594592565292614061e-01
3.515273107509365724e-01
9.652383623547284852e-01
-2.250993337225087598e-01
8.054528026139315955e-01
2.680704379392140346e-02
-1.771925690459641434e+00
5.252618558846176011e-01
-1.213456167718877099e+00
-1.089573915454290276e+00
9.362448746967853008e-01
1.717507883367597188e+00
-4.500485723669424010e-01
3.229525619153017502e-01
1.218807812170423110e+00
1.347132354803555476e-02
-1.047564464673206741e+00
2.835775340711448878e-01
-9.774945531985143043e-01
1.939985126135102822e-01
1.285207742497587458e-01
1.598366068262824236e-01
1.378944579941902004e+00
-1.427203170080107997e+00
1.089649759101049220e+00
-1.722350942769437787e-01
-4.455060767626428109e-01
1.181520382715596895e+00
4.026529933109220249e-01
-1.369226852051317334e-01
-5.311319740290690317e-02
5.728921338888950388e-01
2.661437451809099963e-01
1.279229012864373516e+00
4.127443281609255443e-02
1.149076269670843420e-01
-4.517223146376194709e-01
4.004085152951795679e-01
6.958288942346659844e-01
-5.005706934577980327e-01
8.410858949174182531e-02
-5.536858743587607101e-01
4.154062085606349264e-01
-1.213195472574954970e-01
1.431977580991391275e+00
-8.893566727565638264e-01
7.472639924808499590e-01
-1.954677911321357264e+00
-2.921295910272143637e-01
-2.180081835065305063e-01
-2.674468406584453728e-01
5.821103101102612781e-02
-5.034686064939214445e-02
3.376127462875699869e-01
-1.161561082141513879e+00
-2.412791917522119634e-01
4.239973104101226742e-01
-5.303264831561301795e-01
-5.876673289363029129e-01
3.588601896257133106e-01
-1.708752787169259824e-02
4.359245674518238967e-01
9.040547171394011094e-01
2.789061460163725914e-01
4.095153238829271625e-01
-3.368131583218161862e-01
4.273107120865859976e-02
3.430033913193307193e-01
4.048620818084149309e-01
-1.382836247620150338e+00
-1.034386996022272909e+00
-9.945176876598653681e-01
5.421257259186234023e-01
1.094464906122561754e+00
-1.000715100639520294e+00
-1.525407364165884405e-01
-8.103700872317004533e-01
-2.772850616450531214e-01
-8.472429308002877857e-01
-4.068713334253006852e-01
6.036884731243555846e-01
-1.028542964452368924e+00
-6.081816920784722802e-01
4.263950106252717975e-01
1.234641152698553457e-01
1.222172028116706582e-01
6.429938348219466082e-01
-1.349185208038947259e+00
1.638239331068619409e-01
-7.005849884898561752e-01
1.175301557158844767e+00
2.647361572736934843e-01
-6.490031250141858887e-01
-1.872899680922064658e-01
2.709710837317185206e-01
-7.527507445620615911e-01
-2.356645883358013116e-01
5.604087589348856202e-01
-8.723690950044745707e-01
6.187746302539940402e-01
-1.713411298855230802e-01
3.573640184153487054e-01
-4.468876729746382725e-01
-2.674207413646337850e-01
-7.522395955235151588e-01
-7.527891599773227360e-02
6.460766016066824546e-01
-2.555738211725963049e-01
-6.734031940951304973e-01
3.764065289694521477e-01
-1.358551499169938115e+00
5.417843296630699967e-01
1.580050696697028245e+00
-3.349933256428529460e-01
5.306599348675238303e-01
1.631598637565012666e-03
5.199421443626386363e-01
1.106583883237340915e-01
-1.114946703731467537e+00
2.241167094927549175e-01
-5.400962282827240779e-01
-1.082343270328177676e+00
-7.847426375000587928e-01
9.762627788358028136e-01
3.942159424504135812e-01
3.202254885260099604e-01
8.350264103579988495e-01
6.505107957030109578e-01
-1.160220417389022235e-01
1.128707730480246196e-01
-1.452295291616988449e+00
-3.442118346835426612e-02
2.857360263961535862e-01
3.538192499179213524e-01
4.611174396623748395e-01
9.622947569453381700e-01
-4.723504326668473419e-01
3.430045296789187570e-01
7.252750780463264046e-01
8.394276844998472820e-01
1.040218758501041840e+00
-2.536615201964879662e-01
-7.593478343510189355e-01
-7.707551053451818790e-01
4.597123724002460943e-02
4.931336581419084597e-01
1.363714527025143397e+00
-1.435530556077503128e+00
5.235245382247935009e-01
1.746054298339169364e+00
-1.889514666650409458e+00
3.470785314737229177e-02
-9.525091178157125693e-01
1.755776093337815813e-02
-9.734265042368583920e-01
1.706851940146104085e-01
-7.005726876139479753e-01
1.785936869587931852e+00
1.118668730499169928e-01
-8.634054407485944882e-01
7.206042202052748147e-01
-4.892415792918783923e-01
6.573088727445062229e-01
5.516408019720442368e-01
4.459664832199844442e-02
-3.590181314074639696e-01
1.038947656894046112e+00
-2.494386075563509442e-01
-6.873063408719592982e-01
5.204583292142712647e-01
-1.036785831003703140e-01
4.916914560830271119e-01
-6.916272350753214226e-01
2.599106527025260571e-01
-9.508849103164569438e-01
-1.122270744721667879e-01
6.037598688630997357e-01
3.067894163326114754e-01
-1.156179944307666574e+00
2.222402168787108723e-01
2.176411738691553244e-01
1.465587986900072359e-01
-5.852036440786033689e-01
1.383859864462634093e+00
1.253296921647138573e+00
3.944114400997941750e-02
5.062756987652402563e-01
-2.229782697117727586e-01
-6.741804284984416196e-01
-6.103340875743505922e-01
-4.287555439131282564e-02
-5.130510966601763423e-01
2.076249777827553711e+00
2.026183033150490420e+00
-3.629708340138447231e-01
-1.332014913603266182e+00
-7.160519836778668212e-01
1.618447320455509431e+00
7.787915846561462019e-02
1.170306305634191801e+00
-9.279324777237490940e-01
-4.128632253239232219e-01
-6.619329962358283526e-01
-3.510197891684085914e-02
-1.149711359111797726e-02
4.197200391537330710e-01
8.552573979531890025e-01
-5.951786654335963211e-01
-6.925586936792302306e-02
-3.050477607945048519e-01
-5.791814703773044692e-02
-9.688082029507115722e-01
-1.619060041084363633e-03
1.010505723470118911e+00
-4.930540920240211733e-01
-6.131304508607381409e-01
-1.002598626213580424e+00
-4.873161882466394146e-01
1.885927375190329380e-01
-1.767623369927037835e+00
-1.133675778508619558e+00
-2.779794769428943768e-01
9.654037564982880237e-01
-8.725842840147228774e-01
-9.687392831604527688e-01
-1.271253241482924734e+00
8.914081571320278119e-01
-3.402708038652387801e-01
-1.038945380741167490e+00
-5.170363402896338556e-03
3.878411090612901568e-02
5.647068130542848285e-01
2.870054746083466890e-01
-9.036238594548073877e-01
1.037723890483051026e-01
-1.984689467606432500e-01
3.458393625295622664e-01
7.413690963432301162e-01
8.484634136067553678e-01
7.355019806129030613e-01
-1.139604914974334249e-01
2.985856237932856261e-01
-2.726138518327293481e-01
-6.064087325516769322e-01
1.301359960852729536e+00
-1.826430157221279327e-01
7.937944770392880711e-01
1.205361195913063899e+00
9.195021915939658452e-01
4.013334306849297151e-01
2.807996630059346743e-01
1.639003789418269075e-01
4.635136290537773540e-01
6.185907161049979397e-01
-1.243724938312281703e-01
1.268127933460529544e+00
4.223277387341131117e-01
3.282946121577122178e-01
9.707251914484761324e-01
5.129581582182523025e-01
-6.962802851418050665e-01
6.479525631152355247e-01
5.796253054780091674e-01
-2.142593931723145717e-01
2.109696568779187986e-01
4.481039470028555516e-01
-9.309219981515317599e-01
1.021691102682496521e-01
-5.377543935421797983e-01
2.722234302690912378e-01
-2.646223820317355480e-01
1.870771780432326781e-01
8.350692349937909043e-02
3.272659540202141892e-01
2.262519152156587054e+00
-5.848160080818834983e-01
-1.341240922177322492e-02
-7.292406285059472859e-01
-2.279535313320722456e-01
-6.273466102983030757e-01
-3.332565343430504701e-02
1.386789224378702501e-01
-3.256572910654214059e-01
3.115148267719393405e-03
1.613179022819613007e-01
-5.891801900307228057e-02
-1.138248049048036781e-01
-2.666177586957970691e-01
-3.384294064050555328e-01
-1.477456849497927660e+00
3.070197613996602515e-01
-9.925194429786410311e-01
3.012996314003896225e-01
4.813568425511310367e-01
3.657194445821207451e-01
-1.463417210803484192e+00
4.618533036742219489e-01
-3.338010262029525443e-01
8.164303667789785113e-01
-5.337862398395599728e-01
-1.022518943565864147e+00
-6.378829365652582961e-01
-6.373528280416576597e-02
3.658624145807054528e-01
2.449716367334561218e-01
-4.617010011177474227e-01
1.223498116383683887e-01
1.353339760432510142e+00
-2.566090344630099773e-01
-6.271324758170764291e-01
-4.044746281897635409e-01
1.166987218992397712e-01
8.933879614501576416e-01
-3.659964082857232737e-01
-8.749939868111196173e-01
-4.872299346732714698e-01
-1.049311406116383572e-02
1.045782840238410838e+00
-2.821529800581673020e-01
-2.521098452780660693e-01
-2.116647497257057031e-01
9.824708884377244544e-01
-1.302874213118323077e+00
5.745994021052098777e-01
1.479074463184492760e+00
-3.991211728661807623e-01
1.346875398807694912e+00
-1.265559707685874058e-01
-5.950002949545341036e-01
-2.853570945624224198e-01
-2.685320228369547646e-01
-8.817106016993756512e-01
6.174559397188457144e-01
-9.680448389308293766e-01
-5.923539145553694540e-01
-1.576943876281286183e+00
-1.774075907976409017e-01
-1.115985359010501110e+00
8.846716217665580029e-01
-2.669570032186753261e-01
1.040105237081937473e+00
-5.340431743838554013e-01
8.394757390271624375e-01
2.119254142558932297e-02
3.853288468766409847e-01
-3.020637156244382338e-02
-2.773603199480229597e-01
2.828618012621006428e-01
-6.639121025080800820e-01
4.358609534787853956e-01
1.490884293380163594e+00
-2.851213846425099119e-01
-1.295108080173652976e+00
4.258317816407454215e-01
4.487767139145487638e-01
6.756493992033589802e-01
8.188206402227070357e-02
-8.151432661433182236e-01
-4.850503807310299065e-01
4.762304206200456136e-01
-1.186575296919986533e+00
-1.039316665104569104e+00
2.463112284038344590e-01
-4.288956087472611256e-01
-2.541655449104758269e-01
2.254833975175228877e-01
-1.185256519820668819e-01
4.783666179135876440e-01
-1.215894797192173638e+00
-1.487860110870870445e+00
1.302824009183866316e+00
7.355787433572449907e-02
1.844373889926875787e-02
-6.115570062161501674e-02
-1.034625827235057249e+00
7.206330863826495570e-01
1.188337130481177173e+00
-6.074043184227513326e-01
-9.537993362959521493e-01
8.707326775284915943e-01
1.728542514020826149e+00
-1.497861416396034873e+00
-1.632456771952371932e-01
-5.938837767794158395e-01
-7.470869097687298233e-01
5.135456060145480173e-01
-2.510765682661468823e-01
1.309785450950937014e+00
5.841599218568889196e-01
1.711309572957571135e+00
-2.628592530507785074e-01
-5.930578904241966542e-01
-2.438156598158472965e-01
-1.266014726623238218e+00
2.709702733999782565e-01
-7.513755654566267594e-01
-3.523026529821132180e-01
2.823200844253032638e-01
8.098934917302896830e-01
4.461279429442211453e-01
2.032935433307001105e+00
-4.243938032829294160e-01
-8.167998346543755561e-01
-6.797434191519327040e-01
3.561733779127634891e-01
-9.595662535564949414e-01
1.137681761773141065e-01
-8.793609837778755267e-01
1.029077358134998565e+00
-6.472079927908427344e-01
-1.248588604899532051e+00
1.181112165052475849e-01
-6.220823728814215414e-01
3.420846148953968213e-02
-1.714273872093210915e+00
-2.312675395755239838e-01
-1.561407956023683985e+00
-1.436743167549929368e+00
9.220542696693766471e-01
7.220148249611000324e-01
-3.947097567890460179e-01
-4.741514536973527871e-01
2.017960120731778773e+00
-9.973522700734138713e-01
-3.336631296624823495e-01
2.171498756531555774e-01
-4.437605139218657180e-01
1.175918252757175431e+00
-1.331178298544153371e+00
-1.442620432806243080e-01
8.831288635625502703e-01
9.812081467220890030e-01
3.339535772520422219e-01
1.419204943744730718e+00
9.364898396004535108e-01
1.338651589964243438e-01
9.433678540499665921e-01
-4.670442584230991567e-01
7.233504132316104229e-03
-8.909685429141116497e-01
3.508693919185120746e-01
1.325602997120833848e-01
-1.840182321801461907e+00
-2.076206799818286486e-02
1.243332532337501906e-01
-6.106965555708764315e-01
8.742416787330811179e-01
-8.726874587530237815e-01
-3.552309854099274800e-01
3.047147664796820976e-01
6.022989868903416699e-01
-3.239738534054142916e-02
-1.131346860317994640e-01
6.479201163885583981e-01
6.945976657734767024e-01
8.845680304826779583e-01
9.684992768473268399e-01
2.223426473442381646e+00
-5.805789107270287186e-01
-1.542426616665355743e+00
7.276633283557838450e-01
1.047893983736280621e+00
3.056391980380420148e-01
-1.733783643680399111e-01
-6.668341546604749093e-01
1.770040468722908544e+00
9.078520823493619885e-01
6.665057565022358688e-02
1.252858689125865954e+00
-1.136047554528191617e+00
-7.854792802447021494e-01
-1.324248036101957293e+00
8.000432406679822694e-01
-5.818469032636882643e-01
3.800281567523622894e-01
-1.333688120734342619e-01
1.622771856053909723e+00
-5.110804925634377938e-01
4.783808834369390750e-01
-3.687244643036716174e-01
-1.323517034636945366e+00
1.246903918819230045e-01
-7.110718034575910229e-01
2.631118692430822747e-01
7.288278409074693265e-01
-4.166143652451376189e-02
1.482445803671313067e+00
-1.058909519952562661e+00
4.974013523862642616e-01
-1.851645556094974054e+00
1.154622303622939716e+00
-1.391021462028615430e+00
1.208341530549050802e-02
8.069631671566819264e-01
-3.486216070396679911e-01
5.054867459326869983e-02
5.218909641173941072e-01
-2.685581736915400308e-02
-3.343920679727240275e-01
3.483707178280479044e-01
-2.471446038762975528e-01
-6.826251293657270569e-03
-3.029611763919666245e-01
9.880575447796889899e-01
8.724779156302027161e-01
-8.462129618867485492e-01
-1.461483556378516402e-02
-1.365491615605564313e+00
1.416236004250184699e+00
-3.751375276832749073e-01
-2.451269634209577220e+00
8.560963544812586479e-01
-1.068674427510542868e+00
-9.776496517428443500e-01
3.351208961630434136e-01
4.338449929563058527e-01
7.981529282175541251e-01
-1.725552150297115839e+00
-1.472921682464957138e-01
1.512868545816133947e-01
-7.352928617124629973e-01
1.311079169416390799e+00
-9.752883104533351943e-01
1.572144217526907639e-01
-1.041074107029167806e+00
5.841678468283106884e-01
-2.088955608152971433e-01
6.783706115824860161e-01
-7.063914345443486065e-01
-6.338329398448812046e-01
5.646718960380908703e-01
-2.233949769569054666e-01
-6.588799795386567348e-01
3.756173318829911234e-01
-6.802158271712532844e-02
8.559538414733464107e-02
-3.723161247331873147e-01
-3.098984243019536899e-02
1.208813241506265790e+00
-1.253580801565850056e+00
-2.942287947960064987e-01
2.918848263471620630e-01
-1.206610036694411164e-01
9.283116528775183784e-01
-1.069385101022859219e+00
1.870799634443822690e-01
2.282277573860441722e-01
-3.125063172751582075e-01
1.473082176079453909e+00
1.340302973893164884e-01
-7.189952350840156381e-01
1.452811245300110743e-01
5.084290569727925035e-01
-6.818822572864423615e-01
5.457038299385406077e-01
7.985704480426708551e-03
-2.886890331813551924e-03
-1.053252910301655687e+00
-9.116870166783187512e-01
-6.856120705662636095e-01
7.871213661381339932e-01
-8.008773554338174394e-01
8.224153212966386350e-01
5.189487543246422696e-01
-5.302018345604821992e-01
-3.753549991627412874e-01
-6.523035312391323171e-02
-3.453885492124081358e-01
-2.979993549461978364e-01
-4.199318184512164098e-01
5.434808378393760631e-01
-4.281538824257484221e-01
3.022991840924927898e-01
3.982546886489682358e-01
-3.530763823327954798e-01
-3.707605273622704978e-01
3.921364941926539505e-01
-3.642777852196243948e-03
-8.047097440017434433e-01
1.067412145445352373e-01
-5.927184763099866416e-01
-9.287624959269493718e-01
-3.899584276096461632e-01
-7.099246901959977984e-01
-2.091677747466267889e-01
-3.064152727416935562e-01
-3.776782141021576278e-01
3.405407367418790132e-01
2.133361460081923067e+00
-5.589198189844017950e-01
-3.503094454702598282e-01
5.564536306828098411e-01
2.025907947231443407e-01
-1.458374069377580962e-01
-4.266390433857770725e-01
2.269321774480204112e-02
1.115548913156477973e+00
3.320201300691433821e-01
-7.544622114803783974e-01
-8.471795500753461772e-01
7.690863285915467973e-01
-1.240735220632152469e+00
5.881486400085360611e-01
9.382956760509046923e-01
6.313121276558790740e-01
2.432078184762792583e-01
4.094735799608572036e-01
-8.527070465084698458e-01
2.409347126347822221e-01
3.146574564952451247e-01
1.421918937162399699e-01
9.431979316530016977e-01
4.577739176702782520e-01
-7.979453764781282432e-01
-1.628268702428902426e+00
-4.528282545565587291e-01
-5.380521161384373974e-01
-7.496729437878385527e-02
9.632406228327642372e-01
-4.374589591161652802e-01
4.038406208786145535e-01
1.100034359049352650e+00
-3.763922538215510039e-01
-4.229961971398014942e-02
-4.224045459711087136e-01
-8.867321493509419117e-01
5.240715930753749863e-01
-5.964079392077238362e-01
-1.608692185561755750e+00
-1.941866338494766253e-01
8.333969297423555744e-01
-1.399643952630619914e+00
2.605073924433540800e-01
-2.202571641580232664e-01
-2.009670959423209835e-02
1.124938762372287293e+00
-1.600331533002576467e+00
3.875291843604010134e-01
-1.998860988635872971e-01
-9.023096010528275368e-02
4.985481189802452029e-01
4.667118349906986818e-01
2.050064326854922125e+00
5.747703551367668862e-01
1.653464385357512390e+00
1.081079150189440563e+00
-1.193369825051618260e+00
1.183854031998283346e-01
-8.027500583282308755e-01
-7.345819317291640838e-03
-1.038892678304400019e-01
1.609647437612776955e+00
-1.906935546992217789e-01
4.163894177318161471e-01
-1.465419829562039977e+00
1.501000919195929484e-01
2.376746646653753459e-01
-1.276056586371048240e+00
-8.003018801058638942e-01
-2.049518494909632338e+00
1.603621636814945850e-01
1.650976776004352553e-01
9.631711093501510446e-01
-2.484635960193826987e-01
-3.155983276023843764e-01
-1.628645447904482901e-01
1.517288098463519308e+00
9.459029202164136452e-01
-1.909611124634271462e-01
-1.644402128080637127e+00
3.140982583990163390e-01
2.624492794325004597e-01
6.714230179507451046e-01
3.881678009052035860e-01
5.533758086108880869e-02
-1.665700969132124065e+00
-2.020167456959248709e-01
1.010464939595297151e+00
-9.971383699085127894e-01
-1.224253808427473444e-01
1.146182053133531387e+00
1.846565542728459963e+00
1.038110771890220274e+00
-7.279581674546002912e-01
4.823919170956614266e-01
-4.592234290908905336e-01
2.411762365845255829e-01
-3.931707098334205064e-01
-1.500124513297541373e+00
1.339034393762391639e-01
1.359331947314993128e-01
1.767401524312642858e-01
1.530570980017003091e+00
-9.169580400587841185e-01
3.368996533190788956e-01
-1.496754803018211788e-01
-3.200624160286581477e-01
1.477232449682996718e+00
1.268427407178158939e+00
-1.993917293097035470e+00
3.261077198042066083e-01
-1.037394337882271644e+00
1.392474933482924226e-01
-8.665821609350732313e-01
1.791245888790105600e-01
-9.316259026678664901e-01
-1.279734421813742973e-01
-4.646947379134636069e-01
9.400752543813264417e-01
-4.709794684933239495e-01
1.601726211568959557e-01
6.570189998728223624e-02
5.401399804899353896e-01
3.712071691755316483e-01
6.246177099726168969e-02
-1.539419650098252657e-01
-9.363023357138515745e-01
2.625014017570035385e+00
3.518906925605897462e-01
-6.137227945848527932e-01
-1.476888890392352716e-03
-3.418356872452954498e-03
1.588359618905610393e-01
-4.765371765919182434e-01
6.871965488092917074e-01
-5.780995941059688392e-02
-1.159057203401333114e+00
1.160918565028576488e+00
-6.979377810030868989e-01
-8.055059931420380792e-01
4.044628044354283691e-01
-1.130428205978651457e+00
-1.230869957592901187e+00
-1.911836665941387681e-01
-4.670645328891785963e-01
-6.824684345035541000e-01
-8.287871391756148620e-01
-2.107506151887715617e+00
9.974087707111589651e-01
1.237407586439451368e+00
-1.630387928184807489e+00
1.062028194878223974e+00
-6.683842941236683988e-01
8.044197402502051286e-01
9.931994595592612551e-01
-2.740798350272999340e-01
-8.725090981757471775e-02
6.039276615066221376e-01
1.346064817223016075e+00
-2.096552664442668856e+00
-6.201862166123017772e-01
4.546191996931345791e-01
5.643121294796539511e-02
3.223592884476298437e-01
-5.410697714331412778e-01
5.612409111962146646e-02
-7.788295143516479335e-01
2.142752086239953613e+00
2.604068821417167556e-01
-5.798210049618217621e-01
1.763886422803758180e-01
-1.408090472289494910e-01
-1.184561898321226936e-01
-4.602432579534182500e-01
-1.274832656011422261e+00
-6.478565742421659168e-01
-6.694587648997764040e-01
5.641579797042912681e-01
-9.667984939718201609e-01
-1.151840326948373461e+00
-1.966854770991361523e+00
2.660618130450055352e-01
3.332886523463826633e-02
3.996169796243493333e-01
-2.870565864971434955e-01
6.223284781300522095e-01
6.318874317927481998e-01
-3.500775405669095397e-01
-2.857622458444784019e-01
-8.767540606678825288e-02
4.375986299414176828e-01
-1.154791674236688159e-02
-6.182501684854928570e-01
-4.943769380764782007e-01
-1.756015802864686615e-01
7.162729499321207616e-02
-1.040395606090055658e+00
-5.692360359755174737e-02
-1.234906373367219978e-01
-3.324372175014541630e-01
8.025352199963949884e-01
1.376743012754402806e-01
1.963409518376777463e-01
3.814875131254301666e-01
2.631630229650142039e-02
3.885240176799890643e-01
7.543734733153442118e-01
4.483964105630837693e-01
-7.927082318195810551e-01
8.139338881335940190e-01
-9.829525232340718954e-02
1.238240962573475407e-01
-2.219744570741277734e-02
7.579105529974076161e-01
2.816152551347033128e-01
7.733423433380930412e-01
1.621486312520720841e+00
8.018726279265520063e-01
1.108401926945749238e+00
-4.936436561645244914e-01
3.906533565880366266e-01
2.873775830401169573e-01
6.407736921122868523e-01
-1.084828634415742510e+00
5.767654999627697121e-01
-5.266402243437844355e-01
3.670372939900098386e-01
7.907104610681336965e-01
5.146986245531324222e-01
-1.148200520784014994e-01
6.030406444047368142e-01
-5.975498548878301897e-01
7.969212352922544484e-01
3.806286032016718002e-01
3.565374109218552023e-01
4.771282325318050299e-01
1.618524091287694422e-01
-8.569835219303671703e-02
-1.566157969526830396e+00
4.806051140474897343e-01
5.941299118327890705e-01
-6.663994508361126279e-01
-5.977369427807732727e-02
5.271666389143501164e-01
1.080653913716356218e+00
-4.182386683829511509e-01
-3.632806726870448921e-01
6.375307636444700332e-01
-4.289897906888151535e-01
4.476573845158130505e-01
-1.072403206786514129e+00
3.440510306416059705e-01
6.542607129375802577e-01
1.637779626157551127e-01
4.552242959165176406e-01
7.336482297739350678e-01
5.088711988025905741e-01
9.674636441550477084e-01
1.342116407125595767e+00
-7.763971272556304815e-01
-8.901095616787375597e-01
2.591162143784245808e-01
5.655098696903566591e-01
-1.426008173674431223e+00
3.408409092103668048e-01
-6.617231216539051775e-02
-8.132484624331048906e-01
2.140916452271683923e+00
-3.140670209030320403e-02
6.610738824516166900e-01
-4.975182256915989809e-01
2.817791229602230052e-01
-1.291449442713427376e-01
1.498894470940379087e+00
-1.411079897746299605e-01
1.101168066980189764e+00
6.578460827360352869e-01
1.082404210704835112e-01
-7.014109478816296095e-01
-6.213252965117084248e-01
-5.603425275927519378e-01
3.788855718167782327e-01
-2.753147258493484628e-01
1.830789845469292243e-01
5.898194104499023815e-01
-1.957490100628223040e-02
9.218409936326037446e-01
1.113500700987608560e+00
-3.747348713815470411e-01
-5.205329947002440560e-02
-1.106424595832191216e+00
9.420953614118790509e-02
1.718143444919215224e+00
4.588187839242966470e-01
4.408050609862460556e-01
-9.373711493018646035e-01
-8.679786634529214062e-01
-5.845696762079941600e-01
4.532299488004145616e-01
-1.024256259589647472e-01
1.302361558721476520e+00
7.914453825756978533e-03
-3.394516247128714359e-01
-7.593428645803587118e-01
-2.713651302051522940e-01
-9.709903273260265255e-01
1.778693730484597890e-01
-6.995040396019391871e-03
-1.420057533640795233e+00
-9.163405899449853509e-01
-6.818222366829219672e-01
6.853889277886698883e-01
-3.955859377761402618e-01
-6.514787636262255877e-01
1.780221986194591821e+00
-5.788035483452709240e-01
1.417654721524410855e+00
-1.217831699784099442e+00
1.013571838378950929e+00
-8.504081426648880671e-01
-2.859318792386100760e-03
-4.996179991001544751e-01
7.616236668137490451e-01
-3.992212417019670029e-02
2.629259588247502832e-01
-6.663284801153116499e-01
-1.433341995351535281e-01
-3.214357986373925780e-01
-6.698059573977839243e-01
1.333217275238909538e+00
4.956488559114047288e-02
3.966014683356628989e-01
-8.301980877039001339e-01
5.581223944679809534e-01
-3.397214187088077875e-01
-1.138779663603258108e+00
6.877638497520374705e-02
4.502016032326657258e-01
2.802861663083807131e-01
9.600647687254176832e-02
-7.077725359552359263e-01
8.119739951781275167e-01
-2.297023435390859250e-02
1.675878055421438084e+00
1.203333517929790153e+00
-2.839618663538995280e-01
4.534765374188348686e-01
-2.639880902810908814e-01
4.321331000275140388e-01
2.738782819229015342e-01
4.125482656414329319e-01
5.744860875744526307e-01
7.910615152893529789e-02
-3.390528571289450621e-01
9.435765774860412902e-01
-7.341806297627856415e-01
3.869011812857188204e-01
2.498661969367914626e+00
-2.184017493223005812e-01
1.425158797222416673e-01
2.169869962990014223e-01
4.256314559805630116e-01
-4.050161976543454889e-01
6.681681096995047975e-01
9.182099024078831384e-01
-6.362814409758144052e-01
-1.149803507495983368e-02
-4.585476951895013364e-01
-1.677590145052844539e+00
4.705439989787273403e-01
-1.613291620246531943e-02
-6.872607436927031799e-01
-1.032800388975004147e+00
-4.245708051714117692e-01
6.999570180087901772e-01
-7.255494299229241495e-01
-8.934544134988028352e-01
-3.236990253192189027e-01
-2.736958836495891334e-01
7.375036973295561182e-01
6.411579165362290000e-01
7.996449242448750994e-01
-7.723217293706581277e-01
-1.403141094109068732e+00
-1.164460018480262482e+00
-2.223636057073180572e-02
3.428651477432014261e-01
-8.748356884782626519e-01
1.159165686459132649e-01
3.233269696228079360e-01
-1.554834596051275775e-01
-1.304034185733139006e+00
-6.783512265546962627e-01
-9.896111206155130402e-01
-2.125328062370928917e-01
-2.550473304052980339e-02
8.013131704584561810e-01
-4.359778719340438591e-01
-4.071264787270035823e-01
-3.660111178514621200e-01
1.632445981296840598e+00
1.428014763366880491e-02
-7.804473646209634241e-01
7.800080783738678747e-01
1.388339475956451130e+00
-5.179819570280070895e-01
-1.506605326893489805e-01
-1.795521325661153300e+00
4.141580128745924183e-01
1.048929907459812405e+00
-7.985520121935961724e-01
1.932531968691495017e+00
4.634774766487926301e-01
-1.491751182731763659e-01
-7.424048845134627317e-02
-2.608733135966969652e-01
2.034158242027217234e-01
1.358635506566307494e-01
5.815477660164760643e-01
-7.515755215084836127e-01
3.807113468475347151e-01
3.695321896022128461e-01
7.980419591776640731e-01
-2.898558492580648460e-01
1.010691952675649707e-01
1.317642989559303146e+00
9.090761500141314455e-02
7.257722769750690750e-02
6.667798453314399687e-01
-6.438400222106893667e-02
4.301754709768741414e-01
-8.678851929037045831e-02
5.454522475792347169e-01
4.255013133029132977e-01
5.143989479834507605e-01
-7.097068060456357408e-02
4.662981851218810925e-01
5.829484868179376500e-01
-6.029994922257315704e-01
-5.893344132071320907e-01
1.710339874670366189e+00
-1.452620653929856953e+00
8.234341717051698595e-01
-2.712161309913553309e-01
2.148550744017352632e-01
-1.646688626716095172e-01
-2.698175706777908855e-01
2.764740644723584495e-01
1.353890393463900166e+00
-7.613731392892424399e-01
-1.598773185148811282e-01
-1.200603795547737107e+00
-1.357422561345489775e+00
5.390499090765288326e-01
2.595959494607580909e-01
-5.659966309428592357e-01
-1.004843454750225407e+00
1.891427412990429047e-01
-3.460420970488100045e-01
4.462809227483316432e-01
5.037646482638714895e-02
-1.756859478265685226e+00
9.194509187150922136e-01
1.213331639206022938e+00
2.244849211398988187e-01
-1.579823931010086113e+00
-4.989360686537914202e-01
6.798425550005342544e-01
1.671630485561642621e-01
5.248739344155947673e-02
-6.093455732899889510e-01
-1.372557425827580779e+00
3.351987299710051937e-01
-9.559605648797753208e-01
-6.610503145809654146e-02
7.371927949190617557e-01
-1.859238352229817703e+00
-7.545302168201452053e-01
2.097458059314223910e-01
3.913679520326944772e-01
-6.960901648456994106e-01
2.594977361875650534e-01
5.678505676588034845e-01
-2.258620314244292604e-01
-7.219988192576387576e-01
-6.210713652396615547e-01
8.216490513967695808e-01
-7.121155236236773600e-01
-2.713623580848325556e-01
6.427908559294318591e-01
7.659123657464854684e-01
-3.585900454865970088e-01
-5.911631084250736912e-01
-4.278420177784047485e-01
3.250190211014990505e-01
7.718473248311461532e-01
-4.747102336252030930e-01
-2.090130108856031566e+00
-8.166930858155498907e-01
6.057314036984771111e-01
8.436962433505910131e-01
1.191198382432314906e+00
3.992661767859072008e-01
-7.320410327317977695e-01
3.626422871678466886e-01
-9.192791805589373144e-01
1.184604048719289093e-01
4.894778159149025809e-01
-1.587052299461233773e-01
-2.279425277021017715e-01
8.178834654551044858e-01
-4.855717075338399358e-01
3.153904919459717959e-01
1.113309465230087447e+00
2.275280170964709137e-01
2.434407089969404803e-01
1.198077812187039459e-01
-1.234772473879580001e+00
1.004219354010853493e+00
3.488563139864102602e-01
-1.028608335995779166e+00
4.278534306764786854e-01
-3.943610494708640335e-01
-2.711668427137537418e-01
-1.078947444641835007e+00
-5.887411349958329154e-01
-1.142190055753954603e+00
-9.504764476585233490e-01
-2.580442107920145611e-01
-1.032292183554408327e+00
3.520496474792712549e-01
4.211688017025628228e-01
-4.065954662093902439e-01
7.737483317141581329e-01
-1.657637036899654581e-01
3.376343240783823418e-01
5.152299915790358176e-01
-1.841572764707692045e+00
2.592158385842487367e-01
4.413472000027349740e-01
5.085050378382888203e-03
1.826477526826197073e-01
-8.336379893266460117e-01
-4.962670602125097696e-01
-1.052980541006075299e+00
-2.861461702119320050e-01
7.813992651834257286e-01
4.300726652227107039e-01
8.745800115449974266e-01
-1.417016139672910846e-01
-8.596800366716599306e-01
-1.074000048030870902e+00
-1.847287920762745450e-01
-2.949696279352428951e-01
8.639688471007428427e-02
-9.705741024783257620e-01
1.915049498748686019e-02
-7.915817596332390682e-01
-1.620110981694815599e-01
6.507200711151391870e-01
4.738427226755671517e-01
7.169527149609357386e-02
-4.989391753883055079e-03
-7.320035397603507077e-01
3.966570279319473480e-01
2.122230524008154706e+00
-2.353127564231714264e-01
9.907901943031061087e-02
-2.418481962137482011e-01
-2.336325593244117926e-01
1.091698027835304785e+00
1.623482784205154239e+00
-4.187533491441495226e-01
-9.597225053507086878e-01
-4.409990426837052946e-02
7.356805688204978155e-01
-5.614455882032871603e-01
8.517147605021331280e-01
-3.731909492616689028e-01
-1.268884402947418888e+00
1.194341795767511760e+00
9.779125628667514891e-02
-8.750126733752706665e-01
8.815248002663506055e-01
2.206251979000298236e-02
1.552893373943246669e+00
-4.189251919407760427e-01
1.182010049838217114e+00
-7.174853086109327371e-01
-4.023865697007882325e-01
7.401326258243096090e-01
-3.076106926027118993e-01
-1.451754994300243073e-01
3.733350555286028549e-01
3.248100802823432609e-01
5.644473569000663105e-01
-8.691878164168406751e-02
8.242358229047799800e-02
6.237712376129915803e-01
1.613203229799554217e+00
-1.811732053018603322e-02
-1.020280239159834679e+00
7.041004845714085025e-01
-5.800435637327718830e-01
-4.949225642545929671e-01
7.224565192878378284e-01
1.518102430119707913e+00
4.256330098796458627e-01
-1.279192574289667039e+00
8.422599270607988853e-01
7.236559233248468503e-01
-2.873881832209062015e-01
-2.742341311801886894e-01
-3.926804135148342922e-03
-4.200650547943744761e-02
-1.633963108435257383e-01
1.071870506954624158e-01
-1.609702532174085654e+00
1.548672562038498901e-01
-7.511694889373282669e-01
-5.464308545968930009e-01
1.411379110905163214e+00
1.664040949515141365e+00
2.669067464904505971e-01
-5.404655700345684100e-01
2.510026155203988196e-01
-9.643044606374140404e-01
1.005102988070226466e+00
-4.633688334752701365e-01
-7.352666521344412009e-01
-2.987420065481417586e-01
1.106309678834368343e-01
-2.751855327801863149e-01
-7.150835352185200833e-01
-6.001112574540335975e-01
-1.178345750667166292e-01
5.023239003998812846e-01
5.854339381528985697e-01
-5.559940910910907697e-01
4.137403816851057403e-01
-3.592163244640193542e-01
-5.550594827654884433e-01
-1.521565410891623504e-01
-4.506803913873648204e-01
7.257086454180448065e-01
-8.859691798989585143e-01
4.660595136759397850e-01
1.448936611663701024e+00
3.361555991952064337e-02
1.775519597602165933e-01
1.275221976949163505e+00
-8.081705453880748680e-01
7.267500417681417302e-01
4.179664420298603855e-01
-9.067567841072633472e-01
-1.074448061297283763e+00
3.883699127020106556e-01
-1.338639382710092640e+00
9.491243028110621927e-01
-9.483247078021213028e-01
6.587022947350043012e-01
-3.818022616949090509e-01
2.383578530818014352e-01
-2.011054895103236984e-02
-2.842984338922107668e-01
6.493447834393986651e-02
1.769846004715869281e-01
9.803394397192243259e-01
-5.143741750693725523e-01
-3.944668046138041784e-01
8.460637609453121044e-01
1.205287187794943649e-01
-6.752748514097117738e-01
1.204113789165018655e+00
-1.687862642771030153e+00
6.599768344986637336e-01
-3.953577087403059576e-02
-3.764119518363415184e-01
1.653409442875151680e-01
-6.076911297300777726e-01
-1.083432669350783972e-01
-1.765940939591648107e-02
2.337889491620402937e-01
1.440306542990483496e-01
-6.691863301275258191e-02
-8.341505861856186588e-01
7.802497012297437973e-02
3.109409030932433482e-01
1.879800630837084041e-01
1.258377579268269653e+00
-7.819287688952694104e-01
-7.834471139968665065e-01
-9.574705187913330473e-01
1.059444015021846930e+00
1.228101127281877814e+00
-7.722341969026255137e-01
-1.053558234926343706e+00
2.080642732455144639e-01
3.843555108633138762e-01
7.841396632309467485e-01
-3.987391855709096489e-01
2.253517137847560747e-01
-1.818300066053524788e-01
3.039668645777972578e-01
5.777671899200543387e-02
-4.940658589849263871e-01
2.729608511615067012e-01
1.029050611991078057e-02
1.182292196341261925e-01
-5.836051678287684785e-02
2.454990256697051898e-01
-1.102905807866558785e-01
-1.288314729538421632e+00
-7.795854143552300997e-01
-8.645184260762152073e-01
8.742342707940347069e-01
-9.001222759340370416e-01
-2.140255711434326524e-01
7.876991002743597425e-01
-9.619724517549588239e-02
-1.072507816639935774e+00
5.087251700253432318e-01
-2.724773943906152462e-01
5.675028472525067702e-02
4.191862598089700076e-01
-1.110547766894705468e+00
-1.304990619291752640e+00
-5.392550103171859233e-01
-6.916404468929346905e-01
1.529538128839368349e-01
8.759141778630727959e-01
-1.216662619376744470e+00
-9.975321070705627235e-01
4.877281510092247307e-01
7.548690993831314033e-02
6.876742986864248230e-01
1.565646018565466369e+00
1.281865186823343827e-01
-3.195392071103442255e-01
5.144327798979050348e-01
-7.180533646513120871e-01
2.046003214368422030e-01
1.962791246815144830e-01
1.063390726161472788e+00
1.231617011431678232e+00
-3.252126118429150559e-01
1.376867221560515775e+00
-7.099035454473419104e-01
-1.696400101823823392e-01
-6.240303916156515474e-01
-1.442952355602715286e+00
-3.904536003314711401e-01
-5.557097685864947900e-02
-1.633317352193797145e-02
-1.017889759513254389e-01
-6.617250334240405429e-01
2.457740142946810424e-01
-3.940241777212581953e-01
2.059462106914440316e-01
5.095662117405579394e-01
9.916778117865011621e-01
-2.808598678233028556e-01
-1.092666100675582008e+00
1.240165654033234532e-01
1.161732956617535506e-01
-3.556804263601560656e-01
-8.647142839661330349e-01
-1.587845747999485635e+00
2.899394402851349639e-01
1.314525156172696052e+00
1.539688281624586041e-01
-5.565040129405555147e-01
1.192690552867238463e+00
-6.101546804356466902e-02
-9.122103453411281593e-02
1.355273748401074840e+00
-4.144882442924660571e-01
5.632899386029209809e-01
4.538105875779349097e-01
-8.704347314665465685e-02
9.538090192001873469e-01
-2.500433269206502329e-01
-5.155575193381103372e-01
-6.342591344089933969e-01
-3.187736600720195712e-01
1.177347100693620918e-01
1.226012959761728194e+00
5.879509584538824551e-01
-4.693005651031320058e-01
-9.021677974536578271e-01
-1.380817257852466340e-01
-3.311067753866462349e-01
3.506283275831415525e-01
-2.607457884819784910e-01
4.382284296906595600e-01
5.319639765618536797e-01
1.917839262059515826e-01
9.685664597768215422e-01
-5.538489931112274833e-01
1.536251487838883989e+00
-3.402577501274336447e-01
3.359977644104662486e-01
5.714598731748929961e-01
-1.195277838431734463e-01
7.893296233898914327e-01
1.994558779655877023e+00
-9.594997187400587935e-01
2.933908208475327073e-01
1.417476599928353398e+00
-2.545694851574182849e-01
-5.322677700525011435e-01
2.803244698355642495e-01
-8.717433376819803126e-01
-1.464638442881518010e+00
3.911614134060077963e-01
-5.998794410037103231e-02
4.130306893605977248e-01
3.004951107953593992e-01
1.009460160017110752e-01
4.152462781840060013e-01
-8.139327753813441202e-01
5.734693716441187084e-01
1.085889669762783116e+00
3.993130716947382863e-01
4.395316665307766324e-01
3.721247489555035148e-01
-2.200924763729567024e-01
-1.076841789577187125e+00
2.944891101574683145e-01
2.506082371507374340e-01
9.509930059323952189e-01
5.189779699277790037e-01
7.801442878167668127e-01
2.378457604737592157e-01
1.098878773198305403e+00
-5.515344661797525472e-01
7.160263324296261001e-01
1.116708590926987599e+00
-9.045571112839921879e-01
4.286076369117675089e-01
1.304699315729118680e+00
-1.279879682225094351e-01
1.574844287833080392e-01
2.141640636634609685e+00
-9.895161701955559330e-01
-5.618691084909599454e-02
9.897720765236761586e-02
7.414462423942960179e-01
-3.831655996396635677e-01
-1.310518217212613523e+00
-1.496460378274276026e+00
6.454367496658568459e-01
-7.309190218868342193e-01
1.353040930386403939e+00
7.788331779282521294e-01
-4.638409304017238055e-01
-2.635256237200571117e-01
-2.418361993668085130e+00
-1.780369106252929656e+00
3.625614245033692562e-01
1.143593593932792363e+00
-1.394077545887331349e+00
1.496439691421039608e+00
2.508422082675100251e-01
-2.737694840535520591e-02
-9.761879752755762141e-01
-9.234764996748946464e-01
-1.144748325774082476e+00
4.026827770670651785e-02
-2.183221152614528426e-01
1.414154422436810110e+00
2.394688038965602783e-01
2.170667781126608409e-01
9.211030202028877012e-01
-1.953780441971617599e-01
1.005914865838273276e+00
-2.554882531631441078e-01
-7.915337515456379036e-02
1.462327587990658317e-02
-3.292913394975006680e-01
-9.304786015859564108e-01
5.383752091466729173e-01
1.025097833596871233e+00
8.995373588628482464e-01
5.482141521416222796e-02
-7.357366945346719422e-01
3.556412286212017881e-01
-6.987485480287991546e-02
-7.421934132152279151e-01
2.688680443453671520e-01
-1.165473148443463558e-01
-1.156750548810306367e-01
-7.642294608199041717e-01
4.807636375872956780e-01
9.010227958115831770e-01
-1.329327954311954885e-01
9.768840588204141806e-01
-2.110474095305986120e-01
6.251489552925509896e-02
7.673775667411926182e-01
-9.004311993728162378e-01
8.748568472332846069e-02
1.173348097845909876e+00
1.573500754958545578e-01
2.678667187070922218e-01
1.515650799977116270e+00
3.458472652876969367e-01
-6.092633602241551705e-01
2.350592594690173454e-01
-6.098798712123709720e-01
2.714100985585930492e-01
3.249095126209938789e-02
-4.326719355368218722e-01
5.508861033789260730e-01
3.971020141916539181e-01
-3.688903319705205686e-02
2.049897741178348665e-01
-4.463671365478121822e-01
-5.341612710615819548e-01
2.146851496861870157e-01
-1.230427983664088121e+00
-1.709627353844044073e+00
1.089229988074849720e+00
-1.833146047444375037e-01
-6.740698252317097738e-01
-1.230326965529541239e-01
4.572010707996357892e-01
6.432382586835093674e-01
7.494611542621029132e-01
-1.612176650335741535e+00
3.987425294962598787e-02
8.380244304896034002e-02
2.618600354102612049e-01
9.334083327086759585e-01
9.583072637141301642e-02
-7.675503705946937760e-01
1.051158629307754389e+00
-1.944119247303913722e-01
5.389551995433642384e-01
2.927634720631481779e-01
-9.901140980837239702e-01
1.131063270574658164e+00
-1.030277574054487166e+00
6.629905944799217021e-01
1.131647807057678257e-01
-1.031854889987250834e+00
-1.372390921417817822e+00
-8.313096274422617782e-01
-8.047483540186236572e-01
1.742595825911563145e-01
2.281288627348035725e+00
-1.633419066958634869e-01
2.260367889417954634e-01
-1.929608267092497997e-01
-5.460680197594286467e-02
3.782155568497395648e-01
-2.589355397050508434e-01
6.089961217123275317e-01
8.175631331280053260e-02
1.184989880977533605e-01
1.964654397258490004e+00
-2.805145917591274629e-01
-9.961421850561407165e-01
1.136565793551276959e+00
7.780526535040532821e-01
4.113849504607634544e-01
-8.135238348502270567e-01
-1.251095149089215264e-02
-1.854222589415407962e-01
8.323646031650093757e-01
-3.751099748244074439e-01
-4.347354597846450064e-01
-1.168858625324253886e-01
-2.467066579151588890e-01
7.743970155218675711e-01
-2.260564844084761438e-02
-9.514462205707945319e-01
3.243529962847196968e-01
-7.359249322525763803e-01
3.544633743615683841e-01
9.600736520489936421e-01
1.246758358059288252e+00
8.261264852430090233e-01
-6.330253621417036847e-01
-1.385159836655913468e+00
-4.388933697092824437e-01
2.143680990688845711e-01
2.493551670283377375e-01
1.315003686698694718e-01
1.385728751312992890e-01
-4.180397879104869041e-02
9.662521554529457379e-03
-9.973774673622646247e-01
2.195711575739873189e-01
-4.039780040549275641e-01
1.045649450958930693e+00
-6.535360655591606616e-01
6.827211250753102423e-01
3.077456294026820194e-01
-8.214795600917135232e-02
2.361993639754010887e-01
-1.114038378711994071e+00
7.561969971418840419e-01
-6.952779502273241929e-01
8.799472649521028478e-02
-6.568644550769866530e-01
5.438826988700370402e-01
-1.897110825279379798e+00
2.728396872588052524e-01
-7.629700700307453509e-01
-1.889207259150850193e-01
-1.169027447512518414e-01
1.206687591005214388e+00
-1.428344229985141878e+00
3.955480832008303471e-01
-5.348887178073358228e-03
2.475089163794922109e-01
1.006863364885773438e+00
-1.655914521941909801e+00
-2.254243612747443559e-01
6.420153796828549364e-01
-1.292209916442027540e-01
5.001686103907995173e-01
8.832724179110491569e-01
4.554529168469631517e-01
8.021012615752054487e-02
1.011033375445120175e+00
-1.758090622286584415e-01
-8.911023854384959586e-01
8.385898106646554329e-01
-1.139247186027226189e+00
-8.571856592782254314e-01
-1.470519029338674510e+00
-2.434261926042025626e-01
-1.047776818716873226e+00
1.190323000421040334e+00
-1.163556212420641667e-01
-1.368166031812948769e-01
-5.906620672092697255e-01
8.506619923496841484e-02
-3.017543335412403716e-02
6.475656377172461786e-01
1.504472022169256740e-01
1.778385041196928196e-01
9.774280370720659361e-01
5.703306836654420398e-01
-9.080212412005986833e-01
-4.018289588262713430e-02
1.257267890240278074e+00
8.138276440735094930e-01
2.168615586324263989e-01
5.538095020461047957e-01
-2.532787351175280754e-01
8.097246883538263829e-01
2.719957602142702990e-02
-9.060529456228545442e-01
4.605011019336161526e-01
8.885724635223065659e-01
1.644011012017658979e+00
-1.532854788646917932e+00
1.085621900550669316e+00
5.091119345029062604e-01
2.921053240102862159e-01
1.077897953888512783e-01
1.167033580756950073e+00
2.066731383050445459e+00
6.859156568735408355e-01
7.169799933254566993e-01
-3.228381523534922248e-01
6.415308344983465805e-01
-8.396424333486821601e-01
-7.256196070982207091e-01
6.340298653068727752e-01
6.013905614554733159e-01
-9.391420467730304811e-01
-1.262245573794277931e+00
-2.974762408353756604e-01
-9.650616171268149301e-01
-7.707420380871694565e-01
4.955057425212595068e-01
-2.688549954181283508e-01
2.949923959805732521e-01
4.506676652672302330e-01
-6.234777509424231923e-01
-1.962287658212199526e-01
-6.334055586284051964e-01
3.652210523951123777e-01
4.438988706176322241e-01
8.885841427441112939e-02
1.071473435022820109e+00
3.864793591492392544e-01
-1.080994571482725597e+00
5.928834019750697237e-01
2.508598589925734590e-01
9.370001384294296409e-02
-9.451648119900797618e-02
2.644267275609845091e-01
5.786431447459203792e-01
-2.809074692913282600e-02
1.356104959243271901e+00
-9.427412893990098075e-01
3.692748543943178974e-01
-8.576835489244915012e-01
9.584670336575410454e-01
-9.886735679986453640e-01
-1.143162898625068147e+00
8.263521951271584065e-01
3.347897367579302230e-01
-1.933029962863464180e+00
1.101806465321350847e+00
1.817406477564101064e-01
2.400802383879380830e+00
5.066309185000463650e-02
5.130198757591402092e-01
4.610416866962391280e-01
8.147727309645282912e-01
-6.843192986261490418e-01
1.767748960325185914e+00
-3.494178803978686965e-01
-6.201135802545227893e-01
1.065565364671277937e+00
5.889874949777929025e-01
1.036351850491942894e+00
2.360099537400174086e+00
4.088718935969272161e-01
3.293602945176198338e-01
2.240086967488509329e-01
7.953429746966926839e-01
-1.241351863269558597e-01
-2.128392529124505383e+00
-1.445159385121692175e+00
7.249020386437682317e-01
8.255743428113990756e-01
7.515008220437583430e-01
1.994603442090618350e-01
-3.290222702184749659e-01
2.487234955101229050e-01
7.774279338905567549e-01
1.008401744854828141e+00
-3.263063702697435176e-01
1.002979695499155666e+00
3.946063858163239013e-01
-3.218090719433832625e-01
6.762169516804934499e-01
1.181621275357640277e+00
1.183918578912877884e+00
-1.120136222128385040e-01
4.308648204552571470e-01
-1.049802064576569188e-01
-2.144485073579709411e-01
6.531415230882415823e-01
-1.117608296738221263e+00
-2.193098004348152941e-01
8.524506714496729032e-01
9.431184103604991487e-01
1.660938872337004657e+00
9.115270680943878823e-01
-4.419657273411666254e-01
-1.101388426766886752e+00
1.117643718530432873e+00
-3.343278101294883120e-01
-8.239356812098055372e-01
1.069512534123848446e-01
5.919109622972320572e-01
5.365683999268694437e-01
-1.071924686071829003e+00
3.413329555433908813e-01
-7.160769646681941492e-01
3.136032036903587672e-01
1.729859988886370270e-01
-5.944877248537301373e-01
5.079979357194799872e-02
6.558263025197602625e-01
5.444112288012301071e-02
9.216329789936031913e-01
-6.589304362959906847e-01
-6.865661232396830238e-01
7.864285120921751249e-01
6.484830127216295592e-01
7.165861771167888472e-01
-2.731152122736107413e-01
-4.033167342701884373e-01
5.467768775434864725e-01
-7.157967523433494961e-01
-7.081639744502384870e-01
-2.130318030694174247e+00
6.881562560692784380e-01
-9.711859636118336248e-01
-1.108025035476846831e+00
-1.046796732534909791e-01
-7.652364864620555540e-01
-3.844899754936782488e-01
6.489818521668442308e-01
1.228348004001250438e+00
8.660904891551191032e-01
-1.858721471503990974e-01
3.742032717373766082e-01
-3.400619781492267291e-02
-1.639055704857621254e-02
4.520867729652753297e-01
-6.888929618754541240e-02
-2.153283079716649950e-01
1.612563209850280121e-01
-9.717657565022153054e-02
6.883006709528121103e-01
2.740670674018921282e-01
-1.242102745440578859e+00
-4.192009410651887924e-01
2.120349252655436278e-01
-4.712903303626917451e-01
7.412088650970798387e-01
-3.623063749555984758e-01
4.004925011478179808e-01
-7.442238665589320235e-01
-5.004851920831370204e-01
1.071179065905260464e+00
-1.306259506926730429e+00
3.952272386482891253e-02
3.200998458070359876e-01
2.019331051334114946e+00
1.070912485135045999e-01
4.230069551023349916e-01
-8.683556266312755234e-01
6.489327349039998305e-01
1.275061078559065919e+00
3.505302851369296313e-01
3.535509297583410149e-01
-1.221195936421702211e+00
-1.062670451653031367e-01
2.845974779781624830e-01
1.657802540825850102e-01
7.392971994447080641e-01
2.192987978159687046e+00
1.272634084481991001e+00
3.539542768515397952e-01
3.026957312357613783e-01
-6.696061360364241599e-01
-1.281626062402871247e+00
9.123063657222008072e-02
9.499416200610137917e-01
1.621540841062137916e-01
2.304576820217312250e-01
-4.700778809517291990e-01
-4.096387159826520019e-01
-9.944254206770272164e-01
-1.878079710119727186e-01
9.025642381483994781e-01
2.216810798479277866e-01
6.271431817217689719e-01
1.143580276589452716e+00
-1.098835226653208874e+00
2.761394579788285508e-01
-1.254091088444596824e+00
4.438979066811061802e-01
-7.160000605471759094e-01
-4.037776847657237322e-01
1.023756332898867694e+00
-5.758534564530783939e-01
2.901286624469749387e-01
-9.490038318354738767e-01
-2.911276269570206576e-01
6.050428967936033464e-01
-5.098053646650234638e-01
-1.344687731181172796e-01
-7.300522736767645071e-02
-5.678614803662300758e-01
-4.593022149230979179e-01
-3.731775813256871244e-01
-2.479666049743698142e-01
1.775973461899224837e-01
4.021585653175808739e-01
-1.699993761462159081e-01
-6.729832120705547815e-01
-1.332465328798228654e+00
-3.963608700982109712e-01
-4.434841861626753756e-01
3.783291220899258067e-01
-1.293123023853293141e-01
3.419163714764078543e-01
-2.760876095054096147e-01
1.002117610547669679e+00
-2.840152440369073106e-02
1.147951332638258215e+00
6.772532710868847117e-01
4.175872424351386170e-01
8.383510782970540198e-01
3.741263575298113819e-01
6.554761137498307244e-01
1.283167000985504291e+00
-7.904378225534862690e-01
1.254358720194057808e+00
-5.850241392335947532e-01
8.810280324850607858e-01
-2.425170747407511929e+00
8.060748498429433084e-01
5.283671069070098314e-01
-9.457557801390015229e-04
1.187073347049816707e+00
3.982868378698323220e-01
9.300032723677599256e-01
3.787272503764085307e-01
4.059999616443084602e-01
4.363930276985546475e-01
7.072154353879216426e-01
-7.197449537064020131e-01
-1.044377649253094148e-02
-6.659509748006380014e-02
1.022612180599391241e-01
2.030189167028973174e-01
5.357818544175492192e-01
-2.467490267173817753e-01
1.630397323908025775e-01
8.254706162797534885e-01
-6.400278178615352864e-01
-6.459367218892486662e-02
1.008378758709850970e-01
1.862318946258326446e-01
1.210542703631477313e+00
1.371246622459324493e+00
-7.736789338028494667e-01
1.955976504774754154e+00
-1.760352666274303535e-01
-1.388668429528133963e+00
-8.319025242967136302e-01
1.216639352103784821e+00
5.307978184328647764e-01
-9.455924465840672699e-01
-4.491073716352096956e-01
-3.905611456352985345e-01
1.090796701332821694e+00
2.518814078639574627e-01
-1.286547413749758562e+00
-2.916612771999088638e-01
1.909683334137178834e+00
5.974911665418165541e-01
8.296507421432088858e-01
1.032274771965792759e+00
1.043082698462391766e+00
1.592388530386381895e-01
1.498530659358884520e+00
-8.107869022735772480e-02
-4.207663959319459246e-01
-3.508545840132475391e-01
-3.178899183581714860e-01
-5.977537789227259646e-01
-1.173047031187380185e+00
-7.443070411469759895e-02
7.419553336774229457e-01
3.921811280125345189e-01
-2.889130257657885892e-01
1.756050467819432637e+00
-1.728159068121012387e-01
-1.693020387170355967e+00
-3.746924700475250392e-01
7.197173401891046041e-01
-6.019735440552361760e-01
1.032102196312461029e+00
2.165687123247934942e-02
-1.673403220219985832e-01
-1.043096152425804224e+00
-2.935663056096305401e-01
-7.347675869595117204e-01
-1.604983636445186934e-01
-2.391358219595591250e-01
-5.742538647013208930e-01
-4.514782529851948389e-01
-1.959827735230393442e+00
-1.290906408791124393e+00
5.090210936649426365e-01
-8.696630291743265850e-01
-2.408219461941414063e-01
-2.530563923014903516e-01
-6.866475384374826074e-01
2.460706163530101964e-02
-1.875384677701166514e-01
-5.445507993617819675e-01
8.350958989065369042e-01
-1.262081971033929273e-02
-1.371117451779912400e-01
-1.820410259273978759e-01
-1.197161884605921989e+00
8.221770527970753140e-01
-6.282102593098225496e-01
-1.097969693593381146e+00
4.512548873789923309e-02
1.243605402637657509e-01
3.893505718304913765e-01
-6.512600088710912560e-01
-7.758660664949557084e-01
4.542844788620669649e-01
1.167910502958034114e+00
2.176207595036023790e-01
-7.200516321578991352e-01
-1.435829804323568437e+00
1.732903038689116992e-01
-2.407086190561649186e-01
6.774558799587917512e-01
-1.115780059101389998e+00
-6.362004070713778159e-01
-2.192972657716625029e-01
-4.683475739891513889e-01
1.070464742008128578e+00
8.935733317265730502e-01
7.237884945466112052e-01
3.676280977202783795e-01
-5.286550206369221572e-01
4.324214479570674952e-01
-8.566820980668914398e-01
-3.583905852470907205e-01
4.222822630279932099e-01
3.624089908797015758e-01
2.399530944835263913e-02
2.599290229610917713e-01
8.629716346488219836e-01
-1.635354707683406017e-01
-1.038823291991015640e+00
2.536999348235995377e-01
-7.010026587884854443e-02
4.287997556998849880e-01
7.707349073723612776e-03
4.785198572852173982e-01
-3.461494514225072483e-01
-1.080278422774746949e-01
1.150805264861094468e+00
-2.041409393810668105e-01
-7.012279434227777219e-01
-3.115007237700279097e-01
-1.129849508353734322e+00
-1.847490603892733008e-01
-7.759275086247405806e-01
-1.305093324103326680e+00
4.834099680605295490e-01
6.260152754437168232e-01
-6.486068474237627335e-01
-2.107253011165927115e-01
-1.028995611374968755e+00
3.793371230985737030e-01
-3.534247668802789621e-01
-3.330246543112110880e-01
3.597386875478679746e-01
5.209494028223692341e-01
-2.950873845065391521e-01
-5.798670877468846685e-01
-4.659374785796004115e-02
9.027976317700999731e-01
-3.075546947119797703e-01
-9.636584277359026007e-01
5.606730088691016523e-01
9.795333396352690070e-01
1.012809957272794437e+00
-4.988044996291166600e-01
2.912806252730624212e-01
-1.309368529681069204e-01
-3.371295979900410522e-01
2.580832104772222690e-01
3.763289989651825707e-01
4.608891223489128275e-01
-8.743437647629511700e-01
-1.246516163988274362e-01
-7.792823007668120416e-01
-2.092277855262123509e-01
-7.731206999436768257e-01
3.035599585069549411e-01
-1.205280712142316607e-01
6.242394477505661676e-01
8.968347136214067650e-01
-3.388562876697511772e-01
-1.110380498831970986e+00
1.266224643825060392e+00
-7.150299102164147103e-01
-5.493212464152651409e-01
1.706121105792223758e-01
-9.340146705517224923e-01
-3.276335191632770427e-02
-8.116174385823857196e-02
-6.226962205181640897e-02
-9.085455770895568550e-01
5.400981597395839717e-01
2.537914287700994698e-01
9.086272885897297424e-01
1.009236450346360781e-01
3.578777613777065492e-01
-4.839084162709144654e-01
4.428201852898202562e-01
-3.168499377512852266e-01
-1.912799502280159158e-01
-1.474697962530205908e-01
-8.255500457986417739e-01
1.083354453422438191e+00
1.147734488867961700e+00
6.746697293717182076e-01
2.027465193877669158e-01
-7.751496493877173544e-01
2.548206538043844005e-01
1.085205203096517135e+00
-7.536561978727633893e-01
-7.949352683438956069e-01
2.723540461971847293e-01
2.387211452364458031e-01
1.445214698701579259e+00
8.184622339368186061e-01
1.226633056018909151e+00
-1.699143868804299240e+00
-3.079611362954601250e-01
6.886627798415120294e-01
-7.070615588205313440e-01
9.280812730516875275e-01
1.013745345979298218e+00
4.035030658022130678e-01
-4.682397452973230956e-01
5.752764594467610904e-01
4.975667665878046320e-01
3.287870973912352945e-01
3.177938559112681305e-01
-1.734991005039846768e-01
-4.085929866345933137e-01
1.370093800167920151e+00
-3.660936502996828823e-01
1.371709557842771821e-01
-3.089429281515021497e-01
-3.731397400889150395e-01
-1.187971905314542775e+00
-1.183299363388499836e+00
-2.580096787831587246e-02
7.598596177319569822e-01
8.014090642104525486e-01
-1.622363536550554652e+00
2.213927595763720557e-02
-5.140569442542719525e-01
9.384460478011573681e-01
2.997196637225640892e-02
3.593848231153105033e-01
2.270601479959823088e+00
-1.247230621086693025e+00
1.432094312983627660e+00
-2.891677837790336825e-01
-1.130010577752580181e+00
3.130948953856502737e-01
-6.440553014729424319e-01
2.623451986508659184e-01
-2.969545505182125122e-01
1.079995485968849867e-01
-3.239077612917705129e-01
-9.924060718615120846e-01
1.235607540316043806e+00
-2.524116836353527127e-01
1.259503164310058487e+00
6.391543839173895458e-01
1.411489561858239039e+00
-3.190505428439178170e-01
3.247101691484310382e-01
-1.967132609879300165e-01
-2.558697268197079322e-01
4.027202493056647459e-02
1.133361506001739016e+00
-1.148004600564235256e-01
9.480172017026903264e-01
5.165805504849273477e-01
5.956833699382051428e-01
-1.318703949621405913e+00
2.852268288943567431e-01
-1.068424850145564653e+00
-1.537692932971870707e+00
-6.728465800815731646e-01
-2.583568329314287482e-01
1.363170363483924508e+00
8.444397713334619304e-01
1.810160570641325406e-02
-1.111689168224322177e+00
-1.789736709004100534e-01
-2.267461599064954647e-01
-7.239155479763909051e-02
1.681864430584627756e+00
2.544586946729957000e-02
5.467259940214744818e-01
-6.012410819874580703e-01
5.819691842584865382e-01
1.048224804564289236e+00
5.087258040049209562e-01
3.541154910226270713e-01
-5.334840084646239600e-01
4.257603421672574440e-01
5.020781635087714356e-01
1.672577873327252551e-01
1.376431182529941899e-01
-6.024805082451343274e-01
-5.396415543537484982e-01
7.420174186352211931e-01
-4.372404192859019045e-01
-5.812424042478299135e-01
4.270277189090912473e-01
1.204241666619335849e+00
-8.379838569911834956e-01
1.448401995490699590e-01
6.465674162859645913e-01
-2.304711459566002318e-01
-2.240735775195052681e-01
-5.734390340640467265e-01
-5.422424674741888051e-02
-9.628005363919927007e-01
-7.323502615774128977e-01
-1.833067212497985765e-01
7.577826494465011997e-01
2.617873240292766246e-01
6.839430610816981115e-01
3.327207627246043797e-01
1.517365934740356748e+00
-7.463343192192384290e-02
-2.565700449722706500e-01
3.064127849074441690e-01
1.003652557208293050e+00
1.037137369237222106e+00
-6.055832381528252206e-01
-9.557589846207901196e-01
-1.596054340090758750e+00
-9.391448139125235794e-03
3.298013210023630348e-01
1.478729285559354789e-02
-1.850951448297284141e-01
9.209207776451282523e-01
1.194434898793047761e+00
-4.464106987238019020e-01
-1.837403410551378125e-01
3.821763601728485060e-01
-1.870035974477969598e-01
1.067923893737732222e+00
2.090694570104123073e+00
2.089898573162139783e+00
1.370557552825774073e-01
1.099278841932890494e+00
1.832113828655295151e-01
5.058481861637941224e-01
1.846238415067709693e-01
-9.326796329527600182e-01
-1.964251378229517897e-01
5.623758166019984239e-01
-1.946157798762825353e-01
-7.478087602677467860e-01
-6.068151208094618720e-03
-3.880416159320614344e-01
-5.940873867384199869e-01
-3.168363846772045411e-01
7.011624716502622423e-01
-3.232414623335792547e-01
-3.086005423678679360e-01
-1.923361956137070283e+00
1.646658208992852979e+00
7.906385301086740203e-01
-3.797487562208348155e-01
-3.558973527873103282e-01
-1.061051081367211824e+00
-3.026690855742751873e-01
-1.321470573199809984e-01
-1.862697057975046255e-02
-3.647685154790253903e-01
1.719162854875154967e+00
-4.611332518967234950e-01
-3.908436349766473139e-01
-8.510115800435082978e-01
-2.880546809494191965e-02
-9.203333957491202089e-01
2.055414458259138488e+00
-5.000220504438478430e-01
3.171767484356087241e-01
-5.012473283068915597e-01
-4.105792704678716265e-01
-2.945668691849573362e-02
-4.578339811739697840e-01
1.879717255972208623e-01
2.388868116101255934e-01
9.561065715369156948e-01
-8.282056225470082467e-01
3.070527291235400913e-01
-2.874349176110989612e-01
1.027862875245354024e+00
-2.093609784397330031e-01
-7.697632009014523935e-02
6.934331838849820684e-02
-1.944698778448153309e+00
6.692292136734858676e-01
1.946158935563466752e+00
6.844739850745671372e-01
1.715203539779679431e+00
5.186801729139204342e-01
-9.075849801566979735e-01
5.212009332911546888e-01
-6.442852076526561778e-01
2.962657428517647684e-01
3.088538298303877272e-01
-1.287285799704438460e-01
-7.672346454664185078e-01
-1.758225772100201201e-01
-1.233323990717687391e-01
-4.075651583768261643e-01
3.073314056603934086e-01
-1.374369560002799973e-01
1.008448759718205689e+00
-1.983959175515984663e+00
9.035703024485736146e-01
-6.572352327883044243e-01
-5.383308443479307703e-01
-4.401921553730555603e-01
5.345372603505680331e-01
1.112293478187016627e+00
1.062237511932800499e-01
2.002038656052637644e-01
-6.705080301133907739e-01
-6.642587424294510434e-01
-6.722758108022027779e-01
3.447278354647941301e-01
-1.045165300458074098e+00
3.192691451951445991e-02
6.733848299088538436e-01
9.739060944157582611e-01
-4.044816548156973113e-01
1.733708438603839497e+00
5.719760107336595567e-01
-1.593289647297951861e-01
-7.989239023933856210e-01
-1.180216186943909173e+00
2.614025316440513613e-01
-6.213910506894190222e-01
-9.583459723805173858e-02
-1.287710981672935961e-01
-3.758986626413663990e-01
3.768616904287871439e-01
1.089427828119140074e+00
-9.410931354971399099e-01
-6.324486152582260434e-01
7.082525079305758142e-01
1.414949647274635680e+00
-2.946555501420913270e-01
-1.294021494637301317e-01
-5.324683145828971176e-01
6.740833767624046513e-02
8.653731384044398567e-01
5.432274656645349475e-01
2.429200678747597264e-01
6.798594003778477557e-01
-5.595191942526265283e-01
-1.272474397573585048e+00
-4.039720853011126711e-01
6.081419496205874298e-01
-1.676902391753999355e-01
-4.404144280123606370e-02
-2.326269293957622386e-01
-1.519014267956168562e-01
-4.262367440362953008e-01
3.724183473304543135e-02
1.496564491686335485e-01
-9.269522227549452376e-02
4.549535091193836200e-02
-6.673569011353991387e-01
9.077277556914202794e-01
-7.449544346939973583e-01
1.771194274678719871e-01
-3.580014974358260993e-01
-7.178744270500318769e-02
6.258254248032238953e-01
7.161651679533082016e-01
8.572690139327727721e-01
1.416139768749165917e+00
-5.194171443525398557e-02
-2.153160576796394832e+00
-1.666835312015126913e-01
-1.474424890059965743e-01
4.643596874668587393e-01
-4.216824845935990829e-01
-4.316579031303249825e-02
1.792036923985894870e+00
4.645156122302257495e-01
-3.917348359806091529e-02
-4.559803841388939682e-01
-6.460370762535745381e-01
-1.290254829292800443e+00
8.402891773965617261e-01
4.534769591453734205e-02
7.958680125324704702e-03
-9.256618930069130391e-01
-6.697505204748632757e-02
5.639903805824080241e-01
-7.713159989488944657e-01
1.140657829895441733e+00
-7.256106028474885727e-01
4.722862686399224019e-01
-1.213176632686752798e+00
6.973755580614067195e-01
-4.894384803889334501e-01
1.489651023868083790e-01
3.452826080790201146e-01
2.723061180268776527e-01
-2.253037218769214367e-01
-1.302178645567561022e+00
-5.696896793957757499e-01
8.718789720899915441e-01
3.133321865948149321e-02
5.910322793517434059e-01
-1.092692151606751816e+00
3.664358369689080797e-01
9.114362404173663723e-01
9.120132489722913016e-01
5.112126450615971374e-01
7.734961912776383564e-02
1.403725610222789077e-02
-4.332025349335577591e-02
3.674538006483078489e-01
-2.557916497125742872e-01
1.372982071909172319e-01
5.340610014544413531e-01
-1.723028245268654057e+00
7.745495581611073765e-01
7.461096994655291859e-01
1.210787368868351949e-01
-8.433191840855867039e-01
5.702689568593182212e-01
1.576175175349920465e+00
-7.141451995696191934e-01
9.083398348077454942e-01
9.385470851608498921e-02
-4.559101092116659149e-01
9.449801846923038262e-01
-2.529744778656485282e-01
5.469962786186118864e-01
-2.164462850033095354e-01
1.970235864823806360e-01
-3.441243207753165168e-01
5.688589533009829058e-01
-2.606046160378372445e-02
1.723151490412059061e+00
8.873009655667968287e-01
4.716396205857206203e-01
1.202625842065356832e+00
2.148351333226022897e-01
5.616330789898458242e-01
1.006094873244717247e-01
-4.739761368633111926e-01
4.769304123463318223e-01
-2.874061086239952933e-01
7.328068400001198635e-01
-3.662914537191836462e-01
-8.048823414958090616e-01
8.806383623518406756e-01
-2.016745689536936503e-01
-2.246971359329653917e-01
2.139156919165962067e-01
9.767378614367866474e-01
5.277651224760999682e-01
-1.390570779509653909e-01
4.559434383037763161e-01
8.602989544073107175e-02
9.620511710249568527e-01
-1.575462340733435884e-01
-9.665112775827899849e-01
7.741271721112302773e-02
2.829831960265664081e-01
3.888171827542588055e-01
-7.206012289358760814e-01
1.094393322099052324e-01
-9.073817359550168105e-02
6.430007616657228420e-01
7.008968232494873218e-01
-1.118855404699659939e+00
-1.697743400194680508e+00
-2.812789523731325514e-01
-1.939815706747294033e-01
5.639024303988199316e-01
6.883694436517930892e-01
1.354921749562077338e+00
-1.466757455540489197e+00
1.282290510163129671e+00
6.547032067565943247e-01
-4.726128290480131611e-01
1.199946050804169939e+00
6.089656850147295852e-01
-2.159025334596689771e-01
-2.828463273546805712e-01
1.029706194964284727e+00
6.483103966371298599e-01
-1.862840685395660695e-02
-2.083304792836292441e-01
-1.434422861579476294e+00
7.121551530177332445e-01
-9.276248120109348294e-02
-2.648882995840921017e-01
1.050692560533802222e+00
2.700637374727283269e-01
1.088218224294485115e+00
1.953622949104428352e+00
2.885854207979886565e-01
2.150610917768555064e-01
-6.486124940369271119e-01
6.073511666793385277e-01
-3.918882653938574601e-01
-8.453955878180804406e-01
-6.588731194018591086e-01
1.158245357426197053e+00
-6.086897795683665624e-02
-1.483808436214872017e+00
3.629028200020268935e-01
-6.806078264998536298e-01
-2.266212954186114237e-01
5.069088385800296637e-01
3.355847074651889805e-01
-7.203423839241801518e-02
-1.197735295514631648e+00
1.060689424599113861e-01
-8.520953533366553145e-01
8.562426508689703342e-01
-2.387979150409991203e-02
-4.422292507774259196e-01
1.782490053454252321e-01
1.284302802101126240e+00
2.117014898036835291e-01
-9.205981337381735630e-01
3.656481269972167158e-01
1.778937238115397279e-01
1.126225915140559031e-01
2.868501071145542758e-01
-8.967898603818973136e-02
9.840945168087692485e-01
-2.546431929141361183e-01
-4.408371265210793699e-01
6.807153646931309865e-01
9.689616352051917403e-01
-4.161587714386076886e-01
-2.740302802643809210e-01
1.198463218817005238e+00
-1.415192954199702591e+00
-2.338994150266846539e-01
-3.132805091256491981e-01
-9.037550655480314221e-01
-1.486547840460045178e-02
9.574194202843435697e-01
-1.291153370646724863e+00
-1.198247317631474518e-01
-5.299924214316845683e-01
7.926659613729806209e-01
4.294473990777240013e-01
-6.464460055223004709e-01
7.460786774344799754e-01
7.648505131461593720e-01
1.070570430884730140e+00
-3.778559620683039633e-01
1.865148205397390457e+00
-4.570192990065028438e-01
2.477880578231262954e-01
-1.542469168068489882e+00
1.918085109997200444e-01
-9.570161940281898261e-01
-1.325996031674004927e-01
8.229400218928752953e-01
-2.926365866616331135e-01
-6.515987641479303871e-01
-1.107724233756414850e-01
-4.818433467497652556e-01
3.648428253288650280e-01
-5.385566221993952629e-01
-4.953162057863036427e-01
-6.498414852773448658e-01
9.877836364838636918e-01
-5.712700716080165719e-01
8.518704133264282108e-01
7.369711785836198237e-01
1.573346895583309368e-01
-7.414686850570333387e-01
-2.457114913102438625e-01
3.442990614250437953e-02
-1.023845470002338054e-04
-1.576684310027366642e+00
-5.321966388545302795e-01
2.096303037074925602e+00
1.105537864885769217e+00
9.402202608698062569e-02
-1.486646663368227816e+00
-8.693176007985783382e-01
1.261609111766760771e-01
6.761985199275721836e-01
-1.062730074997459084e+00
1.948507083072108070e+00
4.189115328445593978e-01
-7.701499092455136308e-01
-4.387615560281840632e-01
-2.031278003445136371e-01
1.756319462285061417e-01
-2.616015341109579895e-01
-3.620905610166059718e-01
6.101337156455159949e-01
-1.647066141134027273e+00
4.076044321333420484e-02
9.341692498665132849e-01
9.927143662040545102e-01
-7.947612754501757193e-01
-8.382307502845914859e-01
-2.560550862283890172e-01
-3.732967512909826091e-01
9.503565385013784672e-01
-2.138784136785663037e-01
1.424474060523047148e-01
-8.130726610034528790e-01
1.203286485466323885e+00
8.477592669948843529e-01
1.634870796277613225e-01
2.255447242882483716e-01
1.384762979542805805e+00
4.254310875850150775e-01
8.041919999933873076e-01
1.618580361626191788e+00
-1.770447270223220571e+00
-9.923280945111254692e-01
-8.988059318261338859e-01
6.898632042691575927e-01
1.053861308701187771e-01
2.515862485984462271e+00
9.287028975716180579e-01
-1.458574830940463918e-01
8.575712893205866827e-02
-6.949138640982077675e-01
-1.527249608672933467e+00
-7.664315637365236578e-01
-1.969814981142748722e-01
1.247700734880805351e+00
6.056918564303781505e-01
5.872562000649349523e-01
1.420070711454775036e-01
-1.005983168615866230e+00
1.914489586792882669e-01
-4.645616164218662192e-01
4.475573316946623303e-01
-8.049702167872134773e-01
4.955924970385272577e-01
-6.336163015150149125e-01
7.315870518639482345e-01
-2.977363601332683185e-01
-3.832899999778197619e-01
1.350707816013380913e-01
-4.916401855861349812e-01
-2.926417912753914163e-01
-1.349142688535214685e+00
9.961715538077495768e-01
1.771135858941716545e+00
-2.923703928741759328e-01
-3.668534297453768245e-02
2.122945362053434426e-01
3.093878428991673757e-01
-1.677834379618780680e+00
-3.570186422046046082e-01
9.499369520358373897e-01
3.557653734179547222e-02
1.722105262627519728e+00
-8.945659750598091708e-01
8.886655482366228043e-01
5.415722545541168387e-02
5.139760799486710052e-01
9.352858402148341854e-01
-1.324569845364346743e-01
-3.866344121533272782e-01
1.945990969940889492e-01
1.036942536172372309e+00
1.445817367287240973e+00
-3.911683483919743409e-01
1.536973330949295002e-01
-2.253673780737604826e+00
-9.466718179375834819e-01
1.262702811436882122e-01
8.331755360444880187e-01
1.536340029572479393e-01
-2.576319199606769139e-03
-3.617824165389433855e-01
1.487394986526630269e+00
-7.256277087021389960e-02
9.702665722307426410e-01
-5.889134537564034710e-01
1.311992892531102517e-01
-9.586867800249615490e-01
-5.480749082049225507e-01
1.616479625839183365e+00
3.645282429504617117e-01
3.162208147936889091e-01
8.443552466753849739e-01
-8.237178829265351387e-01
-1.688456612737522899e+00
8.048593188823525146e-01
9.717615929662954954e-01
-3.852828292197572613e-01
2.346762224841691391e-01
2.170858758180743697e-01
3.191788579958124705e-01
-3.894335994884776664e-01
1.062523051524040918e+00
7.530591865401856655e-01
-1.382928336565053984e+00
1.517305345519674997e+00
1.097414373357819439e+00
4.097606077586379847e-01
-4.069632622098190988e-01
-2.452265882653631157e-01
-1.306990348864591200e-01
-8.089596702206711676e-01
7.382865406856522483e-01
2.868650574057929337e-02
1.620671334369705452e-02
-6.281144868967742934e-01
-4.841731325827056676e-01
1.238351093468472580e-02
-5.549739781493306240e-02
1.004029641924898630e+00
-1.284525412890138441e-01
-5.337580179323651031e-01
-9.722138040909604761e-01
-7.981442549726169844e-02
5.327683910734304362e-01
-1.686334108509183471e-01
-1.655959085888518145e-01
7.651545411442162159e-01
2.009831299306020780e-01
4.507726832657252825e-01
-1.422635451034823806e-01
1.318647644281631948e+00
-1.079883165014748903e+00
-5.111700993545073013e-01
-3.058276301429025956e-01
-1.850513261565839285e-02
3.411203091893451056e-01
2.921540689766887744e-01
1.347743717585306311e-01
-2.719199578358726388e-01
-4.180656031443527043e-01
-8.233677175504574564e-01
-1.237223394350763783e+00
1.563013844580984246e+00
5.433995829852339421e-01
9.981361666903680874e-01
6.369768224962962799e-01
2.406567149572129249e+00
1.403461588880504873e+00
1.426229949068543723e-01
-6.205806237519738700e-01
-8.019892202002111281e-01
8.673276917914901629e-01
1.965529727677905319e-02
-9.272645582526264363e-01
-4.102143541237385227e-01
-7.828415656148777213e-01
-1.699252286692241043e-01
3.197127159422585851e-01
7.178818234492001515e-01
-1.394085009867472413e+00
-8.249298555827682122e-01
9.914066832034718058e-01
-6.812990517291095394e-01
-2.791427338226206145e-01
-1.086193594058322720e+00
7.298111322356974906e-01
-1.699852083295048999e+00
5.452172312627975304e-01
-7.637105243639292773e-01
-8.063004542505294303e-01
2.683311004052194026e-01
4.944596100006307671e-01
-1.081319210388523855e+00
4.861289058432485266e-01
-7.777045606791737065e-01
6.736581393902276726e-01
5.932577954827624733e-01
7.764951517077117726e-02
-4.205117013697012851e-01
1.582975855792229103e-01
1.077488038435213014e+00
-1.436150011726788689e+00
-6.852647620566306719e-01
4.397159628348819016e-01
-1.013466203894599627e+00
6.466849705509358781e-01
5.790904706543047453e-01
1.855799404655998353e-01
3.735464565787913749e-01
-3.694708248024524688e-01
3.435469379020323344e-01
1.362932157359941776e-02
7.514951480176372822e-01
3.096647622506739084e-01
-1.222056912070670798e+00
-5.224347909989406347e-01
2.829672305799768584e-02
4.656512744747003385e-01
-7.261300345268889567e-01
4.386436104513541379e-02
4.663681995884062514e-01
6.233570553037108830e-01
1.516425981351324781e-01
5.455243495201289594e-01
-1.666521285121099205e-01
3.109176572095646018e-01
1.610404901287734614e+00
1.201381220506389180e+00
3.170799039962828858e-01
1.407051541201809863e+00
-3.088602261348715183e-01
5.881813907324923152e-01
2.058829026261141670e-01
1.808701875949382254e+00
-1.873257474310522586e+00
1.111688983662008745e+00
-3.361025534130496206e-01
-5.021714537046108040e-01
-6.618257957011282056e-01
-9.273665963445466565e-01
1.341286450911220174e-01
-4.173535884848641464e-01
-8.594708635260054352e-01
5.798247195753385846e-02
3.229089178697012175e-01
-1.361721205361072329e+00
-2.110970595230405866e-01
8.436863287039938486e-01
4.396149450778544243e-02
-5.236084984731220748e-01
-6.502837664083513380e-02
1.177566285889340092e+00
-1.027868402698043138e+00
1.794151203466683775e+00
1.187988204021828809e+00
5.048802153685598704e-01
1.735160413801560386e+00
-2.275585601893452825e-01
1.704591699163550800e+00
-3.843846637737785565e-01
-3.221206863953292032e-01
9.032012444597210532e-01
-8.780362191001533922e-03
-1.030124056418183720e+00
-2.951382585042143236e-01
7.928205803452106348e-01
-3.167887759431800010e-01
-2.629455765733335060e-02
-2.530200273387378296e+00
-7.823668594922293940e-01
5.710842680806671456e-02
4.336140241076981150e-01
-8.526560713748694287e-01
-7.881392362338207613e-02
-7.673055687226127963e-01
2.731366599227507130e-01
-8.676968137664049507e-01
4.006590846907843728e-01
2.861076220758560495e-01
9.025401903968616191e-02
-1.428200218010330147e+00
7.737592136805447884e-01
7.063703940731801412e-01
2.981927084435816999e-01
-2.508371067636677720e-01
-7.226651755432118573e-01
-1.188868207488160245e+00
-1.067166038128782413e+00
4.332227088657353842e-01
-2.446297789454944804e-01
-2.015872360759172199e+00
1.300387873970863417e+00
7.153113055932924791e-01
1.653725604052062037e-01
-1.761720907490190169e-01
-1.099756572460109050e+00
-4.375272577312049327e-01
2.509878846073954062e-02
-8.826739121928250942e-01
-1.135121332890989265e+00
1.667165879538404227e-01
-3.326541430271040545e-01
7.064890688088598658e-01
-4.580345864249432686e-01
-6.306688313863328954e-01
-1.407797565316762090e-01
-3.718047096594886969e-01
-1.396815364254498371e-01
9.263869891849259020e-01
-1.268132259290496444e+00
1.352456887475725678e+00
7.781559038738594669e-01
2.977858139128691795e-01
-5.128853618718096086e-02
2.113694092149776549e-01
-3.057965287710920355e-01
1.230445234386678521e+00
5.437765535743489531e-01
-1.448744679423569215e-01
9.630846190148127928e-01
-4.960523805443738388e-01
5.576984970942979736e-01
-2.216402666214123851e+00
-1.622472336035153118e-01
-8.444663190408334685e-01
-1.393594356384884270e+00
-1.417472641292222835e-01
-1.190016532575866925e+00
-5.483773121451667176e-01
-2.224471620645747993e+00
2.633913892813926072e-01
1.157556489793616361e+00
7.622825215685942180e-01
-1.237980540456693479e+00
-6.473169774309787128e-01
-4.545208076706171996e-01
9.781831715864626187e-01
7.416387216411092220e-01
-5.836722757061515443e-01
1.386492733179794046e+00
2.169656182416468404e-02
1.643094405406445802e+00
9.881756566299170208e-01
-1.714818978685555217e+00
-3.071368520508318545e-01
-6.271507193864697127e-01
-5.434535345814333063e-01
1.554065437818097362e-01
-1.805529527989204519e+00
8.007158090176489385e-01
-5.402921983210808854e-01
-7.865859676505759790e-01
-6.114288736061636031e-01
9.114200374918346448e-02
-6.204600743556776266e-01
3.268924543494180490e-01
-5.027555909338454754e-01
1.639830659374531319e+00
-3.548772089127545382e-01
-7.027096561320975709e-01
-9.328951507928425757e-01
-4.736616477581742646e-01
1.525613047221644480e+00
-9.695662769248649671e-01
-4.025670384120798584e-01
3.390629843358743956e-01
2.684644424377454763e-01
-8.453562011672903775e-01
1.040790394596393525e-01
-6.979479060576914140e-01
6.348085289710313495e-01
4.728829905970965974e-01
-2.807946170616366643e-01
5.796315709723915965e-01
-3.685724354384879997e-01
-3.898064463564265281e-01
-5.757915601878056400e-01
1.645661842544156594e-01
2.908701670557063967e-01
1.181022875661088267e-01
1.461712328169431641e-01
4.150780711906053577e-01
-4.347409773097291596e-01
6.109074075415439342e-01
3.232721502996291907e-01
3.126985443527990349e-01
-6.019792324481316736e-01
5.903741367084497371e-02
-8.241386947215807446e-01
9.692062682881436020e-02
-5.223897971759386971e-01
1.000950943207899124e+00
-9.069866556940036073e-01
-7.884814185306632250e-01
-4.450120952752895098e-02
1.411269964254018017e-01
1.284566937359018057e+00
-9.977091512161411213e-01
8.143101953426528095e-01
4.084294063405324859e-03
8.694023146332660601e-02
-7.339850537942412823e-01
4.110777150982081740e-01
2.274813414931964872e-01
-3.300783854562335806e-01
7.491208999009304481e-01
-2.042861531280302512e-01
-1.794219287563141751e+00
2.006510652240104942e-01
1.499196534268512737e+00
-6.334079145935528343e-02
7.366107233884606753e-01
-1.559220840232759642e+00
1.496472721356879032e-01
4.999499345274160955e-02
3.924394666081800764e-01
7.681719844147492093e-01
8.583523698431136939e-01
5.210092012835246811e-01
1.259827239860610959e+00
3.365061409380748492e-02
3.402660749393120465e-01
4.515492012736039285e-01
-1.088701661082433381e+00
-9.492177087030619909e-01
-6.633791976745471164e-01
-9.667709840716914860e-01
2.120123483440399248e-01
1.323009471497422762e+00
6.918469573880664525e-01
-3.450902700554879798e-01
-1.143303921166006543e+00
8.685205688881934005e-01
4.450691685725610691e-01
9.504934152445522200e-01
-4.885426323403324611e-01
-1.316545276790368479e+00
-5.795010306661151356e-01
8.658801095079288190e-01
8.550733069506433193e-01
1.665875944512313911e-01
5.568131960014428561e-01
1.272970459793932196e+00
1.274439038685575731e+00
3.433238941379230802e-01
1.206180968533368647e+00
4.696666744393611648e-01
-6.569210212625589129e-01
-1.393908432601619340e-01
1.482980734895334773e+00
-4.618653240779513336e-01
8.048884599819575159e-02
-7.713679384607670109e-01
-3.075554405968120020e-01
7.147878555335352990e-01
-4.883377073572931493e-01
-7.925655805468002635e-01
-5.689568865262004671e-01
-1.891821640131769733e-01
2.185292664682418895e-01
1.899375506072725206e-01
-1.433933293434054068e+00
7.173761970272121147e-01
-3.808353149533310056e-01
4.216210957727447584e-01
-2.692169537166125282e-01
-1.144262721748897871e+00
3.756202767938939258e-01
-5.285316545124059129e-01
8.008677913918107460e-01
6.622470688996016097e-01
-5.428755000234125605e-01
7.998747939012720298e-01
-7.864936003083783378e-02
-3.971219998771222670e-01
-1.986952207905812173e-02
2.706146424986586307e-01
-5.820291251065078802e-02
5.999825182092328735e-01
5.359271364070606891e-01
-2.176204432740436179e-02
-2.225356353547315591e-01
4.417231596417734441e-01
-9.798077211914673068e-01
4.125343162190689417e-02
-8.337329495311823768e-02
-8.864999673226585664e-01
-7.110534397908612192e-01
-4.346078548196480318e-01
-1.230219379935240942e-01
3.132747173186118395e-01
-4.597764494551814796e-01
-1.323145444652313318e-01
9.407642722391870715e-02
-2.408643545886167969e-01
5.987729404777305531e-01
-3.459368152984052536e-01
6.084257020591296028e-01
-6.434304415817491130e-01
-8.501342127275257621e-01
-9.657951004074291634e-02
-1.887700731132319509e+00
-1.805072123558044417e-01
4.072484800250601999e-01
5.869107242136388791e-01
-5.831010198154874535e-01
4.704629083280061352e-01
-2.044708728163171507e-01
-8.235870791595814033e-01
-2.884246226876160946e-01
1.234119447358828781e-01
-2.043813576994105430e-01
-3.130449872420552060e-01
2.347862831578881038e-01
-6.182145815177886305e-01
3.798974642228825638e-01
-4.140582239866945069e-01
-7.695343781575686437e-02
-7.135009799450902079e-01
-1.479909654304462974e+00
7.037323708746550111e-01
-4.094621655639612556e-01
1.042678803739181870e+00
3.960409306058204626e-01
-6.088743141022030514e-01
-1.134889858330772938e+00
-8.704733491515352917e-01
-9.490051987917483278e-02
-4.929017362736410890e-01
4.403440718945703103e-01
1.125273931362720026e+00
-2.434726005152040851e-01
5.622720359449232541e-01
2.996970266477170242e-01
-1.089144689549744749e+00
1.731700944617753923e-01
-8.975575715861814352e-01
2.699314536822777777e-01
4.241289283601717419e-01
-3.103689109185638895e-01
-2.731865023109349144e-02
1.333038037917125163e+00
-3.815480129628299188e-01
1.000323357445421113e+00
-2.103051967810076195e-01
-1.103922041577055785e-01
-3.365506787690727419e-01
-3.263287035310680761e-01
-5.427959987032455746e-01
9.470934931643765209e-02
-1.418686378010723392e-01
7.861923352170540058e-01
1.651697171817911203e+00
3.466953208056964275e-01
9.443781897181649509e-02
-8.207565461726431533e-01
8.846539050296213791e-01
4.149577382613927057e-01
1.243115467319467760e-01
-1.006823929360912029e+00
-7.279511340305755418e-02
-5.927901002806382769e-01
1.652999345907850415e-01
1.298185461459095524e+00
-1.198349910184335343e+00
-1.127917726487753791e+00
8.211294873587522414e-01
9.805820207286801427e-02
2.747972781347416404e-01
-7.076251755243775365e-01
-5.340638154659538284e-02
8.574646652574177130e-01
6.424098538350503373e-02
-4.694316146651207333e-01
4.000356093287145698e-01
-1.448126734138356131e+00
-1.098212593544810822e+00
1.144764762136944558e+00
-6.080204892583755960e-01
2.792294450014288776e-01
3.843953711105854709e-02
-2.663447539412314158e-02
-1.467302898936454769e-01
1.117221622405453196e+00
-1.547378071986647896e+00
-1.162952870077341161e-01
1.540732201267824841e-03
4.587861348119514071e-01
-4.508449720910517322e-01
5.954362551123515424e-02
-1.393007873689489640e-01
-1.274174786701562923e+00
1.714454464780518439e+00
2.985826593842465515e-01
5.831480128644443983e-01
-7.013664331091526427e-02
-3.214321384987174346e-01
1.011218565293246607e+00
-5.042889087340695076e-01
-1.673198571605267526e+00
-1.295123604656744032e+00
5.456382175731311346e-01
-2.088510226764260513e-01
-8.759880709024350232e-01
-8.219793202785335984e-01
6.118365649273607154e-01
1.171175121604860703e+00
-1.032979836644876137e+00
3.115772388233107315e-01
-7.040586238127142238e-01
-1.036938194808838531e+00
-2.111266295837443407e-01
6.446356982855139250e-02
6.891200972163065153e-01
7.012748225176284045e-01
-6.250801560536435320e-01
2.838331303436852915e-01
5.042166136023518153e-02
9.326719334843930342e-02
1.747396970830513707e-01
-1.893263115381930983e-01
1.430506658312915569e+00
6.957761258278514216e-01
1.348866159169482382e+00
6.280869443939884889e-01
4.563493358364070218e-01
2.317545094668284733e+00
4.538677892344807341e-01
1.353921463169629469e-01
1.707880231734532628e-01
-4.334247599839592402e-01
6.791397164946932907e-01
3.063880370209620674e-01
-7.218286018659054726e-01
1.184759118225373609e-01
1.338158104468014420e+00
-1.183340079452021687e+00
-9.935565981816755210e-01
-6.546830242649898102e-01
5.597732074366196242e-01
-1.339326346353210129e-01
4.778948138445177074e-02
-5.772316376027757379e-01
-2.642987173220312513e-01
-4.585329903235624283e-01
-2.513863546791149095e-01
2.388818476120061707e+00
-2.971353592946827105e-01
-5.657918613746597547e-01
-1.003518308083236887e-01
-2.017745409943068613e-01
-1.292885387192176827e+00
3.087482422371476964e-01
-2.676753685612743849e-01
1.094579609955379784e-01
6.743799075304823809e-02
-5.656006736664517809e-02
-3.230175516149730308e-01
-4.593713152025031832e-01
8.900479953535658240e-01
-7.635721359236075090e-01
1.182929292149002665e+00
-4.344113148418122794e-01
-1.135184074615594563e+00
1.215719857150909800e-03
-8.667507902299793621e-01
-1.693153072787204616e+00
-6.072717714447135595e-01
-1.661436138979709431e-01
-2.453351462306226916e-01
1.105174299418815842e+00
8.931174141661580856e-01
1.002031291663492280e-01
-1.468433780448985537e-02
7.512199502663530204e-01
9.814502371122761637e-02
-2.029879126306398440e+00
-1.860058813690238733e+00
-1.799912284373308968e-01
1.127375908167632890e+00
2.167646735448325035e-01
-1.711902348073114366e-01
-1.922317632218822903e-01
3.572720148621311154e-01
-9.283682104018357861e-02
3.550195069040117946e-01
5.447774915223543291e-01
4.119274825888276093e-01
1.189402425962784449e+00
4.648949131764349429e-01
-8.949943216365063847e-01
-3.449716575749119940e-01
-1.368123305188394534e-01
-1.264006301293283119e-01
1.017688656706828176e+00
-4.958672151843045439e-01
1.085192571388267968e+00
1.354679538607174993e-01
7.160555244673110220e-01
-3.588983011293798153e-01
6.426809111281258646e-01
4.863503931109515177e-01
-4.332852380355826094e-01
-8.926519397557214353e-01
-1.733242693091490594e+00
3.240658317030689628e-02
7.157193378122488348e-01
-1.165756877641215938e+00
-8.629676944141337902e-01
-4.718545288427360429e-01
-3.900066882228680476e-01
-3.800212691229875039e-01
-6.039122390806777041e-01
-8.699612729224168728e-01
-1.270473083567749129e-01
1.868947130410848478e-01
1.028848078345772521e+00
-1.995146686043754447e-01
-1.947209732258107451e+00
-3.869442580888466932e-01
1.063124749295080829e+00
-1.187829844028046589e+00
6.073834801658204441e-01
-8.193283279340490832e-01
8.301664671833367537e-01
-7.132629703513269082e-01
-1.700955052517868493e-01
3.608973582573513639e-01
8.358216688189621379e-01
2.908080071010947787e-01
-3.800889013810390127e-01
1.001414800622848267e+00
7.400303241694664580e-01
9.664679034182488415e-01
-1.068125480279466188e+00
-1.086224988584941764e-01
2.958241935645419263e-01
6.633667722665385069e-01
-4.182325621016075301e-01
-1.048160276672145397e+00
-1.582908541105619626e+00
-9.473866667930205820e-02
1.688483897430414604e+00
-5.104954029030344120e-01
-1.054668526183900612e-01
-3.032596936797555820e-01
-1.642304353085192847e+00
-4.279534298765014233e-02
-7.550058397872319582e-02
8.071700541106474613e-01
-4.232374845653088524e-01
-5.835634617941911628e-01
-5.966538351757261216e-01
-5.740775086174438879e-01
2.786761315029457897e-01
1.208097313555636321e+00
-1.533607687197366287e+00
-6.815645132787240268e-02
-1.011404801128050535e+00
9.394725017297409497e-01
9.004452894367039051e-02
1.263549158449299714e-01
-1.501257447937755785e-01
5.364579837250524896e-01
3.064667378520199437e-01
-5.519485769624737914e-01
3.785330555726972301e-01
-7.472848778625238442e-01
-1.018791536384978658e+00
1.057070148653771247e+00
5.407713724973320923e-01
-1.327714390059906879e+00
5.668052383539430306e-01
