2.705761980518966400e+17
1.838742320067371008e+18
6.410370225212337920e+17
1.027553909799069696e+18
-3.227147452748003840e+17
-2.518010315567683174e+19
4.430167262737453440e+17
-5.506959539833613440e+17
7.853886395099692800e+16
1.945428261366493696e+18
-4.547351684189043200e+17
4.925236420858158720e+17
9.139313191161238528e+18
3.280189248502712832e+18
1.432047801812558848e+18
-1.412085073174849280e+18
-3.862814564705374720e+17
3.674931280092421632e+18
-5.730191725613132800e+16
5.186775746986419200e+17
4.063208067579855360e+17
2.738653556224493760e+17
3.454247533012266400e+16
4.897886693826174976e+18
-3.182750096591318528e+18
1.172261267442212608e+18
-5.870590987095119360e+17
-4.379472552586830848e+18
-6.276935298331886080e+17
-3.654815701125149440e+17
-5.892269787823170560e+17
-1.167304102473418400e+17
3.722633851037600000e+17
-1.831199203817757440e+18
1.523752633495440960e+17
-6.842169273776828160e+17
1.352635402669439744e+18
-8.351050299491253760e+17
5.790893905362337280e+17
5.160433426642012160e+17
1.632613944425683712e+18
-2.372661831910145600e+17
2.242537351050139520e+17
-6.210899893953757440e+17
3.245344769109897216e+18
9.715183598243577856e+18
5.426122794352722944e+18
-1.930046285148125184e+18
1.586028192457716480e+17
-7.233450598963718400e+17
9.821399424949660160e+17
-4.477640766866310400e+17
-4.403261852809640960e+17
-2.076079485701935360e+18
2.473648351473525760e+18
-3.718660422832376320e+17
-4.295074672413849600e+16
3.936848385651392000e+17
3.611690549797992448e+18
3.205997107233147392e+18
7.974584253959988800e+16
-1.405027785177272160e+17
3.048403477909685120e+17
-1.111158364324578048e+18
-6.603014565158409216e+18
-3.869900529743051520e+17
-4.216702730130513600e+16
8.236824708661066240e+17
6.621401884564832000e+17
-2.225769636572367360e+17
-7.671595922459808000e+17
-3.073637502462960640e+17
1.792922849488415488e+18
1.543053611356051520e+17
2.962056108573980672e+18
5.229898851699540480e+17
4.543980821763154560e+17
-4.523478319771599360e+17
-7.108947436213083200e+16
1.867220899196035200e+17
7.844798565840160000e+17
8.834611519413897600e+16
3.760855745157705728e+18
4.952864193932151680e+17
1.027780295678821248e+18
1.374328163825706240e+17
8.389205296113952000e+17
-3.173204515328450048e+18
-2.841277072515724800e+18
4.768473011332610048e+18
-1.413741235890487520e+17
-3.155224557213542912e+18
-2.657100771845579520e+17
2.664524597547699200e+16
-3.146329893863205760e+17
1.730519315647769344e+18
1.383898364659458304e+18
-4.143621524033843200e+18
3.024336229177150464e+18
-1.602463520052000256e+18
-9.126447864145721600e+16
-1.958455496152914944e+18
-3.228522308638801600e+16
3.666804330978034560e+17
1.233310772919725875e+19
1.817772907510712832e+18
-7.543552480935155712e+18
6.484453542935086080e+18
-3.275350618982311936e+18
3.170751797085822720e+17
-2.005578800110541824e+18
1.330866753039279680e+17
-1.745473349417433280e+17
2.435296867786982400e+17
2.385330575006365440e+17
2.571646064459005952e+18
-2.169498126115879040e+17
-1.135013197860478400e+17
8.083891233121411840e+17
-5.128199729859852800e+17
5.314528135478782080e+17
4.002618118857785344e+18
-4.220918663924225280e+17
-3.248803746395388928e+18
4.203166521830962176e+18
-3.319837866143577600e+18
2.382261529705013760e+18
3.767492607851378560e+17
-1.270986094021406976e+18
-8.030652552850225920e+17
4.731796420984247296e+18
1.150292506815192832e+18
3.076734540715823616e+18
-9.893894753616268800e+17
1.987909739643071488e+18
1.035013724018893568e+18
-1.688692003080585600e+17
-1.961648807981740288e+18
8.454741438579441920e+17
3.511121027894688000e+17
-7.292751648667562240e+17
6.233648834164092160e+17
2.928346227493463040e+18
-7.287381836913676800e+17
2.836802303576858624e+18
8.930714488745625600e+17
-3.156967373482397696e+19
1.743545466478494720e+17
1.108873058787506995e+19
-1.241660531789562880e+17
-5.882225635501792000e+16
-7.115882716621859840e+18
2.436620631021739200e+16
1.264326728464839936e+18
6.293199247648043200e+16
-1.039874597290179040e+17
4.945059548663763968e+18
7.647444851607651200e+16
2.290683696197540096e+18
2.509392174688579200e+16
1.614065288081520640e+17
-7.940296935142087680e+17
2.739844164439296800e+16
-1.849535822002721792e+18
-1.663615122563628160e+17
2.378087956048695040e+17
-7.665705475904016640e+17
-1.872830321340000000e+17
-4.476108105024403840e+17
1.832622310551650048e+18
2.806280510401026048e+18
-1.284284516585965056e+18
-3.128823439508654080e+17
2.926005236177406976e+18
1.608460680236667904e+18
-1.891644411750897408e+18
-2.647740780227951040e+17
-1.895822524832023808e+18
3.249409541759079680e+17
-6.418622810759541760e+17
6.698729484871324160e+17
5.198193713593267840e+17
7.736676046025605120e+17
-1.621332442360832512e+18
2.255901472773658560e+17
2.815675975989133824e+18
-1.185517735579730240e+17
-4.342085948340016128e+18
5.236351476218647552e+18
1.506711644539253248e+18
1.000628137696840800e+16
-1.104517469686238592e+18
3.036268608971302400e+17
2.851029022352659840e+17
1.215198744686273600e+16
1.284081047469295104e+18
-1.027285580361155968e+18
2.723660635121358080e+17
-8.382706424776715520e+17
2.746019373101368320e+18
-2.480663245059034240e+17
-3.175117875021624832e+18
2.195386685148128640e+17
1.286241033859977984e+18
1.809227101681799360e+17
-5.958754677676010240e+17
1.608343733005384704e+18
2.697117273631111168e+18
9.050143475150553600e+16
1.062367559399236992e+18
-8.005120711354583040e+18
-4.608838490068300800e+16
2.235369216837497600e+18
-8.469056888569290752e+18
1.180322160169297920e+17
6.249864641108029440e+18
-1.232333484683392512e+18
-2.786630761988625280e+17
1.196779841363907789e+19
8.050329249352659200e+17
-2.134106308285194000e+15
9.043210031940641280e+17
1.064706717154744000e+16
8.152256579839624000e+16
-1.001188477886079040e+17
1.874518034616797440e+17
-5.980120389945873920e+17
2.202250442980598400e+17
-1.893198621864360960e+17
-3.777174429402387200e+17
-1.201919074818438144e+18
-1.795340050545062000e+16
3.267515256238763200e+16
-7.082737764182289920e+17
-4.354476646351817600e+17
-2.515156991184809920e+17
-5.011268577463987840e+17
3.148615247927023360e+17
-6.465105340048128000e+17
1.114598981719776480e+17
4.931654852092405760e+18
6.910084378453660800e+16
-1.818049494240038720e+17
-1.260797337664799744e+18
-2.363700867900564992e+18
1.727238358698980096e+18
-2.779632402080136704e+18
8.002959582159491200e+16
1.109202604343769600e+17
-1.282741394952444160e+17
-1.161274761048132608e+18
6.876536584303233280e+17
-3.697795302546785280e+17
9.507530252703760640e+17
-1.019729635303441408e+18
-2.227293475045553280e+17
1.551459106823640320e+18
-2.469229290671968256e+18
-3.662236537167542400e+17
-3.626172682628140800e+16
-4.452529221874245120e+17
1.276825863348181120e+17
4.604342956319118336e+18
1.338929919702092800e+16
-7.901322626389476352e+18
2.469608540421808320e+17
1.098464181078739712e+18
-5.486009774862527360e+17
-6.567653354600620800e+17
-4.151053389130722560e+17
-1.111095646706402720e+17
8.448461015699415040e+17
2.256368688066760960e+17
-5.332314258863558400e+17
1.132104351919970816e+18
7.855293337991550976e+18
-1.839956876320076544e+18
6.094573796957207200e+16
3.588832798546471200e+16
-6.477278588019252800e+16
1.358259702337520640e+18
3.134355699044501760e+17
2.373008551539511360e+17
1.359103188999140352e+18
7.464068372490974720e+17
-5.008960004088056320e+17
-6.561271979704815200e+16
-2.470552014232185651e+19
-1.744226636226286080e+17
-6.421712442443267840e+17
5.479096679033992320e+17
1.080389060056914944e+19
2.661467778031750656e+18
7.608839248112207360e+17
-4.798859852279633600e+16
2.490085575598681600e+17
1.849686627329179520e+17
-9.578438235697411200e+16
-9.197687719603109120e+17
-1.202856008063433216e+18
7.171269692658754560e+17
1.680638704094584320e+17
4.313322924500736000e+16
5.266748701499635840e+17
-1.299968570313445632e+18
4.750310854883637760e+17
-2.271083818476631040e+17
2.286666630807153664e+18
-5.099339037259474560e+17
8.762266457857667840e+17
-2.980804752074910208e+18
5.039335878138362880e+17
1.852086392179108608e+18
1.025853141655032192e+18
5.203372611918955520e+17
4.250542223396263680e+17
3.490748503433080320e+17
-1.444508302555081728e+18
-5.116532770169917440e+17
9.183591978649451520e+17
-9.911636172285177600e+17
1.495055436282707840e+17
2.376914842715290624e+18
1.109557279433241600e+16
3.893973328070734848e+18
-2.553870083065222144e+18
-2.619041489468856320e+17
5.821734381914168320e+17
-1.328795081040490240e+18
2.024931555472274560e+17
-8.013083975356119040e+17
3.065324835185049600e+18
-7.479796414155216896e+18
7.708235063799856128e+18
8.308159959992350400e+16
-1.376182116698515680e+17
-2.925641660258929664e+18
1.146960468549754400e+16
-6.220540867007535360e+17
1.960306924586863360e+17
1.974106968986817920e+17
-6.608162570374085120e+17
4.445443639041235200e+17
-1.051318004572731136e+18
-4.362646090334348160e+17
-1.067468823911365760e+17
3.381084930655605600e+16
-1.142578087999493120e+17
-2.293669000958588160e+17
3.623991983959904000e+17
-7.783179342227599360e+17
-1.602470175072133120e+18
-1.279324939653683840e+17
1.021278573560568320e+17
-1.888768723949521280e+17
1.782247283699849216e+18
7.024621747485977600e+16
-8.110817015220486400e+16
-6.433943254535778304e+18
-5.457511109890791040e+17
-1.327159629880871840e+17
-4.006994321796762880e+17
1.158431970323018138e+19
-2.859301449781262336e+18
-9.723299712608924800e+16
-3.210367419960392192e+18
3.430948607774929920e+18
2.697622180019536000e+17
-1.241411852788349920e+17
1.882615593136344576e+18
1.328493932966607200e+17
-2.034921684420672320e+17
-5.283900995224404000e+16
8.290208527526736640e+17
-9.891364703192288000e+16
-1.563427377142947200e+17
-1.066031683997340544e+18
-2.841700131534020800e+16
1.859964435413650560e+17
-2.554151765178041600e+16
2.665543176932706816e+18
-7.430111872620216320e+17
-1.614598371225912832e+18
-7.050898024811677440e+17
-5.057739725346537600e+17
1.217613826121261568e+18
1.657221551599456256e+18
8.692312343096617984e+18
2.591670508961808800e+16
9.705694717280476160e+17
-1.696736071292176640e+17
1.867562533661078016e+18
-2.319290606737401200e+16
4.220496265730846080e+17
-9.899352188708441600e+17
3.617845559090165760e+18
-7.068846962656330240e+17
9.712690312136390656e+18
-7.824658406684709120e+17
-1.778135248156574208e+18
-4.714183185723137600e+16
8.669358579546997760e+17
-1.211983707546772160e+17
-2.088272701455266880e+17
4.333804864848606400e+16
-5.857432050835691200e+16
-1.273095210703034368e+18
4.755783270299712000e+16
-2.398322059504311040e+17
2.553763749347020800e+18
-1.536559498424325632e+18
-1.867727158065102848e+18
2.096545464958528256e+18
-1.030710365007064320e+18
-1.758360587985605120e+18
1.333984482595714720e+17
-7.237476949515542400e+16
-3.277951537874713600e+17
3.228106238201509760e+17
2.499409868097107968e+18
3.543348769164816640e+17
3.978071012547516160e+17
-4.325762804454949760e+17
-9.650172308795319040e+17
-1.928558549467168256e+18
-1.349779028820698560e+17
-8.505543334233429760e+17
6.430088971869073920e+17
4.828824165803770400e+16
-2.825764033900912320e+17
1.989053327390776064e+18
-4.961518298227374080e+17
4.995166953106557440e+17
1.650246111508961024e+18
-8.894392156077516800e+17
2.869646086303674240e+17
4.762226585059491200e+16
-1.782981805451007744e+18
-2.636755181206465024e+18
-3.509268190153088000e+17
5.252162948560382720e+17
2.502949115867938560e+17
-8.784575731209210880e+17
2.661467243729424640e+17
1.278159990646591680e+17
2.810768468999154560e+17
8.931437299900736000e+17
-3.000504594069151360e+17
1.094614783935741952e+18
-3.981953260687598080e+17
-4.085879279326280960e+17
-5.115878803811894272e+18
-1.180318405626713344e+18
8.992503747001904000e+15
-8.173492495338208000e+15
-4.209251539436915200e+17
1.393464425528864000e+18
2.423688993818214912e+18
8.082121580709341440e+17
-1.161835081611492352e+18
2.367301411531975040e+17
2.315565466371391680e+17
3.565630172158256640e+18
5.550299617882398720e+17
-8.460339604603891200e+16
2.573586243210972160e+18
2.051292419600238080e+18
-9.893609782151659520e+18
7.446402489596413440e+17
-1.554020020867362816e+19
-1.492736771925683968e+18
9.448706850859280640e+17
4.106574512242168832e+18
-7.660657865059779840e+17
-2.314301854071643136e+18
3.853418765994260992e+18
-1.774962509726199040e+17
2.814252263673433088e+18
4.290949339693680640e+18
2.211140107132675840e+17
-3.280596456646552320e+17
2.856043683975229120e+17
-9.734946387818572800e+17
9.905405237456464000e+16
-3.042055668352544000e+17
1.645542586507688448e+18
2.518810349570773120e+17
-2.914620786997865600e+17
4.542792849968788480e+18
1.977728578983725056e+18
4.337117571283038080e+17
6.059674245831205120e+17
1.733611046431872256e+18
-9.254315670524849920e+17
-3.496091503452783616e+18
3.955042605299443840e+17
1.431097539649428160e+17
-2.492294898986360320e+17
7.777956961760081920e+17
8.549526230584463360e+17
-1.879674406064482880e+17
-3.987142065043037440e+17
1.017218149078052224e+18
9.998569109435953600e+16
-4.664858767457832320e+17
1.985023914991993600e+16
-3.416867959793309696e+18
1.268205724083972608e+18
-1.468780394503191552e+18
2.979832581208726016e+18
1.227102681333745408e+18
4.822765623325767680e+17
4.654433720655061760e+17
-3.467206529697364480e+17
-6.765267302166252800e+17
-5.801242756621756160e+17
4.379946578738760320e+17
4.158170897937441280e+17
-2.148736673693138432e+18
-8.096246273267545600e+17
6.269470807753370880e+17
9.197835558356426240e+17
-3.104196475976117248e+18
5.322751759383447040e+17
-1.640679181079604736e+18
-3.191216933205625344e+18
4.007048726839382016e+18
-3.132126361278399360e+17
-2.205093482314940160e+18
8.420130984895539200e+17
-2.396639580875087200e+16
-8.212333313653633280e+17
2.273022519648973824e+18
2.017625513688839936e+18
-3.811838847912466432e+18
1.305703049973015840e+17
1.397262401009245184e+18
-8.176256109540999680e+17
-7.575688764942682880e+17
-9.571893150520107008e+18
3.906615748242016000e+17
3.522979892604878848e+18
2.552254585937865600e+17
8.617652619862700800e+17
-9.668688329472793600e+17
-2.557319771271110656e+18
2.789565924785368320e+17
2.618725028512893440e+18
-2.163624742698571776e+18
3.298144190365990400e+17
-5.626192556773324800e+16
1.065213188608541056e+18
1.792528200841229440e+17
-5.024306735728140160e+17
-4.178610009458724864e+18
-8.445661509315138560e+17
-3.402708006591800832e+18
-4.407317901860024320e+18
-1.068663322759044864e+18
4.480608194405496320e+17
1.822862754824823808e+18
-9.547605923206000000e+16
4.963069894341115200e+16
1.043057825158789504e+18
-6.558928088267593600e+16
-1.641423628092676864e+18
-5.128936439838664704e+18
2.418843346925880000e+17
1.040716638745408384e+18
1.356044601606536704e+18
1.055524286623121920e+17
-1.569127790996896000e+16
8.026023550563156480e+17
-1.887268142365643264e+18
2.728779855360199680e+17
-4.476916868647623680e+18
-6.340350594853600000e+17
2.627334308270633600e+16
2.380667603334320960e+17
2.393353552354031616e+18
2.412702093540217856e+18
6.863218921605972992e+18
2.110398353313341184e+18
-4.990705608083407360e+17
-2.160514424041863680e+17
7.202373250070106112e+18
1.898908773583987200e+17
2.031245503608538880e+18
-7.006313384511284800e+16
-4.651962401284549120e+17
1.700973692971181056e+18
-1.470472346954910400e+16
-1.351340712508606720e+17
-2.319959842043553792e+18
-2.303454038291945472e+18
3.967856421527086400e+16
4.647895644761232384e+18
-1.009322733359779072e+18
-1.565908087553414656e+18
1.560674798106038400e+17
2.094685084962903296e+18
-1.122521784056691328e+18
-1.113082869851188480e+17
9.254999816651484160e+17
-1.901253173423956480e+18
-2.164365752072264000e+17
-3.284074234798593280e+17
-1.031518920673096704e+19
-5.372620006627603456e+18
1.563141676936093440e+18
1.044783834353294400e+17
7.049425317441524480e+17
-9.325267617817769600e+16
2.114278326209379584e+18
1.802910947296849152e+18
-1.141183843424962048e+18
-3.109861870469255680e+18
-1.038102463063383680e+18
-2.638516540727527360e+17
3.270456932147273600e+16
-5.215894519178307840e+17
-1.083405263724747776e+19
-4.031017670484346880e+17
5.178724009660770304e+18
-1.347650971202014464e+18
-4.743924777687754880e+17
5.816416329707495680e+17
-1.355751329614202560e+17
9.757207161896403200e+17
-1.005095759986642432e+18
-4.648162094847209472e+18
-5.796021193015045120e+17
2.988052385678323840e+17
6.169158430484069376e+18
-2.788400995211118080e+17
-2.237931413737540608e+18
-2.776454446784591040e+17
3.290389698318305920e+17
1.133250850150505984e+18
2.112075205232615424e+18
-1.767449668500530176e+18
-2.670316562670310400e+17
4.675900242515902464e+18
-1.575711190939036928e+18
-4.942029534058684160e+17
-6.654311424711077120e+17
8.462731750219042560e+17
-5.269578878999374080e+17
5.016496389789723520e+17
-5.784565498427201280e+17
4.443306854783612416e+18
-1.197662503125025120e+17
1.062368078583432960e+18
-3.224103940792267200e+16
-4.739590390538336000e+15
-1.216753743256224256e+18
-6.558120834544156160e+17
-4.618321170489884160e+17
2.957487455188428800e+17
-5.628682838640224000e+16
-2.469055346670459392e+18
-1.154706140002393600e+16
-8.099451866263988480e+17
-2.340234051685112832e+18
-8.183903440619453440e+17
-1.036407741033305344e+18
1.326704914418095520e+17
8.297489283174256640e+17
4.920957574116661120e+17
3.145390485062892800e+17
-1.789384490080676000e+16
6.544709633012459520e+17
-5.428333360761175680e+17
-6.594973215855913600e+16
-2.480902515995163520e+17
5.853381985163233280e+17
-9.725537504171836160e+17
-6.099068347992732000e+16
3.638310660240595968e+18
4.086088217013498240e+17
-5.225400521873911680e+17
8.811999300949369600e+16
1.438667780421929728e+18
-1.054630239296137984e+18
-3.451642825724126720e+17
-1.994059013701554560e+17
-4.203193999874421248e+18
-4.159722187875879680e+17
-1.490252808625630208e+18
8.869681948859386880e+17
-1.132874447659459584e+18
1.043230904374059904e+18
-5.153932371047036160e+17
9.315438183512488960e+17
-8.094575416010726400e+17
3.660298331925624960e+17
1.095240462380958720e+17
7.972181330770378752e+18
-1.170983826123424320e+17
-2.091149707109257600e+16
-8.857837177096456960e+17
1.150926044595819840e+17
6.602078820322963200e+17
-2.136388058995660800e+16
-4.264534761498533120e+17
-2.811208746465124160e+17
-2.565486076756560384e+18
3.700594767904564800e+16
-1.808394255041051648e+18
8.668125917702801920e+17
-3.407664126841602560e+18
-2.336221083727206400e+17
-2.664431963928215552e+18
-5.061434009932427520e+17
3.645864283380459008e+18
-2.338107050412036000e+16
-1.702671215717156352e+18
2.341067319820593664e+18
-3.638236131474049920e+17
-2.378298761134884480e+17
1.238518971002860544e+18
-3.931715694622786560e+17
9.801384536716038400e+17
-1.339985331046229760e+17
-6.397809623311200000e+17
-9.221223672005585600e+16
1.539980157196992000e+18
-1.462298443739909120e+17
-8.261121150389772800e+17
-5.793080546208403200e+17
6.375628482306782720e+17
1.987610094134614080e+17
1.883880665034108800e+17
2.413110718484485632e+18
9.962269019181664000e+17
-3.884606890378011520e+17
5.316871678934681600e+16
1.754686547979551360e+17
2.391593472697200128e+18
-5.503173021202129920e+17
7.714375405002580800e+16
-6.110369687478021120e+17
1.382389801619840512e+18
1.723870460254853120e+17
2.562734422452050432e+18
1.707695226710534144e+18
8.971523672877972480e+17
-4.008113091657195520e+18
1.637013537321240832e+18
-5.780663364357725440e+17
3.584371028098392064e+18
-4.760940583595943680e+17
-3.503135703196953600e+17
-2.946843458642005120e+17
4.400548043423123200e+17
1.320957189858506240e+17
1.510744901962942720e+18
-6.791610671849040640e+17
-4.636113381225415680e+18
-5.825200996186818560e+17
-3.412606000944439296e+18
-3.523438602593582080e+18
-9.615784043256387840e+17
-4.666732262031214592e+18
-6.902016467841853440e+17
1.662483700181709568e+18
-1.152070422987948800e+16
2.056404774428545536e+18
-2.781126457052300800e+17
4.303571067876953600e+17
2.731946503689306560e+17
5.514707634806507200e+16
-7.135290848175680000e+16
8.913935917864711168e+18
-1.059611670822782464e+18
1.583533653115388160e+18
3.798378898938569600e+17
3.625037696591394560e+17
-3.237843190143982080e+17
3.100997379300691200e+16
-3.370784375222233600e+17
-5.433773199657267200e+17
5.507015185396270080e+17
-1.304209986734213120e+18
4.593496588727073280e+17
6.136772923518941440e+17
4.596597971540114432e+18
-1.235350377566190336e+18
-5.904910422860264960e+17
-1.786558687454870720e+17
6.570547669483768320e+17
-1.611054875848244736e+18
4.011836207470050560e+17
-5.169168100192578560e+17
4.913318549541102080e+17
-4.039060613861551616e+18
-2.789536858926353600e+17
-4.343374316155702400e+16
-2.834275155907553792e+18
-1.916502770410005504e+18
2.605010849020027840e+17
-3.033244977541040000e+17
1.733483147890278144e+18
-6.393839689419124800e+16
-3.116564433604330496e+18
-4.277565166818304000e+17
-1.442899358829081600e+16
8.247642768769299200e+17
3.689605018152381440e+18
-5.703120005160860160e+17
-3.962037244296632320e+17
-2.533322002257739200e+16
-9.840671286507753600e+16
-9.881117134973414400e+17
8.886795724813521600e+16
2.524189340591071040e+17
4.047693276442035200e+17
-1.028078052916871360e+17
5.995699433109269760e+17
2.574284900454999040e+18
-1.310779274929896000e+17
8.557692658273976320e+17
4.129110084263497728e+18
-1.745621804822617856e+18
2.295956799181757440e+18
6.632566964152632320e+17
-2.078218302073549600e+16
7.261752695351764480e+17
-4.032694188799150720e+17
7.529025381000087040e+17
4.183036741571672000e+16
-1.265153166014130720e+17
2.370987614532088800e+16
9.569684689005295360e+17
-1.961744766117532160e+17
2.285254262618299392e+18
1.393753764526206464e+18
-3.708738030505444480e+17
5.417901481535332352e+18
-2.016627358303732160e+17
5.115920308172184960e+17
5.150049171570780800e+16
-2.953704478677358720e+17
-4.654049421800576640e+17
-2.095097684343322368e+18
8.398964863593915200e+16
-6.978170636908103680e+18
-1.648975921713320320e+17
-5.736912645058364416e+18
-1.826929839328045824e+18
-1.008028115549108160e+17
-6.366111104962426880e+17
1.730044927904888320e+17
-2.152407380884638925e+19
2.133385672318597120e+17
-4.711774478419840000e+14
-4.606260316970544000e+15
-3.936047401049767040e+17
6.822861344822278400e+17
4.456671013680233984e+18
2.083417407964984320e+17
2.395608566764576640e+17
1.860183991755510400e+17
1.357193439676993024e+18
3.512841779095879168e+18
9.705932185986295040e+17
-1.099231619097513280e+17
-7.976006943070963712e+18
-7.260938613087397120e+17
2.117389188216049664e+19
5.226360393644595840e+17
-2.191804927398848640e+17
-2.856322646634184192e+18
7.503417719719708672e+18
4.261087553715888640e+17
-1.986575430991037952e+18
-8.275892911160136960e+17
-3.299932339743393600e+16
-4.731135121040103040e+17
-1.157183816782762496e+18
2.182406347970278400e+17
7.819516733526353920e+17
2.285971343453097600e+17
-7.699152181578867200e+17
-1.166348763366242048e+18
1.086329562787932480e+17
1.171121500099937920e+17
3.393034941698098560e+17
-7.740010735510540800e+17
-1.666744108999505600e+16
-1.465275438695178240e+17
2.432709168504551424e+18
-1.827960562485039360e+17
4.966879300382078720e+17
2.709350968388566528e+18
5.608100176920038400e+17
-1.180304444040203520e+18
-1.030142933002897600e+16
-3.531021216010677760e+18
2.062554013148608000e+17
-6.729689131080431360e+17
2.568625554690963456e+18
-4.866964690945393920e+17
-1.258592141691005760e+17
-5.571960931877916672e+18
-4.318899985288343040e+17
2.070928212738103360e+17
5.136930556208330240e+17
-2.023927812105697280e+18
4.295790499151631360e+18
1.533970859439900928e+18
-4.366907825280155520e+17
5.199795993383059200e+17
-2.343296088432363200e+16
-1.235066996593150464e+18
4.983928126493768960e+17
3.243186340573635072e+18
4.869715854188449280e+17
-8.651485414872853760e+17
1.498482776299268096e+18
5.442778287131016000e+16
5.355813648087854080e+17
-3.039249382476426880e+17
-1.461929400588503552e+18
3.444586665572790400e+16
-4.809340058464927744e+18
-4.731572580041738240e+17
4.523781942324780032e+18
3.454542435436782592e+18
-4.941442393708320640e+17
2.033884310523092992e+18
-1.013083626871503680e+17
-1.955013613216767744e+18
-5.123250049097069440e+17
-3.320272513455560000e+16
6.530217859487803392e+18
2.953791951457653248e+18
-1.463008906126691072e+18
2.964977860022035840e+17
-1.864158453472557440e+17
-2.026064208383184128e+18
2.769676065988395520e+17
-1.473222280960566400e+17
-1.996810931862955520e+17
1.170645276547650048e+18
9.509568309993935360e+17
1.503211952298153216e+18
2.549527672131140480e+17
1.132188764663246208e+18
2.530094272812967040e+17
9.609097322390291200e+17
2.518529044023378560e+17
2.744915514175113216e+18
-1.571096467455962240e+17
9.212279951717586944e+18
-7.095815745212816000e+15
3.056187129473926400e+17
-1.515044217781563520e+17
5.217602187492560000e+17
-1.208124354803251840e+17
-2.863999503744912000e+15
6.833358714677954560e+17
6.490901152349267200e+17
6.632589681178673920e+17
1.151256255312012544e+18
-7.112615814035466240e+17
-1.530582066540412800e+17
-8.889392063061224960e+17
-2.812463610576946880e+17
-1.615383522173472512e+18
2.805312198962460160e+18
-3.094751531443104640e+17
-7.663413822654855680e+17
7.574026132316928000e+17
-1.116770080039702144e+18
3.811226005030981120e+17
-2.481673275195386560e+17
5.313369125211879680e+17
-2.503538945729944576e+18
4.870010207020315520e+17
2.922096461096565760e+18
-1.725205674304807936e+18
-1.189294837273607680e+17
-1.466893104255422080e+17
-3.799914559432128000e+16
3.901301663013822720e+17
1.735840940240443520e+17
2.073989672387511040e+17
2.936638298153231360e+17
-5.430482389822080000e+16
6.784637284571214400e+16
-5.905467678592552960e+18
2.220907888022952704e+18
-1.596149462944839680e+17
7.980001138315788800e+17
1.576113882067394400e+16
-9.953843498582622400e+16
3.023793114647695360e+18
-6.723237666588917760e+17
1.046013379945037280e+17
1.820764546472097792e+18
-7.456304813093300480e+17
5.809577420398712320e+17
-7.670583761716240640e+17
1.598563470629496000e+17
1.017800104362979968e+18
-9.904795539112592000e+16
-1.725574874824650342e+19
-9.195280231566134400e+16
1.408617040040656384e+18
-2.447292353134752768e+18
-5.148770238738025600e+17
7.607240457393598464e+18
8.003047964876011520e+17
5.677353357511337600e+17
2.793684784147255296e+18
-1.363758231999886336e+18
8.220029503363502080e+17
-7.915001470148323840e+17
2.367579446535738880e+17
1.136679514890831104e+18
1.965720745656146560e+17
9.812106318441783296e+18
5.889390183656419328e+18
-1.038737744805490688e+18
7.411385169583875840e+17
2.485130333008435200e+18
-3.767905088643697152e+18
9.641776456611910400e+17
-7.565167801825550080e+17
1.314951004627483392e+18
-4.485236672881118720e+17
6.261562158776024320e+17
-3.617104542972477952e+18
1.778221258341316480e+17
-1.328719086195952640e+18
4.702045237482676480e+17
1.185675507508106240e+17
-7.832778314190915584e+18
8.032208521247385600e+17
1.050059927610447872e+19
4.852888116904056960e+17
1.916763501631345664e+18
-5.346842573228956160e+17
2.623134045533952000e+18
-1.965932309364441600e+16
5.874590271640496640e+17
2.093872505950349568e+18
-1.451668100355899200e+16
-5.142451402668357632e+18
-8.781530951542688000e+16
-2.939170984390987264e+18
-2.037127573984363264e+18
-2.119979950366840832e+18
1.291071470770457600e+16
-3.252381875160252160e+17
5.906907787244028800e+16
-1.842164219824280832e+18
-1.800015938220274278e+19
4.648277651110689920e+17
-2.300618041789717760e+18
-9.679792566048185600e+16
2.782725103968925184e+18
1.200559802474855360e+17
-3.612961110433226880e+17
-1.995571152509586432e+18
-1.190074068139622400e+18
1.920583259108307200e+17
2.439799338041054080e+17
-3.045604195244176640e+17
6.726565058676113920e+17
-8.170472981954894080e+17
-2.666505329226069760e+17
-2.561943685781309120e+17
-1.762882545856395264e+18
1.152001984018234880e+18
1.853909913233198848e+18
-5.335085953087250560e+17
1.015310860115499520e+18
-2.468711728107837440e+18
3.036750026738641920e+17
-1.920513724128884224e+18
6.205977216483691520e+17
1.326319606730979840e+18
-3.732973125544624640e+17
-6.088448247015708160e+17
-3.202976372873423360e+17
-5.492610976858672640e+17
6.589560985948472320e+18
-2.495396229133180800e+17
-1.186346257265146880e+17
-4.094244622259726336e+18
-3.844569702934453120e+17
-2.516504736876004480e+17
9.499807096175257600e+16
-4.995405556365616000e+17
2.650504404302297088e+18
1.106909319462489600e+17
1.648332224366645120e+17
-1.580978262033628160e+17
5.045407550269173760e+17
1.081374955539496064e+18
2.068098641158120448e+18
1.621430185646988800e+18
-1.659013263812446413e+19
-1.841084573782268928e+18
1.099739655338620160e+18
-5.976046441279247360e+17
-8.611202524597179392e+18
5.703882320881381120e+17
3.907016472576451200e+17
6.968006612572757600e+16
-4.230140546340200800e+16
-1.208619189512716800e+17
4.727244091375963136e+18
1.132726339643761280e+17
2.655340144675772416e+18
2.808447533487264000e+17
-1.116774180369776960e+17
8.116465029520373760e+17
-1.033773442666643840e+17
-8.656407911961507200e+16
-1.479447280316133376e+18
-2.636366649659319360e+17
-7.263652228888610560e+17
9.351251172709696000e+16
-1.823569793147672320e+17
-6.176039187671822080e+17
-3.818527319112993280e+17
7.914732907411768320e+17
5.158529919162389120e+17
-4.762544537429839360e+17
-2.370036508115536400e+16
1.409821800262523200e+17
-2.179992181607679040e+17
-1.094799529506374400e+16
6.860800341692167680e+17
1.480466960475971584e+18
1.095393878503196480e+17
3.900334854215985152e+18
2.440062244614606080e+17
2.776030555114629120e+18
1.000180093209501952e+18
2.716338616626720768e+18
9.626233809464252800e+16
-2.331152522859921920e+17
6.387143042052386560e+17
-3.254831161626469888e+18
-3.896239463686543360e+18
2.346359607424569344e+18
-8.054653132371667200e+16
4.329485827722092000e+15
1.721640745178026496e+18
-6.935713900831832064e+18
-3.877096413192563840e+17
1.060800938117046400e+18
1.591699428187830400e+17
-3.605438312901840000e+15
-2.756010858820557600e+16
-8.537064527800865280e+17
-1.516420932457024000e+17
2.733215423855517440e+17
5.036894413122371840e+17
1.232871243902741248e+18
-6.167794434950728960e+17
-1.572670409469144320e+17
-4.896512032533416960e+17
1.482318449633715456e+18
5.615089665774019200e+17
-6.371515289352806400e+18
3.187092021853187200e+17
-1.086273852833610240e+17
-2.439398558985611264e+18
-7.181729722154240000e+17
4.162309059568179200e+17
-4.959270245554640000e+17
-1.577442038460417920e+17
-1.013915930113092640e+17
1.457208059348264448e+18
3.123328768624122368e+18
-4.294912727014492160e+17
-1.491749235749592064e+18
-2.060381075721735680e+17
1.397789889472893440e+18
-3.897120739660952960e+17
4.235709967271308800e+16
9.106371877628826880e+17
-5.259784516456923520e+17
-3.978728975347431040e+17
5.748823773162882560e+17
-1.093578278521754880e+18
-6.489922665468743680e+17
-8.834556011414255616e+18
2.032371637303741952e+18
1.190762859562733824e+18
-1.330646610221359872e+18
4.244287154725676160e+17
-6.227574144484819200e+16
-8.552415564895979520e+17
1.553546094097363712e+18
6.966687718928494080e+17
-3.365265382349327360e+17
1.775005050919753728e+18
-1.813390581207869235e+19
1.366076482040486080e+17
1.918572244224122880e+17
-1.059953769367494400e+16
2.083181687571860480e+17
-2.014045578724361600e+16
7.097726272442548800e+16
2.178044463907238400e+17
1.988788239855409280e+17
-2.229457644703379200e+17
1.577487116067013760e+17
3.051526094424149760e+17
1.423752529851589120e+18
-2.327122885737604480e+17
-6.183897636458018560e+17
-3.301809119343860736e+18
-5.501726831778291840e+17
1.783276396923227520e+17
-4.960896499040704000e+16
3.543830008132302848e+18
-2.978884357811628032e+18
2.950158890533242880e+17
1.453766936592978560e+17
1.493386053179587200e+17
8.138009104274813440e+17
5.386950743025845760e+17
1.046384203339604352e+18
1.411438909532288960e+17
7.843912328782370816e+18
4.744371260488053120e+17
2.836082966678154240e+18
-1.431277091828265440e+17
2.513448709478788160e+17
2.913675733009306240e+17
-5.815990514640286720e+18
-2.476211242502696320e+17
5.723826921534768128e+18
-1.881190118341615360e+17
-4.815978815149242880e+17
2.492344740461355520e+18
-4.699343855405684480e+17
5.318730633317170560e+17
-3.167449132947486720e+17
3.697598868960840960e+17
1.811912160135982336e+18
2.841065144623831040e+18
-3.893590181725688320e+17
-1.655974090108901376e+18
5.302965971667742720e+17
8.406440925990691840e+17
1.800390144739555328e+18
-9.992906668945172800e+16
-1.973786724556816800e+16
-3.782715602102387200e+17
1.973531349825620480e+17
-6.393697654716152320e+17
3.463104530696076288e+18
-5.861327109603840000e+17
-2.038427321393156800e+17
6.921832995257088000e+17
-8.625936353069652480e+17
1.595774031837775872e+18
-4.828073674757847040e+17
-2.613289664043080000e+17
3.829682498880038912e+18
-2.125643898496211520e+17
-4.446609043758206720e+17
-2.258828247905655296e+18
2.605614884645170176e+18
4.216819036485332800e+16
9.540336968385331200e+17
-7.636236900994767360e+17
4.130472741548117120e+17
-8.314035086705019200e+16
-1.729873120212164608e+18
-4.638106994067036160e+18
8.360981477819192320e+17
1.821918130492636672e+18
-1.028326543130781824e+18
-5.756759670522348800e+16
2.069024275683536384e+18
-5.638493318305542400e+17
2.853009048288952000e+17
2.039565585790145280e+17
-8.644471039008089600e+16
6.901823287652157440e+17
-2.182353074790892800e+17
-7.370640370906278400e+17
3.919086532208103040e+17
4.088976509869482496e+18
1.351156615117056000e+18
8.019995484304611840e+17
1.309889341413526016e+18
1.662627378348801024e+18
-1.088964723760193920e+17
6.411344739704122880e+17
-6.229010817027673600e+17
-3.751914510510929280e+17
1.234049093314620928e+18
-6.434392254225356800e+18
-1.327072383791081728e+18
2.053570886494556672e+18
2.029216510071409280e+17
3.541870854993382912e+18
-5.101573286252003840e+17
3.660361457579440640e+18
-1.903229147609149696e+18
-1.558700486219838208e+18
-2.276237681920871040e+17
1.162009580126473472e+18
-5.778912238563691520e+17
-1.929533271541929984e+18
1.782943972241590272e+18
-2.291217712450645600e+16
7.259700037461419200e+16
2.702588644923285504e+18
3.941438321935883264e+18
2.303915302747408640e+17
5.346625970822858880e+17
2.575134004954733440e+17
2.654443788806688000e+15
1.099985079588030880e+17
-3.651802412349073280e+17
-4.182994827212129600e+16
-6.240892316601056000e+16
7.141989028147563200e+16
1.753585131303319040e+17
5.430490156273306880e+17
7.042257841360488960e+17
5.219622550428092160e+17
-4.450364903204129280e+18
1.700937732017879360e+17
3.329156326363091200e+16
-6.656800865492016640e+17
7.629645068618695680e+17
-2.832268704688565248e+18
-1.140761159430186240e+18
6.401014513327200000e+16
-2.755149793715235200e+17
-5.023997820693921920e+17
-4.074991505822059520e+17
1.994543812978395200e+16
-3.622160889749779200e+17
3.763699067533811200e+17
-1.522165611129102336e+18
2.335962932647438080e+17
-3.395798590484521600e+17
4.249812319744212480e+17
8.615321241928689920e+17
1.828474951642289664e+18
6.615393908103861760e+17
3.473253977456976000e+16
-7.244413560048358400e+17
1.041045106147501120e+17
1.792800870060609280e+17
1.470844926412134400e+18
-2.102902186977134080e+17
2.860132523912998400e+16
1.798680051339278720e+17
-6.851008595469547520e+17
2.331778135177683520e+17
-2.045483028751056384e+18
7.459434257016528896e+18
2.735957775028344320e+17
-1.390827203087957120e+17
2.846743660263733760e+17
-1.089421978558516480e+18
1.058677356505498112e+18
8.705906318437100800e+17
-6.630894466538789120e+17
-6.022905593731165440e+17
1.519827979567785280e+17
1.919437768810939904e+18
-5.343647292696832000e+17
-1.023343507265726464e+19
9.206549770089962000e+15
1.816539752438044672e+19
1.968013876225420032e+18
5.049972845357358080e+17
1.679542345054368640e+17
2.028285980958951834e+19
5.555291007665271040e+17
3.756682491685841280e+17
1.593496433605420800e+17
-2.245872066283152960e+17
-5.194913513632602112e+18
-1.034664494213891277e+19
-1.369779381466718880e+17
2.745889206273492480e+17
2.199386524718358528e+18
1.004496365116062720e+18
-1.793776256906903360e+17
1.231062952596879104e+18
-1.813005895340732480e+17
-8.685738857127770112e+18
5.932374335648800000e+16
2.851453095528304640e+18
8.894154008984002560e+17
9.437701905660628480e+17
6.657995038749794560e+17
2.622202517291034112e+18
2.795818216767503360e+18
1.843344661808874240e+17
4.738349602191856000e+15
1.499532419133472800e+16
-1.418953089972504064e+18
-1.660098546902920704e+18
1.156037345870281216e+18
1.037250105292929792e+18
7.341106506767765760e+17
1.625570070418694400e+16
3.789426862420808960e+17
-1.103762762280280640e+17
9.490602899121459200e+17
-4.843634782832666880e+17
-7.887975505002462400e+16
-3.690607240755763200e+17
-1.530655042358823040e+17
2.053267378100722688e+18
-1.848728547917099520e+17
9.672547417295797760e+17
-4.717184732647950080e+17
-1.512510307773974016e+18
1.096229736420978304e+18
-7.271752048156048640e+17
-2.981718006122019840e+18
2.578862746891523840e+17
-4.376981397911084800e+17
-2.825537238486104320e+17
5.908639621057039360e+17
-6.891330719647494400e+16
-1.375442954057191424e+18
-1.123129947977979136e+18
7.400063723698872320e+17
5.125472584015242240e+18
-1.501007660350198272e+18
-2.557100351838325120e+17
3.433358508327867904e+18
1.414248978095929600e+16
-2.261026122033611008e+18
6.267791236337459200e+17
-1.081630441164991200e+16
4.509275467724675840e+17
-8.011680509952125440e+17
-2.392718003347213312e+18
-1.223649923655656448e+18
-5.032149639098448800e+16
-7.161685093664808960e+17
-5.569161734254850560e+17
-2.553962012480578560e+18
-4.274088052345092096e+18
-3.372538952622136320e+18
1.187585257495563040e+17
-2.160703590812519680e+17
-1.673769904092869120e+18
1.793819532569968000e+15
-1.294177995086855680e+18
-1.078123129842809216e+18
9.147806841971552000e+16
3.624424121384843776e+18
-1.511508225630997120e+17
-3.278828786566960742e+19
-2.438715089253290496e+18
4.696375663617596160e+17
-5.406535096231458560e+17
-7.910288626808112640e+17
9.963130063080208384e+18
3.872687623017129600e+17
-5.509455340166867200e+17
-1.397526952378988544e+18
-8.285725091430170880e+17
-4.739798364687021440e+17
-1.998295897016608256e+18
-1.130245171175919360e+18
1.570637622288837888e+18
-2.518809953726428672e+18
-2.547703914205506560e+17
-1.212323656952607744e+18
3.882089654765424000e+15
2.153906251687712000e+15
7.058125973303669760e+17
-1.545358270283360000e+16
6.800041527861186560e+18
2.958207182636791808e+18
3.459646382281408512e+18
1.635080273723951514e+19
-5.549567533578081600e+16
-1.151156822804066304e+18
-2.105267975355015040e+17
-5.683565354762132480e+17
-6.477105659310424320e+17
9.447875339947713600e+16
-1.119201540944078400e+17
-2.802178512995635520e+17
4.883727710223361600e+16
-2.090104128892710720e+17
3.024739994505218048e+18
-7.170509833819673600e+17
6.635297870873998080e+17
-2.034512011493546240e+17
1.986914462767418880e+18
1.185388766526661837e+19
1.714034488812065280e+18
4.626556748139457280e+17
7.745070052705131520e+17
1.807868989505631680e+17
-4.679690758029233280e+17
-1.120388563834189568e+18
1.494515286766562714e+19
-1.466769698905058880e+17
-3.247960777872048640e+17
1.277096957962357760e+17
2.187590425166316480e+17
5.578629058848385280e+17
1.825481417098058496e+18
-2.764772065306024000e+17
9.377251012734429184e+18
-8.147574678822720000e+17
-4.054004042019818240e+17
1.223985642673466368e+18
-2.169077260439318784e+18
3.469726976631465600e+16
-2.201091387402495360e+17
-1.747732988551497472e+18
-6.654283687822581760e+17
1.689041127695159040e+17
4.591097481365755904e+18
3.602774680789068160e+17
-1.820688028903541120e+17
3.607474929647568000e+16
3.175645131100081664e+18
-1.218511380465631488e+18
-7.995089065907680000e+17
-6.821370552314403200e+16
-2.004442298762447360e+17
4.640359470707320320e+17
8.662956718674703360e+17
6.824243792143116800e+16
1.731288329307375104e+18
-2.419395727510690240e+17
3.756012549324303360e+17
-4.221739598948142720e+17
3.665175096730194560e+17
3.728039129912641280e+17
2.610753338488766720e+17
-1.000881287410468608e+18
-1.449946863737883136e+18
1.864246802405491098e+19
1.062746616617706624e+18
8.436246424292337920e+17
-1.758967524501653504e+18
6.133792388754429440e+17
4.677399669799459840e+17
-2.900873940316468224e+18
-2.027087078733325312e+18
4.010189945199070080e+17
-2.575947512877408256e+18
-5.488015185001947520e+17
1.100254521891157760e+18
-4.540829519681731200e+17
-1.020701291461230464e+18
9.033222474183107200e+16
4.359857354025375360e+17
1.835551852600868480e+17
-2.461631447857535680e+17
-1.219789626305323008e+18
8.938724090446855680e+17
9.869293638416631808e+18
2.302292415239424640e+17
-1.383381055628178880e+17
2.984027028030060800e+16
6.972955559339914240e+17
1.526345466949026560e+17
-5.661834696255217280e+17
-1.555265847129563392e+18
-3.390397532790124800e+17
-3.798511667984159744e+18
9.404464804755427200e+16
-3.611595015303193600e+16
6.692626022562880000e+17
1.585992619687575552e+18
3.014701254497265920e+17
-7.491564842727405568e+18
3.504509039181660800e+17
2.357297720039701760e+17
-1.874206348554024000e+16
-1.578895114248598784e+18
-5.252112938715306240e+17
-1.607355139842051840e+17
1.198793046792939520e+18
-3.591064693808362240e+17
-9.750079790343816000e+16
9.706905132276764800e+16
-2.233727734921925120e+18
5.924163323653292000e+15
2.673558440125157376e+19
-2.738519885532018240e+17
1.269904587288810880e+17
-2.135438433717645568e+18
-1.216109457358552832e+18
-4.730700384747834880e+17
-8.916826265799832320e+17
-1.202050281761879040e+18
5.727843542344823680e+17
6.563739795256574720e+17
1.888910500887802880e+17
2.606972064280545600e+17
-2.514027241871216640e+18
-8.074114519884144000e+15
7.265931629378794240e+17
6.576545273907933440e+17
1.396268687075906304e+18
5.344547182259866624e+18
-1.870143587350899456e+18
-8.417800342462236160e+17
-2.163301257921713920e+17
-3.643773185200125440e+17
-3.832930685560700160e+17
-1.909525693657998336e+18
5.269734152663619840e+17
3.136448349010583040e+18
-3.597448899446707200e+16
-1.913944331861313280e+18
-3.068511878780582400e+16
-5.269191856792544000e+15
-6.295074962139779840e+17
1.658785620351696960e+17
3.187517176367473280e+17
-3.301936598012252160e+18
-1.766756712584465920e+17
2.191104432567325696e+18
-5.627409513440768000e+16
1.534246881984006400e+17
-1.266738387358426112e+18
-1.272197075248168960e+17
-1.108939710835767840e+17
-4.705469214435247360e+17
-1.937163332687162368e+18
-1.509670672374936832e+18
1.386898588880653824e+18
4.225363123428755840e+17
7.222969907735183360e+17
-3.773430912741072640e+17
-8.139428008980556800e+17
-7.490704606783712256e+18
4.359982414071788160e+17
-2.501261347837991936e+18
-3.934703341159976320e+17
9.670123233858649600e+17
-8.666227848687416320e+17
6.867145606960691200e+17
2.129385067364619520e+17
-1.530266549743670400e+17
4.500546552990195200e+17
3.732516611922760499e+19
-1.793771005968041472e+18
2.493320404155059840e+17
-4.303968631241540608e+18
-6.786847035091456000e+16
3.791666820332021120e+17
1.693093955163364864e+18
5.759983793456066560e+17
3.373932890447309440e+17
1.798634649636085760e+17
8.872489364935129600e+16
-4.670472135465078400e+17
2.234638227156643840e+17
7.938138478623094400e+16
1.068000465548897280e+19
-9.401772179784418560e+17
-5.573894717795770880e+17
-5.082718291417928704e+18
-1.530975054619835136e+18
-7.771188029976965120e+17
2.076602333173304320e+17
5.408774840481760000e+17
-9.316973868215919360e+17
-4.189141838623613440e+18
2.416364352532517760e+17
2.544744330122850560e+17
-2.221057992282625792e+18
-1.430066623747536896e+18
-6.340280807284708352e+18
1.148195311911436480e+17
9.728938842632273600e+16
-2.716810753679481856e+18
-1.226086604019542720e+17
-9.851695463109676800e+16
1.624534818874827520e+18
-1.855848856064377856e+18
-1.315946452894848512e+18
1.053302539307007520e+17
-1.595791596865027200e+16
1.350978790257446912e+18
3.872638612969224320e+17
1.155575112028041600e+17
-1.703220948943493632e+18
4.995454293825558400e+17
-3.405856030908229120e+17
1.313402339292789120e+17
9.830435736635814400e+17
5.163738625894869760e+17
-4.182189808123792000e+17
1.345220988847713280e+17
-6.279476745656912000e+16
4.311309040837273600e+16
4.559517661826007040e+17
-1.569979552574566144e+18
-4.123679468764279040e+17
-2.861984785666808832e+18
4.611647348258997760e+17
-2.259512870697958080e+17
3.159224323096177920e+17
-1.374242968280544800e+17
2.828196679746120800e+16
-7.963741757356156160e+17
-2.165687095628162048e+18
3.024813259312764416e+18
6.379387122400730880e+17
3.991164029310256640e+17
1.744720197874266800e+16
3.716798808911671040e+17
6.140881656013976320e+17
-3.697460525858394880e+17
1.260964800777987840e+17
-6.505500391552604160e+17
-2.468535587682340864e+18
4.582962091031159040e+17
7.619547948414580480e+17
7.979176362474056960e+17
-1.288559311950693120e+17
5.108251206780357120e+17
7.436631148499609600e+16
5.933237824569392640e+17
-4.178957271717004800e+17
1.727242543503101696e+18
-2.093044055505408000e+17
6.063351955402803200e+18
2.442432808059630720e+17
-2.336632303936650560e+17
3.893829150935136640e+17
-2.310991230739653440e+17
2.858898280079063600e+16
5.531486762318542848e+18
1.286922631162308000e+17
4.995077980500469760e+18
-6.168181411368633600e+17
-2.332205670671533440e+17
-7.228231622056752640e+17
-3.348419321817376000e+15
2.282154914381436800e+17
4.270539510324132864e+18
-1.377524859928544800e+17
3.534136302600160000e+17
-4.803457861995933696e+18
-2.392283316837204992e+18
-1.822225113160174080e+18
2.049658993228931840e+17
-9.368492788092952320e+17
4.222257222352687360e+17
-6.098969588967788000e+15
7.348274807406994432e+18
-9.421642622708915200e+16
1.428488868249324800e+17
-3.870406369412428800e+16
2.104640925735022592e+18
-2.053878138828429312e+18
-4.001044760925530880e+17
1.633716349768831488e+18
-1.683855217504759040e+17
-1.915921139021297152e+18
5.380783941951280800e+16
-1.163692521886073600e+17
5.556690215481020160e+17
-5.128250451454296320e+17
-6.438641376209960960e+17
-4.601093638531802880e+17
6.609649519733194400e+16
-4.808898817650075648e+18
4.269024927372421120e+17
-1.267664998186818560e+18
-8.349325333136455680e+17
-6.942922838990839200e+16
-3.285171774240627200e+16
9.130458982452784640e+17
-1.788767770185436672e+18
1.990470010879939840e+17
1.577821261268256000e+18
-1.975333729689779200e+17
-7.364095991717706240e+17
-4.974296917858746880e+17
3.004648278936270029e+19
6.040111044844001600e+16
-2.255823262034361856e+18
-5.798068604023494400e+17
-9.986032198091569920e+17
2.410325635117522560e+17
5.901740966406593280e+17
2.315789937856222720e+17
-1.079824372547045120e+18
-1.566755824341472000e+17
-1.002048983819542272e+18
-3.236941570923721728e+18
-4.062198840293315200e+17
1.207301988851995392e+18
1.398337462327106560e+18
-3.502444170046919680e+18
5.652555221255385600e+17
-6.405024371161594880e+18
9.700104469699261440e+17
9.028686279955763200e+17
-4.455257209790095360e+17
-7.602727478033095680e+18
-8.150179901215495680e+17
2.906431941274105600e+17
3.939325761379360000e+16
4.013993676819100160e+17
9.065119073308738560e+17
-7.723167583928441600e+17
7.533276190114283520e+17
5.102047285222166400e+16
2.113868104897892864e+18
-2.822637281858654720e+17
-7.496113852359856640e+17
-9.301437132153340160e+17
-3.519432489590549120e+17
-5.332626369409463040e+17
-1.794288074147980800e+17
4.303045466814444160e+17
-3.184226283049246720e+17
3.011192135091185254e+19
3.244682340506000640e+17
-3.680206545783522560e+17
5.741876499145956800e+16
1.107122773434348320e+17
-7.999197384829376000e+16
-7.966070484289664000e+17
2.118224100070004000e+16
3.346411849636757760e+17
-1.976147183512646451e+19
3.033637383046852480e+17
-8.312147403749855232e+18
3.429325598424872320e+17
5.540064524347766400e+16
-3.326926253135185920e+18
1.473486974977833728e+18
4.732349620066096640e+17
1.192075608709037312e+18
1.598708898089780000e+15
2.653348470635233280e+18
2.390935927938844672e+18
-5.524966027184926400e+16
-4.075781975308931072e+18
5.750847363353109760e+17
-4.733671374513800960e+17
1.176548646655892480e+17
1.063758209168296704e+18
-1.181594012362466560e+18
-5.095339158400327680e+17
2.434471602868365312e+18
-4.150409418499132000e+16
-1.534456097298149120e+17
3.094663210042475725e+19
-3.521199203452225920e+17
1.623101058761433600e+17
2.074960152158734080e+17
1.197430176739819008e+18
-2.016469170363228160e+17
4.008820993632726400e+17
1.729311672402063104e+18
5.901186627284293120e+17
5.203098877465228800e+16
-3.600786900880160640e+17
8.315330386660131840e+18
-3.974476707148172160e+17
-3.634148037718092800e+16
2.469845048199827840e+17
1.764556974127238400e+18
1.333631681546810880e+18
-2.095172233210732160e+17
-7.955281496062507520e+17
-3.748043939984300800e+17
1.385550199233790400e+17
5.875317275944852480e+17
4.063842009341531750e+19
2.559560869942759424e+18
3.090075848485448400e+16
-6.176392067189765120e+17
9.789901404137379840e+17
3.755408372213504640e+17
-7.602220898804065280e+17
3.378018011797740800e+17
-2.572118583444032000e+17
6.472760124536718336e+18
-5.292663070757904640e+17
7.860017903463545600e+16
1.027340624862209600e+16
-9.931704510398490880e+17
-1.394496181133891520e+17
6.152611172554411520e+17
-2.594974607095507200e+16
-1.492820771837618880e+17
1.992272617265777600e+17
3.762896328811336960e+17
1.425380440211257088e+18
-1.031839640119668992e+18
-3.633073060452996800e+16
-1.582234228653223168e+18
-5.218752729032720640e+17
1.600689820706940160e+17
-2.117393247470377600e+16
-5.559356666404210560e+17
6.363189641836852480e+17
-6.284432948651448320e+17
-1.455214104578309376e+18
-1.253585255426298880e+17
-7.730295374645532800e+16
2.047366247886917120e+17
6.165025972765655040e+17
2.214830444473199040e+17
-2.110125539139336000e+17
1.233551909141107968e+18
-9.300363085225015296e+18
1.310668323112490880e+17
-3.139675936787272960e+17
2.433671516785973248e+18
7.702861126131163200e+16
1.748479642100265216e+18
2.949696433771725440e+17
3.683771483270968320e+17
1.596197118500436736e+18
-5.762834288903934720e+17
-3.208154439623936000e+18
-3.377724699772386304e+18
7.031803250260079360e+17
-9.991386290764584960e+17
5.913369890601712640e+17
-1.907818771587524160e+17
4.685694300828131200e+16
-4.498021225074745344e+18
3.018467154550563840e+17
1.802091330680054000e+16
2.128054688654241280e+17
-1.402307272600835072e+18
1.748418228913045760e+17
-1.254151394306732000e+15
6.096344881999832064e+18
5.088056268172390400e+17
2.199405102193702400e+16
1.237994351690033152e+18
-1.151333940905294029e+19
-4.970064041025447936e+18
4.411752849661494400e+16
2.320551324203604992e+18
1.773855646624958976e+18
1.006848385731297075e+19
1.036165280148654720e+17
3.300538587279595520e+18
1.900203878478147328e+18
4.497131953179826560e+17
-9.473214294461815040e+17
-2.783108837733566464e+18
1.175832027601446720e+17
4.302438122231329280e+18
9.977238102758387200e+17
-1.094303384947766720e+17
3.292152764647628800e+17
-5.018423764051181568e+18
-3.109900505834335232e+18
-2.702551448119739187e+19
-6.097665787422144000e+17
-9.799444041772204800e+17
5.774695955159904000e+17
1.045352624516399104e+18
-3.316090368778987520e+19
7.603947764860305600e+16
1.109970182715547648e+18
-1.012455071623322624e+18
2.967672944436156000e+16
2.739154186334220800e+17
1.177825513818442547e+19
-1.175100612565459712e+18
9.516828314543166400e+16
1.088169655357881344e+18
3.271741709567132000e+15
7.230690201686026240e+17
4.574981425395317120e+17
-4.307993893561728640e+17
6.088277506392463360e+17
4.094156738164492160e+17
-5.543914935229313280e+17
1.873648554109600960e+17
4.436093404623370400e+16
-5.804039417768908800e+18
-6.416875566770795200e+16
-2.869931798277220352e+18
-2.465418042367943680e+17
-1.041154891946444288e+18
2.384532791905994240e+17
-1.484417113903143936e+18
2.604133032170659840e+17
-1.922327490581568960e+17
-1.281640257381988352e+18
6.350795195420828800e+16
8.647024386242586880e+17
1.348632154972621440e+17
-1.296260600075837952e+18
-2.974461451218137088e+18
2.920417089741808640e+17
1.053887283656391168e+18
2.194684880710582784e+18
9.887868350637616000e+16
3.057646647641848000e+16
1.939296369186095680e+17
-1.398181193512580352e+18
-9.664092488291466240e+17
1.345252778202428928e+18
-2.510871219144206336e+18
2.127327260922931200e+18
-1.848902351736668160e+18
-2.604551289045076480e+18
-7.346318282747168000e+16
6.541536112663595520e+17
-1.060550197110599360e+17
9.997821258310592000e+15
-7.885825505806041088e+18
-7.725843386746268160e+17
2.348745602379610560e+17
2.117664648272512000e+18
-3.541279317527938560e+17
-1.114262675724642560e+18
2.281739326844832320e+17
-7.290585818995152640e+17
4.256393315221786240e+17
-3.724638737208193280e+17
-2.908975312170606080e+17
-1.168547412007517696e+18
1.427802324181379072e+18
2.417038011076410368e+18
1.870652804521866240e+18
6.469730940939575040e+17
-3.082782457069015040e+17
-2.044021845423759680e+17
8.051768862353672000e+15
-4.967689209235505152e+18
-8.107102994046398464e+18
-7.302547582276902912e+18
-3.403862190793455360e+17
2.979549402737163264e+18
2.010192918913702400e+17
-1.027359232085144192e+18
8.294260607023989760e+17
-2.876320103087622144e+18
1.728839425762919424e+18
8.896712771136949760e+17
-2.378076875796891136e+18
2.706098362376883200e+17
3.884658755740218240e+17
1.378283120034292200e+16
1.000231759164056320e+17
-7.116336690284490752e+18
-8.080378075167430400e+16
6.654093234129569280e+17
-1.021422820849500928e+18
-2.114830938732768320e+17
2.156140423957792768e+18
6.748746825087847680e+17
6.102536362384522240e+17
-1.514977173345496832e+18
-9.388140622187820800e+17
-2.364542278606186496e+18
-2.658001778890865920e+17
4.040734425116656640e+17
-1.768058721034703616e+18
7.224842190509094400e+17
2.347482761280382720e+17
5.616840291321725440e+17
5.251311612059088640e+17
-4.808279607127851520e+17
1.543086310705353280e+17
1.488156407021281280e+17
7.202191134386851840e+17
-1.666124415295627776e+18
-3.480142661597837440e+17
-2.398001659439760384e+18
2.688261824470193152e+18
-5.567629349511209984e+18
-6.150768211299833856e+18
5.219951862347610880e+17
8.697630826002421760e+17
-4.010204869641424896e+18
-5.495955445260773120e+17
3.060237452285923200e+16
-8.581560361020290560e+17
7.679258277785633280e+17
6.348120166549788160e+17
2.111072910746456320e+17
3.147853681512652800e+18
1.923365526014332160e+17
-3.675530341697722880e+17
1.934263445955617280e+17
-1.577465942716928000e+15
2.673741460204593152e+18
3.542662583167008000e+17
-4.866373795098849280e+17
1.033437968017031424e+18
5.287694627223977600e+17
9.889192978956320768e+18
-2.364825727157809664e+18
-5.856909960927155200e+17
-2.270341854285367680e+17
-3.607361177857886720e+17
5.662788805503472000e+17
3.435128205550316160e+17
-4.554895095949363840e+17
-4.596590784961048320e+17
4.546636491862407680e+17
-8.326679153404700800e+16
2.357232749921405952e+18
-4.077137786826846720e+17
2.765764203414753280e+18
-5.618878172948830720e+17
1.284097665656613440e+17
-3.514708665900352640e+17
8.777804465154835200e+16
-2.577672467461676032e+18
-1.165969328440394240e+17
3.934721764377661952e+18
4.262256538125880320e+17
-6.813998860593347840e+17
9.787817374527622400e+16
7.484600386700718080e+17
5.366218548124896800e+16
4.531099287879110400e+16
1.100428223658431200e+17
2.763316146590642688e+18
-1.593498965423708160e+18
2.848877703599447552e+18
-4.623690739966672896e+18
3.640807035303166720e+17
-2.432624334986185600e+17
-7.260439482113416960e+17
5.338230097608454144e+18
9.696098863705004800e+16
4.472506076566671360e+17
6.173307735373667840e+17
-4.197744667252683520e+17
-1.086254682213911936e+18
7.215525564298965760e+17
4.990251146804679680e+17
-2.688993098970240000e+15
7.992744283686161920e+17
-2.028428314949358592e+18
2.835565177274892800e+17
5.594663101413249280e+17
1.002284842545574784e+18
4.791748512015478400e+17
-4.409663203744812800e+17
1.804714108085626240e+17
2.872337887257876480e+17
1.157334651381541120e+18
-1.309717472960359424e+18
4.989172454694924800e+17
-2.587354832209574400e+16
1.858448632394912640e+17
-1.067774838030444288e+18
-1.094192644012792832e+18
3.672770591098781440e+17
-3.901045516509715840e+17
-9.042627980459840000e+17
1.458940848828578240e+17
-5.032930955356648000e+16
4.359773260669020160e+17
1.059140403611188224e+18
1.607067600622654720e+17
-2.432883813174616064e+18
9.140675793986212800e+16
3.497655066690931200e+17
-7.349914605023608000e+16
-4.280863961661015040e+17
-2.690679178134872320e+17
1.710028838145832960e+18
5.382970165162419200e+16
2.380507958143101440e+17
4.011369419657823232e+18
-1.293723259074418176e+18
6.999615387077870080e+17
3.412313387157534720e+17
1.102478456743404544e+18
1.076686811761768832e+18
-1.420042245511342592e+18
-5.995911812353802240e+17
5.286671739474808320e+17
3.252476832678336000e+15
-4.943900775560904960e+17
7.830616089091824640e+17
3.732241700418567168e+18
1.904109757328291840e+19
1.352199234427782912e+18
1.081404273269970944e+18
5.273098930499799680e+17
-5.230224266583857920e+17
4.338849779523092480e+17
4.429990517374193600e+16
1.620867449627011520e+17
-1.221196433434600448e+18
4.429444521359714816e+18
-5.845788843146176000e+17
-3.605307290491606528e+18
3.170053533931793408e+18
-2.324227444096643520e+17
5.951383567880350720e+17
-4.028867745307473408e+18
3.412080318879354800e+16
6.075847312175586560e+17
-9.322792203183306240e+17
-2.158843487416904704e+18
-2.431075948252870080e+17
-1.573700843726172160e+17
8.714099647627430400e+16
-7.191108544110570240e+17
-1.160827760179536896e+18
-1.982704825611148544e+18
-2.743584486106963600e+16
2.883969821884864512e+18
1.313870481978580173e+19
-1.568646993269991936e+18
-2.118794311246369536e+18
1.894447532085914419e+19
-3.039219851014719360e+17
-2.167435336824923520e+17
-6.809653258546735360e+17
3.517447814009011200e+16
-2.538936700956519040e+17
1.017157153067179200e+17
-5.325991771634162560e+17
1.109012775486057267e+19
8.879533013821822720e+17
7.108396470508142080e+17
6.775329841390732800e+17
5.320230123042928000e+15
-1.778629675934594560e+17
2.197638628627477200e+16
8.962376756763488000e+16
7.604617649237018880e+17
-1.448756217807993856e+18
4.942141275189735680e+17
3.756806150465782400e+16
-4.968905787053031040e+17
-1.740364356299752960e+17
-7.535266546911649280e+17
1.440490387627992960e+17
2.921755739397726080e+17
-2.062729785874418176e+18
-8.382857144032416000e+16
-6.039507646188761088e+18
5.142606203575104000e+15
-3.909351273392369920e+17
-4.931794780183172800e+16
3.368270227669529600e+17
2.969008162733841920e+18
3.888726736461408640e+17
-2.433633723594145792e+18
4.350089294160419200e+17
-2.644990879823808000e+17
7.003390072546891000e+15
3.824555649858086400e+17
-5.056063919965065600e+17
-3.068859589639263232e+18
-1.169574501345106432e+18
-2.574013741795301440e+17
8.212387731890944000e+15
-9.926887117033615360e+17
-1.155870082451084800e+16
-1.529872317968644864e+18
2.076636844610215680e+17
2.375722625110838477e+19
-1.961642695924597760e+18
4.400739159612150400e+17
-2.993893736840122368e+18
3.836985763906312320e+17
2.898867677551285120e+17
-2.987899254904858880e+17
-3.884409941707895040e+17
9.122388452504046592e+18
-2.426061223432681472e+18
4.529220572682970880e+17
2.480896525879717888e+18
-4.038686538059544576e+18
4.746137493831980032e+18
4.245735726182017920e+17
-1.626443866483841024e+18
1.115998421731729408e+18
6.000343241197863680e+17
7.938389470593510400e+16
2.093788188823548160e+17
-1.192665984731374592e+18
5.101893767272533760e+17
1.314213028149697126e+19
-7.766349113018544000e+15
-1.591271476671638528e+19
4.605207048012783616e+18
1.175205634233921280e+18
-1.091508715689302080e+17
7.734851468418713600e+16
-3.100717541611463680e+17
4.713238097154024000e+16
8.932039753892190400e+16
-1.329506683002435789e+19
1.293588236410518784e+18
-5.160332711834454016e+18
7.145027897362264320e+17
-4.425744625533784320e+17
-4.282564782402421760e+17
-4.891921530626282000e+15
1.156001284084329984e+18
4.849384519767507968e+18
1.469177272323799808e+18
-2.404126653332963328e+18
-3.210858731107391360e+17
-2.786659956525861376e+18
2.226888853705073152e+18
5.876847561619913600e+16
1.071674891114978816e+18
2.502440406950265280e+17
6.011267962648325120e+17
-1.360709865029610240e+17
-4.685648218826846000e+15
1.689214401668626176e+18
6.227014777182442240e+17
7.120020956702853120e+17
7.961108276962491200e+16
-5.944768277748500480e+17
-8.574155711260176000e+16
3.687024050286430720e+17
5.542156602626508000e+16
2.029549029710062400e+17
4.310033251339996800e+17
-1.767852109023428000e+16
-3.576469497540815872e+18
-2.608259375899718144e+18
-6.060314021495380480e+17
-2.122545945852891648e+18
-2.410974334905439680e+17
-4.077321883973728640e+17
-2.519830372555510080e+17
-5.090416245813546240e+17
-9.981680098180492800e+17
4.822938857620642560e+17
-9.678967667917258240e+17
-1.835176675449052928e+18
1.460314112340136000e+17
3.250234447500520960e+17
6.315412225486191360e+17
-6.763366911505262080e+17
-6.571563019846531200e+16
-4.576898876578515200e+17
-4.307927299528263680e+17
1.296861646008798240e+17
-3.375460685861799680e+17
-5.329561084729140224e+18
8.464837344777331200e+17
1.856009007241872384e+18
6.916625165916302080e+17
-6.430033077127489280e+17
2.302777464822123008e+18
7.755718798204554240e+17
-1.666148432461732800e+17
-3.993589054274570240e+17
3.525606759445360640e+17
7.056362861668796416e+18
2.039504696802507264e+18
-9.309400958726096000e+16
3.708715678236041600e+17
-2.308876148247645440e+17
1.778250321172859904e+18
5.529832521400827200e+16
-1.242932187880654848e+18
9.619915294876821760e+17
1.103945108294026240e+17
8.144543937407316480e+17
-1.274467208414814720e+18
-7.451574541131192320e+17
-9.621907883113841920e+17
-3.211426347361813760e+17
5.877639478225563200e+16
-4.668177369024766080e+17
8.076212087367909120e+17
-2.101508026873498368e+18
-7.486433411067279360e+17
-1.778773752593138560e+17
-8.142450735125862400e+17
-2.558957001539288576e+18
-7.090925902306038400e+16
-8.312291511249858560e+17
-4.052945960163248640e+17
-1.104790679491426240e+17
4.206116295928897280e+17
-1.833612795754136832e+18
-1.796283607770346496e+18
-7.340712938566859520e+17
-1.125139975925608960e+17
-8.083946232820567040e+17
2.778763628155934208e+18
-3.652406177447571200e+17
-7.618154922859036800e+16
-1.052955260586432128e+18
-4.084374886910263680e+17
1.872205592626478720e+17
-7.235154527981457920e+17
2.739904523899574800e+16
-1.809066711640465152e+18
-6.994911670613100800e+16
-2.777236244635937280e+17
-1.916898536441336000e+17
2.685252104783252480e+18
-3.847223909433885184e+18
-3.519175532227320320e+18
6.836134766661219840e+17
-3.869285020825245440e+17
-7.924563815994570240e+17
-2.106312976814169600e+17
-1.045757945905055744e+18
-3.947324491413813248e+18
2.201690171957780800e+17
-7.980311816702456000e+15
-2.628226881187804160e+17
-1.465227339193837312e+18
-3.431141325701602560e+17
-1.068455013240584576e+18
1.743113195862792400e+16
1.701338328166039680e+17
-1.110998384399999360e+18
3.111393134686399488e+18
-1.039951016507087616e+18
6.940053744178741760e+17
4.393931504080956160e+17
-7.418248510164692480e+17
1.727955143414813696e+18
9.230431664827171840e+17
2.660623537126344400e+16
-5.591229634684649600e+17
4.863381097680080640e+17
3.044052655009165440e+17
1.024267556693477120e+18
1.340985757096984800e+17
-3.394856217035441600e+16
-5.190588801701763072e+18
5.264671607512398720e+17
6.976452377167110400e+17
-4.787560352290442880e+17
8.849627904001190400e+16
2.062085688340173120e+17
-1.700578043186295808e+18
6.225287045143756800e+16
1.301072075188581760e+17
-1.546070259407354112e+18
1.047628848346395776e+18
1.657722020734810368e+18
-6.072662969756359680e+17
3.383967264390432256e+18
3.963127755017582400e+16
5.539093644852965120e+17
-1.158803855507372800e+18
-1.462271726966568960e+17
-9.379770232215042560e+17
8.903459985350586880e+17
8.507599571080797440e+17
-1.305668757879864640e+17
3.782657496710926720e+17
-6.015902087150044160e+17
-3.589385434503232000e+17
-3.172227205493425664e+18
-1.677944353238453504e+18
2.731024131320632000e+17
1.887201060467295744e+18
-2.600830588152128512e+18
-1.859552025912926720e+17
-6.481069077529584640e+17
6.782339008638233600e+17
1.392976260249357120e+17
-9.235310055528789760e+17
1.529118772202118400e+18
-3.531652761339264640e+17
2.477382840154970400e+16
-1.800997476799895552e+18
-1.626453965860343800e+16
-1.340454353728495104e+18
1.584957347084806400e+17
5.373970378240991360e+17
-1.651171934435347200e+17
2.720346570273611264e+18
8.784708561341696000e+16
9.990996516344015360e+17
2.844563853946145920e+17
-6.216180769322943200e+16
-1.207042468174551040e+18
-5.884914604586542080e+17
-1.740573975918848768e+18
-1.409767957894897152e+18
-9.891534989851632000e+16
1.486724777305246208e+18
-5.474390742555651840e+17
1.375886972841611776e+18
-4.525568251682250752e+19
-1.229373198776527360e+17
-1.438230565647973600e+17
4.728163199140464640e+17
1.763636975624413952e+18
3.488226055448457600e+17
-1.855641240689476864e+18
-3.197081759295706112e+18
2.827127331329175552e+18
-3.047093642724097280e+17
-4.816724533280775680e+17
-3.396704370872944128e+18
-6.490283218856734720e+18
1.214524937286965760e+18
-1.010770439948992000e+15
1.353999605353048960e+17
-5.397071083324696320e+17
-5.663103293827354240e+17
-1.063127283558368666e+19
-1.353378666370709920e+17
7.180408182512046080e+18
-2.511170692035240400e+16
-1.605560885699216384e+18
2.687349548488595600e+16
-1.814057314285603840e+17
-1.335517768184512000e+18
4.095231246676100710e+19
3.516033386110626816e+18
2.450149170125095424e+18
-5.472795306453424640e+17
1.043801207574521760e+17
-3.634072322594117120e+17
1.266290499189210400e+16
1.629130859077754240e+17
1.057032786508009216e+18
2.927411625318278400e+17
-1.174976689611225600e+18
-2.965663387390473216e+18
-4.118444321747904640e+17
4.777092192962580800e+16
-1.409221592396103168e+18
-1.713900649055399424e+18
-7.843609178413701120e+17
1.150146808560752435e+19
4.449050008861175040e+17
-1.756670321252584448e+18
-3.017649453409376768e+18
-7.500963561973657600e+16
2.290302611999408640e+17
3.583612901303014400e+17
2.921022500956464000e+15
-1.978556159638822400e+16
-2.395575696142752960e+17
-8.930496348244064000e+17
-1.238651018836771840e+18
-9.314980445677000960e+17
5.053833796858470400e+18
7.743051716829973760e+17
-1.116642992642693440e+17
5.163250920540816640e+17
4.110000031176295424e+18
1.875460462770225408e+18
-4.432391009178766400e+16
2.387084412378470400e+17
-1.201508888024161920e+17
4.584729339169236992e+18
-1.485394128409123200e+17
-3.598969356120806400e+17
-8.850300941871223040e+17
-7.310000434039928320e+17
-2.571691692479522880e+17
-3.065306255670376320e+17
-2.032600802876186400e+16
2.010405630176261632e+18
-1.148998277792734848e+18
1.912251792942175232e+18
-6.807296370629077760e+17
-1.124985914723658560e+17
4.269020736833848320e+17
9.230968272770163200e+16
-6.787461153947402240e+18
-2.835631711418016000e+16
7.822385678161995200e+16
-5.029893647665212160e+17
-2.885273079147116160e+17
1.941391039723673088e+18
5.688853477376829440e+17
1.041929735069298560e+18
2.672802235848680000e+16
1.233363863257416704e+18
-7.548900805673034240e+17
-4.576670480308046080e+17
-1.726438302125306880e+17
-5.679570863248418560e+17
7.920336270078538240e+17
-6.600363956100870400e+16
6.670332939910190080e+17
-4.528030402358789760e+17
1.449032342355050560e+17
-7.997034360741123840e+17
3.032138075598180800e+16
-4.014450210294606080e+17
6.840132150892405760e+17
1.117018053532132352e+18
-8.410488339480997888e+18
-3.191400295577763840e+17
6.515724940868393600e+16
2.304096709569440320e+17
-1.081283460440010240e+17
4.665031447212887680e+17
-4.715765208624610560e+17
8.303451503952732800e+16
-9.262111861121044480e+17
-4.906534570163196160e+17
2.598569594694714368e+18
9.778599861849308160e+17
-1.980693161330047744e+18
1.927833015336857600e+17
2.760436303090987840e+17
-2.784234261436314112e+18
9.131683149673973760e+18
1.620903757438798336e+18
4.863532334850051840e+17
1.761302903266946048e+18
1.414164657620041472e+18
-1.148726734397052032e+18
-1.140520629558559360e+18
1.001186723271888640e+18
-4.036405628338140160e+17
-2.723456869347240000e+14
-4.630146430705256960e+17
-7.099430423844820480e+17
-3.793321270393793600e+16
1.252220787718412000e+16
-2.354337195198674944e+19
2.480987211545678080e+17
3.614309341316761600e+18
3.094626522201763200e+16
-3.555202074742299520e+17
5.888053942614307840e+17
-3.254370285842233856e+18
-1.336278714928780800e+17
-5.031242616897754240e+17
-3.311744945016993920e+17
-1.848058593552764800e+17
1.212988360309525760e+17
-1.524551519889128960e+17
-1.801491544259964160e+17
2.859993005012206400e+16
-1.401383454876665600e+17
3.369396780330065920e+18
1.394344099508331264e+18
-2.839508462059861120e+17
-3.817191536225771520e+17
2.954921099099212800e+18
-3.457844331049337600e+17
-1.331541207321756000e+17
-6.034289710350826701e+19
-4.528195875823045120e+17
7.008391198575572992e+18
-1.259801472420994048e+18
3.191420302291238400e+16
1.245440512902994432e+18
-2.801412502857512000e+17
9.046612966865553600e+16
1.036210608760728064e+18
-1.460545751314232960e+17
-4.097990516086873600e+16
-2.432665244558304256e+18
1.014543126401511040e+18
-1.204837159007202816e+18
2.073214518831294976e+18
3.664307205752929920e+17
-4.878534282306874368e+18
1.121087688986189800e+16
-3.282091601290079744e+18
-3.365310077036280832e+18
2.005542273394199040e+17
-1.362303416615579136e+18
8.720108222452096000e+16
1.632756077664032000e+17
3.894346947048960000e+17
-2.770129734782166016e+18
-4.561107296997731840e+17
6.465773274478299200e+16
4.489100838669221120e+17
-4.621853721358471680e+17
8.647374456801486080e+17
-1.646707468085950976e+18
-1.223650174028062208e+18
1.103843424978219776e+18
-2.091326945183350016e+18
2.823127579318973120e+17
-1.796596772759675904e+18
3.676297375938903040e+18
-4.979240889886054400e+18
2.641578181512653824e+18
-8.094426447053436928e+18
2.207432799900434176e+18
1.347258823526172160e+18
-5.592132471242999040e+17
3.243027309725219840e+17
-2.301227540034928896e+18
1.671985699271914560e+17
-1.876237164770900224e+18
7.309974410041465600e+17
-6.443495261659642880e+17
-1.040863572595228416e+18
1.668595688185683456e+18
-1.052695563828974400e+17
1.636418410092087680e+17
5.116723264882616000e+16
-1.527846690035898560e+17
-1.842106349570744320e+18
7.424532459843254400e+16
2.737951355442045440e+17
7.666591760692764160e+17
-8.786053667561219840e+17
5.652424574354304640e+17
1.830837829719973760e+17
4.128037158252749440e+17
-2.531439529318829120e+17
2.078079243157395456e+18
5.874380255628207360e+17
5.055398723625210240e+17
-4.317929132241128960e+17
8.811767148199614464e+18
1.203815452228328192e+18
1.177262332436956928e+18
-7.015141975050861600e+16
-2.706011217236062720e+17
-2.246365715853689600e+17
1.466153570655968051e+19
-2.923824706128313600e+17
4.900919584775156480e+17
2.379873879775290368e+18
8.524774606781862400e+16
-6.678534065428246528e+18
5.666602636687918720e+17
-1.507363454945221760e+17
2.674022143840580800e+17
-1.258723048262673920e+18
-8.119598153694710400e+16
5.010607656077288448e+18
8.780276870447811200e+16
-1.378279791958237440e+18
5.703204383943071200e+16
-2.727147498634320000e+17
-1.121096314209246208e+18
-1.539766151754013440e+18
-3.595745318732365824e+18
-1.174626725669691200e+17
1.889917160720038656e+18
1.642362419958447923e+19
-1.889560782141320960e+17
-3.878361654820107520e+17
-4.547964187562086400e+17
-1.091151716326746240e+18
-1.408529503198363648e+18
-4.754021755973062400e+16
1.012841312116527104e+18
2.201953703965861120e+17
-1.809886430675513344e+18
-2.226794737215731456e+18
7.533337353346882560e+17
-7.238660677702396800e+16
7.500363992583744000e+17
8.756172077697008640e+18
-1.326852149856906240e+18
5.090650229766593920e+17
3.650359766514442240e+18
-3.126069071143455360e+17
1.562006748999092224e+18
-3.013472495414622720e+18
6.684764061416892160e+17
-3.150299361029190400e+17
1.206433063437861888e+18
-7.795822815708316800e+16
2.052361978470008960e+17
-5.539703917524512640e+17
1.269410037056335616e+18
-9.749733529977653760e+17
-1.372977471008884736e+18
-1.082048147295201664e+18
-2.501946393542614080e+17
6.871908657881774080e+17
3.583688802236212736e+18
1.190672028254563584e+18
-3.360371520392714240e+17
9.077596363083396096e+18
-4.636974541897843200e+17
3.765145832276704000e+15
2.242002998673549312e+18
-2.200255268059325952e+18
3.880969955351847680e+17
-8.189062645908359680e+17
-4.206945668236710400e+16
5.550508353988296960e+17
2.503519876868480000e+16
5.564199030726865920e+17
1.134604597226278912e+19
-9.645519158218976000e+15
-8.938306638734041600e+17
1.375398287491082240e+17
4.429824108020408000e+15
6.195756208358273280e+17
1.151668176038391936e+18
-7.540320433891344000e+16
4.922854460597916800e+17
7.714815628576442880e+17
2.948162767694558720e+17
-2.773310641627732480e+18
1.080765265600692224e+18
3.393627783180667904e+18
-8.005519843538498560e+18
-2.944367295638868480e+17
3.535644496931936000e+17
1.361388627781829888e+18
-5.956458175905441280e+17
-2.252447424221440960e+17
4.972182392642918400e+16
-5.909812487076121600e+17
-5.541034440991769600e+17
1.276810957084150080e+17
4.452299359236713984e+18
1.594810948129646592e+18
-5.711318177817436160e+17
6.123656437458626560e+17
-2.272449406789382720e+17
-8.353411226174924800e+16
-1.483689670233289920e+17
-1.247800934609323840e+17
8.322167589048675840e+17
1.338344712789270400e+17
7.464374236584026880e+17
-6.658295501709040640e+17
1.002727518685828480e+17
-4.665424177490865920e+17
-5.969993258384092160e+17
-7.495870598613388800e+17
4.137374287289470400e+16
1.507954341469891520e+17
1.073346653204571904e+18
4.759613194702594400e+16
1.283632243333168742e+19
3.184241401564026400e+16
1.013319375476424960e+17
-3.700274683554560000e+17
-3.205375990126012416e+18
1.183103645691075680e+17
-6.850958183693190400e+16
-3.917075954296590720e+17
-5.220326274490427392e+18
6.057107466796889600e+17
6.339132226084320000e+17
2.228789985130309440e+17
-1.230558021473781120e+17
2.736227690960000000e+11
-3.041233637659946880e+17
-5.563930569036288000e+17
-4.205919367328495360e+17
-4.509253835846650880e+17
-1.002723961187117568e+18
-1.021765237912102528e+18
2.302085577708178560e+17
5.767651773014286080e+17
8.768834077439980800e+16
7.267781647061813760e+17
1.626585670150316544e+18
-7.494352288796490240e+17
2.851766625785355776e+18
-1.592737524293402560e+17
-1.388249507800003328e+18
-9.639555742124883200e+16
2.616751803813935040e+17
1.345397475615451648e+18
-4.708440433088912384e+18
-1.120676487377811251e+19
2.730789973497177088e+18
2.255962003339525888e+18
-1.311537511829287040e+17
5.836589136541017600e+16
-1.176702007843427072e+18
5.335271772572276736e+18
2.816127192039107584e+18
4.928150342050947200e+17
-7.533620017238993920e+17
1.437534474930701824e+18
3.253250704994508500e+15
-7.135622628580730880e+17
7.013144604414462720e+17
8.198843984279888896e+18
1.404401238544700928e+18
-9.131929412296169600e+16
3.804494945512254080e+17
9.273021352398704000e+16
-2.317452038636768000e+15
9.744832382006001664e+18
3.043452240817377280e+17
4.231260165629319680e+17
-2.022518364073866496e+18
1.258018012895477760e+19
-2.484414800969269248e+18
1.662265050212036800e+17
-1.135779036636516224e+18
-9.405379636885199360e+17
-4.598306653036118400e+16
-1.139843541002485504e+18
-1.481754736863690240e+18
-2.759934172050333696e+18
1.653994074406337920e+17
-2.467992545040459776e+18
-5.345088665679883200e+16
-1.900314829436516160e+17
1.900886294838705280e+17
3.773094904532990720e+17
-1.202109556432746906e+19
5.398672931443107840e+18
6.556982659228567040e+17
-2.051021734368170800e+16
-1.809595539196356480e+17
-4.352219024327804160e+17
-5.468379778389441280e+17
-2.822357362226967040e+17
-4.526300270868237312e+18
-2.531507267070650560e+17
-1.343420760353512640e+17
-5.766195243018753280e+17
9.796741216437178880e+17
1.443688369930141440e+17
-1.043075424581477120e+17
-1.950445623133858816e+18
5.109723941820595840e+17
-6.677783274798694400e+18
-5.007994187552394240e+17
3.388594667397117440e+17
-1.125566636846405120e+18
-1.614118712817071872e+18
8.444315040814096000e+16
3.745610588110794240e+17
3.550459352457006080e+18
-3.088362192959502080e+17
-1.563964985268903360e+17
-7.375836182922544640e+17
-5.613421644370269440e+17
7.265753516971977600e+16
-9.220338984416778240e+17
1.916441413177984256e+18
2.988176086954085120e+17
-7.743257019798086656e+18
-7.998583190880540160e+17
-9.606555421045614400e+16
-4.748635848961287168e+18
1.073910114513941760e+18
-1.180959247578433024e+18
-5.549965503832371840e+17
-2.836409613749169280e+17
6.696652579245646848e+18
-5.165390978665351680e+17
-8.705880826217344000e+16
-2.078645361304590848e+18
-3.385025795218382080e+17
-1.691301807413812800e+17
5.457365870335099904e+18
9.114337821041995520e+17
1.154763194098996480e+18
-6.519943761930566400e+17
-3.174913907767677440e+17
6.974064851771113472e+18
-7.687772127459232000e+17
3.783741597841156480e+17
1.253571533985996800e+19
6.950217971057466880e+17
-3.965739304799822720e+17
4.323128874844915200e+17
3.533592334292370560e+17
6.547481255718316442e+19
-1.704709270309088640e+17
-2.090629330033491200e+17
6.485820079485337600e+17
-3.683695506817312000e+15
3.924027259908320768e+18
-1.657147339719336704e+18
1.026723520429074048e+18
7.344909981286924800e+17
1.063335614010820352e+18
-5.983480361156460800e+17
1.191625760599103600e+16
3.188254098732659712e+18
-1.153133748174505472e+18
1.615718388232155750e+19
1.937664027799449280e+17
-2.329544764745645440e+17
2.095950871499505920e+17
3.482683625498128896e+18
1.310370128522926400e+16
1.780841065743924992e+18
3.317311874175049728e+18
-1.577122725557735040e+17
-2.461510833408170880e+17
-3.072117067795578880e+17
-5.086718761929826560e+17
6.182947490026014720e+17
4.861882556186577920e+17
-1.204758541739315200e+17
1.262218452620360480e+17
1.903559884080738560e+17
1.798149896894349824e+18
-4.016211459948718592e+18
-5.365502278065137280e+17
-3.393517507296955392e+18
-1.175376981319805542e+19
-9.036468694389883200e+16
-4.662841683135208320e+17
-1.308693771826251264e+18
-2.385754781534911360e+17
2.244466569405562624e+18
8.693161266682188800e+17
-5.361860563920754560e+17
-2.314286071716755200e+16
-4.008133628812129280e+17
1.140586345562021248e+18
-4.546984855081685504e+18
-9.824355539167988480e+17
-1.641132398215061504e+18
6.952999204451926016e+18
-2.036009456995833600e+17
-2.040697952058257200e+16
-3.947516327506494464e+18
-2.376989270401112320e+17
-8.668689567677948160e+17
-1.346698232700055962e+19
4.088286822747281280e+17
-9.278053025791203328e+18
-9.307140927266482176e+18
3.063179626255299072e+18
-9.994800049892645120e+17
-3.984745224176424320e+17
-2.546777101462957056e+18
-1.600426273731242496e+18
2.897800456976816000e+17
2.454334225217108480e+17
2.115282792195748352e+18
-1.103511375669779968e+18
-1.211156670386246400e+17
6.533596687672464384e+18
-5.874578925764051200e+17
-1.259895063020238592e+18
1.108817402853795840e+19
-8.351517798017771520e+17
7.638947506413614080e+17
9.535464045444382400e+16
-9.125174455514440000e+16
-1.159418183277449920e+17
-2.982519930624002560e+17
4.222640971449148800e+16
1.386240102200393728e+18
-5.244379591373038400e+16
1.072709813492726400e+17
8.653840877315324800e+16
6.540567533839836160e+17
9.255296228301588480e+17
-2.934484876896486912e+18
1.041122306977133312e+18
-8.708508399648988160e+17
1.817852521562016768e+18
-2.733351812082266624e+18
-1.836590023229815680e+17
-9.579611373245380608e+18
-5.750562560483059200e+17
1.278491863949796864e+18
-2.017015060382639680e+17
-6.427993703077423360e+17
9.072908918246809600e+17
-1.152477367903066368e+18
3.017743003798048640e+17
6.870378357789166400e+16
-5.912003337078085120e+17
1.294142105238532096e+18
3.659475425220170240e+17
2.957771520104914944e+18
-2.698466285890883072e+18
1.741309397541267600e+16
2.435698450335683584e+18
-1.082402599896225024e+18
6.387233522002301952e+18
1.658258364397534976e+18
3.719682974215152000e+17
4.921411903826124800e+17
1.687769824430116864e+18
-1.949591504483683840e+18
-3.542000573983916800e+17
7.339863086505472000e+16
7.966686421762884800e+16
1.160406042507355648e+18
2.850790637011021824e+18
-6.594133383755490304e+18
3.121748009950350720e+17
9.593470573678371840e+17
-8.207236702181875712e+18
-4.276461271840781440e+17
7.656611608879390720e+17
5.063782295166036480e+17
-2.405803223923597440e+17
-7.424683335622585600e+17
3.762786231440710656e+18
-2.298849302932646080e+17
4.425030215094241280e+17
1.813090325165088768e+18
2.839056279735214592e+18
4.530394615792124928e+18
-1.086674059657186304e+18
9.781862630416652800e+16
-2.977288605015643136e+18
1.086420502323179392e+18
1.298647434180852736e+18
1.174491153127091200e+16
4.364920232382252800e+17
-1.776599327547637760e+17
1.874567092042253312e+18
-5.450657902600688640e+17
-1.819194531103342080e+18
-6.888931271146834944e+18
1.391297424729998080e+18
1.732447392306510400e+17
-7.776565677270963200e+17
8.946355313114803200e+16
2.030356597472764800e+17
-3.300415356664043520e+17
1.095041260203523360e+17
8.966440985339603200e+16
1.755513190609198848e+18
2.813757595546242048e+18
-1.412785665677310080e+17
2.742980947868304000e+16
-8.739460088719119360e+17
1.736124501003850240e+17
-8.612983141130498560e+17
4.048468606370748928e+18
2.054814802707311040e+17
-4.085394026830923264e+18
-6.727662383096433664e+18
1.031664347417556480e+17
-1.452573099471200000e+17
2.785520957240667200e+16
-3.696608447068103040e+17
-2.753820577037393920e+17
2.503080464211245056e+18
-2.707246011467396608e+18
-2.011152530722223360e+18
1.504818390270289408e+18
-1.839623085352764480e+17
1.221829029211271168e+18
-4.248109083022809600e+16
6.258139750354963200e+16
6.894007541496038400e+16
4.921535717191063040e+17
7.936690855470918400e+17
-3.108206003992347648e+18
1.125805678051019520e+17
-1.425717987550868480e+17
-1.778212364564099200e+16
2.736215543097362400e+16
5.791754276247227392e+18
-6.788140742551507200e+16
9.019762952681800000e+16
-1.091175200979533440e+17
3.319928244990739200e+17
-4.162238057214620160e+17
8.621215438460677120e+18
4.285224763381352960e+17
-1.671248154418977920e+17
7.933145216502888960e+17
-2.197307807514006400e+16
-7.839284491859920640e+17
2.986593790312380416e+18
-4.216334165169465600e+17
-1.940529572895916800e+17
8.379790495166295040e+17
-6.695696239530060800e+17
5.960627734765665280e+17
6.090974094645117440e+17
-2.384254772419537280e+17
2.015354342490915328e+18
-2.457269427224670080e+17
1.228416634527024000e+17
7.777014133202830400e+16
1.512548426484343040e+17
1.064147880488177280e+18
-8.842736244813870080e+17
-1.012027409369284480e+18
1.317900692529071616e+18
3.936942118764565760e+17
-1.600377559763784192e+18
4.070471020400432640e+17
5.136448207869866240e+17
1.220451376283021568e+18
-6.984371738912798720e+17
-9.875041247683673600e+16
-2.486482243202083328e+18
4.315495881225647360e+17
2.681372517401196800e+17
-2.116595223956271360e+17
1.656568592170752256e+18
5.850726892638914560e+18
2.256006730808751360e+18
-4.926370461270504960e+17
-8.251300249061768960e+17
6.681685496579575040e+17
-1.265301662676585728e+18
-4.931917165068358400e+17
3.203122874134771840e+17
3.490998847325910630e+19
3.893797622844404224e+18
-1.256376440323423680e+17
-1.501294995953846720e+17
4.903293174243766272e+18
1.943293370135654080e+17
1.884930430271210496e+18
1.029938857977592800e+16
-1.862086892443268160e+17
-1.819426276823145920e+17
3.607875402406722048e+18
-1.916074816875865280e+17
-2.163892775017738240e+17
-9.382220921572758400e+16
-9.447740012288000000e+17
3.091549122003286016e+18
5.566874422288441600e+16
-5.167617024663949440e+17
5.376020260426123264e+18
5.601393125915010560e+17
1.567860673409442304e+18
-2.938014062824422400e+17
-1.576903819735061760e+17
1.076045530112202400e+17
-8.133308020410529280e+17
-8.339003901961683200e+17
2.854342277139072000e+16
-7.392168445494035200e+17
-1.599255830514485120e+17
6.510206522980212480e+17
8.600973902702168000e+16
-7.345163434669726720e+17
2.933939940908914688e+18
-3.053068493677444096e+18
-1.234383140464019968e+18
1.367074050306264064e+18
2.671369561822787584e+18
2.689363553323392000e+15
-1.748465807925664000e+18
-1.988126711439035904e+18
-2.316453801896753280e+17
1.990337195580361216e+18
-7.506808150412024320e+17
-2.070961564425952000e+17
-1.115953187427707776e+18
-3.582840071216060160e+17
-5.144075723766500480e+17
3.114708045098242048e+18
-1.657080987749812480e+17
-2.460386598571928000e+16
-1.430081357848534400e+17
2.223591472425606349e+19
-3.094861856355984640e+17
3.682883262088624000e+17
-3.896750313034310400e+16
9.762297048728227200e+16
-5.437359068749370880e+17
-3.802689195136174080e+17
-1.414490414583948800e+16
-7.786033313140200960e+17
-8.423307297667245056e+18
1.079318324820792064e+18
2.280391954105223600e+16
1.495831629881544192e+18
1.090717824424442496e+18
4.196701410102828160e+17
1.337341159473505280e+18
-6.237342110518902400e+16
9.509708364423520256e+18
-6.291731217219132160e+17
5.482068976986275840e+17
8.596511608395946240e+17
-1.628544613462825984e+18
-1.230386896440446720e+18
1.205204929240140480e+17
-4.371398495877964800e+17
3.974851605280048000e+15
-5.662208159070058240e+17
-1.623589027093803520e+18
1.167902717882510720e+17
1.650601958229156250e+19
1.792226261954288000e+17
1.223480014987579904e+18
1.474666801032477696e+18
1.276140455113594560e+17
2.991305979716881920e+18
-1.569619890954041344e+18
2.017365387822596800e+16
-1.404004839001107456e+18
2.075091822774769664e+18
-6.047230281824518400e+17
-9.425409384143750400e+16
-4.060325808784044800e+17
-3.333868538477294592e+18
-2.005244052198122880e+17
6.431337350563799040e+17
6.980852357549802240e+17
3.722962472316630528e+18
2.130502768166883072e+18
1.237942329315795968e+19
6.035637919601778688e+18
4.302285984417822720e+17
6.831426531999872000e+17
-7.068154960503048000e+16
3.828438875253297280e+17
2.450899674356832256e+18
-2.628033077118437376e+18
-2.701087946550143200e+16
7.205252770126464000e+16
1.516676192959610624e+18
-2.627205714548348160e+17
6.983703687626991360e+17
-3.919441858143306240e+17
-3.635055708318298880e+17
1.286737077271698432e+18
-9.250859007897091200e+16
1.434279845961794240e+17
-3.358318586700049920e+18
-6.331796184380111360e+17
1.160276842430805248e+18
-3.439607258699118080e+17
-8.602342336002932480e+17
3.494919288379498496e+18
8.255889908610659840e+17
-6.123872925802474240e+17
6.482331758356840448e+18
-1.070077690187803034e+19
-3.001136510636908800e+17
-1.126544354356464512e+18
-2.092966956385170432e+18
1.425088147051221120e+17
2.494120511729806848e+18
2.806822762005052160e+17
4.162166501589657600e+18
8.337981841410466560e+17
3.283900582425682560e+17
2.837146195403409920e+18
5.025596087759942400e+17
3.006916918696972800e+16
-1.830519651569777408e+18
-3.366282763147699200e+18
-1.296888477241489920e+18
1.726755057820650880e+17
8.009099211010334720e+17
-4.988551624984948480e+17
2.070967945697725120e+17
2.808446766888205824e+18
-2.465161934293443200e+17
-4.307475752897189120e+17
2.832571343459668800e+16
1.060349366842228864e+18
3.977668539316104960e+17
1.141587072843916288e+18
-1.378464008791622144e+18
6.490891937924262400e+17
2.382042847149587968e+18
1.684951291272817920e+17
-1.592756086904687360e+18
-3.397516317153040640e+17
-6.785147498032572800e+16
-5.879248143077690880e+17
2.145381259158204800e+17
1.744526776108502784e+18
1.827401594226172160e+17
7.553404705578378240e+17
1.738085400797040640e+19
8.308580263093737600e+16
-2.070385229073406720e+17
3.106207799209744000e+17
-1.204047179184962560e+18
-1.837115661174725760e+17
-4.398968185746153600e+17
3.909514467007656960e+17
1.879195764650139136e+18
1.297566225027968000e+17
-2.204663182081660160e+17
1.012474492818700000e+17
-5.571279434700472000e+16
-2.079441016141853440e+17
4.687034494604384000e+17
-5.114040410529492480e+17
-1.479714023435483904e+18
-1.923052600047202880e+17
1.769038402209394600e+16
-2.146890875390996992e+18
1.145632329899643290e+19
-3.635136734192215040e+17
8.098822575433889280e+17
-9.620518946021557760e+17
2.565494187921192448e+18
9.750493839282307072e+18
-4.808088200938591360e+17
5.461289830296300800e+17
-2.579017326298076160e+17
-3.016272068516936320e+17
1.056268504891957632e+18
-2.558983196212141568e+18
-3.922492745389238400e+16
-6.119531126834120960e+17
5.507290841614232960e+17
1.270553932935269632e+18
-1.883454049031850560e+17
3.349730548161153280e+17
2.671212092515312000e+17
6.811214181024990720e+17
-2.860816741592621760e+17
1.440767945090521088e+18
-4.815017917474908160e+18
-3.356840919360523520e+17
8.152071937821844480e+17
-6.375631927452630000e+14
1.699497588578231808e+18
2.351614115082140672e+18
-4.897900137397626880e+17
-1.374200649296384000e+15
-1.216492530185509440e+17
5.416429764084838400e+16
-7.216712494810978560e+17
-9.464718126341617920e+17
6.216384951949140480e+17
-8.130145811064469760e+17
5.308038451398957056e+18
-6.014604081868758016e+18
4.391520243005018880e+17
-6.845335150131200000e+16
4.166601412552190720e+17
-9.788962547683485696e+18
2.018273950493391360e+18
1.948738389804693120e+17
4.576232019502886400e+17
-1.257290632842457280e+17
2.199541732597507584e+18
-5.314922553441361280e+17
-7.933604791627074560e+17
3.389041698799289600e+17
1.698175160998558464e+18
9.873557157835849728e+18
2.635024831865089536e+18
4.572294629560282880e+17
-7.473111780218749440e+17
3.368898499570664960e+17
9.201976282359401600e+16
2.772809112375700992e+18
3.662732264023889408e+18
3.914256625240755200e+17
2.486037550326512640e+18
4.118713435445636800e+16
-2.303025130913766400e+17
-4.166840260824556800e+17
7.361892986916160000e+16
-6.437192946363566080e+18
-2.254759893393070336e+18
1.520276443073874560e+17
-3.003133474955256320e+18
-3.690739404157077120e+17
-2.795908994111922240e+17
1.378653369099397600e+16
1.857955615011756800e+16
-1.229759479369562624e+18
8.035640956044364800e+17
-6.427436706530638400e+16
6.068133502376281600e+17
3.850741168060376960e+17
5.718360775959622400e+16
2.621135979416830720e+17
1.062891820792905600e+18
-1.462774705340260160e+17
-1.879503893498158592e+18
-4.050637582140386560e+17
-1.424637988874876928e+18
3.001753626532294144e+18
6.312150985714606080e+18
1.154301332030115072e+18
-6.106008379268592640e+17
2.331158403760607040e+17
5.841424852538977280e+17
-2.497743357735713920e+17
-6.347370609445132288e+18
8.101851001417905920e+17
-7.886366321774369280e+17
-1.131103417511019776e+18
4.227598921793561088e+18
3.146335493081401856e+18
1.013163773217704704e+18
-1.205897787634436352e+18
-6.312134680182248960e+17
-1.221621265506062336e+19
-3.642601219955249664e+18
1.949611787973203840e+17
1.411141493929502720e+17
8.380305867059624960e+17
-4.736031860077760000e+15
-3.178865127333094400e+17
-1.251034487806662080e+17
3.707025808452262400e+16
4.876387786647931200e+16
1.276346777282116608e+18
-1.140739745376547200e+17
1.303453858590881280e+18
3.171047115817284608e+18
2.810695465647774400e+17
-3.654809490055869440e+17
-1.595303181657675008e+18
1.132249133841169920e+18
8.193786051130035200e+16
2.271630154335665280e+17
9.902474549398216704e+18
-2.040392464377793280e+17
-4.884237156030558400e+16
-5.999550645452528640e+17
-9.407892253977364480e+17
1.423972196233447840e+17
5.321531263230892160e+17
9.646656763835232000e+16
5.344519888570905600e+16
7.763367731565010944e+18
1.908955423509086080e+17
3.438722349425155840e+17
5.837011854452492800e+16
5.179808538733492224e+18
-7.450644142783644800e+16
4.632530766422922240e+17
8.109061092594681600e+16
-2.257996010557088000e+17
-9.710215638469839360e+17
-3.296170560859324160e+17
-2.742240442782056000e+16
2.634769822995425920e+17
6.688616520450891776e+18
1.796695956855851418e+19
-1.226715345994159360e+18
-1.949762890784116480e+17
7.844495157791800320e+17
-5.093343531950135040e+17
2.649298389766104320e+17
8.176428729886543360e+17
9.962403185525971200e+17
-1.301615957835823104e+18
2.312124478603652096e+18
-3.504486837381335040e+17
-1.420577377053658880e+17
1.827172933613555200e+18
3.962385347136642560e+18
3.342924063250978816e+18
-8.825100754807841280e+17
-1.188022195293764800e+17
-1.156592090052740864e+18
2.434101708196581440e+17
-1.912915596043813120e+17
3.972059274933222400e+17
4.119257674967122560e+17
3.318730054490900480e+17
-3.543211553285436160e+17
-6.810778717230741760e+17
3.200610873889377280e+18
-2.141878674258049024e+18
-2.780089727155049472e+18
3.354344568659601920e+17
-7.294455821376532480e+17
-2.246701861106552320e+18
1.279661199321674240e+18
1.474593433840965440e+17
3.227283915302768000e+17
2.025927668293009280e+17
1.539333745915668480e+17
7.671742096359864320e+17
4.124816757351200768e+18
1.294348570416887040e+18
-7.266936992474570240e+17
-1.573050206209405952e+18
-2.703090553346048512e+18
2.766072432384517632e+18
-1.416526506056721920e+17
-6.621928866357672960e+17
-1.766004114128346880e+18
9.394128683234730240e+17
-2.272634255141380864e+18
1.497598979243528704e+18
-4.330495374204835200e+16
-4.974176361626396800e+16
2.153637629877997568e+18
-3.863770567910457600e+17
-5.440514839687879040e+17
1.051310237014246400e+17
8.481858259474853120e+17
-2.437909668051600320e+17
1.858783401086529920e+17
-5.182031808765767680e+18
-3.569614035767098368e+18
-6.125749957247541760e+17
2.586438939963803840e+17
-1.353168152294350720e+17
-9.154728722388801280e+17
-1.373557221286067200e+18
-1.970058121350846976e+18
5.376173459624426240e+17
-3.416696697620115968e+18
1.050031345078294784e+18
-1.369337416578007680e+17
4.131209682021002240e+18
-1.547637936399047680e+18
2.366076259941079040e+17
-1.566287393357924352e+18
4.897562884518900480e+17
2.576888566470644800e+16
5.292149167742792704e+18
3.088071433274501760e+17
-6.157051302185207808e+18
-1.299702939957794304e+18
1.259433540411129088e+18
1.003930697201937760e+17
-2.432167547117189120e+17
-9.158317628256816640e+17
-1.434053800119559424e+18
9.124316823106567680e+17
2.499324764793347072e+18
1.797008571133401344e+18
8.013764712438149120e+17
3.394020096854231040e+17
2.118265407946535680e+17
1.350192455390019072e+18
2.969488410276034560e+17
-1.148271536947839232e+18
2.167040502334556800e+17
-1.158338799389050368e+18
3.247989623126742400e+16
1.196135172657657344e+18
3.584685218380942720e+17
1.435971395984664832e+18
-1.750408107054079040e+17
-2.254116812417046400e+16
-1.662730429680821760e+18
-5.643366489949744640e+17
-1.191560964143847424e+18
1.133921776767588736e+18
8.204494560018937600e+17
1.008764010202190848e+18
-9.291827463778741760e+17
1.591574988443881267e+19
1.913201112307877440e+17
1.569524689479142080e+17
4.078310643395947008e+18
1.554989693133603328e+18
-8.418203285109831680e+17
6.579089351696820480e+17
-5.097335717892934400e+17
1.560327849477184512e+18
-3.889678491933586400e+16
5.571905134255316480e+17
3.581592650507122176e+18
2.570682908649052160e+17
-3.213841695649081344e+18
-2.219009069764879360e+17
2.015812387248149504e+18
9.081479245311193088e+18
-1.355691450563920896e+18
-1.541719072346308800e+16
-1.561138057800129280e+17
-5.415157094004228096e+18
-1.428021695443390976e+18
1.205342551575909632e+18
5.058288085568914432e+18
2.163005599889326336e+18
5.815603769863617600e+16
-2.007871647713679680e+17
1.910107416992078592e+18
2.008461863763366400e+18
1.169546165304674080e+17
-1.596951596735508480e+18
-1.821015055909657600e+18
6.407562874586851840e+17
-2.422244234844588800e+16
5.801077092945703680e+17
-5.100751899119934464e+18
2.039709834813908160e+17
-4.149533724285255168e+18
1.560029507691239040e+17
1.230838478999816704e+18
2.191066431187740160e+18
6.173052279302545920e+17
-4.792277947138822400e+16
4.704693288586473472e+18
-3.587934779231836979e+19
2.277733644252878848e+18
-3.857199608128261120e+17
-2.201089899678199296e+18
1.720971541641110080e+17
-8.221558462521048320e+17
-8.174380243891729920e+17
1.544186481803475456e+18
4.702666356996425318e+19
1.828321027896074752e+18
-6.607290556868190720e+17
1.210251493587158272e+18
-2.209531003702029760e+17
1.110566665008035200e+16
1.708049525917541376e+18
-8.520762721345465600e+16
-5.061801434374138880e+17
1.460110599255425280e+17
-6.310778354889267200e+17
3.456125129474720000e+16
1.756397613346169280e+17
3.630676133609432064e+18
1.702600388838449664e+18
2.295258147230897920e+17
-2.770573674075244800e+17
1.906862268837464320e+17
9.404361916527564800e+17
2.798159389266793600e+17
3.372705608672968000e+16
2.144664278509296384e+18
-4.058981395033000960e+18
2.051631866978573824e+18
-7.166634928047996160e+17
-6.879895483213166592e+18
-7.895063622127849472e+18
-2.902730405111736320e+17
9.341791858449576960e+17
-3.852758948228074880e+17
1.683081941813056512e+18
-1.003522422694981760e+17
3.904207997098341888e+18
8.457697251974476800e+17
2.770388397625273600e+17
3.661590027773150720e+18
-5.395876853196015360e+17
-4.924879946727420160e+17
2.227382284385646720e+17
-1.672590314070380032e+18
-7.798840883508704000e+16
-9.631573479014250240e+17
2.217333709135016960e+17
2.006020344112211200e+17
2.963141963944149760e+17
-1.052503851693925632e+18
-2.135355376529662000e+16
9.861702303884974080e+17
2.806355680686557440e+17
4.064913323058695680e+17
2.702226542607684480e+17
5.490311887137424384e+18
2.718867732078699520e+18
1.709194707101298688e+18
1.524750532065009600e+17
8.147615789443056640e+17
-6.828385289210478400e+16
-5.960257631455559680e+17
7.048580274678814720e+17
3.308519072960113152e+18
-1.575357559031221120e+17
-4.581672450265263616e+18
7.898796836997104640e+17
-8.404009445761134592e+18
1.165501495486112640e+17
1.313525702124363008e+18
-2.668795118185355264e+18
-1.319608191898875040e+17
1.244131219445576704e+19
-2.012917950837068544e+18
1.118080025244183200e+17
-1.037953765230741760e+18
1.892365369371211264e+18
2.323039949209536512e+19
-3.438110643917107840e+17
2.845234268815674880e+17
-1.384679417496606106e+19
-1.649820521635508800e+17
-3.032826567231984640e+17
-2.255000735727599104e+18
-1.735883049471672832e+18
-1.313162620471273440e+17
6.722083824868702720e+17
1.129613132718423360e+17
-2.871293439901870080e+17
2.198359182271315840e+17
-2.507158165325087744e+18
-5.000715764999080800e+16
3.548257466192119296e+18
-2.007998564556194880e+17
1.808956952837663488e+18
-5.180157423418493440e+17
1.277807165351180288e+18
-5.875079766956487680e+17
1.956080334853572864e+18
7.055322857735424000e+17
-1.220044067979690880e+17
1.115103764682325760e+18
1.097234578556117504e+18
-6.633723188505762560e+17
2.853210518936673280e+17
4.308293794669035520e+17
-4.064186761844016640e+17
-3.846463531256476800e+17
5.461882956303091840e+17
-1.503696078020345600e+16
5.442326800556276480e+17
7.787327715632262400e+16
1.838106068634324992e+18
9.323236173298406400e+16
-4.799111155097917440e+17
-5.448314270924109440e+17
-6.834241410861092864e+18
-6.018891899563104000e+16
-1.604463477935255296e+18
-1.039988657318061875e+19
2.973602806512305920e+17
1.678306357249680384e+18
-7.017175361316192800e+16
1.659244321489663200e+16
9.428951830993596800e+16
1.426665132189184512e+18
2.403151354148949760e+17
3.378478605110799360e+18
-8.325707853359759360e+17
-3.771023390860384000e+17
-6.720332442907130000e+14
5.390093573023374080e+17
-9.001845245472102400e+16
-4.322074112910127360e+17
2.069244940639028800e+17
-1.383467011282574080e+17
-2.635227600313467520e+17
2.918408456805816320e+18
1.630985535958329856e+18
-8.282928890882775040e+17
-5.452471402026045440e+17
-2.491143609045568512e+18
1.090919793866183936e+18
-2.006892720050972928e+18
1.237110185797451520e+17
8.740635044284276800e+16
4.835916588872429600e+16
5.379924754927690752e+18
-3.323713465569430400e+17
-1.688889459789645824e+18
-1.543979579687177216e+18
6.962533869715729920e+17
-1.241491295792130048e+18
-1.376116689756250624e+18
-4.296682526767942400e+17
1.751935576379323520e+17
-1.145262626767336000e+17
9.687187315889547520e+17
-3.953526472869316480e+17
-9.550944880374031360e+17
2.158181925275715200e+17
-1.986085534736811008e+18
-8.313994857218455040e+17
3.345755559952643200e+16
-3.609307283533400320e+17
3.265406595419824000e+17
3.912244532477260800e+18
-8.700528761905400320e+17
-1.871147294374563200e+17
1.861807791119741440e+17
5.759983844403648000e+17
-1.926034875804700800e+17
2.894339540016805760e+17
-1.443922311375239680e+18
-2.419625008440798208e+18
8.501273585957712000e+15
-2.975881705218595840e+17
-6.690275047654123520e+17
2.350639314074642432e+18
-3.858629682812460800e+17
-6.323436971220247552e+18
-5.500229392677738496e+18
-2.420587400356198912e+18
4.504079662452695040e+17
-9.226120993838220800e+16
8.394711315839395840e+17
2.998054155421941760e+17
4.770674266891904000e+15
2.526436589368954368e+18
2.250375597810489600e+16
5.970396741550331904e+18
1.637023276875489920e+17
-5.868442440629530880e+17
-4.303909423698805760e+17
1.150115752872740096e+18
-6.699603775109012480e+17
-2.554080685360846080e+17
3.255256892670067200e+16
2.895292040897799040e+17
1.030106345767877120e+18
3.646306238547816960e+17
1.400064629222365952e+18
-6.327326321185018880e+17
3.692926699496305280e+17
3.147660100923095040e+17
7.921376592375674880e+18
1.837957823360440960e+17
2.834566516992588288e+18
-3.473269191338306400e+16
-3.083018412572042240e+17
-1.150255399054794624e+18
-6.925780913236166400e+17
-1.105015920113676800e+17
-8.123772039779148800e+16
-4.099801257100135040e+17
-6.630436390919320000e+16
-1.555775805669438976e+18
1.566030057140401920e+18
