-6.637259441107286051e-01
2.839976148017124835e-01
2.932253553187054163e-01
-8.844691705759610834e-01
-7.826220560585812613e-01
-6.619535210585296703e-01
-6.612407895771446054e-01
8.622015916818148717e-02
4.632199406239800865e-02
-5.490440440486048512e-01
-5.673121409057868547e-02
-1.673170669487793472e-01
6.474418573403371013e-01
-6.325277288860082781e-01
6.844606361237093317e-02
-2.309119239055308359e-01
7.232132490299325589e-02
5.764290177952606786e-01
9.801518252349625815e-01
-6.006594623562906410e-01
-1.949621605702214211e-01
-2.514924614567921601e-01
8.779225899262634858e-01
-1.662946241339120501e-01
5.207402635524704948e-01
3.493699675159496199e-01
-9.159513878607612458e-01
9.997093068903852853e-01
1.382243501607296476e-01
4.706683037504537648e-01
-1.846125711228856492e-01
7.082463693150526929e-01
4.157369283343108624e-01
-9.004994614230921179e-02
-2.112419661735538412e-01
-2.235870562575714704e-01
-1.877233884222735405e-01
-9.128090222856821701e-01
7.988156356778324252e-01
1.860501975541906106e-02
9.916076381889495917e-01
-5.017642624936815565e-01
-2.585972779953007450e-01
-2.805062137520744070e-01
-1.758797702171712718e-01
4.550264733098410286e-01
-3.071063439469414735e-01
1.059767118297545441e-01
2.418199372285489979e-01
-2.618556006110257517e-01
3.271963729352547201e-01
6.755132821295453116e-01
-8.624444452564943298e-01
-9.077046342925636502e-01
5.828313928381902986e-01
-4.019019668794956424e-01
2.654392239045013646e-01
6.704392078930503374e-01
6.299324004771331698e-01
-4.330874796088022283e-01
-9.429859497378050293e-01
7.437920822629522366e-01
-1.057800050679280623e-02
-9.568644097526308734e-01
1.937200785038184492e-02
4.641345125235609714e-01
2.657169879351390929e-01
-2.974416056444728618e-02
-3.899864405863475714e-01
-5.203186727043254134e-01
-6.370659871118273809e-01
3.535008098209901917e-01
8.760274424310461328e-01
-3.543978448023237249e-01
7.725749135348884966e-01
-8.514015463528077365e-01
-6.847457304542015066e-01
-5.957035644083881198e-01
-8.113711881762863953e-02
6.706840856108040594e-01
7.012695789022069803e-01
-2.596529864491445849e-01
7.952909747082406167e-01
3.146249099163678231e-01
-6.042786064621967768e-01
-1.292291220560737308e-01
-5.880540766247983608e-01
6.903033889740295415e-01
-1.455407101491255073e-01
3.023801287159033624e-01
-2.613156624924573013e-01
2.266820974878265282e-01
-3.101267495323183354e-01
-4.528735378423798252e-03
1.525672212412576556e-01
6.545518482612422417e-04
2.117823062251262822e-01
-1.514650189226072197e-01
-1.717760387704490022e-01
9.150963787926769122e-02
3.163959689376383277e-01
-1.406700087280734479e-01
-4.144277036573584816e-01
-9.777941901103865963e-01
4.540262236462699885e-01
-5.186252072502806065e-01
3.730098101850247705e-01
1.113151364558202516e-01
4.865233697072397501e-01
-7.496718220076028505e-01
-1.232516344935441488e-01
6.868046692764164796e-01
-3.212988596028143462e-03
-2.248262505740370454e-01
4.350389200165736270e-01
1.251935196812858919e-02
9.037284593672680888e-01
5.943165623678803300e-02
9.988118790789610735e-01
-4.827602491360678538e-01
1.977866439500486351e-02
6.111766981872188698e-01
8.207471614514005864e-02
-8.823788995327181972e-01
9.145743739306102515e-01
-2.481136848787790505e-01
-7.778407278720966822e-01
5.481376508298372308e-01
5.081617478602908911e-01
6.337450580143721979e-01
-7.336563689331669913e-01
-8.053849048639194486e-01
-5.931555073592489347e-01
5.222133071727683706e-01
-3.265539979843317120e-01
-5.642761377159049019e-01
9.018438469546377068e-01
3.701976912085267468e-01
8.059019530030739897e-01
8.052847021819011797e-01
-1.142970938421585814e-01
-8.701598272102233356e-01
4.767513240460634627e-01
-9.045782065785319404e-01
6.824264974457294741e-01
6.042135789992029160e-01
4.317996620732131863e-01
6.149551008980369549e-01
-3.713422885371264748e-02
-4.249203778346037907e-01
-1.919562782280439528e-01
-7.341282978678320692e-01
8.659847822313484489e-01
3.912639671114386264e-01
-5.308128908100420151e-01
-7.800570844028282824e-01
-4.290810252150860649e-01
1.704661183540709946e-01
-3.051070264931943221e-02
8.146833988290274053e-01
-5.765929252075507883e-01
2.879259564806002647e-01
-3.433027280962377414e-01
1.550740748023213822e-01
1.920933908000626023e-01
-3.203420999113109069e-01
-3.951688792047747256e-02
2.690801336215837836e-01
9.526459725455496130e-01
-1.231463612897520932e-02
-5.709509518513491422e-01
-6.858839999927890396e-02
9.514554658603548987e-01
7.117660903807967454e-01
-4.478865039912185431e-01
9.704178331725226148e-01
-9.176887122845311939e-01
-6.585584466504759149e-01
2.314115639077276576e-01
-2.808067144575363550e-01
4.092026689915528870e-01
9.971259792008995149e-01
6.439486418973605630e-02
-7.004271897298866012e-01
6.821425057892898103e-01
4.406994752959314532e-01
2.152214123973641424e-01
-9.170084118325474432e-01
8.329759776749319222e-01
-2.186018084228915637e-01
7.949402522421140649e-01
8.979145125251057902e-01
-3.562780850593387783e-01
7.632337118167644707e-01
7.982037019131846822e-01
-3.840611260389208415e-01
2.387037653879842125e-01
1.466201557864510452e-01
-8.403718076320998431e-01
9.988820371261086795e-01
8.488681846662982089e-01
8.058816757505891104e-01
1.781281784179089556e-02
-5.214372070070116827e-01
-4.456111536827540576e-01
-1.723168007381736810e-01
-3.373671024701578869e-01
7.387448707286328187e-01
3.760602162106185808e-02
-3.259609973599464361e-02
-6.904025117289009916e-01
7.322000816224558672e-01
3.537123030517415057e-01
4.230940722060552162e-01
-3.268105911394667551e-01
2.354840737405616835e-01
-2.724577548215980638e-01
4.729169547532972029e-01
1.518786988940328264e-01
-5.941652339010594641e-01
-6.035400678722717682e-01
7.862376871206804285e-01
-3.808917414045676075e-02
5.928656909535723329e-01
9.595597913019795477e-01
4.298934132380169970e-01
9.108002693501315861e-02
-1.086694257083200554e-01
3.206574170204492535e-01
-5.468801064218180574e-01
-2.982185936723684705e-01
-7.208690516466276232e-01
4.493523921112045905e-01
-9.603372657055408990e-01
7.531648254567395728e-01
4.910405195198404016e-01
-9.098538326536209642e-01
9.640688681050439968e-01
6.782412427584665338e-01
8.198847746841526618e-01
-4.878033386405005167e-01
9.468498143631851605e-01
-8.767222299416332909e-02
-7.816829920078058880e-01
-9.855067968206430162e-01
-3.920151878473725482e-01
7.067355491344746721e-01
8.869621408043539823e-01
7.900087397867532335e-01
8.608934707190651903e-01
6.585369792524375931e-02
-4.655696833041438332e-01
-8.835793295157994276e-01
6.704618381750480083e-01
5.187447042951864873e-02
6.421859884619263159e-01
7.774566843825085893e-01
-5.823655934821889701e-01
9.280514092738507692e-01
-7.818319859760469726e-01
5.111869546894858285e-01
1.694517281674674525e-01
3.540299126590831236e-01
-3.127013807499594567e-01
-1.525610024600918546e-01
-2.780577672297193104e-01
-1.650855022222053048e-01
1.730264959145186854e-01
-1.574742619696991586e-01
2.548761931498406685e-01
4.121772931630502956e-01
-1.261996504571467614e-01
-3.674361833246102549e-01
-9.863564017643304815e-01
1.896451087281216807e-01
8.029134344717903105e-01
9.756290754632290785e-02
2.022923922119246321e-01
-4.478509666061125660e-01
-1.403428103135859750e-01
-9.677023646352900244e-02
-6.538467444671010043e-01
-4.988894948936881679e-01
6.132803017559340653e-01
9.941030961726049497e-02
7.957320370396316900e-01
-2.267394057311773459e-01
-1.828839632466110476e-01
-3.899763677514780369e-01
5.378868579442546149e-01
9.984588108711189847e-01
6.461183451997569716e-01
-8.105862884170136340e-01
4.548573240194138112e-01
-4.011004014316406074e-01
-3.697103484462551659e-01
1.534206060444351927e-01
1.329088087580199140e-01
-4.169950006934037834e-01
8.825148677971907940e-01
-9.230809011549203635e-01
-4.471081688260687415e-01
5.143985245399238515e-01
-3.761000418016546831e-01
5.162356571178345899e-01
-7.005663510758237678e-01
4.063693558655705473e-01
-8.755367886846892045e-01
-2.291470093650969098e-01
-5.393452691605529203e-01
5.655858001720770467e-01
4.289430716814131017e-01
-6.100470350618349968e-01
4.786547747107863238e-01
5.369670009204843275e-01
-6.658946392829188099e-01
-4.714822402391867229e-01
-9.808230099074528585e-01
5.704628446116180029e-01
2.858561259800245224e-01
9.950444322613631876e-01
-2.856550719024730789e-02
3.575448524969910835e-01
-6.931405824670513471e-01
-9.489221160346172912e-01
-2.541051204593141044e-01
-7.073346538971656550e-01
2.638448992883251076e-01
8.913827862909300404e-01
-9.077111072180719109e-01
2.009229048607859003e-01
-1.137812493613625797e-01
-9.027968121532803369e-01
-3.805500335145306501e-02
1.529161054503522799e-01
-4.384907593781148805e-01
7.036499872203902939e-01
4.800812508297183090e-01
-8.088511057077483191e-01
7.846679922973980315e-01
-6.400180545423430623e-01
-3.237133804799394721e-01
-6.135727313840981800e-01
-4.336191931956641099e-01
-2.441869351417917944e-01
-3.797433932731435480e-01
2.955930582764798586e-01
-2.711014366183299718e-01
-9.135116412914887629e-01
4.719575850324488897e-01
4.188350439957839733e-01
6.447534917267410126e-01
-7.776494568269025631e-01
3.709328848724309236e-01
2.009980201538097422e-01
6.394440606749989264e-01
5.586119051583635642e-01
-8.185593755646920489e-01
7.179537158515767459e-01
4.333535646881858661e-02
4.083601045654803308e-01
9.688924387887150047e-01
-7.381889204916196601e-01
-3.148808538815439650e-01
2.920044574276292604e-01
-3.271976564381493535e-01
-6.979759193223484814e-01
-6.748025217174111745e-01
-4.366078465338065762e-01
-1.654708944245621982e-01
4.937694301182689038e-01
4.615327453170567917e-01
-9.226573038647443159e-01
-7.247779035025880834e-01
-6.786739932117313856e-02
-1.801171594869452885e-01
1.564435859961792463e-01
-8.021421846097198660e-02
-2.518764483922391051e-01
-2.039955412766945031e-01
-4.536194812860834258e-01
-3.625640638566518525e-02
2.769868169923779266e-01
-2.296504392240876768e-01
5.688039246827969464e-01
3.123483343556707759e-01
6.902337779646268157e-01
2.087986062945788035e-01
3.686674712523889674e-01
-6.832073501704896135e-01
8.732747415108843558e-01
-5.490783159477912179e-01
6.810396173585657742e-01
-3.555146275649603282e-01
1.979395494140891998e-01
-1.265686247903252681e-01
-4.609675105130701667e-01
1.981562619474430686e-01
2.221393236328876863e-01
-1.566099330539674206e-01
-6.405263048420528627e-01
5.421109728042783349e-01
-3.641527353914497667e-01
-5.393688957400646355e-01
-3.929346237062569802e-01
9.492377166383914044e-02
6.870389587597030001e-01
3.342179872774400096e-01
3.513338494860576144e-01
-8.260527702359956592e-01
-9.145606749752099862e-01
-1.002687433677695861e-01
6.805430304193293978e-02
-2.435889967879496520e-01
-1.265881068466856441e-01
-4.112072918894456031e-01
-1.185309920307155984e-01
7.942949097101412725e-01
-4.155955317834836293e-01
5.273620546058537251e-01
-5.335723956868811957e-01
-2.603522429487346024e-01
8.203307742658327850e-01
-2.569469509897892578e-03
-6.726282450049814177e-01
-5.219439851400573538e-01
-1.734377286339185975e-01
5.854463238925458057e-01
-8.107132523095472720e-01
-1.226738919838383790e-01
-4.761682808738509909e-01
9.525432772040227647e-01
-7.106528622171774945e-01
7.825585505235723716e-01
-7.907175961158980915e-01
9.784271060639988526e-01
7.060489537708514174e-01
-1.093873504565339161e-01
9.253465097665580785e-01
-4.473970968598006692e-02
-4.990610490587663595e-01
6.799006347908296277e-01
-8.061040962304162338e-01
9.991214256902321011e-01
2.890847562042431207e-01
-8.100939448695076983e-01
3.472671834843914507e-01
-4.227255505902951516e-01
-7.229981819607964599e-01
8.643620719792075580e-01
-4.838694030028050097e-01
-7.383092384855236556e-01
-3.459693997266195531e-01
3.957849606502066298e-01
-2.436356486213009376e-01
2.612486573109955579e-01
9.618522162352711735e-01
-9.385413173309675727e-02
8.530863698655939409e-01
-1.263272869969152001e-01
-9.110968869031710327e-02
9.728821338878184122e-01
-4.678509486051720678e-01
-5.754970266094381337e-01
1.992878390733254790e-02
-9.564993063330093914e-01
5.174652692553749489e-02
4.135311501493610375e-01
-2.835851785281264803e-01
-8.311124570962575842e-01
7.328912384694299398e-01
-6.994060016477803288e-01
3.217546974041702867e-01
-1.198578173911550859e-01
8.665411785860346328e-01
8.753563608562653364e-02
-4.062723862963564248e-01
7.916874895538428270e-01
3.238705103236407812e-01
-2.479093941826790992e-01
-6.706635766638839868e-01
3.110425921213475497e-01
7.385198872128997394e-01
-9.943703761668110097e-02
5.740193552551398071e-01
7.833630765465837698e-02
3.197894414184392353e-01
-7.608106440354229782e-01
-7.247828225034880223e-01
3.385831042008435876e-01
8.919444840265478014e-01
5.758750817290987367e-01
-9.089832172565386337e-01
7.548889722089486831e-01
4.419729158620642195e-01
-1.255801687823596691e-01
-5.124752321951457912e-01
7.960465209903881956e-01
9.477113658581921563e-01
-9.951143198575373994e-01
-2.681172081194014289e-01
4.851411034695876090e-01
-3.278076623925967326e-01
9.352955817242083469e-01
-8.212759026356719616e-02
4.331149845455484204e-01
8.880597901620561618e-01
5.186865821509256680e-01
7.668743532433661692e-01
-6.301175395226255027e-01
-8.719465405958692905e-02
-2.322714959439806659e-01
2.813852122831754787e-01
-2.155854817927198575e-01
1.329488259718674126e-01
-7.665958708805939992e-01
9.681867595522006820e-01
3.880695376508871419e-01
5.056412932485920830e-01
-3.164781107135827831e-01
7.255667150424018885e-01
5.754215702917873099e-01
5.072250402673808001e-01
6.194084209777184213e-03
5.278969708576566333e-01
7.641786795011014100e-01
-4.729715692601954569e-01
8.765063324632238473e-01
-4.269977789603189855e-01
7.602084138055198448e-01
-5.184810540801183532e-01
-3.510286001384044230e-01
-6.928292361019623424e-01
-2.194629184161815960e-01
-2.197944784987078126e-01
-5.017437399645237051e-01
-5.438448517735763321e-01
-9.322508113935057406e-01
-8.639339386731172965e-01
6.751615702585074263e-01
-3.176704306869047034e-01
-9.280395817688869009e-01
-9.701773938687998644e-01
1.318975516047438123e-01
-3.579512644606039906e-01
4.836877405090755921e-01
-7.432289233757680691e-01
8.672985580000913686e-01
-3.492184469216161880e-01
-4.841971824442452554e-01
-8.723643494129722509e-01
9.476088577651757827e-01
4.114505412366051829e-01
7.630185339742534545e-01
-6.296430379276569678e-01
-4.786584248985463752e-01
1.218303994700087323e-01
9.127075706376184261e-01
3.584214867624573309e-01
9.515502780287112827e-01
1.352782966615060367e-01
-7.085018868494652455e-01
4.888745400416594222e-01
-1.974465568351277955e-01
-9.606500785003484477e-01
9.912315061992578169e-01
3.926509491692025122e-01
5.179744939689490124e-01
-9.913063360947553804e-01
2.698426635770074800e-01
9.507037448042106043e-01
2.482297493616576478e-01
1.994083148295755503e-01
-9.543083163240850819e-01
-8.081936555399904520e-02
6.451447207914475790e-01
-2.687289513551351927e-01
3.730363230152566878e-02
-3.173928620179282678e-01
3.093728707104483888e-01
3.444259063443766422e-01
1.090400998893354956e-01
-7.000518707446423683e-02
-8.303365811352827475e-01
-3.093650147907969217e-01
2.949011199887778822e-01
9.815843775738561927e-01
-4.686214412142655217e-01
-6.330178257711551737e-01
-1.502459761768135671e-01
8.357880271795761207e-01
-9.425700385868713838e-01
1.882156623289803488e-01
3.253676090266879317e-01
7.124221763946376740e-01
-7.726322177704874061e-01
6.910695830280477736e-03
3.268985184791566301e-01
8.520479712058919297e-01
4.492304407079903417e-01
8.108597039837677212e-01
-8.815409118212893524e-01
6.135331479477141858e-01
6.984294820774659129e-01
3.277532777159382071e-01
8.151129525003759646e-01
7.328242435636067587e-01
6.317309196259570658e-01
-3.660094788629160156e-01
-4.564729204931237128e-01
9.403358153507426209e-01
3.216555901004574114e-01
4.428265514736546837e-01
6.585152439693440218e-01
-9.387779324186664720e-01
-9.680072369355157136e-01
-6.976496594058609890e-01
-7.770996429010486040e-01
6.225245537915717886e-01
-9.877543083616235897e-01
-8.673319157725616346e-01
7.056796723764060530e-01
-1.812624326438903033e-01
-1.477505233817490993e-01
2.004926102166604274e-02
-2.785124597617023579e-01
3.651471282183775813e-01
-5.064803991136717087e-01
7.526826589275603663e-01
2.498050994485256915e-02
-4.549512163663358422e-01
2.895052070311570080e-01
-6.919865473799902134e-02
2.953319631247428578e-01
-2.698280972858519977e-01
8.230624266985355764e-01
-8.261873217194339869e-01
-8.876337959594404747e-01
5.774167780362007285e-01
-5.903364993873094768e-02
7.558566581124042116e-01
8.348510006891065593e-01
3.470471842847231425e-01
7.716239677854359602e-01
-6.741243615724061833e-01
-3.239222241081047837e-01
5.873930746984254991e-01
-2.369280884984050761e-01
8.688166993630463963e-02
8.245643263321904559e-01
3.260391986888542259e-01
-8.036330048701965101e-01
8.471519779670380057e-01
3.832480857291631349e-01
4.668705745586620992e-02
6.500582193222324001e-01
-3.569266024777861812e-01
8.923442343036562807e-01
4.471733436745775059e-01
3.388756572266840017e-01
-9.481194528123115806e-01
9.451470549709586333e-01
9.015035341835047067e-01
3.980164159116863498e-01
2.185189900660053919e-01
-3.183922857661223293e-01
6.708093320760908362e-01
2.988290406049052272e-01
-5.014846566410529061e-01
3.046692255570726537e-02
5.143220018722716169e-01
-5.285815201252932471e-01
-7.727821526133760166e-02
1.344899327622088858e-01
3.646805906455332646e-01
-8.991697451356210902e-01
-4.495519067971123217e-01
8.371194205511021114e-01
-6.343978101853025020e-01
-3.928327056810878570e-01
-4.011522860369520771e-02
8.516272606079082763e-01
-1.716426360585021627e-02
7.696964519395277371e-01
3.865816072604424392e-01
1.166124839479409925e-01
-3.130176368034767176e-01
4.798052644076740147e-01
-1.967932776789302896e-01
-3.028141591244357667e-01
3.019609527655555681e-01
-6.759863442280931167e-01
4.663634982502606885e-01
-5.313963950683298076e-01
4.574710460427673375e-01
5.077275994590610964e-01
-5.745156976445331409e-01
3.523506965263090152e-02
-8.812468356203084774e-02
-3.445592581181342595e-01
5.696020839190911733e-01
6.883097542527600865e-01
7.982554368016261392e-01
5.598120401558666082e-01
-6.106310758563335828e-01
2.315846207138578805e-01
6.898910791566779110e-01
-3.532704037726761559e-01
-8.590365675505631238e-01
8.524082083729205284e-01
-3.534682276549994118e-01
-5.548118392185363845e-02
3.986555189672416066e-01
-8.065654880201116317e-01
-6.468125068276848744e-01
6.560762986476431635e-02
-1.598367749139197880e-01
9.479958315435037530e-01
9.761066554122102001e-01
-7.405675603098884618e-01
1.947993827281901957e-02
-1.705117042369921343e-01
2.015601379390501435e-01
3.945900376383677521e-01
7.104080895662143735e-01
9.739416541991299248e-01
7.540471129571828524e-01
-1.552903437001407205e-01
5.181715056186311230e-01
-1.018879797946110610e-01
3.673395944031412341e-01
1.748653184461645971e-01
7.969878176292737315e-01
6.619684988310414742e-01
7.724791692273074162e-01
6.752959488459664428e-02
-7.416244419720428027e-01
-2.937080181701734460e-02
-3.956563083033741712e-01
-1.907642435042813389e-01
-6.894087414726346452e-01
-5.486044642751359834e-01
9.208372316463875329e-01
6.567566994080165088e-02
1.115732641902189570e-02
-3.178263888814003568e-01
2.276488718819622559e-01
-2.614666942724772625e-01
2.147075646393978854e-01
-9.578149609980117773e-01
-6.378392962486014728e-01
-1.323286698415337970e-01
-8.854115193059990396e-01
9.077996488505224448e-02
8.588291441210751387e-01
-2.537927033747602312e-01
-2.862289809406197705e-01
-2.516879938858729293e-01
-4.800849627711412104e-01
9.790436706649201515e-01
-9.767212250659136341e-01
-8.287448795090537335e-01
-1.311888400113185860e-01
2.999672182980335222e-01
-3.834630846292499395e-01
-4.255289576542196084e-01
-6.732051467311319648e-01
7.061617349044060354e-01
-2.244481840717655885e-01
5.079300407376554638e-01
9.258175667052588320e-01
-7.554661162653653061e-01
-2.423469575868442138e-01
-9.411244855958511568e-01
-4.931457803955405783e-01
3.487422958508317183e-01
-1.659551867653508150e-01
5.480648952779332284e-01
2.723672393885667731e-02
2.040439859644975762e-01
6.397763517507113473e-01
9.568986309988789518e-01
7.234497254879237449e-01
4.887377955321712264e-01
4.293741975544218548e-03
-1.032098057074781750e-02
-9.284483390365405597e-01
1.391826855964675147e-01
8.842888535702786434e-02
1.532735845700325950e-01
9.141667880709731797e-01
-9.464454334060987684e-01
-9.979990275935664013e-01
-7.492658308975974624e-01
-9.049810557756379215e-01
6.623955522051425682e-01
8.493412142786105345e-01
-4.270492293774048598e-01
1.358123431470883435e-01
-6.775097297610466196e-01
4.565522262648307183e-01
1.535846083642773419e-01
-9.294414131614794350e-01
-8.532314227809689733e-02
-1.372720885060823015e-01
4.378226643693901021e-01
-1.270988901959988482e-01
-6.110574090497509214e-01
1.116098290911395896e-01
-6.536850336632678005e-01
-3.676432218168017574e-01
7.427290734104992076e-01
-8.966970011896246984e-01
-1.991408848202571580e-01
-3.645379804567219217e-01
3.476547179758695538e-01
6.828102592221618750e-02
4.700141061122082853e-01
6.137216973000980680e-01
3.070330152331677276e-01
6.870677465838137543e-02
-5.662017395216103477e-01
-1.936212168242272824e-01
3.634216778791126146e-01
-7.298460109684066222e-01
1.125416557323852818e-01
8.086108538166789650e-01
-7.992882124759881357e-01
-3.050815517789007281e-01
-9.030180240327367880e-01
-3.999087499721074579e-01
-4.413709065022417555e-01
-8.826581107539575033e-01
9.133795062598053516e-01
2.493185683448340129e-01
-2.535679192074788979e-01
7.114502791414454297e-01
-1.712762696586851430e-01
5.801580719647583262e-01
-8.498464779279022441e-01
9.467265236949322649e-01
-6.938204892827335435e-01
5.778781911915376046e-01
-5.186622313334496859e-01
4.824175525855223245e-01
-7.245283240052748930e-01
-4.855779223968668123e-01
1.391922705056436449e-02
-9.087830727663988029e-01
5.882873225739442269e-01
-6.473380325493498511e-01
-2.274144718445869628e-01
3.223691510651631731e-01
-5.490400803616779513e-02
-7.343196528650919319e-01
8.788933025906042751e-02
-6.115012823458443325e-01
-9.847990732937190739e-01
1.864254725177723060e-01
-1.190453652764884573e-01
1.068046286090793551e-01
3.087714799913177099e-01
7.898853608709803797e-01
-6.777067618548704431e-02
-8.319838116505833270e-01
1.976787206330321567e-02
-3.613471336160811731e-02
-1.871950889303291010e-01
-4.055248177862891268e-01
-4.233875383154883654e-01
7.279199379241738654e-01
-5.376021019916954469e-01
5.126076439679709829e-01
-8.065351977732291289e-01
8.492551233525642562e-01
-8.946106728859890556e-01
-9.893533411592829729e-01
-2.698520143554348216e-01
-8.814215197719814654e-01
-6.819930338771071909e-01
-6.746076098590148007e-01
-3.258628463810135933e-01
-6.000885895948027127e-01
4.255889363268803294e-01
4.485721134579456759e-03
7.319114692692370028e-01
3.837698070125934446e-01
6.689379538950466220e-01
-7.677684173553067648e-01
-1.367000245795924052e-02
8.675159786271531281e-01
2.691836758339662961e-01
-5.519617010526829404e-01
6.761814219921391533e-01
5.850194567089705977e-02
-1.917521977134868383e-01
5.511948300969569114e-01
-8.333445944826156637e-01
3.352273440492750112e-01
1.038428447941777133e-01
7.799862950212057555e-01
-9.934742010755059916e-01
-2.459330264886288031e-01
5.375033881047281970e-01
4.121199501938428433e-01
3.054476979500977407e-01
2.224482109450089951e-01
-7.050689262052365347e-01
5.923300415533554464e-01
8.493032071711961173e-01
-6.183052988152886176e-01
1.727153708598234694e-01
6.764569249748642044e-01
-4.130085755733634567e-01
3.613301622838540617e-01
6.880862360229786923e-01
6.707376093721675314e-01
3.118761082035497179e-01
4.537502277265268447e-01
-8.202442146589719041e-01
-7.245810240456429518e-01
9.417059663763869271e-01
5.749047894611991616e-01
-9.223847783518457355e-02
-9.791510547520916319e-01
-5.667913615852435694e-01
-1.771513822340640143e-01
4.561739808391511719e-01
-5.840433588620757011e-01
-2.367964356977609874e-01
3.763262491691226064e-01
5.642851469349767779e-01
-3.986803673644883084e-01
-7.396628840875776323e-01
7.100253584700613185e-01
4.925463317452667411e-01
-2.122371942632099717e-01
1.886537654975328770e-02
-5.100381868295584820e-01
2.621831808483137127e-01
7.538410272463800244e-01
7.350986399070762456e-01
4.853042544981360784e-01
-6.169731035466261559e-01
5.523316671144320456e-01
7.286384396207321590e-01
-9.317381259250614445e-01
-7.084117648579943971e-01
9.226097132506396736e-01
-9.764779264769425371e-01
-5.185250858842762600e-01
-8.417369467536339744e-01
-2.750728978989236406e-01
-1.694317116996215677e-01
-8.026707524899756585e-02
8.703980205086947475e-01
3.659488265160921738e-01
8.598695319391636005e-02
9.422535249375012523e-01
-5.764760098551646728e-02
-1.299208179317039580e-01
4.142044069329369194e-01
8.841042446147520106e-01
-5.898106326075214234e-01
2.796633889548170160e-01
7.202022170292223802e-01
-4.363752347878262494e-01
-1.708620217880372216e-01
-1.481027673924630861e-01
-5.615400554260521204e-01
-1.415066399948818887e-01
7.363082492968529014e-01
1.683521618436489842e-01
-3.068628968725015671e-01
-1.511271887460001739e-01
3.890432709508249154e-01
5.055652894887052717e-01
2.728244310484848612e-01
9.385494208641116387e-01
-9.515610242250953643e-01
-6.228448503042069984e-01
-2.888680793234521538e-01
3.759011722356102592e-01
-5.591413573925752001e-01
8.559916095693660409e-01
5.979584503359662850e-01
8.749979378864303214e-02
-9.627217574182393989e-01
1.622621148722369622e-01
7.209512831349895734e-01
-2.257477926118913736e-01
4.502810825240095571e-01
-6.718848285091767458e-01
-3.519890472172599871e-01
-9.597460567103608398e-01
-2.589025751649813856e-01
-2.337592407897071123e-01
5.814105502460202857e-01
1.761214908203898588e-01
4.256048419387383763e-01
-4.257252067781289728e-01
-3.561893590722544634e-01
-6.074171687635443462e-01
4.854397272954968923e-01
-9.896705601412056907e-01
1.564447349168831547e-01
3.137324661514029334e-01
-2.622002333405351049e-01
8.478606205942709195e-01
9.704935124718834238e-01
-8.431594100788752932e-02
9.836952210659843931e-01
-7.943134158790374766e-01
-9.490942977406564562e-01
-3.984611662809061094e-01
-5.500680709313547911e-01
-5.910395531791017287e-01
6.525071974129770247e-02
7.226396004031487852e-01
-4.948860011358524602e-01
1.752209597699838639e-02
8.402297916397849509e-01
3.643456678217120714e-01
-2.703443182672908840e-01
5.876132272079150898e-01
-9.843446342852764097e-01
-2.255738440243455489e-01
-4.634804593928680827e-01
7.531271465324091974e-01
-6.916669072276278030e-01
2.857201016232147062e-02
2.695699804564717361e-01
1.835313477710183161e-01
-6.990175370225095719e-01
-7.747561829060822802e-02
-6.513349561230892260e-01
2.490988375537057653e-01
-7.773914589251544882e-01
4.192370736528701070e-01
-2.781549815729795760e-01
-5.645358544548266799e-01
-7.878887471885072102e-01
-9.249672970358919777e-01
9.042774922558991513e-01
9.486396077809982064e-01
9.103566693948506039e-01
5.816382275491438492e-02
-6.129277674829849420e-01
-8.469430632235608325e-01
-7.196729148923788344e-01
-5.434687283462984464e-01
7.748795802054830872e-02
-8.133564561160981921e-01
5.471262543484001206e-01
6.106319603517855743e-01
1.834502295574580444e-02
-9.420129181070371338e-01
1.303865207482963751e-01
9.866131975846941238e-01
9.254328913604559226e-01
-1.914872633783193390e-01
3.749187241845073348e-01
-1.273814584006922601e-01
5.248168726849455901e-01
8.868293281389134641e-01
8.882439585967460971e-01
-4.114721939370789006e-01
-4.734324934947844454e-01
-9.029227965311530379e-01
5.244139923215034305e-01
-9.449164143725399256e-01
-7.915315258959398914e-01
-2.248624634331439776e-01
-9.905184482362874299e-01
1.873323797654240508e-01
-2.820307249800406701e-01
-9.287542961346535453e-01
2.466144108185961414e-01
-5.256209117051247048e-02
4.771520704169398552e-01
9.817860780460769821e-01
1.571587628484329979e-01
-2.507327476424521251e-01
3.344979221240733658e-01
-3.453337609742204162e-01
-1.493017753170369222e-01
4.922076212719548316e-01
-7.003580536025151293e-01
-5.070913284886791050e-01
3.655705842671730377e-01
-1.624154698166284660e-01
1.497997593116993098e-01
6.321356029462312787e-01
1.584585202083839128e-01
-8.533614223890577666e-01
-2.216298362417656875e-02
9.478485701494636650e-01
-6.430078560882792615e-01
4.282757266720325084e-01
-2.386468808084514226e-01
-2.155700623012299921e-01
-6.240266891697980878e-01
5.342747778535761327e-02
-8.580561518435849688e-01
-8.206813182186756261e-01
-3.035283706897029532e-01
-5.477568201022566807e-01
7.624682787461305455e-01
-4.911636199565501126e-01
1.614993250155083437e-01
-5.726202181661497193e-01
6.750411079261535718e-01
-8.570598848603014908e-01
1.772310539822863351e-01
8.304174097328669291e-01
4.816843558899730482e-02
8.545406206083150380e-02
2.459537105562643600e-01
2.680343036410781643e-01
-1.954019304005540913e-01
-8.963766403461677079e-01
-1.631016961222342410e-01
-6.561990634863901217e-01
-1.070177007077284248e-01
-1.555971114780878573e-01
8.043193626779576721e-01
8.543024151026261670e-01
-9.434339053216467263e-02
-4.412653212869870334e-01
-3.950959167361058899e-01
-8.940546387032077824e-02
-1.316199360963101750e-01
-7.384231537709973203e-02
4.672635889259144637e-01
-5.850245095372641480e-02
-8.915159097151541534e-01
3.188378915177225714e-02
8.992220816279798967e-01
-9.982790940214938402e-01
1.939093778357345865e-01
-5.610092231733154744e-01
8.807151505540788961e-02
-3.135854360533540941e-02
-7.396918220125181520e-01
4.520605848043142139e-01
-5.559028611658247687e-01
-4.831457540036248055e-01
-4.930892946173290881e-01
-4.540982995011821899e-02
9.752149149817266327e-01
8.434565947312042677e-01
-8.618342269141696654e-01
-9.846127904329282643e-02
2.821575565246863260e-01
5.951451480860789900e-01
-4.887820454696976125e-01
5.079184454061111964e-01
-4.216036033349168655e-01
-7.033066407728472136e-02
-8.756921832459343413e-01
5.243801310091811274e-02
8.351963118688430221e-01
3.922998188476223280e-01
4.805808054000020313e-01
3.727218094433883966e-01
4.229175442851551558e-01
7.888742639725543349e-02
-6.917935222771534054e-01
9.069655394582896157e-01
-4.648522994760100335e-01
-4.612148463328553660e-01
9.266192922036182722e-01
-9.062269052608304953e-01
-4.027168822536719706e-01
-2.805772929879410960e-01
-6.309675605805775689e-01
-1.570839423311785055e-01
-4.400548726269610800e-01
9.555850830878342972e-01
-2.092162153762557875e-01
-3.198198174650477288e-01
1.820545010532048646e-01
4.310834850739286850e-01
-4.499161282484986923e-01
2.362110851251397747e-01
-3.866816150448224576e-01
-1.716913526831365111e-01
1.682257288075468260e-01
1.492853308045432037e-01
8.314306620032096973e-01
7.744632560285333867e-01
1.781682618655333616e-01
5.955064190959458159e-01
-1.311504938209795412e-02
9.786496132614337373e-01
2.624144950494688988e-01
-8.476587756788789285e-02
2.089775787520602446e-01
5.896712768062188914e-01
-7.058275977875945184e-01
-4.233345754085744428e-01
7.751780706965134549e-01
2.819158922881408458e-01
2.520709479826701571e-01
4.821827428087039902e-01
-4.879274790931797945e-01
5.747056227296678532e-01
-5.141468178140058409e-01
6.081970252010195921e-01
-3.209294408696745649e-01
1.876122420701527016e-01
-5.546256726555565120e-01
-5.140474932570948674e-01
8.007470444073310212e-01
-1.089866262455956303e-01
-4.216816117034305478e-02
7.979141203961097606e-01
-8.895540432622346394e-01
-7.978291030563007258e-01
5.335951832861489663e-01
3.752080624411189280e-01
-1.069240246951141948e-02
5.057205456741387106e-01
9.909465597578959173e-01
3.178360432234870192e-01
7.754872226509859079e-01
-4.726849166016613424e-01
1.108873427544856405e-01
-5.272715837184462906e-01
-4.803569235575471108e-01
-3.372441304593660760e-01
-6.947442385550979260e-01
-9.988016600627485087e-01
4.437618444475899260e-02
5.161926299518959649e-01
-7.292507961815954953e-01
-1.712396525527977165e-01
-4.214196461176125119e-01
-2.831260160519066815e-02
6.217525853321204110e-02
-8.198856147554465235e-01
-1.951258050923105891e-01
3.433059285229518309e-01
-5.300732469577555950e-01
1.043502177318962332e-01
8.943321200855323116e-01
-4.118000823798531052e-01
-7.211339855478984262e-01
-9.684244104165529166e-02
9.171362386899215569e-01
-7.539173821172246992e-01
6.342954993178280265e-01
1.273247292954371446e-02
8.949536808693379086e-01
-8.766372809414693101e-01
3.104826579075863346e-01
-2.744702694368805762e-01
-6.820958418019813507e-01
-3.236179043740938788e-01
-1.020117571702756631e-01
1.349528078570521039e-01
-2.975721225305085760e-01
-6.338384529097806919e-01
-6.254294776130098210e-01
4.332816023565801977e-01
5.803024682493760356e-01
4.278543698821546393e-01
7.245005669490403033e-01
5.269674890188011940e-01
4.694796940398284768e-01
-8.790225226849328610e-01
-2.374173831335533169e-01
-6.831159151433259247e-01
7.449985693856220337e-01
2.408075173627888255e-01
-6.867265410937786196e-01
-8.588076757614446777e-01
-6.094241477691564324e-01
-6.372756878528829105e-01
6.811066237781397970e-01
6.480465711128606809e-01
-5.877172841886619814e-01
-7.796291199158089658e-01
-4.045331794845510309e-01
-9.879897013956182583e-01
-1.249408719861122563e-04
-3.308876773782092329e-01
-1.541938892025147556e-01
3.569462418547122429e-01
7.668401543312175495e-01
7.799352973333539829e-01
2.230153329235089465e-01
5.901991817209655267e-01
-4.812419109188186273e-01
-9.613329158367820426e-01
-9.095554400138785578e-01
-2.442893603222231480e-01
1.992791492826111455e-01
-2.435450096137721232e-01
3.596520245597392140e-01
-8.772865945001318000e-01
5.983914806278134435e-01
-5.389672397131080039e-01
7.443784015214884864e-01
-7.129533846649649398e-01
3.037545947371536048e-01
-4.543874174005186894e-01
1.729688872393986276e-01
7.228259209234622062e-02
-9.058414442669397992e-01
9.815556315867535186e-01
8.744638592212590211e-01
6.275976738948250144e-01
-5.818104191788842083e-01
-4.220775414213706611e-02
8.477091217356278463e-01
8.366777477626463622e-01
-6.947683426441031429e-02
7.943391778013262350e-01
4.555590907227600184e-01
-4.172579845416979349e-01
-6.735790377988548627e-03
5.678536987432061256e-01
6.358841365814369428e-01
-2.495864399500580255e-01
8.689093335868067758e-01
3.676089575462240244e-01
9.322121863057495350e-01
8.666348532155661033e-01
2.158428299660670735e-01
9.509540381903767159e-01
9.484166943751382028e-02
-9.653683508039070382e-01
-1.401825977552757507e-01
-5.699840662971098482e-01
-9.313470430569001923e-01
9.132703707125042758e-01
-7.611116885624005235e-01
9.675100657721558139e-01
-1.007908652966709173e-01
2.985601496172778369e-01
2.047972576329277761e-01
-6.963041086698551485e-01
-4.103456541478713859e-01
-8.026888927924942241e-01
7.963037239251662402e-01
4.277444555607297083e-01
-6.853212997677569085e-01
-4.787381362448130950e-01
-6.496196720736739927e-01
2.867545137871176930e-01
4.755044958909657726e-01
-5.905817864646341064e-01
-8.135985461667505358e-01
2.389635488896328930e-01
3.244037664509376029e-01
-2.821515173206896598e-01
2.948384251541809054e-01
-1.915513430282780316e-01
1.864010000162412695e-01
-4.939084751201916479e-01
3.894886906546499716e-01
4.733937109297576828e-01
4.229889052657005433e-01
3.952772239547819311e-02
6.140942932313897540e-01
6.952451269678172618e-01
-9.585883316629160156e-01
-2.987257571210215623e-01
-3.589246304885931327e-01
4.991357845380441915e-01
3.799186186242087260e-01
-5.531577678374144380e-01
-7.396465523230353334e-01
2.179780754420148625e-01
4.735940462641030635e-02
-3.563973382067318063e-01
-3.477158904360722058e-01
2.599786569298667693e-01
-7.221687970414232272e-01
-4.750273225705803348e-02
-4.600316203231500367e-01
-7.013206603036272746e-01
-6.219748623045420199e-01
1.873778891691255666e-01
8.995758590060440874e-01
7.253015712455597175e-01
-8.993292771207053171e-01
6.858008868612608389e-02
9.675580468076478979e-01
-3.004099923526208915e-01
-3.275469081948114702e-01
6.633971335313382234e-02
1.017519852957677884e-01
-6.511787134444098069e-01
-4.438959164990596840e-01
3.788844346919431061e-01
-5.774351320761945683e-01
3.268079066862785709e-01
-9.946833668874450751e-01
4.230536315473436559e-01
-2.589001479827186536e-01
-1.787187733284283375e-01
-4.301848930100389268e-01
3.187288226892079912e-01
-3.426221119494305967e-01
6.235572387723271603e-01
3.790974883546294194e-02
2.555788100678801911e-03
-3.149503398592947701e-01
-2.578953107956776236e-01
-2.175481838119768252e-01
5.932186465236086725e-01
6.369451146196776214e-01
8.019208754053190891e-01
-7.955372475022064460e-01
4.320231257874238562e-01
-3.544845242170711064e-01
5.577561031862243723e-02
3.114167704517258883e-01
1.760259180495606923e-01
9.692148840096301843e-01
-2.998682877834129012e-01
-5.135124666739092625e-01
5.179036201921662919e-01
-8.532899180705311171e-01
3.953175345453805445e-01
1.414694438523995679e-01
6.293089323466896090e-01
-4.908989741780249716e-01
-1.048564002615208768e-01
7.154072025343920505e-01
8.807671113536303942e-01
6.851714608195464962e-01
4.044550356318699080e-01
-4.814133664006829960e-01
-2.925285206865102516e-02
-6.308389947798311859e-01
-1.798737223236865912e-01
-7.283175281868059514e-01
-1.778909796960315148e-02
-5.315340281015901169e-01
5.909104284600983359e-01
4.431469871458824095e-01
-6.971072800409294778e-01
-2.670013066269272262e-01
9.080408933888142187e-01
5.339816748784986800e-01
-5.073740833499960079e-01
3.598960739698622291e-01
8.532103515643885139e-01
7.158836533973464977e-01
-6.273051422392981191e-01
6.027681358085887897e-01
-5.983973120063978968e-01
-6.785870422810365010e-01
8.692685725780169292e-01
-7.856819624846325123e-01
-7.809132736540933539e-01
-8.640322654960856941e-01
-1.412470741221270032e-01
-1.018196195608109811e-01
2.311186507673050894e-01
-3.943070834794211166e-01
6.264091977469827821e-01
-4.476408567795320259e-01
6.488361924326693231e-01
8.491119747339037627e-01
-3.024074074815792379e-01
-3.359412292647911968e-03
1.068257550821409829e-01
-3.562379508280411056e-01
-5.732517587959717886e-01
-9.673333569914006613e-01
9.859570973417046691e-01
1.710740018869700840e-01
6.915311247334401390e-01
8.350431999221650248e-01
-4.739907277951722619e-01
8.223644435684240861e-02
-9.989875953277917997e-01
-2.207728327452727068e-01
6.023076020298543387e-01
-5.809669644250243792e-01
6.097112140610321251e-01
-2.088671239375474720e-01
-9.765163307349562505e-01
-5.585952349613183543e-01
-7.188763871245795745e-01
5.535193575765589014e-01
-7.305296964086367417e-01
-3.488528035505462643e-01
-3.024329610757461317e-01
-2.097787964480346545e-03
7.692580514394937730e-01
-3.128700498005940744e-01
-9.742631330926823097e-01
3.954411686220624667e-01
-4.589025239476574036e-02
4.922553551210790967e-01
-5.907488436547714272e-02
8.868704770117938896e-01
-3.204930479305883040e-01
4.763788718007382350e-01
-3.692724388157457849e-01
-9.430489830861032985e-02
1.649453638209832373e-01
6.905858391961472442e-01
-4.392023927181227805e-01
5.990363156443310189e-01
6.670407883601516819e-01
-6.826411545489878829e-01
3.469189628512425738e-01
-5.674965700080309983e-01
9.309023351887582010e-01
8.615383669255129995e-01
5.632408586918213889e-01
-4.494408878527140772e-01
-8.855389393374712981e-03
-1.484006203419225844e-01
-7.602444881291114953e-01
-7.214741447530559348e-01
3.151236909385082274e-01
8.801949939646336318e-01
6.727256662563647627e-01
4.316465730087963859e-01
1.814321906278815177e-01
7.210836032309597687e-01
9.541227792357107607e-01
9.203176737835749854e-02
-4.190856028098142172e-01
-8.990507101690321523e-01
1.462347595948922940e-01
-2.206222122881378311e-01
-2.628833838046211735e-01
-6.126734738282142434e-01
3.374012254397116273e-01
-8.228177783761556618e-01
9.691586658771540463e-01
-1.728096148840083668e-01
-9.342848187340089261e-01
9.047959393159783481e-01
-5.031485060908647000e-02
-6.402641174436989324e-01
6.439361530108473897e-01
8.476540298306778354e-01
9.412525419066526400e-01
-6.207328820207580478e-01
-8.691319312185927792e-01
5.255350513336747298e-01
7.741426176453933827e-01
6.333601528359600330e-01
8.933578705846012546e-01
5.693311294663321309e-01
3.787679573029081315e-01
4.922312492914542315e-01
-6.601252961242654038e-02
7.114828239273418564e-01
6.692806188183353377e-01
4.435485422797957877e-01
6.354451396676850106e-01
1.194278892806424075e-01
1.782135098159667308e-01
5.361149632526307496e-01
-7.708491625207183340e-01
-2.405585384447979092e-01
-2.165679797631789860e-01
8.607134414733170757e-01
8.628946665073182754e-01
7.317994117341979354e-01
2.227655112910420510e-01
-4.203574502907496679e-01
5.690000979122773472e-01
5.635810164288701518e-01
-8.149380835215123131e-01
-8.145386877098916845e-01
-1.737044147160653473e-01
4.401163483786654229e-01
-3.768402569313189510e-01
-9.032119074507880541e-01
5.037107929737418832e-01
3.183942969995015027e-01
-6.837180813802503643e-01
6.750679482650860930e-01
5.711966941325021807e-01
-4.811792818445375097e-01
2.580988003707673784e-02
-1.173671593587746198e-01
4.689633328476532359e-01
-3.660902975592676967e-01
-4.159555101228831209e-01
2.240313626939656189e-01
-6.115089145266157100e-01
-8.335243469580255748e-02
2.340247403552422334e-01
-4.286144854683793248e-01
4.004540402927299070e-01
-2.145861468613818879e-01
-1.619923306685571163e-01
-1.290075009569686681e-01
9.839253862535983775e-01
-1.690052845164606854e-01
2.417145528977002744e-01
-8.598192345626500810e-01
-9.868071979197603483e-01
8.083679258974163506e-01
-2.593784132909611184e-01
2.852209943356163180e-01
3.960799227933851085e-01
-2.434760283207677567e-01
-9.853488970233206246e-01
1.196263332821150271e-01
5.323187559064936902e-01
9.649218228785381157e-01
-4.318701960076696267e-01
6.197221159464239015e-01
2.523996517492990144e-01
-9.531816881394081786e-01
-4.904110605015343793e-01
-6.373388961453021473e-01
9.867721202014241300e-01
5.465996347808754763e-03
-2.511970571632438087e-02
-4.437553698007468128e-01
1.442621857320389722e-01
-9.185978088871520342e-01
-7.537199197917219262e-01
-7.562975145045716108e-01
5.729672358684043676e-01
8.410592154850555779e-01
1.955058263346474146e-01
9.420312690327321548e-01
-2.957917637154230395e-01
5.724320957189990011e-01
-2.529853127605592444e-01
-1.155932586274288632e-01
-7.215664061557542919e-01
1.089443294347181013e-01
-5.791860639526171806e-01
-4.585417160349742893e-01
-6.220540492720909587e-01
3.387313632079280712e-01
7.868354324190027782e-01
4.881934855559357800e-01
2.879443163012465057e-01
3.063747921088881832e-01
5.562473855610474693e-01
-6.670068168334768455e-01
3.980744163862810492e-01
6.042001134603336432e-02
-5.406469742764803410e-01
9.315010101260421393e-01
4.513788642990408384e-01
1.063138269376340261e-02
-5.857221979840758763e-01
9.550424706589331070e-01
6.462009173729943434e-01
5.139678064949946279e-01
-4.169683640200927410e-01
-4.915909569451317740e-01
-3.449914360552752690e-01
-5.126116813622447754e-01
-2.943767096090927904e-01
7.456523518757232072e-01
4.484624208551446500e-02
-8.413381263330097504e-01
4.126235038001833111e-01
-9.970542744806931701e-02
2.986876906641164897e-01
-6.718237622308504964e-01
-3.584070813655926280e-02
-8.413188092132022344e-01
8.863953107320949876e-01
8.259614425826076189e-01
2.919249920995927727e-01
3.471240277120610784e-01
-2.037908084243207352e-01
8.051347343410175661e-01
-6.026868889065593038e-01
3.551826340899837398e-01
-2.821564082628520431e-01
6.753950553156795600e-01
3.618655622683510931e-01
2.089826808400110369e-01
1.508016987532891928e-01
-1.239724360426808225e-01
-5.484811147386103869e-02
-6.446383551042285109e-01
-5.963320058926331324e-01
-4.251829411643424095e-01
-8.478199982047927019e-01
2.311691910865458777e-01
-9.769282465207620447e-01
5.751084857281001383e-01
-6.802119760192495423e-01
-8.143282468381576322e-01
-2.197165310479851641e-01
1.953751113608170886e-01
7.783879711767114351e-01
2.778450805866292672e-01
-4.073562726382953247e-01
8.575639036771576240e-01
6.337753685933147363e-01
-1.246501919241813638e-01
6.895300332839229274e-01
-1.164187726005541101e-01
-7.478110928100984989e-01
-3.949021643239225554e-02
9.781797193518861899e-01
5.262244685359500629e-01
6.548783475220698591e-01
7.321008395758288323e-02
-6.707975202357863154e-01
-6.925685292320395980e-01
1.400189341783226737e-01
2.987090467959425677e-01
-2.957455972286562318e-01
1.599087592974390848e-01
7.242011267262957741e-01
7.800632700084109139e-02
8.981658498273199509e-01
5.759776789020620846e-01
-6.484675276645825992e-01
9.263284867998724526e-01
-4.850134796775715795e-01
-8.197948317259264872e-01
-5.602031454804827781e-01
-1.612465512051337591e-01
9.526381666914922608e-01
-3.142586323530474068e-01
7.053860697829621440e-01
5.722568912423287024e-02
-3.953234129431515420e-02
7.707799905118262185e-01
-4.456835625955193336e-01
-4.673738577894825941e-01
6.016932092584192926e-01
3.657076808664081469e-01
-6.170204223676951649e-01
-4.196327447772962849e-01
-6.753046490285692371e-01
-7.710401600606493488e-01
8.249016196775653675e-01
-2.333269212353661359e-03
-1.130634924098012917e-01
7.644583636321857778e-01
-1.319673073775535777e-01
7.655176393413019031e-01
-8.295480291044687871e-01
7.246737240666347724e-01
1.728310060203959164e-01
-2.404521271603257127e-01
-9.456484086974548120e-02
-6.882451868424883656e-01
-5.244748326511123881e-01
3.514702296794915970e-01
7.175888516551516272e-01
-1.434692384416789146e-01
9.622087158807102192e-01
3.094542395938209012e-01
5.486262120793887753e-01
-1.990713832738195688e-01
-1.404988606930923645e-01
9.212294121386941370e-01
-3.891037067440870079e-01
7.421182145377502870e-01
8.841437442053727835e-01
-8.503837774447120523e-01
-5.837497722219484597e-01
-2.287354256230964555e-01
8.274751722918127772e-01
-1.637329691708955259e-01
-8.206353492869400412e-02
-6.947860578245410590e-01
9.036855524104101534e-01
1.324016177148521489e-01
9.740620111488613730e-01
7.159922836940426638e-01
6.431357235415213758e-01
6.630206020425750690e-01
6.303368367171442443e-01
-6.758772872709448709e-01
5.075450424150420581e-01
-5.071981748007008406e-01
-2.373710591940558778e-01
-1.037601579281910436e-01
-2.115960951475011065e-01
-2.900564625178148059e-01
-5.937477108314372920e-01
4.025600800117121736e-01
1.309395305034606327e-01
-6.813550865207116392e-01
-4.553655958154394501e-01
-5.411936408979298729e-01
-5.258514665927402909e-01
8.947474852751446939e-02
7.769373612536669693e-01
-1.441059202912242654e-01
7.955658895953170440e-01
-4.312439044338578498e-01
4.214903368544598017e-01
-8.453394502517690423e-01
1.518435427162465601e-01
6.125765377184131388e-01
-4.565439600610401438e-01
1.683187191366088964e-01
1.175219991919786988e-01
9.834534782395019104e-01
-8.694442005866662715e-01
9.323281838850003833e-01
-3.622933979684386241e-01
6.507144419982429095e-01
2.169205307456592013e-01
8.701801215280566826e-01
3.479285593618306471e-01
-3.382898457508767276e-01
6.114062002971101251e-01
-9.094491885298383593e-01
1.073681791026941390e-01
-8.100196786939111160e-01
5.784518214110869749e-01
4.924198514230915258e-02
-5.663986724878415924e-01
4.608951873272264521e-01
4.543089107267270776e-01
1.942996694438152705e-01
-2.052653159167447949e-01
-3.755645980354060942e-01
2.679675704089696797e-01
1.555142677794352224e-01
-8.095947666496825512e-01
-5.360069975554004884e-02
1.258133022279854796e-01
-3.682306668659429683e-01
-2.209483100294404867e-01
4.391285972880771826e-01
9.167708428684284705e-02
2.278292142665370168e-01
-6.903005661567429563e-02
-9.273459564493380380e-01
8.084901097418986105e-01
-7.331973483846621065e-01
-7.619319032221181232e-01
5.968253411124440078e-01
3.842149145780848762e-02
-8.933111753361084872e-01
8.520681985582772011e-01
1.082973153566326729e-01
-9.732065480931426649e-01
-6.756165735256025595e-01
-5.888981659914847011e-01
-3.266824548600053557e-01
6.520148467253275015e-01
8.398741222533243622e-01
-8.654146084848981513e-01
-6.044686859399510670e-01
8.409759963636700419e-01
-8.866193314078307797e-01
-1.223867864186407584e-01
4.694481974176110128e-01
-2.847376498549298862e-01
3.422556137581633795e-01
-9.149097193748798595e-01
-9.479979986782385293e-01
-6.257408482776960490e-02
4.606018651175942669e-01
-7.623388365787657772e-01
4.704492318380262272e-01
5.939339669637635488e-01
9.934557502165235476e-01
-7.547298149939096756e-01
-4.947326010705177524e-01
9.287462038590852398e-01
6.258389275763664994e-01
3.239083697138114282e-01
-2.793385084458144263e-03
-1.624889597520580153e-01
-7.334525567518390687e-02
-6.227275251254753563e-01
8.215114415436799433e-01
-6.022755179565539851e-01
2.531155685153716473e-01
-5.123062558564404068e-01
4.971750704026007828e-01
6.201018409249949848e-01
7.902978849283874840e-01
5.708718913318806543e-01
-4.665617666927528440e-01
5.795840126113860347e-01
-3.359536954106663309e-01
-2.939531577734659784e-01
9.845703185288627868e-01
3.187575517853296070e-01
3.166744610463501086e-01
8.653706552670614727e-02
-4.347325394289955902e-01
6.887451168941054469e-01
-9.325643697023069389e-01
2.664755289133222682e-01
-5.406051944592473735e-01
2.806119445873345164e-02
1.673121564054269594e-01
1.278741583958604711e-01
5.845144903143955073e-01
-8.244186524534267146e-01
9.157825109330621771e-01
8.387553059262784494e-01
-2.781867475659196565e-01
7.271089606867005006e-01
-5.661399857972142513e-01
5.851472438501925666e-03
-2.064663312057422040e-01
-7.915840950627077710e-01
-8.566499723985148140e-01
-4.676415217420262227e-01
1.181404802314203195e-01
-6.010896441067767881e-01
-6.776211706478945107e-01
6.827733672260498654e-01
-6.457408688099539606e-01
-1.960410374630336960e-01
2.856323682995292046e-01
-2.286889958691040725e-01
5.568231746721976627e-01
-8.644793086341795441e-01
-8.902502973585371127e-01
-7.306824017255986181e-01
6.796697394115169821e-01
-7.940055195171309421e-01
-7.526539927203443892e-01
-2.851759205373838313e-02
-6.879869556487550053e-01
1.008075093477824868e-01
7.063431994609781217e-01
-9.223798870113182335e-01
8.887904606057528412e-01
-5.856651517738866719e-01
9.862558072100211515e-01
-4.532109356706965908e-01
1.919604092722204669e-01
4.685322385765355868e-01
-2.465227908399671986e-01
-3.754777961588733337e-01
-6.763878186867569031e-01
-8.955425152646652176e-01
-5.453585629065060836e-01
-6.469019655759582488e-01
-9.202419196542277469e-01
-5.910091025181338775e-01
9.682559967647199617e-01
-4.595599743482188249e-01
1.258244486336130841e-01
8.408270721419897065e-02
-9.329701624846233887e-01
-6.100108910014163666e-01
-2.609753626033453067e-01
7.382871620652229350e-01
-4.193492386392965177e-01
9.848104549579324019e-01
-9.994317363834257506e-01
-2.419920799894572649e-01
1.705911886004507494e-02
9.962670936087607565e-01
-5.010468270137315994e-01
6.659528764254214472e-01
9.589785933957273301e-02
2.565958313624232545e-01
-7.868178496909450370e-01
-8.830612078339159510e-01
6.783567078098040604e-01
2.810566443645854395e-01
7.612116743023276122e-01
8.720248113747088858e-01
-1.345328684560556098e-01
3.134678312037482151e-01
-2.473595174135212460e-02
6.084693066234001524e-01
8.036359936726706898e-01
7.912033494179728788e-01
-6.438566273864587686e-01
6.685763740019430301e-01
9.679530678682088940e-01
-5.749679990588194567e-01
3.909323109217657244e-01
1.555719998032369933e-01
-8.593209432073498633e-01
3.048785652690333414e-01
-7.424074195174443780e-01
1.157542430931171040e-01
-4.472062331538473323e-02
2.020415899142200544e-01
-3.193098758486923039e-01
-3.689812079313821158e-01
3.605404081970386976e-01
1.108086790074311878e-01
6.914553884828822383e-01
-8.083043695847669241e-02
-6.878591589797427019e-01
-6.784224269518726036e-01
5.932143482670919621e-01
8.999146900356644885e-01
3.244249701257284624e-01
2.352107751739511698e-01
-9.683381374811783626e-01
6.916901973264932835e-01
8.010332984853132388e-01
1.761743430600937188e-02
2.942083162964850285e-01
-6.006455253950324646e-01
-2.074448615966741905e-01
3.848543431882083254e-01
-8.778134697148700649e-01
-2.512246496901771042e-01
-5.566712624181970881e-01
-1.605349924995731481e-01
-6.128485533676983898e-01
5.577850957715266844e-01
9.156081396652386850e-01
6.117985334134603548e-01
-6.235925841352463195e-01
-9.227062531567280512e-01
6.049163419634620009e-01
5.923974093691259935e-01
6.507211585980925417e-01
2.610979242177680071e-02
3.278465837161035346e-01
-3.666802174610277465e-01
-3.218981774343883107e-01
8.251030913314121307e-01
4.892697397252998570e-02
4.555506922612773124e-01
2.736305068086752890e-02
1.485071424429578180e-01
-1.274869996664420579e-01
-8.543198269348599716e-01
-5.834432259243309549e-01
-7.133356931160819148e-01
-9.456399068354375270e-01
3.385967930932729519e-01
9.851499265846992426e-01
-7.255886909680528962e-01
-2.762009146223221023e-01
5.022032750299778581e-01
4.513644080475798237e-01
1.810511664346137195e-02
-7.992353878443538839e-01
5.627805348539718366e-01
-3.369253974435160170e-01
-5.079659472320785518e-02
-8.567730714871908404e-01
-3.050909699139414677e-01
-5.478243254711123722e-01
2.852643633591307459e-01
-3.660471198971142481e-01
1.275346839193025605e-01
8.025730862889561834e-01
8.867139096340004301e-02
3.972183010846774831e-01
6.116935225900030915e-01
-3.010983478053639306e-01
-1.845788229554079507e-01
-1.148728078693423971e-01
-7.192325072801788455e-01
-6.796132839314266150e-01
2.552913806006229525e-01
-1.672900561448553702e-01
-3.738252112875828370e-01
8.276553732314373413e-02
5.618232219193428634e-01
-1.598369413467553013e-01
7.130953270492044194e-01
3.872808927356701236e-01
-8.580857602299953868e-01
-4.905688714966540687e-01
8.583349795508499191e-01
9.516235864393918220e-02
9.737597602815559750e-01
-3.647907262763072644e-01
3.158612195215297902e-01
3.484263823417816930e-01
-5.070740231846415647e-02
-4.091703484423925286e-01
2.097767643462804532e-01
1.379896120456431952e-01
4.653475157700694975e-01
1.813142617848459981e-01
3.368585234478636004e-01
-2.061325266047071558e-01
-5.340554543260442877e-01
9.314900216788541965e-01
-9.080070838159963742e-01
-1.695953203416877830e-01
-6.193074430478577863e-01
-8.973724516437715515e-01
1.485068094248302994e-01
-8.001844247335054838e-01
-9.303363737603853600e-01
-3.968082273864261822e-01
-8.365576849249662938e-01
-3.514623087636687959e-01
8.171951007840561054e-02
7.716085745957070863e-01
9.219233572081986239e-04
5.255182834685623305e-01
9.178502824104062263e-02
-8.829812437631976429e-01
-9.043010003431619648e-01
-5.234394543866773830e-01
9.987412543560680867e-02
5.716998540197977263e-01
-8.524865178175990987e-01
4.785327801676357851e-01
-8.746050070629933781e-01
1.105153077589815513e-01
8.621568949399935899e-01
7.655833399043499021e-01
-7.429837554829752388e-01
-7.948856907469139532e-01
-5.378902994421643768e-01
4.039244261102803435e-01
9.745844907968044257e-01
-6.618101100539171000e-01
3.808015731408291860e-01
-6.229782488052335587e-01
-5.238381906499287588e-01
7.964266642774995297e-01
8.938120859398812623e-01
9.146099392381739079e-01
3.120821036402940951e-01
-9.079594632465368687e-01
6.771582001567422182e-01
6.552061839105429719e-01
5.814448137189063281e-01
-1.595145287194028594e-01
-1.425895507118364325e-01
1.570826577575568095e-01
-5.921570409557479486e-01
5.278202553077848691e-01
7.234210966045671043e-01
-2.209665741222317514e-01
-5.703508738081386475e-01
-6.108201462185842701e-01
8.884865325735489261e-01
6.197444761887278553e-01
6.418820806288889624e-01
-1.747722365216286544e-01
-4.286951516522805594e-01
-2.922284100016050434e-01
7.876451000805286817e-01
-7.102809078967933232e-01
4.094446242361864385e-01
-1.151034137101238919e-01
8.156130630211100296e-01
4.824918330824885526e-01
-9.325945872790226687e-01
-6.218822900757354777e-01
6.198142784769355984e-01
-3.446809025816168770e-01
4.004854200818130927e-01
-6.846531682022731768e-01
-2.270056379580382977e-01
-9.832570869315118145e-01
-3.744481391114471425e-01
-3.222588687762542037e-01
-8.351438996984061891e-01
-3.413943664926069044e-01
-6.718318624645112092e-01
4.355942673899049211e-01
-7.588103260102807557e-01
-2.220963025344957487e-02
6.606011576847672373e-01
7.705959434272935393e-01
-3.028406717241882706e-01
5.707459599525372962e-01
4.291402553350482929e-01
-5.748674962003981204e-01
3.664316305823422937e-02
1.062129147407397944e-02
1.171588686633087129e-01
2.011354495295236688e-01
-9.043631455907841232e-01
2.243176654395901970e-01
5.387261478998071063e-01
-2.841487671842310991e-01
5.384884680869319595e-01
-2.032687558457619836e-01
-8.127120775286267307e-01
4.015847642709946541e-02
9.194688028619470987e-01
-8.699571944184658623e-01
3.785907604181761865e-01
-8.240262771004349673e-01
3.777173040815868799e-01
-7.818484571441695063e-01
-8.584747523895193133e-01
-4.930585933886317829e-01
9.584708769192706868e-01
-6.392131654634605198e-01
-1.247064465615412843e-01
1.104299222094404787e-01
-9.725917933421233119e-01
7.029827327353137534e-01
-7.017891464009462510e-01
3.122400265709099898e-01
-5.590238892255572356e-01
2.964200580504452454e-01
-9.833104621406525414e-01
7.508559529578318070e-01
7.207437166070564949e-01
3.318073756150443643e-01
-9.434610767780027274e-01
-9.877849414834429798e-01
1.847571164937953370e-01
8.688629690336309164e-01
-3.925142508845358424e-01
2.625130203829675324e-01
2.971185355516481330e-02
-2.202332018971979721e-01
3.364838251020867421e-01
2.860511854278857680e-01
-3.171179256911615951e-02
-5.197555278398064971e-01
8.959861403105624511e-01
-4.982964649055805495e-01
6.547348833186548145e-01
-3.341672704903957403e-01
-9.640467135837962331e-01
-3.594859410335422556e-01
-9.124647700898151914e-01
-3.079156080660168104e-01
-1.896134835379261752e-01
4.212108770791891388e-01
-4.925351099830548307e-01
7.437469032398860147e-01
9.489876165452890699e-01
-6.937858772664839968e-01
2.952339806331412131e-01
-6.381423128835186365e-01
6.489396486847527346e-01
3.491084858458948226e-01
5.688786556052451981e-01
4.141667049709951698e-02
2.733652356428519781e-01
8.409701349562277439e-01
9.711884546860083400e-01
-2.873386129944162093e-01
9.920780808849927190e-01
-8.043041104450205925e-01
-1.143535656624017349e-02
-8.706506971628782399e-01
-3.918822348952253343e-01
-8.577416728721742878e-01
-9.641954819779683383e-01
4.175852452609365439e-01
-8.695899164670277681e-01
-9.569597466323054302e-01
4.402078103867250736e-01
-6.795393394223792072e-01
8.168078349247738235e-01
-5.674419959564629412e-01
7.994855686261743699e-01
-2.509022401705127692e-01
-2.929531564868725901e-02
-8.581471556427078262e-02
-3.524587161076047082e-01
-6.258971304551113057e-01
-7.159022398257701703e-01
2.672812873387075960e-02
-3.434934994040326206e-01
2.050224390308481581e-01
3.494237281249610305e-01
1.942852067160714125e-01
7.469312458854397985e-01
8.163579196546213446e-01
2.352757463920263081e-01
9.573789865739745775e-01
8.029738805016095604e-02
7.061367421164352898e-01
-4.095593875869270040e-01
7.476110149176948827e-01
5.650943666057295367e-01
8.252995945332037842e-01
-2.484692030092110482e-01
6.983554908095168656e-02
4.636523787272217589e-01
-9.877645660941634098e-01
2.755009703729784931e-01
-6.923108660922958624e-01
8.466182951281824298e-01
8.115513643265812593e-01
-3.598770220955858079e-01
-6.152694706065067187e-01
7.396761313689699247e-01
7.888104199003480588e-01
5.267313473531980428e-01
-3.035055106754707133e-01
6.197231596853811642e-01
3.117864105385173001e-01
-3.027737077114258657e-01
6.323801185417734505e-01
6.847875487211976253e-01
1.405462215853872099e-01
6.664854436432710028e-01
-2.936003197174275048e-01
-6.778943196618953948e-01
-4.413747087988806328e-02
2.485897018564653393e-02
-7.761871559587503189e-01
5.050839236019706302e-01
9.466190415956299287e-01
-4.444119558539338932e-01
2.761723928463273303e-01
-6.674850180046272285e-01
-9.441718875262004040e-01
-1.067639070907402399e-01
9.078182232506533111e-01
1.317018577455864037e-01
7.795650694042310924e-02
-6.832455632502678622e-01
-2.010085211652334891e-01
4.294623475236458710e-02
6.201183041882682989e-01
2.867124169138446366e-01
1.035975593092763880e-02
5.016224997284959297e-01
4.714959920852623831e-02
-1.305384634566513213e-01
-7.974708244401496060e-02
-6.278152545947544017e-01
8.180650709028791656e-01
-9.877869231094589253e-01
-6.747803908989797872e-01
-8.882444626829055778e-02
-6.092188749057017016e-01
-1.041759934325821035e-01
-6.893370249609844791e-01
-1.981457228464145182e-02
-3.553866166947865501e-01
-7.095666615085380879e-01
-8.601185917840665773e-01
-7.328328327715112334e-01
5.000007187038908452e-01
-7.753886804432104096e-01
2.831589403420884388e-01
6.945256748464057051e-01
-2.401683119962612079e-01
-8.097203285062781752e-01
8.660172691423431157e-01
3.468726257304475258e-01
-2.787933421395878408e-01
-6.597632112619740141e-01
9.424126953773146464e-01
4.264101997986575743e-01
-1.388153069465101197e-01
-4.944291148027439853e-01
4.308760938493185755e-01
3.897758881780244433e-01
2.449093951438308103e-01
-1.687654097441348977e-01
6.019467948381889144e-01
-3.784586315357683084e-01
-5.064753830964696668e-02
-4.345348438926337487e-01
7.647387469682056516e-01
6.410741344953130305e-01
1.364146746606145211e-01
5.642478154740930840e-01
-3.996998499392527826e-01
-9.979676534281896050e-01
7.253892190721171751e-01
-2.768632822588981135e-01
-5.924523201993401322e-01
-8.382327684604211626e-01
-3.615321815001677486e-01
-4.964765898859320181e-01
-9.597556019948609851e-01
-1.611869737879012554e-01
6.234587839043361779e-01
2.784109850155114252e-02
-7.968260174664445472e-01
-5.393439402752735479e-01
8.152292172145656490e-01
4.364271062378470845e-01
5.049016342229777354e-01
-5.752853387194070134e-01
-1.324943461109679976e-01
3.175138778090693670e-01
-1.907491294325944775e-01
-8.388585146499947243e-01
-5.717867060085439768e-01
3.969649798604193425e-01
8.940281949934996142e-01
4.769422593559631274e-01
6.171767981710334361e-01
-8.672472095086893873e-01
-5.819163970432583710e-02
-6.227128830761534672e-01
-5.557860732459807274e-02
6.970984877906845067e-01
6.956215109195029722e-01
-5.317625625222248686e-01
1.208129982483339138e-01
-2.429331755536165982e-01
4.796858444585372361e-01
1.338920750031040718e-01
4.960584605201445729e-01
3.056266278962826988e-01
-5.928153577509753802e-02
8.123957159368191405e-01
-4.898749892938232264e-01
7.955472922647437439e-01
9.316233004918461624e-01
-9.500415276957665522e-01
-9.630996495973822569e-01
-3.113702443325550018e-01
7.455234107693056167e-01
4.335653061644353379e-01
4.262042224152289283e-01
5.856335276259219125e-01
-3.268949252056663202e-01
-3.472438731976204007e-01
4.143873590404467677e-03
-2.991523866749963290e-01
1.504412296126824700e-01
-9.414613770631630185e-01
5.670498301948301290e-02
-5.593775699753411601e-01
7.177526018445812284e-01
-9.921132360285065399e-01
1.339145551141880386e-01
-1.923712545060818346e-01
-2.060349040643425500e-01
3.057627176550856696e-01
-4.114490678973283799e-01
5.037296451449186918e-01
2.161050325678921524e-01
2.977727247137402777e-01
-7.675820919584059876e-01
3.166459955760632106e-01
-3.965724412353190953e-01
-2.186529144148097181e-02
-4.107352954653189503e-01
5.704674733954413490e-01
9.241370619987643309e-02
-7.559336811482013641e-01
-5.733312533391379251e-01
-6.989275834266948095e-01
-4.701390066877246809e-01
3.553763473097140135e-01
-9.907187966600723428e-01
-3.373103225649161097e-01
7.711704101114171817e-01
8.902312333035304892e-01
4.602404773663542059e-01
6.062257995654154463e-01
9.422335739359206652e-01
-3.965268225729290386e-01
7.608257870207668638e-01
-4.844020415052650019e-01
-4.344689262543897090e-01
-5.440104330464945459e-01
-2.393617737017530445e-01
-6.899035834459281702e-01
1.085299854305261658e-01
-3.934580665726088444e-01
2.444988108537506921e-01
3.370947139110802571e-01
-2.283099842848312910e-02
-7.077898854522690630e-01
7.381303713460156679e-01
-1.581752574528667576e-01
-8.867127622303603296e-01
6.599768306451452293e-01
7.074376300309290766e-01
7.779365452665634173e-01
-7.149928853805318507e-01
6.342949457527455870e-01
1.270344859114127534e-01
4.703152049578966931e-01
-2.046623196212835616e-01
-5.171027456808463540e-01
4.829497971178624560e-01
-5.463896580885250209e-01
6.802498474780138693e-02
-6.494363189032179573e-01
1.294760996186243851e-01
-1.157025828703406312e-02
7.165360337012243175e-01
2.675781558000662752e-01
7.507962103212371119e-01
-7.200270498015535203e-01
-5.325475739527645302e-01
-8.612857685122958795e-01
-9.759749663090067084e-01
8.134076552191151777e-01
-6.394976197700381615e-01
-5.483230929604552273e-01
-1.996942618049954987e-01
9.662439965337332737e-03
-2.112855861806073321e-02
-2.917559760034882377e-01
6.528791159171736247e-01
3.681406907862403433e-01
-1.293489228296287319e-01
3.859914368280989994e-01
-8.063517511019770989e-01
8.390852580285139695e-01
7.669312663791505447e-01
-6.328773669820577652e-01
7.004964032828540077e-01
4.091942669737149707e-01
5.023141665955179747e-01
-2.179755102043630099e-01
-1.607271718378155967e-02
4.082485667487567582e-02
2.594805325370546090e-01
6.183335716612368138e-01
4.190317930344342745e-01
3.452084407028666035e-01
-1.698100449946202684e-01
1.087120538004617831e-01
-2.004874543274006715e-01
1.389345554998080434e-01
5.126996377636059421e-01
-1.080347168119000223e-02
-3.929017837960941950e-01
4.485654352354617735e-01
-6.171502768960674956e-01
-4.637513531490549124e-01
-7.268346092837376649e-01
6.211285359196212497e-01
-5.608766129436668635e-01
-1.411885368526197837e-01
5.295932453992993061e-01
7.437497672602009224e-01
-5.789276685575910353e-01
-6.305410143854124350e-01
-6.706302335718232754e-01
-7.848597014864666654e-01
-5.265564567995029144e-01
6.463982899545994698e-01
-8.478387316455890943e-01
5.972713294398295236e-01
-2.937848303838030972e-03
-8.585132456178143912e-01
8.935725530962943530e-01
7.273800987143705932e-01
7.006824961021276277e-01
5.456315460545857476e-01
2.736969002665721185e-01
7.691765367557543698e-01
-5.626143078442173984e-01
-4.910263200429405561e-01
1.250252639094722173e-01
-4.196760108135608736e-01
-3.451329684269062170e-01
4.950137588981144976e-01
4.285660708504008820e-01
-9.163319139355983189e-01
1.568801304668216989e-01
-9.225119704733548698e-01
3.047894573189546819e-02
1.411179024756181732e-02
-9.571203405178225765e-01
-7.700774566374957164e-01
-9.846861717573984762e-02
-6.127172113128567243e-01
6.878842917600236362e-01
4.408863459701808374e-01
9.946068503537275340e-02
6.412501426455918807e-01
-3.418136792402126645e-02
4.470504425474275401e-02
5.120687160753756295e-01
-9.043683788933476464e-02
-4.049003423287682590e-01
-3.011400665390597808e-01
9.472591368376137577e-01
2.673168957187639361e-01
-6.204329997649322692e-01
3.501925881339940094e-01
-3.407326127241085967e-01
4.004394436685276837e-01
8.045168665265964858e-01
6.978382517611063651e-01
6.444969618803675360e-02
1.979283390038315549e-01
5.409005053116817674e-01
-5.024648492766752295e-01
2.001134389312460016e-01
-9.800809207232306086e-01
9.537286811124601194e-01
3.883975903675289665e-01
9.728743680941480676e-01
5.522464488163087992e-01
-7.574724699819865847e-01
7.142909680764226721e-01
8.200517045070181421e-01
-6.975997284504760199e-01
4.197594555030239594e-01
8.783036304231559566e-01
-8.966300785427983033e-01
2.286332238345196721e-01
6.989052056458280315e-01
-4.840701233558091232e-01
-1.553654107091713144e-01
-7.007062070950926813e-01
-7.788193553741096231e-02
2.817015701517455728e-01
5.808195758966241407e-01
-8.940942496961794550e-01
2.859016927608228897e-01
-2.127821949017283387e-01
-9.322293738505094129e-01
3.125769818059589422e-01
-1.043520521091738651e-01
2.546397238819704256e-01
9.086155426472199981e-01
-4.928127405937630101e-01
8.698008524997846713e-01
8.654162725923684185e-01
5.384345279720805788e-01
-6.793776868598075946e-01
4.963340069423203271e-01
8.725836219625426882e-01
3.141949072378711350e-01
7.939209876003410216e-01
-7.536554446874170754e-01
-5.447722036052859984e-01
-4.420751049720201831e-01
2.076931183055774621e-01
-6.045967315239104689e-01
5.421636597644741151e-02
-4.360122021138648218e-01
5.899784501013005666e-01
8.929915176946523481e-02
2.452499148943454443e-01
2.407852655157556310e-01
1.733089347307394945e-01
7.856084420676745506e-01
-3.077974136951311390e-01
7.846731034958258633e-01
-1.467757362263026888e-01
8.806584386893925309e-01
1.011653018467950638e-01
-5.306544026212649534e-01
-9.646473478759776121e-01
1.468221734177637128e-01
-9.631620927216355543e-01
-6.690326989374184574e-01
6.910535242745963203e-01
-9.608205254060109279e-01
4.724358705475366627e-01
-6.742764098854387989e-01
-3.374550414299835044e-01
4.346721057806437472e-01
-9.079553277039369430e-01
6.407746042421147425e-01
-3.584817950903143036e-01
-4.340971397338251325e-01
-3.347950636263601343e-01
-8.678358837291133554e-01
7.792106496394812787e-02
-1.969319509379026112e-01
-9.440961408425501133e-01
5.842770728429567129e-01
-8.335031636196488236e-02
3.191526820672467846e-01
-6.058441933632197074e-01
-6.133604800297178805e-01
1.768503413250130940e-01
-2.474946263942783276e-01
-7.221204347163103776e-01
6.603115611207595048e-01
3.223279807077750192e-02
-5.223942017543306005e-01
9.110656570289261680e-01
2.472755599601736964e-01
-1.702813729606151849e-01
7.277600846709699756e-01
-6.508601265592171004e-01
1.293382452909852542e-01
1.543488349970267848e-01
-4.991471630337813714e-01
4.214277344488834842e-01
8.870903730601620296e-03
8.435326317947668961e-01
5.638398611236419278e-01
8.185319640016519571e-02
5.387279376950415699e-01
6.783099953336293453e-01
-5.349702044287858449e-01
6.601770677353206995e-01
7.808938291156073408e-01
-7.034200686362126476e-01
2.487346580290505926e-01
1.819168282477263698e-01
1.020644979212776970e-01
-7.594764873959749529e-01
4.431256467869484350e-01
6.117070108659621308e-01
-2.292527007086180291e-01
-3.271090697288485671e-01
-5.830035630098422406e-01
-2.853912856547455856e-01
9.743228866173225811e-02
8.130760702508406101e-01
-7.640839460050086185e-01
9.800121561558285954e-01
-5.391540834273129690e-01
5.515012844399551639e-01
5.145329990424214461e-01
2.865873372757967719e-01
-7.887400607104317896e-01
-2.938091327878931125e-01
9.971734874717541608e-01
-7.015192737473912032e-01
-4.089504035491042799e-02
6.536324980963050812e-01
3.501868373119181310e-01
-1.522431455858135330e-01
-9.043286821177507484e-01
4.226075452812940725e-01
-7.872110654228119397e-01
8.937765674565092411e-01
4.289527711074225813e-02
-9.985147884693066356e-01
2.386621270196007671e-01
8.264634574848082060e-01
-7.392128003084672550e-01
-2.259866644701915561e-01
-4.912037219487186412e-02
8.273951023863832521e-01
4.750614408679094680e-01
-2.627547558783405179e-02
8.613064739574705087e-01
4.573849374333804896e-02
-7.702915753332502113e-01
-4.534678316873979043e-01
3.267184111584935380e-01
5.962771531788724211e-02
-1.770849056812073830e-01
-4.585802567507357708e-01
-4.509827533613972594e-01
-6.598125989008238879e-01
-4.711914673403749809e-01
-7.667899961972435285e-02
-8.316479388674025142e-01
-7.138296862106672247e-01
-2.012056290923245339e-01
7.849897288469180889e-01
-6.588518796387801135e-01
6.818073779149802505e-02
6.745400394198206584e-01
-7.530644073745487166e-01
-1.130915962680605347e-01
-8.593332510557749604e-01
8.097998184956511913e-01
7.319877997230055389e-01
-3.433217659828891044e-02
1.670413814322790902e-01
-4.044018365433030837e-01
8.961737046105924254e-01
-6.703472500114051602e-01
5.273617993469645882e-01
3.830701816459063380e-01
-4.793174211386470596e-01
-2.896557357576241554e-01
5.296782448526158316e-01
6.562973310351190026e-01
9.955657977581244822e-02
6.448887166550034689e-01
9.584727084896422777e-01
3.111774269791123260e-02
7.166356628106465010e-01
5.767775120256619648e-01
-8.451192317116835717e-01
4.396134359063961217e-01
-7.301693892014533560e-01
6.670039306266322132e-01
2.431188134967254832e-01
6.420056048194553444e-01
-7.963801888047796762e-01
-2.005188673389821652e-01
3.930721864761423934e-01
-8.523052813961713436e-01
8.468678455408569228e-01
-1.162432300343783087e-01
-3.799863500452582699e-01
7.538725708706399686e-01
5.001856146050049912e-01
-7.869330042387698843e-01
-9.434896566135719809e-01
8.239479847475772445e-02
8.117028661453584704e-01
7.790016612980383837e-01
-2.147113413728469755e-01
1.308722663702399647e-01
-9.197614617352043442e-01
-3.115090313837942659e-01
-3.258663649177644395e-01
1.489236979658374871e-01
-5.979361694490306078e-01
7.716877096677066117e-01
-8.867504806220363189e-01
1.756316587284401098e-01
1.205385288715412617e-01
2.670069641782988334e-01
-5.202984072640131075e-01
2.313398958596031285e-01
-7.877124533167927378e-01
-1.057293194730370978e-01
6.950140766879240317e-01
4.876866766307861312e-01
4.935266309532444495e-01
-1.660508364792789848e-02
-8.495966335001530201e-01
8.860488675962565619e-01
7.812808684449299435e-01
3.270584573490058489e-01
-2.098431016407205085e-01
-1.890630526892258523e-01
7.055107280384085300e-01
-1.268833885288476182e-01
7.018142384099435027e-02
-2.377935684098744229e-01
-6.622585514007659491e-01
2.003445545270907679e-01
3.478797338975205822e-01
6.879322196962229796e-01
1.943802795553459806e-01
-5.020000459784674796e-01
-1.697453712772534207e-01
-5.131721308907171153e-01
8.854094040880489125e-02
-9.429503808714361224e-01
-8.530100423469499926e-01
-1.570420904409557394e-01
1.478704336759848470e-01
-8.363384167492604604e-02
-2.861802778605391229e-01
3.676979123137718020e-01
-4.342874781697698694e-01
9.781166985757596688e-01
5.269985583762788472e-01
5.175328777514387468e-02
-9.339932021128891648e-01
-8.806364542514149019e-01
-4.549173188092079378e-01
6.221392662388196548e-01
-5.113531057671565350e-01
-1.711886669688442719e-01
-4.413955732267660359e-02
3.403561951025999566e-01
8.945475546464387584e-01
-3.787963548715822526e-02
7.894479401219978154e-01
-2.860460709479621944e-01
4.676587869690216337e-01
2.756684509387998805e-01
-6.279190392772773244e-01
-8.605558321342248185e-01
8.861176617201449446e-01
5.628679417342190572e-01
2.018234503014997294e-01
-7.821366692823543687e-01
-4.649246052522229000e-01
-7.966494212227503979e-01
7.032509948428100621e-02
4.069223415705405245e-01
-2.209804984515508774e-01
9.175457602376668742e-01
8.308291703877170864e-01
-1.188928136051523587e-01
4.500036411917296419e-01
-2.278501169468283294e-01
-8.421279946942896721e-01
-1.189976367077871799e-02
7.281862257694606821e-01
2.605818478043573361e-01
5.338075708763125871e-01
-4.362780016587202159e-01
1.133756128349565628e-01
-7.372746964188583441e-01
1.710101459877162444e-01
-2.862217376182429884e-01
3.115436805452782565e-01
9.448827969330215737e-01
-3.304023134648401694e-01
-8.158651156815204253e-01
-3.746249669005832228e-01
7.874435748938288793e-01
8.929041121377978563e-02
9.987519600997720737e-01
-3.707269055975275229e-01
-2.517888844015623295e-01
-3.220934820729388637e-01
-7.391937639328434173e-01
-6.475806547887190678e-01
5.893547968191163999e-01
6.818835221220405085e-01
1.700225917365298933e-01
3.556194579973794845e-01
-9.807755986658033276e-01
2.343346112463100539e-01
-7.042955161511552653e-01
8.626169935116099197e-01
-8.429798512244863762e-01
3.462791277454688732e-01
1.725957105054769514e-01
7.358569749691943329e-01
-3.386602235517275350e-01
1.017231564474556649e-01
-3.924169470753358091e-02
4.114305354293021910e-01
6.218669497583311223e-01
3.271101246626741954e-01
2.367897942562975366e-01
-5.654834114638056519e-01
4.987298143528740013e-02
-4.517810729378108903e-01
4.554545472988298371e-01
-6.088927295191588485e-01
6.129933958058644272e-01
4.487525835294141618e-01
-6.957205232095329261e-01
8.368939928624383739e-01
5.777081255537754867e-01
8.282719097019060062e-01
4.173518084458003319e-01
-1.938528176088765154e-01
9.908473510627662240e-01
-7.314719269954939040e-01
-3.563021546385827243e-01
3.100636084766377198e-01
-5.526855803210311002e-01
-7.981906267609910621e-01
1.950440083323807805e-01
9.956794588376620680e-01
-7.137710324507047233e-01
-1.601483605532196819e-01
6.913026716520542791e-02
-3.230177356549424061e-01
-8.984051165469089106e-01
6.851533406265866155e-01
-1.746783776317686332e-01
2.388521917130002059e-01
-8.459681852490690268e-01
5.606076684642344876e-01
1.419745174740127958e-01
6.549591281978695001e-01
6.125553292790519855e-02
-9.731986234590916940e-01
9.844391066823077185e-01
8.926245204104450437e-01
-9.800142842615573446e-01
9.728566925649755337e-01
9.742584071571689375e-01
9.779279796579825046e-01
-3.259548773144138600e-01
-1.016426190383687977e-01
7.892998949942018339e-01
4.488792847890503701e-01
2.618329652483091241e-01
-1.491004102893671579e-01
4.127865106899155645e-01
-3.450702194673662682e-01
-4.155009700819889407e-01
-9.828546315058446226e-01
-8.735361564399775069e-01
-7.464978245187730010e-01
-2.746705367459125746e-01
5.708400450949617788e-01
5.368642395402469791e-01
-4.406448309173007782e-01
-8.979929398434267629e-01
9.115681568345037622e-01
-6.357004208312913018e-01
5.297149698485639213e-01
-1.511273238328731949e-01
8.321336757314246046e-01
-3.771853127610302892e-03
-2.921193649055837671e-01
-1.654672365923408606e-01
-3.741934385575855782e-01
3.167186354614548449e-03
5.697270477360658614e-01
-2.882811142746815047e-01
-4.280230908056006367e-01
8.617199392171537298e-03
-3.841895871903624471e-01
3.239945488406339447e-01
-7.579278376822509156e-01
7.539590557297428663e-01
3.809004715644319639e-01
-8.200311988075092984e-01
-5.643644409184149779e-01
2.552750941645567373e-01
7.767806387563469528e-02
-2.079282599007192811e-01
-7.928367512212637358e-01
7.627023283383671526e-01
-2.910966198181761388e-01
1.161637447407268819e-01
-4.321011488621329111e-01
-4.912966985492190908e-01
-4.479834607278332381e-01
-3.233907019209287803e-01
1.833770784164201473e-02
5.872065209446726275e-01
4.118746951014107260e-02
-4.633083087973575154e-01
-7.462352606359796692e-01
-5.120264951618103133e-02
2.805480951125598477e-01
-6.251376990776225107e-02
4.583617686381626921e-01
-9.262963068227536567e-02
5.010451736267780287e-01
1.563785992566999461e-01
-6.148556267988221080e-01
5.400478685368041987e-01
1.096501258469184670e-01
-2.880692352111062782e-01
-2.261688094566958185e-01
8.582321485493371593e-01
-7.658394761812290508e-01
-9.230562831165436410e-01
-7.974474788616163767e-01
5.643185636778023095e-01
-5.833553645782085795e-01
-3.645925491199619728e-01
-9.263605084261830047e-01
6.968545989409589136e-01
-1.804145947168973585e-01
9.704435244493714308e-02
-5.964760862201099467e-01
-9.521578537712629409e-01
-4.362034213482768319e-01
8.577632461758923910e-01
-8.339224370046234291e-01
-9.613096585170035624e-01
7.979896354161362115e-01
-4.538175144351705992e-01
-2.910973348741230371e-01
3.117855947258754146e-01
-3.710009233751212498e-01
-8.630749031884163980e-01
1.148267046696953564e-01
3.385297531369892976e-01
-2.645531320531615549e-01
-5.100605354601628338e-01
8.199936466575588057e-01
3.795223683277477722e-01
1.005794487578361984e-01
-9.958906311128929989e-01
-6.548805125152583617e-01
-4.087671603523055364e-01
-2.569504622187497311e-01
-1.352359085921079895e-01
9.745390089961871727e-01
6.355662521102076745e-01
6.989525769857451998e-02
2.310486142394270193e-01
-8.785245391489753253e-01
7.049556043954801066e-01
-7.164926737054417849e-01
-4.596904476098073733e-01
-7.596246994187529911e-01
-9.803656758579004649e-01
-4.675647879973665599e-01
8.871706334299833685e-02
-4.260333406107497112e-02
-1.389628614675091356e-01
7.679598753228487062e-01
-6.374266199016032086e-01
-2.333756823714381312e-01
-6.440786396757733900e-01
9.495780866007403898e-01
-3.169762836307621345e-01
9.904448217225687578e-01
9.271429607760774960e-01
5.085749853774099716e-01
6.631713851634524204e-03
4.936524596135765108e-01
6.528852465361507651e-01
3.423553976563078471e-01
-6.620939629628188605e-01
9.916853460670624898e-01
9.363905900943174654e-01
8.543222020662333271e-01
-8.488646270244337710e-01
-7.346757016482938774e-01
4.696836270018718285e-01
-8.618444507058087289e-02
6.222669788307533256e-01
9.293700450149784409e-01
6.032742879758552501e-01
-6.574921949786092235e-01
6.624568168219164832e-01
-7.362314350399301599e-01
7.723916694219794543e-01
7.796355949872348923e-01
3.910548461743945658e-02
-6.871096211630707273e-01
-4.886401935161952537e-01
-2.325393833641320462e-02
8.752845503147312911e-01
-1.144579744288825029e-01
3.751281993848378793e-01
-9.161168830275625563e-01
-5.056753609096498181e-02
-3.291236750934267707e-01
5.733177267835798396e-01
8.834446020325714688e-01
5.210899360028768967e-01
-8.882710156296440562e-01
3.178010415863963267e-02
8.515810891150137341e-01
3.100258135133293624e-01
5.317851274338378786e-01
-9.413836966560908959e-01
-5.384289971188560564e-01
-6.991388325201266518e-01
-5.680947677739471846e-01
-7.484486215895267414e-01
-4.074372250827884567e-01
7.553776896281201303e-01
2.497275056360355183e-01
-2.576288917780567012e-02
-5.009916002821968029e-01
4.746256508102999483e-01
9.217756148214244494e-01
7.056390228771174389e-01
1.155528360980235814e-01
1.365665694342610426e-01
-4.393954631683023582e-01
-7.056257543089416995e-01
-8.392346238211658704e-01
6.718040094195019130e-01
6.422784352841557354e-01
-7.585428108018745785e-01
4.887362571782958298e-01
-1.593983804727014952e-01
3.269272858104743662e-03
-7.259341851627221232e-01
-6.988810531426061790e-01
-4.680558220527586410e-01
-8.015912788172407932e-01
-4.428042093096709042e-01
5.337709064693885175e-02
7.046436899138637244e-01
9.045796538344967885e-01
-9.461283093706485126e-02
-4.851756683189512032e-02
4.615380096829495571e-01
3.117480526977356448e-03
-7.457408168415280425e-01
-1.939146402124269919e-02
-9.072496667499863054e-01
4.417184052384346415e-01
-6.265963295660403887e-01
4.624518491430795741e-01
6.229039800468361143e-01
-5.809681337111882726e-01
4.413724851221907386e-01
-9.426103916240031744e-01
-9.050276014092384358e-01
-5.269206500628251799e-01
5.906604380718702973e-01
6.491937816524020466e-01
-5.497132063328677987e-01
9.800773359054351097e-01
-4.905758729194482637e-01
-4.054083350269541697e-01
-7.448410245024843501e-01
-4.930651900266165288e-01
3.789170464979241260e-02
-5.552374189255049330e-01
6.401727132430372613e-01
3.002323815093008719e-01
-6.555843458746375418e-01
3.019221866037000712e-01
-1.176005193211522304e-01
-2.115633486807888541e-01
7.073271697549843307e-01
3.352923855632661265e-02
-3.935147850383380330e-01
6.453098658009301936e-01
-9.284661043451536422e-01
4.203918203588097313e-02
3.917779591180576837e-01
-5.614146169680807041e-01
6.491274229061803069e-01
2.315450052505159118e-01
2.435162189665638355e-01
5.642406472925611816e-01
-4.731182796479349584e-02
-2.686226216298861491e-01
-1.388810784148242217e-01
8.182675017962237618e-02
3.907575568383392373e-01
3.901319661701858621e-01
-3.702348440447997824e-01
-3.607103169851113567e-01
-5.525526162683331854e-01
2.497698913918853236e-01
-5.014866845880001645e-01
-2.653088187205416837e-01
-9.047269300625520039e-01
9.282172136488535674e-01
3.109546943925420859e-01
4.577959049107322986e-01
1.105337708245397454e-01
7.161797394103051051e-01
-1.910858921097013940e-02
-7.313029842389935364e-01
7.724925766028469809e-01
-8.221328682168949076e-01
8.717849593598889779e-01
4.678859975097742208e-01
3.122874615605208959e-02
8.831777152930864183e-02
-9.217375209823552851e-02
1.750515947348458834e-01
-4.710963205875740023e-02
-8.678771341016535690e-01
-7.306595058959881595e-01
-9.416441625203504362e-01
-1.966362452990382259e-01
-9.362677488299886441e-01
-2.651897114984969051e-01
1.464477095342664459e-01
-9.732376102390838390e-01
1.748071142892786423e-01
9.579806110670725516e-01
5.462606910208744893e-02
-8.063617231792519213e-01
3.570265307813960121e-01
1.457176839804270596e-01
1.717986433372322708e-01
-8.318897757562091488e-01
-6.289903993471639421e-01
-8.958398654365378189e-01
1.042899264887495736e-01
-2.285579421136072487e-01
-3.516425236148703615e-01
-9.274130679151324497e-01
2.615957371128578846e-01
-8.173243304191863956e-01
-8.507836675833300166e-01
4.973830866187738398e-01
-7.007777066776410546e-01
6.247630828836363559e-01
-2.948842457072429202e-01
-3.186990879321771608e-01
5.129054499535303790e-01
2.985139440517077247e-01
-6.365950932890453995e-01
-5.785748735031870371e-01
-6.436236308585219223e-01
3.942532492274177791e-01
-1.338378342191448578e-01
-5.779216139023486409e-01
-8.715996869739233155e-01
2.685788408786788928e-01
-8.038308242698570805e-01
-3.453685489240985174e-01
6.489207230892162226e-01
-7.854543791993870983e-01
6.015085184800872398e-01
-4.093088609229809105e-01
-7.809784985322718587e-01
-6.921594272547550997e-01
-9.565914600721763250e-01
7.955257153270316461e-01
-3.418491240522594232e-01
7.406511824401040833e-01
7.305369874118325946e-01
-8.938784227818445949e-01
6.635977191709265810e-01
4.927380851176255128e-01
-4.606317095639254067e-01
-7.338586516066218923e-01
-8.409742019332975271e-01
-8.920369609602984973e-01
6.074703677492381271e-01
-1.013812228092274559e-01
-9.060310666814312963e-01
-6.431119511067373562e-01
1.213881601284019229e-01
-1.689412252081279320e-02
-7.266705677650420192e-02
1.455315711624687314e-01
5.154925954254836462e-01
3.890179893798932920e-01
-2.389099886648922144e-01
6.682727922659241759e-01
8.972272354698558328e-01
-7.758600103759334399e-01
-8.582457067733686440e-01
8.204611868121274298e-01
-6.863160120269737874e-01
-3.084408539294118956e-01
4.648787808791807752e-01
7.850922085719682642e-01
-8.969482214234614226e-02
-4.827878944592978172e-02
-3.738248903308052373e-01
1.328743074554374903e-01
2.090297956745363894e-01
9.998038747101558599e-01
-9.465997919612298972e-01
4.597442678457812626e-01
3.316254427802241000e-01
-9.373285312338595077e-01
4.822593987015935113e-01
6.895790520871569740e-01
7.939146581581770779e-01
-2.197816526773979096e-01
-5.570306502286086481e-01
9.463120523108854432e-01
-1.901467274889112602e-01
-7.956892669191661938e-02
-8.828593140261542516e-02
-7.998266810290814988e-01
9.524149347733787963e-01
1.357660817870385284e-01
4.725297704454067826e-03
3.652418339197718300e-01
-6.771890320936821972e-01
3.889076397859201339e-01
3.404378558135945365e-01
3.273938632708259799e-01
7.767424726180649497e-01
2.165670085627597885e-01
5.371886998973129934e-02
4.894543607993928624e-02
-5.138893926523910860e-01
-5.816215539549312030e-01
1.200049395875235625e-01
-3.886694172071645248e-01
1.770999233546659557e-01
-1.839155024538547956e-01
-1.211922698327869696e-01
3.659439337761734024e-01
7.573997971302071086e-02
-8.250447862023879697e-01
6.161250196796443923e-01
-7.390985666479379379e-01
-9.382452570803934133e-01
5.515504730072349204e-01
6.900918888380320748e-01
5.706493757280657331e-01
4.290070309956866001e-01
6.519584083556264620e-01
-8.360597208873925545e-01
-3.666650324803710781e-01
-6.063100939033239101e-02
-3.627891338611379801e-01
5.002270173248679619e-02
7.886308780629145421e-01
7.982168508065952128e-01
7.021068905794605186e-01
-1.618389589019006980e-01
4.096553083037690612e-02
-6.240732747696540184e-01
-6.858287162340268583e-01
1.007388046426085371e-01
9.842512972606964894e-01
9.132161551864181881e-01
9.679181721299268126e-01
-7.272036153404493053e-01
7.642762346381941629e-01
2.627225023283688010e-01
-5.562696913351223849e-01
5.271298254218081958e-02
-1.944175336487898864e-01
5.067781189926621188e-01
7.833510369203093848e-01
-7.299545213247093933e-01
8.152685227997791273e-02
7.152305258561297840e-02
7.183926899678478861e-01
-9.330521047577831073e-01
-3.150057244846451443e-01
9.257586146837268881e-01
-8.293005144682994434e-01
-5.412405569304692410e-01
-5.519759795510073008e-01
-7.813006274617060321e-01
5.431252828110098019e-01
7.746526883214817083e-01
9.294641157074607918e-01
2.701655093279857756e-01
9.402657593339711628e-01
3.362101470952572058e-02
-8.439100301699473672e-01
2.366374212982513825e-01
-1.272810003548696667e-01
8.850554488961170918e-02
-2.988711135419008791e-02
9.851829539490783993e-01
8.249281603259304152e-01
-6.433009735160322151e-01
9.389351406963162283e-01
3.009851181641713946e-01
9.373711207263626388e-01
1.796003065633455797e-02
7.083957399019584766e-01
3.394660957430937209e-01
-2.173654819963697360e-01
-1.858243167718234279e-01
9.654149518453689627e-01
-9.385542196155076677e-01
-3.254313992673152356e-01
-7.626676366437752375e-01
3.063397358316697350e-01
-1.480578981235001201e-01
4.278161626172274357e-01
3.295160800776908427e-01
7.299290649841567724e-01
1.069068869122302701e-02
-7.591190791569584206e-01
3.512099666822743327e-01
-9.662046323554502880e-01
1.127844323155109407e-01
1.527384045214896791e-01
4.200364192609924441e-01
-5.943526116486259614e-01
5.310107002458797076e-02
-9.986329966178431050e-01
7.938088389380304477e-02
-3.957879935249986048e-03
2.163751173588841503e-01
2.435433355110232512e-01
-5.523497196239555151e-01
-2.405238075694462463e-01
-6.934126167561240894e-01
-6.849168454131604467e-01
6.427605860105285451e-01
-2.530303976778180974e-01
6.912224382224514407e-01
7.947230398339975022e-01
-8.776541639380979198e-01
3.573583545668044259e-01
4.688842649649782590e-01
-3.246786667355969769e-01
8.502313365265896650e-01
-8.107822875203354318e-01
7.954123843604476995e-02
1.137419044458092277e-01
6.416616467543589941e-01
1.779501447539804104e-01
8.049478733323831570e-01
4.947809974340517947e-01
-9.891040444633594220e-01
5.047002715078119373e-02
4.454486515998847818e-01
4.885080588213979169e-01
-4.697901093464134092e-01
-6.436692257951905916e-01
-7.444006569698169429e-01
-6.183512780443762846e-01
-9.550627098667652248e-01
-7.399854337756333056e-01
6.559071898981676529e-01
-1.529398667025867464e-01
-8.629355812931003289e-01
-4.989574003346008979e-02
-7.716486108052817983e-01
9.429653055759090741e-01
-7.022514414295946139e-01
-1.359829693257093020e-01
-9.252615651130973173e-01
-2.088729064512475642e-01
-2.526367437995067355e-01
-8.830741363344651873e-01
-1.671996877127734926e-01
-8.815728200762780187e-01
-3.748654101051918097e-01
-6.932456436110228104e-01
7.213328951160380420e-02
4.040889793794586460e-01
-3.114517453749348075e-01
1.669252038245905290e-02
-9.187543480722104583e-01
7.584517758076625427e-02
1.164813545461531596e-01
1.980993603660026192e-01
-9.735440378416742035e-01
8.848904481060204663e-01
2.279383984466960555e-01
-1.166654459578198022e-02
8.477743727008142383e-01
3.783411055739205331e-02
-1.548411944997358791e-01
-7.180332834116243124e-01
3.094214885557116101e-01
-6.403842151282370665e-01
-9.228344505002330500e-01
1.428405487635966420e-01
5.393736010088494570e-01
1.352933288691362534e-01
7.082179510241113363e-01
-1.716884846602795278e-01
-3.082332878725992931e-01
-7.307495138115911448e-01
6.293066718765170098e-01
4.934402528285988243e-01
-4.792624451453517676e-01
-8.646883245008827323e-01
3.048930766517787827e-01
1.735258214712187552e-02
8.046615458085644157e-01
2.949046729387228005e-01
-5.896709675105848980e-02
-4.885903881023039297e-01
-8.542414456576428172e-01
-8.245478773383236870e-01
-2.404150779701197393e-02
-2.118751786493036082e-01
-1.033077931981360997e-01
-4.233210256432358154e-01
5.907788494783388078e-01
3.926742208701443637e-01
6.429835082402099999e-01
-9.990414702416572368e-03
1.440328170334381763e-01
-2.892357695334903944e-01
-6.284693200054600748e-01
-2.695865890154132138e-01
-5.723448345153308026e-01
-8.700393862047928195e-01
4.449499641873508882e-01
-2.116591743483002830e-01
6.277622553908146497e-01
-8.280670561275516040e-01
-5.510952901765466816e-01
-3.376181955739177010e-01
2.486719633358489556e-01
-9.787184677182203529e-01
-8.731732192335321940e-01
6.858519509024636474e-01
-4.193417124267313500e-01
6.051441934190380234e-01
3.102059810735391387e-02
3.732202385280463108e-01
3.580219377170976713e-01
3.755231688235141085e-01
8.245488552388000603e-01
-1.410407597365641585e-01
6.295028572259084854e-01
7.835719936567278054e-01
-6.026488198786872363e-01
-7.244740040882025056e-01
-1.974261492627367165e-01
-6.666327354270111805e-01
-3.138001246320811788e-01
-2.446837891133493148e-01
-8.510679785864292413e-01
2.536323181061939103e-02
-7.576868082175414187e-01
-2.491630198383949502e-01
-8.188705826181508218e-01
1.370986736467121325e-01
-4.638624321165047970e-01
-2.708521114079229797e-01
5.245578498924114985e-01
9.646477558442443367e-01
-1.375132865401762494e-02
6.084396731622399024e-01
-3.335056645133478437e-01
-6.240052049877848894e-01
-4.841562876629152967e-01
4.141818750355510392e-01
5.058310527825577996e-01
5.447349255590638872e-01
-1.307682885374736870e-01
-5.571924963852674662e-01
7.614264289082073311e-02
9.352434037844645776e-01
9.031312630863674862e-01
-5.295626226052108088e-02
5.994458005321812166e-02
9.256508826139466795e-01
-4.772702518025668805e-01
7.054656278572177808e-01
1.660999077306590799e-02
2.826542308885071630e-01
4.472448001116704486e-01
-8.585318112146527181e-01
4.265944258018383728e-01
-1.910865827515537685e-01
4.309704575042963004e-01
-7.272453181331672845e-02
-8.100216196871246055e-01
-3.366896709003031063e-01
3.527999160589312400e-01
-4.941641244963301816e-02
-9.423328309651550772e-01
2.060275417327912528e-01
6.455591734190031517e-01
9.064722613705056276e-01
7.486548550817155867e-01
3.272537559531663032e-01
-1.936781137050289647e-01
4.361549670729740757e-01
3.588492483788343623e-01
-2.624363306612262914e-01
9.860681463386926637e-01
-9.657183090757714972e-02
4.171679593980821554e-01
-8.177453981443314479e-01
9.241322163890264285e-02
-2.559519370356539980e-01
-1.531152816189154109e-01
-9.524049951833730709e-01
-2.511437428250344883e-01
-5.175158046417496216e-01
-3.238150386766713851e-01
-4.273534777830476639e-01
2.240528540263335699e-01
8.184809038365647993e-02
-9.287315707682628485e-01
-4.614093234935399135e-01
3.367994531589808549e-01
6.732041495141476428e-01
-7.788947958730489951e-01
5.512192718146913251e-02
-4.036531629331807647e-01
4.475118818358307937e-01
4.690688342165569846e-01
-6.780709462912666297e-01
3.861703397890270395e-03
-1.863274549273914449e-01
-5.129235063408323914e-01
-5.048158189621019254e-01
6.357272111654950209e-01
-7.052581777342756819e-01
-5.229680180040763293e-01
5.882907639494114882e-01
8.740044271732982928e-02
6.329675728779171617e-01
-9.847179460507318183e-01
8.411288236471392565e-01
-7.787740134993215158e-01
-6.879944902747203717e-01
-1.419808471937051841e-01
3.701615484530544897e-01
9.123634532411766251e-01
-4.174721350448191703e-01
-1.718351096798569344e-01
4.910134652777733422e-01
-3.569613115546905746e-01
3.571189883575327517e-01
3.511770812947361264e-01
9.889354961364671404e-02
-3.944455325959683734e-02
-8.524121071563859342e-01
-7.509865028053845926e-01
6.083900883813819771e-01
1.245646207882513679e-01
-5.269286081856316972e-01
-7.945202542890861253e-01
3.540987087472866612e-01
-7.787737818919668875e-01
-3.130243722295986686e-01
6.016149058843982544e-01
1.320703763858421809e-01
6.520934851830042511e-01
1.804003021519258176e-01
-5.135060127532082852e-01
8.024121327385609348e-01
-3.162801027983288549e-01
8.236788402679655618e-01
7.712145312065354918e-01
1.184715760510839377e-01
-3.235464153798295328e-01
7.722961372789447498e-01
2.519829536973310358e-01
9.950417337129335849e-01
-1.725651481355963135e-01
8.303715021573985222e-01
-2.691684469159643101e-01
-7.227705212740027640e-01
2.073885799138186492e-01
7.788520117534987186e-01
-2.941551340883650223e-01
9.761021047284490493e-01
5.804375743237144558e-01
5.711215109474714335e-01
3.751171932693659894e-01
5.425179576380423363e-02
2.168599948383449494e-01
9.060921624360582793e-01
6.844677705350485919e-01
-9.130515944174795173e-01
-9.107786416271146379e-01
8.356433601668977751e-01
8.034324116826205842e-01
-6.764605045784457538e-01
-7.815276576924616858e-01
1.411001783187493253e-02
-9.504284812449923514e-01
-9.248396496591662075e-01
-8.111720819057990362e-01
-4.013090289597704974e-01
-5.166513780606629691e-01
-7.964217344612338767e-01
-7.970847410212948958e-01
-1.200055827087747051e-01
-1.610658132268001363e-01
3.763033832188551475e-01
-2.588456422553173653e-01
-4.968445791019013846e-01
3.226682974139019056e-01
-1.705445809244698907e-03
-1.750585735615333149e-01
7.875507488749187157e-01
4.787704169749977812e-01
3.570897313093610581e-01
9.218127894645267162e-01
-3.929458109786971853e-01
-6.031311355424080478e-01
7.952437373903871176e-01
1.743352042394168411e-01
5.461226438635840008e-01
2.533577750416784458e-01
-6.863402965439304726e-01
-2.920783232463153301e-01
7.569559336465974120e-01
-1.504650575315251704e-01
8.064915377520791573e-01
7.842553758614230208e-01
-2.746917567459574716e-01
-9.502289281079190353e-01
1.027247174716192646e-01
-8.834331357445610600e-01
5.217888162536501451e-01
-6.976779020733967496e-01
2.563328861052855956e-01
7.439670113513363603e-01
-7.686157640915098899e-01
-6.425732538629578272e-01
5.309204000598966022e-01
1.890304124612864900e-01
-8.916673535991528343e-01
1.809810959416058296e-02
-3.851919115498381174e-02
-8.585191008365289367e-01
-8.869142378951788697e-01
1.205144059912539589e-01
-6.533095810140234772e-01
-7.587044310928476865e-01
-8.381986005773898185e-01
4.979826159772189342e-01
2.326156718173888471e-02
-8.108328395522352849e-01
-4.127344655325613232e-01
2.731160801175194219e-01
-6.769549677759234552e-01
-9.144673099320961285e-01
-1.297625579715451227e-01
6.849145377512830812e-01
-5.544496837529728772e-01
8.628833860507234554e-02
-3.646536485211249179e-02
-7.969293516743971573e-01
-4.696498909214474882e-01
-6.663314979409085126e-01
9.443547446618771879e-02
-5.394925287584551032e-01
-8.625547398994488635e-01
-7.841674257975224105e-01
-4.583724119061005631e-01
-4.326263436836488285e-01
9.977495235617790392e-01
1.812413205611582701e-01
-6.434116290536671112e-01
-7.090573368646642116e-01
-8.350118833814801356e-02
1.758518116936957920e-01
-3.878203486339319994e-01
9.686060857189253692e-01
-9.326542600436715791e-01
8.541891241308603444e-01
-3.609383938449379770e-01
-7.814693906759710984e-01
4.206254278835404037e-01
5.967506382375309393e-01
3.035101702017928282e-01
-5.341976743998753108e-01
1.110814186427635519e-01
-7.752746645302999173e-01
6.258768517714008439e-01
3.524152755604974541e-01
-4.075754801161843854e-01
-2.001679748278224480e-01
-6.003216254244820860e-01
-7.254976008426892164e-01
8.991295787907978010e-01
2.313205681198886587e-01
-9.589328375329138066e-01
5.887367957428815135e-01
-6.165603333682723175e-02
4.132317452964753279e-01
7.672354396042797564e-01
4.012513148854421896e-01
9.789420778879796003e-01
-9.430560624297910088e-01
7.167346269905765510e-01
5.774668004784526687e-01
3.619467969256051632e-01
-5.747094483099648432e-01
-1.637023636961969508e-01
-5.874097912907938479e-03
4.634717735526037163e-01
-4.787347378274557919e-01
2.415533459338914390e-01
-6.657603419899043029e-01
-6.732618075898528787e-01
2.679155920573330629e-01
-1.681551425956229195e-01
-1.831423427252460989e-01
-5.670390306356161148e-01
5.873595336922501353e-01
-9.686914556179806457e-01
-7.555146148218820912e-01
4.190272266268173507e-01
3.960201892344479280e-01
-6.200861702303630540e-01
3.578514204933249676e-01
-3.602991287831025513e-01
5.846384069640999659e-01
9.812318613375514698e-01
-3.625239516262486195e-01
6.585785026824888533e-01
-2.839769038823181102e-01
-9.188447822654088881e-01
-3.413147617328429195e-01
1.866799927689126726e-01
7.848943950941509318e-01
-7.803267262785162917e-01
-3.461437639560391855e-01
-5.125776589912112158e-02
1.209128208867187304e-01
-1.475319225454541083e-01
-1.653002614895491273e-01
8.206973750724724237e-01
-8.176122136971224474e-01
7.902970044272876748e-01
1.507528244816069840e-01
-1.287018925069127739e-02
-1.749059510045101185e-01
-1.806145145500976934e-01
5.114310144298372940e-02
-4.460507257530301750e-01
-2.589818307575382228e-01
2.333931655811127825e-02
-8.791463898156484102e-01
-8.395998889043598812e-01
3.538493309867032366e-01
-9.655144087007114795e-01
5.527281696301589164e-02
-3.485220466974028319e-01
-6.715371997559074213e-01
-5.881349778089195457e-01
6.310058511204497123e-02
7.433296905563475665e-01
4.919563910876285640e-01
-3.230370166378326857e-01
1.917858584798091126e-01
-6.448363601366882136e-01
-4.881722310900116213e-02
6.018783187869023443e-01
-8.450161199729384620e-01
-4.907385165219435574e-01
-6.150989248857321456e-01
6.803835152022090771e-01
5.565094910590171473e-01
-7.151097673607833549e-01
5.784559250848446688e-01
-8.507747356564692165e-01
9.152270600348126894e-01
1.105913454897395898e-01
-4.255367908694551726e-01
1.290210190172884630e-01
4.463889162309921943e-01
3.710164940678839507e-01
2.918052051953206050e-01
1.590928466524790252e-01
7.707998318994948583e-01
-3.601545711332392319e-01
3.336669148911015625e-01
-8.535575641996275831e-01
4.167311131583144590e-01
-2.731510079204411134e-01
-2.844158220072336984e-01
2.130667462383701860e-01
-4.609712005108010935e-01
5.137642955908436893e-01
8.974080720269466127e-01
9.427272090524803083e-01
6.553371104413183712e-01
9.799771967458950073e-01
2.185411800832868234e-01
2.391141326348369400e-01
6.949709130925851852e-03
6.185446508859289150e-01
7.777633192851500787e-01
-4.718726775172048526e-01
-5.081433989298549392e-01
4.767262827956606497e-01
-8.659358362926126151e-01
8.291640476603363563e-01
-7.173339060138299583e-01
-3.783856365593707416e-02
-1.433653127470946309e-01
2.297545478099085603e-01
3.045990540682723680e-01
