-4.678160439115630620e-01
-9.036543872200503147e-01
1.795086808893107788e+00
-3.984754186877793813e+00
-5.224649703369532716e-01
6.520705499549124262e-01
-2.355048758776554951e+00
-2.057467360047528615e+00
2.251311442902028226e+00
7.877308265339354465e-01
5.048680300745258531e-01
-7.467527378842814478e+00
4.917361377316801452e+00
-2.010991132887887112e+00
-2.016060757952487403e+00
3.137340780614533475e+00
-3.932977419970865030e-01
-5.478515572783616561e-01
-1.629820664772265948e+00
2.815557707373710361e+00
-1.475933111083701732e+00
8.760511376016592022e-01
3.686737230234455431e+00
2.488555238688349824e+00
-8.740615149866366451e-01
-7.642729470656473012e-01
7.184910266461923545e-01
7.411700297244665503e-01
-1.552828133742403249e-01
1.785152007021784559e+00
3.889143080765354643e+00
1.439118650360492746e-01
-1.234507384505725724e+00
1.677224525897901275e-01
1.847165722681157307e+00
1.990118797067942813e+00
7.596367242638341066e-01
5.646521126143072555e-01
5.430840573877803168e-01
-1.684977772478045921e+00
-3.714880671427007730e-01
1.916030569334241429e+00
-5.120739954462959487e-01
2.056804994596685698e-01
1.491570279083935135e+00
-4.166919047916242569e+00
-1.006330584287065344e+00
-1.839387205688767901e+00
6.586316185891936126e-01
-4.712203637068827611e+00
2.322400164117699450e+00
6.800592197597079558e-01
9.866600404550749381e-01
8.875053728688149235e+00
1.836006270917659666e+00
-9.639167591835988702e-01
4.569711491117431912e-01
-5.704846016685398702e-01
6.458108094854869696e-01
-1.197099914999222969e+00
7.537937239423075475e+00
4.878032083239720151e+00
5.055272601483582484e+00
3.815769836953139649e+00
-2.400842405429998161e-01
-7.438676228047883532e-01
-1.499874744441811902e+00
-1.434902129931745929e+00
1.625777492379958389e-01
-2.176732819607805069e+00
-3.453029974078917874e+00
-9.772737151931990551e-01
-1.489782116468976847e+00
-1.003673501243545818e+00
1.054939588503582132e-01
1.339938906149021336e-01
6.960959396381177777e-02
3.051854117300583646e-01
4.928652323427549220e-01
-6.645979020079089139e-01
-1.956833261033245897e-01
1.581766736705059628e+00
-5.004339972631517419e-01
-1.192430582810255046e+00
-3.910564552025560525e-01
-9.853837483876486114e-02
-4.525625196630287839e+00
1.352328781121654666e+00
-8.471939679305276472e-02
4.635089597873530698e-01
-8.968286878087787795e-01
3.756018111637919599e-02
-1.278243254073808455e+00
-1.350885960520865847e+00
-2.905905717385862008e+00
5.600577003408311327e-01
-1.098702844259727140e-01
3.066320113766077604e+00
-1.601619668551362841e+00
-5.497702889697116124e-02
-6.801015059046913169e-01
1.367794147369153779e-01
1.407388368910065690e+00
-4.708363935479596307e+00
9.070044174659003255e-01
-1.190144212489520958e+00
-1.134022314275313414e+00
-1.993304414583639828e+00
2.016923792762223666e+00
5.491864767054356555e+00
6.248142649811059268e-01
8.757661687117461735e-01
1.515438850242369240e+00
1.764151995765876668e+00
2.167237177214443644e+00
2.560249782666806695e+00
2.097327526839268597e+00
-3.390240909530166658e-01
-3.532203886346961252e-01
-4.149548843938051235e+00
-4.386408239093476658e-01
-2.706091076857287669e-01
1.058262661523867276e+00
-2.385565716116018198e+00
-3.169075237102840781e+00
-2.078562122900882603e+00
4.301524524924039028e+00
-3.698307870754547366e+00
-3.825276939404509857e+00
-1.766179007333530393e-01
1.095012549983713501e-01
1.552089934821027084e+00
-3.282628792360008152e+00
1.440868738219962808e-01
3.052839768025364275e+00
6.036698130001130203e-01
-4.300131617095914294e+00
1.624320561798714202e+00
-8.439811694960398514e-01
-2.647520354320276326e-01
3.804842966663400383e-01
-9.660212357424838858e-01
-4.412449854911952851e-01
-3.015705928209347242e+00
9.536126619118652226e-01
6.517234947531307387e-01
-1.632395588729176117e+00
3.391773212076518162e-01
-5.999189871584341915e+00
2.353814722452518993e+00
-7.011438619077954293e-01
2.062201528454802535e+00
2.503483801096740624e+00
-1.380010407700674291e+00
-8.481661978888068720e-01
-8.750449960477550970e-01
2.080880753088730550e+00
-8.991098191101370984e-02
8.007321319824133310e-01
6.134998612659205985e-01
1.597420569727698636e+00
3.260586345027533639e+00
1.208423803549821818e+00
1.981671312741719859e+01
1.184541322046372080e+00
-4.338264060810105960e+00
1.801494953573239632e+00
2.493963580680642056e-01
3.369711554629670203e-02
1.782615643602101896e+00
-8.385336000148190250e-01
3.655601818020108862e-01
2.813418754858544979e+00
-2.189646438172796472e-01
1.712417119816302513e+00
1.270173570165566979e+01
-1.461584127812005196e+00
5.563309114640214048e+00
2.839692996908066203e+00
-9.125734603773945075e-01
-1.185462771311360264e+01
4.607446522741531325e+00
-5.406754247984094652e-01
2.078068879708425687e-01
8.774908932933731531e-01
5.230847694339009479e-02
1.634374754615459890e+00
3.818177014133525837e+00
1.094924110692482300e+00
-4.593511101880964342e-01
-7.336141823107216187e-01
4.097809636661108312e-01
1.669672814179307574e+00
2.888890741303450138e+00
8.960108059073776943e-01
2.109952564143971365e+00
5.897931606770658863e-01
-1.127716158230141819e+00
3.630958782799164064e-01
-1.367744468802174485e-01
-4.487424635691997787e-01
1.853201147555168404e+00
6.513186368452382746e-01
3.098078768052838328e+00
-6.730404759585978169e+00
-1.779514046825954932e+00
-3.059372206399863625e+00
9.308833166421198735e-01
1.145793017415811743e+00
-1.096263363894493637e+01
-2.306345989806572572e+00
3.306697551971645055e+00
-2.381824242447912354e+00
2.804597180642249832e+00
-3.736561120914988265e+00
-1.392111685570877611e-01
-9.359655700598653594e-01
1.265925366944710362e+00
-1.056021961151462962e+00
3.257361357439935157e-01
7.082095848731885523e-02
-3.287806376094843497e+00
-7.947238876491111159e-02
-1.106055469137813496e+00
2.633769879957873261e+00
4.311213229908206213e-01
-7.231673269126497772e+00
2.249012786501359606e+00
-4.414876074553794050e-01
-3.957129617005166189e+00
-1.725881546500358743e+00
-1.186930415042641629e+00
-6.000095762505885943e+00
3.071075100979091255e-02
-2.615796095716737213e+00
4.000193345760878039e+00
-1.257227475867507938e+00
-3.443862815039152370e+00
3.161749180080744015e+00
2.346786308713451064e+00
-1.440933962627463094e+00
2.692950670082356890e-01
2.516611551982791628e+00
2.948676282617328503e-01
6.781514958756250877e+00
1.768383201872047117e+00
-6.216086565621898874e-01
1.909336791966985913e+00
-1.387658838331745359e-01
6.320188495803907847e-01
-3.035756068383038908e+00
-2.584745902132608908e+00
8.684949844906169059e-01
-2.462841928312826667e+00
-1.281510381420784883e+00
-8.978514375373400913e-01
-2.797767598765409924e-01
-4.029844706916441588e+00
-7.531335086797044109e-01
-5.842833483833312691e+00
6.326090189376840645e-01
-5.652003648886448905e-01
3.678589480920157584e+00
-1.395827030721275230e+00
-6.586086790574301464e-01
-5.240015461597625546e+00
-4.932273048706480978e+00
1.104102426895371858e+00
1.174464842433012191e+00
-3.583793149081737628e-01
-1.230035068739178117e+00
8.392809171642229282e-01
1.226017276594935312e+00
-1.888957800186360947e+00
-7.328974826265907683e-02
2.942743751283577680e+00
6.761958897695873105e+00
-1.536785680991300529e+00
-1.706276639871268930e-01
2.927246001467238123e+00
1.464181069289445025e+00
-1.446513499770822664e+00
1.252585860019884034e+00
1.530417611608588357e+00
-1.026798445285718175e-01
-2.253548426995384713e+00
-2.007535931397319562e+00
-1.566494948722610747e+00
-1.346181511912466489e+00
-4.655941745469365789e-01
2.316193797978568725e+00
-3.980235199896693388e-01
6.342519606518202124e+00
-1.487560295426561430e+00
-2.466081090657002317e+00
-1.380434175017544396e+00
4.529824248541360898e-01
-3.907858295361161804e+00
-1.357450013949856871e-01
1.855869482171661200e-01
-3.621234948844768819e+00
1.206450973235350999e+00
-5.243206782716965941e-01
-3.843174899984295734e-01
2.531437062031726137e-01
9.952858436962407351e-01
-2.101134750949002594e+00
2.326621775531081404e+00
-6.051275289360185106e-01
1.840037736325177642e+00
3.163342248555792047e+00
-9.151612143705885050e-01
2.244772551275575623e+00
3.082629488174252863e+00
4.545909493191935269e-01
3.543808166839354623e+00
-7.247076481434099327e-01
2.724689584623337435e+00
3.781783088921233937e-01
1.024116975237566951e+00
3.729368983893090572e+00
5.515390628207489376e-01
1.324138753395112555e+00
-2.030641402736088175e+00
1.525657159260675799e+00
3.632780539808002640e+00
1.657321046407449927e+00
-1.988105414784082869e+00
3.701869552874411107e-01
-2.049091491941775534e+00
-3.341680902667981901e+00
-4.742715100540606521e-02
-4.886516264418159783e-01
-5.766873740897358880e-02
-2.855308208766068612e-01
-2.817476431795947756e-01
-2.145802711695111498e+00
-8.979398135377302248e-01
4.829818784445488511e+00
1.162703249047615461e+00
8.982331646808477954e-01
1.247401166914309023e+00
2.894458272738595905e-01
-1.351661793421260915e+00
7.839594387126224140e-01
8.788542944619246455e-01
-1.780977843523647575e-01
1.023114899411841749e+00
5.840164705204593076e+00
1.946436295722565379e+00
-2.237471630070180795e-01
-7.231343823556195538e-01
3.054241015192057929e-01
5.544898087025396105e-01
-7.741253170214650314e-01
-2.046769035709872231e+00
-1.068524054323024136e-01
4.976338653825130853e-01
7.915072316447262502e-01
4.197906919980439966e+00
-8.930534141552510796e-01
-4.118658740553120978e+00
-2.939622906258435364e+00
1.829723576786237704e-01
4.908396427213004287e+00
-2.314526871793665119e+00
1.093306254650990628e+00
6.494608253235085726e+00
-4.094115089321466727e-01
-9.368786481404582922e-01
4.816296281072798280e-01
-1.809276318968716879e+00
1.246913183257500890e+00
8.548001385195466151e-01
4.007411351911308373e+00
-5.380839059131015123e-01
-1.350985539575355610e+00
-3.056116402349348338e+00
1.280159171547091024e+00
3.888217593671616790e+00
2.061904817230265863e+00
-1.793896523938198762e+00
-8.960851771076993044e-01
-3.783835375165121917e+00
-7.180751344959046545e-01
-1.192479428891445870e-01
-9.136377341547212705e-01
-2.296899972627583164e+00
-2.143161084051303789e+00
-3.177322038923209302e-01
3.430049156329892046e+00
-3.546320822781925397e-01
-1.829602773177048336e+00
6.370881985171364947e-01
-8.414199258992889341e-01
8.991249976174954250e-01
-3.374382115266035598e+00
2.112185328297091491e+00
2.311355201791335467e+00
3.372192352660134951e-01
3.214649295273698026e+00
-1.615352345710996396e-01
-2.522556661809418621e+00
2.921056022355247084e+00
-1.145091724717625326e+00
-1.633209863588114263e-01
1.361673351690781408e-01
7.033349642086407227e-01
6.563955028416998960e-01
-2.604291309690754730e+00
-2.335123021663115583e+00
-4.249435910883047285e+00
-4.775604760465346210e-03
-1.973782903750895601e+00
7.371017323448832981e-01
-8.303173820605016520e-01
-8.216686407130778136e+00
1.359112686166977113e+00
8.678805085248200157e-01
1.107447539143768117e-01
-7.879092812272080470e-01
7.048599252212248700e-01
-1.705806770302497499e+00
8.666304399114369561e-01
-8.446768113016209223e-02
-4.626256725839200112e-01
3.691463935197290880e+00
-2.159019593508194390e+00
-6.003208504975343196e+00
-7.852511543616600420e-01
1.129598490312101911e+00
6.316252896815855999e-01
7.926111426557356232e+00
1.593540783745502010e+00
-3.023644550713861179e+00
5.633336854325569298e+00
-1.463296856085692488e+00
-2.903282673182746798e+00
-1.360415958326056440e+00
-1.181508887483807557e+00
-3.626986451231454023e+00
1.403051609460098659e+00
9.060185511861379437e-01
3.308491769199443322e+00
1.003564072518278838e+00
6.294571442562104657e-01
-2.651618425025181747e+00
2.938503246242067490e+00
-1.404798466853034444e+00
-6.899872551255770148e+00
3.649510692223270070e-01
-1.323971426923729267e+00
-1.227258953632301086e+00
-6.845240475846006589e+00
4.392926724669493410e+00
-1.489935681232384734e+00
1.207957236601336914e-02
1.946806633505340001e+00
-4.739284035942397111e-01
-5.147206634825480798e-01
4.897824339007279537e-01
4.353533511771431330e-01
1.396716244774742099e+00
1.617001381104451685e+00
1.713330703435220093e+00
5.655646512272756166e-01
1.020491881972393822e+00
1.156541716190798041e+00
-6.367107390771115094e-01
-5.167473773681410698e+00
-8.919836864034569324e-01
9.042980972495198166e-01
-1.974975090771585062e+00
9.778461461375608232e-01
8.367644413557995264e-02
-1.225965241218492041e+00
-1.936878523918454276e+00
-3.922155814581595568e+00
1.470076084334932975e+00
3.049829612133714729e+00
-1.238545611427866255e+01
-5.603491535173257265e-01
1.767673299404276255e-01
1.837244409470860873e+00
-1.824353746050566105e+00
-1.642849893658780758e+00
-2.283088301448374047e+00
4.496324973525747115e-01
2.939597453969070351e+00
3.696201670832676700e-01
-1.546821298919814458e+00
-5.810792739509975657e-01
7.076325497261863884e-01
5.233446283908299579e-01
1.021828620894039696e+00
5.759011427496405489e-01
1.217839691753329179e+00
-3.643537200117596075e+00
-1.436774712594386938e-01
1.415014533122270490e-02
3.398354272685942146e+00
-1.159926722839913493e+00
1.994493393611183052e+00
-1.008216693059099445e+00
1.561326643399221781e-01
2.940236373897134881e-01
-1.374980702413047373e+00
-3.191816102541749967e+00
-7.349536243285082371e+00
4.804877741481281994e+00
1.237240541233249891e+00
1.783527928439389232e+00
6.531224783801729827e-02
1.226894210664360108e+00
-1.268573013120649184e+00
3.555837366723128556e-01
-1.037861151587473607e+00
6.523864248647416597e-02
1.043895932970505536e-01
-7.455329468116667080e-02
3.936993634624806893e-01
1.996978111388640009e+00
3.882983612332829848e-03
2.382209305565409219e-01
3.033349897910269544e+00
5.527250226222141238e-01
1.262034297298688212e+00
-3.701405351748707773e-01
1.853812306071173088e-01
-3.972635172526453484e+00
1.085166825711249894e+00
4.600613224553384839e+00
-5.073603762708367437e-02
7.526238159976077480e-01
8.419620179803577464e-01
-1.398000172959731058e-01
-1.060983045963781279e+01
-2.103810820216508226e+00
-1.304158832563687143e-02
-2.973024693977350363e+00
-1.873614998610063420e+00
2.979063115421243246e-01
7.300546555939356752e-01
1.802757610918939823e+00
9.729844545450657689e-01
-1.054621820559116796e-01
1.570690564920064203e+00
-1.311963869526077131e+00
1.656044158349886830e+00
2.329183248338015044e+00
5.716835691671668940e+00
-1.043391118051886401e+01
1.282265221323229731e+00
-2.881364040988060982e+00
1.158037086647971226e+00
-1.473892786469340743e+00
5.097601700520081991e+00
-1.011718898075446127e+00
-1.999944623916047437e+00
1.744001218141770782e+00
-3.099650142417373910e-01
1.151005991669856732e+00
-1.609316368023364419e+00
-7.898911553749781156e-01
-1.046201660068948103e+00
8.552644762052649119e-01
-1.938797223619874721e+00
9.850068370570573550e-02
-2.514174280509008153e+00
7.303379492563143449e-01
-6.680331576462562593e-01
4.910341679670996995e-01
-2.586515386043738207e+00
-1.570491857514978662e+00
3.016304259435932389e-01
-1.273945468861589214e+00
-2.481962147726218260e-01
2.477270245387975245e-01
2.222224246774272327e+00
-1.645835637903818593e-01
5.333075425109895518e-01
7.187092896609971859e+00
-3.199519026016738876e-01
3.402842975994436969e+00
9.925309856309719736e-01
3.432143811724853943e+00
-2.109460807029881479e+00
6.311996678868019295e-01
3.838776891555240045e-01
-7.036236674592061036e+00
-5.378270309321449005e-01
-6.664446743302230303e-01
6.457132556796761236e+00
-7.333694790169128508e-01
-3.645948704197410351e+00
-1.548251516196704092e+00
3.448933593629610606e+00
4.125820329422477784e+00
3.462887844483883093e+00
1.185016963541008606e+00
-4.570288786885733368e-01
2.017157830510019956e+00
5.446975088336201143e-01
-7.981746637265035860e-01
1.139817109804969197e-01
2.660874232769228076e+00
1.475860532387629265e+00
-2.124463051428482796e+00
-1.798403812708295746e-01
1.080841789453415303e-01
2.791707186242886607e-01
3.140083431229546695e-01
2.665858549743679973e+00
-4.529140484453264559e-01
-1.008607894346787992e+00
3.410175057016883587e-02
-2.325808506637065953e+00
-2.570825849516262807e-01
8.973366343482451768e+00
6.079806231174925690e-01
-2.571832225473377864e+00
-1.639679447575243421e+00
7.900285395323016768e-01
-1.669363950297115373e+00
2.088877905693601877e-01
-1.704912911882923598e+00
3.504386421591898504e+00
-1.407497085460691078e-01
-3.383351414371398302e+00
2.202540821546717265e+00
-1.721457129095584349e-01
3.287654782821773924e+00
6.626202360636839650e+00
3.499333657059703562e+00
-2.870670209998657629e+00
-5.714160227536612124e-01
7.415252504421661062e-01
-3.644645573374938885e-01
-5.520220221262930771e+00
-1.576397439360837538e+00
-3.585600097206119719e-01
-2.586627631127120797e-01
-1.428389519337088798e-01
-4.466264586673369119e-01
2.219828873858733231e-01
3.698066150067620406e+00
-3.655781544887966028e+00
-2.895692300652187079e+00
4.700308839433252395e+00
-1.054719923945212301e+00
2.385180584332719178e+00
4.343049789725819565e+00
1.506740426642758202e+00
-6.893436263272240128e-01
4.367865281015523848e-01
1.368913808222202322e+00
2.860425001255276101e+00
-7.598348947565439770e-01
3.905539734538536756e+00
4.832542707850693731e+00
-3.570977667074092476e+00
1.155969278062151107e+00
9.017747161232415598e-01
2.329261276236065825e+00
-1.796515483780725786e+00
-1.683274561953902682e+00
1.005880468020411422e-01
8.618920019996951787e-01
-1.016533337370787438e+00
5.924908549761211951e+00
-1.649491065510859444e+00
3.812895425042452491e+00
-2.653819529532726484e+00
