1.779576227229489938e+00
-9.872483752082545916e-01
-3.823998864606353854e-01
-4.245394491145135230e-01
9.923879016451967461e-01
-6.607005429787163875e-01
8.312573024500342633e-01
-8.107637993317923231e-01
1.627415843274248597e-01
7.449320355285660167e-01
-1.579396954406570297e-01
-5.698815316466774306e-01
1.605339868580679119e-01
7.066171414690824992e-01
1.056493465489939165e+00
-1.578275791928269722e+00
2.911519650530719483e-02
5.323963178440486166e-01
-1.712782794876503700e-01
-1.718785535952100929e+00
-8.693603047782472171e-01
-9.154784358997692939e-01
1.158032625331261389e+00
8.076947229251725258e-01
-3.706706801825004893e-01
1.532296366664679166e+00
1.902450473726297053e-02
-1.024149431421314871e+00
4.140783683623593392e-01
1.181217616922685787e+00
-2.459994904071862998e-01
9.608816882707987839e-02
-6.867459564026235919e-01
9.070084394789857951e-01
3.609166638132827454e-01
1.724945547820350700e-01
1.507582636305092039e-01
6.594082610560439428e-02
-4.740172677178448035e-01
1.033729009574221758e+00
3.460457733079756459e-01
-1.506874344936375731e+00
8.525536848202610596e-01
1.083643176402619313e+00
-9.998153783876059242e-01
5.059276811910164984e-01
-6.113108003480722807e-01
1.390641475263319604e+00
2.257454131291865562e-01
6.778606083224705259e-01
-3.491867050564160246e-01
5.268646164374746199e-01
9.814199648936501319e-01
-1.211631157674675774e-01
6.817585999152555587e-01
1.919847317986833057e-01
3.153291392732164855e-01
8.310970174070300143e-01
1.255234503048225037e+00
6.558383865718689365e-02
3.744452060077363420e-01
-6.198510363812846924e-01
4.169140964368712732e-01
1.942980069014265676e-01
-6.652183066497815989e-02
4.998363636643348151e-01
-4.762506297041627645e-01
-1.338516642584852701e-01
1.707779522665326677e-01
-3.466431735547752524e-01
-1.749656002038762481e-01
-5.701848373594134989e-01
1.242794772946752557e-01
-1.234492683671424951e+00
1.906071711361414067e+00
-7.420006657906237368e-01
-1.418450684494401814e+00
5.670896804162137705e-01
3.481391005797632721e-01
-1.507564549708489521e+00
-8.107706644359002901e-01
-7.591110433052939976e-01
-1.213365984185343915e+00
2.173932777468726429e-01
3.744680768370922674e-02
-7.276551696314055295e-01
-4.225428045792659071e-01
-1.161987061234266844e-01
-3.593188036237381366e-01
1.325608255637151123e+00
4.986970813499798094e-01
3.282810653899130293e-01
-3.794215431335337119e-01
1.166024098008634935e+00
6.407308365907429248e-01
8.081808987965536373e-01
-1.335100025116775502e+00
3.002913837344089454e-01
-1.764445562982788762e-01
-1.218549404088232313e+00
4.657967455645178889e-01
4.561632248594235661e-01
-5.880800257394031005e-02
-8.698257421125406008e-01
1.331351661522253149e+00
1.212598499701624116e-01
7.008927676731057099e-01
-1.242501724429347920e-01
4.070297300500987925e-01
-1.179317226947508845e-01
7.700008288274950985e-02
-3.895867356742359622e-01
1.678664632124877709e-01
-8.022981956533087322e-02
8.138271196762452142e-01
-6.198149034652773448e-01
3.598079279113529094e-01
9.350594122096500538e-01
-5.418040111779925949e-01
-1.094705697021331581e+00
6.933603688202150117e-01
2.121405384124939175e-01
1.121507456209819287e-01
-1.218277275817592153e+00
-5.413776847992026742e-01
-1.876168317976560695e+00
7.261622914201071310e-01
3.485296260022164860e-01
-3.177392200162556524e-01
2.044760740764000606e-01
-3.781163044754038416e-01
-5.360367085132156095e-03
5.928965908074002034e-02
-8.758214065449035357e-02
-9.664087150991271247e-02
2.412548080075761214e-01
1.594964692851063459e+00
1.840159363453143238e-01
-4.286286337818744352e-01
8.142867474607632383e-01
-3.855337713741346928e-01
-8.732066969618544616e-02
-9.651651863133778875e-01
-1.800348456949472653e-01
-5.419254302228599940e-01
8.371203888183760267e-01
3.088854101612118486e-01
-1.282972764285015943e+00
6.257423628587053255e-01
2.021036032530146187e+00
3.013561133779046330e-01
1.194412094707514860e-01
5.022401818713781996e-01
8.379247153944842375e-02
-7.217944404026938043e-02
-6.906190284011824998e-01
1.695389869757235823e+00
6.574675855272699154e-01
-2.476516835361591284e-01
-2.184053680470783299e-01
-9.714084907437596783e-01
7.837833846778461400e-01
1.329503964372773073e+00
-3.443533865179849163e-01
1.037791418243458663e+00
-7.285294054666080488e-01
7.024552588691140853e-01
-1.343090956249780588e+00
-1.661823657164239187e-01
1.013205195545266113e+00
-2.664371974763447004e-01
-3.539211929728836026e-03
-1.026927048233652107e+00
-6.269296449077982336e-02
-2.112090963292858337e-01
2.777796519558297650e-01
-7.641470123761543443e-01
-3.826998549231837021e-01
1.029206548585970271e+00
-5.612910978476697288e-01
-4.257131652990148174e-01
-1.211924144523001567e+00
-1.041494981958662303e+00
1.673444072885626355e+00
-2.410375230414608105e-01
3.899581055578527078e-01
-7.236506627022371019e-02
-1.209464909794290888e+00
-2.885226484264455937e-01
-6.639444262366742677e-01
-3.832567772652469285e-01
-1.232458803435641931e-01
3.919042182097038918e-01
-3.682694323777537249e-01
-4.043637950990669472e-01
3.007054088286492677e-02
6.738219799585720704e-03
-2.261340735785332123e-01
8.417535377806774077e-01
3.424574689473875999e-01
3.376015908963155843e-01
-1.780539251653499022e+00
3.915756348085631111e-01
-1.039651163445906690e+00
4.230356636148477900e-01
1.118450814745493460e+00
-2.153862087837253858e-01
1.095567362461338012e+00
-8.539747731389647489e-01
-2.398366950541018228e-01
1.725779119063743483e+00
-9.520252132665452116e-01
9.666773738775733538e-01
-5.582674438322668964e-01
1.692581559272614555e+00
-2.978674707635194374e-01
2.904701786398756203e-01
-3.571971671210290022e-01
-2.118976181835799388e-02
8.623776798868250104e-01
1.468969838487320434e+00
2.177651746827153012e+00
-4.540234299837736520e-02
-6.202414383714688340e-02
8.026671561034116609e-01
4.192244329728312402e-01
-1.896521066194582827e+00
5.494943509294494821e-02
-7.544090443521073164e-02
-3.470417686662770063e-01
1.263011299460843562e+00
4.442867569838827579e-01
1.128360249671900295e-01
-7.596930091823770326e-01
-1.190378710060561174e-01
2.686724628483494470e-02
1.580042993304865973e-01
-1.695616752173818131e+00
-1.482220959463680376e-01
-6.027790253496951856e-01
2.203499194114730275e-02
-4.073640552082832267e-01
1.087190617842024309e-01
-3.800888173754048416e-01
-7.566429867777206830e-01
3.953657445292089179e-01
-2.262219147890306981e-02
1.945956138022000959e+00
-1.977622476022284914e-01
5.339345146928992092e-02
1.235582779155101729e+00
3.613008032627744726e-01
-7.169961913504738771e-01
-5.236873113980163863e-01
1.388146314823681227e+00
-5.674410377157151908e-01
-5.708648168108427789e-01
2.649462087197272941e-01
2.389169800678548339e-01
-5.871745301331200428e-01
8.416926104998883051e-01
-1.732661272522914020e-01
8.958386584964644905e-03
-6.170004177162197179e-01
4.786045268087935067e-01
-1.051774823505091883e+00
-1.345434612613939596e+00
4.972737344555572259e-01
-2.159371593125077593e-01
-8.326208680119109307e-01
-1.761220887715339023e-01
-1.303409455622730917e+00
-1.139613358856212955e-01
2.266413170783175279e-01
4.927124850926920541e-01
1.080164525324391889e+00
4.950240223299725018e-01
-8.195924928921678454e-01
-2.579184343844372895e-01
-3.075779340258830152e-01
9.808278915120135499e-01
1.575643126537472849e+00
-2.130444227893243392e-01
-6.477756935418819140e-01
4.254561453536427340e-01
8.689682390985581373e-01
-1.582487718722307424e-01
1.296018699895549631e+00
-1.360070315866060309e+00
1.696805943751530932e-01
8.819828943371937902e-02
9.806575605563782050e-01
1.597481932506027213e+00
1.370402583278407249e-02
2.215346956935564104e-02
2.667234529892100525e+00
6.212535234847533783e-01
1.503142509959474182e-01
1.260848471377814528e-01
-1.057651827048390558e+00
6.845293105638511344e-02
5.906562966378469115e-01
1.204556860894250292e+00
2.728421263246704753e-01
8.090980291077664033e-01
7.835598578160909433e-01
3.460588601035456957e-01
-1.056336307479731840e+00
2.225633296962793439e-01
-1.597556344819626162e-01
1.828724842816037144e-01
1.988481986494158860e-01
-8.331356321061099690e-01
4.709739492855834486e-01
2.680298383344502100e-01
9.847037025144725897e-01
-6.701562707998697244e-01
3.925572940863212290e-01
8.308933669444130699e-01
6.316826082268927056e-01
-4.602942680290927902e-01
2.678015630816955595e-01
1.689381166057602579e+00
-2.424993124199298355e-01
-3.510354433881371916e-01
1.994707140965754633e-01
-3.701743474392470423e-01
-1.690596409560294056e-01
-1.130467395957230892e+00
4.927834161850050410e-01
1.321888248786039777e-01
-1.412250616129009373e-01
-7.176554991033068376e-01
-1.802383932274564393e-01
-7.011508171714373461e-01
-2.909986519364383128e-01
8.686857735169084549e-01
-6.891700137039978857e-01
-2.254267444102678652e+00
2.079607183867937525e-02
3.305297061519547053e-01
-1.182937760750292444e+00
2.814794606447941216e-01
-5.598375080623008149e-02
1.025928856844828541e-01
5.668335112678865029e-01
9.668134685708449361e-01
6.811332482935548160e-01
1.184145488489990683e+00
4.624170131939809858e-01
4.910785364451325519e-01
4.306904600195532451e-02
4.222674317755218953e-01
-1.731619281809024136e+00
4.857905525567675076e-01
2.098961268554422888e-01
5.250891802004287179e-01
2.192559866390035861e-01
-5.611688736238198416e-01
-9.151785940757906079e-01
-2.079648124052684288e-01
-7.014768648650981930e-01
-2.414931837725974861e-01
-8.476552243877581994e-01
-3.281518685081403208e-01
-1.743775505786006041e+00
-6.461500856057776909e-01
-2.143720742915176558e+00
7.710376583106481885e-01
2.412439861773297001e-01
1.682925569346098438e-02
1.287810769830477708e+00
-8.683310980929437317e-01
5.618933481738020985e-01
5.103310662560195388e-01
-2.321536777547900665e-01
1.902453303915132010e-01
8.558651096302061223e-02
1.773384874767632402e+00
8.883038862254244439e-02
-4.888700504483445841e-01
8.511253942828106434e-02
5.714671746440429523e-01
1.472383945571606123e+00
-2.095599891347325605e-01
-1.106437981234648649e-01
-1.126116943412337923e+00
4.450534075894938546e-01
1.985053128501005903e-01
-7.043952136902920103e-01
8.925123052053123285e-01
2.553055502747364480e-01
2.826326303735473000e-01
-1.277516296552426489e+00
7.996019674605430172e-01
7.787536971993113122e-01
-1.651162306943107783e-01
3.661015462181232971e-02
-7.717169054472857725e-01
3.845248660116040718e-03
3.564755853009591857e-01
7.156593695232229546e-01
4.649599383119132900e-01
5.954463382462811261e-01
2.328070140172691538e+00
4.988281205203372037e-01
5.932177863056230516e-01
-7.724540175104352424e-02
3.979954304633570583e-02
-3.251089634254620275e-01
-7.402387102033698429e-01
-1.746066405350268580e+00
9.242833592909976970e-02
-5.159635072183657578e-02
-8.361241339142649887e-01
1.413194360090411550e+00
7.498490628720759776e-01
-1.045604560940032179e+00
-2.513915226519313761e-01
-1.588612108842235027e-01
1.587247209799026448e-01
-3.848319771136879952e-01
4.655894456752274202e-01
1.016447434913815284e+00
7.164306675018391468e-01
1.266272789840736213e+00
-1.450405539181642389e+00
1.321069362505522093e+00
8.619529246351687046e-02
1.117560120468643614e+00
1.116368372912960094e+00
-1.740638387081025473e-01
-3.769258775838963960e-01
2.194561932597419052e+00
1.131769981298337280e+00
2.181212343430185552e-01
2.253873217323641431e-01
3.439483166399702752e-01
2.684679696222241896e-02
-2.693366175727937573e-01
8.022710367391964192e-01
5.115471188783327072e-01
-1.575496182348099239e-01
1.531132036588540579e-01
5.638240751438918785e-01
-6.467265582366840126e-01
-2.784437270403759823e-02
-8.105340639477398579e-01
-1.926680857531217761e-01
-1.172879464186429743e+00
-8.543091062654009082e-01
1.184047852815605928e-01
-1.057376946663433293e+00
3.477966868070778705e-01
1.021070805531130388e+00
3.405025333659695841e-01
-1.929521390724314722e-02
3.526978603172348792e-01
4.013424866364311838e-01
3.783702379771177737e-01
2.611893831544268574e-01
4.414500744713595326e-02
-8.855564070082694306e-02
3.743825979529327719e-01
1.210403149633098696e+00
7.216763920439520641e-01
-7.564766514424559052e-03
-8.680703978195882797e-01
-1.464376194219552785e+00
-9.164860493274648023e-01
-6.414807785621242653e-01
5.601461170773409659e-01
3.439395757817554355e-01
-1.380951201046762278e-01
2.094219190538061937e-01
-8.112014827668289074e-01
-1.516802025580470392e-01
4.821635839751323704e-01
7.539719536407396561e-02
1.023502666544367390e+00
-7.919774327497437483e-01
3.190141075840317031e-01
9.995457364080043705e-01
-8.480674239828163152e-01
9.011485240735355173e-01
7.636358235161544439e-01
3.129455545769638247e-02
-7.819418389925332225e-01
-2.105628077458138181e-01
-6.453717322828492198e-02
-3.528632481669047305e-02
5.177655712801738641e-01
2.568129837855247233e-02
9.588258892502864450e-01
-2.437502742462383243e-01
1.162362414843134961e-01
-7.183056622486272413e-01
-4.536267532135807024e-01
-5.827582872540108122e-02
-4.012250002913497759e-03
-1.257459583943780101e+00
-1.309503189565304204e-01
-7.784954869347181505e-01
-1.159472638183299598e+00
3.965697312930027141e-01
2.128986598411733155e-01
-1.161265082330668497e+00
6.980431107323131767e-03
7.823726001217787829e-01
-8.858684093484945343e-01
-5.752743861333101671e-01
-1.001221385992797863e+00
-5.912637410539648419e-01
1.913310346915852445e-01
3.392689467198478637e-02
5.300721710853446567e-01
2.087605666436133933e-01
1.379413908326259097e-01
2.983796401885277505e-01
-8.734271986492916362e-01
-4.509118721856031353e-02
1.487648852121293164e+00
-1.417726153883738682e+00
-7.475035391738560353e-01
7.033062793648344746e-01
-1.923734801310025500e+00
1.751027012889603496e+00
9.860085455539983057e-01
3.581793819824009573e-01
1.137976360696260292e+00
-7.601490466713314298e-01
1.486752810917607581e-01
3.543491580058389934e-01
1.883455234720813332e+00
7.912588697357607614e-01
1.202064794715200502e-01
-5.080087756165978519e-01
6.958137037193856678e-01
5.275817194361602791e-01
-2.183758882323871831e-01
-2.805696065675721829e-01
-6.722443818693274453e-01
-9.414654110416682542e-01
6.210077065910108995e-01
1.426787033704775443e+00
-8.631854142443773359e-01
-9.110496503425231651e-01
4.280940539279468049e-01
-1.726640689067221457e-02
9.905519551660998956e-02
-6.689570817228857047e-02
-1.600576349685367994e+00
-2.228925167779030048e-01
-5.140180896179934456e-01
-8.685795107269673743e-01
-7.110848165242757979e-01
2.157723929506914828e+00
-9.511906128857136600e-02
5.122736162247735203e-01
1.081728857255647380e+00
-5.164366919248346288e-02
1.219793512216300613e+00
-1.008378235456859784e+00
-4.040847741318948083e-01
5.526651355058205262e-01
1.105923584121013103e+00
-9.670426928257804811e-01
-6.635648522509063341e-01
-1.460499072014557198e-01
-1.601715037889525739e+00
4.122737206681101885e-01
-3.363609720945566484e-02
-8.664139432601727364e-01
-8.627233290856295422e-01
1.124168278668800786e-01
2.337773375537046117e-01
-1.928653304410568592e-01
1.183128391212509456e+00
4.785693047059862149e-02
1.647703684158944748e+00
1.555722412522138498e+00
1.152209989027632719e+00
1.139159564605987246e-01
-1.012042956265797461e-01
-3.888174560473472985e-02
-3.937508786522262993e-01
-9.008672914691004951e-01
-4.437241108027835668e-01
2.692892029518794139e-01
5.080295568603080403e-01
1.070256075260139772e+00
-4.827675425489540983e-01
-3.384406519679871717e-01
-9.167773303677714258e-01
4.111933702151001624e-01
1.364137090737966407e+00
1.072201744447487615e+00
1.382514808983259291e+00
9.632023590426073145e-01
1.215366440471797038e-01
-1.091874388111624405e+00
1.221800628163174807e+00
-3.695235095502484857e-01
-5.358417708831014759e-01
-8.204411237204073393e-02
-2.113465815243029233e+00
1.066300684045312641e+00
1.488754870917577744e+00
-5.862623632417360842e-01
-1.248955502978018384e+00
6.340274074981806507e-01
2.547682342380770404e-01
6.766183456547159025e-02
5.328678151819671305e-01
-4.864345226574865455e-01
-4.919130905595380243e-01
-7.478507854668152710e-01
1.938384099098263702e-01
1.955329209175956651e-01
6.810269671151569781e-01
6.270505641556405330e-01
5.544517577958729682e-01
3.324242218191525433e-01
-3.089614970405604177e-01
-3.930276346160638812e-01
8.609462877502316314e-01
-6.459036352675118220e-01
-2.035583875731245218e+00
2.112280454678733266e-01
-8.737958027063777999e-01
6.709856693843720965e-01
1.222910642253306701e+00
-4.889532615604983978e-01
1.026603456350078936e-01
3.037907194685446344e-01
3.805821022663063991e-01
-2.991768128928882220e-01
7.671800587407104910e-01
-2.811150390957560807e-01
-6.581867042680118463e-01
-4.754474891806398928e-01
-6.302535902304344517e-02
-2.499416428053369277e-02
1.496768346150530560e+00
5.266040935413517365e-01
4.487721469883388381e-01
2.688081672769709884e-01
3.918845175439116257e-01
-9.195799097319807824e-01
-3.268762014896861023e-01
-1.616981977316903907e-01
-7.360906003692322397e-01
-6.917664071672975368e-01
-5.300206373606693999e-01
-9.938037599763682728e-01
-5.594840249638061147e-02
8.489642934312067180e-01
2.675525614479470904e-01
5.858026059524319429e-01
1.067420203159285402e-01
-7.267585434108310150e-01
-7.850243305918597203e-01
-4.796229473714846980e-01
-3.722712630854045357e-01
-1.075889652632033400e+00
5.128295886943194937e-01
-7.702353604284333244e-01
7.756489360537528466e-01
8.418542677389718731e-01
5.390307026483942554e-02
-6.108019255846448559e-01
-6.750560749389193926e-01
-7.100823454667981594e-01
4.749724010256629603e-01
-6.769572773409097965e-02
4.334268939880718818e-01
-9.877549032343765911e-02
-3.186947081045850005e-01
-4.981503064007706816e-01
-1.116043205773292080e+00
-6.375468973019741137e-01
5.625949108417338529e-02
-5.717690450232298938e-01
2.367159917284232806e-01
3.268580418575299240e-01
-4.474297286017753228e-01
1.176107111759980395e+00
4.904512902236825289e-02
1.379901216300187583e+00
-8.505011705704763614e-01
-7.576411325387010232e-01
1.153915957556653993e+00
-8.143154317517673491e-01
1.001224336510234680e+00
8.639431358605861311e-01
7.720234834379431643e-02
2.896807270190530081e-01
2.174406615034715773e-01
-3.562204674052312781e-01
1.151965005173882339e+00
-6.473017150860324587e-02
9.028575563628638001e-02
-6.649958739021504250e-01
2.591920156749979443e-01
1.969722614176597220e-01
-7.165671933734536481e-01
7.934251077102759675e-01
9.528392271898051824e-01
-1.373967451446584054e+00
1.141170240300048544e+00
-3.829337858896664226e-01
1.102115846591450732e-01
3.079716195952658664e-02
1.123124588621374986e+00
5.484023697965745292e-03
-8.270969028288652214e-02
-1.533347760340004307e+00
-1.024391739123484690e+00
4.978284023731145425e-01
-3.601136563307389404e-01
-2.671497098535795534e-01
6.104607954263172598e-01
8.305799665499901119e-01
-9.016475305578958155e-01
-1.771439597721248260e-01
-1.272806746497594954e+00
9.797205375690010154e-01
-4.483007244990071527e-01
7.108254209339821827e-02
2.584120213131481103e-01
-1.515646314651040161e-01
2.864455331554185413e-01
-3.585613543571422035e-01
5.554476852435494827e-01
1.306809931352074461e+00
-1.323925860848263358e+00
3.224087812191998026e-01
5.643850113141494207e-01
2.571970354630644939e-01
-4.080914041865462694e-01
2.147721513078981737e-01
-1.036241447991530729e+00
-8.828307893651596849e-01
5.480360116398096393e-01
-1.231361827249631835e-01
-2.639894262332395103e-01
6.568249788957668533e-01
1.662612632396013590e-01
7.874817198399630680e-01
7.460317272682711609e-01
-1.289222831165558691e+00
-9.995163182816465541e-01
-1.755551726037930804e-01
-3.614529055124467982e-01
-5.882295478001111633e-01
1.457011091227732535e+00
-1.835311680982275373e+00
-1.429540699348614829e+00
1.612255234843521512e-01
4.838569804727513857e-01
-6.660520769309674627e-01
-2.729844428812788770e-02
3.153625081421098653e-01
4.715884226165980020e-01
6.723474852202268037e-01
1.266538303556513867e+00
-2.788040283954832388e-01
-8.291200070910283992e-01
-6.009788576866919030e-01
-1.594905940805925848e+00
-1.433355958427770416e+00
9.540932183241648268e-01
1.805391350108142556e-01
-1.648620825171824844e-01
-1.215567664268662806e+00
-5.731703297345609460e-01
1.151456638132448695e+00
-8.428761457482265573e-01
-1.207355891672345027e+00
-2.760923208658226935e-01
-5.438358495836943529e-01
6.767294589357628620e-01
5.176870747646049598e-01
-6.383170907232798008e-01
-4.428195203620366449e-02
6.295312427061131588e-01
-1.967498694306579754e+00
-4.287893613209547983e-01
-5.289236195737992974e-01
1.156210797551306513e+00
1.791716349258665741e-01
-1.715299029506437145e-01
5.773180524461972718e-01
-6.402803926892937092e-01
-2.708941022272964849e-01
9.167951344471700903e-01
-1.349840310870704441e+00
-7.431721774049415696e-02
-4.031002201080474689e-01
4.621049288060895266e-02
1.198823394512978924e+00
1.642533657717570317e-01
1.725792851076708712e-01
-5.326083209615959380e-01
-1.058664242085249479e-01
7.593110576968427061e-01
-9.009670341977883412e-01
1.439939235467624368e-01
1.141806006476314250e+00
1.079721469704467030e+00
-5.292706537802696065e-01
-6.103693592211905106e-01
-1.322045838557909914e+00
-8.682225739862226011e-01
1.091608189159059661e+00
-1.114554280927448016e+00
4.006037534938387545e-01
-1.685497143329804659e-01
-1.049535463011922465e-01
-1.048717104877941342e+00
-1.008735122278321822e-01
-1.128482021130332136e+00
-6.401514903073665108e-01
6.002415122067129571e-01
-1.224300177671077572e+00
-7.981693615834317690e-01
-4.477049924009595672e-01
-1.090974979990789517e+00
4.635387090085859585e-01
-7.759867741915966732e-01
3.725499396917726358e-01
-4.222818042876118061e-01
5.639022480863010722e-01
9.622458233954266360e-01
1.557057032017690190e-01
-9.029719744441394580e-01
7.262671328944092508e-01
-6.396745933170354670e-01
-1.151309074553219958e+00
-4.922267973731723201e-01
-6.882037856379916718e-01
2.746278813282961306e-01
-1.013558240032263802e+00
-6.082019681348986850e-01
-1.774967139195027244e-01
-6.205798094391137276e-01
1.571053600422169794e-01
-8.394884235900552660e-01
-7.152595960414911413e-01
-2.269428808165790401e-01
3.396612152754856950e+00
-5.286593490502340398e-01
-1.085657442228715741e-01
-1.103706318170011524e+00
6.401146983950390945e-01
-3.103303933944761006e-01
1.876697613943518528e+00
-7.470605572382160720e-01
7.397509868568399316e-01
-2.253333789426542833e+00
1.230864037874912276e+00
4.225831628363327375e-02
-3.513814491431982434e-02
9.625910142034643791e-01
2.203931055091364222e+00
5.830942933576402365e-02
8.438975528584353736e-01
-1.906892924331707873e-01
6.194913109097566206e-01
-7.349796848848894060e-01
2.474770170114500289e-01
7.960074621095769576e-02
1.987566223400101251e-01
1.473004126428487104e-01
-1.934481370884410190e+00
-1.797714117408089340e-01
7.500106626092809536e-01
9.277321604038801794e-01
2.573023027397876028e-01
-4.119813941609387076e-01
-4.874464089709119041e-01
-4.773495882786746303e-02
-1.664551475984979323e+00
2.029979858441531004e-01
-2.517129211626469854e+00
-8.179041400349769120e-01
-2.183354260810650149e-01
7.250078345580668326e-01
1.495879174139421508e+00
4.450800875695297698e-01
2.877270303172635990e-01
1.405419991829682802e+00
-9.781557687896295095e-01
5.291198627570790070e-01
3.220825333157961157e-01
7.253048611321866179e-03
2.212480961635868992e-01
-2.111796127487125529e-01
-9.711510377213306011e-02
-8.253062781833063744e-01
-8.480817769465780476e-01
9.042396381831587782e-01
3.481787607036461729e-01
9.683393068748235022e-01
3.383077722237136098e-01
-1.054890920629779627e-01
-7.066949059313879511e-01
3.828304627552634454e-01
-3.560160412051522477e-02
3.482014701634590925e-01
1.151427300247763075e+00
-8.060242336651102235e-02
3.180451881137277281e-01
1.612666572993169956e-01
-6.967953180189434548e-01
8.653848052290324944e-02
-1.891247111786684976e-01
1.009235287081218901e+00
5.582636894024010088e-01
1.454735474804461859e+00
-6.280703025831972930e-01
-4.835019666473362454e-01
1.784340830244885101e+00
7.957487952120161356e-01
6.477542870269944464e-01
-4.672300704351124434e-01
2.744793102966803233e-01
5.081042804179178862e-01
-6.564269857305673472e-01
-1.376148747577076170e+00
3.538619730058160107e-01
3.431733009241807464e-01
3.435430796357084177e-02
-8.901199228956955256e-01
-1.580799350500087685e+00
2.701020366903671421e-01
2.820257121560290625e-01
-1.052954269655286268e-01
6.477177711507846325e-02
-4.350772670130895747e-01
8.715086476750055766e-01
9.439920327384443421e-01
1.061817384907110196e+00
9.175831904996789579e-01
7.972504270683686833e-01
-9.791114786501536882e-01
3.170590414241036825e-01
1.054540255948799743e+00
6.372469608882327385e-01
5.327600046421443469e-01
5.374823975334949155e-01
2.125249900591425156e+00
1.027383481086822536e+00
5.411372450483906693e-01
-1.810318763655110130e+00
8.328168483626132712e-01
1.376490649725359061e+00
1.616257352613520215e+00
1.164820272745631158e+00
2.298242660611779786e-01
8.086659634444258726e-01
8.026686829724724026e-01
1.259925316864284772e+00
-6.777820368801055206e-01
9.803528699572620075e-01
-2.251220966636197640e-01
8.393306193696349338e-01
-6.822167857520461398e-01
-5.693479856631609159e-01
4.438293082433796277e-01
-3.302585177908100023e-01
5.627645981701132616e-01
-6.041830235678647965e-01
-8.350838892401040159e-01
6.330642284294407673e-01
-6.717932912313132610e-01
9.374521988814186191e-01
2.818294235139640058e-01
-1.410982704501716700e+00
1.167079659448363449e-01
6.855070979012893861e-01
2.126964725244284704e-02
2.333427027492943340e-01
6.433928876582751810e-01
6.061877612086196132e-01
-5.366700707181331076e-01
-5.169455296947971235e-01
-6.127514739563475477e-01
8.534587103940582953e-01
-3.053167379450363317e-01
4.319826107391872561e-01
-7.701158737113336095e-01
1.205022146842079200e+00
1.081006376748226278e-01
-8.343844492820102765e-01
7.051356974622068341e-01
-2.249992033242451672e-01
1.022778601179796798e-02
-3.162671372462958486e-01
-7.752362706363576939e-01
5.252060141977719088e-01
-1.056233824553405309e+00
-1.057695353077283240e+00
-3.292955043231615697e-01
5.820181695453521264e-01
3.674391704279222903e-01
5.583601981730393904e-01
-8.686759295080056509e-01
-1.750629216487422424e+00
-4.756614960486401644e-01
6.184697161153601686e-01
-7.642295273100384589e-01
1.340225849138258152e+00
7.794005380982156617e-02
-5.419911534654724417e-01
2.100425721402029711e-01
8.478849992172353689e-01
6.256867752905334035e-01
-1.552697891702628230e-01
8.575255037280623549e-01
-1.453351286709573253e+00
1.963510830536817631e-01
3.756009391492880489e-01
-9.810845913564225640e-01
8.220541455659331476e-01
-7.745622539008041318e-01
-7.701904659694809308e-01
1.200090900562615914e+00
6.422815507831285409e-01
-7.850771902426798565e-01
-1.052091497964330324e+00
7.968955934479404757e-02
1.293468238985521768e-01
3.138543800117161719e-01
2.563685271478783889e-01
9.776643867882768291e-01
1.034058951557140560e+00
-6.462686592960639187e-01
2.581868028041972574e-01
-8.138793576007846697e-02
8.932943458449532637e-01
8.956222623701524110e-01
5.461039663722200288e-01
-2.219591216854592819e-01
-3.550371090374825345e-01
1.055881507691121657e+00
-8.353493234884326046e-01
2.646253159924567111e+00
1.109546213549226890e+00
8.029392423683979763e-01
6.855884562306808760e-01
2.798139129882156739e-01
5.160785612207374751e-01
3.398222363982154604e-01
-8.898738327221952238e-01
2.782631747499983432e-01
-1.036797171525427885e-01
-4.458174388279445566e-01
-2.033796556397610422e-01
-1.508622240421828020e-01
1.615902198354610686e+00
5.553382798931394415e-01
-1.041248295518782729e+00
-4.640106832046564378e-02
-4.607423018795263059e-01
3.338702943486711039e-01
6.423103690149449818e-01
2.477759188605475060e-01
1.226356509116050431e+00
-5.436159581517192585e-01
-1.656547272414558014e+00
-2.123542555231702766e-01
7.863297232165749051e-01
-4.072979525195236095e-01
-1.940242421406397078e-01
-4.617389668253182866e-01
-4.800988818322814433e-01
2.442419268921003916e-01
-9.083736510022257793e-01
-9.551090247415021661e-01
-4.223357914655767598e-02
2.035689174713954053e+00
-6.071681087329876547e-01
-4.411164595111303766e-01
5.567400068527125212e-01
6.683293793141432682e-01
-1.072038371190298101e-03
-2.651612007643436297e-01
-2.799046197274795977e-01
-1.922455002944255531e-01
-3.284084109846049926e-01
5.149610827091035681e-01
-7.307412885287400961e-01
1.935408444323950261e-01
-4.098811085437265023e-02
2.641026706765101095e-01
-1.644509069937171386e+00
1.511886845231655174e+00
-6.349596836855131432e-01
-3.551543738469533640e-01
1.393959271902535768e+00
-3.219267901572615553e-01
2.478859909915580584e-01
-8.061850465121666032e-01
-3.708600722756986157e-01
-2.042638729391232644e-01
2.841196071632296483e-01
6.190503248747740717e-01
-3.843843009735977700e-01
-9.656361793840502195e-01
-6.418665996709875810e-01
6.765674309298670419e-01
1.305466549738263371e+00
7.833877037147954914e-01
-3.699593050640206937e-01
-1.325128980613364815e+00
-1.567473496754751006e-01
-4.090797685760172442e-01
-3.331810754243512140e-01
2.067634056295236666e-01
5.934718225057306062e-01
-1.714982479379800751e-02
-8.670863083579996022e-01
-1.940695982192663926e-02
-1.132897803769664508e-01
-1.160290321092287691e+00
2.569920665508361735e-01
2.467930261355975874e-01
-3.003922936029869151e-01
-6.388710310502047074e-01
-3.939521592802326388e-01
-1.998021277395792605e+00
-1.213165799843797243e+00
8.061619412576712662e-01
-1.127838495847911071e+00
8.043379015982043967e-01
-9.329428386787338434e-01
-4.354433071281488821e-01
-3.556112927835473059e-01
6.861560651987613779e-01
-5.633561330916311283e-01
1.937057791701006781e-01
4.570908235124428454e-01
2.289122255492455071e-01
-6.101366880124035053e-01
-3.056160733585500111e-01
3.985355728316602453e-01
-4.328307421876249061e-01
-7.846915013716819765e-01
1.697341284523622706e-01
-3.914469724189635347e-01
-3.616836490276870708e-01
-3.610567180613084570e-01
6.679005787404670991e-02
7.024371206524837596e-02
-1.827071400665635226e-01
6.671365622054574729e-01
-8.194501639457099085e-01
-1.081328752811780425e-01
-1.554457051505328424e+00
5.907849084658687300e-01
-5.419942662914527531e-01
-1.077343393410780781e+00
-4.482198720893861843e-01
3.906377347151661628e-01
-1.097335897968484686e-01
-7.247662307601340226e-01
-3.174212525496787896e-01
-5.789805020379518163e-02
-2.216082527933877777e-01
8.785831550786108446e-01
-1.130748309219203607e-01
1.418616500221464793e+00
-4.753415924050399255e-01
-3.805752840694863193e-01
-1.839756225589221916e+00
1.359191121728644536e+00
-1.944639188518569650e+00
-1.289339710578201847e+00
6.947791547239257071e-02
3.534826313812343135e-01
3.167084045659694924e-01
-6.154230214850454628e-01
2.638986332104988897e-01
3.687335749471618573e-01
1.440169648447914952e+00
3.771021262014399023e-01
4.835593244279036140e-01
2.017125668135938410e-01
1.144927335697218496e+00
5.079006278670749053e-01
-6.260346368999336608e-01
-8.028367666042801609e-01
6.578809929457519745e-01
4.842758887452669470e-01
-3.012015847217792142e-01
-1.007297723998656691e+00
-1.979462612680016997e+00
2.456480411146004794e-01
-7.177788573873999933e-01
-6.530498256479616570e-01
6.897491812593352645e-01
-9.463498473107889719e-01
4.358349574006381566e-02
3.790387477045428777e-01
-2.956511066581734015e-01
-8.810628962726038127e-01
1.261083454601580334e+00
1.531900930357634749e-01
-1.857640709010568880e+00
-3.468995583377434411e-01
-4.262103644192782315e-01
5.990853936352373843e-01
-7.599387270019178908e-01
-4.961127196574590115e-01
-1.913625521755275560e+00
-2.733257836673835817e-01
7.600774047986917914e-01
1.246679900765387816e-01
-8.141151259808974139e-01
1.989033294048592193e-03
-2.901135749046753753e-01
1.134851783061321395e-01
1.273742951976731819e-01
-3.582837553790677587e-01
5.039222667074727546e-01
1.365799200518037049e+00
-1.779135000216073959e+00
7.106233231897390867e-01
1.630013350974133801e-01
-8.810838145161871138e-01
1.065401301073264639e-01
-5.404525179841239702e-01
3.960823406430803439e-01
-6.426298339538467630e-01
1.198666274836691192e+00
-5.592784599847904214e-01
-4.208012122309337522e-01
1.513442070407522655e+00
-7.660472413564590743e-01
1.172335781939270571e+00
1.290925082842476757e+00
-8.839489183053556021e-01
-2.289785417091483311e+00
1.110299115577906948e+00
8.997537669210696754e-01
-5.124891779136991898e-01
7.883785008898200886e-01
-5.054342674831293625e-01
-4.520880763404705460e-01
-6.684660372021025143e-01
-3.855025586926801306e-01
-5.047402572685697475e-01
-1.061118838850947821e+00
-1.003642920609083999e+00
-3.720793103896058440e-02
1.577182600082695785e-01
-1.943788050746029783e-01
5.434588803776120303e-01
-8.041103876763924241e-01
-7.480150493309103421e-01
3.927553813905650393e-01
7.615091387439880677e-01
-5.270966261584718593e-01
-4.932644028427530802e-01
-1.152655193799303257e+00
5.883645158367678540e-01
5.314656779730753122e-03
1.554934890925618873e-02
5.822912132381002914e-01
7.489065526638637449e-01
-1.346788819957542627e+00
1.389612629568593549e+00
1.294828136955841869e+00
6.835093937028945410e-01
2.702986862935842227e-01
1.067383519117200530e+00
-1.393525479131781930e+00
-4.633272820822825766e-01
-5.174331560273788266e-01
1.413483680974352952e+00
-1.402292473191401267e+00
2.345608926122026150e-01
-1.997520869938299581e-01
3.444444290369306771e-01
5.777668615955708908e-01
-6.936540621415593355e-02
-5.498234238724388767e-01
-6.668831099097071169e-01
1.524651452757538883e-01
2.950489409281477626e-01
-7.560961243383641506e-01
1.324190208694064896e+00
3.465918142376754330e-01
2.121611499324284889e-01
-3.327096997786060939e-02
-6.150587920728132207e-01
2.172314676345217688e+00
-5.615362408053534704e-01
6.744510346211549656e-01
4.118623761234553315e-01
-9.230154577021739692e-01
1.422797042060303108e+00
-6.190721602393775003e-01
1.207564259237489113e+00
6.213841964941703155e-01
1.018249432358705686e+00
7.533028742350722506e-01
1.514852901523104922e-01
-1.064177503097223920e-01
-5.080972562146872651e-01
-1.559692323258280999e-01
1.372302673194109590e-01
-1.183323647813506962e+00
-3.702141757814959577e-01
4.822122061545379701e-01
1.234677923316678028e+00
-9.212559691703052778e-01
8.347531653862535483e-01
-3.300791721282622104e-01
7.969117246859744874e-01
-8.909421213657460203e-01
5.773295925225972042e-02
-3.299980835319382688e-01
-1.076735195230115183e-01
-8.931348362149396092e-01
5.680903392457830048e-01
4.428494937448766988e-01
7.056821064489793294e-03
-4.759238360177620031e-01
1.520529790505775747e+00
4.007585759041449869e-01
8.164895187879197547e-01
9.679516892824646668e-01
-2.026196496799463009e+00
4.992007242478897489e-01
6.051082990041656284e-01
1.245217948421285303e+00
-3.235750125456001158e-01
-3.538958345537923655e-02
-3.396464855852010523e-01
-2.956899259529724988e-01
6.794496035760615449e-01
-4.491482417486907242e-01
1.143013043423769526e-01
3.388373365646615287e-01
3.565431621707414456e-01
9.349282659039684362e-02
-1.613402577246578762e-01
1.033257844493699729e+00
-6.025046432867013912e-01
4.261730385987574921e-01
4.385934863279905560e-01
-1.231705760564588248e+00
-1.064922625604297846e+00
8.007292938831196416e-01
-1.172391956123161494e+00
2.485262172361338007e-01
1.488234845966695530e-01
-1.851788909474661349e+00
-1.000707191647422611e+00
-7.094491257021035002e-01
4.242088178386493880e-01
-8.342840446310173519e-01
4.893513522874869959e-01
1.383453994829533240e+00
7.863699706636800846e-01
6.524622865544407180e-01
-2.124557992991310540e-01
-1.095027959453174216e+00
-1.914113499009513442e+00
-4.634961520927054490e-01
-3.208275879028650301e-01
-7.290835574121823370e-01
-8.438156664591520695e-01
-5.974432213898425159e-01
4.112494700685873639e-01
-7.652142612212024797e-02
5.869768612097301386e-01
6.258846600994529830e-01
-7.197181162362932261e-01
1.094481394315014011e+00
-4.741326874544505854e-01
2.784752933304379674e-03
4.533095769221117122e-01
-9.880329171882746842e-01
6.350936884682094608e-01
-8.379646794182454839e-02
-4.251947703789852318e-01
3.422566731729606571e-01
3.478506394948603919e-01
5.724419858581610843e-01
-8.957064148145362781e-01
1.107307704839711526e+00
1.305742263632086786e+00
-3.045675167338206535e-01
1.294482531050860974e+00
-6.831585516295008986e-01
-3.175301018936192987e-01
-4.613085701937959249e-02
1.096264274095729574e+00
9.493288597725633160e-01
5.994651464198977875e-01
4.218928698110240294e-01
-2.716899510401325490e-01
-6.102338667006779183e-01
-9.190377591618105191e-01
1.822067721666223716e-01
6.309500619326687820e-01
1.036433626426958021e-02
1.094581676488317612e-01
3.388472051461094425e-01
-4.981806743315440600e-01
3.633764063775942188e-01
-5.094296501455661819e-01
-8.682132785657263874e-01
1.961544344466187861e-01
1.400016461810592583e+00
6.998801227118507384e-01
-6.708137111281670117e-02
-2.505386520084100788e-01
1.037408671871484112e+00
-8.973837384458116517e-01
1.810688339363132338e-01
4.122934760544432753e-01
-2.808757205814862434e-01
-2.312855805753080696e-02
-8.247674200611878614e-01
2.410243703639403101e-03
-8.425590998688373690e-01
-4.129699695953215066e-01
-3.959448732966085460e-01
-1.184395704819012574e+00
-2.005185852439364536e-01
3.494434289843858510e-01
3.082754803110823172e-01
-1.521867264058107683e-01
-9.993347349269492419e-01
-1.335177879083065955e-01
-6.522532111180106007e-01
-7.039736873887969537e-01
3.099200288519474156e-01
-5.746897675171619424e-01
1.997941856578690167e+00
4.874375276492305953e-01
2.769409718370244855e-01
-1.019488127449926784e-01
-4.170935043382535679e-02
-1.203299440099052653e-01
-1.050336483401112631e+00
-1.635795741599440856e+00
4.453154037956156275e-01
1.218851113340001513e-01
-1.069544502707415468e-01
2.385401893308115029e-01
6.808696123315880477e-01
6.100587153142047470e-01
-4.385808487209509887e-01
-4.238743611127282485e-02
-4.129459712530781923e-01
-6.050969315251077951e-01
2.162541242632287641e-02
-6.916731390306711802e-01
-8.074135553376767804e-01
-1.545688498895585183e-01
-6.194988365616813653e-01
-4.953436667179193509e-01
3.546739751754540704e-01
-6.041081829161856764e-02
1.216039111360852853e+00
-1.195194625135457711e+00
1.910037385877167981e-01
5.708541832544373751e-01
-6.362805445758259459e-01
1.588388429915436495e+00
-8.626842010472504096e-01
-5.073358505937881624e-01
-1.061193594224962400e+00
1.185042262817127101e+00
-1.336486956585098085e+00
-7.556380473052081159e-01
-4.216368858864044666e-01
8.409163538645805236e-01
2.352302202725275737e-01
2.202854835367315189e+00
4.268604375459890132e-01
7.759651818318298311e-01
-6.031730126256462654e-01
-2.605041271258312641e-02
-1.106187183996600043e-01
4.072338157861858376e-01
7.566122476228849258e-01
-3.184021541095480301e-01
-1.063678091319296470e+00
3.715647666712828534e-01
8.082431440823674151e-01
-1.082315884949806017e+00
-7.462295884411845881e-01
3.088210197155199510e-01
-2.466720822840810790e-01
4.483840198860662984e-01
-1.399907475367498932e+00
3.255370274352560322e-01
1.527168862013372319e+00
1.220837361312948621e+00
-4.986923353269320791e-01
2.317492333276094385e-01
8.965581894662071338e-01
-5.480672529108168156e-01
2.501842974764446059e-01
-4.699698913359476315e-01
-5.801084735955522875e-01
-1.335834436231065014e+00
-2.447237802488234359e-01
-5.254254057057710092e-01
-9.366469439649781625e-01
-6.978695017316489668e-01
1.143564465189235824e+00
5.720525716688518170e-02
-3.917864993274085550e-01
7.608066417722307850e-01
2.069125844200274233e+00
3.636705200143108829e-02
-1.065054436213830336e-01
2.190798871461343000e-01
8.021366802943108443e-01
3.830662783076995703e-01
8.882260568970947734e-01
-1.136852440767679884e+00
-1.492566750665921482e+00
3.958880237855112033e-02
-4.958070821354096935e-01
4.417940270598667007e-01
3.994859576575750526e-01
-4.677732574840237079e-01
5.299393605204982816e-01
-8.021302518091221190e-01
4.260806285505147617e-01
-2.134744509706243409e-01
-5.429154392396573492e-01
-4.147267369563545913e-01
3.362087585626107322e-01
-1.147052613684321903e-01
1.774827649499554627e-01
-1.407488889408919031e+00
-9.934743052775119043e-02
-7.128959457399441924e-01
-1.177701513570487690e-01
-3.226502291808243106e-01
-7.391396815972310907e-01
-6.088176675209858724e-01
1.401048813815502836e+00
8.356284344501236916e-01
-6.464861681852502873e-01
-8.395494157909129118e-01
-1.096959671795355806e+00
-2.316589779258202975e-01
7.016069088826873412e-02
4.650712694845919315e-01
-6.184551812408528582e-01
8.183379941073631869e-01
-2.745389365953426197e-01
-4.111622947270324180e-02
-3.098236756749407350e-01
1.064870837925008917e+00
1.936950254413932759e-01
5.180251457915475699e-01
-5.673095567985689813e-01
2.862910675755149237e-01
5.090745905535427607e-01
1.185112957977964454e+00
1.639008522308501442e-02
7.806212485098107390e-01
-4.662750378481065328e-01
-2.425304857000322445e-01
2.499376888958501741e+00
-1.376767436104129771e+00
1.144542609650117004e+00
-7.152449850647090157e-01
5.019216791928664545e-01
-1.057889587332256687e+00
2.388033068202441711e-01
-2.437618761339051865e+00
-9.647475038744498521e-01
1.064418567512842362e+00
-1.342997594354515156e+00
-1.953309980245403477e-01
9.974915288659755852e-01
1.310970370944242624e+00
2.063986266430857808e-01
-3.640133808597743603e-01
-7.189279877382646067e-01
-7.133470392406972005e-01
-6.339190719749283609e-01
-2.699256140643733204e-01
-8.400830819682600925e-01
9.355870791202264281e-02
1.033847593475230919e+00
-6.199839009411437507e-01
6.619147210536736603e-01
-4.377971915686895699e-01
-8.184101869984565791e-01
-7.241924872694667503e-02
4.769482400138471134e-01
2.833222073066082869e-01
7.789136271054605265e-01
-3.449371659499640974e-01
6.114088929276801920e-01
9.902765228670763475e-01
-2.158452731167178618e-01
-2.354966971459931391e-01
-4.516473745473539858e-01
7.681504620697974239e-01
-7.600092402219436050e-01
2.025095475033649728e-01
-9.020275056836473127e-01
2.952440023114899503e-01
1.418199441430156860e+00
1.018861277997962222e+00
3.135710258856471699e-01
5.122916727036910256e-01
6.042344779839246005e-01
1.385499047710855525e+00
1.320796938646756624e+00
2.706122592928463799e-01
-2.666904877901432602e-01
-2.307600472984788986e+00
3.685582255157360265e-04
-9.626700886736103691e-01
6.216048331083706691e-01
7.258358475955268840e-01
1.880034736945440099e-01
2.278685709155942596e-01
-8.134917597671462719e-01
6.269278569593320638e-01
6.976251906542967340e-01
1.437922925174676125e+00
-1.803448133744683046e+00
1.036687142888151475e-01
-3.964344224108493075e-02
-4.684903662878581176e-02
-9.516986807466021325e-01
-5.272985153021902960e-02
-6.746526085335186051e-01
4.089055216415110605e-01
-2.684242477017670936e-01
-1.279918371479769945e+00
1.713688622887392377e-01
3.527793896959938724e-01
4.813450134097523314e-01
-1.705359701768332792e-01
-1.090519023030144696e+00
-1.503133701770749120e-01
-1.061149517392046659e+00
-7.552957215597440044e-01
1.644215518323183245e-01
-1.016433663090923201e+00
3.563948561091193068e-01
1.452316134997847730e+00
2.356359358132605664e+00
3.450387883090782482e-01
1.810508532198190634e-01
1.872438317235447514e-01
7.909458915352471919e-01
9.781609142331322282e-01
7.803230476506418656e-01
8.722099582845156407e-01
-7.397474684018812141e-01
4.188604373005332393e-01
-2.080676731224862519e-01
4.530276978201258631e-02
1.676913126524256725e+00
-2.850967555662810571e-01
-2.150364026457657340e-01
3.699698211660233660e-02
1.177361244171901133e-01
1.346811144579245889e+00
1.004532068042883974e+00
-2.217444096959634015e-01
-7.168510708705396750e-01
2.516617831422729434e-01
6.294256004739190447e-01
7.892176621983042484e-01
9.234974512314858552e-02
7.354374401534593542e-01
-9.528716383942523183e-03
1.508087197460000473e-01
-8.661090672843834160e-01
-3.724748339652864115e-01
8.125308639990169723e-04
-4.733557106940250447e-01
-5.610128852265585664e-01
-1.001947137749751304e+00
-9.232748668568262485e-01
5.347284110845542671e-01
9.648037706089431786e-01
-1.464852319628795696e+00
5.806912836869271288e-01
7.550698720386834761e-01
4.314778306966121635e-02
-7.772332363751575102e-01
9.828150865801159597e-01
1.063802571400878971e+00
-2.026049669890498395e-01
-1.024586712422101420e-01
-4.111260355200104799e-01
-2.086911795490905552e-01
-7.525224642654892993e-01
4.386993583096459037e-01
3.705093813150697191e-01
5.777589678557274455e-01
2.311957004911845415e-01
3.872853494644048489e-01
4.211437378336565507e-01
-2.769157636583167159e-01
2.599236379937138519e+00
-5.964189335104437273e-01
9.622140562340226744e-01
-8.650633026265800440e-01
-8.475179409710364986e-01
-1.107184886744701391e+00
-5.783749625287186724e-01
6.925371384882617054e-01
2.889882910887867085e-01
-3.798731966253351411e-01
-7.201740667857150502e-01
-7.098602939337600448e-01
9.532415231464950178e-01
1.905182140131962409e-01
-3.151458717787902764e-01
4.313206217221435268e-02
-1.397973066704667033e+00
-1.208443547319981715e-02
1.301310749313843718e-01
9.900085021847043754e-02
-8.672208545699331417e-01
8.851073581540681579e-01
-4.870927156249819229e-02
-3.929685892143916504e-01
2.099329075623268537e-03
1.278092994941792071e+00
-1.008609255608591937e+00
1.862518510566833208e-01
5.595865368544167273e-01
3.057042059541327239e-01
1.110997119502776798e+00
1.026395188570628836e+00
-3.016745088858048263e-01
3.150048797810123258e-01
-6.997928076767416794e-01
-1.776612445356746672e+00
1.501680731306986316e-01
-1.538478283603956775e+00
1.003928708693245797e-01
-5.945811417552278044e-01
9.070295182285329494e-01
-7.043015813603747954e-02
-4.535616047143744001e-01
3.273500674073875905e-01
-4.109302716057907090e-01
6.518940477458108340e-01
2.750145987803057079e-01
-5.300418834150425473e-01
-6.743190422203937384e-01
7.351083581333754946e-01
-3.906369749345973696e-01
-4.255775408830883566e-01
1.144674621985464213e+00
6.762491259187917159e-01
3.972084981284625949e-01
8.614510552202252480e-01
2.482399416284139515e-01
1.287133400196822652e-01
-2.851527376501655220e-01
-7.064688658062769910e-01
3.547184670895983660e-02
-1.462420758521682629e+00
8.710747132198407572e-01
-3.400243893313500965e-02
1.237896801098963273e-01
-5.219014431576892710e-01
-1.430525980747973103e+00
1.105600427953706832e-01
5.107466187083582743e-03
1.088221048549449899e+00
-4.520654704462936380e-01
4.495867612005475245e-01
2.337995874913032512e+00
5.354599956935808536e-02
-1.466482134719280794e-01
1.037299563640966982e+00
6.229199466471124769e-01
-1.452137294709396453e+00
-8.002380853671187122e-01
-5.854269526296956849e-01
-1.202567446804662765e+00
-5.684306285209349552e-01
1.301638149820098622e+00
9.554604389480486626e-01
2.880769532447313708e-04
-5.024966089939657543e-01
1.844481955322858913e-01
-1.638817648691730078e+00
6.160637857180999433e-01
-7.197516826902539133e-01
-9.807366726471318241e-01
-1.481072645078008954e+00
-3.184327127516166644e-01
7.277440350477856201e-01
-8.941710598456038550e-01
1.015173944069122758e+00
-2.471175624155608208e-03
2.179779828804249697e-01
-4.865359741478186284e-01
-3.050680393976147320e-01
-3.170940428197842054e-01
3.337201326474832919e-01
6.568383534649353539e-01
3.980526192882800629e-01
3.028181973274779448e-02
5.459406338400439873e-01
-5.036444730490152732e-01
1.495296366640466168e-01
8.477219920098504335e-01
3.938315109148445292e-01
-4.140876617961870565e-01
-8.712110040168410396e-01
6.224016941351769860e-01
-1.061398502862800908e-01
-6.660848698950498914e-01
-4.915167111965189628e-01
-2.087695306648735261e-01
7.625283136679721352e-01
-5.221490694170142222e-01
-3.675250008695685189e-02
3.987176050498700830e-01
7.866504891628409712e-01
9.689327521103925367e-01
8.228987450446634266e-01
-7.599632780918074149e-01
2.883509861480018643e-01
5.638282995159785704e-01
-5.773457846494365331e-01
9.171937562811808275e-01
-8.215585165522869548e-01
-1.232567718461792694e+00
-1.511017672269383549e+00
1.239113054870585096e+00
-5.596274486022899675e-01
-1.376142782854950786e-01
5.707829645121409445e-01
-4.736231856005365115e-01
-3.453781595974584340e-01
1.199719307659000922e+00
1.087713717345211828e+00
8.078512122847403276e-01
-5.012175921571893067e-01
-2.463387350253853914e-01
1.771027348534326418e-02
-2.565662814708573602e-01
-9.554792964941987155e-01
3.030308253381835404e-01
3.980004329847575129e-03
-3.306149972921892943e-02
-5.613803942253466905e-01
5.256895511760480977e-01
1.898033536035332869e-01
6.713549260622265757e-01
2.534850416762310377e-01
5.700370078253587103e-01
8.338580930303095551e-01
7.251359586833351356e-01
8.984085695335723987e-01
-1.405811524543097990e+00
2.278156833566706840e-01
1.528333786696548957e+00
-2.527398625244344110e+00
3.931846079018680440e-02
-2.002555802318695122e-01
2.151699612193497813e-01
-2.193491699740847345e+00
1.690522115667633107e+00
1.798532246683049340e+00
-5.998293176073914434e-01
1.347193267643285175e+00
-2.118326301124945910e-01
1.082720435295868033e-01
-8.099924369006009650e-01
3.309526508712320458e-01
8.180324411671576756e-01
-3.619177765031940663e-01
3.354194135620680584e-01
-1.287094387905395543e+00
5.611458700010418799e-01
-5.712488340557134725e-01
6.809535125129266842e-01
2.698081153528532616e-01
1.902703899694204503e+00
-1.808291193173992284e-01
4.985237259210785754e-01
-3.505038268346694075e-01
-4.706054277856516754e-01
4.989796311094569781e-01
-1.698744717919556280e+00
7.663089458330241133e-01
2.046313930279084203e-01
7.088138452477537044e-01
-9.490655779831889127e-01
-1.598417291345084035e+00
6.410922944343426522e-02
-7.188487262073720574e-01
-3.177366171125096672e-01
-3.486151692058953033e-01
-2.739891840977500825e-01
-5.528878198984856773e-01
2.618270234654501150e-01
3.566410020427165373e-01
-5.646324282960664132e-01
3.032422740042738374e-01
-3.693040212121524724e-02
2.142291115933400159e-01
1.490077101052054154e-01
-4.649621740423874328e-01
-1.020302296829955213e-01
1.187873034587753063e-01
7.416321253285378390e-01
5.133195659574659730e-01
-2.131820679565875842e+00
-5.327391209878616918e-01
1.225806077050970222e+00
2.224773713940128017e-01
1.596251730419048220e-01
-1.791090970048772046e-01
3.633815412711768889e-01
6.837568010495587156e-01
1.002275413725723097e-01
-3.782634833060330437e-01
-1.713947079577453847e+00
6.091163541365576251e-01
1.775910248257434043e-03
7.489357162836839388e-01
-1.038134737314266198e+00
-5.272633781033981837e-01
-2.353442741943145844e-01
-1.716387022216361968e+00
-2.306683997857046919e-01
-2.234251901448346400e-01
3.719452157852154439e-01
9.583092247786317852e-01
6.286167489944134434e-01
-5.803414228525741736e-01
1.601955622398591461e-01
1.789135121909078974e+00
-6.031647857629396370e-02
-5.388016022524630966e-01
-1.179055993571743038e-01
8.112956932263160059e-01
1.771472516615702153e+00
-2.461111862997333422e+00
-3.256544323569539046e-01
1.813049058077558506e-01
-2.851321491262098218e-01
2.178287684826175630e-01
1.381757515746378839e+00
7.536312072692403774e-01
5.350495166729972718e-01
-5.649210709371055295e-01
5.724380597894099809e-01
-5.205122194907707556e-02
-2.219444850571261063e-01
-3.572404101658495090e-01
2.425057897493443360e-02
3.941539613766048555e-02
-2.178486347534517309e-01
1.200945264810856505e-01
-2.237790414944064388e+00
-6.992952884274120651e-01
-4.054469034586173914e-01
3.791427202510529448e-01
-2.709834916856895815e-01
1.634679645695644723e-01
2.539983656132752121e-01
-1.206816118895310819e+00
-8.377607229246202269e-01
9.284790256571517908e-02
-5.893794176992617206e-01
-5.049985753036164704e-01
-3.606993800331744215e-01
6.688491848543236529e-01
4.251256902416348793e-01
5.467070192497183179e-01
-3.765095580418463261e-01
5.570377998610371861e-01
-3.117444040819340734e-02
8.013013265640391847e-01
1.511428263117944759e+00
-1.948462769935788153e-02
-3.107645559941502600e-01
-2.565159974003351495e-01
-3.125337917981612090e-01
-1.001925835829629463e+00
-5.193208441328132086e-01
-1.366178399480118433e+00
2.756748551700743399e-01
-1.373703860336803917e+00
-8.528401262201403821e-01
5.986143139988346906e-01
1.558870157529134826e+00
-7.075855040734790879e-01
-1.118485030901284594e+00
-6.973713513004339282e-01
-1.813149721775748624e-01
-1.083989565974074143e+00
-5.237608133630216045e-01
1.254728072208935785e+00
-6.136365411843434092e-01
-7.102527294038574190e-01
4.453976722918587816e-01
-8.657773703216025130e-01
-1.822309599200163666e-01
4.713337429911794718e-01
-1.112285976814845423e+00
-3.742399462616108341e-02
2.560962096135349864e+00
9.377995195341853885e-01
1.258760021944220320e+00
1.003390777042166393e+00
-3.951762055165221055e-01
-1.583688307971024556e-01
-1.038525716676548249e+00
1.846509596754245530e-01
2.471115755339068354e-01
-6.704879731952415600e-01
1.341225565577161549e-01
1.997460618187108239e-01
-4.931605803481223238e-01
1.452881522868971764e+00
1.518327364227952114e-01
1.197566565005985684e+00
9.454077066191787226e-01
2.120281479255337609e-01
-5.595058328444943996e-01
-7.621985836243057033e-01
9.693377001934719850e-01
-1.795448925099479620e+00
2.105676099978812665e+00
-1.348537485797380864e-01
-8.290643650453444202e-01
1.123629581682181744e-01
-9.922152573603904013e-01
5.183746279704355420e-01
-5.332393278358436017e-01
-8.911055343756371094e-01
8.706620716557790240e-01
-5.788495967781877999e-02
-8.694518158717891021e-01
-8.097309411766293596e-01
-7.900558382531863710e-02
-6.785789151886201243e-01
8.796519980282672124e-01
-6.631102694071724368e-01
-1.172232680905217928e+00
-1.888118414308738169e-01
-9.263081720081401960e-01
2.562954869526554713e-01
-6.052712199839878071e-01
1.257815343061642999e+00
-3.409224434897401013e-02
3.347413833630336066e-02
3.575791700345463120e-01
1.775107045078530232e+00
1.331382337144367600e+00
-2.781376917400582016e-01
6.124280114923684737e-01
-7.872795338965481449e-01
1.089247511830695903e+00
-4.606546490943285166e-01
-7.967055892840785303e-01
1.290248392256871379e-01
-1.054549049042878162e+00
1.852710073274144165e-03
-4.264462385381373455e-02
1.005907564270728694e+00
6.358705337399935820e-01
-5.400870041785416076e-01
-1.164856538292156740e+00
-2.665355239182667368e-01
-6.234753117133522426e-01
-1.092183963500840793e+00
-5.256975226196020090e-01
3.169369164125304672e-02
-4.698173856874000853e-02
-7.973308306538078316e-01
4.302354295147770014e-01
-5.922881870526356396e-01
1.052120773613665961e+00
9.003524012061288051e-01
-8.899163664740783464e-01
5.454779809576590366e-02
-3.707227380102150471e-01
-5.259023064449469542e-01
-1.871555975410879036e+00
-1.054540552804296150e-01
1.261850183263251379e+00
1.114620983911798202e+00
1.140893656983770210e+00
5.766142163114756913e-02
-1.122582615309539067e+00
-1.068544344851950073e-01
-4.790629785631626003e-01
5.761756783428244599e-01
1.343404833455467129e-01
-4.254149768345607541e-01
-5.183485682531083771e-01
-5.722323142357241821e-01
-1.640942793269206446e+00
-1.521833701288120899e+00
8.062891373193337152e-02
-3.570376752975409906e-01
5.920734547044342877e-01
6.904826404356425584e-01
-3.940385736918190496e-01
6.814568717959317290e-01
-2.352309550688602424e-01
6.400078823868788902e-01
6.582659834889359463e-02
4.892507756201373570e-01
-1.072489177190310006e+00
1.095410425270777921e+00
8.433524661254896415e-01
-5.641528958597774590e-01
4.765332657562272312e-01
-1.850214191843344569e-01
-5.764482162113629959e-01
-3.411334027145066505e-01
9.473517756588933914e-01
1.278237858083522971e-01
5.181699837862785429e-01
4.377296375015570229e-01
-1.033370429347784558e+00
-3.548224783103884894e-01
-5.379043889594951056e-01
-1.770442164781336758e-01
-2.087982581522177528e-01
2.399372914729663298e-01
5.968429032237509979e-01
1.314190667052689832e-01
5.101449340031755098e-01
1.516061546082123623e+00
7.057443513459522588e-01
-7.199998254366597461e-01
-3.977874623431851275e-02
5.022991081911249989e-01
2.434314580920657334e-01
-7.550186802647081974e-01
1.565864657072087107e+00
-1.136232056088460673e+00
8.348984275976059077e-01
1.117054940932802193e-01
-1.362356262864132250e-01
-3.849150961954388439e-01
1.350170039070434980e+00
-5.073063144328885388e-01
7.974686179075775039e-01
-4.754778497455890984e-01
4.125601291775582435e-01
-1.169316238236915328e+00
1.192480789228996807e+00
5.894335127342409386e-02
9.342542017821211520e-01
4.709290013232880767e-02
-1.483911944026808039e+00
8.879922219979359266e-01
-8.699483095994531290e-02
-2.604704100899323804e-01
1.208009114836648745e+00
-1.524177762546110593e-01
5.434088014682498802e-01
-3.813000356579063777e-01
7.637291062454831803e-01
2.864767598560455375e-01
-1.464335744835037811e+00
2.267580105038372040e-01
-1.820217461651185697e-02
-3.933002397742254019e-01
6.733257124449932851e-01
-8.047201084811641536e-01
3.360182566674876359e-01
2.733282905453660039e-03
5.586174570330934008e-01
3.378810700234489151e-01
1.337376166509675501e+00
-8.492843829190851457e-01
-7.842001628001018521e-01
2.368411053871332661e-01
3.762001550560820085e-03
6.359156147711446661e-01
1.096480541945916265e+00
-6.701841288286036757e-01
2.442773434757289364e-02
-3.080913831191108287e-01
-5.761674567121026769e-01
-2.357697895786067255e-01
4.990303035862234671e-01
1.976628238259501014e-01
6.233436218799988104e-01
-2.110587669407332778e-01
-1.620645958150142008e+00
-2.915091371286287480e-01
-1.440455606955197254e+00
2.208207211146487881e-01
-2.026472840644549800e-02
-7.237444219007907464e-02
-7.803854164724659537e-01
-8.537977645416761074e-02
-1.568158530992664890e+00
6.110486732149703615e-01
3.002704333145843063e-01
-1.354287083757226562e-01
5.275245240514088163e-01
9.395320488679709259e-02
6.553206106445376156e-01
-4.847564689934439897e-01
3.688126222629564688e-01
-1.497201045144828657e-01
-3.958888936806762016e-01
-4.497975242459449907e-01
5.072866247792262584e-02
5.646384038749789891e-01
4.361841466244245624e-01
7.914820141144948140e-01
-4.742576009749998045e-01
-7.570129922069857020e-01
-5.505152100916221869e-01
9.604286525431942056e-01
-6.418461241666729711e-01
-2.502563558768569618e-02
1.573891929620266916e-01
-1.093399622323733222e+00
-5.379035319600034004e-01
2.626256297520079830e-01
1.510235949907581032e+00
5.464782088854718278e-01
-9.780777493388227439e-01
-1.607882295764911373e-01
9.506019280385705761e-01
4.072551568890940832e-01
5.726827699828576090e-01
1.488872506537640028e+00
-3.669981595096388771e-01
-6.062611939953186369e-01
-3.357728507472068635e-02
-1.528301353495133963e-01
8.602961239416895278e-01
1.295890379279767579e+00
6.743998601357703571e-02
-4.003896229685108832e-01
7.597473495993520287e-02
7.228750643085055660e-01
-7.869559522847577870e-01
1.390696515442654269e-01
1.904252777943673536e-01
-1.362986557285706279e+00
-6.035200419992085841e-02
-1.744845610452862683e+00
5.145345041523821106e-01
4.335735924732360136e-01
2.494517692844852308e-01
-1.068129520923836617e+00
-4.981535673961000332e-02
-2.040350831138229848e-01
1.113915682670846008e-01
-5.296168955859388294e-01
7.010517224241863410e-02
2.465512060559323371e-01
2.816129352792201557e-01
-4.891173683905757907e-01
-2.394984502873349075e-01
-6.291370929182833471e-01
-4.049929280774129947e-01
5.390216608483680005e-01
2.282055909330817478e+00
8.583199221015509472e-01
-9.116426676635376314e-01
-1.774314734179682329e+00
-1.734042147813824819e+00
-5.919915802311402908e-01
5.143643836556366367e-02
-5.929645536844582732e-02
-3.403573897394601699e-01
1.088317233642807969e+00
6.749776648883121233e-01
-6.225122882961031667e-02
-4.115012640826554713e-01
-7.856625956918306120e-02
-1.466313993769921553e-01
3.437222050135526619e-01
2.882996895241495827e-01
6.598667000709992347e-01
-1.617597885897159582e-01
-6.193284187712334576e-01
7.530407125602640583e-01
-8.980088206922942629e-02
2.053410141566831548e-01
-4.770940112432795477e-01
-7.041855417684764751e-01
-5.533170686721191611e-01
1.170628959510507938e-01
-2.320777352642672264e-02
-2.198403597942254262e+00
1.127781435282798617e-01
-6.614202437261724743e-01
3.826326137871629562e-01
-1.040938836177111249e+00
8.997715168547182341e-01
-2.913819643058565556e-01
-4.195025525180185455e-01
-1.928739205862203487e+00
-2.682054267040797635e-01
-4.769666495826819785e-01
-3.162688466298598788e-01
3.555889306321738386e-02
5.762508700706501230e-01
-5.311844795986440104e-01
-8.363651419650152130e-01
-1.368221154619642110e-02
-3.119312271755518839e-01
-5.449419655619622826e-01
5.387666281272593949e-01
5.966596182885668398e-01
3.045366874274749724e-01
-2.549618014140720423e-01
7.207672397402561382e-01
-4.200923502882967231e-01
-7.927382037920041036e-01
6.139869795290537891e-01
1.244545879042625369e+00
-2.406281839406414935e+00
7.479251699659835717e-01
-4.395786436929627339e-01
-4.469330172925246036e-01
-1.469157634567028969e+00
-2.233391527499328788e-02
-1.937438849468751556e+00
-3.989619193510505202e-01
-7.217863730499793906e-01
3.215485805672271269e-01
-6.106243537539390864e-01
8.721243639270468417e-01
8.923131272610132503e-02
8.000558637930096917e-02
-1.104814316891276738e+00
-9.319811120003044236e-01
-2.339341021660183151e-01
1.206910431017849561e+00
3.925066832442394849e-02
1.576098588878655227e-01
2.683755865590606859e-01
1.270810828899171241e-01
1.980592369214038972e-01
3.207726763908672618e-01
-2.535638146422227179e-01
1.150610365241679700e+00
-2.794139147710361648e-01
4.274618762525342341e-03
1.081808349571625749e+00
8.742354080564248564e-01
-4.016903674328903273e-01
2.029875717797513968e+00
4.080851059694972638e-01
-9.752190073341364673e-01
1.593410644632026862e+00
-6.837104320561394610e-01
1.107151114945705006e-02
4.699617868016389144e-01
-8.779316789337809901e-01
1.422898360870815948e-01
7.151146387314468722e-01
1.318378801916735288e-01
-1.688661888995569349e+00
-7.143006034065146892e-01
-2.694760797482351200e-01
5.730380125892446941e-01
5.027005034136093897e-01
5.481963364354257573e-01
-4.154885579606669710e-01
7.489315552505440010e-01
1.493429082843646949e-01
3.971134560032786864e-01
-1.059812353052566269e+00
-3.732028170689105084e-01
-3.417780731288354579e-01
-6.600528554594862207e-01
2.621336499056727831e-01
8.194849999613680325e-01
6.113467148379585492e-01
1.581332785126259521e+00
4.146537570738446088e-01
7.700194011584678977e-01
2.444258807875613337e-01
-6.080876409283848538e-01
-1.664038740013191298e+00
2.152589116589750662e-01
4.581416267028259881e-01
-3.965572142614887108e-02
1.826881151501111855e+00
-7.369454319050976476e-01
-7.346002897761856332e-01
-1.842623254337212302e+00
-1.222621291187747650e+00
-5.589384559217251969e-01
8.905496369239096488e-03
9.552258392117874974e-01
-8.955375547917210355e-02
-2.142630432952701558e-01
-1.515165990801668749e-01
2.028912464651250858e+00
2.130730737449976431e+00
-9.708341217211055030e-01
-1.144683823911601506e+00
1.877943606667409615e-01
-1.515255778344981596e-02
3.782274917665855440e-01
2.273578424286307742e-01
6.337399353417068060e-01
-4.762759619737752526e-01
6.098458538717125288e-01
7.236428685123459381e-01
1.014093337260058902e+00
-5.425413180368789945e-01
6.414694450241877899e-01
-4.777327715649247741e-01
5.732505436319663694e-01
5.867184778506246978e-01
5.659971183095784397e-01
4.460209497582983684e-01
1.175805888656199505e+00
-1.512693138157211958e+00
-9.143897140671654322e-02
4.152401473337991034e-01
7.557895263021926491e-01
-6.656496721743301315e-01
-1.101872416149059397e+00
5.023874814806130740e-01
-3.029360103834363160e-01
4.458793257144493816e-01
1.287944910681388055e+00
-7.880566904185422328e-02
2.707047170253095159e-01
-3.336887427469861778e-01
-2.716749615457387801e-01
-7.486540523651413759e-01
-3.031967312500946088e-01
6.962590019003087605e-01
4.913420730389249369e-02
-3.376695625522931898e-01
6.062412903282980992e-01
-8.466056608906638026e-01
3.308052687551902293e-01
4.890423467910801625e-01
1.665463617276482733e+00
-1.654567670525406431e+00
-4.694163848143862450e-01
-1.131851253561869886e+00
-3.488174432185803253e-01
1.054593252756469202e+00
4.665740545523356930e-01
1.413211817030202377e+00
-1.393657671849943380e+00
5.235709795681071643e-01
5.413020894567054375e-01
1.919801266912199433e-02
2.015139738042638351e-01
-2.868432513772547487e-01
2.597763635920173619e-02
-4.439164515863779914e-01
-7.951378872654749630e-01
1.294932005999242852e+00
1.280873142072788351e+00
-1.162205637821833282e+00
2.284660450682196031e-01
-6.737695794550254691e-01
2.284535974734125396e-02
-7.394064471056600585e-01
-9.761535149092585018e-01
3.104791815932395060e-02
-1.703937606753761491e+00
3.876385938447640678e-02
-1.089618142809750445e+00
-8.548725369009527730e-01
-2.132499241692252134e+00
4.364395842610446774e-01
-1.628928064947095522e-01
-6.972623850276877810e-01
7.623271543347345247e-01
-5.623500828855021449e-01
-8.479380521077234389e-01
1.162909093428640572e+00
2.232118146038462037e+00
2.699249354734606920e-01
3.459949594934598749e-01
-1.064492107521919362e+00
-5.807525725500686242e-01
3.838225114979072761e-02
5.485008045883500438e-01
4.821175371545771693e-01
-1.342178011358502232e+00
-3.997255278525125854e-01
5.947429364241509919e-01
3.088794384448367292e-01
1.998940029776347327e+00
-5.102382723490882510e-01
3.020088561954333839e-01
-2.405751126053297384e-01
1.562041149220501079e+00
-5.239966288994108989e-01
1.499402588526140168e+00
-1.105610592743001774e+00
1.243496309786020326e+00
-4.792361686217941896e-01
8.868338593206257503e-01
-9.114601169292000371e-01
-1.247718380042042857e-01
2.028041101706814509e-01
5.258684352154519015e-01
4.812044235560866134e-01
-9.960635572071003807e-01
5.261210202730238761e-01
-1.015954883397274244e+00
6.269540532354870299e-01
5.087329385041086116e-01
1.627616224884873786e+00
5.725847898750269227e-01
1.191133387546284617e+00
3.563339868352361495e-01
3.247980881829853894e-01
-1.674643201350259902e-01
1.517821578955717843e-01
-6.971967949109181273e-01
1.143511602792568471e-01
6.634641821950509888e-01
5.352318073413107058e-01
1.071522735636233792e+00
-4.786572796067247726e-01
-4.989807987755307539e-01
1.198241552154322598e+00
-9.951220239800615541e-01
-1.463422987033556888e-01
-1.156576033087075128e+00
-5.961752021204398400e-01
-1.915406350531001500e-03
-1.255414806279061990e+00
3.731346555469849391e-01
-3.667617922980526135e-01
1.835018900006130660e-01
1.471470050628857162e+00
1.508908858245346707e+00
-6.683883564695849433e-01
-3.259610115771461869e-01
1.002933532643778269e-01
1.370245901317528991e+00
-1.266797729127967953e+00
1.010685832759121716e+00
-6.547558004963818235e-01
7.472083437269079198e-01
1.331881027821937569e-01
1.178405017370213859e+00
-7.635271631508830925e-01
-3.014926365056269653e-02
-3.723919684276494335e-01
2.230460821280729533e+00
-6.791136640265333924e-01
-7.385594412227587391e-01
-5.995963481940761453e-01
-5.116475197180580387e-02
2.900376430447145215e-01
2.945336206716450134e-01
1.477229294631456025e+00
-3.506918602019875042e-01
3.433334749688751741e-01
5.582383131622878358e-02
-5.690653560651051102e-01
-1.003891582110080227e-01
8.178961208085404611e-01
1.638281872323073540e-01
3.636013458221022954e-01
1.520400164867510284e-01
1.225360880333276059e-01
5.035226604171868514e-01
1.000727402829798773e+00
4.077707679602725621e-01
7.035166921168005683e-01
-8.305514020139941334e-01
-7.111014404592521654e-01
-6.873791436060434634e-01
4.849161048364425408e-01
-3.348541088910765295e-01
-2.940664479063918035e-01
-5.542037914784255781e-01
2.539409331423755356e-01
-1.796390663035759117e+00
-5.786295218331883872e-01
4.620845589643546858e-01
-8.942046274783566062e-04
-7.811647697075774222e-01
-2.501859026749509995e-01
3.293062289412488908e-01
3.056639385353300820e-01
-1.112356945008839082e+00
-1.059380283320022098e+00
-1.533916409122598967e+00
-4.398575595156548612e-01
5.778660811452263069e-02
-2.288566089644132884e-01
7.273268194695609035e-01
-7.035502372954527406e-01
-3.204714753414461548e-02
5.863983209894054749e-01
1.269183007492244331e+00
-9.429259656684990665e-01
-4.680935972223165820e-02
8.597158394095898437e-01
5.567861251970068759e-01
-2.024281899019637065e-01
-4.283291509671572350e-01
-4.676106574415536676e-02
2.338152392876564345e-01
9.955388343285420660e-01
-5.693823476632706715e-01
-1.239605210766129284e+00
-1.998642209748863197e-01
-1.323668254059424676e-01
1.014259514994616973e+00
1.823881007882694472e-01
2.356571262571788283e-02
1.226209199338066824e+00
1.270670739360039603e+00
-6.907368805018847535e-01
-8.140113515137599176e-01
5.176314330032945055e-01
-1.560854334270393551e+00
-7.093139792149936174e-01
8.446501682169108571e-01
-1.318114661459366954e-01
3.203060949398156554e-01
6.741187766651708380e-01
-9.441468138999223880e-01
-3.299179183480125954e-01
-2.989957923037701026e-01
-1.966479985995114865e-01
-6.719729591747262143e-01
8.764487348199124783e-01
9.867500239748603352e-01
-1.239930429900332420e+00
-4.024070749037844674e-02
-1.061741264297035192e+00
-2.084402343102036426e-01
6.602583327835084281e-01
2.269373304708755423e+00
2.295429202791126055e-01
2.734788504299146550e-01
3.817887896957698479e-01
-6.458455664482939396e-01
1.572751672803353262e+00
-4.363388095602881989e-01
-1.960419888237701913e-01
1.350192630359012824e+00
-1.043699357912802661e+00
-7.162274946660671660e-01
5.435571696745966630e-01
-8.193692381461203933e-02
7.545874615671694929e-01
-2.943193247467152940e-01
-5.424491668239553310e-02
-2.007136402583599433e-01
-7.206571976565585569e-01
-8.565433981873226132e-01
7.183764157945000672e-01
6.156484583022903134e-01
7.021674696416453365e-01
4.610891939690964225e-02
-1.013461613952107321e+00
4.241037408192330771e-01
8.923148932423974333e-01
4.516335604801880454e-01
3.674533021345309791e-01
1.541990761531381260e+00
-6.519463363197186556e-02
-5.576831417988330486e-01
1.089076841140153684e+00
-8.288635282625507195e-01
-1.541775076198167227e+00
-1.002316613281620139e+00
1.315021642560603166e-01
3.804402488266312443e-01
-1.551292463550975886e-01
1.223625288658428012e+00
2.381163175671710541e-02
7.866752904751825870e-01
-1.049706527515888332e+00
7.616526900469500205e-01
7.624515045697357607e-01
-1.437453202812899011e+00
9.213537972111512930e-02
7.857488338169706932e-01
-8.000473249684365573e-01
-8.152024110026935277e-01
6.689735797191086464e-01
-7.751219609949745737e-02
-6.833929788518101622e-01
-1.107403902431827625e+00
-5.498615942504982979e-01
1.370313052046629454e-01
-7.384227223222949998e-01
1.367071916298279177e-01
-6.079266634806396175e-01
-1.212596259537819021e+00
-1.518658814515549682e-01
-6.471519835380450392e-01
2.385444222945828585e+00
1.950373617721704311e-01
-3.562139159771464669e-01
6.265163106561050244e-01
-1.127055601872490431e+00
6.515284594478069069e-01
8.850776297855111885e-01
6.620076107328390913e-01
9.761285013433957936e-01
3.259308528944581673e-01
1.425166411274761291e+00
2.229343026947528394e-01
1.084170618712420930e+00
-6.495946158949843507e-01
-8.137082753963387205e-01
-9.167531404340295564e-01
-1.272917267385411666e+00
-4.970630972577613771e-01
2.423581223306973120e-01
-7.389946473826694007e-01
-1.071062705251025760e+00
-9.026095185181407521e-01
2.994565397384458816e-01
-2.138829689201227069e-02
5.791126128314882937e-01
1.958323097578026362e-01
-7.095591744158491476e-02
-8.805187842018844524e-01
-1.331231615543018165e+00
-1.001983693999886071e+00
-1.344101264867164192e+00
-7.100504092326767047e-01
-8.658910889081119500e-01
-2.092668611815007296e-03
-2.611583109351189869e-02
-1.153507860393226725e+00
7.734569431521970406e-02
-8.978992168043583577e-01
6.029040150203971438e-01
-6.887326931292789833e-01
5.290219693379497046e-02
-1.215252575826927250e+00
2.203519041990752991e-01
1.207024941619279645e-01
8.606770835890842353e-02
3.714704347868557077e-01
1.111050292264547323e+00
4.700470206221318836e-01
4.498348291388462039e-01
6.709190968230180907e-01
3.618339915112107619e-01
7.251546026716915172e-01
-3.368396839674681065e-02
1.853484482296670510e+00
-9.092638692401033840e-02
-8.966187452756435583e-01
-6.963729773946145674e-01
5.742984455295108148e-02
-2.310566148132445541e+00
3.044628379760857054e-02
-5.029701271479228852e-01
1.362491662473727327e+00
2.564939589509311890e-01
5.494436853527919773e-01
3.047925534889736610e-03
1.577630127376990488e-01
-4.305197100705582258e-01
-3.650548363457952750e-01
-8.416914930881653767e-01
-1.174673943309555879e+00
2.269795324394926345e-02
-1.766662221371606556e-01
7.220248964037605521e-01
2.932565166152417691e-02
4.372512951147737859e-01
1.817432567380463659e-01
-5.521691379587109760e-02
8.369847507158361122e-01
-2.794013840982932373e-01
-5.765415226586567687e-01
-7.210109103386197482e-01
1.498660263285834793e-01
4.212560551491044136e-01
-4.712831849127289696e-01
2.909525010082542051e-02
4.468034501112098100e-01
4.012405275937069860e-01
-2.331334320681577033e-01
6.806191045708143150e-02
1.072707622460952859e+00
-6.005490563162767526e-01
-8.333339114583334511e-03
-1.751586627072806879e+00
-1.759769193589870717e-01
1.042884194490703464e+00
2.725790256496994357e-01
-4.953703140174364750e-01
-8.742775322894735801e-01
1.651853670940655605e-01
2.398072834252478747e-01
-2.555054093282514982e-01
-1.077208942536645786e+00
1.702375684635178965e-01
9.738917994020079849e-02
1.201329910958255365e+00
1.749739961416464151e+00
-4.515157028901224945e-01
1.817193454808261999e+00
-8.692321542452138838e-02
4.352792737023132852e-01
-4.315263691362676846e-01
7.782784206062618448e-01
-1.390330332148466130e-01
1.877408447124369939e+00
1.320605976257034908e-01
7.688335018619373296e-01
3.439675138903293128e-01
1.303412175602039369e+00
3.948239394422845550e-01
-1.364108615416107506e-01
7.783255483793648510e-01
4.376090911687558482e-01
-7.816779037772016991e-01
2.118634044822753193e+00
2.830502074500331755e-01
8.516266080261686300e-02
-3.800547644281578319e-01
-1.818749521679501047e-01
1.014909428504903621e+00
3.817507997245714324e-02
-1.299906985372599522e+00
-1.126801513143775857e+00
-7.217849926598486343e-01
3.809614574507932394e-01
-2.234450918487116411e-01
5.324432564106100774e-01
2.871745911044143451e-01
6.619177964428404337e-01
-1.234550834490251603e+00
2.966726962141511548e-01
-1.387186250568559487e-01
1.168109927406388859e-01
-1.416111037891969682e+00
8.845201638106529041e-01
-1.585191038782913509e-01
-7.246817006218568835e-01
-2.644016025896661626e-01
-6.339750877827565745e-03
7.062035663930852358e-01
-1.081720268341757496e+00
-2.416671420485075217e+00
1.228670297379096832e+00
9.982537526329487987e-01
-2.292764036595697219e-02
-5.017170449497135865e-01
-1.056607283542553954e+00
9.147690494836443476e-01
-1.272388501457718313e+00
-3.938034550893344532e-01
5.092934034947576016e-01
2.573043525115146224e-01
-4.475163572035870119e-01
-1.793400098811619436e+00
-2.619098450147530066e-01
-3.372803665337842371e-02
3.918976940238937390e-01
5.454879841220036107e-01
7.793667854709485088e-01
1.778235546853879523e+00
-6.600996012447067907e-01
-2.277792766137027303e-01
-9.052465549462311856e-01
2.266801713482197167e-02
8.914169036867516382e-01
-8.484821838574314601e-01
-6.816455277295441206e-02
-4.282665979123080335e-01
5.659016875797987511e-01
-4.893375370391902512e-01
-8.414036013429215810e-01
4.541985661293104215e-01
-6.606884257717877684e-01
-2.407958570449046931e+00
-8.539073042621805332e-01
-7.557717984915551801e-02
3.211364709615135427e-01
6.238599731082254962e-01
1.388638818481587656e+00
-2.260232618389469428e-01
2.810213305477257673e-01
-2.392457139095505725e-01
3.174806484681973462e-01
-1.320241541649413319e+00
3.399776143497604819e-01
4.655186279670034954e-01
7.582717973577246529e-01
-6.021111683875881582e-01
-6.398997964219043100e-01
1.167889907341351119e+00
1.209109986974075124e-01
1.041861590721117059e+00
7.747447780958615082e-01
1.621268804193860991e+00
-1.267491111325762532e-01
5.249270178407339227e-02
1.011504384042190452e+00
-1.831002081108137058e-01
-9.588211710242739994e-01
-1.060186349777626935e+00
5.717315306518838680e-01
3.689621224819198964e-01
1.062981767668787825e+00
-3.324882812219775996e-01
8.939894366032394846e-01
-2.368035507986788746e-01
-3.017183677492993876e-01
-4.036795881489608773e-01
-1.158801475327473796e+00
7.532304570945053124e-01
-7.985181505242217037e-01
-1.683369997281777275e-01
4.771052150415120430e-01
-1.011204502191641819e+00
4.327976552847792036e-01
3.500702350194220269e-01
-1.197277621327087704e+00
-6.482641531067072638e-01
5.815665025939409372e-01
3.856262847393135962e-01
9.350423226859339021e-02
-2.521586553611360193e-01
-2.060135308624910233e-01
-5.810086686849155191e-01
-7.772147503095547805e-01
-1.897176394133483601e+00
-8.798681171073187146e-01
-4.969030499652733468e-01
4.777615400918359678e-01
9.949658335803480691e-01
-4.720223409778546153e-01
-4.064429961155604509e-01
-6.663245899054015542e-02
-7.193351597311459233e-02
-8.430704900984026251e-02
1.478546434020983957e+00
-5.164257362101166704e-01
-5.190643280202213994e-01
2.720304419947012775e-01
-1.002603001434453800e+00
1.222387359318049538e-01
-1.261832737650810721e+00
6.469405566606351021e-01
-9.860044460331828242e-01
6.572380409267930546e-01
9.087871528357560624e-01
1.115194097597203893e+00
-6.385878002454087321e-02
1.176892996323967155e-01
-3.728508724792533036e-01
1.190332134566860933e+00
-3.829125387047435103e-01
1.724916795240961642e-01
2.403276594143073097e-01
-8.860916885736519477e-01
4.676868167509662388e-02
5.115470001792277177e-01
-5.998673343371428990e-01
1.925818526849398804e-02
-1.513617340617925411e+00
4.309238297189418865e-01
5.983507377257019089e-02
1.236278181441713975e-01
-1.073832434298841454e+00
-9.441985190912542958e-01
7.071412746655197923e-01
6.926392254143033389e-01
-3.582368982120074374e-01
1.523311532409663549e-01
-3.880877324024838426e-01
-5.530227776213803015e-01
-3.840806614433082689e-01
8.616240817163970389e-01
-8.417402069760114569e-02
6.342696692098978017e-01
6.158750714309390029e-01
-1.429788824719383511e+00
1.003420183359309048e+00
-1.956643270960020997e+00
-1.869881710302813138e-01
8.694698317998075243e-01
-5.917450777405987017e-01
-4.761231087912597415e-01
9.655492792331631380e-01
3.324790966411232951e-01
3.067906919471587168e-02
-9.398270573061628941e-01
-9.990229237984987742e-01
9.538660318753728884e-01
-3.570481710936905806e-01
1.344867211119927131e+00
2.143011026360381432e+00
8.704961966333533141e-01
2.803549838308250219e-01
2.806132024472716147e-01
1.006190204467042604e-01
-2.071338621954428583e-02
-1.267891018740421316e+00
-4.938903015950968367e-01
5.672234181479528514e-01
7.912692643915240076e-01
-1.554300339447057810e-01
3.234268976355136882e-02
4.501371767887486497e-01
7.984657374063136581e-01
-8.145137948473158973e-01
1.348735026749123267e-02
7.232430134281249146e-01
-1.090721564600819926e+00
-6.085134733854562494e-01
-3.534380727037192971e-01
1.277358115532840177e+00
1.230279581887065099e+00
-1.312298590927677200e+00
-5.125747655738490671e-01
1.980307372785355735e+00
-1.203552555816007619e+00
-2.223122317255465941e-01
-6.047385998518193251e-01
-1.248752270469466019e+00
-1.968129564826117672e-01
9.576805445557677876e-01
-6.559433418119477999e-01
-2.245380590870736937e-01
-8.477372296113174777e-01
6.366101665936709786e-01
-4.890102332132761909e-01
-7.007635854664524544e-01
-1.622163486727858928e+00
2.884379919284829619e-01
7.064703509689448935e-02
-4.384352072919237564e-01
1.116755981387997920e+00
2.355641585151611928e+00
-1.042460603407197595e-01
-8.630711933751532561e-01
6.601721594334081233e-01
2.143764335264880527e-01
-4.063303827838621873e-01
-3.496798442913969795e-01
3.408261905553172655e-01
1.440698959309995919e+00
1.718167326185267574e-01
-1.655615107329699853e-02
1.202856244132912478e+00
-5.918635913373828661e-01
-2.909382627107481856e-01
-3.061708432092373200e-01
1.619687132980895283e+00
3.930562721773147583e-01
4.751276502092517950e-01
1.329553206087130235e+00
-5.398990991004272433e-02
9.394413377034255275e-03
-3.469832179295402885e-01
-1.586249295337548215e+00
-3.751915788720470712e-01
6.085207766537505947e-01
-1.274185065236332348e-01
-1.617969175683880989e+00
1.623678336448820758e+00
9.142450638375418936e-01
7.111286467519619681e-01
-1.046922110671179906e+00
-7.028568124841537701e-01
1.204915144455190212e+00
-2.617487289365745817e-01
-4.582973417570719299e-01
5.590943692420216049e-01
4.196862420629600410e-02
-3.192013781508435954e-01
3.589348464703177033e-01
-8.767036429657275587e-01
1.015501022753379834e+00
7.173164182174938119e-01
-2.136997490977134539e+00
-3.714994257334170991e-01
-1.542048359139057689e+00
1.004142045509431869e+00
9.734621349609583196e-02
-1.041584781993026620e+00
3.061679632255600025e-01
-4.030235751025670887e-01
-2.869959701045175504e-01
1.846094103891835481e-01
-1.122238451841859108e+00
1.081291344801631027e+00
-2.569686452987095526e-01
1.623860033362315214e+00
-6.283305383741952799e-01
-1.276143704124022893e+00
-6.965251773005298741e-01
-3.341558706841606385e-01
-2.284399033648617738e+00
-4.562143494961711232e-01
1.046368259655811705e+00
3.383831394485981581e-01
-2.254754205233246434e-01
5.370119112481881452e-01
-3.978334840120913984e-01
4.983545481047895742e-01
1.316566666871621383e-01
-7.484577008262294218e-02
-2.912181800592808512e-02
-1.051348878440102608e-01
-3.925075896002965248e-01
8.977524276006679793e-01
6.690635676617532335e-01
6.932425976586625849e-01
3.507467403590863175e-01
7.181340619052439811e-01
7.460271272003087262e-01
9.970739892611307775e-02
-3.032437793411219551e-01
-6.520982463123707884e-01
2.955622403559274303e-01
8.473830800180964795e-01
-2.321195517046232004e-01
-6.135349641548011324e-01
-2.527207941511908085e-01
-8.158692518067545141e-01
5.643382474070516297e-01
-7.330594954393815366e-02
6.122616776138476435e-01
1.507863350218098919e+00
1.091946508353003609e-01
1.565637224711766029e+00
-7.610816457029486726e-01
5.205221116205467347e-01
-6.079873173561735067e-01
-3.812483907038863862e-01
5.584583090915200970e-02
1.433650054766034021e+00
3.034809315737906354e-01
-1.832228573345368039e-02
8.273538319457643953e-01
-1.174360819639644449e+00
-5.804302169780951592e-01
-3.824469852644242218e-01
7.169225563755795561e-01
2.629670034046800720e-03
-9.464727067264033789e-01
1.043843690690627879e+00
-1.047661890003185992e+00
-8.593826174532129270e-02
7.165974440171121174e-01
1.242291108376451181e+00
-2.434808702805800196e-01
-9.289999659636011264e-01
-4.219674359999837088e-01
2.271113137678406058e-01
2.923065234717364680e-02
-3.410626066748244645e-01
4.221273158411956716e-01
-1.037941978003440180e-01
-6.508413075662364822e-01
-1.618705392709100799e-01
7.877668775822432856e-01
-1.827821357417420967e-01
2.302736261580196064e-02
6.038338829250147199e-01
-1.143892670549271351e+00
-1.081911848200587611e+00
1.845193029015078645e-01
2.100573898423258701e+00
-1.938770064657573400e-01
4.213452408002173466e-01
-3.167716768731356214e-01
3.087551356043299888e-01
-3.070808574027275584e-01
-9.384694481112747511e-01
-4.800527604828427886e-01
-1.161901712155643640e+00
4.130702577947581999e-01
3.093321031575312352e-01
-1.733780045930814473e-01
1.314975379101183672e-01
1.202777161274860562e+00
2.870164477577699658e-01
-5.297222046325884559e-01
-2.476820416977924821e-01
-3.492282882230869634e-02
2.366163722770023292e-01
5.831931308571381978e-01
3.721102096246322044e-01
7.198715454473219033e-01
9.467926857049303591e-01
-1.490524007765877124e-01
7.205239260443312144e-02
-4.594386404097832166e-01
-1.099874660659306613e+00
-2.163115861722644806e-02
1.262621578915976706e-01
-5.195522360965465491e-02
1.508804870540297216e+00
-1.559045604304133192e+00
6.931456130708012475e-01
-5.791660054453140472e-03
3.472653883089024118e-01
-5.935566163018660690e-01
6.141525292940672731e-01
1.619819951837245142e+00
7.883787751609884209e-01
-4.341252030485720503e-01
3.051722676322361494e-01
-1.060730178066131568e+00
-3.387620855921213980e-01
-5.684196797617585561e-02
-4.913035302205803756e-02
-5.740348569344588814e-01
-7.106466524522924155e-01
8.951331492865131079e-01
-2.651279367238383866e-01
-6.975198451150843582e-02
4.684295289632880999e-01
-3.409365070926241303e-01
8.848654894314756936e-01
1.083286028320389061e-02
-6.220139829456577951e-01
9.310163019219384051e-01
1.235970924261975412e-02
-2.046583251106215418e-02
-1.564931012161244306e+00
2.007008214769418486e-01
-1.519359599926733084e+00
-8.175441959705957995e-01
3.279806578318936183e-01
-9.340939379867944092e-01
-2.446670133310414053e-01
7.149030701618904748e-01
-5.381507103555455140e-02
-2.582435638993759719e-01
-4.219637353637000210e-01
-1.209428091372928504e+00
1.124772837106031431e-01
-1.414424202883918236e+00
2.167576695988604474e-01
9.126280819918015652e-01
-9.164879388703066621e-01
1.828137254152622404e+00
-1.283459016398629804e-01
-4.576900470285291678e-01
-3.388909794934628072e-01
-3.041749488117737599e-01
2.579995401348658124e-01
-9.233005160167089276e-01
-2.454873193225959316e-01
2.661781242372444622e-01
-7.718369640947034815e-01
3.038890471543068683e-01
5.971987451989846374e-01
7.078086773729189707e-01
-2.985265259926353498e-01
-1.406526745167812287e+00
-3.267979062044155114e-01
-5.285916502302732134e-01
9.197009175062564879e-02
3.367591802406790236e-01
2.382038904815663716e-01
1.409107456533623015e+00
-5.922651264978884278e-01
4.947739480589896655e-02
-1.957302519426162013e-01
-3.898975037052544446e-01
1.386825340967290376e-02
-6.075622698592469950e-01
-1.130836602665491908e+00
-1.751898809308788940e-01
-1.799642913290923629e-01
5.498859711096747427e-01
7.678630965049548784e-01
9.851160962430360879e-02
6.734170793895850604e-01
-3.791018491845471461e-01
1.331623333461236791e-01
-7.212004263952827010e-01
6.668659055378891587e-01
-6.953439781509428430e-01
3.399813950676927599e-02
-2.465446932656817136e+00
-9.342129865822115242e-01
-1.033155195176543417e+00
-3.988462433142867525e-01
4.910198031907586635e-02
9.681215453240055169e-01
1.259041522063164553e+00
-1.366900200312548996e+00
-6.731956064624062819e-01
3.666898681356255962e-01
-5.344737850089844589e-01
5.111930629678325122e-01
-8.231427495232057634e-02
-1.107077372696508188e+00
2.816455358361436012e-01
1.007702032013052307e+00
9.689152506643609053e-01
-9.008380534926288541e-02
-8.523012128815931066e-01
-1.730331720208910795e-02
8.918246446696260765e-01
2.479097489096015183e-01
2.343995466552522000e-01
3.895518185089370533e-01
2.343329155197659275e-01
1.427711287310992061e+00
-6.274465409656579951e-01
-2.059824470879845215e-02
-1.476392169727443471e-01
3.049481832582446872e-01
2.343494299010248083e-01
4.755734654166126618e-01
1.238103686309532936e+00
7.080211789462398375e-01
3.371082802643196596e-02
1.172730118357433682e+00
-6.743355013793804476e-02
4.459045141703002479e-01
6.514030761962423810e-01
1.743029444752668966e-01
-1.715109190873280731e-01
-6.267297173198326243e-01
-6.085189773417072345e-01
1.009349044405463802e+00
2.097025649893849431e-01
9.214728798569953305e-01
-2.962824345283894267e-01
9.386000504595782834e-01
-3.339925630975555948e-01
1.002449426615660139e-01
3.481289708752891565e-01
-6.559912261110176779e-01
5.617604446728208245e-05
1.620604234175009317e-01
4.182309694293920854e-01
1.082723496574025557e+00
6.377487672500958826e-03
-1.420324996358840242e+00
-6.824482102773011816e-01
1.223265743316311660e+00
7.562483521553824140e-02
3.755502424372287873e-01
1.198697597469844389e-01
-1.162948608219021462e+00
4.689717134861154380e-01
1.640598715578408084e+00
2.362970170845947460e-01
3.861770902170665876e-01
-7.953710970574268124e-01
8.718480521854288234e-01
-2.720282973235468860e-03
2.625264968837034418e-01
-9.538391156114042202e-01
5.417046751033636198e-01
7.381180241540201692e-01
-3.266453248894645167e-01
-1.034249869977688085e-01
-3.443768940131005651e-01
7.074428289586248697e-01
3.893204144035888326e-01
-9.838986812852243968e-01
-3.484158243618383777e-01
-7.484254362006517725e-02
2.648170688962611652e-01
-9.336055578475865868e-01
1.194999011661083577e+00
-7.504938966205125794e-01
-6.609422193517042743e-01
1.110131974375311525e+00
-2.137607154061255121e-01
-2.071217215631287800e+00
-7.408041794056591245e-01
-2.199392043309749134e-01
2.186405444860985980e-01
-1.173487486338974151e+00
3.574501817317695673e-01
2.006685913331354598e+00
-2.027282040774341709e+00
-3.775018481210790089e-02
-5.110167243470342680e-01
5.285924700315671743e-01
2.031391877843023996e-01
2.606913904345827815e-01
5.495212120805090250e-02
2.935456892306921306e-01
-1.473828732993396340e+00
-8.600005505318224497e-01
-2.492209185979994968e-01
6.338468170351024833e-01
6.415273404008527969e-01
-2.722457223352434674e-01
5.029682699762908493e-01
3.391953111773189367e-01
1.245559029784872429e+00
1.324265288223376857e-01
6.803476201058711315e-02
-7.526678656600144235e-01
6.727167054065721352e-01
-1.101098154016771691e+00
-7.151880519167120864e-01
1.237412011304434012e-01
-3.013719552997021767e-01
-8.045122791179768473e-01
1.820457747209828780e-01
6.722614790308272248e-01
-5.554785306515324095e-01
2.169745151756223844e-01
1.804463816755905059e+00
-3.497099118486268754e-01
6.779239366368363662e-01
1.815909251353733378e+00
-5.454619358377186256e-01
-2.523057409910319238e-01
9.000471296188619075e-01
1.903238304721752150e-01
1.317143279968252534e-02
9.926299926108862470e-01
-1.392814392779843091e-01
-4.636634431614445329e-01
5.454958657271852251e-01
1.254212839882087316e+00
-6.046993816747816552e-01
-7.337277642186923465e-02
-1.245158150394508390e+00
-3.752513275909787893e-01
5.911541272547615744e-01
2.529370190542847396e+00
-2.141154005351628697e-01
6.901409717335078575e-01
-1.714663444389477043e-01
1.346977329839703419e+00
-1.085478933220098252e+00
2.868977904652025845e-01
1.582660118820926609e-01
-3.698156896462923005e-01
1.231877279747025433e+00
-1.125109197491450441e+00
6.786555077192579777e-01
2.163767401833127102e-01
-4.952564647108924356e-02
-6.971171846922137316e-01
-5.865589937449282587e-01
4.797244649789865201e-01
2.958711928380317047e-01
2.728955464610012260e-01
-4.143717259117014606e-01
-1.583047646157007105e+00
1.629452076945613781e+00
-6.264332398483735131e-01
-8.194347540963393683e-01
-4.493781901467274742e-01
9.621331737039401366e-02
1.007403190346028987e+00
7.502922930225603970e-01
-1.300589737134605350e-01
7.003295076399124186e-02
8.737665446033965333e-01
-2.862418822185495149e-01
-5.534383088967089748e-01
1.068711236391747033e+00
2.771631587437182187e-01
-5.292733419081314672e-01
-2.482592226562641835e-01
7.715296997571422510e-01
3.262158101951682654e-01
8.691045393100443883e-01
-7.309919050983744171e-01
7.355772839918857109e-01
-5.985788789582107139e-01
9.405341051064303182e-02
-1.091694240469471833e-01
9.718445307820577916e-01
6.681194945498486470e-01
9.543452524712447982e-02
5.230507924043733547e-01
-1.623239627168417964e-01
-1.422657802927961068e+00
-5.122693772887794150e-01
-1.268812267391530746e+00
3.993320990530780934e-01
-8.309386409201516832e-01
2.390798339698204655e-01
-2.028166875102566102e-01
8.969546288151795110e-01
1.485287613621228520e+00
1.552515578422966724e+00
4.789781556345613645e-01
-8.993547011270969227e-02
-6.213928587650491275e-01
9.869880025570242077e-02
-2.178717735770420993e-01
8.708308671454327854e-01
8.054053773830452956e-01
5.957766849627751382e-01
-3.544078097039616848e-01
-1.093736296313053913e+00
6.732616384705600865e-01
-2.921486478227097727e-02
-1.203194974817427404e-01
-5.763784212056899392e-01
-4.522345273998971682e-01
1.238592535685593354e+00
-4.280138367149950440e-01
-6.935475904085818266e-01
9.549780177772502210e-01
4.859196770337045890e-02
8.385280410391571237e-01
6.808398710625429562e-02
-8.287253228082330780e-02
2.360098626771646169e-01
-2.371328432540370512e-01
7.369751105226957089e-01
-7.388149245037161084e-01
3.629215279849217768e-01
-3.523591227510747270e-01
-3.011226046605265938e-01
3.628858595615682692e-01
-5.979102828246181112e-01
-6.583198648275641052e-01
-1.484654404551093876e+00
1.341062213402939851e-01
1.701945819673552407e+00
-5.163139060826236193e-01
-6.058314336652642629e-01
-1.302281348268738981e-01
3.658867603390125733e-01
1.340184202952495296e+00
2.811278920108284396e-01
4.961093164912112052e-01
-3.296645307165521066e-01
1.084222938084131060e+00
-2.610440295303559921e-01
8.920560499478253913e-01
-1.248588744708211351e+00
4.853620983009072631e-01
-6.980315524652450643e-01
-1.103360293843231588e-01
-4.488993990463113204e-01
-1.658749773453162546e-01
2.210781291468686960e-01
2.635638466904797195e-01
-8.767554504878858346e-01
-2.482198986330829693e-01
-9.561798101753788970e-01
7.404971428137564482e-01
3.371234423108508960e-01
-2.480447457900441854e+00
-1.308611993543215446e+00
4.190422501921366449e-01
-9.741878388262859012e-01
7.794447171825258369e-01
2.489903549615984923e-02
3.721060065955447138e-01
-3.519312654352705350e-01
3.866248754198609028e-02
-8.874324814815719442e-01
1.037986222814742399e-01
-1.784641479317633284e+00
-9.647698197095855299e-01
2.199770614497042198e-01
-7.653190037421093717e-01
6.615742844216807583e-01
-4.140700332574555054e-01
2.177139198925587271e-02
7.554373864291930030e-02
1.268652064006998481e+00
-3.411164897515445715e-01
-7.339152336189797010e-01
3.073597505511007633e-01
-5.295319126730890780e-02
2.765765536889622234e-02
-2.618176568109366054e-01
-1.859322912391118798e+00
3.502770621880757496e-02
-4.319389066523799947e-01
2.238133732578782009e-01
-6.603088090404710675e-01
-8.971672343591019505e-01
-7.423054614948983998e-01
-1.558702289897878623e-03
4.844491440381901715e-01
-1.003361317996118052e+00
-3.723929213820517670e-01
-3.308866088156974250e-01
3.758244732737936467e-02
7.191355699897140630e-01
-1.126915862996296980e+00
1.038470757837776537e+00
-2.452202317730121095e-01
-8.296459222475485173e-01
4.810664272319978840e-01
-6.735558435981442438e-01
9.337576366160044161e-01
-8.121108861196031370e-01
1.411755922849192157e-01
-5.493608895814764415e-01
8.254678339492546035e-01
-1.191165821356793275e-01
-2.701930988872407458e-01
5.962735990454615109e-01
2.169151343927129272e-01
6.607107707271041575e-01
-4.677262556406290850e-01
-3.380505022525392977e-01
-5.163401407062835624e-02
1.273237618207201383e-01
1.114122703621239552e+00
8.116718746196476264e-01
1.108540928348368260e-01
-4.682486140307710043e-01
-1.488543050363276388e+00
-1.986935522700181700e-01
1.991703801597217716e+00
-4.074278712599835317e-01
5.188489142582652924e-01
2.184444703967831636e+00
9.237750831531509332e-01
2.907860602513716586e-01
-4.376616626562835899e-01
4.425160342454992346e-04
-2.231852519376683608e-01
5.963318157371390316e-02
3.860217715071007638e-01
-2.022585163432119026e-01
6.088135453485280513e-01
3.092836090932739590e-01
9.462452448203557687e-01
7.558633926542368542e-01
7.133501987257687693e-01
-3.634179771233221889e-01
-5.932277166075845543e-01
-6.884582896878851388e-01
-1.462689142338440718e+00
3.594240237086163692e-01
-2.581948741604424558e-01
8.410858515037751282e-01
-1.704654952794553147e-01
-7.756378443058434824e-01
5.424434120297866313e-02
-8.935164786778693191e-02
-4.398655553296124121e-01
2.334027186150378075e-01
-4.788637823388687542e-02
-7.769839411249628292e-01
1.757980617466211593e-01
1.013419369950381288e+00
-9.024183566697686620e-01
4.421366048989080477e-01
6.367689133778406951e-01
1.612430262066417153e-01
6.921053819549216612e-02
1.762507594166395630e-01
-1.840206760816266440e+00
-2.936690307308931769e-01
1.082639300844876196e-01
-7.101194522497092376e-02
-4.118928171404838134e-01
1.707033586922502622e+00
7.614111525147259085e-01
-2.463483893618650944e-01
-3.058748900658826431e-01
9.464001846153502484e-02
-2.678292623562585351e-01
1.423419110500441676e+00
4.887382186017612540e-01
1.585878758174692760e-01
-2.400795459248968033e-01
-1.442187741262611844e+00
-1.199900204482025279e+00
-6.527091070424420050e-01
-7.026621854127956812e-01
-7.721965199067487573e-02
5.208437048744229969e-01
1.475576655325720132e+00
-1.492769630689422033e+00
-6.399770265863136132e-02
-1.173188321632562925e+00
9.501763918202479342e-01
5.721760897204216656e-01
1.463767591887144448e+00
4.779926153404798206e-02
-1.154175085087647989e+00
-4.583784019403815968e-01
-9.474617717860095434e-01
2.852358185002346613e-01
2.336834991144646489e-01
-8.094386083952211930e-01
7.038782685496908220e-02
5.708018768621460071e-01
-6.996787417611893822e-03
7.234525185935547498e-02
-1.117329934146574111e+00
2.791511182972737370e-01
4.591862172909766393e-02
-4.150616014126785602e-01
2.289305512656341357e-01
1.414003822684885892e+00
-5.592473833891289381e-01
-1.421343584295068574e+00
-1.522027523808863636e+00
-9.566899350678277347e-01
5.289672126418982767e-01
2.636422840643107834e-01
2.171609700681227828e+00
-5.565173209721112624e-01
-6.505523819987900636e-01
2.895241683461152182e-01
-3.102270700528839131e-01
4.669370956545298990e-01
1.044903645375339751e+00
-6.709035327774287572e-01
-5.123627179443650537e-01
-1.685468883610042046e-01
-1.111587901629972119e+00
7.224083288326788033e-02
-8.106690799431371941e-01
-6.275413589993257268e-01
-6.430503249463708215e-01
-3.868397096520946876e-01
1.761647935814929511e+00
6.897481685859641054e-01
4.765203562732643894e-01
-2.271533299658103910e-01
1.113825105298690277e-01
9.525645574770549295e-01
3.302992034044217595e-01
2.130270148405948305e-01
-3.785210025495158170e-01
-2.140042701775605460e-01
-4.017164907175760913e-01
-1.530617911832098166e+00
-7.085422575467215101e-01
-8.450374896043895412e-02
-3.017905338949566918e-02
-4.337424179825616344e-01
-1.347993626795744637e+00
6.265930237496705191e-01
4.073244828531914496e-01
5.130283629655025823e-01
2.218648834654313173e+00
1.059272781455566248e+00
-4.366198296360884745e-01
-2.617107250992486422e-01
1.538126930395586678e+00
5.634104728511916127e-01
-1.385556142806755875e-01
1.006150807294642346e+00
6.065065953919375197e-01
5.323389665110541680e-01
-6.346836542560445604e-01
7.117631776136433830e-01
1.180547784506897624e-01
-1.098698430995594943e+00
7.410759959830059973e-02
2.108251100321059390e-01
7.947577381886161696e-01
-7.423464683748380866e-01
1.120492507386895209e+00
1.909955309533905576e-01
-2.911488113092192687e-01
-8.252772644696341198e-01
-1.241842800661423718e+00
-8.856511229052447254e-01
-1.960535593191400139e+00
1.596384378257331982e-01
-1.479369437261838005e+00
-2.341135364142433728e-01
-1.059953436766944979e+00
5.178999188085489092e-01
-6.071222447687079082e-01
2.378018827971045690e-02
-2.350725966824362967e-01
7.938324265041530881e-01
-6.190530865043872844e-01
-5.028589587430692953e-01
5.857295850931888426e-01
-1.112502188449073115e+00
7.748886177212286341e-01
2.186063775082794924e-01
-1.140837963785861664e+00
-2.003098588307246075e-01
-5.022003271544690506e-01
-5.253146584798482621e-01
9.282481235465420699e-01
-6.575941919630088339e-01
-5.027080179759169098e-04
1.635512388374568138e-01
7.728256716387773562e-01
9.458311349684167535e-02
1.348521259987575771e+00
-1.567906734065155905e-01
-3.237500282437019150e-01
-8.350208091263610077e-01
-8.209533198142477950e-01
1.222301241125266280e+00
2.498731748021051358e-01
6.537375268729281874e-01
-7.222644809960740986e-01
6.194437318282713933e-02
-4.816090451614991608e-01
1.117783583970298533e+00
1.066269039300792754e+00
1.889314202203536686e-01
-1.766819180628014796e-01
1.175105781444697239e+00
-4.171037614868261523e-02
1.041286684873927726e-01
4.400558025387455441e-01
-4.346721356565285133e-01
8.902846564507758131e-01
8.706450211412937457e-02
-9.495522188419456278e-01
-1.184254122348088689e+00
-4.375238546062085732e-01
-5.781836120265192447e-01
3.077853436604361947e-01
-1.528228486233853101e+00
2.089100957515520607e-01
-4.929398690254981341e-01
9.245354173729101177e-01
-7.346711443240233619e-01
-7.488029967994869196e-02
-4.530989737040297394e-01
-2.361519634003027002e-01
5.047606964785720240e-01
-9.616864366721211699e-01
1.100823841984231777e+00
7.032048706137641325e-01
3.797591823773960318e-02
-4.391470326252787659e-01
1.006397708226689724e+00
-1.055490195452974067e+00
2.842689791926372722e-01
1.535251605945573972e-01
-3.689051664666290753e-01
-1.099563177013858972e+00
-4.780304327231418293e-01
1.247323132482484276e+00
-5.459539418721923720e-01
-8.718485183096582603e-01
-9.961299343616368818e-01
-5.383657387725647725e-01
-3.091077605489132019e-01
-3.356687247364958937e-01
2.930362350036438968e-01
-1.160093295724375251e+00
-1.061000864947019284e-01
7.575895056585413290e-02
2.667860544757636454e-01
-1.252613180526175540e+00
-6.154329163936189673e-02
3.808173755066971977e-01
8.106514784468180634e-01
3.747279414339199088e-01
-2.066792872536955539e-01
5.966533491106280618e-01
-1.685452235550228550e-01
7.398945509490639783e-02
-5.767325315480862358e-01
-1.048171546803878140e+00
-6.509113826692155547e-01
-9.217496215994871456e-01
5.838829816612403634e-02
-1.439848082158502462e-01
-5.504412703990412270e-01
1.558374924461275013e+00
-1.842035622798919858e-01
5.152469646551816052e-02
-1.857243560054144371e+00
-4.090180801665745935e-01
6.459323616267853563e-01
-1.151824497094145805e+00
-1.272188441341428167e+00
3.058773489438784132e-01
8.637854104432518554e-02
-1.613758840245125725e+00
-8.827939714788670678e-01
-5.964362698390764939e-01
9.007972190728903428e-01
5.270265712389845536e-01
2.078142790227689440e-01
8.539984273669187775e-01
-1.158415437096569800e+00
7.902258531454084967e-01
-1.125842184204331797e+00
1.323272135418974926e+00
1.408752214817106774e+00
4.448783881340594992e-01
6.761431279850979026e-01
-5.136280107386419491e-01
-1.486211494278739664e+00
3.279179776708733840e-01
-3.433801712690646157e-01
-8.345612143780433145e-01
6.738872901871126864e-01
