-7.969750444831417369e+00
9.082522539157329433e+00
6.723216364603474382e+00
2.311191179314462829e+01
5.038677595026331346e+01
-1.509187899786629394e+01
-1.722550419963111423e+00
-2.065589178320208674e+01
2.205507643150633612e+01
-8.694158203271753038e+00
2.923857338777850146e+01
-1.088383946030232607e+02
-9.536929579613961039e+01
7.231380975017756896e+00
1.966426507228266019e+02
5.786338885055928216e+01
3.826830969457769527e+01
1.993764611387010888e+01
1.496853363597954534e+01
9.969974089680741258e+01
-4.940691355901331150e+01
-6.664393478755792444e+01
-5.032448617696077875e+00
-9.130295276443209218e+01
1.365211498154787151e+01
1.141267396062501938e+00
1.613794155584108978e+02
-1.309981209259819934e+01
1.529465135577894586e+01
-1.459073279146069240e+02
7.269936442354872952e+01
-2.782245307181457150e+01
3.231384944977754969e+01
7.270801676411407755e+01
-1.751022872769581795e+01
-6.850920684697399565e+01
4.209168185917341276e+01
5.727070803266127719e+00
-3.564333586262949183e+01
5.813101976440042051e+01
-4.941824669784834256e+00
-5.803785648310196166e+00
-1.678742826986714842e+00
-2.844421851636597154e+01
3.897447199239540971e-01
-1.087535064071731306e+01
-1.367402433141088807e+02
1.795173796848310133e+01
4.761733791297014307e+01
8.055301049240024724e+01
-8.111218107349428408e+01
1.172694230734903087e+01
2.098897817069677529e+01
1.174013754755419114e+01
1.680683126257603988e+01
2.695339617339769802e+02
-5.343093123407779643e+01
1.516391230445239202e+01
-4.907629132043861375e+01
1.366708146789497746e+01
7.551359346244504778e+00
2.161608111300380486e+01
-1.973309042624395104e+01
1.720958762723735447e+02
8.138459064086934092e+00
3.028799119058330191e+01
-2.037184244450652955e+02
-6.862489170531279115e+01
-3.401847537988826531e+01
5.581779686208157898e+01
7.024233701799872165e+01
-6.569258900702459414e+01
2.743084413374269559e+01
-4.418058478660703337e+00
2.184928882456987509e+01
-1.743055722940822960e+01
-1.869597038991512150e+01
2.241853735460402390e+02
1.634104226656790786e+02
1.517635801486391145e+01
-8.441676442905029276e+00
-3.339881973798926929e+00
-4.046777441028890507e+02
3.818906385822685223e+01
6.561405660452784616e+01
1.528469787488194065e+00
9.138419399755119343e+01
-1.536105257793350063e+02
-5.918952716539626735e+00
-1.724087595988262223e+01
-3.671686795518241553e+01
-1.594174040028842043e+01
-1.311854290105928840e+02
2.593992588863559234e+01
-4.351851280519160703e+00
2.161921389135850902e+01
-4.687912929092426850e+01
4.991925780801624768e+01
5.422212856708550532e+01
-2.641622202310012213e+01
-3.219389722689174249e+01
-4.960935225395926409e+02
9.296360279847175434e+01
2.627496670603436968e+01
2.821432714407639963e+01
-1.986208508828914532e+01
-1.996642323751789831e+02
-4.059683481332338317e+01
-5.084370842926467304e+01
-2.409775500662929915e+01
9.305824700037655361e+01
2.543336751150831354e+00
1.478441578392419764e+01
-4.374022259993233064e+01
1.303228399755879252e+02
5.643280472140215664e+01
-9.383796360605272113e+00
6.983413710488681758e+00
9.965714800721624300e+00
-2.146059328069330974e+01
-4.174491197306877410e+01
-1.794799717022324259e+01
-4.613778851591040286e+00
-1.248021209654998920e+01
-1.549000847442888755e+02
-6.714638814847209858e+01
3.709701196800763601e+00
2.178105830619303873e+01
-2.373333653765924822e+01
-8.330561835725470132e+01
7.599341065718049038e+01
4.220228416954110884e+01
1.019102535553597590e+02
-1.980701600555939024e+02
-1.546108696509491836e+02
1.606104998989675323e+02
-2.057459701011796582e+01
-2.485535206460827240e+01
-2.332409146205113615e+01
3.487633851529533047e+01
5.402553201317406462e+00
-1.770877898089057112e+01
-1.310603839759772882e+01
-1.352233474425637212e+02
5.007287616508800454e+01
-7.069357102360123690e+01
3.619206309549541345e+01
3.553266183537537870e+00
1.992113794498647650e+01
-1.661377867670047692e+01
2.000314223775267308e+01
3.264972857231522596e+01
8.841030130592946179e+00
-3.393349903006563473e+00
-4.712976255546951876e+00
-5.124854941524080232e+01
2.292712341169721242e+02
-1.146574216929908019e+01
-1.108639240171580127e+02
-7.442690136448726435e+01
5.649610285060806802e+01
2.229875959149210871e+02
1.699285928114406374e+01
-3.607582234732129578e-01
1.298587741081380500e+02
2.917669547522207907e+01
-2.058610453547915498e+01
-1.021060542229458576e+02
4.740499834881485981e+02
5.258518273543995747e+01
6.692529433731098543e+00
4.442333112513590976e+01
-1.607882426477842586e+01
5.087660518743334137e+00
1.745150861577422674e+01
2.064490166748751676e+01
-4.145742350175177648e+01
-2.045072681387669888e+01
1.021851509213511733e+01
-1.164193952989660552e+01
4.967907713030218275e+01
4.208042458335446412e+01
6.971662061279657152e+00
-1.955984565408744515e+02
4.264488012865523814e+01
-1.599431181890356335e+01
-1.524030352475591954e+01
-1.485493496430554927e+01
1.540251712767898482e+02
9.854627401560863476e+00
-1.491620658628766307e+02
-1.435940319171256085e-01
7.051408879425785869e+01
-1.170048376230994869e+01
-5.142652962666628014e+01
1.964594735808289983e+01
1.222232549566112780e+01
1.733411268690477982e+02
-3.165703385179178753e+01
-2.673466606567715509e+00
8.791027683278828775e+00
3.233307209877280286e+01
-7.456037025998207923e+01
-2.639345438858974831e+02
-6.874860213082962446e+01
-9.141180578957079916e+00
2.233533622372883798e+01
3.293637707249241942e+01
-3.414065586185297008e+01
-4.900359882710345971e+01
7.686145140662553388e+00
1.392336314270023934e+01
-4.105143181779644124e+01
-2.510132544724109493e+01
1.598889888990447483e+00
-3.064754698728557614e+01
-2.964573607200482286e+01
-7.820178271964945793e+01
1.607077652184456795e+01
-3.668438328441017120e+02
-6.674863073891209808e+01
2.430077709869272340e+01
-9.667924437904346746e+01
-1.082212419962635330e+01
7.615354477781117737e+01
-3.597237565605164633e+01
4.631182835687312149e+00
2.134253439381923911e+01
1.749380536992132207e+01
2.976819887487602045e+01
-6.502718339682519400e+01
-5.338709690762537718e+01
-7.985633635359930338e+01
5.290661429371017910e+00
1.497204094217232928e+01
2.183728706812944509e+00
2.099744539020868217e+01
4.534838365091774293e+00
-2.411093484834174205e+01
1.994599515416628037e+02
-9.997479548950921924e+01
-1.218174451885364329e+00
-1.555319466345473245e+01
5.999811882435036381e+00
2.770089129253951654e+01
-1.386337931102618271e+01
-4.644227948615307611e+01
1.954769578497620230e+00
-7.549679044972995356e+00
1.513295399232380305e+02
-2.450417827975865137e+01
-2.523628209772743602e+00
2.452399029460272573e+01
-2.183691273987320969e+01
-4.655688426487367337e+01
4.334719221892480334e+01
6.526667036601790528e+01
4.910250920080815717e+01
3.682964688310060808e+01
-1.119573697701032344e+01
-3.245069343299279012e+02
1.700428291046451790e+01
-3.097398117856731581e+00
-8.087186612706773303e+01
3.965666303293388495e+01
-3.592871840026329977e+00
2.269645452028780142e+01
3.669930558348028882e+01
3.589715099041632218e+00
5.824740457597800969e+01
2.760664162867773186e+01
7.904133252888541961e+00
2.195094055944691647e+00
3.217913215125625470e+01
-1.851970218787531621e+02
3.061872618998582496e+01
2.707099201839017866e+01
-1.490596646387552227e+01
-9.339498456628622591e+01
7.621405514369855361e+00
-2.294282857468319747e+01
5.566751721549873366e+01
2.190768414775981654e+01
-8.934094907851678613e+01
-1.072773054643687942e+02
1.204834126100753089e+01
3.662414022602121122e+01
1.163682112040629590e+02
-7.289522923115266906e+01
-4.318299023002207093e+01
-5.754446243744704503e+01
7.588144379471724044e+00
3.643164846379308131e+01
9.873328989376377152e+00
-2.122985076766569534e+02
-2.362889418249724542e+02
2.464093096687970785e+01
4.856057970036276927e+00
-6.598054193748001239e+01
9.025325123102337699e+00
-4.279288620600445014e+00
3.527969078406186298e+01
-1.168371482716811727e+01
-6.769410016158757060e+01
-4.071888958693864424e+01
2.439669858838093219e+01
-9.810164444310098020e+01
-3.362439090956716115e+01
8.998686457876331701e+00
2.739856837638181375e+01
8.852956306932421526e+00
-3.722485791628676566e+01
-2.983070944006840364e+01
-6.770673988869758020e+00
3.052056227892307128e+00
7.287267785967041789e+01
2.884154828527608316e+01
-1.139101043693542259e+01
-6.409636397410160669e+01
5.092957449153310989e+01
-3.101008440068741123e+01
-4.590756824258900792e+01
-5.659161458792992150e+00
7.303961833832079975e+00
2.146533404933857980e+01
1.999456449999818730e+01
4.907623616028416080e+01
-3.137603075222162374e+01
1.517385499757408951e+01
2.391011807377721610e+01
3.643365478933161938e+01
1.950376981622384420e+01
-4.420176892656652967e+01
1.323576932296346342e+01
8.851814755578377714e+00
8.525788992090905083e+01
4.556432288747256365e+01
-5.954990191782322739e+01
1.792803097273051947e+02
2.705050697183760633e+01
1.016600473545593530e+02
-2.037942016108284804e+02
1.316953775781270863e+01
-3.792605661511985460e+01
2.681786186427860841e+01
-3.399476553897184772e+01
-3.264898045155412376e+00
4.976857913685826418e+00
-4.167425682913449236e+01
-1.090592763767363778e+02
-6.963666714526240753e+01
-1.038595928759099607e+01
2.575152009228587602e+01
2.798376393758273935e+02
1.018346085161346792e+02
7.162764792602746411e+01
-1.606911941436317548e+00
1.330515682669317989e+01
-6.288933280235399792e+01
-5.456202815035567966e+01
2.729270847858893134e+01
-1.388456264006788956e+02
1.298195871977128490e+01
3.747588164207589045e+01
-7.649755926271160078e+00
1.509874304634176667e+02
-3.021255933044618658e+01
-8.525840925701055895e-01
-2.876287065291623080e+01
-2.962004794406317743e+01
-1.231703081355156648e+01
-3.642980869306082354e+02
6.713877828740368159e+01
4.848005772755444553e+01
3.140145610478748495e+01
1.060854021655617818e-01
2.980637780954114646e+02
-1.785925732405138717e+02
-4.250176612310161772e+01
-3.228726338842800914e+01
7.338511870106425761e+01
-9.031770796509329102e+01
1.219193456914610465e+02
-9.327003896129145488e+00
5.037259160607084851e+01
1.968792304288074035e+01
-1.300913749210723722e+02
1.934727327721708718e+02
-4.275177968846406884e+01
-1.085207916320072563e+01
-4.490605446504867260e+00
-2.315614328977980563e+01
1.076900968537034409e+01
7.806721188020415525e+01
-1.145354487549500533e+02
-5.981139924541304254e+01
1.172234302607465537e+02
-5.998915872393492110e-01
-6.677648519170678298e+01
-6.181486895050682762e+01
8.018526212851280377e+01
1.107849983083091132e+02
-8.193270501923508586e-01
-1.046595671939586225e+01
-6.222503780636495918e+01
-2.422515940739550899e+01
2.271077604852665388e+02
-1.865285807441803811e+01
-3.399961710884612387e+01
-4.132673926887289895e+01
-2.081555357745145329e+00
9.972885610086908059e+01
-1.997790096374639290e+01
-7.050672781147899570e+01
8.198279479583026941e+00
3.703020263279361757e+01
1.075461725119453149e+01
9.364250358566238219e+01
1.593800268375518314e+01
-1.407942831649363598e+02
2.479724241491852013e+02
1.680215812199081427e+01
1.522547614509393270e+02
-6.676146574620675267e+01
4.640590661021051488e+01
1.228780954484616750e+01
3.314931586111728734e+01
-2.687907343212804534e+01
-1.548900749496777962e+01
-2.575328802151383201e+01
5.536348954365658415e+01
-4.323543504573390095e+01
1.035720425548695900e+01
-7.498800721414069059e+00
1.209567754780770166e+01
2.011648406676643930e+01
1.671020839962176865e+02
2.765747562928174830e+01
5.231434856799413780e+00
-5.907456704700532413e+01
2.780604955371087428e+01
-5.911104364581989401e-01
-7.618241425083071761e+01
2.550638931161016671e+02
-1.682728358660673251e+01
-1.767140890141994092e+01
-1.204296326612726347e+02
5.122468928089677576e+01
-5.141512017401784362e+01
-4.622084979452128550e+01
7.983240073915000323e+01
1.464215546319605110e+01
-1.530147485027375609e+01
4.782419729224355365e+01
-4.295528556985335911e+01
2.088122184628324263e+01
-1.897815849626664431e+01
3.538109644599476411e+01
7.094633148790777000e+01
-4.330196102234802424e+01
-1.271820304116684008e+00
1.058791585713111161e+01
-5.749573305784596045e+01
3.692382303582737535e+01
-3.493441308176763016e+01
-1.114975800393051202e+02
-6.528717993961437038e+00
9.881529264332968410e+01
6.873848048879759176e+01
-3.728678845272992248e+01
4.894192174648878790e+01
1.212164800850477917e+02
-7.766550299569595417e+00
2.448882363582584532e+01
5.945516922254330439e+01
-4.650866368126918005e+00
-5.813945248562615120e+01
-5.941850889428834215e+00
-5.222467131660208395e+01
1.099507387975174879e+02
5.640237213392799731e+01
-1.785021696199967067e+01
1.122307983102709628e+01
-6.201441347858311914e-01
-4.219240920081341883e+00
-6.191960158570530837e+00
5.129579431907934151e+01
9.714400647046204540e+01
-1.347941788352844483e+01
7.672814432327035661e+01
-1.882519325005889854e+01
-8.722635546188813294e+01
4.311010956900522828e+00
-4.186249354736918349e+01
2.301135421580520912e+01
-3.014443893073799785e+00
6.065875038463799385e+00
-6.935326151394608019e+01
-1.311290165435269905e+01
-1.041787109402310136e+02
-1.419439754686952959e+01
-4.747647716734882550e+01
1.307958824105526041e+01
-4.696371073732795764e+01
-5.268159938965358613e+00
6.583752225840422412e+00
-5.775645385193486447e+01
-5.566124348426161532e+02
3.494426684009715700e+01
1.257747605414182601e+01
-4.374539526311931326e+01
-5.931158975883688100e+01
-3.484774837469685593e+01
-5.185497989920591522e+00
-1.514789731743435937e+02
-1.270598602205296004e+02
-7.456516731629989181e+01
-3.654203764159926493e+01
-4.961200275670081083e+01
-3.959258094453574017e+01
3.322439130402846530e+01
2.127589200112884527e+01
-3.891280329576557051e+01
3.580015884070849097e+01
5.580894981880589256e+01
-7.921563871614252150e+01
2.187167275404791411e+01
1.683319720113910876e+02
-2.246224629586053112e+01
3.406940833082437337e+01
3.011920199503172668e+01
3.563630627208541313e+01
4.835631185167931534e+01
-6.170281153621098191e+00
9.292669352431252028e-01
-9.432910289308531482e-01
-2.497298766351946711e+02
-7.297096818302920340e+00
2.647936218703629052e+01
-3.851342184844111216e+01
1.082573694025812756e+02
6.650193341761848842e+01
1.596113910789102341e+01
4.298425512814214144e+00
-1.191422127035950496e+01
-6.367197374259087184e+01
3.435505706109402979e-01
-3.267807389470188468e+02
-5.031261699822048961e+00
-2.149883860344442610e+01
-3.318344172696789940e+01
-4.173734135439398862e+00
-3.365281173334840759e+01
6.660315012007848168e+01
1.232253057614772551e+01
-8.423326498872501134e+01
-1.977342132389686640e+02
-1.063247467607055228e+02
1.645226844847611503e+00
-1.682178137969675191e+00
2.043406649748102666e+01
2.756068879283924744e+01
4.506319815410192575e+01
-1.756507906405259405e+02
6.823890331836476975e+00
-5.583310548058010525e+00
1.287396665346083466e+02
4.864718775076077861e-01
3.615170947651862576e+01
2.291561525150876122e+01
2.444983321874221360e+01
6.471794234942566959e+01
-5.927130258976190191e+01
1.392244092393914912e+02
8.214951009527393921e+01
-4.595859180114737796e+01
1.027616029919685303e+01
-7.554336795328110554e+01
-1.262390453452589725e+02
5.081965251764745339e+00
9.097303774434161028e+01
-1.701160774007482814e+02
3.962327436878797471e+01
1.805203399349247206e+01
-3.152881355011363684e+00
2.950135167204100739e+00
2.157502236011313812e+01
-3.391469352628845257e+01
-3.369556671442330043e+01
1.241544516991986669e+01
-2.935762909531626974e+01
2.697097678878670379e+01
-1.740397785911917516e+00
-3.347332121598659782e+00
-4.763338642656478328e+01
-2.115780772461328354e+02
1.041069718576114944e+01
1.341494640208446754e+01
1.395484995260802350e+02
2.173426559247795709e+00
-3.288135406466719246e+01
7.675184551392780463e+01
-1.271390830960827678e+01
2.024866839903247140e+01
1.298581302590980080e+01
-3.665946883358863317e+01
9.172186671185619034e+00
-2.885173210800434163e+01
-1.161657917236933031e+02
9.839223652767910266e+01
1.821088557915402140e+00
-7.224360630823602136e+00
-5.714340763147847468e+01
-5.686134625366268125e+00
-3.070423874750321502e+01
2.082610062909187931e+01
2.079815604701707343e+02
4.346153319231459022e+01
6.568778562753159633e+00
-1.621201940291832244e+01
2.699842626392383949e+01
-2.536243190652706403e+02
-5.129990058307703293e+01
-3.080588503967849334e-01
1.621568796090043918e+01
-1.636898164087535292e+02
5.183043650628401622e+01
-1.843271393086220371e+02
-5.179428531946560952e+02
-2.458214216207909786e+01
-5.553471266550399577e+01
3.871528954714293924e-01
-8.504554142272144190e+01
-4.940311394217978602e+01
1.502209778503756468e+02
-2.943914838071339091e+01
7.348160031837370099e+00
-6.002388288783336634e+00
9.461369177486176341e+00
-2.336545004043110652e+01
3.741641882499465055e+01
-4.420836738780265307e+01
-2.599107344938630249e+01
5.740224908383351732e+01
-3.480126702860033561e+00
-3.034286377398409940e+01
1.272091528038950692e+01
7.822938879960632619e+01
2.233741247201884619e+02
-2.521949995874120276e+00
-1.194091115032625616e+01
-1.687052643423591292e+01
1.109347105919844978e+02
2.085838407839738551e+01
6.026570177412936147e+01
7.531606129110969050e+00
-1.402149654335388789e+02
-3.646162549842100020e+02
1.263994521383087211e+00
-8.164685961024034100e+01
1.036010343034949344e+01
-3.920107648217476992e+01
-8.968127738222335665e+01
-1.239931746834231419e+01
1.050082447460764712e+01
4.433357187536432065e+01
-2.288985227495199126e+02
-2.240278517849992568e+01
2.254730331902987928e+01
-1.604800769184593889e+02
-2.931778248644873486e+01
5.237747740183928080e+00
-1.672630960492035967e+02
