8.565716718524072348e-01
-7.296918471345830159e-01
4.674433457892739341e-01
-6.656524220563464489e-02
4.560126416432035423e-01
-4.994370604105875522e-01
-3.798662448674596792e-01
-8.856323630151232695e-01
9.795800606514895037e-01
1.266988613153765542e-01
3.427543455602730660e-01
-6.791273508248254487e-01
-7.871956857738113822e-01
-4.337191703270453225e-01
-1.260068739522037795e-01
1.842990080710980028e-01
-1.283799812892305603e-02
-5.321187215187839215e-01
-5.042225038565291140e-01
-4.126813258553114760e-01
-6.232076078211437054e-01
-6.209545000608198695e-01
-6.788835264979351525e-01
-1.043446232908173954e-02
-1.014268164681551010e-01
-1.014809405569154777e-01
-6.582884007658567072e-01
6.792012571819159295e-01
-8.564456944162375240e-01
8.013491581948275488e-01
5.489584651628547363e-01
-4.210022427724595673e-01
-3.689870628411608955e-01
-9.545307392952062653e-01
-2.036412558156852626e-02
6.189003391495229156e-01
-9.656465691565625509e-01
-7.793142643165658079e-01
-1.519854907244240216e-01
1.712173854425682595e-01
8.990929140711292344e-01
-1.454443096273223546e-01
-3.838811633242071863e-01
-8.259819165311896860e-01
7.882281493606337897e-01
5.665467066158134113e-01
4.141363728989349013e-01
2.797880439730326962e-02
-1.674365256285859083e-02
-8.498112062247173970e-01
-5.331456409470711755e-01
4.195431261466613382e-01
5.845720627713548723e-01
3.197542852774652999e-01
-1.563111526685361241e-01
-9.809753155626943499e-01
3.854897007696591604e-01
-8.159596664652561948e-01
-4.332131463918689196e-01
8.396957370062183568e-01
-8.793677790449780929e-01
7.659122760163195043e-01
1.669246845557759151e-02
-3.843322329076226396e-01
-2.653567316490401673e-02
4.412741019606576387e-01
-4.830371654704324058e-02
-8.099433104001207973e-02
-2.291426707347237191e-01
-2.925477939129332849e-01
-5.511937098958494818e-01
3.537943918109629493e-01
-3.407896575939846073e-01
-8.447568622291736773e-01
-3.983778313921473302e-01
-5.180274319135786953e-01
6.194756719354670427e-01
9.344454616195967400e-01
9.802082858438017077e-01
-5.319485766350782185e-01
-8.041899273911592427e-01
5.616382912828308260e-01
-5.641089243452985791e-01
-6.545487431780987464e-01
-7.453708938007854723e-01
4.500580322357206065e-02
-6.802475235161502543e-01
4.678697204479524974e-01
9.219868418170231728e-01
2.355892578307647867e-01
4.251873762281408453e-01
-7.895949455372122117e-01
5.605990693442790551e-01
7.961664599819993082e-01
2.548412927523679983e-01
-7.529766512637632303e-01
-9.216165089983998637e-01
1.582869115023597395e-01
8.659345542223273462e-02
4.192031651063554687e-01
-2.702690599996726561e-02
-5.896291623053702136e-01
-1.017541643429682452e-01
-2.519100481531721947e-01
2.620167342991002180e-01
-2.624871593879296583e-01
8.897678165908939896e-01
7.933015574433732731e-02
7.944797267452741174e-01
6.480365223218564896e-01
-4.120015121196995977e-02
-2.215180144760511283e-01
7.963590470414578792e-01
-7.123753926179752227e-01
-7.136864117078147718e-01
1.195374593597242630e-02
-9.950326442532568816e-01
-6.995954026542194892e-01
6.208142202552320299e-01
-2.546246903511482085e-01
5.355968036627631879e-01
7.923135511383336826e-01
-3.648745405586364399e-01
8.068948517155529743e-01
9.035354245784772420e-01
3.219923590712876482e-01
-7.449401477581445441e-01
5.313500592446651627e-01
5.152398852248394334e-01
4.134733391915816902e-01
2.109063223508893525e-01
1.120712676227928473e-01
-7.738320077344635894e-01
-5.266046764664451540e-01
4.738437740649850127e-01
-1.928269946096961007e-01
-9.359053996934334485e-01
-8.747980866901914343e-01
1.841608985956009192e-01
7.564821774358387874e-01
-5.415210952159104085e-01
6.541198910332253202e-01
-5.822509386866701053e-01
-7.516956878161118460e-02
4.696876308806823275e-01
1.671622030362063249e-01
7.090606243630781513e-01
1.684782855400930313e-01
-6.076107556406644683e-01
-2.519642606067136192e-01
9.516330935184615925e-01
4.257089544129062375e-01
4.982099887484161549e-01
-8.222522343138076728e-01
2.491549055094683940e-01
-5.780709458866077899e-01
1.919671049104423322e-01
-3.964600334507999424e-01
6.094193554681404112e-01
-3.493208940467051882e-01
-2.387191014715683846e-01
-9.470276692032211230e-01
6.653408723168288130e-01
-3.154391811238677068e-01
-5.225906971251905730e-01
7.190634083845008906e-01
9.367998400782071577e-01
1.903054314203620478e-01
-3.557655321962374106e-01
7.038152004491737834e-02
-4.597953945847153001e-01
3.633466138341312490e-01
4.021528421042137591e-01
2.367038623623280991e-01
1.299171894668376126e-01
-6.266557608692273629e-01
3.432024930430865872e-01
4.734827453775183326e-01
-4.109296506531168180e-01
-8.834999286710192301e-01
4.963485699790242123e-01
-4.283137162404682119e-01
-7.563745886239048311e-02
2.541701938523694970e-01
3.814085596271556966e-01
-1.350193989917611859e-01
-5.033967299547550400e-01
-1.439381918402404814e-02
9.323169924269749664e-01
4.217542659921011960e-01
7.725700761364471258e-01
5.305210197199219380e-01
-2.043987583939386177e-01
8.908859486190627841e-01
1.731204381423501193e-01
-4.880309342650315241e-01
-3.802192321909325656e-01
-1.795544880220361073e-01
-1.300818276574167154e-01
9.711045545865817363e-01
6.996313504738558287e-01
4.299923939159304709e-01
1.955073405119740482e-01
7.630336707614493452e-01
8.530943422618508798e-01
-9.695229078372820108e-01
-4.096842696277838147e-01
-5.719607857908259874e-02
6.204477588798784637e-01
8.066086193714976371e-01
-6.081057670097174128e-01
9.271315608894001858e-01
-3.227694754929433252e-02
-2.999013486987123223e-02
-9.298363632543173996e-01
5.121627473215051296e-02
7.529420913650455294e-01
1.783550323218741074e-01
-9.924190925995546309e-01
-7.097782332152333673e-01
4.252486830659136796e-01
-3.622976704095139944e-01
-7.879364344755079852e-01
9.208675976211622149e-01
-9.657268975839101710e-01
9.627820545178349398e-01
-9.520873899529660456e-01
1.307102884124144992e-01
7.977291741509151546e-01
3.945709762348093008e-02
-9.877394981328213586e-01
-1.952807513868668465e-01
7.123388010190025987e-01
-9.180470028989191622e-01
-9.461582688588865420e-01
5.799275287291472125e-02
4.288950639536643905e-01
6.871586699421872169e-02
7.194106860474236420e-02
-9.156434640698556393e-01
5.452058527739802596e-01
-5.870045134671331155e-01
9.370896760387756874e-01
-8.058452054231881601e-01
-4.730856949692163749e-01
1.465224809307030807e-01
-2.251157644194436980e-01
5.331734301452888403e-01
6.091332826050517291e-01
-3.736577462363011026e-01
-6.260870812675800590e-01
5.109814717299119291e-01
9.860623823548961830e-01
-2.549369259684954869e-01
-6.891355524674800392e-01
-3.289092963396078595e-01
-4.200538353814464720e-02
-3.913407514549096522e-01
-2.165382631409147329e-01
-6.839457287325378942e-01
3.380070155705441337e-01
3.576400099143632882e-01
-7.639021970264225914e-01
-7.372685808728742796e-01
-6.293861701264360509e-01
-5.601890570129270941e-01
4.134815117346630764e-01
6.582123708464759915e-01
-1.086080356976537598e-01
-2.247632609908367662e-02
-8.522747361096822960e-01
-5.019935808949655964e-01
7.498848292909032764e-03
7.122998886559104292e-01
-9.416893825552548059e-01
6.344293344770775001e-01
1.985807334575029337e-01
4.472344232845000267e-01
9.642929416457233227e-01
9.969767381302834242e-01
3.223790495013891810e-01
1.511642145040448248e-01
-3.396351427861148409e-01
-3.575452868418582675e-02
6.293694088185577407e-01
-4.721157064177428087e-01
-9.508254061331267160e-02
-8.618744994660720860e-01
4.309300086004093089e-01
-2.320400211710347271e-01
6.495036124360018537e-01
-7.693380743501820884e-01
-2.047817290088711495e-01
3.932877194202266669e-01
-8.661177662670809241e-01
-9.387753702553811586e-01
2.159411186641437830e-01
-7.974137220440820073e-01
2.488560621242419391e-01
-2.256818596756178241e-01
6.869596671327182769e-01
-1.926340232471468461e-02
-6.291994522402211132e-01
-7.771389999060087650e-01
-4.864410469182562924e-01
-8.598411570291562001e-01
7.855551274406689100e-01
1.463395061218659698e-01
5.854158582877466710e-01
8.384396291715057181e-02
8.959351131883455110e-01
-4.739576199371113852e-01
-7.053104672704764155e-01
6.368177892122672823e-01
3.720694144990277508e-01
7.681145350506282110e-01
-6.292596954895470773e-01
1.623469520372660124e-01
-4.320840516066650761e-01
-6.684912401808638105e-01
-1.800085066771872633e-03
5.406798952323890184e-01
-6.380479531201646015e-01
4.513461752006555638e-01
9.388340319172576720e-01
9.490009856353647244e-01
3.425580856054326606e-01
-2.322096659547054909e-01
5.557743533312273776e-01
2.467640374010475757e-01
4.313087458858684275e-01
4.478779590489234685e-02
-8.647105616639105818e-01
-9.500460287259888670e-01
8.483039098214706364e-01
2.843824814402484691e-03
-4.768241324299034023e-01
-1.114090594531893519e-01
5.075426942344241077e-02
5.102139084335401975e-01
5.917579214930692721e-01
-9.157040951781409976e-01
-7.024609086461062191e-01
9.821566563733357125e-01
2.899350860088902859e-01
1.095272231894703907e-01
-2.303909905730958663e-01
-2.961686490806958449e-01
8.719140930623632268e-01
-3.782389204986456033e-01
-3.378317598918441078e-01
5.104964116617705105e-01
5.201436217090082970e-01
2.192849024996113005e-01
8.073342034258272903e-01
6.376714212566723106e-01
-5.556184061025861709e-01
9.717225929491235537e-01
6.514956014164441367e-01
-7.457790514735369580e-01
9.599753120677037010e-01
-6.540617081739232841e-01
-7.463609920004170561e-01
-6.294989188771633604e-01
1.105347970847914141e-01
-8.939589823983307149e-01
-9.008897346992243982e-01
-9.635367339974774126e-01
8.048893909820984405e-01
-9.216431740354134039e-01
2.933909705578139349e-01
8.010332453262622998e-01
-6.085168063769741398e-01
7.873311487466141401e-01
1.998571242547930726e-01
-8.368491262371688943e-01
-3.737104124062027299e-01
-5.552560933851262703e-01
1.337578220341293367e-01
9.052040138469514829e-01
8.752677723255706255e-01
3.153598561157910929e-02
6.181914082388431098e-01
3.575040187022007210e-01
6.355120611857811852e-01
-3.608362075517010936e-01
-4.220121554784599383e-01
-8.820352100197990097e-01
-8.967206190112064768e-01
5.633503990548875962e-01
-4.701346891317306209e-01
7.629445353828765430e-01
-3.785100183902279092e-02
-2.700201964117194819e-01
-6.508358115725800808e-01
-6.180571661087925772e-01
6.779234537055502940e-01
-8.525532058058682416e-01
-7.864006438234136809e-01
6.027965023569812342e-01
-9.576294006501724354e-01
-4.190468302686649604e-01
2.236679328676409728e-01
-8.816323232938105825e-02
9.115808306145372075e-01
7.129509520362706798e-01
2.732724713380452197e-01
9.682180098298798221e-02
-9.188986960946727844e-01
1.949376422511648332e-01
-4.875468180983895117e-01
4.777638890653659320e-01
1.676362850168555685e-01
1.846863649433352350e-01
-5.084935046563072714e-01
6.811711921589296281e-01
3.842916076942606285e-01
2.549810800924303678e-01
-9.014956859792553345e-01
-1.135209663608123254e-01
-6.018344048967794180e-02
5.245772228499436807e-01
8.615395804415979519e-01
1.353812523708777249e-01
8.061235587105275435e-01
-9.312406167105535815e-02
-6.863075723730229782e-01
1.117478363575852285e-01
6.648294530050025131e-02
7.959627009427017175e-01
-1.716512275395316589e-01
1.216144387625819334e-01
-8.184721967640062879e-01
9.129607757203679341e-01
-7.687587415982020111e-01
6.395946149950482162e-01
6.229031585358506540e-01
1.272106036206259727e-01
-1.393529446552959072e-01
7.915687438019392008e-01
9.088876834426873330e-01
2.000689976849054919e-01
-6.823015678740469436e-01
-7.671764696592611177e-01
-4.125558093336281207e-01
1.989446586154133279e-01
-4.812830987160841012e-01
1.588623901102261815e-01
2.404272511805896073e-01
-7.670332798538905816e-01
5.776068451281448635e-01
-9.232889177378629242e-01
-7.770076967723826833e-02
4.170831203166962542e-01
7.905918395729831794e-01
-6.460619874588593436e-01
1.759827882047184655e-01
-1.511168358763099739e-01
3.565792383849473168e-01
6.633329161226926285e-01
2.902716597549550581e-01
-4.640082179247919658e-01
6.693564947524384134e-01
4.811833234878466481e-01
1.959334575133804268e-01
8.351630475645499541e-01
-6.621984049935607519e-01
-1.970095762583903287e-01
9.189775668315469659e-03
4.520959813873417499e-01
5.810063297429359785e-01
-2.646250290287623930e-01
8.759896818482990621e-01
-9.079804558785604662e-01
1.692032586009291073e-01
-9.766452543935888464e-01
7.349182014139599151e-01
-2.555195802560312757e-01
9.899971887574050555e-01
4.387056192057567916e-01
-7.186368525690194353e-01
7.634650634273802972e-01
3.344099415378631868e-02
4.464069623666209186e-01
-9.845493336484916203e-01
-4.985737211507732525e-01
4.466058216346091569e-01
-7.252602326992685366e-01
4.296298659734023584e-01
-7.339249769664177858e-01
2.078732375014680223e-01
9.388043262603784633e-01
9.374669624096114706e-01
4.791104039707021478e-01
-8.676375272921372783e-01
2.030534886031953867e-01
-8.442667386658935236e-01
9.736785110446060099e-01
-8.865020095965732150e-01
-6.994340813099888532e-01
-2.994993815551623140e-01
-8.411907288875857258e-01
-4.192410097198506769e-02
8.501488230560905190e-01
-9.653699210260113794e-02
-1.961235189699015447e-01
-4.593640152719407066e-01
1.195616124268354952e-01
-4.808692766466475810e-01
-3.165715147518262107e-01
7.453332737918525464e-01
-3.521327873180721824e-01
4.164182201565018726e-01
8.779141960543817014e-01
6.227575795533484282e-01
3.333476706267457512e-01
8.494056647503680502e-01
-1.529390993894874651e-01
6.436589752563588451e-01
7.867877232374491658e-01
4.364148914380694411e-01
7.999403416565609160e-01
-2.723867526052490273e-01
2.860974626568288937e-01
4.792312774080320636e-01
-1.656763613572933558e-01
1.461792611860877056e-01
-1.998829537875128626e-01
-7.665246809367605163e-01
-1.717823086897027896e-01
-6.064095744273676480e-01
6.847466876274919123e-01
1.205538775443988353e-01
-3.440669931265614157e-01
-9.466350263733420700e-01
1.882055203662948983e-01
-9.948839249458172329e-01
6.882641215850953120e-01
-8.882659580491112372e-01
-7.191585623825504925e-01
-2.574063161059361171e-01
-1.254735883350461823e-01
-6.205226986336995765e-01
-7.024711655250184261e-01
-4.213790574147373569e-01
4.939008314819857137e-01
7.928545282087471335e-01
-3.502494137969707211e-01
-6.940228499090443925e-01
-2.161476082609468108e-01
7.286323813472805888e-02
5.162775153488741164e-01
-6.283143734107075051e-01
4.867418495748645491e-01
-3.694619190724535152e-02
-8.178213361450195062e-01
-2.627676000481355967e-01
4.404735380569817504e-01
-6.661999183247768741e-01
-9.654643775423148444e-01
5.987774121469857658e-01
4.429822133799781181e-01
2.599123096332489613e-01
-5.758938084084033182e-01
-9.973650129327040759e-01
2.896579778153038909e-01
7.808854367413911035e-01
-8.778428453427671307e-01
-2.546389913189290866e-01
2.628024844588972009e-02
-3.311598824653216866e-02
-8.517421058301237746e-01
4.109006669712933491e-01
-7.620392779272762152e-01
-9.966346812622686180e-01
-9.852782670109336838e-01
4.498369686125929245e-01
4.515711749305917344e-01
-2.335278074343949406e-01
-1.145066611395519907e-01
1.668957872733882741e-01
3.519408170291360438e-01
7.555610017082663443e-01
7.683323212057950879e-01
8.275113660826325379e-01
-4.742570115632533945e-01
-4.043992587762528235e-01
-5.815195730867042112e-01
-2.960719994352767337e-02
2.400559945354685532e-01
1.646214028211592240e-01
-3.633175139124011910e-01
-1.146432986009306987e-01
8.926888331396038989e-01
-6.774054894064103216e-01
-5.594240611055314449e-01
-4.605687038636450126e-01
2.790810220929405006e-01
3.333753560167396213e-01
7.485401262359925312e-02
9.128721869364508912e-01
8.003363045218423455e-01
-4.154847132970023171e-01
8.463475192757059506e-01
-3.686451675983151155e-01
5.060852950163841069e-01
1.461010569631329137e-01
-3.905913460346364108e-01
3.603256756888635337e-01
-2.714788653864339540e-01
-4.760368678406159404e-01
9.100205265724337078e-01
1.168712232875015467e-01
2.662829711878778038e-01
1.614477408209962217e-01
-2.796099568591172702e-01
-4.200720800864243820e-02
-5.282367218184393920e-01
-8.736885782193017924e-01
-7.908642397905891741e-01
6.953326158771973020e-01
-7.354571882558409435e-01
-2.437371465274127402e-01
6.364122464340864482e-01
3.746087839160370248e-01
-5.840456035585495087e-01
8.152931260188001072e-01
3.174966120076256892e-01
5.538057398579587787e-01
4.506613070077418737e-01
-2.354356907005057398e-01
8.439580314609647083e-01
5.140994177239521790e-02
-7.679391411112073129e-01
9.924281530726619671e-02
-7.956302768494289968e-01
3.910767129306902401e-01
-4.686099125025382506e-01
3.547622113093695795e-01
3.276477963658690484e-01
-1.600075162356031644e-01
-2.009562993077751436e-01
-5.696745758807499893e-01
-1.762654830373455717e-01
1.736028585928228729e-01
5.447834767996191374e-01
-3.144173590853120981e-01
-6.304938825935790803e-02
6.144670589722078802e-02
3.929200754275818941e-01
1.068787586138235657e-01
-9.722330709918203251e-01
-1.299681327402824049e-01
1.936864896493182275e-01
-6.425469739652029943e-01
9.906861258232018130e-01
-8.018701988060612518e-01
-1.836732642347627120e-01
8.020191504656866144e-01
6.618230151720929655e-01
-5.143279672620797438e-01
-3.093752655199117907e-01
7.944991882314558218e-01
9.736878861059614643e-01
2.042671035852854367e-01
4.592709471561420287e-01
7.887584355143368864e-01
-7.242532364563798453e-01
-3.830259399942526066e-01
6.034467688360136695e-01
1.955461208483932900e-01
2.909387289411915489e-01
-2.561507148170856230e-01
-4.246164225185620200e-01
-4.497678064061783054e-01
4.524483232371039332e-01
3.370992076722567621e-01
-4.897882780829803107e-01
-5.042672874730076416e-01
7.976974895908368612e-01
8.472905562877937058e-01
-9.159012657675928981e-01
1.322094521663104150e-01
9.560996431663126849e-02
-2.853856160038834577e-01
5.542707744862893637e-01
-7.842811082683074364e-01
-8.775563760104658773e-01
3.932034463540778901e-02
-7.935628640507965681e-01
1.305418908951843093e-01
-3.485975071400204683e-02
7.888092202523331320e-01
-3.835425481476102405e-01
8.644271172108453083e-01
7.009936192315051606e-01
9.822908377496442078e-02
-3.899339735424904863e-01
9.560467167281623269e-01
-1.397408428331265995e-01
-2.457813432807378629e-01
2.948901681116427032e-01
-2.628460182591010330e-01
1.932862682294271828e-01
1.096319692434610804e-01
4.750050132097944910e-01
5.078947780681479784e-01
6.776696876544523462e-01
4.741084672876989536e-01
6.876110009772731235e-01
-2.648575859914703567e-01
-3.601919043656844899e-01
-1.537519083678360321e-01
-3.652055494349308873e-01
5.896499965161861034e-02
8.767311936029644759e-01
-7.247282360952393976e-01
-6.078468156031022751e-01
6.287508265012240471e-01
-2.229800020970107433e-02
7.215607281574314413e-01
-1.396019474219016843e-01
-5.063676157070258199e-01
-3.653101272855769910e-01
5.878295290913864157e-01
-3.375047906095836048e-01
5.389123598627945100e-01
-8.191408119537191279e-01
7.993711936539722451e-01
4.684569605715291907e-01
2.901505423983725684e-01
-6.656110426979773287e-01
-1.209771435324864530e-01
-5.876404814034628110e-01
8.878188541415668045e-01
-3.348242946761217365e-01
-2.864565859967549422e-01
-8.080662133819154214e-01
-8.020876135159151765e-01
7.136096612206130896e-01
-3.720326642844007381e-02
-6.171402643201031601e-01
-7.987043529163089239e-01
7.399224722048296510e-01
7.579699525270651161e-01
-9.251712595697423325e-01
2.127758261478998048e-01
-9.233312983242485394e-01
-3.129703077577856707e-01
-7.499081771685762732e-01
6.686038304220376371e-01
-8.009230566084475367e-01
8.038058208832088436e-01
4.059416112125791010e-01
3.838579998783728797e-01
2.988247723635140130e-01
-4.005088372537990438e-03
6.611291140311417180e-01
-2.435396577957869013e-01
-5.871353430322441280e-01
-9.858023612931348101e-01
-2.849314082276543925e-01
4.531358633413697934e-01
-4.146968505664441196e-01
-7.321710909320504612e-01
9.448502422171147774e-01
-2.719145044919712983e-01
-6.991131608967962041e-01
6.903753036336672810e-01
-9.184737821466610885e-01
4.159455300098959807e-01
-4.366492031439017651e-02
-7.591818248325290508e-01
9.074663513712983853e-01
7.656195879095211154e-01
8.145272078458829501e-01
-7.461527760885775518e-01
-5.501264190085024541e-01
9.347571092331961040e-01
-1.547637957448666501e-01
4.963214026690705438e-01
6.135082310720949561e-01
-3.387517060115730061e-02
9.333166563022770035e-01
1.522477681438711983e-01
-7.784393493306216438e-01
-4.173410890943904938e-01
1.311194794992784907e-01
-5.798999778201194832e-01
6.569069648611349788e-01
-6.476899572930856497e-01
1.785706005630021131e-01
6.242858505872992403e-01
6.136474782064957889e-01
9.033264945694190473e-01
-1.748098967410678384e-01
4.344834995031978675e-01
-6.143994184017103066e-01
-1.494850252706572125e-01
7.450319564231484559e-01
5.726028461573129391e-02
3.008452248928144002e-01
-6.498718791366453473e-01
2.769804903470500790e-01
-1.697466169617261045e-01
-6.621006821369612716e-02
-2.242371794152475672e-01
4.607451859433990826e-01
7.678315675556537379e-01
-5.875709500467156676e-01
5.235206605914186628e-01
-7.962412238541858311e-01
1.172026331131263976e-01
6.454234176755073715e-01
-9.433641880372749533e-01
-2.218516815319664381e-01
4.344285913845089553e-01
-6.027498902018471050e-01
-4.266890192827650363e-01
-9.827055297682365520e-01
1.133159785809940701e-01
-6.435969271097481403e-01
-4.063786362605759095e-01
4.772733393887198527e-01
1.246957881122945366e-03
-4.059148602385131976e-01
-2.396049020868133983e-01
-7.669335556953467137e-01
2.974874424068203460e-01
9.142466675736438120e-01
-9.541086895759811615e-01
1.785267684569664670e-01
1.403214111639095041e-01
-9.749745642929785738e-02
1.148806670840132327e-01
-9.580664564572782815e-02
2.048516183439368366e-01
-9.118435650516030222e-01
5.775913971160540061e-01
-2.422684329460065289e-01
-9.875798929898051970e-01
7.561372600896931750e-01
-5.203599148903019778e-01
7.445174613177021339e-01
8.363367443857241401e-01
9.211175682160808176e-01
6.485055905124106346e-01
2.807887504286763480e-01
-7.068629483477071318e-01
6.988933950353590774e-01
-6.075332476559696104e-01
7.067353975106094310e-02
6.104124626587226210e-01
-9.821456727210597926e-01
-1.050788997168756733e-01
-2.379676467701563602e-01
-5.423360809104771363e-04
-4.118145250394749102e-01
9.437508752777070686e-01
-9.743898149449123913e-01
-1.457414376121937138e-01
9.460569976884565246e-01
-1.156429863278296555e-01
-6.300148401236913553e-01
4.227877338369632199e-01
-2.553316748642988632e-01
5.924860938714853198e-01
-6.186307481708581690e-01
6.390596437781255190e-01
-5.521711874958357136e-01
-5.547889345823184826e-01
5.900068360563854863e-01
-3.101290080381822190e-01
-8.933431155559301562e-01
-5.926130740287127718e-01
5.936633084358693413e-01
8.228194099569967612e-01
-5.257383486224660452e-01
-1.021177563743544958e-01
-8.320736312535348400e-01
-6.372546295613328304e-01
3.069227746539282542e-02
1.200433236214879518e-01
9.824632472364636104e-01
8.461697016692864004e-01
8.058639999456047587e-01
-5.050315620628287316e-01
-2.270545973086743885e-01
-3.199289041776214315e-01
-8.397153050270966812e-01
-1.852593287345831730e-01
6.684088639391738695e-01
7.638694229448708128e-01
4.082019490667567752e-01
-2.472068322661185036e-01
-6.506425059680671641e-01
-5.869080029548403576e-01
-6.009376239199981651e-01
-1.589665494425294145e-01
-9.719087778530743904e-02
-4.132058152103239568e-01
2.733264045431345046e-01
-6.730321729498434102e-02
9.327989940324539209e-01
8.474927838610128994e-01
8.039614925119522582e-01
-8.445350634441484150e-01
4.897463032173998698e-02
-6.212461427576534412e-01
-9.769350753966612455e-01
-3.738981004277877052e-01
8.934009473852142502e-01
-4.218094910138914244e-02
4.842041837251556124e-01
9.029350074037310048e-01
9.580788068694714443e-01
-8.086610496763622091e-01
-6.795904571988558018e-01
1.522853958851395628e-01
-4.658208022551333372e-01
-2.749403844893967275e-01
6.964613680598972234e-01
3.373371415679069507e-01
5.986118464081824353e-01
1.087945143582731422e-01
6.905738302540196383e-01
-7.221510670402775389e-03
-9.211528403230953010e-01
8.558815509818260558e-01
-8.035582747903788903e-01
-8.965442880778007329e-02
4.477474768188909326e-01
7.576799474362079234e-01
2.606045907642271509e-01
-6.225104380465498188e-01
-2.157843700120185559e-01
-4.140373336124192338e-01
-3.834734613230761369e-01
3.052585096372977258e-01
4.641030915970862925e-01
7.109142830888486309e-01
-5.246877119977053638e-01
-2.862118092666019464e-01
-2.901976038628415466e-01
4.698030234410499606e-01
6.328485239077534796e-01
2.488499458463095948e-01
7.356558669511363835e-01
5.412294318438988228e-01
5.265827616763516517e-01
-2.202836645400267912e-01
-2.339097191217156535e-01
-7.467327265343528531e-01
8.847657726492743624e-01
-3.337629881224246642e-01
5.947507172623336391e-01
2.832506985757912155e-01
-8.681855672029599180e-01
-6.945698251907348464e-01
9.771539624246221578e-01
8.818091856345442459e-01
-2.389401304038090146e-01
-5.267759958319278013e-01
9.317220571391005013e-01
3.166863833158561903e-02
-6.433943243577102677e-01
-6.065547582806372073e-01
4.352311779885611465e-01
-6.497896651107717414e-01
4.346720646501780472e-01
-6.829459302958174050e-01
-5.546356760890114312e-01
5.527393615184408304e-01
1.291137381244547022e-01
3.109594885221924621e-01
6.649625833763026517e-01
6.279778909316959812e-01
9.203616391593858470e-01
9.470423645272978419e-01
-1.965357814480652721e-01
-1.021100548557325460e-01
-8.456659596122984013e-02
3.020309215618455223e-01
4.415398469491420563e-01
2.865939918562829813e-01
-9.744340352763305457e-01
-7.863681035231706584e-01
3.874828379657961896e-01
9.775402517085525211e-01
-2.005896646402955952e-01
-9.623451254977031244e-01
1.278197065890931405e-01
-6.290642314518415379e-01
5.821135470384541932e-02
3.369837864520999204e-01
6.267209432526035240e-01
-5.128971177177878982e-01
2.617037756043234520e-01
-5.017031707141959007e-01
7.392962806246639040e-02
5.573149150059857337e-01
-3.633187631475567336e-01
-5.836041144005699177e-01
5.712833368362699726e-01
-6.062366569420385431e-02
-6.952494619859510561e-01
-9.145862124237376101e-01
-6.977131558287814617e-01
8.441661508453861540e-01
-6.454415860563678109e-02
9.128332143240269758e-01
3.124806283613541513e-01
-5.059464253588876748e-01
4.725690584598130073e-02
1.153120292143339221e-01
-4.190283088829938052e-02
6.598267319973478706e-01
5.232259259425722231e-01
-4.986194487180444224e-01
-2.566682605072065915e-01
2.015281254364928998e-01
-4.707196104654176594e-02
1.780696709779492348e-01
-3.295048284030235308e-01
-8.014733501505144631e-02
9.694373951298775882e-01
8.314121892788612911e-01
-3.753049134514432339e-01
-9.634244195297454461e-01
5.046079262964500156e-01
1.470226228111468636e-01
-3.441964794122993609e-01
6.624811327922253135e-01
8.945799803923701887e-01
5.301175443433454593e-01
1.479276356093710554e-01
9.236062758404761652e-02
-3.993402012465625539e-01
-4.588354182851346330e-01
9.723881224259776079e-01
-1.368236585276658701e-01
8.922883638241201343e-01
-4.941100536018148137e-01
8.068387784971635668e-01
2.800583552702025081e-01
-1.148390484951755663e-01
-8.539533692203349347e-01
-2.299930336174480505e-01
-4.463298003701865468e-02
8.440594938112899737e-01
1.751060534524704337e-01
6.524041133859863617e-01
-8.501300243648226562e-01
2.222674336421246455e-01
-8.261639335425465802e-01
-5.398355608667324557e-01
1.440934998593110805e-01
2.366556568987137066e-01
-4.070563255515207146e-01
-8.971729464630202600e-01
2.469968791085763726e-02
8.905596108765319041e-01
6.043061432593970217e-01
-6.976272279482671479e-01
-6.156224683999331759e-01
-8.191797341263784560e-02
2.567794476623808109e-03
-3.952671333534720777e-01
-9.645934807080422946e-01
-7.837585642535347397e-01
3.344038432049212251e-01
8.370323102542129856e-01
6.013430225693277009e-01
9.841870873914460027e-02
7.958847710287852983e-01
4.861740297908379027e-02
-6.116939030428343305e-01
1.407612728250100531e-01
-5.133887555764049537e-03
-2.868522771591954790e-01
-9.376283923264545628e-01
-6.824339687322822368e-01
-7.095608560500943351e-01
-5.548997764836964830e-01
1.096126983860656878e-01
-2.763378863812504527e-01
-3.704918668414838301e-01
4.958036656388351560e-01
-8.536552113893385307e-01
2.844140490015401035e-01
8.402204582898209484e-01
-4.436627251152764906e-01
-8.255080338328257827e-01
-7.963802926144720740e-01
6.696145419665155973e-01
-1.414005102620341514e-01
1.869675764850053934e-01
-7.530473388381098143e-01
2.934657361587560409e-01
4.029122687938497815e-01
1.296244162801774014e-01
-5.124409604694926124e-01
7.573637960879555653e-01
4.118304523820510710e-01
-2.731985530706555476e-01
3.720478965973614827e-01
7.370082938908706360e-01
-4.031989097305137548e-01
7.757743153692446825e-01
3.293562583794913401e-01
4.221790695255960291e-01
6.251561427119425307e-01
-4.386204695781157348e-01
6.941444905234046558e-01
7.218790408128366032e-01
-9.137377248556359799e-01
-3.291577865734158781e-01
5.054430445146163020e-01
-2.204377969849162788e-01
4.957122408759826460e-01
9.645221143283320142e-01
-4.118401162280633798e-01
-5.455772012688528960e-01
9.528219810815954371e-01
-3.372622191802792102e-01
-7.026922386391591946e-01
-5.268595239502023020e-01
-3.713161473165227378e-01
-3.975469065228594001e-01
6.318451372678093314e-01
4.599466617104781552e-01
4.121173900656427413e-01
9.356419059269824867e-01
-4.488955396783433915e-01
6.890495784474588437e-01
-3.632698216535441560e-01
3.831622436095198925e-01
1.836265677388602136e-01
3.919268822330443935e-01
8.944456996233489665e-01
-5.551820105687146345e-01
8.322394503398844456e-02
5.156707891708802727e-01
6.956245285495887831e-01
2.341169115984171878e-01
-1.646047968318438137e-01
-6.171392670372659595e-01
-2.343341349078853497e-01
4.074231786188409199e-01
7.023336176179255652e-01
7.453319787951759867e-01
-5.419626607537739726e-01
6.731948227855388822e-01
6.568195777363985410e-01
9.957257465812991981e-01
-1.354859063316831147e-01
-3.053087503279980908e-01
-2.845061786719125241e-01
4.486623057033902739e-01
-8.528995465946187515e-01
-6.852318775888714963e-01
8.960403027627408257e-01
-5.203227485119630291e-01
9.097189857169631910e-01
7.251430223361097216e-01
-3.140587897997337841e-01
-5.049042425337759710e-01
3.028619862250498951e-01
-3.934526622890726077e-01
-9.661368595475798848e-01
-6.332599502060052288e-01
-5.761596733780298685e-01
5.638334975606085209e-01
5.689161794061678989e-01
-7.219204837441102196e-01
3.712338007979623100e-01
4.196780025330726360e-02
-8.876149490862161873e-01
-1.099449633021896133e-01
8.907167416696846196e-01
1.286857776035212897e-01
-6.230547894370401796e-01
9.379252866819098866e-01
-8.369047263356885757e-01
9.781962077522474708e-01
8.247081373352864730e-01
-1.747633108085546727e-01
3.112264181388737505e-01
-7.074779472430572369e-01
-8.788957504559946621e-01
-6.860062007114389182e-01
-5.204789362565076516e-02
7.268801815923955356e-01
-3.428587451338049874e-02
-4.119697409459215365e-01
-3.731705023722711179e-01
8.542188949888032123e-01
2.116642415958049916e-01
-8.545246754394459909e-01
4.721412768842019325e-01
2.566609165948068316e-01
4.254190722485557963e-01
7.560363591650114401e-01
-5.896797993252949066e-01
-1.734604934871453175e-01
-7.984433350798427753e-01
-7.558946345282455681e-01
5.094097490883293666e-01
-8.153226644085307395e-01
3.001820684743834455e-01
5.289832187370979710e-02
-8.320690217259214538e-01
-5.717875475080362868e-01
-1.507249432424466740e-01
5.035990705239856702e-02
1.331279322943346166e-01
-2.970298216228179911e-01
4.858964089109527595e-01
5.927202284948958066e-01
-8.484765534926002051e-01
-8.813249906743227946e-01
1.468812546838444977e-01
4.396670876210941881e-01
3.713420608772033393e-01
-1.458603737896546626e-01
-5.525320735759193802e-01
8.597872871348117840e-01
8.545866980671470436e-01
-8.498595188271236278e-01
-9.192681226649801474e-01
-4.722693940840132498e-01
2.465148909635281882e-01
5.953336141572036500e-01
2.392708017426279365e-01
-2.921237176440723005e-01
6.403825247433703183e-01
-8.820574039329946991e-01
3.195781776751529524e-01
1.601247451727239035e-01
-6.873606809190968558e-01
-8.712747990613853855e-01
6.404787992375002847e-01
2.093169622193296053e-01
2.424961906402949285e-01
-4.508861350324240291e-01
8.144768477026673725e-01
2.497722210086639194e-02
8.717725361302421927e-01
9.028566246452731647e-01
-6.510036719267198180e-01
8.133493719070059580e-01
-3.400199968326329536e-01
-4.361298208675616905e-01
-3.491555961261536556e-01
2.452349654105170362e-01
5.386618754164951284e-02
2.209387794779136271e-01
1.019218146009124304e-01
8.042467319245303337e-01
-6.405289272617793461e-01
-3.998183490876299206e-01
1.264596889790812195e-01
6.334477598022281164e-01
7.181416541661922448e-01
2.814569703060505468e-01
-1.431848339121835068e-01
8.626767527753789189e-01
-2.079855097440301837e-01
3.796799952977878423e-01
9.162896401563063176e-01
-4.642417217258132389e-01
-4.971306645625583887e-01
-6.151731287472306242e-02
6.384986525685407699e-01
8.524033465946891930e-01
8.202847856253345782e-01
-5.297884979133478112e-01
3.422265420545356207e-03
2.575410862707072646e-01
-6.367205348893612005e-01
1.168839396842957790e-02
1.059372815445613902e-01
-5.448886944637698626e-01
1.703650864866743664e-01
-2.652126037991902052e-01
-9.075073663372044130e-01
4.686505783211161180e-01
-9.598941713580091406e-01
1.071123721157045683e-01
-3.774632451020554225e-01
-7.678423108591063695e-01
5.269898275604745219e-01
-5.111746938777022020e-01
-3.734209652947471092e-01
5.324096853916495675e-01
-5.678812501005550128e-01
-6.871923250357028223e-01
8.745015128016513373e-01
-1.615499291515893887e-01
-9.933502345914613230e-01
-2.136083066748022397e-01
8.967157532327971747e-01
3.493693221919063063e-01
6.168286969171181688e-01
-2.417528067979615169e-01
3.959477159979845062e-01
-4.061564623793050277e-01
-8.827262413783720785e-01
4.367035101424443511e-02
5.000416494743298301e-02
8.752404586235380535e-01
3.549577833533952287e-01
-6.185376896176248973e-01
9.652708865647794401e-01
2.265660052909379552e-01
2.496100106732144219e-01
6.680800910885278387e-01
3.512770065466432889e-01
1.708041529695571992e-01
6.006499291935418761e-01
-1.622918354367890448e-01
8.170118983508070087e-01
-9.084251795884763503e-01
4.021479327216233024e-01
5.696890722145298014e-03
5.224030385236293483e-01
7.831827825038724100e-01
-3.934591285662030202e-01
-9.567883259700054044e-01
-3.382539849134968968e-02
-3.645060232722818760e-01
5.256126363134367985e-01
6.095802726109522673e-02
-4.092109741805975975e-01
-4.194368785637077046e-01
-8.331202760895963788e-01
-4.541762760064020910e-01
5.352095063429880284e-01
-2.869381226760148174e-01
-1.837582059234552645e-01
-1.307130026251244193e-01
4.292265138515780620e-01
1.003369006063508095e-01
-5.594108843504319584e-01
8.867384474224044855e-01
7.306758049150223755e-01
4.121659238885817533e-01
2.970670518418068173e-01
-1.106520677433111555e-01
8.546795585107400672e-01
-8.929389041327675525e-01
1.534227165524690850e-01
-1.965278818792597360e-01
-7.039575490922580503e-01
4.327935817258292683e-01
-8.431919640795684234e-01
5.853216848540130357e-01
3.913534629241843810e-01
5.799503570567159372e-01
4.629710989828028644e-02
-4.432947563317450879e-01
-7.163183795124941078e-01
6.023128893794174044e-01
3.642655885704126906e-01
1.355283816689634158e-01
8.159453518022921070e-01
5.352886585135596675e-02
-4.220571284748613206e-01
4.385818595425079458e-01
4.452311438732321491e-01
3.075222674518609534e-01
9.018311187775640558e-01
-3.049934733506607376e-01
-4.390662510226743809e-01
3.611663417640842422e-01
8.856106380911739073e-01
-7.737697399810035126e-01
-9.248758189940320396e-01
4.920018433088761967e-01
5.565362745057957916e-01
4.856419831236711282e-01
5.602903400755496754e-01
-4.567256379569670788e-01
5.526291752017817860e-01
-3.338817725822462723e-01
-3.792500246208829751e-01
-8.083502480520770028e-01
4.419441604238505406e-01
-9.489909452353058050e-01
3.352972307161659060e-01
3.178827627154603430e-01
-8.040285934577071636e-01
-4.596124980968938623e-01
-8.408240601179080009e-01
-4.436326297055650514e-01
-4.522837349554291730e-01
5.650846695516014151e-01
6.396341449639502130e-01
8.637400904225305265e-01
4.811525067072384143e-01
-4.955334790267413858e-01
-5.138689990108433747e-01
-5.118467677597604570e-02
7.068150980319889420e-01
4.127157168370922946e-01
2.275930220812174554e-01
-8.674822740552590172e-01
6.287761047839151018e-01
-1.623052488831056017e-02
6.127870479001817916e-01
5.071510230601863345e-01
-8.584726138848584043e-01
3.861738088862416429e-01
-5.596824645628009076e-01
-8.566679407005477476e-01
4.041223682000525397e-01
-6.626717562770867431e-01
-3.896258030904720115e-01
-4.151876929103792691e-02
7.017437507464459046e-01
-3.074231370085753756e-01
-7.802764241651978239e-01
7.074211485197723359e-01
1.499531339257487161e-02
6.871057661272303996e-01
4.298330207827283367e-02
-2.466108331280860710e-01
4.093012318862045973e-01
-9.851954418535848745e-01
-4.521641981988258063e-01
-4.148736786584767966e-01
-3.793084030185291944e-01
2.402023651451798969e-01
-1.358217925238227597e-01
-9.759337608602098868e-01
7.066698481157527301e-01
-9.667245166932225686e-02
-1.633114619104627518e-01
9.511257414164224766e-01
4.564089026995765686e-01
-2.328997632131093454e-01
-3.246349122382068408e-01
3.018623786106995333e-01
-5.987063525952529552e-02
2.516087327117337846e-01
9.532658521765013937e-02
5.751720485402578298e-02
7.598255939176743468e-01
-3.354630920077772416e-01
-4.999458132726486426e-01
-7.455321834457540042e-02
9.736353539178377314e-01
2.697837526390383101e-01
-6.318178275230150742e-01
-3.344701269153229628e-01
-7.230415655280095777e-01
8.593814639902608299e-02
5.217245288658634017e-02
-8.261699542264033802e-02
1.739133306462250506e-01
-9.156511692480957532e-01
-6.901688461112864825e-01
9.413100956924118634e-01
2.241591175012980219e-01
3.118730465036616550e-01
2.513123494192035512e-01
-4.535410666466559437e-01
-6.412976498449030061e-02
7.901352148756597416e-01
8.168475713698992724e-01
7.765700379127784547e-01
5.555226901212912960e-01
-2.995395234762763259e-01
-5.521069904239686021e-01
1.167771321419273090e-01
2.867717955836344146e-01
-1.254424386182306783e-02
-7.701914317823943534e-01
-8.327134039915837782e-01
9.232939931380634846e-03
4.993373414319268733e-03
4.242398061793044572e-01
-4.569200920439546731e-01
7.260812597160426485e-01
-9.558272415791173593e-01
9.819576783572125933e-02
-4.833739026236441028e-01
2.207436147294168372e-01
-5.235392243227212639e-01
7.257577992396992972e-01
8.926613906683975586e-01
6.168260438140331647e-01
-1.524654157157769863e-01
-7.106584705796019641e-01
-4.094558006576758391e-01
-8.321813711598340380e-01
4.180687126197426551e-01
-6.556804270336762386e-01
6.463434402411882829e-02
-4.733364615472164250e-01
-5.087958771218836773e-02
1.650283533738625685e-01
-6.970366987852967267e-01
6.612940445404509315e-01
4.177195861128426557e-01
-4.651243796915178752e-01
-3.586053069534493876e-01
-4.685524802472866845e-01
8.919798356818240403e-01
-2.173605378938225918e-02
-8.819397181415977727e-02
-7.887131986438740139e-01
-2.166033905003676985e-01
8.972287526402071833e-01
7.780055332863367035e-02
-7.675487983864845987e-01
4.966294348034405726e-01
-5.727423032346381504e-01
-8.683172278531658961e-02
3.274827358692287138e-01
-1.645212405986815618e-01
9.080926451277568923e-01
-8.712162255850250947e-01
9.215536527694909719e-01
8.678783355369661390e-01
6.287564054966485738e-01
-8.573647235892687402e-01
-4.395187806446061440e-01
-8.576529275842872391e-01
4.812914966316883536e-01
8.021723902684403384e-01
-7.484241789714778381e-01
9.448484359612447925e-01
8.960773610249312959e-01
4.986526270682543061e-01
1.881651487564091063e-01
5.761983331851037171e-01
8.597458121691217148e-01
-6.741276176609833914e-01
6.125748424357424504e-02
-1.249296431356679005e-01
-4.894729208760648653e-01
-4.841193935165117868e-01
-6.710404294175220663e-02
-7.381843294484446982e-01
-1.546205022554707487e-01
-4.727497832787239673e-01
4.391107475836730778e-01
-1.837599046573663575e-01
5.939574824486439919e-01
9.983824059915202831e-02
-9.459617392662535984e-01
6.559154728248985933e-01
2.293578049572033706e-01
4.851044827965556028e-01
3.565509816440575186e-01
7.353183574178154824e-01
7.874450895682714169e-01
7.587066180326857978e-01
-2.658463450927275318e-01
-3.503273894084661944e-01
-8.717938527452693265e-01
3.108445128643320121e-01
1.153092114951106417e-01
7.545983287239974580e-01
-7.861314362377247456e-01
-7.805110916300641577e-01
-4.201158703177556575e-01
-2.802023375534030691e-01
2.562259470895280611e-01
-9.217647598584075563e-01
-7.893896684977035338e-01
-8.242449260567197289e-01
-2.358086430705763625e-01
4.496406862602684296e-01
-6.738613720783788175e-01
-3.151685435406585967e-01
-3.841557302677527375e-01
9.937232700247689010e-02
-3.269107090727267906e-01
-6.940474850601427992e-01
2.616900307951943727e-01
-2.410350007500980940e-01
5.895715017345182218e-01
-1.216049248790935788e-01
-2.353874333829795162e-01
6.440797209828050818e-01
-7.184621258098411456e-01
4.383115766198675267e-02
9.628937979745961773e-01
7.833913538376169328e-01
8.308518390726122860e-01
3.302199352406918198e-01
-7.532461893636295258e-01
-7.052629470131479561e-01
1.125247804915079364e-01
-3.879156923639355270e-01
-3.900848006350472463e-01
-3.317773070123104517e-01
-8.192918416416206107e-02
-2.017575081171441020e-02
8.960296441986939087e-01
-7.932139335192012197e-01
5.546152957470660283e-01
4.352634857331707519e-01
7.143207212143969365e-01
-6.692836246157765068e-01
7.902243433013866891e-01
2.596401837121307121e-01
5.362751746982801215e-01
7.500930381416484050e-01
-6.953557701542805169e-01
2.691737921933274880e-01
-5.417901909560036700e-01
-5.186730722164567542e-01
1.613549693175708732e-02
-2.014477073970202259e-01
7.799436355337177051e-01
-6.387990319188958654e-01
-8.950890005817981887e-01
5.177963113059920186e-01
-9.938950313801313552e-01
-5.998994523253100564e-01
8.649578304473972690e-01
1.590465911178378100e-01
-8.019714788473406575e-01
-5.361427959479545535e-01
-9.638277933150645183e-01
-6.876655016463528725e-01
-9.240756784536439117e-01
-7.453889205560746412e-01
9.409224470753358993e-01
-8.760298319993653493e-02
6.064249437449349411e-01
-8.870442026963594184e-01
-1.566341216129030212e-01
-7.148653132766165097e-01
-3.115528418389252874e-01
-2.677033937342756520e-01
4.391301704231163061e-01
4.133582398241129052e-01
8.863546580274004327e-01
5.863728412581015181e-01
-2.827949117866814799e-01
-7.656475500499386744e-01
4.718879454205722190e-01
-4.820418244212358871e-01
5.508973666350924780e-01
9.942624353158002748e-01
2.680575881995970189e-01
-6.249871179874091354e-01
-2.664564868636372097e-01
9.357544102743433623e-01
-5.737311543093543964e-01
-2.470157977970475205e-01
-8.406258807685160761e-01
4.665363287746999710e-01
2.622155286678129471e-02
5.963487184082483239e-01
5.401579247908148140e-01
6.867065623168768784e-01
-2.976610507836745523e-01
-9.313487763156254040e-01
-1.491685997775704653e-01
-7.690821643974932176e-01
3.386040954926918811e-01
8.523953222066902313e-01
1.635470763381410286e-01
-6.417476520384117755e-01
6.208210110976040141e-01
-4.887352571156937664e-01
3.793760524775080523e-01
5.165633255093193821e-01
-2.259156483115580816e-01
2.290986360669422517e-01
-1.410940302831218407e-01
3.051512794417410301e-01
6.136388310237521626e-01
-9.794232007212082536e-01
3.203120901462033210e-01
8.353221257676730627e-01
2.977469645406973786e-01
-3.584350848130160028e-01
-7.441560071433885870e-01
7.857197680614018687e-01
-7.223670805051680688e-01
-2.002131385195200508e-01
-4.658142418850768074e-01
8.341624292084741654e-01
3.474456158145970974e-01
4.184042632943694162e-01
-3.551095214791648580e-01
4.833291320032289118e-01
7.787113768596747310e-01
1.521860876711664812e-01
-7.865474439465842682e-01
2.538014733470486117e-01
-6.240876198777998152e-01
-5.270330203984221473e-01
3.640207110851401140e-02
4.655674791493724651e-01
-4.119860676924504972e-01
7.563537647593845392e-01
-2.897689892245480792e-03
-8.286798128708492417e-01
-1.501648122775471883e-01
-4.287299280522116618e-02
1.555320966902316027e-01
6.809399008870635761e-01
5.326883472263319597e-01
1.557674619096538482e-01
1.691209208588251300e-01
1.275960329564702622e-01
7.956465103954517559e-01
-4.798162342050331652e-01
-3.143737488306417305e-01
8.991070813353863045e-01
8.573479029757884451e-01
2.451560024198888854e-01
-2.185849684643847990e-01
-5.236689679705708311e-01
5.792196866556389434e-01
7.028294369397285468e-01
-6.723319039813255849e-01
-3.865997955408113640e-01
-4.057139914800171887e-01
6.972871922217380725e-01
-5.878629421581065273e-01
6.618923110296592860e-02
-7.489068597373556013e-01
3.717715547307314239e-01
-1.350288414966482886e-01
6.280938592369833540e-01
-2.349759184881776708e-01
-5.965688373369071318e-01
5.691375567909584543e-01
9.656084712589159125e-01
6.617592573429085245e-01
-5.347509658086473383e-01
9.646194288976572828e-01
-4.332408637921991712e-01
-9.051409470144791136e-01
-2.968997784027849196e-01
7.123755866113132829e-01
-2.732295562386719556e-01
-8.806889379284776886e-01
-6.524957465118585986e-01
1.101294822074825319e-01
2.892605850063820760e-01
-6.857127793510109370e-01
-7.103757468147708920e-01
-5.578063830876849316e-01
8.974472840095748527e-01
-2.928956802779096869e-01
8.201566934225938965e-01
7.495220415834460415e-01
7.884220382628828183e-01
8.678189530833246845e-01
-2.973654998643862069e-01
9.277051232703876771e-01
-3.823830469432547563e-01
-9.689083498781552173e-01
2.807928114201716507e-01
-6.769914377138439576e-01
5.083687672623364850e-01
-9.937883699537877202e-01
-7.624669230169893730e-01
5.361799432608396199e-01
-6.990593017433748280e-01
1.728414089819940713e-01
-1.669104722650509576e-01
5.675384622276298252e-01
6.623858325388765067e-02
-9.815170809479492053e-01
5.553203274771914000e-01
-3.801250317677999924e-01
2.808275731546665543e-01
-7.214456450720956315e-01
-3.167877767112992071e-01
5.327343360403324901e-01
7.390462414137126679e-01
-8.246722727187778545e-01
2.652956052241366436e-01
-2.015651554965416370e-01
-3.712554884138847822e-01
8.909252449834232923e-01
-4.263590424577305971e-01
-9.497100704064318499e-01
-8.997891327620635149e-01
4.863384092393445712e-01
-5.493064560715661404e-01
8.823307847080175126e-01
-7.336692635605497337e-01
2.721253762148791999e-01
-6.766459666879374169e-01
-4.681198351491417942e-01
4.931041558669762015e-01
2.795787083556484642e-01
-4.583159954197679742e-01
5.493243436621033648e-01
4.437512295569288057e-01
-3.397453150124338794e-01
-4.001165819726426598e-02
-4.976376091537042523e-01
-8.274589709207842425e-01
-7.517108640094123384e-01
-7.479006092683493367e-01
9.021121849255051561e-01
-2.462978071235055744e-02
-5.086404438192602129e-01
-2.093381946282253381e-01
-5.930800428293627746e-01
6.599699275106098995e-01
-1.960098407882779892e-01
-9.455658412059819717e-01
3.814036084051597442e-01
5.405272732169699168e-01
-6.407720267308416595e-01
9.859374325537260120e-01
-2.459691077697960804e-01
4.755701043464408695e-01
2.464214726625995056e-01
3.098882092502708296e-01
-5.457900669553339412e-01
5.715572356239304597e-01
6.833576135949199770e-01
3.944456421634878751e-01
-5.576636700303443384e-01
-4.553555700904210468e-03
6.457416207486035287e-01
2.812181448534309958e-01
4.012085415826383006e-01
4.849930002302194065e-01
4.626857091690201873e-01
-7.449942055773475236e-01
-4.478075288538865273e-01
-9.905740800408604496e-01
-5.923781615875698403e-01
-4.798954407732776151e-01
1.629703775615767292e-01
5.778744980489807226e-01
2.145889095445594474e-01
8.427930674751769047e-01
6.610073596996142165e-01
-8.032738000746277862e-01
-4.955209593016189906e-01
9.712461833782495280e-01
-1.577588705503052413e-01
-7.788262014191316140e-01
3.937117887200489719e-01
-2.536362333555128856e-01
1.084547130950117566e-01
-5.205776777244148779e-01
-1.865767594000278251e-01
8.563956753053640902e-01
4.323607188388809419e-01
6.670704862309386751e-01
-6.127178332165215124e-01
-5.895208758846142150e-01
2.242882893011659551e-01
1.255764381895929649e-01
5.167927887887031613e-01
9.740572758253718266e-01
-2.082585772926301981e-01
-3.749610545511634641e-01
2.273989263990872089e-01
7.802537798707653849e-02
-4.530701195653237257e-01
4.440588531763882685e-01
2.150905797460371804e-01
-3.754350119973011157e-01
-3.402285959750892541e-01
-9.311206632107864589e-01
2.537149160676774873e-01
8.809293016574937241e-01
9.654944354633876458e-03
-8.649674638495465917e-01
8.869379746653189844e-01
7.721623865792375252e-01
7.896817905798370063e-02
8.336100513859494576e-01
-6.935904334398081961e-01
-4.874547088172029863e-01
7.891497311435571316e-01
-9.593444417469321195e-01
7.283503385892728943e-01
-5.886574666075139461e-01
4.164833249311539198e-02
-4.160390224025110051e-01
3.230341104047502743e-01
-6.476694297339753437e-01
5.796439139316564848e-01
8.924873713611682913e-01
5.838365732220924809e-01
-8.593223609667903773e-01
2.713275175308171860e-01
-4.403084147470259779e-02
-2.148291551149996703e-01
-5.941361003961109777e-01
-6.111106654299371943e-01
1.765395636966931026e-01
5.004900146918409565e-01
3.656991030595462266e-01
2.766941279245409557e-01
-1.725616205448483598e-01
-7.036338676355025079e-02
-3.229936728394129375e-01
-5.366724813636511993e-01
5.858353801802373972e-02
9.499383954247391237e-01
-1.173251286634533486e-01
-8.548542533838892066e-01
8.629694463987340747e-01
5.386686737318238105e-01
-7.747376687379121663e-01
-4.763096683729721725e-01
-8.579448525115851432e-01
-9.122636337707048515e-01
5.645862192920185763e-01
-5.083992205865313085e-01
-8.215908960074544964e-01
-7.212549604085487509e-01
-8.877406739713202821e-01
2.581188456029104294e-01
7.174648240325669502e-01
-1.299994814420348810e-01
-6.564961222928291651e-01
5.724152733059928444e-02
7.580716557022433300e-01
1.385538743916352455e-01
-6.852049450589663415e-01
-4.277878538767447836e-01
8.025627502318175566e-01
5.268135735289918298e-01
9.495310567644390520e-01
-4.031820606279274966e-01
-1.907736024828146082e-01
-8.627007247494271613e-01
6.921792711756213912e-01
1.727260168928570483e-01
2.436700871028487647e-01
-9.609094622747238468e-02
-7.502118875594945280e-01
5.945957240293766599e-01
-9.768135099283734579e-01
-7.741053336558523235e-01
-9.150309246002206187e-01
-7.016461251684003031e-02
1.756763342848817189e-01
3.065127099298405877e-01
5.531589627381894303e-01
-4.770355221553079783e-01
9.809516523401387023e-01
-1.318069743478362810e-01
-7.077193346349190950e-01
4.999682506291380779e-01
7.573198336319482138e-01
-8.472008836891498085e-01
-8.080876962122587326e-01
-1.712203769527140818e-01
3.250614177764570289e-01
5.176822333811481602e-01
-1.056217762323237164e-01
2.247049949510500078e-01
-3.030011135728345462e-01
-5.852060819588482676e-01
-3.264895995249155192e-01
7.953680871535571129e-01
4.375622341233660340e-01
8.275597161528192025e-01
-2.943192055414760588e-01
-4.199752139654926442e-01
9.086663106171779525e-01
-8.364606240763932110e-01
-7.696507633198674814e-01
-9.244741863218897127e-01
7.226595686975052502e-01
-8.801928920660271327e-01
-2.511513172697534824e-01
-7.651488596633639894e-01
9.657209701986571027e-01
9.626110860417746995e-01
-8.531520769379956626e-01
7.390090802293098893e-01
-1.755305423539661458e-01
-2.386378332102525590e-01
2.107855833398346590e-01
8.380004479519302940e-01
7.590575613322958493e-01
1.500955672703681021e-01
-4.901774642962972717e-01
-9.588918195324231952e-01
-9.577575766011858782e-02
-8.969711613536115458e-01
-4.884057089314217670e-01
1.103039621884405186e-01
-9.699104432880238935e-01
-2.291083555321984377e-01
9.358044144750832238e-02
-6.779719804067767530e-01
-3.538557619185489500e-01
-6.809468858557021775e-01
9.724374513908948803e-01
7.419672735658484619e-01
-9.435705793127469043e-02
7.141651845613099514e-01
3.234209407704218275e-01
9.976371484846233706e-01
2.818074346413346198e-02
-8.335276135851965584e-02
1.650645538501362974e-01
6.231419281187253745e-01
3.035514118120690163e-01
3.948120685211817804e-01
4.497418002949589155e-01
2.380830603353734087e-01
9.525802165058949722e-01
8.697550760038124107e-01
9.846447387283419062e-01
9.305475173553645618e-01
-8.046870349093904196e-01
8.426072300059532783e-01
-5.795993006914539336e-01
-9.852699151505159847e-01
-9.834684127173263235e-01
-5.671346869329219054e-02
-1.695442646893376981e-01
-3.630718990054306872e-01
-5.315776505345846115e-01
6.638749374143533277e-01
3.387501529004719458e-01
-4.595923526824710059e-01
-4.371611429773869517e-01
-7.222969914553216686e-01
-1.126187734148069719e-01
-5.929642584709597930e-01
-7.890835915563521041e-02
-9.779175794922001508e-02
-3.018120807061794864e-01
-2.795355744735623649e-01
-2.611983454381139325e-01
-7.864603317814946593e-01
6.996745839405025258e-01
-7.148405446355214909e-01
-7.038546888935306445e-01
5.954393121421321933e-01
-7.184291794138406573e-01
7.786376024308390154e-01
2.915709194564453099e-01
-4.363829524317315300e-01
3.040481864526300981e-02
-1.441832896560615307e-01
-2.346057900662750217e-01
2.119192234597375712e-01
8.171277869372257641e-01
9.668151292386117923e-02
2.752670072983471883e-01
-2.810985711312030677e-01
-6.928197450909616695e-01
-3.974185410121331419e-01
-7.385602866464298089e-01
-7.006041705210088733e-01
6.548910857313368084e-01
-7.341148354190893954e-01
3.340468913133709528e-02
-5.740425241452775662e-01
1.497941442254167033e-01
5.602177455505394921e-01
-8.355220502556881534e-02
2.772377486209594011e-01
7.885291131743130677e-01
1.708094353855906800e-01
-5.696599367605772457e-01
-9.325336462400606319e-01
5.109536333578725831e-01
9.033234505427294447e-01
1.490333241747110460e-01
-3.226138639829556620e-01
7.833814647155752375e-01
-3.099770663545917682e-01
9.189846553624658743e-01
2.995210926932951878e-01
-7.121569895214954204e-01
9.402218156016317607e-01
-7.598552290784854613e-01
-5.449024777783397777e-01
-1.310562471195859668e-01
1.112942813906605544e-01
-8.121436855002337474e-01
7.555831899020117870e-01
7.408928425164520437e-01
4.136164960043067218e-01
8.584044134557091699e-01
7.732409620957338969e-01
-1.801519669872404528e-01
-1.681070808963602836e-01
-7.708508669048201867e-01
-2.262692101700203295e-02
8.632651984043890891e-01
-6.937979581705040477e-01
-2.207148594859675850e-01
-9.850198136412759986e-01
3.457179352705996855e-01
4.881340853289055648e-01
-9.750804719499526207e-01
7.722932144087175654e-01
-9.770732856508952402e-01
8.908533531986804199e-01
-4.130450388592601385e-01
1.093938965761080961e-01
4.764868850038528336e-01
5.160416063668813447e-01
8.413923253705084537e-01
-2.606416579577497394e-02
6.813580299714510069e-01
7.494460238308169320e-01
-2.004925628242066882e-01
-4.318597317443635397e-01
7.293584298603086324e-01
1.818319627429625385e-01
-5.466796981549337797e-01
8.456023519491586704e-01
2.506399629480253743e-01
1.256012688502641250e-01
4.393428660176150746e-01
-3.299343985062566098e-01
-9.219528069333267073e-01
-6.489015041635799452e-01
9.788325527025372175e-01
-4.687617661470728780e-01
-3.640022339014528097e-01
7.809335170181141983e-02
-6.171608573601594649e-02
7.298767609062419837e-01
-9.218197907880008035e-01
7.116578196893241781e-02
-8.960282282090006323e-01
-8.509917166150582357e-01
-6.055421825921554202e-01
2.752974899912274953e-01
-6.034166923895016854e-01
1.305835780919994971e-01
7.535807787109760625e-01
3.263405323377166489e-01
-6.095224095472102643e-01
2.363641550271751157e-01
-4.045160857682967848e-01
1.062480974174071502e-01
-6.455620202311900258e-01
-6.101315209442759180e-01
-5.109677261130218806e-01
1.535031920032026154e-01
-1.597213656425811035e-01
-8.126668622995345537e-01
8.451365384332598651e-02
2.948924759941693452e-01
2.097739474469282328e-01
9.635744654099107631e-01
-4.578696396402490709e-01
-4.594439970700285869e-01
6.765354652206185815e-01
-9.400328914879543252e-01
7.773498998864702969e-03
7.912476534145906903e-01
-9.747094494288159883e-01
2.618510485630625162e-01
-9.988548724505377230e-01
-3.254187394365206654e-01
1.131270720741632818e-01
1.526039975731598997e-01
-3.442157946583810357e-01
7.007298274582725028e-01
3.854327255552691955e-01
4.778365646478810458e-01
2.059961562378878064e-01
-3.549149258539634477e-01
-3.051972927911088540e-01
7.140686483031966070e-02
-5.956535970898173549e-01
-5.842422621494087753e-01
2.144578066909639258e-01
-5.376452567098843893e-01
-3.118225309220263863e-01
4.194286270291569529e-01
-8.728944650518395409e-01
-5.635251863669279437e-01
8.328105086739001628e-01
8.604033884869100035e-01
-8.030586520732585498e-01
6.933915476963481428e-01
-3.120833168957140025e-01
2.489814832930803412e-01
3.839041649681527169e-01
-5.053715621455756590e-01
6.517055769537019039e-01
-9.195710265318868259e-02
-9.015252163295837118e-01
5.341642736526071022e-01
6.831470811255571096e-01
3.599713166469020731e-01
4.064114418216728808e-01
3.211665481807910449e-01
4.186351668239283175e-01
8.394123104705544236e-01
6.936466397810145956e-01
8.391653368056171125e-01
1.647262388558028423e-01
-9.233438342137791910e-01
-6.917716796490194220e-01
-7.874834869572047147e-01
1.146106055650208955e-01
-6.144200926074105951e-01
-3.140624072821749380e-01
6.000598200128717252e-01
-1.447689840298829189e-01
-7.987511161426819051e-01
-9.731440607724815006e-01
9.816592817594940179e-01
-9.939341631827791623e-02
-6.520327538971555370e-01
-3.280135291530787978e-01
8.343158191184336658e-01
-9.977357071882120287e-02
4.278259241429889226e-01
-9.007944068017570416e-02
-8.387301772548101386e-01
1.248054832040099704e-01
-9.054431651720900032e-01
9.745855979297683991e-01
9.561224542341473231e-01
-6.735558566683252923e-01
8.930232287638473210e-02
-2.182074282535371168e-01
-1.644163013427621944e-01
-1.684993391343310165e-01
-4.794442214946579295e-01
-8.550619619758521583e-01
-1.195018427070251299e-01
5.830445562666717318e-01
-1.162095310985595820e-01
-9.052240500674992862e-01
3.585073951622119726e-01
5.069621247818976162e-01
-1.521446848275642694e-01
-1.858187942272204740e-01
-1.338126331409168479e-01
-3.569959512360165732e-01
-9.107469553412965713e-01
8.838615931149464977e-01
8.243932564799845153e-01
4.684790389385271592e-01
-4.999053674820657100e-01
-6.430613700652700881e-01
-2.585519479314601909e-02
-3.103634922819242803e-01
2.729912471001232355e-01
-8.303619239819894915e-01
-4.833749804731268807e-01
3.615000933048380105e-01
1.272034296349189297e-01
-8.086316383289693377e-01
7.396144410913816358e-01
-8.954921639646573617e-02
9.629452177796713475e-01
-5.265935748108889758e-01
-4.859868120227275323e-01
-3.363085161464463013e-02
4.957625222471566673e-01
5.909453233375985270e-01
3.924984455923625770e-01
-3.531429716421183862e-01
-9.796926297048260679e-01
-3.391385839102396549e-01
-9.354762877987434777e-01
-7.531317550262981442e-01
-4.947148670201269027e-01
-7.203396410178970477e-01
4.312732596904635951e-01
-4.571875782517365039e-01
-4.114915258000038101e-01
-5.526041584855554412e-01
-6.098095511182277662e-02
-3.205792403595237872e-01
4.019691204159547837e-01
-3.214752524468458272e-01
-9.805076326393113995e-02
3.413091884605714554e-01
8.025777914408205316e-01
-2.871841160757160338e-01
7.107543171103425372e-01
5.816784058835460236e-01
8.529529343750650305e-01
-8.201819867896726901e-01
-1.254084219585438476e-01
-6.705378121626681676e-02
-1.235622586528475342e-01
-1.248250330018136900e-01
-4.074119717322250978e-01
4.616522672016265538e-02
-5.203625584589888220e-02
4.619962196683526923e-01
3.792766726203726790e-01
-7.092114661975357226e-01
6.235551064859572445e-01
-1.931495569020029723e-01
-5.246796246501022054e-01
-9.158053689260294838e-01
7.432567859692222889e-01
4.122505685576238754e-01
-1.342688411149635108e-01
-7.757412339139022617e-01
2.297230558940110967e-01
-5.078224936941062584e-01
-3.964528545255485703e-01
-5.283840177091527757e-01
-7.582665167159203801e-01
-6.642009009268490249e-01
-2.725347410262710657e-01
-1.754363512270520342e-01
-3.861400220799779959e-01
-7.089655370363754372e-01
1.306352412187539169e-01
3.523396320654734737e-01
3.953934141013502046e-01
3.728681548974162041e-01
3.053710840024417283e-01
-8.610330077843104668e-01
4.778986378687211101e-01
-4.234001678541734481e-01
-5.051863975172219412e-01
-8.210201218299573167e-01
5.713695356463810437e-01
7.129158615193440518e-01
-3.839645003504501553e-01
-9.025666099946019205e-01
9.217515954949153656e-01
-2.136832674107460583e-01
1.653628365504429265e-01
-5.432748031428518143e-01
-9.963173329597980743e-01
-2.096480518968915074e-01
1.983009070915897620e-01
3.169809458831756022e-01
1.991244871589332721e-01
3.830264677558212760e-01
7.031026440618701745e-01
5.968941292852665281e-01
1.844755310958297034e-01
-7.331400229996034579e-01
-4.446903397592070206e-01
4.908016061128810392e-01
-2.159953471880760034e-02
6.678766304127594644e-01
9.084640828530909928e-02
4.661534021031363828e-01
-6.705534761723859205e-01
-3.180135051690227144e-01
-8.235565274209013520e-01
9.511451815361338102e-01
-8.613469155883330952e-01
9.090319366375831933e-01
-4.968091418766811262e-01
-2.937191024606138345e-01
-7.928671730236882542e-01
-8.401116022941428341e-01
-2.181308708309641631e-01
-2.158942492961086757e-01
-7.059924695860406718e-01
6.269393524588118272e-01
-7.255188256445144201e-01
6.163164657503559241e-01
-5.800508693740711319e-01
7.677029978073901528e-01
8.529945242070615663e-01
9.236499381333727055e-01
-4.809553684670868634e-01
-1.418787100832019643e-01
-7.760172704592196435e-01
-3.841998723966493223e-01
-9.251332800863254491e-02
-3.514213516357971301e-01
2.910985975378190815e-01
-4.920449499449923714e-01
7.717227500184167255e-01
-8.989745061424248007e-03
3.263467168573768173e-01
-2.049574579456168166e-01
-5.154234099849719364e-01
8.040953050560306625e-01
8.421782778411568415e-02
1.710798925964409634e-01
-7.903619812589064431e-01
2.197265463375641659e-02
5.536808652668472330e-01
5.949785401957334852e-01
-3.669133358602543193e-01
2.284677377297583689e-02
-7.101287289463691366e-01
-1.902272502936195320e-01
6.614173718343983044e-01
6.996175806877524828e-02
-5.091808859471291804e-01
9.389401906057563973e-01
-1.687744859371238526e-01
8.053223040208561390e-01
-3.558179680732360683e-01
-7.350580014263781159e-01
-7.437631620028204438e-01
9.307291309625169706e-01
-8.210915862971757129e-01
-3.011981764008027085e-01
-6.290262432680913118e-01
1.458218479952544389e-01
-7.986310715198514654e-01
-9.449990222345265867e-01
-9.551430531471420959e-01
-8.927491147072699196e-01
-6.574466851979985371e-01
-9.259973213028089845e-01
-1.234362979662304571e-01
-3.067875797371548696e-01
4.539919437678352487e-02
-4.154259641934032743e-02
-9.564142189833206853e-01
1.069335025493693969e-01
3.677198069471914188e-01
-4.478541755502956079e-01
-1.576287754129039875e-01
-9.940750164990084237e-01
-8.571900882337999406e-01
9.931717177736005819e-01
-2.767421388756905465e-01
2.561639684856209520e-02
-7.282470938550584805e-01
-7.232989650101255830e-01
6.489364985345396075e-01
-4.943403386870270921e-02
-3.866266307855148465e-01
3.086678480708857641e-01
1.489207497722344620e-01
-5.431555435437880330e-01
2.123446564545810045e-01
8.919051832145832304e-01
3.581757416347182144e-01
-7.633598034167565771e-02
-9.924523643254496985e-01
8.262544965169404954e-02
8.482493810416316116e-01
-9.486868766854013035e-01
-4.897673503999346867e-01
9.187619257061028222e-01
8.747726256994785565e-01
-5.576991824718273705e-01
7.370938619161804262e-02
-4.474226313605007554e-01
-9.768520351150256076e-02
3.770599020934199963e-01
3.967390727276949303e-01
-8.216486578513995109e-01
-3.576921779112776090e-01
-5.339121871638270456e-01
-7.113045608924226659e-01
7.861629949485471336e-01
2.468357934899012562e-02
-2.082196821697954725e-01
-7.700121932955161785e-01
-6.340959715624427950e-01
4.522458797624890892e-01
6.803046094210896122e-01
1.860540112399740043e-01
4.637926736003019634e-01
6.494563815563694220e-01
4.532333802140680046e-01
8.571978437324978550e-01
3.777299962653009047e-01
-8.497245401374626805e-01
7.776326704117646482e-01
1.519859310358584459e-02
-3.121412393506339811e-02
5.392122284969369517e-02
-2.217066825901625737e-01
3.205533132318638678e-03
-1.392023531526223046e-01
-7.442016239559978708e-01
8.244463161630966042e-03
-3.474153690420607177e-01
-2.682275601021908429e-01
9.608576918087634589e-01
9.070959413950561157e-01
5.611926559541902115e-02
-8.111025351993135235e-01
-2.575633250750979375e-01
-9.222979059726430506e-01
1.071743582754272062e-01
-6.445608698427354177e-01
8.767883899404222969e-01
3.504182761685836756e-01
-3.288337910054295321e-02
2.005564756062123699e-01
-4.375411189853302130e-01
-6.709994302612676265e-02
-6.853736886374113269e-01
-7.091249390252696294e-02
4.185982095797762259e-01
9.790238185369186663e-01
-4.885047305789660399e-01
-3.420243026453886337e-01
-5.724387251190474757e-01
5.187100027590088036e-01
4.617782239749510520e-01
7.093058902296840440e-01
8.025514213658533347e-01
4.940559170121592292e-01
6.943623659815114646e-01
7.745161261213673320e-02
-2.507992844792228393e-01
8.239864418314628569e-01
-6.672441176315293543e-01
-1.157730377857102422e-01
6.877346779115334208e-01
-1.762976937079798745e-01
7.259040233716178570e-01
-2.830023920210236188e-01
-2.883960600352675208e-01
-9.150124292731054432e-02
6.355432219682601858e-01
-1.414991274076127237e-01
-8.534484659362349124e-01
-4.572648410030675237e-01
6.704755681179008775e-01
8.203956441651594211e-01
7.944023273294313903e-01
5.716020251634990057e-01
7.784680935752690267e-01
4.284759140161729096e-01
-4.245535057027607362e-01
-6.662814227454136873e-01
-5.109523101531769917e-01
7.266560429771562468e-02
6.302171654723307537e-01
-5.695602089508398080e-01
7.343145562006412330e-01
-2.594390286190650929e-01
4.289170514854638849e-01
6.391772436194511631e-01
-5.223269599008775188e-01
-9.574743080241130411e-01
5.324955263546424789e-01
6.321615188354789971e-02
-8.856066620593414651e-01
8.045043608711952565e-01
1.384419901985756152e-01
-8.391549617745799328e-01
8.932960313386530959e-01
9.415380069669290197e-01
-5.463391005313678050e-01
3.201602739001292441e-01
-7.507165239106763366e-01
-8.865071515465694496e-01
-8.209958020130996292e-01
2.105218493415932368e-01
-2.563275548973928952e-01
5.722968191537967098e-01
9.997482630729981334e-01
-9.854010118778022687e-01
1.476453608430687847e-01
-3.615312220919888464e-01
4.841637013619988217e-01
-8.756840965171655000e-01
-2.562643650437697040e-01
-4.644137416587001965e-02
-8.661252316645982052e-01
-8.254518997368911482e-01
8.410440393993257047e-02
2.905517080775064098e-01
5.338277034161702517e-01
-9.469675358966893608e-01
-4.050174782174369437e-01
-3.066399025039230342e-01
-1.641193931211384349e-01
-2.918369448052198223e-01
1.685801676798985849e-01
1.640842699018612016e-01
-9.020698688818407085e-01
1.029677404895483761e-01
-1.087912274764997189e-01
-4.622990919260172582e-01
7.544975789904238006e-01
-1.833747612169485119e-01
-6.844684137480212538e-01
-3.860793784635565551e-01
7.388566002773344632e-01
-6.989507451660026405e-01
4.483590265738026659e-01
-3.630875722582085352e-01
-1.403279631491649582e-02
4.811999315719885928e-01
-7.681025246102304305e-01
6.052239314319569630e-01
8.524025374583457104e-01
-9.926258724096854724e-01
-5.164961497722564410e-02
-4.293307536591290940e-01
-6.147072409229863421e-01
-8.130338866612294435e-01
-9.015218424314823675e-01
3.465369477074635718e-01
-8.974259918794369462e-01
7.072056518187563867e-01
7.019273442843076971e-02
2.662777004945349191e-01
-8.519950696122733369e-01
-9.289461286033806608e-02
2.063575287074703724e-02
5.514646105986880098e-01
-7.770120433666549697e-01
-1.805787686178961238e-01
-5.234774365632464121e-01
-3.618936076707179872e-01
-8.612900106413008405e-01
-8.812931795315865902e-01
-5.433193830661986468e-03
9.204364763829921969e-01
-6.624542535483084471e-01
-2.284266086730328826e-01
7.061900346495766367e-01
-7.224848740326588192e-01
2.721649965243599922e-02
2.570470683354819652e-01
-4.496218456838940725e-02
-4.838977651418949755e-01
-3.214266881115070973e-01
5.384323757526618959e-01
-6.961146465975349695e-01
4.809846845169836183e-01
-1.126258992992075214e-01
-7.471420033551252615e-01
2.895162069326695509e-02
7.570350961020961833e-01
6.223245398698653563e-01
-8.748120152531602134e-01
-9.515177307469580015e-01
-2.697751281125038147e-01
8.959580569952740881e-01
6.126792651008461377e-01
-1.393336780567409061e-01
8.526283229196529589e-02
-6.826836429999929567e-01
-6.213394197543278263e-01
-3.107305247755141053e-01
-3.884937342942078597e-01
-4.654000090526040356e-01
-6.835328745090363256e-02
8.836007955460929431e-01
8.474421509856493451e-01
-5.365466644302214760e-01
-4.109041216826068155e-01
5.865539447753704838e-01
4.838168884067435283e-01
4.934505810029101713e-01
9.428031609896256882e-01
8.977981164317665463e-01
5.795680087363197508e-01
-5.909527133348126959e-01
3.007257388557815769e-01
-3.181168323745080517e-01
9.012235488524891203e-01
-9.407166426216972965e-02
3.273045430318382021e-01
-1.244965361264949166e-01
-1.305617795626021760e-01
-9.567179281255306922e-01
-7.692498159112974854e-01
4.951006935506823137e-01
2.596882310635686419e-01
2.971817501362363778e-01
2.922785996220023108e-01
9.676987936090020170e-01
-2.135804322992722604e-01
-7.565091918462543141e-01
7.364009261648012394e-01
7.931293323174619658e-01
-9.001903616880140291e-01
3.471174342638128074e-01
-4.462947989145547023e-01
3.083276293997845308e-01
-7.195862223914886169e-01
-4.583771401988612215e-01
5.798871607887052804e-01
-3.571995420040170455e-01
-5.952311804614542901e-01
-6.160262504685485307e-01
-8.370938375926630926e-01
-6.294153299137095203e-02
7.016042276874074890e-01
4.684057199723303810e-01
-3.043180753043428499e-01
3.739133233431415348e-01
6.355132503664862043e-02
7.583744215206860151e-01
3.345414858000221869e-01
-7.372531809920608303e-01
-7.257887475588074011e-01
5.406633036651959934e-01
-2.419405371110125991e-01
-2.931520632325943509e-01
6.085046376485561126e-01
6.352686249022339027e-01
9.403770338507522197e-02
-6.475248784493490284e-01
-1.520345746158799916e-01
-2.429692718385660921e-01
2.024990359961793551e-01
-7.954992450858400233e-01
8.292612944438839673e-01
7.265394590836053990e-01
1.493863062351212800e-01
-6.371187760649565934e-01
4.683706264745930437e-01
9.871899684868081781e-01
-3.506776665578044128e-01
1.386379962706414393e-01
-7.401646801220518324e-01
-2.112255518008154809e-02
-2.374946292330568642e-01
6.565025424669999055e-01
-1.188584293636496536e-01
1.416185979743516121e-01
7.795699168136789314e-01
-4.033855239587835761e-01
-7.009960137698445504e-01
3.172671139142644314e-01
-4.711578721420199845e-01
5.703352797169114474e-02
1.549868825569962194e-01
-6.549452682132130832e-01
-6.795169632339614907e-01
-8.542622807867727985e-02
-1.541106520043051820e-01
3.634032749827180719e-01
-6.202985350351135629e-01
-8.915329613326616887e-01
2.622420949739596718e-01
6.659892964897939915e-01
5.331554565689520242e-01
-8.607108640037848257e-01
-8.507111562551512574e-01
3.822760645474860830e-01
8.273869637682138567e-01
1.047038225520440236e-01
6.502617230448504149e-01
-2.509399317759821724e-01
-3.993710788469300166e-01
9.256403341846781707e-01
5.956617059018869398e-01
8.618947791625475308e-01
6.657057508747039609e-01
2.686409496010133680e-02
1.758688928573091115e-01
-2.808786445933586506e-02
-7.000011720210821409e-01
-8.560843239597104581e-01
1.089374923007682128e-01
6.365117243002644809e-01
-7.222098057657455605e-01
9.695829289089525904e-01
-5.447390396097588905e-01
8.656474952136350431e-02
-6.662375456529840978e-01
-5.144880112356371438e-01
7.853222647710083049e-01
-4.193515391626243538e-01
-8.375429117524888500e-01
-6.572385266314098029e-01
-8.985342186914140328e-01
5.820894638564646506e-01
4.766128952925530182e-01
-6.164701636853850975e-01
3.618822990240659898e-01
5.124664598713908337e-01
1.120392699723651297e-01
9.156092839082143886e-01
1.004867993376672430e-01
-3.349217184423776139e-01
7.490977972403531915e-01
1.020492591693913376e-01
3.032306638235173768e-01
1.468813283992154162e-01
8.630501608583029949e-03
-2.231487889291505766e-02
8.671034918767568378e-01
-3.497286286789544896e-01
8.384063769898795204e-01
-6.242527460651063898e-01
3.425121161005146853e-01
9.804474367804147938e-01
-1.473910858277904801e-01
-1.243677853949516354e-01
2.452554778326088147e-02
-1.235025309078685574e-02
1.935439183951026543e-01
-7.756236576279409434e-01
-4.829963043187261995e-01
4.528163696318789899e-01
4.401184390519379264e-01
1.915863187181132687e-01
6.796541847899870703e-01
3.866659849985061292e-01
7.826843732899262385e-01
-1.558943545520352636e-01
6.447963238865936919e-01
-6.356995376240111018e-01
-5.116061651277321598e-01
-8.933005702452216923e-01
1.577386238545031016e-01
9.232631066468275360e-01
-7.748288493529258414e-01
-6.024277371372861456e-01
9.701424334444217479e-01
5.963003077208730573e-01
-9.632341890560973674e-01
-4.826281506978102875e-02
2.867704487868663055e-01
9.915982506474143587e-01
3.361534374189689700e-02
4.003144359992629742e-01
-3.274269874493400678e-01
-1.479576380481062436e-01
7.972957384237722156e-01
3.516197969783376731e-01
3.178360546562666311e-01
-7.462665316912211466e-01
-1.556596231410731779e-01
7.697343892369137297e-01
6.837353654121005597e-01
4.729871734574342401e-01
7.876459529900525780e-02
-9.997531859326633796e-01
7.508725857826725747e-01
6.718360601600008586e-01
-6.572082513482879751e-01
7.321605538243582956e-01
-3.920529095201952252e-02
2.403961638951064295e-01
2.229523793876371229e-01
3.700195875451828265e-02
-6.628699447747810058e-01
7.100190885800912177e-01
-4.127456904515058866e-01
9.680758689593076394e-01
-2.543896486541870061e-01
-8.933824349962922184e-01
-9.940794084830857358e-01
8.094941044708445776e-01
2.906346537949229258e-01
-3.373041218369965399e-01
-3.980050125945042705e-01
-5.555310241402382498e-01
9.100332513616755659e-01
4.753199673375525514e-01
8.383493122782812446e-01
9.329963937039293942e-01
-9.112340742859361686e-01
9.428626742579580000e-01
-8.287353766031471114e-01
9.940962050259727345e-01
-7.292244557335727517e-01
-7.073091734622407589e-01
7.440428941606231916e-01
3.358698397329031859e-01
6.041256735515565524e-01
3.530845063399592476e-01
-3.956840253080187164e-01
9.733620674925067551e-01
-4.558543610745033892e-01
4.399798670966059699e-01
4.495751554862581489e-01
9.118420410077066052e-02
-4.040191955641185828e-01
-3.900264202147984971e-01
-1.676310188953025193e-01
-4.207929629094160351e-01
-5.875939322590593150e-01
9.335365629585032909e-01
-1.951015666539368532e-01
-3.050241063211971415e-01
-9.033765162179234753e-01
3.208594782760560982e-01
8.355765333019204988e-02
-7.709099018406184722e-01
-7.706230489048453425e-01
7.830558588553691024e-01
3.921078113287430611e-01
-1.442745326156622543e-01
7.406553981922514573e-01
1.344689528681708435e-01
5.378212420370178659e-01
8.788122098948227823e-01
-9.289767983408829810e-01
-4.666961356057466315e-01
-6.994808218586796578e-01
-3.971712383207468555e-01
5.040907631443587444e-01
2.704595569773518005e-01
4.971975007201787644e-01
-8.533346509814210279e-01
-4.160591703762082094e-01
-5.552857037622249692e-01
6.360026552893804919e-02
6.390507022979046159e-01
1.611473218822834230e-01
-4.942507678177610053e-01
-2.700948888802625625e-01
9.366147470170227418e-01
4.517814471272736387e-01
4.414947987372963567e-02
-4.747793799794801650e-01
-8.302348541605810706e-01
2.422469391382295889e-01
-3.257904794475630084e-03
-1.162648720009717973e-01
-5.555432391693344574e-01
4.532416817950843946e-01
-7.431043125401484151e-01
5.620446993654493184e-02
-6.331868544271568311e-02
3.372584900604032043e-01
-4.030741707024600995e-01
-4.573123224815556220e-02
9.799668290658798409e-01
6.975243411585729802e-02
-9.190650228286756374e-02
-6.873204095650882195e-01
-6.718388866662503567e-01
8.913915509294931816e-01
3.384171441695285054e-01
-5.236995542983977625e-01
-6.293299719904648093e-01
-3.660306399734274407e-01
-9.125352628878331540e-01
9.816618891019632809e-01
-1.273191191692875091e-01
7.320106877870524720e-01
-9.005660507825465899e-01
-8.359353993256044557e-01
3.923220776969733592e-01
-6.726663725955046580e-01
5.439938724087940436e-01
7.659355127182576606e-01
-1.149922975229475952e-01
7.580773055261835758e-02
4.360645744983553396e-01
-7.250300003606096055e-01
9.921464135406470319e-01
-9.898437999215963234e-01
7.262277324264394540e-01
7.990176458383917435e-01
-6.903021183861099974e-01
4.788378205983909730e-01
1.807299384753631166e-01
-3.030604945193531297e-01
4.450221071169004894e-01
-3.272804395324089288e-01
-1.779762566307143690e-01
2.259559006571809636e-01
6.506812335060006003e-01
2.723949571260519953e-01
-3.829785824225400148e-01
7.957687445429217910e-01
2.692779810674270635e-01
-6.877997123447268102e-01
-4.470487599593893080e-01
-4.166818373730150071e-01
-8.802089854524466350e-01
5.447760596854716031e-01
-4.741188219271001980e-01
-3.676250435152670359e-01
4.140757598584088317e-01
2.647814843416032016e-01
5.213267454484911134e-01
7.211642499254020677e-01
-5.424935724705690632e-01
-5.283436235084382204e-01
4.891547931431772245e-01
7.219827475945959083e-01
1.790064718435036006e-02
7.978047384238318163e-01
9.228563431915308701e-01
-9.963142125604511623e-01
4.453908339689338636e-01
-9.684674691313310824e-01
-3.238431721516699113e-02
-6.627427387388407087e-01
2.721362618117963983e-01
-1.541945829166997406e-01
9.165287031995117406e-01
3.988117039761285287e-01
-6.855143557827951817e-01
-7.368946089500163499e-01
9.934682100488205769e-01
4.478340231589701403e-01
-8.325293525673891359e-01
-1.149304122220062840e-01
-8.332633096531654182e-01
8.657949487002765121e-01
-7.393923631990695355e-02
-5.344143064670088261e-01
-9.985230288016089251e-01
2.894157103221164373e-01
-7.235480935941129843e-02
-6.121969320506681633e-02
-3.530812066158419693e-01
-1.294724554817108242e-01
-1.070371158763783193e-02
-4.367940912457541902e-01
-4.484247780370917980e-01
5.715484451783208186e-01
1.713711035065657029e-01
8.594209007257109789e-01
-4.521428223824421888e-01
-7.441228937148964828e-01
6.705410271135414657e-01
-2.254822935561946462e-01
8.123196357343134277e-01
-9.338538506771691949e-01
6.088321734131136864e-01
4.782643575595484364e-01
-5.353545958360146351e-01
8.975755256843880314e-01
8.301843688927341702e-01
9.333240501302655368e-01
-1.355970831774966356e-02
9.147227569378761913e-01
9.757278521481265177e-01
7.969849972812588224e-01
9.530190789100945192e-01
-7.983568238593024002e-01
-3.192054931533518936e-01
5.989276058982657691e-01
4.473272085643211771e-01
4.164529714681819428e-01
-7.684853557367925525e-01
-7.752429876420654509e-01
-1.465232873586739260e-01
-1.110686960370856902e-01
-9.989886823821687578e-01
8.060603088819640050e-02
4.968079520153079187e-02
-7.024217960671621519e-01
-7.152882736520789209e-01
7.813426119555519911e-01
2.247198484998635948e-02
-3.033425909659330788e-01
-6.141786107187729993e-01
-7.377671046896654428e-01
-9.889088502543046388e-01
-4.279506791658811427e-01
-1.910751732526141389e-01
-5.260312664779043246e-02
3.555967439778655592e-01
3.727164046078754733e-01
-1.126835405366726217e-01
9.817010451826089223e-01
6.905697127504144550e-01
4.180951041465761353e-01
-6.866208682515881900e-01
-9.792128794895602617e-01
-8.917262226405644476e-01
-2.796081971350472539e-01
-9.131923747466648145e-01
2.913364867429248939e-01
-8.886096989743230701e-01
-7.080956593069724914e-01
2.011275648850219255e-01
-4.598548917819251791e-01
-1.517726248845796544e-01
-7.044260605076422266e-01
-7.973316027238133152e-01
-4.713914278865380947e-01
-2.771451004778708871e-01
6.070635734166047737e-01
6.744715302889261466e-01
-4.503051596966731740e-01
6.543349192067891007e-01
6.177025405472336139e-02
-7.570649646464167049e-02
9.014636964760280868e-01
9.881375526396369846e-01
-8.210798577388884745e-01
-4.444198468095437171e-01
-4.624626907070812365e-01
-8.473207700251552676e-01
-8.976359475633892693e-01
4.225245673017141712e-01
4.097079640484166951e-01
-7.296728966500378721e-01
9.146184751963364334e-01
5.485968280527535601e-01
-9.908228588768612788e-01
3.732718257721587829e-01
-8.985718813611753841e-01
-9.834034998237717318e-01
-6.438342701250814315e-01
-1.932751513688444334e-01
-9.895695517595359814e-01
-2.489199250683633569e-01
4.090414322362843080e-01
-9.380858216121001902e-02
-2.142926541778575888e-01
5.975307829280531724e-01
-1.073287882768634294e-01
-2.325967557689467835e-01
5.491632612950230197e-01
-8.572990981493835427e-01
7.697267734413215656e-01
6.714166334183735430e-02
3.717681034489286329e-01
6.587698288241199407e-01
4.133916275996882828e-01
-1.296076665641066050e-02
-3.000048242971644630e-01
7.179451053501724189e-01
-7.752802567168468606e-01
-4.145374039981497560e-02
-9.169867443213064462e-02
2.810514226612614852e-01
4.848426495306510375e-01
4.510418437602199404e-01
-8.953002815093005218e-01
1.012316833023232387e-01
9.831222893309012889e-01
6.906572801539845319e-01
3.627750443357808940e-01
-6.024563068453243631e-01
4.091574673122932992e-03
5.729400389303904717e-01
-3.967751642140222579e-01
1.131082261240374809e-01
-6.786272993230979544e-02
-8.116909535228920003e-01
-2.557288811879221413e-03
-8.427780200116610221e-01
6.102524798771480352e-01
-9.915373076338185321e-02
-8.623880057853445802e-01
6.241467388444907893e-01
7.823636623024929904e-01
7.251477980670035794e-01
8.362371916722592946e-01
8.080854662315546388e-01
2.398302619960777093e-01
-1.550288140320581487e-01
2.826649871243185341e-01
1.229911016302731586e-01
5.473504110113689425e-01
2.801675096958924360e-01
-8.772851746025767117e-01
3.058917965542418127e-01
-4.512426221803471638e-01
9.780765844709433665e-01
2.359730789332803447e-01
-3.585381204521467247e-01
-1.517238968269438715e-01
-8.932643530674002630e-01
7.960878076187842822e-01
8.621348764317267044e-01
4.425908416722204031e-01
1.473453142196428090e-01
-6.558968067039325778e-01
-9.368066665683156824e-01
5.306404226891596743e-01
-9.336671490494976577e-01
1.392309596047072162e-01
-2.951359527377586112e-01
1.338124185804328015e-01
3.581775326186500408e-01
-7.491804477058428002e-01
-8.954621829766682417e-01
-3.169260667231741380e-01
5.205191827399473503e-01
-2.261899902705535315e-01
-6.245737556660162504e-01
6.799458548972858729e-01
1.689600132870539007e-02
-3.189155823795610800e-01
2.515273034025014010e-01
-5.456575356993689230e-01
1.759530325298221953e-01
5.501322977033011874e-01
8.633352388999901983e-01
-1.909159701533422737e-01
-4.643718152609244143e-02
-9.439133728415187718e-01
-1.749128841751952379e-01
-6.706415807973353793e-02
2.966732871577473230e-01
-7.552409915417501729e-02
3.211426947458428938e-01
2.981944340253623871e-01
-3.457331004396926311e-01
2.311006184004515962e-01
6.717974541125024679e-01
2.030868497626299174e-01
7.484608354360617888e-01
2.128586828027376754e-01
3.202709274801958106e-01
4.194592312569578318e-02
8.665419115984436260e-01
-3.057474013883016983e-01
-2.252894332496466756e-01
-1.268410812756490813e-01
-2.715820951518386206e-01
5.744036064048527734e-01
-2.877691443117900150e-01
2.588677400439187704e-01
-8.398313460169311018e-01
-3.335159933201472526e-01
8.986019473904227617e-01
7.062282606000382934e-01
3.802637911992807762e-01
2.132924822761599337e-01
-8.330166314451414866e-01
7.501213843472369636e-01
6.592685745940793929e-01
-8.189886040823060043e-01
1.623530980594933837e-01
4.587291653347329579e-01
2.274955396344575664e-01
-8.573500352996508145e-01
-8.157380275141998816e-01
4.283477185857333946e-01
4.498568438747683196e-01
5.082967747719300267e-01
-9.372458632445628268e-01
-9.012795780195590467e-01
3.136399457920844291e-01
7.563932562603148391e-01
-4.417905318307926432e-01
-6.732992479540453878e-01
8.994509446230922745e-01
5.254166909636370786e-01
4.358084292340778099e-01
5.255062101003082908e-02
-4.343742818111875348e-01
-5.143599217451497729e-01
-4.228078158872272674e-02
-5.464621880755844430e-01
-1.173175460213389254e-01
7.031311132484119319e-02
-1.532692114174261100e-02
-2.207786665485385047e-01
5.545554267252266190e-01
-8.358177454609962975e-01
-2.901956381546733077e-01
1.219778795999837406e-01
6.370400689158903784e-01
5.119484969080834169e-02
-6.769339508375942227e-01
-4.928213340549365551e-01
6.670405253641020771e-01
-6.342952480358017286e-01
-7.356936517418157795e-01
1.624614504106998147e-01
-6.658363109194456175e-01
-5.888540800609525228e-01
-4.974196348637236476e-01
-5.030489428917073180e-01
3.239929091878988032e-01
5.411213640136125491e-01
-2.536253896220954651e-01
-5.676702636622474873e-01
3.496130701949216046e-01
-6.635477935632783097e-01
-5.520915033830180452e-01
-4.777242660808624919e-01
-2.562322757342667678e-01
8.117598386718605230e-01
8.382329157172576650e-01
-4.188326529953501076e-01
-1.667292292562203571e-01
2.263537060731428685e-01
-8.909792992395229039e-01
-7.238168728895253423e-01
-5.645283433958314667e-01
9.120940201392166991e-01
5.899857503535406167e-01
7.089239794527955052e-01
-8.350822204321832753e-01
-3.566836465468026240e-01
-9.008455566256201585e-01
3.781617047660894571e-01
2.525832617864225416e-01
3.033806130692038305e-01
-5.325899954304813555e-02
-3.956174654521493750e-01
6.081908618377371845e-01
-4.198115913606446092e-01
-5.516157837251383089e-01
-3.878989679491626763e-01
-1.988219721073258839e-02
2.695220816198173885e-02
-7.149042865859356333e-02
3.890116125897749022e-01
-3.834205496958660309e-01
-9.149466080409416335e-01
-9.858470509777701452e-01
6.206812194151556383e-01
3.218072326133358807e-01
-9.061749321701295656e-02
9.597680391161425018e-01
6.229194784984879441e-01
-8.552959777204760528e-02
-1.800648443879933058e-01
8.075841419711622393e-01
8.045525844533651938e-01
-2.155576926598177234e-01
-8.462173931328613730e-01
1.911431136492676153e-01
5.443286500330057898e-02
8.998687999121166570e-01
-7.075591780796242070e-01
-5.251793046463260062e-01
-5.315379720601398628e-01
-5.590662344028032305e-01
8.764133089538361787e-02
-8.896108892266025858e-01
-9.600450695693520942e-01
-3.138776100338525055e-01
-9.502803842690159541e-01
-4.569833990343015184e-01
-3.907362364037907376e-01
-1.876294733489878297e-01
8.696261529545663560e-01
9.317702797100264611e-01
1.838058255314329870e-01
-1.137530775807913397e-01
-1.605353241144344967e-01
-2.279475930657004490e-01
-5.967612529232220187e-01
7.322972712193027700e-01
5.154989455535607945e-01
3.215030871310418092e-01
-4.717180482831249133e-01
-8.139771155964337090e-01
-6.225112230456761875e-01
8.005167933675501057e-01
-4.708053797445479471e-01
6.570266066630860990e-01
2.956301096721218880e-01
-5.758644195257709431e-01
-8.690919301315511714e-01
5.697224626640458034e-01
8.509381383646457131e-01
-9.410066775880776557e-01
4.096749597267719256e-01
7.751109594945271297e-02
-8.404022076534893859e-01
-2.890787930837137587e-01
7.569512597887997352e-01
-9.703308680296778288e-01
-2.849331746663614773e-01
-5.174808246587803140e-01
2.217318630673559277e-01
-2.443239871188147561e-01
-1.190520294060559703e-01
-1.477886437879709636e-01
-3.690075904471568080e-01
5.268557191027143372e-01
-4.051650336993783963e-01
-5.741936031378207517e-01
-2.739750576354265110e-01
3.328804213641451959e-01
-8.798410615729115314e-01
-7.689768379423855826e-01
3.441477173789775357e-02
2.024386681665979459e-02
-8.734767210923259917e-01
-9.438903971823939809e-01
5.090948169103914900e-01
2.579472536837128516e-01
5.641448263459665213e-01
1.370299877829010970e-01
-7.380306294858085536e-02
4.925658407964468299e-01
-5.710451762487431804e-01
1.973331302080318927e-01
3.582769933293095121e-01
-3.843886670155010066e-01
3.859059515777862881e-01
-5.869617387921266527e-01
-1.414593768494851744e-01
7.051621888174899322e-01
-7.876791689218247683e-01
-6.456481154116897603e-01
-9.002708899061759862e-01
-9.011075971737461110e-01
-8.027111307742655910e-01
9.340788470190903858e-01
3.928786202874399169e-01
4.336919824695339987e-01
1.697139382410677300e-01
-1.546698105743193885e-02
-7.629593907071550163e-01
6.503115848808449506e-01
3.029451886853982145e-01
-8.792234003911851836e-01
-8.319263122198046201e-01
3.281043115379218555e-01
1.900146009306673545e-01
7.271206154822551504e-02
9.157433761946154327e-02
-7.776198024558138577e-01
-3.309223307992084084e-01
-3.240693696147378677e-01
-1.634348432406449447e-01
-8.427612255333927216e-02
7.065612498373208261e-01
2.284902714748269226e-01
4.093591996618468620e-01
-6.667840476961655050e-01
-9.227272438404683363e-01
7.186579690498566819e-01
7.339094703938164876e-01
-1.860364704911436906e-01
-6.158267743357437318e-02
1.670657229149954404e-01
5.248044906500941575e-01
7.285267993134365572e-01
7.103277080233909579e-01
-8.956181930222011367e-01
-8.129905990940975435e-01
6.872303918727675764e-01
-1.973528587395521061e-01
9.944714026793499695e-01
-1.352247451198349548e-01
-3.894981447975092159e-01
-7.736544117108343777e-01
7.664457947362059986e-01
-5.516273827332447421e-01
5.675445725646033335e-01
6.622770465196627931e-01
3.527337664069554179e-01
4.203092075016745532e-01
-7.040789961754028159e-01
2.013420270535966061e-01
1.041812160633963646e-01
-4.176285391201151054e-01
1.674984666011969381e-01
6.712028141202739384e-01
-8.738257857810463047e-01
1.558980413236099594e-02
-1.549205858119622192e-01
-1.873427678390753304e-01
-3.885508426579185048e-01
6.744792089021529602e-01
2.576189481782038548e-01
5.246796999611127443e-01
8.104984564760775445e-01
8.669632431238305514e-03
8.249807761069285483e-01
-5.715011681289201562e-01
9.861394647643564326e-01
3.912350069028203148e-01
-1.752644216504610775e-01
3.776567101181571573e-01
-7.455588772343026971e-01
-5.431507898067982065e-01
3.385748844431959448e-01
-2.027619036454770818e-01
-5.976551539698937709e-02
-6.974303217712676251e-01
-5.156120689652705646e-01
-5.765113780122748111e-01
6.862997474791900920e-01
-9.166009892441866480e-01
8.264041502102534853e-01
-6.261229540066619581e-01
-4.318113388456368273e-01
-2.445965724593279766e-01
4.152151528030501026e-01
-9.273447908052669941e-01
-5.506927428999803809e-01
6.917578119649159252e-01
2.616521058455381077e-01
6.666510483211174343e-01
7.727715696483778984e-01
4.576516215787584940e-03
3.785856240120020200e-01
4.872308896661567967e-01
8.566663958517035660e-01
5.000909641444148956e-01
-3.163720817696629162e-01
6.826818426229837034e-01
-4.307264861267479095e-01
2.985967135172153952e-01
-3.366163713501191257e-01
-1.198830025853556691e-01
-3.953964712929878278e-01
9.929847159832680958e-01
6.906895203669214389e-01
-9.537923527884453190e-01
9.398680460849715423e-01
-8.580341544990326419e-01
-3.373467637805043218e-01
3.093624703787662966e-01
-9.027935894017229401e-01
-2.089584482107598173e-01
-2.278702795753451138e-01
-6.121045749170819228e-01
9.315502795213799203e-01
6.312054517076113314e-01
-3.923154006406512906e-01
-6.479495777913684140e-01
1.777346242318253999e-01
-1.090667120815045354e-01
7.186723323475030512e-02
-3.843581939044509177e-01
6.662121534091365316e-01
-4.265879162972563421e-01
-2.455894741838264839e-01
8.425406791354932423e-01
8.388069988299091673e-01
3.435948439992715375e-01
9.562582557905985325e-02
7.837990355249757624e-01
-9.320678374423152501e-01
2.143144926412001716e-01
-8.280788553013551656e-01
-6.661892575505579117e-02
2.069279260362570927e-01
-2.580383022385952518e-01
1.192849064767023126e-01
8.619680901157147357e-01
-1.437888565512936978e-01
-6.109365468973231295e-01
6.527988387669629855e-01
8.814871266041659492e-01
-1.149643115796261661e-02
5.963773375354890494e-01
1.199348018189523302e-01
-7.425408232908596862e-01
-7.065265805026204049e-01
-7.673018966718239131e-01
1.579462204568160555e-01
1.983205939917829230e-01
-7.264204168945647133e-01
1.925065162882924064e-01
-7.057998473334452516e-01
7.418993758708720687e-01
3.944393049397465489e-01
-7.561544800137331990e-01
-5.793950014374402713e-01
5.355119600164055527e-01
4.224368129496054447e-01
9.832677625561940804e-01
-8.849378710148163574e-01
1.175445329673217021e-01
9.532696670784490678e-01
-5.512541114227624828e-01
9.462712098449577169e-02
-8.962683714200712082e-01
5.662627922822651705e-01
-3.587007644186936961e-01
6.877728825908704380e-01
1.216957343417768289e-01
2.052637290425873839e-01
7.029792524654074892e-01
7.543320067235237403e-02
-2.863212985217740147e-01
-7.372978047732017259e-01
2.462189528097535884e-02
-3.906387174974195187e-01
-5.835557353792932833e-01
2.022409639239717283e-01
3.077774502180370408e-01
4.657408842603800725e-01
-3.332556065146945468e-01
-3.193297363161247127e-01
1.793565164684092217e-01
6.960255889622903869e-01
-5.443288084677511129e-02
2.815704976556099304e-01
-5.515109603549821493e-01
7.350545048992871422e-01
3.643425905636472617e-01
1.042022556098398667e-01
-9.254181076270102668e-01
2.818038978462460431e-01
7.626469468678851449e-01
2.651161015661642750e-01
8.588706054883250562e-01
-6.587202381915857607e-02
2.005488191932460751e-01
-4.396335975126599571e-01
-6.994179669654965181e-01
-6.440938888254479355e-01
2.549346909639125247e-01
-7.702564940478904276e-01
-6.414289158154407033e-02
-6.086377529902238237e-01
-9.155679133250778090e-01
1.245085381725692386e-01
5.055056600118057464e-01
3.859168403627721844e-02
9.639763895060740051e-01
-1.231264557369227131e-01
-3.527461288583546573e-01
-6.777802054372878970e-01
9.458653038435029803e-01
7.860921817341810502e-01
-7.874361867591992414e-01
-3.179345458379279066e-03
-8.592719282400291814e-01
-9.501433518373512133e-01
7.117030668331472132e-01
-7.063711120258711063e-01
-1.622427564147079782e-01
-1.371544426606778888e-01
3.564070773993996966e-01
4.066833561411293818e-01
3.006059361245407846e-01
-8.466753792209851248e-01
-8.358800897819229636e-01
-9.259800140578764438e-01
-7.676425484526956389e-01
1.630170451817964938e-01
7.870618543721130678e-02
8.976586262716963471e-01
7.805642662230252160e-01
-1.521758536101374126e-01
3.507371576538531599e-01
4.495645798140628369e-01
3.285168498100987655e-02
-7.190361662696798106e-01
-1.419629596103828550e-01
-3.127262028804196348e-01
-4.311129537382689669e-01
-5.297659377979635487e-02
2.371382872993743618e-02
-2.549354361577840233e-01
6.615786692510665645e-01
8.941817931617179749e-01
4.018585394207172534e-01
-1.057189101732007863e-01
2.843541628229577789e-01
3.797805668017792957e-01
4.831739484843677879e-01
2.585420599911600892e-01
-8.132033218383627471e-03
-6.336387710265094508e-01
-8.848720417252429193e-01
1.222491118210724537e-01
7.820180052292269313e-01
8.757939103040617290e-01
-7.883966199015901566e-02
3.957804550219785611e-01
-1.265449662266855402e-01
5.833876219381093353e-01
8.239782924768619399e-01
5.083488511189595549e-01
1.471863576245435734e-01
-4.684186212719951836e-01
7.551284538718205930e-01
-4.652537922148702876e-02
-9.779887864798983976e-01
-2.987398166294319424e-01
3.445405435785600101e-01
2.643698469090816072e-01
8.301458071886322898e-01
-8.897767268911365157e-01
-6.171031507989301890e-01
-5.587016982980481661e-01
-4.135898888211382296e-01
-6.624020192165869236e-01
6.035956050317912158e-01
4.940789825802234247e-01
2.161610791084238592e-01
1.611127499381703743e-02
-8.846664358557014829e-01
3.902413217352198593e-01
7.177500677375627802e-01
3.494042686533531672e-01
3.140375961183150544e-01
2.366556969282411771e-01
4.910749986907188003e-01
8.886970470052169002e-01
-3.618331018578311298e-01
-9.392744868310425321e-01
-6.639844303815316540e-01
4.590891848292255606e-01
-8.820645685938819369e-01
9.555659499140611857e-01
9.245031734891879793e-01
-6.935685661852817319e-01
-9.643704284098113533e-01
-7.101314753545533431e-01
7.669452315689437860e-01
2.577874978476293322e-01
-9.619055703656294032e-01
3.133861373708153319e-01
-9.352777908712337496e-01
6.934644029096483919e-01
-6.367176802283016634e-01
9.863055969039962179e-01
7.539923920219337994e-01
-5.822131375052213009e-01
5.117219436011399836e-01
-1.462607493115553048e-01
9.259054127636405784e-01
6.932402433986390999e-01
9.870098605172108464e-01
-1.434230301291294918e-01
3.452577851040554702e-01
3.507822999344245574e-02
7.013731864848320452e-01
1.761109579594350993e-01
-9.915594573876140849e-02
3.431158469139796718e-01
-7.453271533381997660e-01
-1.350460341295889322e-02
7.105060396288702673e-01
-9.769755672436728489e-01
1.315197428513599220e-01
-2.495787736290533410e-01
-6.685320828095557832e-01
-1.717360377743950561e-01
3.202269768578724918e-01
-6.419189907978450904e-02
4.675018539489732561e-01
-2.492754519995261653e-01
6.488010924899820786e-01
3.638271926653020572e-01
-9.439406587463561316e-02
6.313681588972837044e-01
2.291354368049220991e-01
-6.301894071187648105e-01
9.138876394129047398e-01
-1.103685372277536381e-01
6.853559066394887545e-01
5.131321960795545145e-01
-1.653897253691158920e-01
-5.656051457545083760e-01
1.136916929007680821e-01
-4.894393146808051487e-01
6.958164434808491450e-01
-7.930111205185763623e-02
-4.833014418808529999e-01
-9.333686012953741340e-01
1.222083610761137695e-01
1.317638255410891190e-01
-1.676559798765173692e-01
1.995285726202256082e-01
-7.376726119910070878e-02
7.261817726620751756e-01
2.784252168772152203e-01
3.613030462968902512e-01
9.323935059162675731e-01
-5.608291089803267848e-01
-9.453942876157992448e-01
5.209325131492288374e-01
-8.850245670303209522e-01
-7.820344513122472474e-01
-1.644824630793657594e-01
-7.651068318809763902e-01
-1.794565249839230603e-03
4.843586797066434801e-01
7.246465755360644856e-01
-9.736643283129540194e-01
9.292577778623634099e-01
4.170977909242281623e-01
4.129785587047241080e-01
5.084126422438406401e-02
3.360098042632075899e-01
-5.015542943289146294e-01
-8.340877821771959244e-01
-2.386426161329944229e-01
-3.461123365545715203e-03
2.054909629722390108e-02
1.631297385251015974e-01
7.921115154453690632e-01
4.916955719384308310e-02
8.782070612280483690e-01
2.249299617912301485e-01
3.903710393690460467e-01
-1.358626477467095306e-02
-2.295961381083870823e-01
-9.752073470488937801e-01
1.281106621245733379e-01
2.671533082237396162e-01
-3.474122016489344933e-01
1.307816213216064227e-01
5.707260403175802299e-01
8.304489024349210879e-01
-4.735069297485845485e-01
5.801671424322574211e-01
-7.678595991193193360e-01
-3.564060130947845906e-01
4.104514268548131728e-01
3.301930255531075886e-01
-5.494555715601667778e-01
8.656257844409116498e-01
2.242014894387414081e-01
7.214414960084734041e-01
5.631959727470758903e-01
-6.835446858597578057e-01
8.895914867940355464e-01
-4.429914510894450430e-01
2.091540694645441789e-01
3.246161633279276426e-01
2.942690034394623844e-02
-6.808758997292523318e-01
-5.359162309511333877e-01
2.228710592851179673e-01
-8.279986611461682688e-01
7.600767473667855434e-01
-2.936173312498286947e-01
6.783756268881684370e-01
-8.298484060484621061e-01
-8.937893582722111763e-01
-3.433156687911866900e-01
-1.168735832046967626e-01
1.817027435983766814e-01
8.399849270407189206e-01
-6.128413153169278704e-01
-4.021924777626004754e-01
-5.390611251181010033e-02
-9.483257364854160709e-01
-6.727646134557079272e-01
-9.948822852136931516e-01
-3.063097210661727132e-01
8.980293386291715585e-02
1.517620939405239788e-02
7.488684514864547559e-01
7.108907268706525784e-01
-7.700081284794684233e-01
8.909544307236587635e-01
-6.326256010583859446e-01
7.100542544125969524e-01
5.020733432060000556e-01
-4.074634240947836439e-01
7.015948798769944261e-01
5.711128122006359220e-02
-2.477066512831977985e-01
-9.771367966821169482e-01
-5.375341464244114409e-01
-7.527400185302861590e-01
1.378810290160463747e-01
-7.267796134416679710e-01
-6.602317604554548414e-01
7.180143727417900301e-01
-9.550225934342881917e-01
5.856273851710993572e-01
4.562481021453281826e-01
-3.420044298850342113e-01
8.223298111575174651e-01
-6.968060374562274895e-01
-3.942542149948247143e-01
6.776541928255046532e-01
-2.959161716725144942e-01
1.318810262231786545e-01
2.064737146180917193e-01
-6.669424012479336916e-01
-7.201307046469440643e-02
-7.368945540504527880e-01
-7.374894467308132917e-01
-4.180564926273806492e-01
2.580154552137392532e-01
-3.055202178867286733e-01
-1.418073543702966788e-01
-4.221157379928366371e-01
-4.115221518207923257e-01
-6.004180502977347622e-01
2.561525662272923221e-02
1.648060149578234324e-01
5.591586637348628930e-01
-9.289802787675334184e-01
4.274941016144537809e-01
-2.824792618640086239e-01
8.353248216990070141e-01
9.916086674786064314e-01
-9.141743757086029376e-02
8.161205779986178133e-01
7.629659763985996435e-01
6.952345766338268174e-01
-8.950069449800748256e-01
9.852749928250892353e-01
3.759836459232390737e-01
5.576797457459385932e-01
-3.161121905713322189e-01
5.533395312476732109e-01
-3.172281499713975883e-01
7.866817854669092558e-01
2.277235382623894466e-01
8.794509720800882668e-01
3.747112930194256286e-01
3.029185513656251771e-02
7.703990578967123692e-01
9.380523094843993270e-01
5.205368191997974403e-01
-8.958172886945352520e-01
9.582911118079839863e-01
7.938509524633787784e-01
6.705656465271139233e-01
2.524779990521670570e-01
1.497253579280470870e-01
-5.642882866994058944e-01
9.242711485000096872e-01
6.675779854061816287e-01
-2.206712677694391278e-01
-8.878770432645031185e-01
-4.475241185524181375e-02
-4.853239607318926563e-01
4.319249155591209366e-01
7.373489294982358278e-01
-6.451588549777653725e-02
-5.835557817956957827e-01
-4.999545685848878485e-01
-4.723714318634713027e-01
-4.165473691572523229e-01
7.119208137911061662e-01
-9.657787819232723781e-01
